96 128
39 0.00249862 -0.0025117449 0.0012112154 -0.0020599738 0.00019560139 9.984132e-05 -0.00040344932 -0.0017467024 0.003813766 0.0016375473 -0.0007314164 0.0006608032 0.0021125784 0.00022445578 0.0019156943 0.002311029 0.00035994741 0.0017945429 0.0016445928 0.00038496964 -0.00074954255 -0.0011083892 0.0016538494 0.0030695384 0.0028778708 0.0015063375 -0.0009037905 -0.0027110365 -0.0019083252 0.0017131957 -0.00061619375 -4.0572882e-05 -0.0036098778 0.0013360227 0.0015134331 -0.0036105618 0.0026853653 0.0013967839 -0.003022026 -0.001194022 0.0027632148 -0.002305194 0.0022892444 0.0035514655 0.0033444914 0.0020856678 -0.0015138214 0.002862548 0.00040947323 0.0021614283 0.001906476 -0.0018156804 0.0023586315 0.003730922 3.4626424e-05 -0.00036265017 0.0026825573 0.0021313445 -0.0021128012 0.0034859716 -0.0027484365 -1.2439264e-05 0.0036839296 0.00244841 0.002357987 -0.0031061696 -0.0035868234 -0.000485558 0.0024628788 -0.00021666668 -0.0020689748 0.0023849176 -0.001440739 -0.0030433675 0.0034431957 -0.0035407352 -0.00024426947 0.0034151988 -0.003559018 0.0004510164 -0.0037413223 0.0011668185 0.00018843863 0.0006320341 -0.0029830087 0.00085994287 0.0012422723 0.0010690739 0.0026476001 0.003069753 0.001900785 -0.002912833 0.0023514165 0.0015037984 -0.0011043322 -0.0026849222 0.0028576863 -0.0025810525 -0.0013766373 0.0036766515 0.0008930702 -0.0031044825 0.0034635735 -0.0028338367 -0.0009935413 -0.0014704341 -0.0032627117 0.00307808 0.002289388 0.0019252046 -0.0033722606 0.0014821445 0.00090596074 -0.0025895846 -0.00223862 -0.0024340418 0.00019762103 0.0028989264 0.002623967 0.0007591343 -0.00081180135 0.003561351 0.0036498602 -0.0021842264 4.0145405e-05 -0.0036077204 0.002702898 0.000525664
23 0.0028404351 -0.0037812577 -0.0024223218 -0.0015696181 0.0016285763 -2.0543787e-06 -0.0037118876 -0.0022511398 -0.0024331275 -0.0018854338 0.002724518 -0.00092140975 0.0019801315 0.0023172956 0.0017684496 0.000853345 -0.0038517646 -0.0016464884 0.0026322952 0.0035666588 0.001976587 0.0014320672 0.003286775 0.000648126 0.0027434428 -0.0023346818 0.0015833025 -0.0029398345 -0.000712202 -0.003622756 0.000783172 -0.0030573485 0.0025794283 0.0028071608 0.001554862 -5.0334447e-06 0.0026180956 0.003102365 0.0025797088 2.3561877e-05 0.002561232 0.0023768742 0.0032799388 0.0028240273 -0.003059477 -0.0001751941 0.0005018862 0.001090249 -0.0025805149 -0.00036527845 0.0035346558 0.0029554074 0.0020714402 -0.0014221551 -0.0032155958 0.0018092446 -0.0038607277 -0.0025286335 0.0010346266 -0.0029602377 0.0014974326 0.0008807624 0.0032475744 -0.0027145888 -0.0010110117 0.0020422833 0.0016214536 0.00051885407 -0.0003319415 1.3908002e-06 0.0017455961 0.0035990325 0.0018210711 -0.0029901545 -0.0037224304 0.0019544018 0.0014830073 -7.392751e-05 0.0023111515 -0.00050558825 8.8328976e-05 0.000807793 0.0014288876 -0.0009950906 -0.0016463274 0.0020339533 -0.002820999 0.0026209867 -0.0038763753 -0.0033501796 -0.0038361922 0.0017494895 0.0034556112 0.0012405475 -0.0030672776 -7.934215e-05 0.0022865296 0.00088792364 0.0007990108 0.0017720625 0.0020881977 -0.002083604 0.0016990158 0.0008293051 0.0030417924 0.0007758671 -0.0007007933 9.498615e-05 0.0029450185 -0.003311294 -0.0036494548 -0.0037996182 0.0020145678 0.0004216705 -0.00017246784 -0.003197515 0.0035578748 -0.0008268071 -0.0033893597 0.00057083735 0.00031370105 0.003504645 0.0019065331 -0.0029609378 0.0031425008 0.0026686627 0.00119847 0.0014063822
18 0.0012722103 0.001551203 -1.4608499e-05 -0.0032981336 -0.0035450126 0.0011261188 0.0009049867 0.0005622561 0.00332144 -0.0018591476 -0.002335841 8.063957e-05 0.00061767426 -0.0006769799 0.0006139802 0.0037684212 -0.0011888312 -0.0031421029 0.00057539484 0.0036435183 -0.0018587278 -0.003289721 -0.0033089758 0.0015207654 0.0009707047 -0.0022504663 -0.002134296 0.00036928974 0.003717254 0.0032397544 -0.0022317497 0.0036929485 0.002022115 -0.003058503 -0.003887943 -0.0024478275 -0.0012163745 0.0017736172 0.0026692285 -0.00073382753 0.0010329456 -0.00040685668 -0.002159745 -0.0015655711 0.0023108455 0.00016759457 -0.001723738 0.0016433427 -0.0009707496 -0.00024074002 0.00070760807 -5.510932e-05 0.0037241955 -0.0036671965 -0.0032027713 -0.0027881302 -0.00039153456 -0.003551734 -0.0017446699 0.0037662885 0.0007741818 0.003493787 -0.0013883765 -0.001793479 -0.0029420902 0.0033777491 -0.003490092 0.0012705125 -0.002973289 0.0010550414 0.0011820173 -0.0008596777 0.0028383448 0.0023406208 0.002328939 -0.0036463083 0.0036081327 -0.00027343832 0.000723521 0.0007821019 -0.0033681558 0.0036335734 0.0018489022 0.0016589694 0.0038172025 0.0026750057 -0.0009445943 -0.0007142374 -0.0019864475 0.0026197494 -0.0013947064 0.0006549402 0.0016665782 0.0006152398 0.0037904368 0.0020258506 -0.00275665 -0.0016233656 -0.0007187998 0.00016068782 -0.0015757431 0.0022991432 -0.0027909984 -0.0012467671 0.0014397807 -0.0021012947 0.0004810929 -0.000748496 0.0031736917 0.0023859935 0.0035832808 -0.0017280602 0.0025803696 -0.0006875238 -0.0018550525 0.0010547292 -0.00014444826 0.0030063745 0.0019989342 0.0036857415 -0.0033173915 -0.001979055 0.0032192154 -0.0036017 0.0032653443 0.002833926 1.8613533e-05 0.00055262155
7 0.0023608387 0.0013347699 0.0020201753 -0.001619446 0.0029092163 0.0010977592 0.003090324 -0.0038659086 -0.0013569966 -0.0008965537 -0.0020490917 0.0019287943 0.0002838743 -0.0006581264 -0.0035326104 0.0025747118 -0.002332627 0.0007747013 -0.0028723609 -0.0002886804 0.0029336961 0.0038153722 -0.0021999849 -0.0031109217 -0.0032075872 0.0011885549 0.00024072884 -0.0033703437 -0.0037607935 0.00069643656 -0.0005920437 0.001219179 -0.0026608275 -0.0034419808 0.0036056766 0.000650801 -0.003240461 -0.003407422 0.0027689035 -0.0030554289 0.00094176794 -0.002049612 -0.0010688505 -0.0029678966 0.00023716541 0.00343009 0.0031036201 -0.0020611454 0.0010985907 0.0015135149 -0.0012524442 -0.0022260828 1.4815306e-05 -0.003119542 0.00078818743 0.003057564 -0.0012241632 0.0038698022 0.0018172846 -0.0035261414 0.002414386 0.00019389877 0.0022115973 0.0028356207 -0.0029974142 0.0030119435 0.0016789162 -0.001536795 -5.7185487e-05 0.00030014815 0.003269363 0.0030381077 -0.0026703677 -0.001786016 -0.0013680774 -0.0029014377 0.002379887 -0.0023465499 -0.0032638512 0.0030953612 0.00050818705 -0.0026236174 0.0012213005 -0.0035898169 0.003464462 0.0022604547 -0.002398043 0.0007014275 4.58816e-05 -0.003630805 -0.0012091211 -0.0011611568 3.5373625e-05 -0.00013207732 0.001336259 -0.0007620584 -0.0030893604 -0.003853729 0.0030722844 -0.0009219296 0.0019861527 0.0012634574 -0.0025059422 -0.00016171842 0.00024689166 -0.0013484458 -0.0025792264 -0.0014779357 -0.0021858574 -0.0023523788 0.0007718097 0.0007805671 0.002155283 0.002806964 -0.001689097 -0.0016503042 -0.0016218855 -0.0028174778 -3.610079e-05 -0.0008316854 0.0010726289 0.0031019729 -0.0037310177 0.00029332118 0.00034849808 -0.0021888248 -0.002768349 -0.0036014162
65 -6.803262e-05 -0.0021415236 -0.0010279291 0.0036297105 1.2347649e-05 -0.0038423366 0.0024785178 -0.00013772829 -0.0013955199 0.0036750094 -0.0026309662 0.0036480096 -0.0023489576 -7.720075e-06 -0.0012251385 0.0027106642 0.0010150857 0.0014280272 0.0033356666 0.0026580894 0.0034486363 0.0028738016 -0.0009949924 -0.00080222817 0.0017876066 -0.0014762203 0.001144754 0.0011115391 -0.0022232214 0.0036005022 -0.002892417 0.00044839593 -0.0031732465 0.0035823854 -0.0017656259 0.0010948183 0.0021220194 -0.002026665 -0.0019617681 -0.0007928888 -0.0006204793 -0.00056935125 0.0034496877 0.0022633262 0.00049654144 -0.0004574721 0.0003589209 -0.00093761354 0.0014356014 -0.00068698724 0.003059891 -0.0028618423 -0.00012359166 0.00020758568 0.0024498864 0.0029227657 -0.00026405725 0.00020907717 -0.0020010846 -0.0009794355 -0.0003216357 -1.344962e-05 0.0025364957 0.0018767156 -0.00028496227 0.00046061247 -0.0034317505 0.0013112988 -0.001688858 0.0030406287 -0.0016739877 -0.0007226791 -0.0027818033 -0.0013254401 -0.0037808197 -0.001521523 -0.0022081155 0.0031316355 0.0021012716 -0.00028751025 -0.0007222658 0.0031544059 -0.0018369238 0.002856887 -0.0038974269 -0.003091094 -0.00074583944 0.0015799077 0.0018265274 -0.00282655 0.0022624983 0.002802471 0.0006609 -0.003810461 -6.529778e-05 0.0002707956 0.002279979 -0.0026700047 0.0028249326 -0.0026110474 0.0037167144 -0.0034544049 0.0015909733 -0.002978774 0.0033523943 0.0038253316 -0.0018887336 0.003726019 -0.0032805551 0.0034145864 -0.0017983493 0.0021647934 -0.0007904054 0.00086697197 -0.000530079 0.0006715141 0.002845816 -0.0022257534 -0.0023200326 0.0026747584 0.0037052222 -0.002453793 -0.00095527124 0.0032479924 -0.0033909448 0.0028096468 0.0017231455 -0.0008713889
79 -0.0018684748 0.0026968638 0.0011614589 -0.0004731369 -0.0033127675 0.0010928713 0.0022117724 -0.0038804063 -0.0031563065 -0.0021614176 0.00032257324 -0.0006302165 0.0038204847 -0.0032459116 -0.003625922 0.002408652 0.001528665 -0.00022332478 0.0013307196 -0.001982295 0.0035097091 0.0022861671 -0.0027037633 -0.0003701373 -0.0003543517 0.0029290952 0.0027282462 0.0001737522 -0.0019524122 -0.0030591283 -0.002437743 0.00016237122 -0.0013157438 0.0014748602 0.0032443355 -0.00040520856 -0.00030084752 -0.0012518626 0.0014343658 -0.0024950325 -0.0007065045 -0.0035411105 0.00058469834 -0.0028309335 0.0031102155 0.002323125 -0.0027881188 -0.002592102 0.0034392416 0.0014290436 -0.0016394411 0.0020658395 0.0031291193 -0.003363504 3.2571224e-06 0.0025770129 -0.00077351276 0.001338752 -0.0019220714 0.0011119872 -0.00096637645 -0.0028618996 -0.0028143283 0.0034573055 -0.0026989386 -0.00057157176 -0.0030813622 -0.0016680772 0.0010129052 0.00081911765 -0.00021676937 0.0034710276 -0.0009813809 0.00013678843 0.0022733149 0.001661779 0.0025769167 -0.0033564814 0.0028380852 -0.0038007319 0.0036526674 -0.002504336 -0.00082827423 0.0027218875 -0.0018844912 0.0036449628 0.0036057695 -0.0034103997 0.0025202038 -0.0031907558 0.0016948304 0.00062138826 0.0015559276 0.003719105 -0.0004913973 -0.002606467 -0.003408648 0.003055885 -0.00036449367 -0.0027456908 -0.00052264397 -0.0038269046 -0.0031029936 0.00069506007 -0.0011403925 0.0018725902 0.0035445085 0.0038269616 -0.002726406 -0.001417159 0.00081229676 -0.0036253966 -0.002114349 9.531819e-06 0.0031650239 0.0033014773 0.001982658 0.0036920558 0.0021692838 -0.0032229964 -0.0014195651 -0.0010206825 0.0027608795 0.0005026993 0.0005474014 0.0013466199 0.0015402792 -0.0024084025
70 0.0001620969 0.0024443397 0.00090689544 0.0032867054 0.0013003486 0.0009667113 -0.00055790966 0.001245988 -0.0019744753 0.0031693778 -0.003126483 0.00091290614 -0.0034773126 -0.0029421416 0.0007136468 -0.0014932781 -0.0024641373 0.0006500448 -0.0011460569 -0.00060888944 0.0011591216 -0.003058982 0.0006401112 -0.003061216 0.0015948896 0.00024841566 -0.0034397235 0.0022883038 -0.00307423 -0.003638601 -0.0033879527 -0.00204159 0.003723316 0.00075128133 0.0014688341 -0.0001931616 -0.00011520276 0.0037710343 -0.0037695558 0.0010890068 -0.0033466977 -0.0029143572 0.0026999405 0.0021549915 0.0021813803 0.0034023933 -0.002569285 0.003064304 0.002835663 0.0018453745 -0.0022999216 0.001972158 0.0009003268 -0.0030337716 -0.0032114082 0.0022121263 0.00012304806 -0.0022880957 0.00018901656 -0.0035475008 -0.0033597462 0.002329223 0.0032633645 0.0002656477 -0.00172204 -0.00094707595 0.0011795546 -0.0014851716 -0.0025780054 0.0008652666 0.000953573 -0.0007285219 -0.0037843825 -0.00078679895 0.002401226 -0.0034402672 -0.0019809115 -0.0023596105 0.0021265112 0.0031311724 0.002475243 0.00016199287 -0.0012360313 0.0023292827 -0.00038831626 0.0020720628 -0.0024529702 -0.0020021943 0.0026019306 -0.0021404396 0.0034573057 -0.0004341582 -0.0030285334 -0.0027905758 -0.0012882786 -0.0007735966 -0.0003240389 0.0015526558 -0.0017023428 -0.0024469919 0.0032269058 -0.0005107196 0.002023824 0.0025424792 -0.0027220538 0.00059731543 0.0021958086 -0.00350598 -0.0032461358 0.0025030246 -0.0014700388 0.001195371 0.0013033976 0.001278813 -0.0038420968 -0.0014528715 -0.002864077 0.001726688 0.003463261 0.0013898948 0.0007781527 9.1247304e-05 0.0007949796 0.0005038035 0.0005002174 0.0031959615 -0.0021704372 0.0030426264
22 -0.0017843022 0.00038629095 0.0034308196 -0.0033779975 -0.0026417337 -0.0026715621 0.00092695944 0.001290686 -0.0028347927 0.0007221184 -0.0019037598 0.0039042886 0.00030636453 -0.0012002304 -0.0017684243 -0.0034807352 0.0021436343 0.0038062285 -0.0011589562 -0.0015104484 -0.0010035614 0.001968833 0.0020860815 0.0029500194 0.0031113042 -0.0017739607 0.000239802 0.0015907843 -0.0035137343 0.0011088271 -0.0028193328 -0.0014772438 0.0020862876 0.00020160708 -0.0019506237 0.0025281627 0.0013141091 0.002371217 -0.0008973316 0.0017243375 0.003077409 -0.003084681 -0.0034010748 -0.0037830384 -0.0015264242 -0.0016233283 -0.0018610071 0.003354641 -0.0021457344 0.0004281239 0.0030484914 0.0019472948 0.002813588 -0.0016218958 0.0006545075 -0.0033640787 -0.0027283505 0.0024543952 0.0008354365 -0.0008780859 -0.0028285636 -0.0016635436 0.0011651856 0.003406602 0.0009922306 -0.0018840481 -0.00023510383 -0.0032103355 -0.001774127 -0.00018609442 -6.6376456e-06 0.002070311 -0.00014357596 -0.0023732793 -0.0028245996 0.003292284 -0.0031564261 0.0018380997 0.00023697737 0.0024937047 -0.002764652 0.0011767363 0.001430184 0.0037925453 0.0005653737 0.0027951354 -0.0037004377 -0.00037845297 0.0030676927 0.0010956218 0.0022794309 -0.0009525042 0.00050506834 0.0009740584 0.0036148943 -0.0033597806 0.0033137423 -0.0014551998 -0.0036635243 -0.0013941501 -0.0034750076 -0.0006387363 0.0011893105 0.0006913554 0.0011567132 0.0006650324 0.0018578704 0.003722619 0.00054595416 1.0552482e-05 0.002791084 -0.0030879825 0.0014979249 0.0017336791 -0.0019465934 -0.001229255 -0.00090843695 0.0010837701 -0.00056816096 -0.0014249816 -0.001377301 -0.0030504572 0.0014160167 -0.0002918748 0.0012884964 0.00076743856 0.00023903733 -0.0012552044
71 -0.00114975 -0.0034410588 -0.0020727755 -0.0030048457 0.0014186687 -0.0024654367 -0.0013794841 -0.0016582491 0.0023404162 0.0019988974 0.0023023568 -0.0025195207 -0.0025276232 -0.0012748375 0.0021906204 0.0006217482 -0.0031244485 0.0028348882 -0.001798632 0.0023633633 0.001482623 0.0019299862 -0.0019014133 -0.0028544343 0.0034281886 0.0010645413 -0.0033894368 0.0038359815 0.001263058 -0.0034824344 -0.00081505475 -0.00053768005 -0.0013223323 0.0018741539 0.001300519 -6.369345e-05 0.003239766 0.0006572154 -0.00088755315 0.0015300192 -0.0033670354 0.002006434 -0.0022665288 0.0033656547 -0.00017984075 0.002265116 -0.0013690448 0.003722112 -0.0030636245 -0.002888667 0.0010610747 -0.0012760252 -0.0037155182 0.0012584272 -0.0017911058 0.0026897083 0.002757009 -0.0008920668 0.0024335894 -0.0037427195 0.001173226 0.003779006 0.00289766 -0.0034367044 -0.0015883195 0.0016598204 0.0014472497 0.0010656144 -0.0014208197 -0.0024248774 -0.0025869524 0.00044178963 -0.0027011961 0.00038649613 -0.0034190367 0.0031196028 -0.0013998285 0.001478619 -0.002787338 0.0031318562 -0.0016108397 -0.0004404471 0.00036380795 0.0029852365 -0.0009732893 -0.0015869086 -0.0008016513 -0.0021155293 -0.0012309902 -0.00092441746 0.0016230214 0.00085441966 0.0025054258 -0.0020302238 0.0017603805 0.001015121 0.0024383417 -0.00075070583 -0.0005167679 -0.00053992355 -0.000772699 6.2146646e-05 0.002872131 -0.002333001 -0.0019078839 0.00097509695 -0.0031846354 4.0212576e-06 -0.0024810692 -0.0035602758 0.002441101 0.0033831235 -0.0009952297 0.0008924064 -0.0034575004 0.0018235807 0.0009060748 -0.00094144116 -0.00046801093 -0.00289262 -0.0037811294 -0.0017336548 -0.00228734 -0.0025842017 -0.0009067859 -0.00020311888 -0.0018379122 -0.0032512415
68 -0.0016886627 0.003464661 -0.0035309836 0.0015189896 -0.003683606 0.0007156266 -0.0020359699 -0.000464034 -0.0007962482 0.0013067308 0.0025860884 -0.0019366648 -0.00010171232 0.0015565046 0.0020129622 -0.0007542358 -0.003799438 -0.0033480856 0.0037155806 0.0011787078 -0.0038195527 0.0015999996 -0.001209739 0.00343113 0.0012295571 0.0033788169 -0.0026144276 0.0024311559 -0.0028788396 -0.0026095726 0.0036883147 0.0034393745 0.0014761577 0.0027081065 0.00045272114 0.0019712069 0.0021632717 -0.0032698803 0.0020151553 -0.0017212627 0.000610661 0.0011460751 -0.0006302315 -0.0007824558 -0.0035502308 0.0035347955 -0.0033304018 0.0018291052 0.0015157374 0.00025165154 -0.0006261365 0.0025616644 -0.00040291593 -0.0022241059 -0.0020501611 -0.00042939308 -0.00044239764 0.0006304194 -0.0010842542 -0.0023774079 -0.0028143679 0.0018122112 0.0004288032 -0.0022064412 0.0024020448 -0.00090588105 -0.0009097796 0.0005838442 -0.0014646704 0.0031015596 -0.0005144722 -0.00034187888 0.0021787188 0.0036238036 -0.0016543998 0.002540132 -0.002953826 -0.0035615992 0.0030406388 -0.0031778428 0.002347671 -0.0030002315 -0.0020763658 0.0029907008 0.00054340565 0.0030942163 -1.5403062e-05 -0.0032469053 -0.0023352297 0.0017696118 -1.8164754e-05 0.0022053712 0.0037382843 -0.002807849 0.0017576577 -0.0033617166 -0.0017160561 -0.00058813894 -0.0033090303 -0.00018405197 -0.00054420787 0.0034203348 -0.0005326227 0.0036921855 0.0037519445 -0.0018961832 0.0023294026 0.0031541178 -0.0026639986 0.0025975357 -0.003228372 -0.0006704647 0.003043112 0.002368193 0.003591341 -0.0028097113 0.00042140586 0.0030116672 0.00081415026 0.003597115 -0.0027757152 0.0026811734 0.0010927668 0.0017966988 -0.00016254222 -0.00011883121 0.0017819192 -6.794158e-05
43 -0.002092587 0.003671395 0.0010367375 0.00016870273 0.0031966567 0.001283537 -0.0005785528 -0.00048670985 -0.0021132922 0.0017369938 -0.0030333623 0.00275876 0.002775273 -0.0036591955 -0.0006994234 -0.0030595283 0.0017298093 -0.0026913746 -0.0020107972 -7.186177e-05 -0.0038477317 0.0019168145 -0.0033979462 -0.0033554346 5.929285e-05 0.0038124209 -0.0005592851 0.0017888146 0.0012759629 -0.0004646402 0.0013468389 -0.0026530407 -0.0028586935 0.0022626845 -0.0007748384 0.0034879148 0.0014940036 0.002814642 0.0020053182 -0.0028181286 -0.0022795189 0.0035160442 0.0004256764 0.0015719422 0.000883966 -8.1299186e-05 0.0018271072 -0.002289845 0.0017553256 0.0021115947 0.00092373183 0.0010343981 -0.0035689746 0.0019872705 0.0036184876 0.0005981685 0.003548182 0.0019562042 0.0012067226 -0.00093182374 -0.0029886353 -0.003654511 -0.0010548146 -0.0025888002 -0.0020612476 0.003560875 -0.00069494563 0.0032025066 0.0031702733 -0.0009992116 -0.0013137215 -0.0022228593 0.0037968743 -0.0020146437 -0.00067412225 0.0038396227 0.0034537956 0.0034140553 -0.00063698296 0.003288447 -0.0019775792 -0.0019925197 -0.0033236765 -0.0033264654 0.00015002169 -0.0029670487 0.0020720079 -0.0019478744 0.00094778603 -0.0019867404 -0.0025055932 0.0025771572 -0.0037497685 0.0008661886 -0.001894742 -0.0013951819 0.0012968761 0.0021239622 -0.002401267 0.0035915212 0.0036822192 -0.002071866 -0.0032728335 -0.0017806619 0.0022501345 0.0035362872 0.0021438247 0.00027117826 0.0027950392 0.000103672755 0.0039062067 -0.0015097687 -0.0017516678 0.0030487669 -0.00299703 0.003729739 0.0018411607 0.001600335 0.0028387317 -0.0021133902 0.0005290802 -0.0017533618 -0.0029195838 -0.0008982411 0.0029440757 -0.0020208808 3.4162604e-05 -0.0037085288
88 0.0026706995 -0.0023740435 -0.0032150354 -0.0021925482 0.0023564764 0.0037223226 -0.0027676572 0.002950732 0.0015722068 -0.0018026732 0.0009793232 0.0039034598 -0.002388763 0.0038342408 0.0035142407 -0.00043219374 0.00051112054 -0.0010828873 0.00066396577 0.0016933265 -0.003519535 -0.0023453124 -0.0013918437 0.0035531074 -0.0007568349 0.0034588801 -0.0016081455 0.0020609812 0.0025429844 -0.0037125756 0.0030753808 0.003031988 -0.002579432 -0.00012308461 0.00051555707 0.0005804568 0.003656342 -0.0019759154 -0.00054529496 0.00086370186 -0.0013851977 0.001416915 0.0020775707 0.0028882516 -0.0018008398 -0.0028840962 -0.0028243237 0.0038051794 -0.000603257 -0.0027643025 0.003830224 0.0026900826 0.00092043483 0.00081961905 2.094696e-06 -0.0013154431 0.0025016598 0.001759613 0.0033904335 0.0009604516 0.0015735001 -0.0036601487 -0.00016195932 0.00046362312 0.003808145 -0.0019783126 0.003354347 -0.003805275 0.00026303902 0.0008061023 -0.0015958248 -0.0029594076 0.0010301569 -0.0015612635 0.0011085799 -0.0017537585 0.0020310043 0.0003198995 0.00037692158 0.0022180222 1.01423375e-05 0.0012270224 -0.0017609173 0.002235927 -0.0031121545 4.164891e-06 -0.002416627 -0.0023853024 -0.0014073271 -0.0018807871 0.0038228296 -0.0024747308 -0.0038203073 -0.00043317338 0.0010116379 -0.002698318 -0.002770867 -0.003730193 0.0014833565 0.0024036767 0.0013037004 0.0003682998 -0.0024267538 -0.0031456125 0.0037387384 -3.3928718e-05 0.0009654781 -9.901904e-05 0.003415881 -0.0019139121 -0.0036817559 -0.00012131726 -0.0020484317 -0.0031913358 -0.0013695584 -0.0026820013 -0.0029959956 0.00089394837 -0.0013797056 -0.0035174817 0.0016309376 0.0029379074 0.0006833353 0.0032885573 -0.0029165363 0.0033662363 -0.000808356 -0.0026775205
66 -0.0037054392 -0.0035040474 0.0016749721 -0.0008357014 0.0017159386 0.0026428762 -0.0010274417 -0.0006731469 0.0019206202 -0.0027034727 0.0010040677 -0.0010930955 0.0018967197 0.0033154327 -0.0005032075 -0.002859377 -0.002386762 -0.00038149292 0.0016167007 0.0032760564 0.0029025604 0.0031590108 -0.0015279353 0.000474509 0.0002418006 0.0010742798 0.001973291 0.0016955591 -0.0011836642 -0.002468725 -0.0017904816 0.0004025961 0.0010621344 0.00375139 -0.0026141636 0.0012066772 0.0015409483 0.002928097 0.00018114912 0.0014860141 -0.0018142135 0.003232098 -0.0012743988 0.0032199195 0.0001193795 -0.001534535 -0.0024084332 0.0008840163 -0.0021899135 -0.0019561811 0.0028836448 -0.0010086712 -0.0030754393 -0.0035602273 -0.00052797137 -0.0021104442 -0.0035908092 0.0008566234 0.00084301084 0.003772491 0.00055824395 0.0034452188 0.0027671435 -0.00089395 0.0032060014 0.0020583794 0.002978117 0.0036761852 -0.0017969095 0.003524379 -0.00091892097 -0.0008525518 -0.00038282914 0.0010858973 0.00033760397 0.0029692631 -0.0006293892 -0.0010992078 0.0008131573 0.0019168757 0.002018679 -0.003574151 -0.0029652712 0.002126386 -0.0029057795 -0.0010592428 0.0024292571 0.0013684605 -0.0030739717 -0.002991995 0.0024438445 -0.0025922128 -0.0037139785 0.0023884675 -5.944555e-05 -0.0029068254 0.0029079446 0.0030800763 0.00093732576 -0.0018849235 0.0029534032 -0.00064638694 0.001926852 -0.0016750636 -0.0035763578 -0.0017348853 -0.0036144285 0.0018265776 0.0017688192 0.001140382 -0.0037669064 0.0025860206 -0.0028229014 0.00043694145 0.0013569511 -0.0017997703 -0.0012662538 0.0027339614 -0.0033277853 0.0038438067 -0.0031622532 0.0027085864 -0.0027330492 0.0029607974 -0.003200801 -0.0023488763 -0.0032402838 0.0020893118
26 -0.0030140597 0.0012488761 -0.0023877327 0.0016846742 -0.00073100475 0.0025392661 -0.0025352084 0.0028990062 0.0005898826 -0.0030988965 -0.0027156034 -0.0028938048 0.0021035166 -0.00011092078 0.00030940262 -0.0014016957 -0.00024414636 0.0014575396 -0.0023387913 0.0009621529 0.0024089753 0.0030066322 -0.0032261272 -0.0035178342 0.0032063585 0.0030613008 0.0015296839 -0.001486205 -0.0029586996 -0.0033598319 -0.0023507776 0.00378797 -0.0034304278 -0.0028266858 -0.0013606218 -0.0010988532 0.0015526323 0.002947112 0.0030649789 0.0031180512 0.0018465471 -0.0024655098 -0.0034008764 -0.00221829 -0.00035845066 0.0010946284 0.0033168073 -0.000114971896 -0.003404393 0.0013097568 0.0026199906 0.0016738777 -0.0025038964 -0.00051194493 0.001023663 -0.0022001103 -0.0026450998 -0.0016828399 -0.002046623 -0.0003959843 -0.0024281938 -0.0005757937 0.0020294643 0.0017422289 0.00298179 0.0032828194 -0.0011905315 0.0013842825 0.0006727046 -0.0036044659 0.0025764054 0.00035284314 0.0006029729 -0.002313622 -0.0037327767 -0.0033097265 0.00022782506 0.0023847187 0.0006072947 -0.00096398115 -0.0023680758 5.62181e-06 0.003769084 -0.0030065617 -0.0006576462 -0.0015251897 -0.0015259748 -0.0003400294 0.0019470603 0.0028314511 -0.00020049443 0.001397223 0.0017091625 0.0026032554 0.00016195969 0.0002652621 0.0020736735 -0.0015038807 -0.0031081615 3.0128513e-05 0.00042098065 -0.0030027868 -0.00044494998 0.0035944423 -0.0013570348 0.0021290071 0.0002638363 -0.001859322 0.0011394907 0.0021906218 0.0010585807 -0.0020266492 -0.0026018904 0.0022149943 -0.00317411 -0.000638316 0.00071912 -0.00089827 0.0031159087 0.003657208 0.00030100462 0.0021716012 0.003363732 -0.000742916 -0.001031006 0.0037852162 0.0037873928 0.0033810071
80 -0.0034717051 0.003732161 -0.003874357 -0.0022375323 -0.002458127 -0.0024850126 0.0015300967 0.003538634 -0.001829613 -0.0028790997 0.00044811395 0.001207323 0.003122615 -0.0016310256 -0.0027923256 -0.0018303958 -0.00045032878 0.0009724067 0.0019783573 -0.0007552445 0.0011668013 0.0027405552 0.0017732518 0.00179478 0.003322767 -0.0010686722 0.003600207 -0.003389224 0.0020234673 0.0001409225 -0.0034238694 0.003689506 0.0018565458 -0.0020502186 0.0016181514 -0.00016081362 0.0003443106 -0.0004474078 0.0035772698 -0.0021150457 -0.0018430171 -0.0014314216 0.0006093369 -0.003823882 0.0021171728 -0.0037508726 0.00071449997 0.0031601281 8.6394044e-05 0.0029486546 -0.0012917771 0.00061523914 9.4554176e-05 -0.00012781787 -0.0016217829 -0.0029526933 0.0018048132 -0.003031688 0.0020155923 0.00036529842 0.00025374987 0.003134951 -0.00017095807 0.0020122582 -0.000379329 0.0024804487 -0.0032848744 0.0034709636 -0.0035553754 0.0034168982 0.0010022798 -0.0037401258 0.0016615315 0.0034556712 0.0011922844 0.0010705581 0.00041200413 0.0006462381 0.0034147396 -0.002232284 -0.00013278805 0.0033914472 -0.0036686384 0.0022540218 0.003296594 -0.0002146222 -0.0022902198 -0.002714787 0.0031433308 0.0038189176 0.00011650962 0.0012376219 -0.003082175 -0.0030384678 -0.0033765654 0.0011934798 0.0012097628 -0.0025054535 -0.00024767965 0.0020168072 0.0016000547 0.0035197195 -0.0033098813 -0.00013636879 -0.0024272194 3.643514e-05 -0.0029898572 0.0032135418 -0.0018392352 0.0016982737 0.0006122428 -8.123446e-05 0.002145459 -0.0022803468 -0.00094925833 -0.0032363832 -3.3725315e-05 0.00021893877 -0.0028114533 0.0005233114 -0.0030499313 -0.0018787128 -0.0005381801 -0.0005375088 -0.0005401305 0.002341661 0.0024660379 0.0004684455
55 -0.001640405 0.0033999882 -0.0003033744 -0.0037110313 0.0027960483 -0.0019161999 -5.700804e-05 -0.0023148607 0.0037770942 0.0006904152 -0.0012973073 -0.00057486765 0.0032092861 0.0006059848 0.0036704643 -0.0014147343 -0.0015789852 0.0027407387 0.0004915728 0.0036415576 0.0026001164 0.0028878385 0.002683738 -0.0017604278 -0.003883627 0.00072643993 0.0013316981 0.0021949718 -0.0031092488 -0.0036606644 0.00039649 -0.0020331538 -0.003167432 -0.00186869 0.0033831925 0.0024253146 -0.0024221062 -0.0015095917 -0.0019202098 0.002869163 0.003612188 -0.0014079125 -0.0011350536 0.00080164085 0.00072496064 -0.0022979649 -0.003742401 -0.0016167569 0.0032974856 -0.00051489274 0.0014824943 0.0017648184 -0.00021714254 0.0011484796 -0.003432105 -0.0010212456 0.0023494328 0.0031740898 -0.0033641085 -0.0003058285 -0.00340903 0.0027915402 -0.00077222293 -0.0026228763 0.0022650824 -0.0008569839 0.0015115135 0.0016722128 -0.0027171068 -0.0018057679 0.0004809776 0.0010809817 0.0038123915 -0.00017569255 0.0013432726 -0.0005610503 -0.0038048457 0.0036809226 0.0013086554 0.0036203032 -0.003302823 -0.0015103149 0.001500362 -0.00063774525 -0.0013010704 0.0002909944 -0.0026698015 0.0006966463 -0.0024686374 -0.002512493 0.0022306766 0.0038780775 -0.0022384364 -0.0020643806 -0.0036239263 0.0019924475 0.0031588038 -0.0009948083 -0.00056813244 -0.0021643315 0.0020186338 0.0011264338 0.000930934 -0.003168663 0.0010370996 -0.00019195245 -0.00094476197 -0.00070226664 0.00046709127 -0.0016512955 0.0014384865 0.0012081148 0.0018812949 -0.00379495 0.0015379672 -0.0031370213 0.0019180824 0.0017582276 -0.0027490766 -0.0005317142 -0.0021294393 -0.0035022816 0.0019552046 0.0019781955 0.0006979644 -6.032939e-05 0.0006688113 -0.00023844377
61 -0.001243234 -0.0017555621 -0.0039032574 -0.0007136743 -0.0035724805 0.0024588935 -0.0027413624 0.00076004484 0.00065379386 0.002394009 0.00021973193 0.0027916292 -0.002346053 -0.00015505929 0.0012395936 0.0008705139 0.0018652154 -0.003053209 -0.0012499403 -0.0004741285 -0.0017970182 -0.00028510188 -0.00087102246 0.00032401667 -0.0029275285 -0.0036344244 0.00040425913 -0.000701474 -0.00019415913 -5.1423332e-05 0.002460269 0.0017794109 0.0029758725 -0.0034836032 0.001012493 0.00052912976 0.0017465362 0.0003261749 0.0033120413 -0.002643812 0.00074570073 -0.0032478906 0.0009981357 0.0012300812 0.0036941417 -0.00038434003 -0.001519755 -2.8561259e-05 -0.0014017347 -0.003062258 -0.0020704244 -0.0017579608 0.00075768423 0.003615056 -0.0024078912 0.0030160449 -0.0016087124 -0.00063242955 -0.0011021129 -0.000638667 -0.0014723801 0.0020378898 -0.00093024055 -0.003368069 0.0014913309 0.00011352157 -0.0011113968 -0.0009539958 -0.0031976746 -0.003118417 0.0028823023 -0.0036580435 -0.0026009767 -0.0033335409 0.00022798846 0.0034609286 0.0035841693 -0.0021608213 -0.0036558227 0.0022762867 -0.0032471148 -0.00018765606 -0.0034026532 0.002970396 -0.0032755726 -0.0020584334 -0.0024682134 3.5098605e-05 0.0021220027 -0.0004223541 0.001134659 4.083804e-05 0.0032691774 -0.00012937508 -0.0027994306 0.0013194801 0.0037045449 -0.0003915086 -0.001157861 -0.00346274 0.0018074936 0.0028625352 0.0012995243 -0.0021907075 0.0025273454 0.0014643577 -0.00050109264 0.00033379093 0.0019192244 -0.003011168 -0.0035571754 -0.0023348765 0.00057915575 -0.0006311566 -0.0012064665 0.0026014135 -0.0028311335 -0.0017204973 -0.00012540587 -0.0015360123 0.0035097296 0.003072516 0.0014376746 0.0022492313 0.0012598535 0.0032665152 0.001539991 -0.0024525158
87 -0.0031754663 0.0013658 -0.0037431018 0.002174349 -0.00067226373 -0.0035688048 -0.0019364463 -0.000952344 0.0033145915 0.0029956147 -0.002620677 0.0036324756 -0.0021943608 0.0020897924 -0.0031194051 0.0012762203 -4.9849714e-05 -0.0037527673 -0.0025553855 0.0030539522 0.00014614768 0.0027259262 -0.0017089704 1.4291639e-05 0.0013757356 0.003356849 0.0007504555 -0.00239479 -0.0026128485 0.002396225 0.0032655247 0.0026787834 -0.0010776077 0.0023400472 0.0028392482 0.00067694177 -0.0019373394 -0.0017951634 -0.0004837288 -0.001111442 0.0019184719 -0.0023108602 0.001538077 0.0023128511 0.00080213737 0.0031600094 -0.00016803139 0.002932704 0.001777082 -0.0021625648 0.0010621543 0.00077926886 0.00377836 0.0025865897 0.0018316865 0.0011267985 -0.0015764481 0.0015567071 -0.003524026 -0.00090096897 0.0005106262 0.0033628477 -0.0021801372 0.0032529493 -0.0013886628 -0.0032413327 0.00023048956 0.0037037814 0.001885532 0.003810942 -0.0030165664 0.0037477803 0.0005211907 -0.0016728956 0.0030597216 -0.0033633625 0.002892114 0.0021367446 -0.0028001552 0.003536922 0.00085323164 0.0033439528 0.00041241967 0.003569791 0.002249531 -0.0034629677 6.655818e-05 -0.00027112546 0.002207924 0.0033218993 0.0013358189 0.002226069 -0.0020630176 -0.002165919 -0.00033165084 -0.003853153 -0.0012223521 0.0022163212 -0.00010596469 0.003602643 0.0037570451 0.003601518 -0.0023536433 -0.00010369624 0.0022245469 -0.0016842834 -0.0032113458 0.00037036647 -0.0005535503 0.0030149145 -0.0027254769 0.0011006787 0.00023100054 0.0031872103 0.001367773 0.0031888895 -0.0031746067 -0.003366518 0.0007782821 0.0008149379 0.0015434427 -0.0031509276 0.0018034783 -0.0032838571 0.0022296493 0.0018368097 -0.0032964996 -0.0035216324
42 -0.0039044549 -0.0010410231 -0.0013028147 -0.0011790066 0.00037037066 -0.0014453729 -0.0026252936 -0.00105348 -0.002482823 0.0036580702 0.0011673793 -0.0016172497 0.0016030015 -0.0023164006 0.002488941 0.000980495 -0.0008512577 -0.0017812249 -0.0020481767 0.0014662422 -0.0036971674 -3.293496e-05 0.0035057901 0.00231112 -0.0038211662 -0.0009987185 -0.0034351998 0.0013515099 -0.0029084245 0.0037124122 -0.003827566 -5.4017535e-05 0.0035186047 -0.0007238115 -0.0035109438 0.0019745107 -0.00097003963 0.00023500717 -0.0026580389 0.0010059584 -0.0032571168 -0.0030249194 -0.0023668099 7.42087e-05 -0.0027926068 0.0016854042 -0.0019721396 0.0014407279 0.001380365 -0.0016593403 0.0018999563 -0.0012521446 -0.0027303863 0.000103433464 -0.0029816085 -0.003275877 0.0035763825 -0.0035246585 -0.00029341297 -0.00013782979 0.0035596404 -0.0004972789 0.0019367171 0.0036741581 0.0012303428 -0.0006307756 -0.0021629795 0.00068165676 -0.0021591724 0.0027753443 -0.0018380465 0.0008067002 -0.0024836503 -0.0021142878 0.00119245 0.0015800557 0.0037151321 -0.0012642399 -0.0021656863 -0.0008240174 0.0038076139 0.003551976 0.0014531527 -0.0027502913 0.0020990449 0.0036184478 0.00069428777 -0.0033904854 0.003609794 -0.0030591413 -0.00036816674 0.0038466812 0.00037775902 0.0013888817 0.0023437596 -0.0030196726 -0.001113009 0.002130779 -0.0027418796 -0.0010160893 0.0035228417 -0.003779908 -0.0031181884 -0.0027150854 0.00061521307 0.00017353099 0.0034364117 -0.003506622 -0.0031271428 0.00058049173 0.000586266 0.0033706024 -0.0005780173 0.002606322 0.002191966 -0.0028045364 -0.0021912658 0.00054532656 -0.002077865 0.0012152243 0.0033137088 0.0017173212 0.0008759939 0.003389359 0.0018822053 0.0029104298 -0.0015843438 0.0011598348
74 -0.0019341757 -0.0034770411 0.002744737 0.0038157313 -0.0008866562 -0.0021064936 0.000896522 -0.0027183574 0.0032686526 -0.00032795127 0.0021746452 -0.0011686017 0.0013096953 0.0025380144 -0.0020601242 -0.00048574441 -0.0004977556 -0.0023546356 0.002767702 0.0012591126 0.003361587 0.00042846194 -0.0029095858 -0.0023232051 -0.0026120606 -0.0014780917 0.0038828969 -0.0015127099 -0.00353348 0.00074684503 -0.0015933122 -0.0034016164 -0.00082372135 0.00016240239 -0.0021749865 0.0036722443 -0.0011938671 -0.0024000288 -0.00059772056 0.0017191516 -0.0036053506 0.0009959942 0.0019876184 0.002964204 -0.0018678944 -0.0006440502 0.003754223 0.0019184842 -0.003379231 0.0006969686 0.0030028895 0.0015330345 -0.0010351422 -0.003641768 0.0013375265 -0.0028569717 -0.00041909225 0.0026928827 0.0004199375 -0.002842385 -0.0016448454 -0.00070312753 0.002972384 -0.0011839028 0.0015035447 -0.0027275733 0.0012572891 -0.00014892181 0.0014646347 0.0021388077 -0.0007497201 0.00082917744 0.0034029267 0.0026332838 -0.003744102 0.0022609818 -0.002033739 0.0026818912 0.0021560437 -0.003605579 0.0009713798 0.00076476426 -0.0033042443 -0.0037541618 -0.0020778277 0.0017826764 0.0012058091 0.003140022 -0.0029569133 -0.002108579 -0.0031094404 0.0031878522 -0.0020062204 -0.00089175627 0.0024793404 -0.0036267093 -0.0037567916 7.6009805e-05 -0.0030460358 0.000980821 0.0022481133 -0.00073774124 -0.00014860564 0.0008238852 -0.002857386 0.0020362053 0.0027964204 0.0007487464 0.0033356284 -0.0009111837 0.0011354665 0.00033251382 -6.695913e-05 0.0038554072 -0.003281677 0.0034562014 0.0038776433 0.0021919024 0.001460355 -0.0029977034 -0.0027266906 -0.0011337292 -0.0025519412 0.00063209684 0.0033663905 0.001544321 0.0010227192 0.003336495
57 -0.0016954786 -0.00079701754 -0.00042238366 0.0018830849 0.0038656269 8.980927e-05 -0.0022396564 0.0031402903 -0.0016896694 0.003829292 -0.001605295 -0.0031308816 0.003105526 -0.0005229524 0.0031572196 0.0035459574 -0.0033909269 -0.0037186567 -0.0003154501 -0.0011709803 -0.0017941947 0.0014225285 0.00047751446 0.0021749388 -0.0010024132 -0.0036210024 0.0017816989 0.0037490411 0.001943967 -0.0017456572 -0.0021820564 6.1608545e-05 -0.0036693788 -0.00067953893 0.0028412694 0.0026072909 -0.0024386023 -0.0036604877 -0.0015044308 -0.0029214616 -0.0038034462 0.0013168874 -0.0014369001 -0.003664359 -0.0017740254 -0.0008155238 -0.0020220657 -0.0025567682 -5.854278e-05 0.0024823674 -0.0034651991 0.0022752103 0.00072116294 0.0019915565 -0.00086838804 -0.0014973208 0.0005440576 -0.0016188637 -0.00017703736 0.0020496724 0.0011209236 0.003866126 0.0011703366 -0.00042833682 0.00015985113 0.0006554499 0.0026814751 -0.00320966 -0.0035690435 -0.00019893127 -0.0012741898 -0.0031814082 -0.0020776736 0.0008285895 0.0019470539 -0.0020148235 -0.00028860712 0.0038002797 0.0037004284 -0.0016817058 -0.00047583802 -0.0015245177 -0.002303447 -0.0037321243 -0.0036190713 0.002440412 0.0037904857 0.00033427638 0.00042305197 -0.0020079915 0.002152361 0.0028031361 -0.0036372459 0.0020820585 0.0021974172 0.0038307512 0.0027546366 -0.0012247742 -0.0013849793 0.0017457312 -0.0017163206 -0.0022580032 0.0020898299 0.002935697 0.0015460346 -0.000119856224 -0.0022716457 0.0012322812 0.0036045352 0.0012445503 8.9254565e-05 -0.002327523 -0.002862619 -0.0028949627 -0.0028329683 0.0013493306 -0.0010084596 -0.0026391635 0.0007061887 0.00049286184 0.0023264147 -0.0014081264 -0.0026932778 -0.0037818428 -0.0020007915 0.0007399548 0.0023170772 -0.0016844121
17 0.00011327986 0.002160054 7.3935456e-07 -0.003267991 0.002978446 0.0024162282 0.0009343567 0.001939755 -0.0037350426 0.0023827238 -0.0012596138 0.00084407127 0.00025085293 -0.0031576282 -0.0032744128 0.0032262788 0.0021236716 -0.00084242295 0.001898812 -0.0017160401 -0.0036532672 0.0022161864 -0.003591021 0.0025820506 0.0012547554 -0.0034696928 0.00011780496 0.0034207045 0.003686364 0.0014302471 0.0021816432 0.0018307691 0.0031379748 -0.0019845674 0.0023612925 -0.0012158145 -0.0029182245 0.003835978 2.9908928e-05 0.001548941 0.0030479738 0.00070495077 0.0028508522 -0.002386263 0.0037215906 0.00023799292 -0.003589707 -0.001834351 0.0028277691 -0.00025478503 0.00011484681 0.0038140833 -0.00036131375 -0.0016337878 -0.0015124689 0.00011312993 0.0021057273 -0.0014572357 0.0035784177 -0.0037960426 -0.00043385528 -0.0025868267 -0.0022755167 0.0015403009 0.0008058755 -0.0015904391 0.0037236616 -0.00029235717 0.0026615837 -0.0022195007 0.00035347947 0.0027131788 -0.0007497729 -0.003697762 0.0026839955 -0.0003036473 0.0018377559 -0.002128245 -0.0017543653 0.0037023 0.0026918221 0.0026391537 -5.244894e-05 -0.003073604 0.0006721017 0.0038121843 -0.000898378 -0.0011991594 0.0025693295 -0.0033036943 -0.001881748 -0.00013828235 0.0036173982 -0.0002996065 -0.003670359 -0.0011780943 0.0015769217 -0.00048334905 -0.0030869106 0.0037413333 -0.0029907187 -0.00324639 0.0034730886 -0.00038728642 -0.0014562471 -0.0012212739 -0.001634366 -0.0015267843 0.0036965448 0.0004539456 -0.0004905373 0.002359967 -0.00083964516 0.0023483008 -0.003126862 4.516564e-05 0.0017709464 -0.0036101015 -0.00012451953 0.0021871014 0.0030053756 -0.0028015396 -0.0019340403 -0.00045123906 -0.00225686 0.0006718349 0.00010198598 0.0027662711
36 -0.002320988 0.00094016275 0.0019302021 0.0014833891 -0.003568607 -0.0034448355 -0.00059609656 0.0038158693 0.0039029915 0.0008080882 0.0031311326 0.000784693 0.0030805303 -0.0023468612 0.0018819808 0.0011509791 0.0006737987 -0.001381655 0.0007285454 -0.0034712825 -0.0031115483 0.0009807573 -0.0035084286 -0.0014346848 -0.0008789056 0.0017059353 -0.0031151662 0.00094720366 -0.0023222575 -0.0009687971 -0.0025376915 -0.0014057589 0.0038084725 -0.0033343185 -0.0032660693 -0.0034096057 0.0030922727 -0.0015514615 0.0028490557 -0.0017373408 -0.00022368068 0.00096426834 -0.003876836 -0.0023204924 -0.001978007 0.0015178652 -0.001962233 0.0016624272 0.00020957843 -0.0025763477 0.002942177 -0.0030494255 0.0016533156 0.0009880877 0.0024527146 -0.0018916605 -0.0028043615 -0.00015931991 -0.000474512 0.0035294062 0.0036183638 -0.0019056267 -0.0021520944 0.0012582749 -0.0021926323 -0.00048618953 0.002895649 -0.0012618775 0.0019653523 -0.0037222945 -0.0007601323 -0.0001468327 0.0014506263 -0.0031952255 0.0012657797 0.0015331451 -0.00086376857 -0.0031272708 0.0027621004 -0.00019598403 -0.0012999165 0.0037103216 -0.002900567 -0.001756146 0.00022847118 0.003545011 0.00021977966 0.0006303403 0.00047780166 0.0022598682 -0.0009560347 -0.0019021474 -0.0023134442 0.0003698017 -0.00065997057 -0.0014093346 -0.0003581975 -0.0021003955 0.002675978 0.0023586892 -0.0013517026 -0.0012245502 -0.0006077821 -0.003428013 -0.0018727039 -0.0025774597 -0.0036538593 0.003875239 0.003451153 -0.0028935985 -0.0015819003 -0.0020531379 1.5601734e-05 0.0008964754 -0.0035615354 -0.0004680358 -0.0020057992 0.0005535338 0.0016375282 0.00061845826 0.0036184166 0.0009860145 -0.0021522562 9.4282586e-05 -0.0038476523 0.0013530445 0.0034095608 -0.002312609
84 -0.0035746028 0.0028736189 -0.00342016 -0.002254453 0.0007241911 0.0038293991 -0.0029989267 0.0009342642 -0.0031806396 0.0033197007 0.003736197 -0.002564288 0.0025916577 -0.0034075791 -0.00072707684 -0.0025974694 0.0034541416 0.0012596963 0.0005278853 0.0019616066 0.0030645574 0.0019068029 -0.0030265916 -0.001671587 0.0015440986 0.0011368854 -0.0012482718 -0.0020823344 -0.0035991974 0.0003295773 0.003714019 0.003506042 -0.0033309294 -0.0024675918 0.0009898795 0.00218627 0.001071525 -0.0008132905 -0.0020014057 0.00029541066 0.0020421667 0.0032717355 -0.0021169686 0.002138247 0.003279861 -0.0014578971 0.0008957263 -0.0021872465 0.0012843278 -0.0030564063 0.0031075075 0.0017640219 -0.0038117997 -0.0023770547 -0.0012568184 -0.003070949 -0.003579786 -0.0015747241 0.002318821 0.0020620464 0.0036536646 0.0034375193 -0.002816601 -0.001532809 -0.002901452 0.002869377 -0.002595421 -0.00024797794 -0.0033559292 -0.0027589318 0.0031586557 -0.0017326988 0.0019713808 -0.0016701203 0.0012126291 0.0010090587 0.0016351317 0.0032287445 -0.0005922685 0.00093838316 -0.0020807195 -0.0025165246 -0.001512185 0.0022539427 0.0038774642 -0.0007977929 0.001214771 0.0020724684 0.002542958 -0.0021949857 0.0030986508 -0.0027133406 -0.0017461185 -0.0027661063 -0.00045103233 -0.002996502 -0.0022555504 -0.0033058142 0.0027132586 0.0028413946 -0.00082153885 0.002562351 -9.639508e-06 -0.0018200837 -0.003254056 -0.0020652458 -0.0032024626 -0.00073214306 -0.0008439271 -0.00081647903 0.00026170386 0.0037396895 -0.00017576366 -0.001207066 -0.0011793029 -0.0028800827 -0.001266888 0.0029486807 -0.0008250976 0.0030396641 0.0038766188 0.0013480388 -0.0034072811 0.0019951442 0.00013923101 -0.0027774826 0.002698766 0.0038166866
67 0.0012057928 0.0010233695 -0.0024138666 -0.0009169379 0.00032988007 5.69382e-05 -0.0030346185 -0.0012215449 0.00045149095 -0.002781184 -0.0029459356 0.0010324866 -0.0038413953 0.0015386607 -0.0033409323 -0.00049862394 -0.0006767893 0.0024909396 0.0019506514 -0.0027856415 -0.0027861544 -0.0015227434 -0.00069818035 0.0015466001 -0.0018688943 0.0024138635 0.0021336193 0.0018324541 -0.0036844648 -0.00050083024 -0.0010261845 0.0033501757 0.0012818484 0.0031001936 -0.0014083362 0.0022236588 0.0016918897 0.0038626897 0.0019825243 3.6140373e-05 -0.0026054399 -0.0010643944 -0.00034050204 -0.00024989608 -0.0014306519 0.001915881 0.0038763932 0.0033924102 0.0038437755 -0.00326142 -0.002810192 0.0017529837 -0.00013711755 -0.0006912541 -0.0002901888 0.0015939322 0.00056560396 0.0035323391 0.0037590095 0.00027897832 0.0035804906 0.0018833418 -0.0014055459 0.003473535 -0.0010869085 -0.003051245 -0.0006890621 -0.0032605657 0.0010396353 -0.0021453404 -0.0014669079 -0.0034182637 0.0014777243 -0.0001063131 0.001646774 -0.0016402303 -0.0033275427 0.0037013094 0.00073982653 -0.0024618949 -0.0019410495 -0.003521449 0.002155213 -0.00013383583 0.00045485247 0.0020492047 0.0023855038 0.0025047418 0.0012281431 -3.0388004e-05 0.0007022683 -0.0028761197 0.0023456316 -0.0018578338 0.0028271803 0.00076218066 -0.002588376 -0.002900716 0.0012921741 -0.0011487592 0.0025778094 0.0026567145 0.0009701251 0.0024626395 -0.001997405 -0.00074793544 -0.00017155506 -0.0033631243 0.001084698 0.0024755597 -0.00022632196 0.0007476479 0.0019809743 -0.0015769028 -0.0035531935 -0.002568013 -0.0013646547 0.0037981495 0.0016370354 0.0037767133 -0.0033029716 0.0031853314 -0.0016331966 -0.0016903181 0.0020278408 0.0038197732 0.0016826306 0.0003932691
19 0.0021175975 -0.0004083079 -0.0018083887 -0.0034139617 0.0034067095 0.003434964 -0.0027438607 -0.0034578084 0.0035201125 -0.0029617317 0.0025863687 -0.003873469 -0.0030911039 0.00019465704 -0.000983225 0.0005435488 -0.0012798065 -0.0035056658 0.0009440797 -0.0021257144 0.0004908457 -0.003813283 0.0002632619 -0.0031836517 0.0008752183 0.0024172207 -0.002376393 0.0034538428 0.00083287247 -0.0033503443 0.003251229 -0.0016503254 0.0018263113 0.003143458 -0.0025586006 0.002326199 0.0020627303 0.003361496 0.0020589735 -7.829534e-05 0.0013477833 0.003829327 -0.0035055545 0.0015196789 0.0008175631 0.0019628217 0.0022362496 -1.1486763e-05 0.0027679065 -0.0020329023 -0.0036553247 0.0034738476 0.0023739252 -0.00278243 0.00051806256 0.0025967509 0.0020632078 -0.0022601723 -0.0014136423 -0.0023641973 -0.0016906827 -0.0023381717 -0.0021988284 -0.0032876208 -0.0018691587 -0.0008449761 -0.0015484906 0.0016598711 0.0014804904 0.0008884884 -0.00059037475 -0.0026082308 -0.00022297837 0.0027666881 -0.0014740188 -0.0037508982 -0.0025594372 -0.0034962015 0.0014968349 -0.0005703515 -0.0035714752 0.0038180482 -0.001012279 2.7226984e-06 0.0035668376 -0.0027153285 0.003450831 -0.00066551653 -0.0028256248 -0.0035396183 0.003589504 0.0031971838 0.002490221 0.0035953987 0.0026851506 0.0018196432 -0.00014335208 -0.0014542452 0.0012833851 -0.0021758624 -0.00028595552 0.003817951 0.0035217092 -0.0027542983 -0.0011736449 0.0001450843 -0.0035575107 -0.0032509468 -0.00039646626 0.0037494022 0.0038549681 -0.0036171186 -0.0017666905 0.0035751942 -0.0032020842 -0.0036118298 0.003278654 -0.003745568 0.0036289191 -0.0012343775 0.003233967 -0.00013545224 -0.0031884008 0.00082531007 -0.0031232445 -0.0004426931 -0.00022365621 -0.0005485641
64 -0.0006697604 -0.0020635042 -0.0003874748 0.0023049142 -0.003638719 0.0017370302 -0.0019385719 -0.00097456784 0.0011119868 -0.0021801312 -0.00062548206 -0.0032783425 -0.00039656114 -0.0016177893 0.0005795557 0.0027790728 0.00234655 0.0013655348 0.0018537237 -0.0008968504 0.0027702118 -0.0019139684 -0.0021384428 -0.003704793 -0.0015215274 -0.0034808293 0.0015083242 0.003776766 -0.0006807096 0.000545077 -0.0035657955 0.0005639949 -0.003626021 -0.0010486852 -0.0026468693 0.0023018345 0.0022963274 0.003445311 0.0026503445 0.0018176705 -0.00088150176 -0.0024581791 -0.0028397639 -0.00023530812 -0.0022323404 -0.0029062433 0.0019605134 -0.0031420095 -0.0012742425 -0.0012811667 0.002626457 -0.00016838276 -0.00020922464 0.0020385669 0.0014877123 -0.0031656467 -0.00015367237 -0.0019374711 -0.0038529546 -0.0037253306 -5.2410625e-05 -0.0015260185 0.00076818065 -0.0022367851 0.00029689248 0.0031000169 -0.0020889256 0.0020528415 -0.0020677266 -0.00038667678 -0.003470916 -0.0036497891 -0.0023053705 -0.00367919 -0.0018970335 -0.002526393 -0.0035275307 -0.0017369565 -0.0028193751 0.00026351295 0.0027492878 0.0009816467 -0.003841829 -0.0020506012 0.0038160898 0.0025641224 0.003195274 0.00076184113 0.003471631 -0.0025454345 0.0003556805 0.0034917651 0.0012849971 0.003165972 -0.0037604582 -0.0036856863 0.0038187127 -0.002893384 0.0024180778 -0.001112283 0.00084995735 0.0019685251 -0.000368109 0.0019751892 0.0036335746 0.001373201 -0.00033165593 -0.0018180587 0.001420642 0.0033768946 0.0017414531 -0.0025844788 0.0020617114 0.0027938182 -0.00033203387 0.0023001716 -0.0033670398 -0.0023673908 -0.00041682727 -0.0012679044 -0.0019679905 -0.0008061108 0.0019780947 0.0036878693 -0.0017304136 -0.0019036956 0.0010353168 0.0012722831
40 -0.0008977187 -0.001526614 -0.0016747613 -0.0016190175 0.002799111 -0.0013276907 0.0026742225 0.0011861521 0.0017855761 0.0039012714 -0.0020614723 -0.0033444425 -0.0024191146 0.001171543 0.0027493772 -0.0011376445 -0.0032077902 -0.002902736 -0.0035905277 -0.0022421335 0.00069465523 -0.0011663059 0.0037518386 -0.0013889227 -0.00030741913 0.000116808034 0.0032996594 0.0010380446 0.0018657743 -0.00104389 0.0038138283 -0.00069003936 -0.0027450498 0.0029395637 0.002328422 0.0020619794 0.00010234186 -0.0024083764 -0.001145699 -0.0030837827 -0.0020536988 -0.0017647917 -0.00018486199 0.0003764437 -0.0020876373 0.0034075137 0.003408162 -0.00017571526 -0.0013377066 -0.0024536932 -0.0015495298 0.0005992227 0.0035506138 0.00065127556 -0.0016882189 0.0018026979 -0.0016632228 -0.003272209 0.0014721359 0.0030065125 -0.0026092923 0.001393369 0.0032210294 -0.0015816645 0.0032430335 -0.00027145215 0.0023616068 -0.002792756 0.0009784357 0.0026319637 0.0009138691 -0.0014744852 -0.0035223197 -0.0027817104 -0.0016566581 0.00090417074 -0.0033054897 -0.00333504 -0.0003568962 0.0019029423 -0.0025497046 -0.002716532 0.0005888297 -2.3227305e-05 -0.0019964555 -0.0019371572 0.0018374617 0.0022716436 0.0030853979 0.0037283995 -0.0017034203 0.0009967281 -0.0008786884 0.0013503187 -0.0026346508 0.0005335188 0.0029400124 -0.0010719473 0.0018451429 0.0016915456 -0.0013229647 0.00050529436 -0.0004936934 0.0020928246 0.0019083754 0.0035819511 0.0030440507 0.0032937992 0.0023943796 -0.00046418214 0.0021677066 0.00097220496 -0.003856898 0.002472699 -0.00019312088 0.0029705204 -0.0035722384 -0.00046699587 -0.0015869967 -0.0034128642 -0.00018981319 0.0005366962 -0.0011081697 0.0013963095 -0.002195482 0.0023371838 0.00053899747 0.0038447825
16 0.00048563682 0.0016723871 0.00029413382 0.00038786657 0.0009835863 0.0025436485 0.0029356603 0.0016190835 -0.0011555878 -0.0014375106 -0.0034736681 -0.00010539733 0.003747698 -0.0009741351 0.0024991517 -0.0019487065 0.0027124602 -0.0035938486 0.0034491527 -0.0017478168 0.0003225341 0.00027139043 -0.0030972206 -0.0017412546 0.0017188156 0.0035855852 0.0008417667 -0.0028506266 -0.0006275687 0.002401831 -0.0011528427 -0.0022601793 -0.00062810077 0.0038852592 0.00033730947 0.00022306223 -0.0005270644 0.001394994 0.0017275006 0.001492451 -0.0018242423 0.0027427666 -0.0038367584 -0.0012196071 -0.0035147173 -0.002033763 -0.00016032676 0.0001435036 -0.0011616047 0.0009291974 0.0017558199 0.0020029775 -0.00328656 0.00017873052 -0.00037641072 0.0009570875 0.003828939 0.00036078205 0.0029941485 -0.0006028778 0.0024541505 -0.0023420935 0.00020721664 0.002980439 0.00074515323 0.0029164779 0.0011751695 0.0009398715 0.000119894954 0.0033748033 0.0025050938 -0.00010534442 -0.0024561102 0.00096036925 0.0027375969 -0.000823191 -0.0012924614 0.0022574812 0.0022857713 0.0014739591 0.0028274746 0.0024865083 0.0016967325 0.0005651065 0.0005212565 0.0037097349 0.0038853753 -0.003188534 -0.0022517866 0.0020647459 0.003209724 -0.0028935792 0.0029680058 0.0031314804 -0.0034858827 0.0036171277 0.0036276565 0.00026548243 0.0033260046 -0.0030036985 -0.0004627404 -0.0034378427 0.0014598648 0.002178305 -0.0017711044 -0.0036054694 0.0011463764 -0.0010844186 0.000995291 0.0032110098 0.00050483656 0.0018957808 -0.0026187818 -0.003732148 0.003215018 -0.0022897467 0.0037306573 -0.0007927087 -0.0007903113 -0.0027813157 -0.00026465577 0.0023888473 0.003131128 0.00089173164 -0.0025087504 0.0038413324 -0.0035811816 0.0007075226
31 -0.0009951765 -0.003048651 -0.0013014206 0.0037845566 -0.0030904498 -0.0018246792 -0.0016634153 0.00066859095 -0.0014688034 0.0029032298 -0.003436794 0.003325566 1.2044657e-06 0.00035401664 0.0030833853 0.0025745728 0.0015903082 -0.0038211802 -0.0035236059 -0.0011915223 -0.001533149 -0.0006478097 -0.0035344358 -0.0001723594 0.0016645725 0.003087655 0.002498595 0.0031905433 -0.0014937139 0.00062217785 0.0017886384 -0.002397366 0.003165887 -4.104235e-05 0.0022835736 -0.00231284 0.001897168 0.0005789123 0.0013052085 -0.0022928757 -0.0019427056 -0.0032650782 0.002509933 -0.00091226975 -0.0007246073 0.00024982874 -0.0036038747 -0.0019694783 0.0027490158 -0.0007069826 0.00014321828 0.0016761239 -0.0009586687 0.0024315016 0.0019597483 -0.0006894779 0.0011707185 -0.0017201195 0.00032218616 -0.001142249 0.0025792238 -0.0016241507 -0.0011299645 5.0540206e-05 0.0012471741 0.0018234779 0.0033755226 0.0014769183 0.00022901516 0.0017166927 -0.0013686193 -0.00083035056 -0.00018910403 0.0024110635 0.002148113 0.00090073457 0.0027354537 -0.0028215004 0.00019143503 -0.0017364047 -0.0019091533 0.0032860918 -0.0012285573 0.0035484487 0.0018273888 -0.003710109 -0.001501236 0.001630722 0.0010074725 0.0020194873 -0.0024996854 -0.0006219315 0.00052268675 0.0037297693 -0.0029197554 0.0024832848 0.0012316304 0.0020425871 0.0018182816 -0.0013931838 0.0036961443 -0.0025799144 0.0027247306 -4.411775e-05 0.0022710236 0.0025551876 -0.003626685 0.00063973345 -0.0008651817 -0.0008667812 -0.0011498183 -0.0017762956 0.0021628155 0.0022542141 -0.0018857128 0.0035670656 0.0028673671 -0.0015519175 -0.003338316 -0.00026006097 -0.0015075143 -0.0009410223 0.0013018182 -0.00058643764 -0.0023166044 -0.0004734223 0.00345706 0.0032791852
48 -0.0015390988 -0.0024241095 0.0036181873 0.0038895144 -0.0027619572 0.0009147021 0.0027167648 -0.0028839742 0.001298908 -0.0006563935 0.0014181047 0.00056757766 0.0027511215 0.0025397723 -0.0013245639 -0.0012365186 -0.0023478605 -0.0025407078 -0.0031897617 0.0038238692 -0.0038015682 -0.0028208992 -0.00048468573 0.00052007154 -0.0011734889 -0.0011845394 -0.0004474966 -0.0011095065 -0.001767791 -0.003861095 0.0027063799 -0.0018246879 0.0003730534 -0.0033910912 -0.0017024103 1.0044473e-05 0.00018658073 -0.0019120694 0.00077186414 0.003759149 -0.0031612471 -0.0036816476 -0.003275322 -0.00014819343 -0.0028409653 -1.1582038e-05 0.00094376114 -0.0032089546 0.0026500733 0.0030560354 0.0026167694 0.0035086141 0.0038385068 -0.0024918297 0.0009829093 0.00090040325 -0.003436133 0.00050528365 -0.0014502594 -0.0026646703 -0.001826858 -0.0018314973 -0.0015436716 0.0009387607 -0.002480478 -0.001621813 -0.0025640617 -0.0009779017 0.0022032356 0.0031906567 -0.0032075327 -0.0022520812 0.0032128557 0.0010125702 -0.0015625051 0.0032931953 0.0036543887 -0.0034790016 0.003238147 -0.0011702986 0.0021415588 -0.002253722 0.0003413334 0.0009361584 0.0019454972 -0.0016212211 0.00023870893 0.0028797016 0.0030269723 -0.0023925013 -0.0022513666 -0.0034256193 -0.0014604111 0.0038458619 0.00034531814 0.00076772075 -1.7983184e-05 0.0018495863 -0.0009929508 -0.0016642333 -0.0028325743 0.0016099204 -0.0009377955 0.0015514841 0.0005996422 -0.0032879664 -0.0028861666 0.00031428254 0.0032602428 0.0031928679 -0.0017899065 0.00011990081 -0.0010011918 -0.0024917868 0.0035324565 0.0036230609 -0.00011231554 0.00063723914 -0.0011239434 0.0027698088 0.001437886 0.0032253698 -0.0023820226 -0.0038837234 0.00018980952 0.0012269039 0.0034628306 -0.0034601474
20 0.0034012822 -0.0022095973 -0.0020252576 -0.0032084147 -0.00069062505 0.0030511722 0.0036341136 -0.0021799626 0.001447754 -0.00030447077 0.0022286184 1.5340036e-05 -0.0035819302 0.0024416645 -0.0008064591 -0.0012888651 -0.00032244742 0.0032732894 0.00062597485 -0.0016425713 -0.0008534553 -0.00013401153 -0.00023501228 -0.002363111 -0.0024781146 0.0032695467 0.0011677182 -0.0017306444 0.003687988 -0.00076538284 -0.0023193741 0.0025976703 0.0037651348 0.0016601249 0.001454108 0.0036979322 0.0012584951 -0.003792139 -0.0033701614 0.0023105275 -0.00090701086 -0.0017473266 -0.00085427787 0.0037718753 -0.0023065272 -0.0032444673 0.00041687454 0.0014298218 -0.0036242676 0.0024122116 -0.00026327025 0.0033504716 -0.0011559761 0.0034361265 -0.0027793765 9.719733e-05 0.0012637901 0.0035437874 0.0033328226 0.0024585817 -0.0027839718 0.0031266534 -0.00011235179 0.0022351902 -0.0023598424 -0.0038115024 -0.0027022392 -0.0035302576 -0.0012510315 -0.00034339615 0.00051318243 -0.0013361676 -0.0005885658 -0.0010671142 -0.002395339 0.0011948803 -0.0016531551 0.0032427728 0.0030785392 0.003247062 0.0026753298 0.002250496 -0.0036707276 -0.0022737002 0.00040735916 0.0008299335 0.0036757172 0.0032024635 -0.0011916297 0.0023375286 -0.002484825 -0.003709904 -0.0006215067 -0.0032369848 -0.0017150469 -0.0005908612 -0.0018341754 0.0014463237 8.293924e-05 -0.0025317585 -0.0009795965 0.0007022506 0.0033479664 -0.000885718 -0.0029623115 -0.001197796 0.00049058284 0.0006549146 -0.0014395881 -0.001058149 0.002807117 0.000855668 0.00081717805 0.0020754538 -0.002309959 -0.0037672627 0.0027718018 0.001714145 0.0027601894 0.0011446072 -0.0021085436 0.0005174644 0.00083207636 -0.00093038724 -0.00044245672 0.0015327132 -0.0028812406 -0.00047236882
46 -0.00092228106 0.0017097667 -0.0038622466 0.0027183502 -9.2060705e-05 -0.00044026843 -0.0031794575 -0.0012144591 -0.0037169494 0.0020948837 -0.0038453506 0.0011356556 -0.0035955543 -0.0022480204 -0.0019103152 -0.0022754383 0.0023135485 -0.0034057691 -0.00070801313 -0.003497631 0.0029706908 0.0028283838 -0.0036124997 0.0010344328 -0.0018263225 -0.0024560962 8.828494e-06 0.00052479835 -0.00029570985 0.003406685 -1.0844282e-05 -0.002554934 0.003002452 0.001137947 -0.003658163 0.0006075247 0.0023682388 0.003178565 -0.0029958137 0.0027167024 -1.0445034e-06 -0.002753323 0.0023546854 -0.0013197617 0.0029481095 0.0018902121 -0.0011026829 -0.0014006346 0.0035116146 0.0021388193 -0.0021060854 0.0005963363 -0.0018670438 0.0028051361 0.002539882 0.0012623942 0.0020105806 -0.0028347145 0.0025004433 0.0026561911 -0.0020127452 -0.00012875351 0.0018717427 0.0009605748 0.0017377272 -0.0015436118 -0.0038613405 0.0038422446 -0.0014579701 -0.0015405077 0.0015761241 -0.0016283968 0.0011308555 0.0024616115 -0.00209032 0.003655411 0.002165853 -0.0017075588 -0.0021825877 0.002632617 -0.00078191515 -0.0018018992 0.0017803169 -0.00020543086 -0.0037657893 0.0023743974 -0.0023737524 0.0034183029 0.00046834134 -0.0013195764 -0.0006873863 -0.0021132233 -0.003444445 -0.0033307744 0.0025571804 0.0027624583 0.0005437033 0.0020690353 -0.000118040225 -0.0016406387 -0.0024539898 0.0012438982 0.0026166479 0.0014689456 0.0024647398 -0.0011734627 0.0028083571 0.0007102212 0.0035699115 0.0016728869 -0.003694656 0.0030632766 0.0003420332 -0.00077898323 -0.0010874755 0.0016072448 0.00034266672 0.00090099714 -0.0015329247 -0.003279522 -0.0008882295 0.0021024563 0.0024840005 -0.0027839048 0.0034948578 -0.0007368416 0.0007809761 0.00039491567
86 -0.00027746818 0.0016487127 -0.0021595778 0.0012367961 -0.0025972375 0.00071602187 0.0022197634 -0.003015603 -0.0010394354 -0.0028976754 0.0010277225 -0.0022803524 -0.0002776946 -0.00092554424 -0.0013848979 -0.0015516216 -0.0013501628 -0.00040817168 -0.0010378567 0.0013332503 -0.0023504207 -0.00022396042 -0.0021793058 0.003176994 -0.0034306473 -0.00027445768 0.0025890162 -0.0022663984 0.0036399204 0.00029585834 0.0036644798 -0.0017912969 0.0026193159 -0.0035757073 0.0011080009 0.0012295935 0.0015219421 -0.00013940457 -0.0025393537 0.0029408366 -0.0022420585 0.0037562142 0.001530029 0.003319067 0.00063281984 -0.003303816 5.652367e-06 0.0026145994 0.0025900938 -0.0002853799 -0.00065302383 -0.0002608524 0.0006272177 0.0033086322 -0.0018607257 0.0025220376 -0.003233961 0.003286348 -0.0028098936 -0.002016794 -0.00026050617 0.0018035476 -0.000848454 -0.0005620758 0.0027119855 -6.551947e-05 0.0022740634 0.0033551937 0.00079425063 -0.0037099356 0.0029749973 -0.0019919097 0.0014667284 0.0028393795 -0.00058880163 0.0022064748 -0.0025616258 0.0029650792 0.0023160912 -0.0038022723 -0.0014045504 0.00064441 -0.0022486788 -0.003100455 0.002334392 0.0022931402 0.002208792 0.0016413608 0.00015430672 0.0026344084 -0.0011091838 0.0005194814 -0.00028800266 0.0011497702 0.0005575454 0.0008926828 -0.0013189936 -0.0012657546 -0.00016632033 0.00013500547 0.0037205273 -0.003359108 -0.0010949111 -0.0004817571 0.002530865 -0.00034723015 0.00021403375 0.002403539 0.002435674 -0.0031986334 0.0007979864 -0.002167761 0.0023800472 0.0011550703 0.0037320459 -0.0038410758 -0.0015766174 0.0014131297 -0.00012622646 0.0027926834 0.00062936335 -0.0008990353 -0.0033191063 -0.0024973315 -0.0011604805 -0.001624008 -0.00020545741 -4.762937e-05
32 0.002317835 0.00035350872 -0.00011154008 0.0007633585 0.002832288 0.0011213716 -0.0016664781 0.001176205 0.00045960495 -0.0038227404 -0.00071308436 0.0015700767 0.0014457873 0.003409367 -0.0014322572 -0.00076238776 -0.003210709 0.0027441024 0.003457451 -0.00026219158 0.0018089967 -0.0022882344 -0.001397795 -0.0029301974 0.001214092 0.0011767652 -0.0005627934 -0.00049282186 0.0010780783 0.0037567702 0.0022745817 -0.0036967737 -0.0022988713 -0.0028940719 -0.003248088 0.0027529686 -0.0014854668 0.00011378534 -0.0022522698 0.0014313775 -0.0024428135 0.00310455 -0.0008568435 0.0019510922 0.0032750953 -0.0009141773 0.0019277876 0.0016370224 -0.0033328338 -0.001101296 -0.0005968925 0.003742941 0.0021136538 0.0006981326 0.0010658299 -0.001721347 -0.001516072 0.0036128284 -0.0017064712 0.0010199267 0.0015223315 0.0025327678 0.0012005204 -0.0031687554 0.0012130975 -0.0017283866 0.0016398056 -0.0019847788 0.0036630316 0.00015621919 -0.0017571829 0.0038715876 1.3100745e-05 0.0013114978 -0.0018001298 -0.0019454155 -0.0036713597 0.0037108317 0.00018081586 -0.0026933951 -0.003106371 -0.002666468 -0.0030539036 0.00073901715 -0.0029864546 0.0029257115 -0.00074705534 0.0022014047 -0.0020898886 0.00018975028 -0.0018759037 0.0006843881 0.0024310534 0.00068491406 -0.0026514167 -0.0034658602 -0.0014057414 0.0033098287 0.0027306709 0.0012734154 -0.0021826322 -0.0035613843 -0.0024728992 -0.0027612096 0.0010576895 -0.0023524074 0.0015262193 0.00040876385 -0.0037884526 -0.0021461656 -0.0022687204 -0.0039053168 -0.001574444 -0.00133858 -0.0006943329 -0.00163681 0.0003477186 -0.0024225865 0.0028571275 -0.00083337055 -0.0027455376 -0.003814531 0.0007682925 -0.0026207394 -0.0018458504 -0.00014501557 0.0011808893 0.0012515474
47 0.0034704586 0.0024992775 -0.0032857964 -0.0037667723 0.00030791035 0.0033249608 -0.0022039951 -0.0030574456 0.0004065235 0.0035619705 -0.0018358501 0.0007714203 0.00093547895 0.0020886706 0.0037736497 -0.0010600827 0.0017627694 0.001333705 -0.0014539323 -0.0019720492 -0.0023436192 -4.705871e-05 0.0020624523 0.0038707673 -2.4812485e-05 -0.0011867023 -0.00087914726 -0.0037545802 0.0026951474 -0.002755005 0.0005385783 5.3168365e-05 -0.0027993566 0.0027981843 -0.00093933765 0.0004369847 0.001433665 0.00023373954 -0.0026170304 0.00020291503 0.0010296569 0.0029128368 0.0003637807 0.0030836817 0.0034895248 -0.0031310855 -0.001979131 0.0019597297 -0.0036439921 0.0026284133 -0.003067649 0.0024948504 -0.0015261371 -0.00018432956 -0.0018166795 -0.0027174377 -0.0036131926 -0.0026748383 0.0014134968 -0.003511756 0.0014163747 -0.0025495545 -0.0014388402 0.002838045 0.00059797574 -0.0023957454 0.00051447476 -0.0035156803 -0.003650102 -0.0005008847 0.0013418243 -0.0022507773 -0.0027285581 -0.00011815012 0.0013373904 0.003310933 0.00032216476 -0.0011080401 -0.0014354013 0.0007166754 -0.00069124316 0.0016142139 0.00086229766 -0.00033765854 0.0027705655 -0.0004722833 -0.0013582652 -0.00066320266 -0.00051611086 -0.0019433964 -0.002797266 0.0012970058 -4.250747e-05 0.0028642525 0.0019191368 -0.0029244456 0.0010154443 -0.0035357734 -0.001321278 0.002424002 -0.0021787751 0.000894659 -0.0033882526 0.0024937429 0.0037595346 0.00017612957 0.0024441238 -0.0026261657 0.003605518 0.0014276289 0.0012682668 -0.003047333 -0.0032640342 -0.00063344423 -0.0004919484 -0.0014700509 -0.0030940322 -0.003872746 0.0009739479 -0.0038123531 0.00034741257 -0.0039058446 -0.0010031598 0.0015539849 0.0009033754 -0.0014904609 -0.0026509087 0.0038541935
90 0.0010092376 0.00033285725 -0.0028608835 0.0031308918 -0.0003172824 0.0026075637 -0.0031583894 0.00092965754 0.00036396977 0.0009293723 0.0038451152 0.0029192842 -0.0018701076 -0.003348631 0.0029903522 -0.002985619 -0.00088172586 0.00241363 0.0025096827 -0.0034535143 0.0026522633 0.00076754886 -0.0011521496 -0.0022001008 0.0036013203 0.002956959 0.0011261044 -0.0013344517 0.0015982855 -0.0013039825 0.0009131066 0.001434735 0.0035155914 0.00081287324 0.0021520508 0.0029349907 -0.0012380615 0.0021641103 0.0020205 -0.0008518763 0.00032756018 -0.0017157813 -7.37954e-05 0.00092716404 -0.0006138098 0.0037402296 -0.0037837443 0.003577574 -0.0028826536 0.0019387102 -0.0003081498 -0.0014591363 0.00061839796 -0.0015150488 -0.0023516105 0.0019676434 0.00095474604 -0.0031232124 0.0011127213 -0.003101377 -0.0018578307 -0.0022290135 0.0012629139 0.0016878017 -0.0026030948 -0.0014479569 -0.00061885465 -0.0037349248 0.0005910704 -0.002024228 0.002158883 -0.0015377488 0.0025669814 -0.0010402057 -0.0008419057 -0.0022097144 -0.0019967093 -0.0014966442 -0.002579095 -0.00030342047 -0.00070730934 0.000933899 -0.0024330802 -0.0010180892 -0.0006776699 -0.0038051947 -0.0007303075 -0.0027766079 0.0019619619 -0.00072020805 -0.0020172463 0.0019673088 -0.00030278479 0.0023256813 -0.0010214564 -0.00042710037 0.0010956287 0.0011113207 0.0017784407 0.0008437583 -0.0033943078 0.0011689689 -0.0036818252 0.0039054 -0.0009279736 -0.00033683545 0.0005952819 0.0022830348 0.0027383994 0.0033291583 -0.0012133268 -0.00059838564 -0.00032242318 1.2718774e-05 0.0019210632 -0.0021368244 -0.001822436 7.493315e-05 0.0027736416 -0.0032577268 0.0031764675 1.1773857e-05 -0.0014007682 -0.0015487373 0.0004768824 -0.0021319482 0.0031795914 -0.0033702054
72 0.0021361997 -0.0032392796 -0.002188369 -0.0012792501 -0.0017675166 0.0018745782 0.0017349963 0.0032707064 0.00070499885 0.0012114523 -0.0035451006 0.0019900412 0.00020305306 -0.00019270343 -0.0020730267 0.0006306794 0.00036302418 0.001248424 -0.0011875336 0.0005434942 -0.0033100706 -0.00041635538 0.0025502357 -0.0035090286 -0.0023721731 0.0034380134 0.0018418554 -0.002652236 -0.00176073 0.0032525305 0.00091560645 0.000414436 0.00043398677 -0.002119554 -0.0028774021 0.0018561368 0.0010671976 -0.0003282343 -0.0031891603 0.002130343 0.0023789986 -0.0025596428 8.9148256e-05 -0.0031570417 -0.00047893365 0.0031521635 0.0005914537 -0.0028184613 -0.0002848871 0.003152494 -0.00019952185 2.9012444e-05 0.0020726328 -0.00058575097 0.0010992725 -0.0012831171 -0.0029357644 -0.003619901 9.85007e-05 0.0006511072 0.0038816172 -0.0008808704 -0.0019256079 -0.0007072008 0.0013462268 0.0010293435 0.0031543318 -0.0012081916 0.0032296716 -0.0032219503 -0.0008631375 0.0013453545 0.003450184 0.002000908 -0.002781399 0.0023460449 0.00057424244 0.00042190345 0.0007950886 -0.00023603697 0.0034764085 0.0018340033 0.0022895506 -0.0025526956 0.000991913 -0.0021984533 -0.0012714197 0.0036374435 0.0038441275 -0.0019087085 0.00094933354 -0.0016057055 -0.0038431492 -0.001363731 0.002694769 0.0014308138 0.0020248997 0.0026905148 -0.0019359711 0.0002956265 -0.00018618765 0.0018929276 -0.0016855169 0.0022846307 -0.003256507 -0.0032548665 0.00048910663 -0.00016734148 0.0006741117 -0.00296831 0.0008753338 0.00037156176 -0.0023662178 0.0037067814 0.003293363 0.0005280597 0.0013599758 -0.0016824193 0.0012405486 0.0011613661 -0.0036854602 0.00094841357 -0.0025423064 0.0031361585 -0.0025902393 0.00063606363 -0.0033211203 0.0034262673
4 -0.0010689872 -0.0007057246 -0.0024529065 0.0012595648 -0.0006346009 0.00310673 -0.0012593744 -0.002110261 -0.0018362027 0.002863486 0.00253872 -0.003111376 0.002190224 0.0037764644 0.0036893245 0.002945045 -0.00040269643 0.0006381158 0.0029725505 -0.0016683314 -0.0016633151 -0.0027908338 0.0017866646 -0.0032100857 0.0022311865 -0.0034312517 0.0010021675 0.0014792823 -0.002347821 -0.0028119977 -0.0009830802 0.0010565462 -0.0015802466 0.0020462559 -0.00028674613 -0.00023576233 -0.00037499715 -0.0027887793 -0.0015351727 -0.002031534 0.0026527403 0.0026991323 -0.0014109173 0.001176616 0.00074742374 0.0036739293 -0.00071912736 -0.0036364289 0.0014361709 0.0028068689 0.0025850576 -0.0003733773 0.002576611 -0.0016878122 -0.00079811446 -0.0019051015 0.0031381794 -0.00081295246 -0.00054601027 -0.002652337 -0.0011573678 -0.00040926517 -0.0015070811 -0.0026881201 0.0025265634 0.0020475895 0.0006420896 -0.0026604626 -0.0018058353 -0.0027781331 0.001540874 0.0012572074 0.0031099166 0.0022896486 0.00071617134 0.0015354927 0.0005113502 -0.0008939649 -0.0003557173 0.0038277782 -0.0027503865 0.0026278468 -0.0017545085 -0.00307621 0.0031026667 -0.0012077271 -0.00349349 0.002910611 0.0020496533 0.0008586337 0.0030084471 0.0025084256 0.00282188 0.0036109947 -0.003468662 -0.00044482213 -0.0017344006 -0.0020226233 -0.0004381114 -0.0028372568 -0.0030975149 -0.0005424049 -0.0035841889 0.0014293853 0.0021004714 -0.002511277 0.0033534917 -0.0022660114 -0.0035891419 7.011831e-05 -0.0024869463 -0.002161239 0.0036949606 -0.002491478 -0.0032267726 0.0030486707 0.00034668794 0.0038933782 0.0003466499 -0.0002496762 -0.0015427483 7.3344694e-05 0.0021206066 -0.0014466981 0.0030627258 0.0015699317 -0.0028334465 -0.003843339
83 -0.0027378604 -0.0036291466 0.0016722521 -0.0009389808 0.0011521276 -0.0038466079 0.00018721323 0.002654648 -0.002892779 -0.0013213188 -0.0020181513 -0.0036537498 -0.00087178487 0.0009192745 -0.0028310674 0.0030482064 -0.00078856596 0.00062444975 -0.0024605906 -0.0012023938 -0.0019546016 -0.00048182544 -0.0015110746 -0.0013553953 -0.0025015145 0.0027055258 0.0023550445 0.002882637 0.0012739022 0.0009928327 0.00020149366 -0.00014413873 -0.00058144366 0.0017479234 0.00055056677 -0.00367262 -0.0005919306 -0.0012667456 0.0001730777 0.00059899426 0.0025150676 0.0036721104 0.003137656 0.0021570574 -0.0032440347 -0.0034150893 0.002348363 -0.0037892237 -0.001194827 -0.001947649 0.0026150106 -0.0017395916 -0.0033966855 0.0037069048 0.0024532776 -0.002539965 -0.002736304 0.0029571485 -0.0030758874 0.0013925702 -0.003823315 -0.002981604 -0.0020898257 -0.00040005567 -0.0007018679 7.648132e-05 -0.00087487017 0.0015408715 0.0022411617 0.0031125194 -0.0004927014 -0.0036186615 -0.00032979556 0.0010402745 0.0014107372 0.0019455135 -0.0020981117 0.000395387 0.0023941277 0.0034547101 -0.00078483816 0.0012865588 0.001620499 -0.0026670839 0.001285327 -0.0033538656 0.0033614063 0.0025205151 0.0017240469 0.0029743768 -0.0020600474 0.0021474916 0.0034758586 0.0024631007 0.00045082645 0.0035332127 -0.0002913774 0.0013090303 0.000110671645 -3.1853135e-05 -0.00280173 0.0006623178 0.0005575809 -0.0026800553 0.000106917105 -0.0021155786 -2.469306e-05 0.0020250033 -0.0017204891 -0.0015716478 0.0027405834 -0.00020418125 0.0011435257 -0.001076563 0.00059056235 -0.00089075963 -0.0033568589 -0.0021605068 -0.00010068241 0.002376478 0.0028340057 -0.0032516639 -0.001049084 -0.0016156517 0.001977551 0.0023842333 -0.0024471472 -0.003590369
56 -0.00061744644 0.0012889227 -0.0005622439 0.0038619891 -0.0002830493 0.0003324872 0.0019989698 -0.0032308397 -0.0017498027 0.00029034243 -0.0035075666 0.002689525 0.0011698633 0.001966663 -0.0002598311 -0.00077395444 -0.0002287488 0.00012410754 0.003782189 0.0036230588 0.0024321526 -0.00013875753 5.492971e-06 -3.249576e-06 0.0023547995 0.0020986625 -0.00084221415 0.0011511237 -0.00058243977 0.0025036368 -0.00071145024 0.0024086547 -0.0038022513 0.0031957508 0.0011274458 -0.00016494674 0.0032279359 0.0031276147 0.0030429338 0.0017089258 -0.0017430986 0.003085352 0.0022737016 -4.8698206e-05 0.0024167222 0.0018936731 -0.0018080806 -0.00019405011 0.0007545619 0.0029212057 0.001225533 0.0030070762 0.0019373589 -0.001124412 0.0037124697 0.0026639916 0.0023209369 0.0036132862 0.0022135584 0.0009246031 0.0011979648 -0.0013855424 -0.0020805846 -0.0005784854 0.0018800574 0.0017808637 -0.001613112 0.0015722595 0.0029890905 0.00277288 0.00046184965 -0.0018720434 -0.00045065218 -0.0008289914 0.0010193302 -0.003745015 -0.0031423827 0.00078594196 0.00089874363 -0.0032142424 -0.0012578091 0.0023004615 0.0010075208 0.0018765659 -0.0035126265 0.0028193328 0.0013890709 -0.001049403 -0.0019619775 0.00038628414 0.00097101205 0.003742344 -0.0007626987 -0.00331867 -0.0037930883 0.00073711266 -0.0029954223 -0.0001500179 0.0033799815 -0.0011084136 -0.003689272 -0.002676576 -0.0023279383 0.0020116963 0.0017433476 -0.001534948 -0.003533207 0.0017731438 0.00038217928 -0.00029302223 0.00041889353 0.0017921476 -0.00016874328 1.3753795e-05 -0.0032463055 0.0029716769 -0.0012390211 -0.0024525772 -0.0011834612 -0.0012695637 0.0022382038 0.0022117472 -0.0035566173 0.0018110276 0.003895089 0.0010745712 0.0027593349 0.0033330224
95 -0.0023896382 -0.0001594847 0.0035897153 0.003669963 0.003699654 0.0010520308 0.0019255817 0.0037601641 -0.0015777351 0.0037522998 0.0027605628 -0.0031866166 0.00056647346 0.0016946243 -0.003310336 -0.002383442 -0.002177292 0.0035540564 -0.003850939 0.0025951923 0.0018798516 0.002057037 0.0011093334 0.0009517166 0.00034710974 -0.0019196987 -0.00055920973 0.0027622862 -0.0011689985 0.0027332406 0.0031564427 -0.0035609019 0.0034598662 0.000544578 0.0026104527 -0.00052856095 -0.0024963587 -0.0037692108 0.0030064678 -0.0015602798 0.002517235 -0.002885987 0.002130561 0.0032214634 0.0028098554 0.0007290778 0.0029513391 0.003140269 -0.0034837483 -0.00064329524 0.0022766218 0.0032387222 -0.00087825966 0.00022172561 -0.0028417087 0.0033429086 0.0003197445 -0.0038302804 0.0034944422 -0.00016633321 0.0018534422 0.0037300498 -0.002320604 -0.0033841254 -0.002165609 8.715505e-06 -0.0003278084 0.0027904457 -0.0030516216 -0.0015489815 0.0038769187 -0.0025386899 0.00055120763 0.0009767205 -0.0027434346 -0.0027914473 0.0014773352 0.0015441417 0.000100537116 -0.0030708143 0.003395777 0.0002689722 -0.00292669 -0.001730765 -0.0012112649 0.0036151588 -0.00032726122 -0.00026803254 -0.0025262637 -0.0026625546 0.0013557222 -0.0015285556 0.0036527968 -0.0012745729 -0.002309525 -0.0012617812 -0.0009587332 -0.0008634141 0.0003228847 0.003033915 -0.0034292184 0.0006550518 0.0036292686 0.0024970195 -4.20499e-05 -0.0030874554 0.00197619 -0.0014316805 0.0007082711 -0.0006925984 -0.0016926188 -0.0011516217 -0.0032098212 -1.8370309e-05 0.0024950504 0.0037300638 -0.0037564666 -0.0025129875 0.0033757635 -0.0010494074 0.0024045904 -0.0017866776 -0.00051684474 -0.00016693224 -0.00034344438 -0.0029199242 0.0038532515 -0.0020168093
24 0.0008294977 0.0005695281 -0.0009770461 -0.0032553058 0.0018106591 -0.0024204305 -0.0012398218 -0.0028495651 0.00050594535 0.0002004563 -0.00012598532 0.0019342054 -0.002120798 -3.8502687e-05 0.0037644661 0.0018780252 -0.0034438823 -0.003547315 0.0018799129 -0.0031315547 -0.00024866997 -0.0037710594 -0.0034706208 0.0008215643 -0.0014395333 0.0017038463 -0.00017762028 -0.00011702835 0.003844441 -0.0009286903 0.0010309531 -0.0037157203 0.003003606 0.00011078233 0.0032270108 -0.0015251354 0.0011538969 0.0019249412 0.0024116677 -0.0010400852 0.001586557 -0.0021611778 -0.0014328813 0.0008784751 0.00057212444 0.0012396055 -0.0010423107 0.0010680575 -0.0025663257 -0.002662838 -4.266074e-05 0.0033606784 3.5794642e-06 -0.0023454884 -0.0006820886 -0.0036160694 0.003399871 0.0010812215 -0.0037951162 0.0030720036 -0.0034611335 0.0015413516 0.0024634118 -0.0016200126 -0.0005980802 -0.0029451742 0.0027985638 0.0028021787 0.0010898939 0.0021435018 0.003453991 0.00034917827 0.0038564256 -0.001557076 0.0025614747 -0.001831801 -0.00023448118 -0.003492086 0.0035596064 0.0011747138 -0.0011668731 -0.001892061 -0.003842966 -0.000601476 0.0014106332 -0.0017892956 -0.0015037517 0.0005345341 -0.0028343254 0.0005143566 -0.0008642216 -0.0006928626 -0.0002319788 0.0026143116 0.003477848 0.0038564126 -0.00043925855 0.0007309807 0.0037837867 -0.0035276043 0.0028101862 0.003886953 0.0031581311 -2.0033813e-05 0.003585806 0.0033134865 -0.0038754006 0.0032678542 0.0026221871 -0.003230993 -0.00088046736 -0.0038124449 0.0012556461 -0.0023519413 0.00018734658 -0.0018577448 -0.0016968867 -0.0008657297 0.0027176552 -0.0035802117 -0.0008749242 -0.002401516 -0.0013270901 0.0036616158 -0.003174714 -0.0011112192 -0.0016374887 -0.000252238
49 -0.00095761626 -0.0027498212 -0.0028272688 -0.0009701948 0.0026773033 -0.0036907715 -0.0025175903 -0.0033584319 0.0010582499 0.0032794175 -0.0036182702 0.0032080594 -0.0015388008 -0.00041852606 0.0019041044 0.0009873081 -0.001857279 0.002738766 -0.0016096345 -0.002478896 -0.0012513003 0.0020120756 -0.0011187131 -0.0020216415 0.0026706315 -0.0019466669 0.0035333617 -0.0033650934 -0.0017917588 -0.0023023202 0.00024069587 0.0009926717 -0.0034584946 0.0028915575 0.0027360595 0.0032889282 -0.0028412861 -0.0006704241 -0.002281168 0.0034392257 -0.0014492527 -0.0013757927 -0.002846064 -0.003685847 0.0020276965 0.0008163752 0.0015008913 -0.0013907708 0.0007534364 0.0021994722 0.0032130056 -0.00032159936 -0.0003631195 -0.0033019132 0.0036762913 -0.0011380982 0.0038932082 -0.0038739818 0.0018140281 0.00029160042 -0.0033361176 0.0032623066 0.0032106708 -0.00050981564 0.0034142039 0.0033261583 0.001147386 -0.0034596117 0.002180942 -0.000962541 0.000966041 0.0027549989 -0.00102505 0.0004790631 0.0008389264 -0.0036180953 -0.0024505884 -0.0006952381 0.0009589264 0.0022586908 0.0031735322 0.00057756354 -0.000534402 -0.0002985466 -7.9514335e-05 0.0019202749 -0.00023958343 -0.002585449 0.0012812421 0.0016225817 0.0036515412 -0.0039004611 0.0006266795 0.00045047258 6.647301e-05 -0.0001658749 -0.0034124556 0.0034935751 0.0017459766 0.0038562552 0.002061384 -0.00068706216 -0.0026747135 -0.00126696 0.0032791495 0.0034436875 0.00018845544 0.0013541707 0.0025904803 0.00042510047 -0.0033539506 -0.002697168 -0.002980153 -0.00069917063 0.0038861348 -0.0021435837 -0.0010857438 -0.002678636 0.0015002465 0.0017429895 0.00017879061 0.0030299376 0.0035589798 -0.0019465291 0.0010023167 -0.002642548 0.0034208628 0.00048710947
10 0.0029791046 0.0028131658 0.0010123241 -0.003313549 -0.0025290528 -0.00288496 0.00018122245 0.002714204 -0.0015232601 0.0039029014 0.0025111795 0.0004660901 -0.0017074982 -1.7440898e-05 -0.0012113812 0.0028658388 -0.0017298103 -0.0035601652 0.0028835158 0.002515496 0.0017813343 -0.003301935 -0.002930938 -0.0038809292 0.0012436119 0.0015963176 -7.9094134e-05 0.00035717347 0.00047319656 -0.0008118288 -0.0034058294 -0.0026777596 -0.0025741393 -0.0025535298 -0.0031490715 0.0010722894 -0.00041573492 0.0011369052 -0.0033309043 0.002102861 -0.00041243798 -0.002124401 -0.001528248 0.0033748257 -0.001085516 -0.0001934631 -0.0006311213 0.00033688734 0.00077227945 0.0026791731 -0.0032873277 -0.0027826426 -0.0026362992 0.0038207527 0.0019887162 -0.0017587744 -0.0038400015 -0.0029225335 -0.0011563615 -0.0032271468 -0.0011013172 -0.0016792385 -0.0017675757 0.0038895418 -0.0026712418 0.0018310284 -0.0008712432 0.0016475972 8.9543064e-05 -0.0022301911 -0.00037483097 -0.001996895 -0.0013659081 -0.0014131535 0.0029049441 -0.002793122 0.0038502617 0.0014187531 0.0028384207 -0.0030579055 0.001603643 0.0006046401 -0.0014610556 0.0030498982 0.0006300227 0.0036665779 -0.0014965053 0.0034797916 -5.868515e-05 0.0004125958 -0.0025455577 0.0013305733 0.00029314414 -0.00024770695 -0.0022775638 0.0024383955 -0.0023544326 0.0015468356 0.0017700415 -0.0017681385 -0.000106947446 -0.0022713298 -0.0020049997 0.0028934593 -0.0038903477 -0.003628145 -0.0013552966 -0.00023835752 0.002226571 -0.0020446784 -0.003443748 -0.00090664544 0.002043973 0.0015245954 -0.0029695558 0.0033287315 -0.00092760444 -0.0023457925 -0.0005910416 0.003511116 0.0015109191 0.002884032 -0.0028130352 -0.003147958 0.0010863915 -0.0038929922 -0.003336668 0.0016059204
29 -0.0025127213 0.0036129525 0.0015834825 -0.00041258466 0.00012901876 -0.0019385078 -0.0020214103 0.0009890414 -0.001717991 -0.0018949999 -0.00087926997 0.0017055544 0.0038423056 0.0007565348 0.0033532241 0.0017277949 0.002630079 -0.0031055415 0.0036375104 -0.00012986077 0.0012317647 0.0021302213 -0.00027583187 -0.0018739167 -0.0027149955 0.0012419014 0.0012589508 -0.0035988176 0.0021044242 -0.0003570211 -0.0018052277 -0.0037143354 -0.0032030812 -0.0020304536 0.0015871397 -6.8491354e-05 -0.002048831 0.0013566305 0.0010436227 -0.0015524715 0.0009889124 0.00013917366 0.0004888319 -0.0026870968 -0.001434549 -0.0008981665 0.0018093335 0.0015694564 -0.0037670003 -0.0026223846 -0.00028697704 -0.0016559274 0.002496785 0.00062672247 0.0009842778 0.0032913454 0.0030360306 -0.0038428188 0.0037542863 0.0020856992 -0.0020681748 -0.0015642665 0.002953256 -0.0023812936 0.0029135414 0.00031412803 0.0036938267 -0.0015300869 -0.0030639276 -0.0007872689 -0.0030680175 -0.0031325868 0.0014339789 -0.0010406924 -0.002921403 3.841369e-05 -0.0011759071 0.0015363626 0.0031318425 0.00079684454 -0.002659948 -0.00063204276 -0.0030722665 -0.0026303646 -0.002117671 0.00031102684 0.0021227247 0.0024592069 0.0035790908 0.0031007552 -0.0030853834 0.0010727332 0.002750515 0.00038061017 -0.0018235354 -0.0017507216 0.0018829319 -0.0010570157 -0.0014819904 0.0038492302 0.00085051387 -0.0032029417 0.0007786829 0.0023240221 0.0037096983 -0.000743413 0.003241407 -0.0026101116 -0.0025281988 -0.002065718 0.0033598463 0.00044671644 -0.0023313987 0.0019663458 0.0029348996 0.0021194322 -0.0013672939 -6.881655e-05 0.0018886302 -0.0019143973 0.0023438758 -0.0022190416 0.001811728 -0.003738218 0.0003846717 -0.0027182589 -0.0022069276 0.0033507834
59 0.0036327695 0.0023158004 0.00096430397 0.0017193769 -1.4321031e-05 -0.00010892469 -0.002745501 -3.9628114e-05 -0.0019708104 -0.002119846 -0.003460631 0.0014795049 -0.0036989786 -0.00026051857 0.002588065 0.0010239856 -0.003004991 0.0005339745 0.0010293045 -0.0035744112 -0.0022530851 0.000425872 -0.0007775836 0.0012571356 -0.0025761914 -0.00030943108 0.0021861373 0.0019494587 0.0026106369 0.0036045662 -0.0031046332 0.0014919565 -0.0013914261 0.003329443 -0.0034160742 0.003283326 -0.0031013356 0.0017372753 -0.0022127547 -0.0019366529 0.0031591924 -0.0004866516 0.0035157294 0.0010221066 -0.0007269213 0.0012093742 -0.00068279693 -0.002179056 0.0037346217 -0.0027911433 0.0034962334 0.0027109801 -0.0023704758 0.00029237138 -0.0020136395 0.0036848641 -0.0018446854 0.0029447526 -0.0031384153 -0.0035816478 0.0019519683 0.0015054287 0.002884077 0.0025626463 0.002713912 0.0020154621 0.0013678502 -0.0013537885 0.00078328286 0.002944532 -0.00096879224 0.001287468 0.003665397 0.0020675974 -0.0031238792 0.0031004087 0.0009962398 -0.0032935888 -0.0034517338 -0.0019953153 -0.0023245644 -0.0017246779 0.001816125 -0.001112533 0.0027349826 -0.0013501135 -0.0021625424 -0.00021145876 -0.0028426915 0.0019446773 -0.0015480103 0.0011412526 -0.0026422984 0.00034938546 0.0026541497 -0.0012849843 0.0013490297 0.0028064654 0.0017246242 0.0019991975 0.0023566203 -0.0030679326 0.0027786833 0.0037011195 -0.0033565906 -0.0015386782 0.0028692938 0.0035051813 -0.0033462546 0.0026325113 -0.0011934375 -0.0034865092 -0.00016933594 -0.0007476744 0.0030764109 0.0031534224 0.0024096356 0.0011491562 0.0036895925 0.00029383562 -0.0031002583 0.0017423152 0.003358854 0.0016309433 -0.0031178256 -0.001932562 -0.0023217595 -0.0015068507
1 0.000295988 -0.00064388104 0.0011123301 -0.0015607782 -0.00247473 -0.00062950316 -0.0024904066 0.0021039245 -0.0008409323 0.00087361457 -0.00061987806 -0.0018964157 -0.002867258 -0.003211212 0.0019798512 0.001253249 -0.00032867945 0.0036837962 -0.0025385942 -0.0017522678 0.0034854107 0.0021191572 0.0021935413 6.45788e-05 0.00112015 -0.003717721 4.212426e-05 0.0037042256 -0.002672564 0.0018485659 0.0012229729 -8.8717665e-05 0.0030585134 -0.0006855104 -0.0034146318 -0.0007086617 0.0016255556 0.0007988364 -0.00037892399 -0.003904154 0.003159482 -0.0020242103 0.002654474 0.0031395704 -0.002585065 -0.0023028066 -0.0023567697 0.001104767 0.00033686543 0.0014730796 0.0011962107 -0.0020965713 0.0011786511 -0.0008104126 -0.00041775405 0.0008686074 0.0026995782 -0.0033772874 -0.0036564146 -0.0013245593 -0.000600713 0.0033810306 0.0015107444 -0.0013382328 -0.00109071 0.0011938738 0.0029084426 0.0028734992 0.0036772129 0.00048527675 0.0013219934 0.0018825264 -0.0034754095 0.00025537607 0.0009459077 -0.0013726825 -0.0027220068 -0.0026581509 -0.0028703474 0.0013953098 -0.0018007657 -0.00093603117 -0.0028635173 0.0024945764 -0.00358404 0.0013720278 -0.0007614589 -0.0017575066 -0.00040815963 0.0009847021 0.001869852 -0.0009910668 -0.0023389312 -0.0019225848 0.00041982497 0.0017286188 -0.0016375334 0.0028716943 0.00013118499 -0.0033297504 0.0015052841 -0.00175372 -0.00061163335 0.0028447811 0.0027981265 0.00039286155 -0.0008362902 -0.003825217 0.0006578945 -0.0015496311 -0.002835 0.0035744696 0.0016574146 -0.0013589924 -0.0013282474 0.0021316959 0.0006410544 0.0030419321 0.0006273788 0.0033796523 0.0012038334 -0.003371545 -0.0008793751 -0.0038173536 -0.0034775068 0.0029499126 0.0002628176 0.002674705
13 -0.0026551837 0.00022486412 -0.0022877203 0.0024096065 -0.0034380606 -0.0023293209 0.0015270055 -0.0031506019 0.0013092099 0.0036873962 0.00056701625 -0.0012746413 -0.0022237387 -0.0020898182 0.00052049407 0.0013207989 0.001560207 -0.00044831767 0.0004970812 0.003834647 -0.0011765924 -0.0019884212 -0.00035028104 0.00093231356 0.0012121889 0.0020903137 -0.0031825488 0.002673079 -0.0026594433 -0.0022939325 0.002924844 0.00046959508 0.0022617695 -0.0012920583 -0.0037904042 -0.001383141 -0.002693103 -0.0032302735 -0.00084234064 0.0013801191 -0.0022575534 -0.00085704826 -0.000865337 -0.003255861 -0.0027333335 0.0015602555 0.0033178935 0.0010010821 0.0005417376 -0.0024082928 -0.0032287533 0.0032091197 -0.0007924528 0.0014364076 -0.002850922 0.002575008 -0.003163648 -0.0013152487 -0.0017605446 -0.0028696882 -0.0023571218 -0.0003940985 0.0034939828 -0.0033305895 -0.0011991202 -0.00062644837 -0.0017350167 0.00077591796 -0.0021115215 0.001125095 0.0019533457 0.0033293308 -0.0025369052 0.0011057584 -0.00027369443 0.0025927157 -0.0037320293 0.0013199667 0.0012933452 -0.0027948222 -0.00014864185 0.0022640862 -0.003005906 -3.778752e-05 -0.0010082914 0.0025810383 -0.0016603455 -0.00017505177 -0.0023962904 0.0026704245 -0.0030218267 -0.003513412 0.001674893 -0.0030208519 0.0015448071 0.0030774153 0.00093921256 0.00041814102 0.0018891628 -0.002038998 0.0031932876 -0.0018695429 -0.0036953809 -0.0023898925 0.00016925474 0.0027865772 -0.000434884 0.002132074 -0.003664044 0.0024796368 -0.0034410174 -0.00016668986 0.0021406873 -9.3892595e-05 -0.0024839118 -0.0023995622 -0.0029598891 -0.0013859373 0.00012016278 0.0003051752 -0.0024549747 -0.0036303753 -0.002911389 0.0038026962 -0.000980629 0.0020343056 0.0034787077 -0.000117043586
94 0.0014344299 -0.0006275739 -0.0012763398 -0.002447533 0.00060763396 0.0009214628 -0.0026334727 0.003200274 -0.0027839416 0.0015676252 -0.0026972105 0.002370098 -0.0024185264 0.00017659254 -0.0025763744 0.0006467364 -0.002371124 0.0038224475 0.0014665184 0.0037435323 0.0017289668 -0.0013289896 -0.002422356 -0.0035591505 -0.0027510214 -0.0007146995 -0.0004938862 0.0036267242 -0.0023519865 -0.0028131134 0.0036083183 0.00032812575 -0.0034635174 -0.002639818 -0.0014162387 -0.0014205605 -0.0030600692 -0.0012794419 -0.0011437895 -0.0012523877 -0.00076726935 0.0021886455 -0.0033182122 -0.00061415695 0.003500887 -0.0011975891 0.001777292 -0.0003113097 -0.00039342616 0.0014052932 0.0021638374 -0.002573222 -0.003571626 0.00011512738 -0.0015339172 0.00040857407 0.0003673172 0.001699511 0.0012902627 0.0025207445 -0.00125656 -0.0012081582 -0.0036169447 0.0035150321 -0.0010846903 0.0021149819 0.0030629395 0.0012022959 -0.0034649551 -0.0014445179 0.002740024 -0.001108289 0.00096724444 0.0017607772 -0.00015329264 0.0012387884 0.0030223506 0.0030839194 -0.0028811865 -0.00063091714 0.000604199 -0.0014157 -0.0016788284 -0.0012440536 0.0007666491 -0.0018476773 -0.0017827868 -0.0029039746 0.0019591541 0.00032470326 0.0038942944 -0.002676827 0.0037056406 -0.0010315066 0.0009159008 -0.0028534483 0.002309928 -0.0024462987 -0.00078379415 0.0026560845 0.0031102255 -0.0033611238 -0.0027701787 0.0018657076 0.0024711657 0.0022564747 0.0003638854 -0.0036260204 -0.003652074 -0.002510586 -0.0002341975 -0.0034002163 -0.00018815756 -0.0017006391 -0.003033825 -0.0032617296 0.00026352738 6.339421e-05 0.0024152657 -0.0035393285 0.00077389774 -0.0029960824 -0.0027111773 -0.0004868438 -0.0032329692 8.0727325e-05 0.0038891577 0.0012143458
58 -0.0006068731 -0.0012048137 -0.0015195891 -2.5581448e-05 -0.0037571185 0.00029719283 -0.00061777176 -0.0020024 -0.00066978676 -0.0037993053 -0.0016338202 -0.0015809287 -0.0015016126 -0.0038319505 -0.0029129514 0.00050149154 -0.0011279326 0.0035454326 0.0036248022 0.00076223805 0.0030644967 0.0029869296 -0.0011518874 0.003788758 0.0027477304 0.0008344378 0.0027330911 0.0017171936 0.0032560674 9.92375e-05 0.0023237444 0.002747107 0.0011451892 0.0018858875 -0.0014892819 0.0029465295 -0.0037596847 -0.00022351411 -0.0019947463 -0.0008712603 -0.0012762581 0.0033956282 0.0012613352 0.0017534158 -0.0020664486 0.002637524 0.0033658158 0.0026437999 0.0027228494 -0.003275748 0.0005893887 0.0017019591 -0.0037441475 -0.0030117426 0.0020374916 -0.0030564293 -0.0007038126 -0.002667793 0.0025706098 0.00044108045 -0.00089496817 -0.0023274843 0.000498763 -0.0016200345 0.0025909033 -0.002851595 0.0017731902 0.0022770157 0.0018803242 -0.0004896505 0.00095928815 -0.0012247922 -0.001177804 0.0006630682 -0.00060088874 0.0036093998 0.002998276 4.0924264e-05 -0.00200728 -0.0025139083 -0.0004835516 -0.0038386823 -0.0029487316 -0.0018812562 -0.00015272111 0.0031289186 -0.0035986258 0.00017606681 0.0026389265 0.00017322459 -0.0029631325 -0.00036705929 -0.0008598136 -0.0007308074 -0.001740893 0.00287044 0.0034971328 -0.00030370962 -0.0022165128 0.0032671036 0.003232927 0.0038397235 0.0001541049 0.002848534 0.0032879133 -0.0017019343 0.0021275547 0.0037015108 0.0027003079 -0.0027936322 0.00094206067 -0.0023850498 0.0019008745 -0.0010875661 -0.00068748655 -0.00016399169 0.0038146158 -0.0014095238 -0.00090943126 0.002581336 -0.0006208461 0.002745902 -0.0003865009 -9.209857e-05 0.0011248364 0.0026842088 0.0031852438 0.00096532115
34 -0.0029866768 9.093533e-05 -0.002280029 0.00056229706 -0.002879116 -0.0014101978 -0.0007788832 0.0025304346 0.003500767 0.0018159356 -0.00022668464 -0.0006399198 0.00022291116 0.002042159 0.0005698644 -0.0032611117 -0.002772101 -0.003780385 0.0037918417 -0.0005017252 0.0038398902 -0.0030795468 -0.00048709096 -0.0035210259 -0.0029719956 0.0006039723 -0.0028494464 -0.0003609907 0.0024991522 0.0019092242 -0.0022287995 -0.003723682 -0.0027968101 0.0032910893 -0.0031130107 0.001937897 -0.0016725274 -0.0033760087 0.0006749472 0.003243688 -0.0027107124 -0.0026552973 -0.0020678744 0.0002676483 0.0019491656 -0.003447646 0.0033212856 -0.0019022885 -0.0022859182 -0.0029759733 -0.000263306 -2.9780243e-05 0.00037297746 0.0005336127 -0.0015893386 0.0022827885 -0.0024993913 0.0012535289 7.9565056e-05 -0.0031863556 -0.0004501567 -0.0012301058 -0.0036674866 -0.0031604038 -0.00094532565 0.0026246721 -0.0020289132 -0.0017419844 -0.0017214146 0.0036462871 0.0018899644 0.0009880349 0.0028489218 -0.0005202562 0.002888399 -0.0032370307 -0.00036523893 0.0037232363 0.0027481883 0.0016695936 0.0028267072 -0.0012164519 -0.0010037655 -0.001701255 0.003898833 -0.0011656977 -0.00355934 0.0034250177 -0.0008958013 0.0025174243 0.00014161656 -0.0016415067 -0.0010682509 -0.0005339248 0.003835421 0.003350526 -0.0033510274 -0.0010305428 0.0017651451 -0.0013057989 0.0017747646 0.0028772433 0.0011291703 0.0033280307 -1.7597858e-05 -0.0033554037 -0.00012561737 -0.0005676924 -0.0021868618 6.082919e-05 -0.0033968901 0.0014280914 0.0011322686 0.0032450112 0.0008360552 -0.0022257392 -0.003657866 0.001861815 -0.0009780317 0.0025347315 -0.0038490067 -0.0017440713 -0.0016440279 0.0023281628 0.0006876428 0.000934606 0.0020575824 0.0037886335
38 0.0027726253 0.000536496 -0.0013951698 -0.0005385737 -0.0029106927 0.0022129589 0.00018204986 -0.0022225764 0.0036366782 0.0026565746 -0.0029318635 0.0009969622 -0.0025653797 0.0015881674 -0.0038629556 -0.0022218225 0.0011715973 0.0028353613 -0.00013936064 -0.002248438 -0.0037607413 0.001923455 0.003464958 5.499359e-05 0.0015927772 -0.0021786047 0.002057207 0.00019589113 0.0010012178 -0.00057279586 0.0012849537 -0.001710206 0.0017832845 -0.0027275675 -0.0031091168 0.0037390229 -0.0020352823 0.0011835016 0.000117465934 -0.0023798472 -0.0033339553 0.0015140328 -0.0028004555 -0.0008070522 0.0034121047 0.0030661277 0.00015598127 -0.0013513627 -0.0036224218 -0.0021685543 0.0017663646 0.0038757622 -0.0023558377 -0.0014190958 -0.0015689719 -0.0006459991 0.0025901822 -0.00050940394 0.003374102 0.0013645629 -0.0024384253 -0.0011983938 0.0025000628 -0.0036154618 -0.0007259611 0.0017627465 0.00069879094 -0.0025822506 0.0012665782 -0.0035799548 0.00057223876 0.0013473849 0.0018447605 0.0031204468 0.001098116 -0.0006055537 0.0037407451 -6.322644e-05 0.0022235413 0.00066781545 -3.85103e-06 0.001278398 -0.0030067998 -0.0015107556 0.003393425 -0.0013686715 -0.0015558712 0.0037801545 -0.002498911 -0.0028021508 -0.0034194058 0.0012630793 0.0032999031 0.00116697 -0.0031039955 -0.0022632303 -0.0032840278 0.0014998176 0.0036708633 0.0035641312 -0.0024416314 0.0008028071 0.00080176804 0.0017435062 0.0038636406 -0.00027021207 0.0020756442 0.0036986 -0.001564235 -0.0010447918 -0.0023041507 -0.0019233745 0.003699818 0.0011289461 -0.00097563805 0.0016002146 -0.003302872 0.0027582028 0.0025886006 0.001876848 0.0031382437 0.0030178668 -0.0030304503 -0.0026230423 0.0019724076 -0.002505 0.0022641006 -0.0034215348
50 -0.0013715996 -0.0031213576 -0.0009406888 0.0014062028 0.00030006692 0.0028479032 0.0011174126 -0.00010888615 -0.0025035425 0.001518883 -0.0026103368 0.000956988 -0.0005340802 0.0008216967 -0.0014989119 0.003663938 0.0015492374 0.0017220972 0.00121226 0.0009131042 0.0026113223 0.00042298826 -0.0015889817 0.0016144202 0.0020134395 -0.000981726 0.00028713475 -0.0032887312 -0.0013816782 0.0022756613 0.00015160198 -0.002193608 -0.0019876605 -0.0023393864 0.00079368707 0.0026097356 0.0034701747 -0.0016002619 0.0029415467 0.0033085975 -0.002026778 0.0030644839 0.0017950007 0.0034670138 0.0025959618 -0.0023915642 0.0028896215 0.00047340718 -0.0022250188 -0.003583448 0.0025571007 -0.00063915574 -0.0016700332 0.0022062846 -0.0029511622 0.000306455 0.0007400782 0.002953689 0.0017525208 0.0028144678 0.00020444435 -0.0019950331 0.0010214754 0.0014293722 5.7420726e-05 0.0034868266 0.0037145105 -0.002654024 -0.00087403966 0.0015449532 -0.0018077033 -0.0010301209 0.001445343 -0.001745631 2.3572495e-05 -0.00034413853 -0.0021521947 0.0029585634 0.0017929302 0.0029710317 0.0009867569 -0.0022730595 0.00043483527 0.0033322496 -7.681841e-05 0.00072111515 -0.00041047815 0.0012255331 -7.086389e-05 0.0015376551 0.0018938095 0.0005351718 0.0004345772 0.00031860973 -9.004309e-05 -0.0016217047 0.0015100318 0.003231125 0.0036634272 0.0038621342 -0.0009979274 -0.0016396611 0.0017317473 -0.002716525 -0.0032030272 -0.0031297416 -0.0037744762 -0.0021298071 0.0013162559 0.00081428833 -0.0037622522 0.0003334961 -0.0017998151 -0.0013023164 -0.00049705256 -0.0013235058 -0.002265641 0.00017972628 -0.0019518526 -0.0022175643 -0.0017261519 -0.0038603302 -0.0013956358 0.0033838816 0.0029748238 0.0007494043 -0.0029042652 -0.0003200078
45 -0.0014178755 -0.0022304307 5.5345618e-06 0.0020448978 -0.0022549692 -0.0010522183 -0.0034200363 0.002777378 0.00040350543 0.0007957204 -0.001423989 0.003690835 -0.003322769 0.0005608292 0.0029516388 0.0038993533 0.0035190987 0.0005550933 -0.0010787661 0.0023554182 0.0011916357 0.0011159494 0.00088879064 -0.002620358 -0.0012299962 0.0032519368 -0.0029783389 -0.0014004225 -0.0026218204 -0.0010788016 0.0035679739 0.0036415886 0.0008260652 -0.0004886254 -0.0013441783 -0.003129253 0.0020540738 0.0033726017 -0.00097434164 -0.0030897628 -0.0032425167 -0.0037732066 0.002645726 -0.0033094815 -0.0026557338 0.001900618 -0.00096343394 -0.0013934338 0.0036989306 -0.00066992274 -0.0016294572 -0.0012566212 0.0029705735 0.00034506316 0.0004117599 0.0022791782 0.0012849953 0.0025902507 -0.0034020985 -0.0029829803 -0.0013500507 0.0030470663 0.0014885188 0.0034078616 0.0028860087 0.0022767338 -0.00069033296 -0.0032862946 -0.00026845568 0.002540504 -0.0016262296 0.00021126826 0.0017684294 0.001888266 0.003031527 -0.0013568484 -0.0026660617 -0.00080004876 0.0034769385 -0.0013736477 -0.0037566365 0.0029825568 -0.0013670856 -0.00068153464 0.0037329192 0.002297986 0.0020560643 -0.0033589376 -0.00079012674 0.0032644065 -0.0035213695 -0.00045979122 0.0031471516 0.0033770944 -0.0005457337 -9.0032416e-05 -0.00186976 -0.0018969843 -0.0008396165 -0.0026662382 0.0028099113 -0.003299831 0.0023274221 -0.0017309375 -0.003329336 -0.001215218 0.0036929834 -0.0030438278 -0.002717236 -0.0012333099 0.0019256676 0.0016220097 -0.003203723 -0.00034230633 0.0011751871 -0.0014979849 -0.003690793 -0.0007802454 -0.0033585627 -0.0036010903 9.125726e-05 -0.0017572097 0.0018051292 -9.852524e-05 0.00041184813 -0.002636091 0.00059388316 -0.0010816789
82 -0.0031305759 -0.00053059804 -0.0014018972 0.0035425092 -0.0025398415 -0.002190776 -0.001278792 -0.0031383953 -0.0012052985 0.00019033282 0.00055723335 0.00052481395 -0.0022941313 -0.0025849887 -0.0008682605 0.002110191 -0.00086578494 0.002185672 3.093856e-05 -0.0036584882 -0.0032738475 0.0026677954 0.0010727727 -0.0008832112 -0.002840337 0.0006838703 0.0023792398 0.0012741344 0.002126265 0.00025373546 4.585628e-05 -7.91777e-05 -0.002926523 -0.0027809918 0.0036009937 0.0014785785 0.0032533857 0.0018366431 -0.0013429166 0.0029986922 -0.0022287967 1.799953e-05 -0.002989004 0.00072912575 -0.0033164376 0.0022540672 0.00065987685 0.00044560106 -0.00030867354 -9.08622e-06 -0.00029375163 0.0035080018 0.0014443805 0.0033140432 -8.635759e-05 0.00022669994 -0.0015093174 -0.003226571 0.0028086733 -0.00023105112 0.002187545 -0.00013695618 -0.00072840234 0.0002654643 -0.0005216254 -0.00057040143 -0.00036901954 0.0036094408 0.0018596863 -0.0036449973 0.00049209804 -0.000120171055 0.0012463391 0.0034324853 0.00079070963 -0.0014640561 -0.00025826367 -0.0005592823 0.0036800485 0.0012142536 0.0021467037 -0.0027346953 0.002637791 0.0033244186 -0.002339917 -0.002963613 -9.36432e-06 -0.00048088434 -0.0027767802 0.0007677544 0.0029913755 0.0024406926 -0.0029254076 -0.00030520064 0.0008121002 0.0012295403 -0.0013737511 0.0033091782 0.002969934 -0.00015045602 0.0012990434 5.4181986e-05 -0.0018489219 -0.0009247159 0.003260716 -0.0037664832 -0.0024280073 -0.0019898198 -0.0018947495 -0.0018061072 -0.0005485153 0.0034477005 0.00093288353 0.002577147 -0.00068453304 0.0030099247 0.0008673702 -0.00041789396 0.0030336797 0.002501681 -0.0012464634 0.002308259 0.0029130306 -0.00039780178 0.0002569472 -0.0014546488 0.001706539 -2.3782737e-05
53 0.0033627283 -0.0033847769 -0.0006741475 -0.0026780462 -0.0012236953 -0.00357038 0.0016967055 0.001220176 0.0033414622 -0.00078856095 -0.0035808147 -0.000114189665 -0.0014699688 0.0005252609 -9.456933e-05 -0.0018844758 -0.002510276 0.0029833096 0.0035512694 0.0019074958 -0.0011694514 9.0102e-05 0.001408786 -0.0017895534 -0.0026706106 -0.0037306577 0.0007935737 0.0018324275 -0.0014790584 7.9870704e-05 -0.0024578534 -0.0004057979 -0.001054419 -0.0009304505 0.0018601338 -0.0015824686 -0.0029373956 -0.0035012485 -0.003578023 0.0031933943 0.00041103712 -0.0026218374 -0.002968824 -0.00050387916 0.0021788739 -0.0026963039 0.0032970202 0.0026160558 -0.0020182077 -0.0033513515 -0.0037007225 0.0026295579 -0.0007400218 -0.002769518 0.0009605595 -0.0028609456 0.003648724 0.0035156528 -0.0009815563 -0.00302365 0.0016233592 -0.0034864722 -0.0028715935 -0.0009570842 -0.00074746716 -0.0035672216 0.0008968976 -0.0018060526 -0.0012105878 -0.0018966395 0.0014808666 0.0018294574 0.00052202656 -0.0017478158 0.0036898484 -0.003026803 -0.0035049913 -0.0021692412 -0.0005518799 -0.0033020575 0.000807115 0.0006489447 0.0013276534 -0.00095694966 -0.0019529606 0.0020713364 -0.0035339415 -0.0002497194 0.0033334496 -0.0037262333 -0.0018431146 0.0002596237 -0.001284395 -0.00176527 -0.00051948713 0.0034945027 0.0031989033 -0.0014703326 0.0013595779 -0.00109812 0.0011875939 0.0025798988 0.0008135336 0.002437781 -0.001781494 -0.0033206725 -6.759887e-05 -0.0017874753 0.00069218257 0.0013232457 0.0012250522 -0.00080439524 -0.001981777 0.0029356815 -0.0023828272 -0.003439931 -0.0009883958 0.0038186305 -0.0025737495 -0.0037003467 -0.001758942 2.7317537e-06 -0.0005600283 -0.0030705533 0.00049003906 0.0008520075 -0.0021734014 -0.0014847866
