93 128
20 0.0035725038 0.002626441 -0.0011081772 9.1455324e-05 0.002908215 -0.003289199 0.001525419 0.0023543548 0.0015991711 -0.0028967285 0.0028249356 -0.002586986 -0.0011285363 0.00090344314 -0.0010019969 0.0010378532 -0.0029601161 -0.0020781811 0.0028191614 0.0016469805 0.0007065803 0.0032967958 -0.0029821093 0.00038381407 0.0019561101 0.003169268 -0.0015937522 -0.00078507455 -0.0029889243 -0.0017943981 0.0016698117 0.0029915888 -0.002625139 -0.0028255486 -0.0011509869 -0.0019682562 0.0009457234 0.0021553955 -0.0033596507 -0.001307455 -0.0025530912 -8.926547e-05 -0.00045926814 0.000318415 -0.0030183857 0.0018116566 7.321541e-06 0.0012477423 -0.0015832712 -0.0024488613 -0.0024759665 -0.0005714824 -0.00024788408 -0.002233469 -0.0030077025 -0.0022127142 -8.383525e-05 0.0010733481 -0.002911534 0.0017775471 -0.0015090903 0.0025122715 -0.0017563318 -0.0023556282 -0.00321093 0.0024239602 0.0024555246 -0.00092358736 0.0032074987 0.003822649 0.001600494 0.0032073415 0.0036074396 0.003490572 -0.0034554924 0.002842311 -0.002345437 -0.0027391522 -0.0024747073 0.0021549473 0.003009176 0.002330907 -0.0027844794 -0.00047224818 0.0024270846 0.0013034437 -0.0004459455 0.0027935787 -0.00018382481 0.0029362 0.0021654114 -0.0015907191 -0.0035399606 -0.0033564977 0.0005186459 0.0012339184 -0.0036936046 -0.0017158831 0.003757876 -0.0036495954 0.00385019 0.0019291639 -0.0008209199 0.0011751364 -5.617965e-05 -0.0023480156 -0.0015873533 -0.0015079539 -0.0008154827 0.0038194081 -0.00031411293 -0.0023418209 -0.0026184386 0.0012784152 0.0024859472 -3.7593418e-05 0.0019057253 0.0033217377 -0.0031886024 0.0037924624 -0.0032833875 0.0021015108 2.9335957e-05 0.00026403213 -0.0010697033 -0.0029691407 -0.002116124 0.00034556657
78 -0.0032820732 -0.0015716588 0.001786429 -0.0037077332 -0.0011291055 0.0038047852 0.0013963104 -0.0030714818 0.001140944 -0.00035133818 0.00056807953 0.0016867282 -0.0002903937 -0.003548479 9.711652e-05 0.0030389938 0.0036069104 -0.0023685403 -0.0029911734 0.0035351033 0.0010319953 0.0033134846 -0.0012188319 -0.0017634302 0.0024535637 -0.0015564275 -0.0007636838 0.0032496876 0.0024721038 -0.0010508483 0.0025983234 -0.00063983584 -0.0022189643 0.003119802 -0.0036227875 0.0038534564 0.0034260754 0.001414396 0.0008355287 -0.0010649587 -0.0037005304 0.00042319173 -0.0016783522 -0.0015765334 0.0024621172 -0.0034328161 -0.0021858385 -0.0017738666 0.0007018228 -0.0012043722 -0.0005516353 0.0008523134 -0.0016819088 0.0014452242 0.003405732 0.003567628 -0.0031930134 0.0004084251 -0.0002678549 -0.0009681392 0.0034271895 -0.0014125253 0.0007765263 0.0015379196 0.00015972511 -0.0016723295 -0.0013096804 0.0035378886 -0.0024790254 0.0020563924 -0.0024604765 0.0011779848 -0.0011562004 0.0020833595 -0.0022319441 0.0025558425 0.0016182096 -0.0014523835 0.0033601618 -0.0015149084 1.05216295e-05 0.0016766323 -0.0027249153 -0.0021056395 0.0018079014 0.0005273723 0.0034364823 -0.0028556096 0.00070014235 -0.0026717063 0.001012455 0.002961516 0.0010196423 0.0016865906 -0.0026214065 -0.00043832845 -0.00053562794 0.0009086897 -0.0014037292 -0.00051680015 -0.0021766806 -0.0011055238 -0.0020223514 0.0005460026 -0.001967948 -0.0010220535 0.0020265675 0.0009717008 0.003740111 0.0035949103 0.0028188624 0.00020815697 -0.0010412136 -0.00064744405 0.0024404365 -0.0011856103 0.0014181213 0.0011976734 -0.0018300165 -0.00322095 -0.0005203858 -0.00037744953 0.001168592 0.0020451685 -0.0035169711 -0.0025346263 -0.0037500635 0.0030288163
95 0.0032036677 0.0034524077 -0.0021109732 -0.0030563776 -0.0006339164 -0.00294577 0.00064803794 0.0026214588 -0.0021743427 -0.0036887745 -8.471769e-05 -0.0018160826 -0.00017510566 -0.0010280344 -0.0029007185 -0.0006367714 0.0009972961 0.0009823707 0.0009946602 -0.00093129236 -0.0024836692 0.002782095 0.0030428392 0.0025486138 -0.000111827 -0.0023484614 -0.0001667813 0.0038796542 0.0028941808 0.0020762791 -0.0029782215 0.0013126711 -0.0013274389 -0.001644795 -0.0011059692 -0.003738234 0.0014543048 -0.0016016829 -0.0032209342 -0.0027092176 0.0008711649 -0.002668632 0.0012713199 0.002418668 0.0035899873 0.0027526158 -0.0008183347 -0.0019394642 -0.0012520535 0.0017039467 0.0035446838 -0.0027218224 -0.0002995854 0.0032987997 0.00050319085 -0.0024386796 4.9875507e-06 0.003283418 -0.0010742215 0.0029747398 0.0012467386 0.00045535926 9.526669e-05 -0.0006425618 0.0017925223 -0.0020387569 0.0030339996 -0.00034069954 0.002333354 0.0028401052 0.0026666364 0.0017343238 -0.0010083256 -0.0019452906 -0.0008998949 -0.0032608442 0.0014373354 0.0022675616 -0.0022105128 -0.0022113074 0.00042945624 0.003351763 0.00095602183 -0.002461211 -0.00010120145 -0.0021240872 0.00027216043 -0.0033677665 -0.0037056373 -0.0015900532 -1.3897145e-05 -0.003489069 0.001003742 -0.0037602913 -0.0022072222 0.003335102 0.0016163123 -0.0022350196 -0.0024957529 -0.0038434064 0.0035085639 0.0014526696 0.0011768908 0.0013248759 -0.0032664442 0.001640973 0.0038542207 -0.00041471564 0.00015209637 0.0022855836 -0.00070727064 -0.0030729256 2.662039e-05 -0.00083155354 -0.003773662 0.0011002665 0.00011506216 -0.0034829874 -0.0009937688 0.00068092236 -0.0027160873 0.0028520713 -0.00076561223 -0.0013793181 0.0023667833 0.0013427511 -2.909616e-05 0.0032324684
79 -0.0036844164 0.00020248827 0.0016903076 0.002440522 0.0016324795 -0.00014736631 -0.0027547213 -0.0009179151 -0.002297547 0.0024324355 0.0026743412 -0.001246338 0.0016505651 -0.0019354057 -0.0009301313 0.003605798 0.0036481684 0.0014724827 0.00023284675 -0.001890971 0.0037507873 0.0037487322 0.003402501 0.0027982295 -0.0026082399 0.0030222363 -0.00282493 -0.000107364736 0.00029488525 -0.0018338221 -0.0020483977 0.0008158568 -0.0024643405 0.002421108 0.0009425673 -0.0029951318 0.0020694477 -0.0030622021 0.00025712862 -0.0006139899 0.0006714047 -0.0015939281 0.001316005 0.0033320843 0.0015949197 -0.0022062063 0.001774034 0.0025505328 -0.0005261775 0.0016914486 0.0034948557 -0.002037874 -0.0020479213 0.0021567508 -0.0025295725 0.0017499445 0.0020842198 -0.0036296376 -0.0022549618 -0.002461762 0.0013206581 0.002001993 -0.00030849618 -0.0031962025 0.0037099882 -0.0016541703 -0.0017972504 0.0013402016 -0.002042138 0.0032545305 0.0012961923 -0.00057406514 0.0035573195 0.0029429893 0.0038328753 0.0016033393 0.0026541033 0.0038485045 -3.138078e-05 0.00010698722 0.0028957615 0.0008528799 0.00052431773 -0.0011494176 0.0025175484 -0.0008697186 0.0014214845 -0.0016840267 -0.0008224274 0.0008771068 -0.0024996754 -0.0030496386 0.00045372854 -0.003631945 -0.0024608145 -0.0023243804 -0.0027412411 -0.0030419452 0.00044870368 0.0016240525 0.0033767829 0.0015261665 0.0020107508 0.0015032867 -0.0038704334 0.0026302084 0.0010260312 0.0025800893 0.00019142327 -4.443658e-06 -0.0017028266 -0.0022055295 -0.003474061 0.0028157604 -0.0025046016 0.0012600664 0.0028159155 0.003756699 0.0012027731 0.0019776267 0.00019270054 0.0007397223 0.0012136726 0.0019996108 0.0037325236 -0.002614227 -0.00033215922 0.0027797983
54 -0.0009128887 0.00053051295 0.0028859577 0.00379352 -0.0012994572 0.0022501152 0.0024277715 0.00040157328 -6.253817e-06 0.00084270426 -0.00070017163 -0.0008644861 0.0010589367 0.0020747276 0.0005518779 -0.0002725586 -0.0005309197 0.00119717 0.002527447 0.0007920924 0.0036784832 -0.00037957868 -0.002309496 0.0027744782 0.0008019992 -0.002885956 0.001995116 -0.003218327 0.0014602586 -0.0020930916 0.0012461374 0.0024678004 0.0003155476 -0.0037379162 -0.0030636457 0.0019077066 -0.0033801438 9.018963e-06 0.0007407448 -0.0033742404 0.00046838634 -0.0010767038 0.003267507 -0.0029814867 0.0030412145 -0.0009310706 0.0006619829 -0.0005063576 0.0023624585 0.0011177255 -0.0030555618 0.0018131002 0.0029197973 -0.0015799233 5.961267e-05 -0.0013660188 -0.0038492111 0.0016621044 0.0033010605 0.00184557 -0.0036228655 -0.0024259284 -0.0027848808 -0.0029375828 -0.0006375477 -0.0036587503 -0.000984766 0.0013530956 -0.0027242247 -0.0022527184 -0.00042782916 -0.0032964852 -0.0012240944 -0.003614059 0.0007917673 0.0019445543 -0.003829098 0.003534433 0.0020863453 0.00016464104 -0.0025991618 0.0017895489 -0.0030875872 -0.0002081622 0.00063984364 -0.00010573427 0.0012659277 0.0016130141 0.002323755 -0.00024747322 0.0037289155 -0.0035799027 -0.00052861555 0.000265698 -0.0025957564 -0.0027893733 -0.0025633061 -0.0022559287 0.00072465505 0.0010099079 0.00061261107 -0.0016898751 -0.0031451369 0.0036851286 -0.0021879354 0.0009536436 -0.0037887418 0.0018046835 -4.479091e-06 0.00018372717 0.0016179195 0.0017522861 -0.0026108774 0.0011369344 -0.0037334096 0.00087778975 -5.6627774e-05 0.0019233011 0.00093528954 -0.0011602504 -0.00033727608 0.0010430644 0.00065238314 0.0035858082 7.1449205e-05 -0.002791216 0.00307196 0.0029953693
31 0.0025377322 0.0013246235 -0.0027516433 -0.0030190214 -0.0009046293 -0.00047787282 -0.0025325113 0.0019085087 0.0032343278 -0.0034777175 -0.0020430286 -0.001691324 8.782048e-05 0.0014721554 -0.0031690616 0.0021689977 0.002997862 0.00010737778 -0.0028109467 -0.0007415297 0.0033399554 0.0005455526 -0.00088121067 0.0022156748 0.0033368724 0.0010080836 0.0015448891 0.0020605656 -0.00022646284 -0.0020755364 0.0021123597 0.0030756409 -0.00093255716 -0.003216504 0.003254414 0.00090051425 0.0010250505 -0.0033279755 -0.0011749016 -0.0027514074 -0.0025924596 0.0029609783 -0.003652976 -0.00021727574 0.0016730402 0.003456494 0.0016826527 0.00026302112 0.0002817298 0.002710403 0.00044541148 0.003529684 -0.0030473159 -0.0018578554 0.0009971192 0.00022480184 0.003809851 0.0003155583 -0.00039182615 0.00333573 0.0017812182 -0.0018178397 -0.0019129093 -0.0026666992 0.0020853402 0.0016906797 0.0024375364 0.0031576608 0.0006779802 -0.0026409316 0.0014985885 -0.0023659174 0.0017638993 0.0036074466 0.0005184802 -0.0018955359 -0.0035740223 0.0022814223 -4.3536593e-06 0.0011079744 0.0010176005 -0.002363148 0.0030618156 0.0017310086 -0.0009215953 -0.0013984689 0.0001385331 -0.0036968524 0.002644752 0.002830982 -0.00047656999 -0.001902346 0.0021250518 0.0024273137 0.0002845575 -0.0014577 0.00051503483 0.0025763332 0.00246527 -0.0033127107 -0.00065876194 -0.00021038519 0.003450232 -0.0018116115 -0.0014032414 -1.3502755e-05 -7.652639e-05 -0.0033994862 0.0027263355 -0.0012886311 0.0025338489 0.00058290805 -0.0035490163 0.0038501944 0.0036765565 0.00064969924 -0.00263179 0.0012258382 0.0021985092 0.001367598 0.0016017149 -9.634296e-05 0.0028601973 -0.00019564714 0.0020128917 0.0018641049 -0.0018084534 0.0014225941
28 -0.00073615887 0.0004908408 0.00012952057 -0.0027954662 -0.0013593222 0.0015773749 0.0024781332 0.0017170599 0.003758519 -1.4302394e-05 0.0022786225 0.0034806281 0.0026447522 0.00077559665 -0.0027417403 -0.00096473354 -0.0022905977 0.0025408922 -0.0031380737 -0.0014843541 -0.0030605625 -0.0026671984 0.0038023698 -0.002835649 -0.0033113244 -0.0024371464 0.002420503 -0.0031852957 -0.0015301966 0.0005603978 0.0027191415 -0.0021248676 -0.00068740855 0.002797323 0.0024530576 -0.0015821385 0.0018618548 0.0037801242 -0.0017804719 -0.0007970545 0.0010144488 -0.003168936 0.001969057 -0.0030897537 0.0023910273 -0.0014114538 0.0014977573 0.0036152103 -0.0016540295 0.0027837178 0.0007579743 -0.0014465577 0.00079316646 -0.0015667125 -0.0022116592 -0.0019423653 0.0028844092 0.0015119887 0.00025108198 0.0021457525 -0.0014182116 -0.0034723545 -0.0024358616 0.0033592388 -0.0036705895 0.0007398888 -0.0022244295 0.0027044867 -0.002621204 -0.0031118717 0.0027567314 0.0015493444 -0.0010442735 -0.003775675 -0.0024481842 -0.00019242399 -0.0009901201 0.0023454651 0.0028716174 0.0035121734 0.0004920671 -0.000832064 -0.0016752676 -0.0011377551 -0.0024274667 -0.0014676695 0.0030103172 -0.0007530166 0.0006811814 0.0037517198 0.0024833248 0.0013153942 0.0031572168 -0.0009999339 0.0017430757 -0.00010533475 0.0022109956 -0.0006786796 -0.002031559 -0.0008851462 0.0012761416 0.0035927482 -0.0036746606 0.00077570503 0.0002908927 -0.00353584 0.0030476495 -0.0032189246 -0.0024633424 0.0031952602 -0.00303601 0.0012810238 0.0016244735 -0.0029839233 -0.0026602868 0.0004998418 -0.0027195862 0.0007894579 -0.0028004046 -0.0011653886 -0.0030227941 -0.0006058301 -0.0032888092 0.0037900275 -0.0032819312 -0.0032950426 0.002074257 -0.0033758325
47 -0.00070439524 0.00030171804 0.0032688698 -0.0025439598 0.00056415267 0.0026177908 0.0024791975 0.0015086032 -0.0028847568 0.003780691 -0.0010323176 0.0012131362 -0.0012186985 -0.0009549817 -0.0022091349 0.00055784994 -0.0025261622 0.00076268404 -0.00046055377 -0.0035748614 0.003238731 -0.0033933814 -0.0025241566 -0.002365495 -0.0024339592 0.0026870877 0.002492388 0.0013888475 0.00035459318 -0.0031210121 0.00060765276 0.0034951577 -0.003406013 0.0014178213 -0.0022255338 0.00044054174 0.0017157855 -0.0016072947 -0.00065238966 -0.0007036864 0.0027326483 -0.0005867792 0.0026005798 -0.002469812 -0.0012250238 0.0037387747 0.0037521706 0.0020136754 0.00045107963 -0.0006533604 -0.002074114 -0.0015138312 0.0033224358 0.002913012 -0.0022641802 -0.0018532577 -0.00086179835 -0.0024691683 0.0037941355 0.00040759696 0.0023844326 0.00067986903 -0.0008349282 -0.00045438542 -0.0012629377 -0.0016675369 -0.0002925641 0.0008944018 0.0003593243 0.00088635425 0.0011618608 -0.0031079836 0.0008220286 -0.0014863407 -0.0031819835 0.0015979445 -0.001897389 0.0010578245 0.003272044 -0.00296239 -0.0023889488 0.0033039716 -0.0006992808 0.0035530434 0.0023458074 0.0016710027 -0.000262111 0.00078840746 0.0015413406 0.0026179797 -0.00031157504 -0.0029414312 -0.0023849318 -0.0008028412 -0.0037488374 -0.0002949627 -0.0024306027 -0.0033187214 0.0010801539 0.0020025433 0.0012901567 0.00048740202 -0.0001735734 -0.0025272975 -0.0035890825 0.0004805552 -0.003654486 0.0029871694 0.0003328038 -0.003564672 -0.0037799072 -0.00274434 -0.002775004 -0.0023044848 0.0010214207 0.003007376 -0.0028869333 -0.0019482952 -0.0027143275 -7.78109e-05 0.002285262 0.00025487994 0.0022450564 -0.002433943 -0.00027291325 -0.0019669137 -0.0037893169 0.0030127778
68 -0.0037566454 1.3011803e-05 -0.0016103535 -0.0004900191 -0.0013162224 -0.00154736 -0.0038715426 4.146631e-05 -0.0031216508 0.002796101 -0.0009051948 0.0028761306 0.00037192818 -0.0008385109 0.001450683 0.0026735805 -0.00271339 -0.0013144289 -0.0029953385 0.0031947945 -0.00082610396 -0.002903763 0.0013756291 0.0030926089 0.001086034 -0.000491709 0.00056513026 0.0013793665 -0.003565197 0.003606449 -0.0023049263 -0.0012404876 -0.0018822119 -0.0031157592 0.0029359467 0.0004635349 0.00043491938 -0.00038355394 -0.0032584348 -8.829738e-05 -0.003735468 -0.003398513 0.0032008844 -0.0005688925 -0.0025980612 0.0029506262 -0.0025997283 -0.0036039567 -0.00222731 -0.0033519354 0.0027812184 -0.0035396854 -0.0014411974 0.0019053271 -0.003456836 -0.0009306843 -0.0002371955 0.0024433718 0.00023648262 -5.2362226e-05 -0.0035234464 0.0024010618 -0.0007655821 -0.0007414639 -0.0038673084 0.0008687001 -0.0037502737 -0.0017602342 -0.0031678514 -0.00059921044 0.0016017953 0.0038416258 0.0005626075 -0.00184762 -0.0005143757 -0.0028477204 -0.0012493364 -0.0034991917 0.0002986174 0.0009123352 -0.000541348 -0.0019970562 0.0011166949 0.0022589746 0.0015917035 0.00011095229 -0.0033447163 -0.0014146987 -0.002638768 0.0010832464 -0.00012227807 0.0017277177 -2.501548e-05 0.0001584344 -0.00077282375 -0.0024162594 -0.0038308902 -0.0023951386 -0.0029419896 -0.0015451662 0.00026926788 0.0033774443 0.0014752777 0.0010705144 -0.0009770752 0.00039707043 -0.0019451247 0.0023918236 -0.0013933984 -0.0029756892 0.002810107 -0.0028460976 -0.0034956797 0.0020007202 -0.0037755128 0.00044822713 0.0014551618 -0.00167078 0.0019405797 -0.00017808077 -0.0012327423 0.0030363945 0.003867541 0.0031660679 0.003713121 -0.0011533668 -0.0011701102 -0.0015161571
61 0.001249116 -0.0025504737 -0.0018942138 -0.0002474774 0.0028567151 0.0031708523 -0.0010076242 -0.0034499203 -1.6690305e-05 0.0031318162 0.0032545957 0.00044667206 0.0031681866 -0.00093149394 -0.0038070302 7.442644e-05 0.00049090025 -0.0023757766 -0.0021414887 -0.0016950704 0.00041312867 -0.0018327684 0.0024360782 0.0003184243 0.00046638542 9.063873e-06 0.0028703772 -0.0005171133 4.928212e-05 0.00054857286 -0.0012864185 -0.0026183042 0.0027279002 -0.0029095118 0.0025675127 0.001021093 -0.0025308987 -0.0021078968 0.00029606387 -0.003616666 0.0026231762 -0.002203399 -0.0024442784 -0.001054516 -0.003355599 -0.003592906 -0.00064994325 -0.0037714583 0.0011400311 -0.002992209 -0.00045165975 0.003850472 0.00051178713 -0.0018773567 -0.0022419824 0.00073518185 -0.0010422786 -0.0023241052 -0.002208274 0.002946207 -0.00057422393 0.0017240542 0.0005566382 0.001004842 -0.0010168306 -0.0022175524 0.00031631882 -0.0036555906 -0.0024391245 0.0026885532 -0.0026812349 -0.0026367821 -0.0010625038 0.0028709595 0.000691449 0.00286055 3.97503e-05 0.0024480952 0.0021308681 0.001799369 -0.0030031626 -0.0010774713 -0.0033577727 0.0036791016 -6.904788e-05 0.00068019575 -0.003689801 0.0007059655 2.4256586e-05 0.00050384284 -0.0038354837 -0.001373157 0.003833807 0.0024325268 0.0024865472 -0.0028194252 -0.0022991907 -0.0024181812 0.0031786894 0.0014577918 0.0029045534 0.00013501516 0.0037565222 -0.003523477 -0.0037810004 -0.0035037932 -0.0035913866 -0.0037182616 -7.4292446e-05 -0.0031358518 0.0017759943 -0.0016023011 -0.0038134519 -0.0030849676 0.0024083937 -0.00042081944 -0.0023706378 0.0004474641 0.0014347612 0.0024134184 -0.003450209 -0.0023556198 0.0013620597 0.0018134636 0.0018150503 0.003056852 -0.003545147 -0.0015661438
51 -0.0027115296 0.0012941153 0.0016592918 0.00086575747 0.0027694907 -0.0038328948 0.0038007312 -0.0029163356 -0.0029884675 -0.00043573815 -0.0015361715 -0.0024642302 0.003889076 -0.00025753383 0.0032120487 -0.00037969887 5.8199068e-05 -0.0012242501 -2.0982528e-05 0.0007860931 -0.0009097928 -0.0030304745 0.000553294 -0.0028440387 0.0017036091 -0.003281197 -0.0032046577 -0.00049073045 0.0019109945 -0.0007915378 0.0030272908 -0.0030368296 -0.0035237775 -0.003363572 0.0013319168 0.0034884093 -0.0009039918 0.0006694481 0.00034452483 0.0009892798 0.0023575404 -0.00029141674 0.0008526854 -0.0030187294 0.0036684773 0.0003573526 0.002907963 0.0015278882 -0.0029568032 0.0005196116 -0.0017300803 0.0018720878 0.0020186044 0.0010339274 -0.0023870978 -0.0015220537 -0.003615308 0.00039347826 0.0018839743 -0.0019874682 0.0021847244 0.0011000792 0.00138862 -0.0021877498 -0.00217797 0.003666134 0.002919739 0.0012214525 -0.0033737142 0.0026432292 0.003046557 -0.0030707486 -0.0032559424 -0.0019735699 0.0008617468 -0.00064292375 0.003386867 -0.0016419139 -0.0020844222 0.00239012 0.00020995483 -0.00078278745 -0.00047759243 0.00079000473 0.0021515116 0.0038675277 0.00014069042 -0.00012540501 -0.00030867214 -0.0030652056 -0.0017755538 -0.0030788712 -0.0035744666 -0.002693004 -0.0027049044 0.0002823022 0.0014117993 -0.0030149773 0.00016242806 0.0014955502 -0.00020664866 0.0011476858 -0.0012509242 0.0018070731 0.001211978 -0.0022780253 0.0033082443 0.002128563 0.0008016072 -0.0026537017 0.0034719522 -0.00040199878 -0.0027841346 0.0015631672 -0.0037444076 0.0014432713 -0.00076321315 -0.0038770072 -0.0007312549 0.0011665102 0.003112464 0.00064096623 -0.0007456516 0.0013650382 0.0037695689 0.0029932072 -0.0006431668 -0.0009879677
80 -0.00038137188 -0.0023282554 -0.002476924 -0.00073050417 -4.0930412e-05 -0.0034077077 -0.003182578 0.0028760314 -0.0022864519 0.0027255777 -0.00077839574 0.0026410974 0.0035201227 -0.0031681205 -0.0031140833 0.00091134495 0.0027719634 0.0024233805 0.0014251854 -0.00054617354 0.0035760982 -0.0010073785 -0.0032017045 0.0029705951 -0.0025016319 -0.0036541072 -0.0005254736 -8.2973e-05 -8.275596e-05 0.0011884345 0.0005320163 -0.0012163022 0.0031953943 -0.00015721547 -0.0035258653 -0.0038105205 0.0019466999 0.0037830074 -0.003359088 -0.0013902107 -0.0022625665 0.0024877018 0.0023539755 0.0010668084 -0.0031706507 -0.002552044 0.0017212228 0.0008572485 -0.003534056 0.0011614672 -0.0011966154 -0.0018766628 -0.0023175117 0.0012032621 -0.0036151467 0.0023264007 0.0026498022 -0.0037816847 0.0016822859 0.0028522918 -0.0012558884 -0.003613678 -0.0026595136 -0.0013780091 -0.0033547422 -0.002136789 -0.003194977 -0.00032444674 0.00054601504 0.0014624514 -0.0037655097 0.0021207363 -0.002712585 0.0035245104 6.195185e-05 0.000121395715 -0.0013912378 0.0029648393 0.0018035369 -0.0019078937 0.0006502148 -0.00031147883 -0.0027123133 -0.0021805882 0.0010651146 0.0016335945 -0.0027872922 0.00276072 0.0021990475 -0.0003130429 -0.0031653205 -0.0009154177 0.0038152933 -0.0033379283 -0.003732153 -0.0021801002 -0.002485084 0.0038286801 0.0010652032 -0.0013286214 -0.0013565164 0.0034134197 7.725681e-05 0.002802414 0.0033315169 0.0007777049 -0.00020540417 7.756612e-05 0.00092810777 -0.0033634114 -0.0016000675 0.0014337243 0.00087827555 -0.0032505528 0.001669225 -0.00020435725 -0.0006234081 -0.0018925981 -0.003004393 -0.003590565 -0.0018769928 0.0034047721 0.0015595459 0.0016688873 -0.0023188016 0.0023712807 -0.0031096612 0.0037833282
49 -0.0013169579 0.0025522257 -0.0011811667 -0.0016513192 -0.003123775 -0.0014531832 7.642889e-05 -0.0013323453 -0.0025324726 0.00045447942 -0.002067945 0.0010341968 -0.0021920514 0.003788844 0.002833539 0.000708313 0.0017347146 0.0034424362 -0.003720751 0.0025377076 -0.002989625 -0.002186538 0.0029517484 -0.0008404449 -0.00044834462 -0.0023899353 0.0017078707 -0.0034147757 -0.0033415616 0.00013105979 0.0013231571 0.0011995642 0.00286248 0.0029036805 -2.4008375e-05 -0.002471809 -0.00020559104 -0.00012812916 -0.00040318878 0.0033960606 -0.0025129165 -0.0009456988 -0.0027359838 0.003005251 0.00023213726 0.0009535197 -0.0030716637 -0.0021553016 0.0031858245 -0.0033643255 0.0028504892 -0.0023347547 0.00035052752 -0.0026513624 0.0034407666 -0.0022254935 0.0028785767 0.001570868 0.0010319706 -0.0006620581 0.0010863444 -0.0037230286 -0.00021565173 0.00034655465 -0.0028512394 0.0021651138 -0.001801665 0.0022790693 -0.00032901394 0.00023086133 0.0027491339 0.003595703 -0.0031696584 -0.0007973721 0.0009530835 0.002147477 -0.0005409357 -0.000883694 -0.0015614496 -0.0020750398 -0.0022367074 -0.0012050963 0.003026124 -0.0015821476 -0.001829963 0.0020287903 -0.002351416 0.002534129 -0.003798079 0.00057718024 0.0022025243 -0.0032928188 -0.00019268155 -0.0009790345 -0.0025225168 -0.00036822504 0.0009758717 -0.00085349724 0.0006710151 -0.0035483083 0.0021227705 0.000625008 0.0017572694 -0.0025574418 3.983976e-05 0.0028992402 0.0011563582 0.0009312551 -0.0012418991 0.003609953 0.0030962038 0.0037580037 0.0023960837 0.003820438 0.00028348435 -0.0037435088 0.0037181485 0.0007026486 0.0030778085 0.0012464538 -0.0024138012 0.0038615027 0.003311118 -0.0015933412 -0.001216731 -0.0006762986 -0.0029096114 0.00019096234
36 0.00056356314 -0.0013229796 -0.001984964 0.0035991285 -0.0034414593 -0.0018125131 0.0017123729 -0.0012243192 0.0004302927 0.0014632961 0.0010346398 0.0035956753 -0.0020148263 0.0032288549 -0.0018979032 0.0013439375 -0.00054090883 -0.0015876082 -0.00263007 0.0024799174 -0.00033691103 0.0014601965 -0.0017958753 0.0032512126 0.0006654868 0.001086868 0.0016261453 0.0004955772 0.0015763241 -0.0028658998 0.00079157366 -0.002737069 0.003484609 0.0006916754 -0.0034168202 0.002312327 0.0010412235 -0.00030947616 -0.0010374516 -0.0013458609 -0.0034706492 0.0019382815 -0.0022347358 0.0001296863 -0.0024685916 0.0009305715 -0.0018711672 -0.00049562356 0.0029894223 -0.0026084436 0.0015566321 0.0034772763 0.0034773774 0.003871828 0.002503272 0.0012494624 0.002560406 -8.897484e-05 0.0014970863 -0.0035307736 -0.0026872046 0.0006098386 0.0027158041 0.00026894858 -0.001716126 0.0007374033 0.0018872665 0.0003120799 -0.0005157439 0.0010642263 -0.0026673684 0.0021584807 0.0035262308 0.0009474975 0.0021954903 -0.00010878893 0.0038059077 -0.0035661128 -0.003585112 9.199498e-05 -0.0036484993 0.003761248 0.0024265992 0.00018835653 0.00051551755 0.00064701616 -0.0028006868 0.00041464923 0.0028535791 -0.0032106915 0.00079306395 0.0018571195 0.00024467768 0.00050314114 0.0011836906 -0.0035035794 -0.0008749142 -0.0018198816 -0.002107107 0.0024734882 -0.0006745979 -0.0022712585 -0.0031177346 -0.0005619804 -0.0021243307 -0.00026461133 -0.0029330992 -0.0024444829 -0.0016581707 -0.0016045328 0.00073671306 -0.0024587591 -0.0011560391 0.00045139523 0.0032736796 -0.0026193587 -0.00203571 -0.0009064188 -0.0014562524 -8.5130785e-05 0.0038757655 0.0010673095 -0.0034264307 0.0023556747 0.0031024097 0.0024468275 0.0025763984 -0.00074797194
24 0.0026445624 0.0022574612 0.003095511 0.0013623878 -0.002425788 -0.0035990342 -0.0036181833 -0.002234174 0.0026952068 0.00059427944 -0.0011228636 -0.0026548705 0.0013792095 -0.00040578644 -0.00042201232 -0.0016064601 0.0016118286 0.0020997396 0.002458301 0.0011071198 -0.002486206 -0.002107934 0.0034207038 -0.0023212046 -0.0033759386 -0.0009417618 0.00056111027 0.0003390918 0.0026081041 -0.0007232937 0.00015635451 -0.0015768224 0.002837624 0.0012295716 0.003366254 0.0016067286 0.0036438592 -0.0015170387 0.002580929 -0.0027765955 0.0011081656 -0.0032224956 -0.0010823538 0.0015612692 -0.000104499326 0.00025138867 0.0010984809 2.741535e-05 -0.0015195102 0.0025681083 -0.0023477697 -0.0012348682 -0.00013485854 -0.00040274457 -0.0005428907 -0.0018543907 0.001105207 -0.00021576608 -0.0030876286 0.0035210892 0.0007650138 -0.002732512 -0.0019175967 0.00011469921 -0.0005540817 -0.0008403992 -0.002263899 -0.0023534526 0.002702095 -0.0025941704 0.003278776 0.0034511124 -0.00063906197 -0.0018684122 -0.0020242557 -0.0012390143 -0.0012395843 -0.0037304363 0.0031516035 -0.00010508104 -0.0033900498 0.0016112755 0.000446998 -0.0021440163 -0.001282403 0.0028769327 -0.0033051637 0.00030311578 0.00024593042 -0.0015464876 -0.0002482769 -0.00056590576 -0.00094646594 -0.002460918 0.0016127474 0.0032264167 0.0033030037 -0.0016350679 -0.0035679294 -0.00013460062 0.003855496 0.0036115737 -0.0023465233 -0.00095850293 0.0017738744 -0.002541117 0.0009136469 0.0011231708 -0.00078480254 -0.0012860666 0.00024369631 -0.0020219693 -0.0009948853 0.002102762 0.0019595549 -0.0024400721 0.001566647 0.0021811859 -0.003012754 -0.0024534806 -0.0013448866 0.00079412496 0.00094916904 0.0018649626 0.0018241885 0.0038084823 -0.00373449 0.0025399
12 0.0026373647 -0.0027466668 0.0021537328 0.0032416722 -0.0009910271 -0.0011145389 0.0028715297 -0.0019091016 -0.00351314 -0.0012772201 -0.0011638922 -0.0030291248 -0.0025044521 0.0038314539 -0.0017128823 -0.0030976536 -0.003775502 0.0009282384 -0.0017668345 0.00048099476 0.0019651924 -0.0026225739 0.00013391521 0.0008943791 0.0015565465 0.003313519 -0.00032251247 0.0030680352 0.0020755355 0.0015632784 -0.0034044716 0.00072117033 -0.0004646119 0.0031613081 0.0022031313 -0.0006759957 0.0014157114 0.0012372077 -0.0018697276 -0.0023269258 0.0036780583 -0.00025271066 0.0033109956 0.0028489176 -0.003124877 -0.003767669 -0.00060208153 0.0013215034 0.0013888585 0.0008609613 -0.0007524642 -0.0032821244 0.0014454249 -0.0016392877 -0.0027817367 -0.0021070386 -0.002688081 0.00051116024 -0.0011120081 -0.0013336394 0.0015097994 -0.000949124 0.0019157603 0.0037590286 0.00031071933 -0.00079398946 -0.0016660729 -0.0032394915 -0.0037221774 -0.00044848767 -0.0030549222 -0.0018319385 0.0030447189 -0.0025460583 -0.0017944921 0.0019093507 -0.0015719185 -0.002748936 -0.0024187507 0.00048551743 0.00010384096 0.00058039295 -0.0025730152 0.00027421647 0.00014496865 0.002442112 0.0017594094 -0.003687718 -0.0037156634 -0.0025215836 0.0016185466 -0.0034634315 0.0016082744 -0.0014002925 -0.00045095794 -0.0010926935 -0.0004745187 -0.0025551496 -0.0035090912 -0.0021896898 -0.0017646177 -0.0018433487 -0.0035743052 -0.0022877913 0.003412345 -0.00054119027 -0.0037197934 0.0032353105 0.00080200174 -0.00025478602 0.0012400531 0.002162647 0.0020661056 -0.0019975381 -0.003298923 -0.0017427629 -0.0007659399 -0.003005897 0.0023502184 -0.001782333 -0.0008859697 -0.00302377 0.0035229232 0.0036398566 0.0012186841 -0.0011571302 0.0005385737 -0.0006172555
69 0.00049875665 0.00023014977 0.0021239454 -0.0008375323 -0.0025777733 -0.002851208 -0.0020789672 0.0016768532 0.0012452098 -0.00018055846 -0.0017185311 -0.002852359 -0.0034277732 -0.000831786 0.0018096339 -0.0034634501 -0.0029147475 -0.0019925137 0.0014502949 0.003361103 0.0022383982 0.0009828691 -0.003255715 0.0024446885 0.0027087966 -0.0030832211 0.0035672367 0.0034603234 0.0018676321 -0.00023787312 -0.0013958684 -0.0010371524 0.0014211874 -0.0003376437 0.0017817578 -0.0025356223 -0.00035525332 0.0030948843 -0.0013167411 -7.7736084e-05 -0.0008349098 -0.001356735 7.627713e-05 0.0019939526 -0.0012295739 0.003663578 0.0036679655 -0.0035015468 0.003797302 0.0016251787 0.002534444 -0.0011012575 0.0019967956 -0.0022749128 0.0030429629 -0.0016306232 0.0015450341 -0.0032024547 0.001206582 -0.0022921101 0.0006630802 0.00078842446 -0.0017192557 0.00036876366 -0.0024801712 -0.0019907732 0.0020550105 -0.001023478 0.003535489 0.0020678851 -0.00033118145 0.00248033 0.0025449279 -0.003390434 0.0003759924 0.0022596796 -0.0027725543 0.0012563796 0.0027732037 -6.528115e-05 -0.00021983143 -0.0028979955 0.0018610685 -0.0031036432 -0.0033160422 0.0027229688 -0.0019193619 0.0027085315 -0.0014420778 0.0009275015 0.0036112743 -0.0027928103 -0.0031805492 6.6131695e-05 0.0005016825 -0.0007554816 -0.0026340897 -0.0014192046 -0.0037530125 0.001658495 0.0012148499 0.0022662545 -0.0011972629 0.0023497406 -0.0011346473 -0.0036339369 -0.0007812323 0.0015198127 0.0014755444 -0.0023528372 -0.000857155 0.00018564955 0.0026526542 0.0016224906 0.00050671125 -0.003261234 -0.0015451721 0.0003853288 -0.0019119759 0.00041183585 0.0021768548 -0.001991114 -0.0017339487 0.001158709 -4.8251102e-05 -0.0027224738 -0.0006762392 0.0035387282
84 0.0018411035 0.00019634077 0.00090910617 -0.0020431078 0.00022410577 -0.001270663 0.00082359865 -0.003768654 0.0021263182 0.0028533791 0.0023898105 -0.0016369232 -0.003024483 -0.00021311425 -0.0010419313 -0.0009411007 0.002565375 -0.0037027418 -0.0022154415 0.00048360566 -0.0014905451 -0.0028666037 0.0025970398 -0.0015871971 0.0038712556 -0.001882923 0.0030037353 1.1758632e-05 -0.0018494793 -0.0014247276 0.003784323 -5.9601454e-05 0.0012117194 0.0012370736 -0.002250573 0.0019994956 -0.0018844269 0.0006306625 0.00082054664 -0.00030855264 0.0037255443 0.0018493375 -0.0013614509 0.0032332467 0.0030401356 -0.0019460367 -0.0028094214 0.0032853957 -0.0011339664 -0.0009879202 -0.0031147168 -0.0020932886 -0.00027616296 0.0036764985 -0.0012082694 0.0017910084 0.0007520972 -0.0005884822 -0.0007425381 -0.0018503825 -0.0030716567 -0.0019530379 0.0005144592 0.0037937278 0.00037556223 0.002995746 0.0014666901 0.0028281368 -0.00057547254 -0.0026096215 0.0028617189 0.00026835257 0.0018580696 -0.0017081382 -0.00020601595 0.0030341235 0.0016439413 0.0013075774 -0.0030414932 0.0008114849 -0.0011327858 0.00057715597 -0.0014004613 0.0007210887 0.0017797814 0.00043881993 -0.002333244 0.00053444714 0.002076525 -0.002392537 -0.0036346172 0.0021023427 -0.0034108679 -0.002637884 -0.0032865757 0.0017434296 0.0010569479 -0.0011043134 -0.002960795 0.0032755986 0.0029224542 -0.0005753441 0.00096921 -0.0019470099 0.0031339023 -0.00019820628 0.00042928645 0.0016289082 -0.0020526766 0.0005929606 -0.003432618 0.0014277978 0.003864297 -0.0030729314 0.0012935447 0.0038049363 -0.0024396877 -0.0012477576 -0.0016996772 -0.0021546122 -0.00046633946 -0.00086767273 0.0026070669 0.0007409001 0.001803382 0.0021201402 0.0036168199 0.003133812
53 0.0021741374 5.093836e-06 0.003617045 0.0035177702 -0.0036718252 -0.0006652611 0.0010903351 -0.002754107 0.0011232394 -0.0017638907 0.0026433375 0.0005302764 0.00082593755 0.002708384 0.001953632 0.0011753403 -0.0030276922 -0.0035371734 -0.0010789462 0.0004153325 -0.0006164794 0.0028598942 -0.0038121738 0.0027239718 0.0037756478 0.003413611 0.0036914886 0.00082600175 -0.0026397242 8.056457e-05 -0.0026246 -0.0013617147 -0.0029962189 -0.00087228836 0.0006960581 -0.0013327758 0.00038332844 -6.0307866e-07 -0.0013234913 -0.0021642076 -0.0031292294 0.0033482963 -0.0011897744 -0.0032068389 -0.0037053146 0.0017326375 -0.0038832424 -0.0020561006 0.0016141869 0.0018430048 -0.0018892436 -0.0030312133 -0.0036875368 -0.0018684485 0.00016432119 0.0036734252 0.0023031726 -0.003677822 -0.0005754698 -0.0028481972 -4.3263528e-05 -0.0012089931 0.0030900373 0.0017217561 -0.0032135427 0.0016666031 0.0022231836 -0.0012456527 0.0037241837 -0.0025046961 0.0018769234 -0.0022772616 0.0024772328 -0.001258512 -0.001585614 0.0005668531 -0.0031763643 0.00060932746 0.0029282125 0.0020679857 -0.000990802 0.002010212 -0.0038120265 -0.001165947 -0.0013347775 -0.0034359552 0.000774327 -8.741551e-05 -0.0017153529 0.0009249512 -0.0009460635 8.7423294e-05 -0.0016784681 -0.0010252428 0.00021448126 -0.0035275146 0.0037719423 0.0007278361 -0.0032444654 0.001058573 0.001511799 0.0030689547 -0.00058855634 -0.002563576 -0.0028232618 -0.003095304 0.0022216372 0.0015244158 -0.00024562093 0.0018765633 -0.0032215377 -0.0022374713 0.00223649 0.0036587298 0.0035768594 0.0032968158 -0.0019640808 0.0038973992 -0.0017748995 -0.0028673902 -0.00285361 -0.0016592076 -0.0020399815 -0.001259947 -0.0010880396 0.0035185714 0.0009886692 1.6768021e-05
8 -0.002552911 0.000981149 0.0005272462 0.00057025655 0.0029839245 -0.002017731 8.884389e-06 0.00064434 0.00081006205 -0.003763153 -0.0012849839 0.0038244387 -0.0014342569 0.0006704344 0.0015673707 -0.00082801253 -0.00089410273 0.0020799397 -0.0007576481 0.0037621236 0.0024076987 0.0031480594 0.0023942986 0.00043753913 -0.00024055687 -0.0018559917 0.0014462376 0.0013767574 0.001698984 -0.00018063844 0.0029237797 0.0012178235 -0.0013106724 0.0013156837 -0.0038724183 -0.0036105334 0.00022516167 0.002067881 -0.0001767578 0.0010089892 -0.0033761014 -0.00096232677 -0.0028238166 -0.0025080026 0.0024357373 0.0034508076 -0.0027786177 -0.0005528106 -0.00219751 0.00061037147 -0.000857543 0.0028058025 -4.9646736e-05 -0.0035473795 0.0013867652 -0.001746286 -0.0027550566 0.0001407327 0.00076084584 -0.0001573889 -0.00031821546 0.0029769521 0.0030703235 -0.00046471335 0.00044467393 -0.0032718056 -0.0035347692 -0.0015770835 -0.001543817 -0.0001573312 0.0023573118 -0.0018065249 -9.806783e-05 -0.0033624752 1.20621235e-05 -0.00092965673 -0.0037153412 0.0007403302 0.0028621554 0.0020152193 -0.0022947092 0.001245412 0.002330168 -0.00019945139 0.0011439748 0.0012033076 -0.002177403 0.0021111693 -0.0032805204 -0.0014766086 0.0038834582 0.00077497406 -0.00088220416 0.0009489341 1.5373029e-05 0.0035332611 0.00089197315 -0.0021191007 0.0004171393 0.002863464 0.0019865835 0.002098202 -0.002120273 -0.0005556694 0.0019163167 0.0035630758 0.0019990937 1.1783907e-05 0.0037665535 -0.0032307182 -0.0012256958 0.0020198065 0.00020575727 0.0037302657 0.0026410082 0.0017147299 0.0011241934 0.00049922365 -0.0018519996 -0.00059771206 -0.002907056 -0.0036499042 0.00095390633 0.00018839151 -0.0018334939 0.001362673 0.0024419073 -0.0036994019
29 -0.0005777157 0.0020636376 -0.0006482696 0.0005616225 -0.00033981755 0.0018115281 -0.0031669342 -0.0012422788 -0.0012307691 0.00018939716 0.0032865535 -0.00032897483 -0.0024096202 -0.0012447701 0.0025460192 -0.0008571052 -0.0010578858 0.00029809691 -0.0021521614 0.0007643324 -0.0024908485 0.0030343684 -0.000562487 -0.003885654 -0.001797703 -0.003413621 -0.0002686446 0.0028139474 0.0038521204 -0.00066337857 0.0033157829 -0.003793926 0.0031753927 -0.0035720463 -3.5177225e-05 0.0020778677 -0.0032030903 0.0013917836 -0.003528541 0.0022947616 -4.816685e-05 -0.0003284595 -0.0025258285 0.00016910705 0.0024045238 -0.0030805506 -0.0010053869 0.0027723338 -0.00016750908 0.0024012006 0.0038138607 -0.003807543 0.0020810443 -0.0028534052 0.0030421652 0.0021842087 -0.0011125115 0.0012415493 -0.0020503236 -0.0032719017 0.0032515987 0.0033637048 -0.00025192322 -0.0014335745 -0.0032921492 0.0032799982 -0.0029512753 -0.0035803113 0.0028171286 0.003445162 -0.0032964908 0.0015932414 -0.0036043804 -0.00044308658 -0.00360456 -0.00060150184 -0.0017068718 0.002398994 -0.0009207665 -0.0014566722 0.0037701963 0.0017248101 -0.0032073657 -0.003287441 -0.0017651852 -0.001236763 0.0007201677 0.0026941625 -0.0024865153 0.002154338 -0.0027408 -0.0009762402 0.002854865 0.0013138013 -0.0018698472 -0.0034308827 0.0032314623 0.001041606 -0.00011932832 0.0023159152 -0.0013232944 0.0019004048 0.0008768373 -0.0028418147 0.0020299922 -0.00012823567 -0.0025706154 0.0033021353 -0.002633386 0.0026150364 -0.0017883199 0.0035020614 0.00024471243 0.0009356579 -0.002626437 -0.001538203 0.0032795267 0.0031086255 -0.0015616908 0.00030423788 -0.0011904571 -0.0024184696 0.0022638899 -0.0036278204 -0.0027963365 -0.003067471 1.061038e-05 0.0016880328
6 -0.00083598844 -5.3775864e-05 0.0011954249 0.0021364181 0.0001876251 -0.0026928599 -0.0031978807 -0.002254818 0.0027870561 0.000819282 -0.0027838491 -0.00022906071 -0.0036858527 0.0010438053 0.0013121031 -0.0022870603 -0.0024275621 -0.0031433078 0.0019021509 0.001879963 0.0013287164 0.000122044345 -0.0001790138 0.0035062046 0.0023101647 0.0029298114 -0.0007982075 -0.0018503146 0.0024887102 0.0038143604 -0.0031507148 -0.003191744 -0.003114124 0.003655908 0.0030345542 -0.0027017884 -0.0021103167 -0.0023692395 0.00086749915 0.0011648173 0.002688387 -0.001184219 0.0035509556 0.00049762207 0.003111873 0.0024928043 0.0035309538 0.0014874005 -0.0022161407 -0.0007072252 0.0032268362 0.002240332 0.0037591844 -0.00036936678 -0.0023916282 -0.00078238477 0.00040567492 0.0011101041 -0.00069931796 -0.0013384736 -0.00047243419 -0.0038061612 0.00021768502 0.00020602591 0.0011807401 0.0028167085 0.0016788619 0.00014561188 -0.002560784 -0.00084085634 0.0015143934 0.0013129689 -2.1965256e-05 -0.001178921 -0.00038885287 0.0016809381 0.001594597 -0.0007248744 0.00061554735 0.003502805 -0.0035157895 -0.00072637666 -0.00031452352 0.0016664931 -0.0007577875 0.0023831406 0.0010665321 0.002451715 -0.003387863 -0.0019946338 -0.0022932903 0.0030422406 0.0009224024 0.0022510826 -2.1126225e-05 0.0018230156 0.00047647126 0.0022376773 0.0012837887 0.003848508 0.0034099442 0.0037199687 -0.0025834553 0.0031916548 0.0016156065 -0.002870328 0.0037984704 -0.0022933795 0.0025334384 0.0024895011 -0.001820718 -0.0015168166 0.0021676193 -0.0020043438 0.0008980426 -0.0010781075 -4.2026706e-05 -0.0012635032 0.0019243914 0.0028330102 -0.0016320135 -0.0028253463 -0.0027361542 -0.0024400374 0.0008988833 -0.00069394824 -0.0028784806 0.0033729542
30 0.0018334084 -0.00030570859 -0.0017238929 -0.0033332058 0.0003758943 -0.0011292791 -0.0005521257 0.002307934 0.0031978393 0.001080774 -0.003566487 -0.0015950372 -0.002480309 0.0034357114 0.00045445343 -0.001504374 -0.0012575827 -0.0005447265 0.00032847835 0.0012546902 0.0033978177 0.0036308947 0.00024860183 0.003771352 -0.003204151 -0.0012977865 0.0006846843 0.0016892834 0.00023103064 -0.0035733478 -0.0009013294 0.002849102 -0.0024779586 -0.0032003564 0.0014782795 -0.002999981 -0.0024597528 -0.002887042 0.0014529945 0.0013590793 0.0038505998 -0.0020414614 -0.0028669962 0.00084201107 0.0016365682 0.0024929245 -0.001971851 0.0024617503 0.0019458017 0.00059547764 0.0011681616 -0.0025428194 0.0031960134 0.0026241923 -0.0023798281 0.0014584643 -0.0017518003 -0.00044789267 0.0003980308 0.00048446326 -4.8724658e-05 0.001284256 -0.00346842 -0.0018126875 -0.0017530592 -0.0030539732 -5.2515246e-05 -0.0006616231 -0.0026190204 0.0029756548 0.00017235168 0.0009463731 0.001916372 0.0021039897 0.0016009907 -0.0038783257 0.0009927117 0.0011529657 0.00369337 0.000510848 0.0025615569 -0.001014433 -0.0038848477 -0.0016228392 -0.003618418 0.002476238 0.0031361224 -0.003082404 -0.0010204897 -0.0029422748 0.0019906864 0.0023863863 0.0009699283 -0.0030527746 0.0014354894 0.0021536937 0.0033531815 -0.0027191462 -0.0019737538 -0.0024595691 -0.0037670238 -0.0027971887 -0.0036886225 -0.0024913298 -0.002935043 -0.0032503412 -0.0008065123 0.0032705322 0.00057549984 0.0003070733 0.0038786442 0.0032031084 0.0004513308 -0.0032042991 0.0020901985 -0.0036367287 0.0031923386 -0.0011216175 0.0035951287 0.0021378405 0.0026015874 0.00046105115 -0.0031836575 0.000961309 -0.002186457 0.0025949054 0.0031219956 -0.00085447676
55 -0.0037772313 0.0027820668 0.00036745626 0.003874475 -0.0033951798 -0.0011403305 0.003793886 -0.0012505371 0.0004277719 0.0031074518 0.0006197775 0.0010803706 0.0036194837 -0.0023597823 -0.00089016254 0.0007537333 -0.001669041 0.0007194991 0.00028175 -0.001676809 0.0022879536 0.0013453519 -0.0019134388 -0.00088603253 -0.0004117881 -0.0014886573 -0.0006511296 0.0020345263 0.0029656594 0.0016315321 -0.0033302356 0.0008278085 0.0019406916 -0.0031651822 0.0031968413 -0.0005225176 0.0018024949 -0.0013930496 -0.0008243745 -0.0013238277 0.00030459688 0.0027488472 -0.0027915551 0.0018278586 0.0014719723 0.0028881452 0.000870127 0.0034390278 0.0022137081 0.0035400423 0.00036436022 -0.0024473623 0.0030227916 -0.002168736 0.0009800572 -0.00055917964 0.0029878695 -0.0014046083 0.0019829723 0.0021925797 -0.0032935007 0.000281214 -0.00087841635 -0.0019028087 0.003753235 -0.0025389735 0.0027362525 -0.002916959 0.00023252355 0.0016044372 -0.0028587633 -0.0028995904 -0.0012778213 -0.002463046 0.0037257436 0.00029930647 0.002396368 -4.046353e-06 0.0033681884 0.0009215325 0.0007569943 0.0015723284 -4.4125954e-05 0.002738005 0.0016172257 0.0017479237 -0.0028851526 0.0031617589 0.00084327906 -6.045209e-05 0.00065150793 0.0014096044 -0.0023972292 -0.003453454 0.0023082774 0.00055835466 -0.0023511515 -0.0018838274 0.0036070019 0.00044814992 -0.003679557 -0.0010814638 0.0033808989 0.0025836937 -0.003105971 0.0030674387 0.0008112539 -0.0036449418 0.0005739714 0.0020470328 0.0028856115 -0.0033747852 -0.0028520492 -0.0021035613 0.0025119472 -0.003398998 0.0036326882 -0.0036854756 -0.0013126155 -0.0016827087 0.002696957 0.0008661592 0.0009875832 0.000931761 0.0032699003 -0.003193471 -0.00090818916 -0.0009633478
65 -0.00047298506 -0.00086332654 -0.0015056046 -0.0028481088 0.0027910487 0.0011207827 -0.0018618138 -0.0019827117 0.0003535755 -0.00032850046 -0.0032801414 0.0036652524 -0.0032467132 0.0012087142 0.00300464 0.0032860683 -0.00030897168 -0.0028956588 -0.0012819918 -0.0038616022 -0.0022616694 -0.0037932282 -0.0017807775 0.0014692382 0.00043447924 0.0028718528 -3.1827276e-05 0.0031160556 0.0012754055 0.0011669633 -0.0037684985 -0.0021308938 0.0010604656 -0.0013309816 0.0038203523 -0.0035367638 -0.0015259823 -0.001420812 -0.00016925085 -0.0034900235 0.0013546512 0.0022616487 0.0033506486 -0.0009351739 0.0023568496 0.00047328603 0.0013617385 -0.0017467563 0.0014212967 0.0036760685 0.0029378338 0.00053687626 0.0018724042 -0.0021225717 -0.0011648859 -0.0021888618 0.0035693736 -0.0028764245 -0.002849586 -0.002214014 0.002844578 0.0015174006 -0.0026285246 -0.0019282174 0.001900217 -0.00047174888 0.0028139027 0.0002666917 -0.0017024814 -0.0032616307 -0.003897274 -0.0026073072 0.0013233713 0.0002582473 -0.0012804436 0.0032988186 0.00097397214 -0.0014701153 0.00070035807 0.00084622647 -0.0012133748 0.0011327963 -0.001047418 -0.0017358571 0.0010749854 0.002898613 0.0028857547 0.0017675209 -0.0015616122 -0.001821669 0.0003788322 0.0035761406 -0.0023668811 -0.00208511 -0.00048100302 0.0004580149 0.00028063715 -0.00063886534 -0.0033458467 0.0027483997 0.00013804443 0.0016076695 0.00021513319 -0.0008273729 -0.0023518666 -0.0008168662 -0.0016967156 -0.003328189 -0.003151285 -0.0031267423 0.0033415845 -0.0017884325 0.00047843845 -0.00075003586 -0.00012790949 -0.003136969 -0.0007543962 0.002289623 -0.002673143 0.0015643343 -0.0032963757 2.5488229e-05 0.0013362429 -0.0030931653 -0.0011985437 0.0021085264 0.0024666912 -0.001105046
56 -0.00056040246 5.799436e-05 -0.0037701745 0.003590753 -0.0038064504 -7.721028e-05 -0.0037582354 0.00268948 -0.0036242835 -0.0026316438 0.00056157913 0.0016191113 -0.002653272 -0.0007942485 0.0030738618 0.0036785533 0.0022781952 0.0035799618 0.00045169218 -0.00021768965 -0.0012911881 -0.0023728334 0.0012288021 -0.0023888757 -0.0015831614 -0.0034799601 -0.0015941309 0.0019600703 -0.0017783606 -0.001654236 -0.0031197348 -0.0030380064 0.00067295 -0.0020270827 0.0028395355 0.000541785 -0.0036306963 0.00050098816 -0.0014471613 -0.0023146032 -0.0007211438 -0.0027375498 0.00056266994 0.00269387 -0.0013648395 4.6068228e-05 -0.003721873 0.0003131236 -0.0018071887 -0.0025056046 -0.0014203583 -0.0010219867 0.0013277545 0.0031042418 0.0034406772 -0.0034442088 0.0037280067 0.0032160403 -0.002987558 -0.0006216839 0.00080036186 0.001787263 0.0027711059 -0.002455147 0.00039947708 6.281473e-05 -0.003824424 0.0015059551 0.002136109 -0.00041703283 -0.0016595369 0.0023232761 0.0015452472 -0.0032968966 -0.0012427563 -0.00013797964 0.0021131148 0.000411045 -0.0007713988 -0.0010540517 -0.0030568484 0.00029472169 0.0011827233 -0.0008933581 -0.0025248518 -0.0023282955 0.0018740634 0.003479471 0.00061386125 -0.0020126747 -0.0013808882 0.0033208975 0.0020306732 -0.0030984848 0.0002747368 -0.0014766906 0.00014173529 -0.0021246704 -0.0019791292 0.00027130698 0.003409645 -0.002468007 0.0017543723 0.0038031628 -0.0018925968 0.0028054935 -0.0035912904 -0.0030697018 -0.0021006325 0.00023785942 -0.0015069217 -0.00266485 -0.0036639234 -0.0029429013 -0.0036047802 -0.0029124953 -0.0021891277 -0.0010340728 -0.0019104835 -8.8660716e-05 -0.0037849862 0.0015353458 0.002640844 -0.0023319493 0.0027047487 -0.000510078 0.0010404944 -0.0025091977
17 -0.0006938617 0.0016695834 -0.0007723847 0.0025304456 0.0027437462 -0.00048374225 0.0019429827 -0.00035273674 0.0029970217 0.002136835 0.000767268 -0.0036167705 0.00057159265 -0.0017345846 0.002103069 0.00013265309 0.0017277201 0.0038125764 0.0016290105 -2.51672e-06 -0.0033595928 0.0022880638 0.0009226831 -0.0015506934 -0.003615702 -0.0018720753 0.0018375141 0.0034886613 -0.0024701362 -0.0024291254 -0.0010504858 0.003076554 -0.0027176253 -0.003557248 -0.00093756523 -0.002633609 -0.0005772679 0.00042359644 0.0010434494 0.0007577367 -0.0030960934 -0.0014126857 0.0019585174 0.0022873855 0.0012859971 0.0021875054 -0.0013436859 -0.0011010182 -0.0023039738 0.0010052673 -0.0038319381 -0.0007617071 0.0026927278 -0.0036145872 -0.0020254503 0.0034072236 -0.00038367507 -0.0012189705 0.0022041088 -0.0025375267 0.0010192931 -0.0028482531 -0.00029017552 0.0029263531 -0.00094734586 0.0038582012 -0.0032291918 0.0033348263 0.0016708707 0.000531915 -0.0011960672 0.0006516867 0.002691372 -0.002392649 0.0016488994 0.0027681233 -0.0016477044 0.0017435165 -0.0036815943 -0.0022284247 0.002517697 -0.0027460444 0.00349454 -0.0015507684 -0.0023193518 -0.00043111615 0.0023968322 -0.0035581281 0.002234916 0.00013723207 0.0032766575 -0.0013547508 -0.0023872075 0.0030636392 0.0018335521 0.0024992174 -0.0024473788 0.0015501557 -0.0025014908 0.001425122 -0.0008072961 -0.002439313 -0.00169881 0.0010469289 -0.0020992006 0.003171216 -0.0009672761 -0.0022469778 -0.003248941 -0.00054257794 -0.0031092344 -0.002291919 0.0035679345 0.0033839976 0.00071775314 0.0005784311 -0.0029495298 -0.0031455574 0.0034147422 0.0015296444 0.003788783 -0.0034668052 0.0025557117 0.0034208845 -0.0008312251 0.0017368365 0.0025574367 -0.00094273593
70 -0.0005669092 -0.0028516413 0.0013113788 0.00095365534 -0.0017219755 -0.0024040665 0.0035314003 -0.0016274569 0.0026873148 -0.0027651717 0.00013665932 0.0035954511 -0.00019029867 -0.0018133336 0.0029792183 -0.0035050346 -0.0023952827 0.0012551321 -0.003376517 -0.0003353397 0.0027483867 0.0004861676 0.0029630808 -0.0008251888 -0.0018564635 0.0005849461 -0.0021277315 -0.0035230182 -0.0037891485 -0.001569863 0.0022261795 -0.0022397623 -0.001166018 0.0003962463 0.0020093925 -5.625327e-05 -0.00021516853 -0.0008903534 -0.00011707049 -0.0003472394 -0.00024315117 0.003646383 0.0013450697 -0.00118302 -0.0004659683 -5.6563582e-05 0.0024516452 0.0009808065 -0.002732036 0.0017456859 -0.0020375042 -0.0036382594 0.0031363945 0.0028580588 0.0025863273 -0.001959765 -0.0036779323 -0.0033332792 3.6172805e-05 0.0014654646 0.00017490784 0.002724908 -0.0037655337 -0.00040688238 -0.0037566307 -0.0014903601 0.00062077725 -0.0013962036 0.0022469393 0.0024382325 -0.0009158895 0.0019298398 -0.0016978139 0.001382858 -0.0027083082 0.0034532088 -0.0028483055 0.00084168866 -0.0015099659 0.0033239895 0.0012092456 -0.0024092644 0.0011062715 -0.0034454663 0.00037213968 -0.0019293806 -0.0011657217 -0.002581098 0.0033985334 -0.002794083 -0.0009496304 -0.0014927182 0.0027689573 -0.00011889522 0.00091404846 -0.0024919014 -0.0004978887 0.0038525276 -0.0019256623 -0.0010688123 -0.0013910806 -6.8032765e-05 -0.00101169 0.0008695157 -0.0011032982 -0.0023527378 -0.0009699225 -0.00312907 -0.0015792847 0.0037502323 0.000906765 -0.0008594415 0.00088137493 -0.0011605062 -0.0022148832 -0.0022651872 -0.00038682463 -0.0035147981 0.00042232664 -0.0017562418 0.0018506964 -0.0033632442 0.003139891 0.0012512803 0.00083817996 -0.0012919948 0.002702538 -0.0029133921
77 0.0014807663 0.000440025 0.00057137496 -0.0029731793 0.0014292512 -0.0023804368 -0.0031137113 0.0012318355 -0.0002518861 -0.0008830463 0.0018272455 0.0017295608 -0.0008930151 -0.00038294645 0.0015996078 -0.0007578741 0.00011340763 -0.0007065002 7.988098e-05 -0.0013200578 -0.0034620017 -0.0018672287 -0.0028470734 -0.00070208136 0.0017191877 0.0032648225 -0.0037740045 0.0020043391 -0.0036335248 -0.003252355 -0.0032547754 -0.0036685995 -3.090753e-05 -0.0022933218 0.0002457308 -0.00063716614 0.0033666992 0.0013053293 -0.003021314 0.0019772951 -0.0031731788 0.0029864279 -0.0034515264 0.0025088056 0.002872768 -0.0035139278 0.003409695 0.0036840525 0.0008732413 -0.0035922856 0.002315896 0.0016331109 -0.0020037089 -0.00051558914 0.00055383163 0.0006080944 -0.0029339176 0.003470675 0.0038413377 -0.0026298256 -0.0022748534 4.245301e-06 4.2257478e-05 -0.0016637625 0.0029242611 -0.0017479815 -0.00070221414 -0.0033221415 -0.0022711765 0.00363857 -0.0037098099 -0.0022250833 0.0005398695 -0.001243722 3.4380468e-05 -0.0025499847 -0.0014578186 -0.0015491801 0.0020268979 0.0022344233 -0.0027947554 0.0006616959 0.0037341616 0.0021258625 -0.0019524354 -0.0011401742 -0.0011985367 -0.0031073152 0.003416348 -0.0015329556 0.0020963703 0.0023474952 -0.003350559 0.00045485052 0.0018995053 0.0034365822 0.0019145926 0.0037662261 -0.0026532973 -0.000680462 -0.0014293425 0.0027178146 -0.00066666544 0.0036837487 0.0028078353 0.000100968165 0.00096207956 -0.0018742816 0.0005607821 0.00020172341 -0.0014349563 -0.002946887 -0.0031242797 -0.0018957212 0.0018180627 0.0030805224 0.0033286859 -0.0038628087 0.0018763081 -0.00026107553 -0.0021165707 0.0012138077 0.00036078595 0.002323011 0.0023412434 0.0031002183 -0.0007237185 -0.0010416945
22 0.0020517642 -0.00079938665 -0.002553487 -0.0017172701 -0.0026534945 -0.0027766775 0.0011005776 -0.0018801708 0.0031935251 -0.00071763695 0.0008944452 -0.0018852201 0.0038536233 0.0038406744 -0.0012744482 0.002478953 -0.0022091346 -0.0036629091 0.0030618142 0.0031817022 0.003153952 -0.002823229 -0.0003115088 0.0019953947 0.0016904206 9.9832105e-05 -0.001249508 -0.00067191495 0.00025643507 0.0031849241 -0.002361877 0.0015685091 0.0017073938 -0.0014885825 -0.0027213322 -0.00011066347 -0.0029841592 0.0038106914 0.0029505433 0.003151164 0.0036737197 -0.002505662 -0.0005926407 -0.003238153 0.0023993056 -0.0014040358 -0.0014700084 -0.0022826828 0.00038484548 -0.0017852155 0.0032507451 0.0035271286 -0.00013014761 -0.00091576343 -0.00084658567 -0.0006832591 -0.0018871429 0.0014134907 0.0038716984 -0.00045908816 0.0006025578 -0.0023158435 -0.002290817 -0.0016026522 0.0032886874 -0.0035253442 -5.4599623e-05 -0.002877371 0.00037663573 -0.0035894136 -0.003872967 0.002310499 0.002890172 -0.002097195 0.00048405808 -0.0029655702 0.0035566606 0.0032369974 -0.002456336 -0.0020369862 -0.003826148 -0.00059113966 0.0021267731 0.00052790315 0.002971127 0.001051279 -0.0011646433 -0.0020649254 0.0018787603 0.0020569658 0.0014915876 0.003479037 -0.0023805834 -0.000466919 -0.0037485769 0.001135413 0.0027150414 0.003108429 4.2921925e-05 -0.0017510692 -0.0014062789 -0.00082869385 0.0018647534 -0.0021723157 -0.002996965 -0.0025567182 -0.00303811 0.0015135604 -0.0037894608 0.0012055387 0.003830419 0.002592083 0.0011446852 -3.286294e-05 -0.0009133385 -0.0030893264 0.001179228 0.0038670315 0.00019027767 -5.9378195e-05 0.00147629 0.003222422 0.002250231 -0.0037208355 0.0027737329 -0.001497149 -0.00299766 -0.0023994965
7 -0.0037324168 -0.0008102625 -0.0030346424 0.0036488888 0.0038529267 -0.0030480414 0.0035210804 -0.0010931479 0.0035659 -0.00076815306 -0.002520566 0.0025937946 0.0036685714 -0.00325343 -0.0028141856 0.00043197503 -0.0008416682 -0.0036298 -0.0030955041 -0.002826746 -6.313783e-05 0.0036233468 0.001852267 -0.003705973 -0.0033150152 0.0027806358 -0.0034391957 -0.0021680545 0.0031049405 0.0013657928 0.0023959517 -0.00046169054 0.0018586605 0.0032917252 0.0030602708 -0.0021592728 0.00055061164 -0.0016692302 0.001040843 0.0006042193 0.002543048 -0.002273078 -0.00328871 0.002616954 0.0031219476 0.0018987927 0.0019079124 -0.0007726545 -0.0007874032 0.0010701416 -0.0038482754 -0.0022449126 0.001002007 -0.002570114 0.001549734 0.003327906 -0.0031548466 0.0005773578 0.0032030728 0.00037241942 -5.577392e-05 -0.003343373 -5.3507945e-05 -0.0025580865 -0.002289818 0.0024829325 0.002389134 0.0022842137 -0.0022704322 -0.0019796202 0.0037293884 -0.00085813773 0.0025527189 -0.00092387444 -0.00306216 -0.00029031542 0.0019115667 -0.0032865715 0.0019783017 0.0036973883 0.0010266704 0.0029157358 -0.0014856855 -0.003704923 0.003553114 -0.0023190454 -0.0006919212 -0.002853758 -0.0029675271 0.0018643762 -0.0037731545 0.0014275678 0.0029040251 0.001520067 0.00022420785 -2.1867882e-05 -0.0010618559 -0.0015214981 -0.00073507393 0.0015486167 0.0026517825 -0.0021412126 0.001900351 -0.0023444437 -0.002085054 -0.0012646228 0.0005933712 0.0010406805 0.0014864973 0.0009604859 -0.0010530516 0.0032416328 0.0035563696 -0.00020871263 0.0020666106 -0.0012435603 0.000468915 -0.0035289947 -0.0022491347 -0.003394683 -0.0006121614 0.0007427327 -0.0038969177 -0.00065486773 0.0017613836 0.0023647973 0.0023678392 -0.0027696085
13 -0.0005578437 0.003455568 -0.0031285598 -0.0011552783 0.0017617608 0.0010199718 0.0029154725 0.0025963408 -0.0031301507 0.0028630502 -0.0017385329 -0.0029840944 -0.001539776 0.0022538838 0.00243256 -0.0029425807 0.00067061547 -0.0033502528 -0.002871419 -0.0030238675 0.003809929 0.003342943 -0.0027129522 -0.00023768873 -0.0032981748 0.0005170375 -0.0022073302 -0.0006026635 8.004408e-05 -0.0027093391 -0.0013326367 0.0038881393 0.0030085163 -0.0019975058 -0.0026868782 -0.0009904117 -0.002584146 -0.0038758344 -0.0016687794 -0.0011622411 -0.002321946 -0.00023466103 -0.0030951586 0.0008488958 0.0017204903 0.00019457751 0.002942507 0.00040296782 0.0020069568 -0.0021459842 -0.0031973354 -0.0012652015 8.869385e-06 0.0024640688 0.0034368583 0.0030765305 -0.0015164021 -0.0014952102 -0.00021375327 0.0028752752 -0.0020418367 0.003580017 -0.001171514 -0.0019061342 -0.00070808234 0.0010002427 0.00065311993 -0.00018251034 0.0026931562 0.0021489356 -0.00097646954 -0.0002445178 0.0034102406 0.0034946897 -0.0033330335 0.0027570485 -0.0024766386 -0.0009395643 -0.0030918962 0.0013011235 0.0020813418 0.00015159968 0.0026800248 -0.0016911279 -0.0033787566 0.0030895995 0.0019362172 0.0029683544 0.0026690196 0.0014355483 0.0026620398 -0.0024371755 0.002277564 -0.0028717373 0.002683262 -0.0019363262 -3.970368e-05 -0.002972677 0.00070156524 0.002466934 -0.0024202028 0.00046236397 0.0032930484 -0.0029318356 -0.0014957227 0.00020612613 -0.0026311616 0.0007605271 0.0027585456 -0.0036679497 -0.0002351699 0.0022086664 0.0017850795 0.00028127417 -0.0031598457 -0.00045485157 0.0020106991 0.0019360104 -0.0030306648 -0.0005009578 -0.00014099534 0.0035812673 -0.0014295087 -0.0012308711 -0.0012746418 -0.0028381187 0.0030422036 0.00350315
72 0.0010963925 0.00049038813 0.00027073344 -0.0021500115 0.00031872882 0.00013603628 0.00010756801 -0.0012276282 0.0019849124 -0.0035001365 -0.0020296834 0.000809698 0.0032578493 0.003238469 0.002098011 -0.0033230737 0.00020867983 -0.0014862526 -0.0022731202 0.0009574156 0.0014809621 -0.00089194416 -0.0003239867 0.0039033385 -0.0011372893 0.0003165544 -0.0029523508 -0.001865413 -0.0034497883 0.0016234803 -0.0019889867 -0.0012182891 -0.0013206045 0.0022590149 -0.001971727 -0.0013539223 0.0006214872 -0.0030948652 -0.0034881185 -0.00089298683 0.0030870766 -0.0008518772 -0.00080083805 0.0024382756 0.00375634 0.0030846584 0.0036365339 0.0022896104 0.0031994313 -0.00056830427 0.00069402065 0.001744005 -0.0013819244 -0.0001628922 0.0014656507 0.00259924 0.0011797828 0.0027997105 0.0011935405 0.0022876628 -0.0038912052 0.0016287044 -0.0030661041 0.00020945906 -0.0007864917 0.0028820888 -0.0014574712 0.0038714483 -0.002484946 -0.0021003138 7.661169e-05 0.0024226382 -0.0009771001 0.0033889052 -0.0036521691 -0.000685096 0.0014759682 -0.0033303318 -0.00071422936 0.0024202697 -0.0032769872 -0.0006444955 -0.0011250185 -0.0014730555 -0.0013246088 -0.00036383228 7.531868e-05 0.002043192 0.00023853425 0.002985911 0.00088384724 0.0018634076 0.0032968197 -0.00075223384 0.0028372416 0.0022380068 -0.0033184625 -6.651614e-05 0.0012917748 0.0034335821 0.0015172035 -0.0031905784 0.0020498785 -0.0006102142 0.00033460723 -0.0019092938 -0.00029137297 -0.0021783058 0.0013099809 -0.0001872418 -0.0032046372 0.0035699648 0.0037757112 0.0026115647 -0.0026759603 0.0037182271 0.0037766201 -0.0035310106 -0.0013096986 -3.451366e-05 -0.0023128185 0.00012435598 0.0006098846 -0.0001682866 0.0025282656 0.003690549 0.0015082447 0.00087334024
32 -0.0015520483 -0.0027570718 -0.0026928692 0.0025483258 0.0013895875 -0.0025802685 -0.0033761486 -0.0013127206 -0.0033108236 -0.00016088954 -0.002906548 0.0033188104 0.00261017 0.0029426236 -0.0023005488 0.00056433125 -0.00035954313 -0.0025170385 -0.0035788144 -0.0025890977 -0.0011818829 -0.00084342685 -0.0015024551 0.0016483455 -0.00285199 -0.0017459254 0.0012317053 -0.0017668806 0.0004885228 0.0010149039 -0.0004485673 -0.0012797131 -0.0015021138 -0.0015074654 0.0023797995 0.00010722948 0.0034017474 -0.0003081458 0.00021126115 -0.0021662044 0.0005372421 0.0038612678 -0.0036883063 0.0038203262 -0.003137731 -0.0036140555 -0.0034127762 -0.0014291193 -0.002618553 -0.00050999754 0.0019322126 -0.000692827 0.00022759094 0.0032775921 0.0008789824 -0.0033734455 -0.0016137514 0.0032470222 -0.0019654955 -0.003768569 -0.0037376445 0.0016054255 0.0015220155 0.0028923578 0.0016019179 0.00030321884 0.00017475804 -0.0019397822 -0.0024868348 0.0021459486 -0.003293974 0.0007211738 -0.003872563 0.0011936718 -0.0005349742 8.947446e-05 -0.0031953508 -0.001238257 0.0016241983 0.003482087 -0.0011352012 0.0036435886 0.0025873156 -0.0013183041 -0.003831231 0.0017043124 0.0022661202 0.0023411647 0.0026266917 0.003288546 -0.00059154927 0.0002660906 0.0017162712 0.0007381041 0.00340049 0.0036665732 0.0022180544 0.00073866243 0.0008056958 -0.0005931393 -0.0033223485 -0.0010067739 0.002952529 -0.0011348203 -0.0020624849 -0.002430129 0.0010372946 0.0032183675 0.0011566385 0.0017013507 -6.204531e-05 0.0028727672 -0.0010216751 0.0038935689 -0.0005647778 -0.002884753 0.0026983048 -0.0013219789 0.0037292363 0.0008132075 0.0033497282 0.0012912618 -0.002049226 0.0019858629 -0.0017999945 0.0017309372 0.0036803181 -0.0015025589
67 0.0037677907 -0.0015269096 -0.003481422 0.003648255 -0.0007361602 -0.0022642107 0.003677622 -0.0036143695 0.00245238 -0.0028687879 -0.0013282133 -0.003402915 -0.0017499973 -0.00031591856 -0.0018622337 -0.00017739591 -0.0028954705 0.00021606105 -0.00055530603 -0.0035875451 -0.0007704773 0.002980032 -0.0018716977 0.0022736934 0.00298863 -0.00093530363 0.00027684806 0.0021479346 -0.0030674643 0.0031380553 0.0011262244 0.0017969887 -0.0037659951 -0.00015011914 -0.0005257708 -0.0036554814 -0.00013220591 -0.0035799916 -0.0029182364 -5.712161e-05 -0.0029493556 -0.0014438739 0.0023580287 0.0038930445 0.0037426525 0.001080797 0.0008154197 0.002750581 0.00043371128 -0.0015838044 0.0035799213 -0.0033354762 -0.0039006532 -0.0021944465 -0.0026461184 -0.0018339206 -0.00027520795 0.00047285474 0.0034107694 0.002303899 -0.0022241946 -0.0016301654 -0.0019164099 0.0027086206 -0.0014637858 -0.0021971872 -0.0033258833 -0.000503529 -0.003083116 -0.0032924595 0.0015308831 7.822589e-05 -0.001411987 0.0006970973 0.0029095954 -0.0029714506 -0.0032972698 -0.002335925 -0.00067355455 -0.000370233 -0.0031895186 0.0036745896 -0.003551701 -0.0004990558 -0.0009767641 0.0017528922 -0.0024106174 -0.0025258379 -0.002387963 -0.0030263464 -0.0035242788 0.00293943 7.2442395e-05 -0.00055662077 -0.0024933366 0.001740519 0.0032774615 0.0008325063 0.001705533 0.0019993098 0.0028147944 0.003280613 0.0014008433 -0.0021141127 -0.0018413329 -0.0012612918 -0.0037401742 0.0014842459 -0.0012263062 0.0009764875 0.0004980361 0.0031732249 0.00071208907 -0.0031957445 0.002291289 0.0018068857 -0.0017036273 -0.0035751192 0.0029131263 0.0014500112 0.0021425218 0.003267965 0.0017469397 0.0021441623 -0.0005142102 -0.0032290628 -0.00016356904 0.002257673
38 -0.0035155024 0.00057510735 0.0032262595 0.00353878 -0.001577043 -0.0018058643 -0.0010938112 -0.00020235359 0.000667145 0.0034770248 -0.0014526431 -0.00093381555 0.0014020758 -0.0012656888 0.0016109344 0.0034050543 -0.0027265984 0.0015099953 -0.0023050902 -0.003008654 0.0035848233 0.0016624404 0.001973553 0.0022364617 0.0023324986 -0.002200748 -0.0013946998 0.003805704 0.0035660954 -0.0008248355 0.0020375815 -0.0021472743 0.001404876 0.0009759327 0.0031712705 -0.0032559056 -0.0035139828 -0.0020609752 -0.0014520423 0.0035893503 -0.003181394 0.002855055 0.000666726 0.003264229 0.00046178125 0.0025476154 0.002443113 -0.0026140497 0.0037976094 0.0006980531 0.0019280402 0.0037032433 -0.0007850356 -0.0026490693 0.0038871637 0.00278493 -0.0037853024 0.0003302091 0.002253739 -0.0034868906 -0.0038048825 -0.0037643684 0.0024080689 0.0012426515 -0.0032003976 0.00263708 0.0013753688 0.0014895893 -0.0017537838 -0.003640025 -0.003767374 0.00049625296 -0.0025508443 0.00023187396 -0.00025723764 -0.0031775679 0.00014122603 0.0029158785 0.00031829096 -0.0035725816 0.0009472299 -0.0005733151 0.003617971 -0.001827715 0.0004619993 -0.00033553477 0.00072737114 0.0021980728 0.0020872646 0.0018576321 0.0012379908 0.0026060957 -0.001613604 -0.0022354885 0.0025010183 0.0013793227 0.0020328967 0.0020484934 -0.00077595335 -0.0015299235 0.000610489 0.0030451065 -0.0019186514 -0.0006235469 -0.0010035521 0.0014114212 -0.0026127778 0.0037326573 0.0028819495 -0.002386839 0.0031676004 0.003642297 0.0034752009 -0.003819655 0.0016467365 0.0012936674 -0.00022340326 -0.002817114 0.00012848471 0.0007772979 2.778401e-05 2.7296484e-05 -0.0011672261 -0.0011488097 0.002882961 -0.0029341269 0.0035109005 -0.0029466925
21 0.00035095698 -0.0014370481 0.0018241876 0.003094957 -0.0017898607 0.0013892914 -0.0032211721 -0.0014110123 -0.0005834211 -0.0028821912 3.473847e-05 -0.0008272606 0.00070950977 0.0035193884 -0.0025579752 -0.0012994156 -0.002075116 0.0034307053 -0.0038842754 -0.00047950304 0.001975205 -0.001916 -0.003008262 0.001960189 0.0009859888 -0.0022906768 -0.00012030301 -0.0014937803 -0.0005637418 -0.00031686103 0.0024293812 0.0014933001 0.0021862474 0.0007485191 -0.0021463935 0.0029153386 0.0035808934 0.0038917025 -0.002408116 0.0035282294 -0.00064846955 -0.0032113933 -0.003291704 0.002551118 -0.003312412 -0.0022974461 0.0014520177 -0.0025452587 0.0005077292 0.0010969038 0.0012905232 -0.0022369043 0.002678235 0.00021430847 0.0021321299 0.0028355704 -0.0020302539 0.0013478866 0.0022889422 -0.0018146493 0.0016334982 -0.0034041128 -0.0012492344 -0.0011965147 -0.001160561 0.001161828 -0.0009733322 -0.00036910162 0.0033971511 -0.002999749 -0.0025883592 -0.00035433925 0.0010567622 -0.0029447973 -0.00025568507 -0.0029382037 -0.0037277844 0.0025577245 0.0013187248 -0.002993997 -0.0012565076 -0.001153428 0.0023212146 -2.7067192e-05 9.0979316e-05 -0.0033456301 -0.0036062414 0.0024308357 0.0029033937 5.279049e-05 -0.0017054048 -0.0017644952 -0.0033828602 -0.00054437644 -0.0031654611 -0.001849052 -0.0021347 0.0012061563 0.001520481 -0.0019202228 0.00034098048 0.00015745808 -0.003060178 0.0011485508 -0.0019032626 0.0024882553 -0.00087081135 -0.0027746528 8.592954e-05 0.0021010463 0.0019621777 -0.0019091064 -0.00040691762 -0.0014801265 0.0018349641 0.0031638874 0.00046112182 0.002329644 -0.0025719749 0.003792001 -0.001269704 -5.9866055e-05 0.0024245835 -0.0010420048 -0.0026793675 0.0024560967 -0.0030279886 0.0038130207
76 0.0024446573 0.0009263461 -0.00021892338 0.0030280876 0.0015703203 -0.0011067735 0.00037323672 -0.0019934243 0.0017094802 0.0027601311 0.0005945077 0.001379365 -0.0017394586 -0.0008301488 -0.0025176338 -0.0023458654 -0.00091749046 -0.002784337 -0.0034869644 -0.00077707326 -0.0031353997 -0.0007762218 0.0016051882 -0.0022394706 -0.0008723137 -0.0025374964 -0.0014448257 0.0031732451 0.0012112503 0.0020117809 -0.0005257231 0.00093879603 0.00022330187 0.00022609289 -0.0022138122 0.0008298177 -0.0032814385 0.0037730758 -0.0017061624 0.0031202664 -0.0038611488 -0.0024663727 0.0017085922 0.00024009307 0.0031711238 0.0038293002 -0.0035606832 0.00013557644 -0.003652423 0.0014939775 -0.0006491731 0.002369763 0.0008254376 -0.001415821 0.0021459819 -0.00066885515 0.0007953788 -0.003486416 0.0029883387 -0.001780919 -0.0027948474 0.0033889906 0.0012449888 0.001748375 0.0012359491 -0.00087086594 -6.574633e-05 -0.0002876562 -0.0017875888 -0.0034671645 0.003288813 -0.0015119095 0.0033000999 -0.00046720152 0.0010157307 0.0009180156 -0.0010633417 -0.0036018959 -0.002256707 0.0011610561 0.0028117336 -0.00014277 0.0035302106 -0.0011559447 -0.0009141065 -0.0028627506 -0.0015420127 0.0026736923 -0.0037399605 -0.0038873213 -0.0031150184 -0.003852169 -0.0010795412 0.0031266646 -0.0010637686 0.0032872753 -0.00047689863 0.0020309484 -0.0027593125 -0.001178187 -0.0002731534 -0.0015055317 0.0009920626 -0.00074328575 0.0029026037 -0.003084465 -0.0028856497 0.0019473103 -0.00183517 -0.0027955417 0.0034623228 0.0036702792 0.0003481033 -0.0015719729 -0.0035081368 0.0022313565 0.00025970154 -0.0012060923 0.003143012 0.002562975 -0.0030494921 -0.0007287226 -0.003800417 -0.0023383994 -0.002125718 0.0022313555 -0.0023132742 0.0021113816
3 -0.0011063496 -0.0023842098 0.00255774 -0.0024617917 -0.002098904 -0.0015463271 -0.00082486705 0.0037459321 -0.00036369928 0.0038235683 -0.00032670924 0.0014910729 0.0021759744 -0.0011672735 -0.003707076 -0.0030203445 -0.0010209378 0.00024254544 -0.0015778729 0.0027866282 0.00029393772 0.0026594223 -0.0028592155 0.0031254215 0.0031601074 -0.00018151298 0.0009887763 -0.00092453125 0.0007592607 -0.0020489574 0.0005690163 -0.0025092992 0.000114246 -0.0036460473 0.0012528631 0.0029097456 -0.0010242731 -7.653631e-06 -0.00050480216 0.0030793743 -0.0019373205 0.0022081092 0.00222169 0.003671037 -0.0029734522 0.0025256253 -0.0004606142 0.0018425914 -0.00065198273 -0.00083086034 0.0023689382 -0.0033531922 -0.0007900004 -0.000529462 -0.0012808088 -0.0005365417 0.0011903066 -0.0034161154 0.0012094645 7.7771045e-05 0.00013450011 -0.00056116754 -0.002976551 0.0034575942 0.0034091473 -0.00037787683 0.0006436726 0.0036449633 -0.0037051612 -0.0019982434 0.0033265096 0.0035707646 -0.00020052704 0.002036641 0.00029531692 -0.0012274908 0.0037188076 0.0006284795 7.6247605e-05 -0.0004930758 0.00056105887 -0.003663729 0.00296169 0.0006230369 0.002194499 0.0026530183 0.002302525 0.0016021745 0.003687671 -0.0021950565 -0.00052291696 0.0004526089 0.0014470362 0.00021258958 -0.0016249714 -0.002646572 0.0023359358 0.0038702309 0.002113829 0.0016215455 -0.0031125876 -0.0016327099 -0.0011358879 -0.0024919517 -0.0022645125 0.0019101473 -0.0005413954 -0.0003177536 0.0007344714 0.0001567664 0.0038707252 0.0038185944 -0.0015766793 -0.0006470407 -0.0003902909 0.0031563924 6.8812544e-05 0.0033558784 0.0030087337 0.0033967802 0.00065002055 0.0018199541 -0.0005481042 -0.0018513151 -0.0027871742 -0.0031664483 0.0034291467 -0.0029522644
2 0.0016481997 -0.001493115 0.0037717922 -0.0005589462 -0.0019793662 0.00032860035 0.0024889256 -0.0032014006 0.0017728567 0.00023610222 0.0024314858 0.0026215764 0.002941452 -0.00010572345 0.0018636623 -0.0020293633 0.0013069501 8.0006685e-05 -0.0028331976 0.00092418335 -0.0034195913 -0.00065559155 0.0034879583 0.00059052545 0.0033285131 -0.0017513382 -0.0018882107 -0.0011883249 0.001957145 -0.0036351318 -0.003744025 -0.003258722 0.0012428921 0.0004503963 -0.0035905072 0.003170928 -0.0004686568 -0.0038371573 -0.0019224841 -0.0023329377 -0.00051279087 0.0035640541 -0.0019888121 -0.0030156684 -0.0035035969 0.003039519 -2.7784086e-05 -0.0006003364 -0.003647931 -0.0030012953 0.00085061725 0.0028301484 -0.00021362452 -0.0025547238 6.502733e-05 0.0022692923 0.0038200647 0.0021974435 0.0032929615 0.0017986293 0.0006594016 -0.0022418436 0.0025543636 -0.0036808082 0.0016214403 -0.0028548231 -0.00049462233 -0.0027286871 -0.002066487 0.002935393 0.002072697 -0.0014455911 -0.0038831537 0.0018561895 -0.00025596994 -0.0006252414 3.789471e-05 5.9442686e-05 -0.00028993835 0.0023693752 0.00084599206 -0.002561974 0.0025970147 0.0010077849 0.0025319615 -2.443982e-05 0.002662459 -0.00057815993 -0.0026024797 -0.0015092348 0.00043617908 0.0019513071 -0.0015398696 0.0004032131 0.0034478991 0.0020051335 0.0027482582 -0.0012303999 -0.002100814 -0.0030114034 5.8244597e-05 -0.00038667317 -0.0014398218 -0.0029469263 -0.0017346591 -0.0022800218 0.0012357786 -0.0024227973 0.00031018726 0.0031009517 -0.0022145861 0.00077490136 -0.0031922995 -0.0006173411 0.0028917976 -0.0015844263 -0.0034949626 -0.00027994337 0.0032285259 -0.0029987535 -0.0020129173 0.00066304405 0.0036743218 0.0026992518 3.5462836e-05 0.0011869749 -0.0026854845 -0.003462274
87 -0.00018688204 -0.0011094388 -0.00030423066 0.0005226774 0.0035580024 0.0015056117 -0.0006345026 -0.0024578338 0.0023988017 -0.003115974 -0.0037070927 -0.00225178 -0.00124818 -0.00084115437 0.0017463833 0.0017050715 -0.002993698 0.000880244 0.00096152176 -0.0010156662 -0.0018653814 0.001605884 -0.0027656022 0.0019621302 -0.0004762698 0.0029300444 0.0015966479 0.0030318934 0.00023974132 -0.0038834116 0.0002826295 0.0027692898 -0.00094549794 -0.00016231336 -0.0017923636 -0.0029941066 0.00057851564 -0.0017945055 -0.0024446144 0.003600746 0.0026912983 -0.0034818996 0.0018977103 0.0034492041 -0.0025547447 0.0010974425 0.0038844624 0.003223343 -0.0019660727 -0.0011870197 0.0025000342 -0.00031143273 -0.00014387547 -0.0038357915 -0.0009951736 -0.0005322903 -0.00372 0.0037520807 0.003314759 0.00072034216 -0.0022762548 -0.000987993 -0.0015614793 0.001586396 -0.001036607 0.00032614561 0.002853979 -7.572609e-05 0.00049296307 0.003618109 -0.0004445085 -0.00030962602 0.0029581878 -0.00052636815 -0.002196531 0.0023188149 0.0007814508 -0.0013750206 0.0018894831 0.0038130772 0.0017519523 0.0020082588 -0.001465007 0.0028173104 0.0027960795 0.0025814362 0.0033656734 -0.0008014373 0.003148074 -0.00047773772 -0.0019082022 0.00033457493 0.0030016059 0.00067377515 0.00081403804 0.002709444 -0.003847523 0.0013052403 0.0021291608 0.0023030879 -0.0002892462 0.00240869 -0.0023804123 0.0022357018 0.0015411914 0.0011774676 0.0037517375 0.0013067195 -0.0030682434 0.0003623523 0.00022796192 -0.0029521908 0.003083668 -0.0020240946 -0.0018813135 -0.0021547351 -0.0004792425 -0.00026199457 0.0008402492 -1.7562148e-05 -0.003682124 0.0006706453 0.0012272303 -0.0021242364 0.003782257 0.003444104 -0.0014485384 -0.0017782915
18 -0.0011538087 0.0009956018 0.0016479245 0.00078725466 -0.0015531257 0.0026760667 0.0036280793 -0.0011295064 0.0011545176 0.00039297141 0.001016668 4.345674e-05 0.002817087 -0.0014205149 0.00296732 0.0032238192 0.0009957033 -0.0029662352 0.00012701459 0.0035307095 0.0020690376 -0.0032153323 -0.0013329677 0.0010176129 -0.0034101317 -0.0020878136 -0.0027093673 -0.00088791456 0.0005531427 -0.0030907954 -0.00049881695 -0.0038517483 0.0024869822 0.0029697004 -0.0038223253 -0.0025550309 -0.0014657632 -0.0017430098 -0.0031263086 -0.0012812434 0.0016488917 -0.0022975074 -0.0026475836 0.0007644179 0.00033138518 0.0035718984 -0.0032748769 -0.0038424027 -0.0030380872 -0.0034282384 0.0008349222 0.00040421044 -0.0035509411 -0.003138526 0.0037547234 0.0014003346 -0.0028999432 -0.003695712 -0.001899281 -0.0005658344 0.0012571964 -0.0011047326 -0.0020421979 0.0028159462 -0.0031685047 0.0010547722 -1.7203953e-05 0.0022980059 0.0026650971 -0.00043212753 -0.00046961664 -0.0011043458 0.0031220268 -0.003514907 -0.0013030907 0.00096450065 -0.0020181234 -0.0034499078 0.0032172694 0.0037743065 -0.0031341112 -0.0029449274 0.0009342667 -0.00034253203 0.0018832077 -0.00054971926 0.0005015199 -0.0028325627 -0.0006272749 0.00059032894 0.0035376153 -0.0017274258 -0.0003936155 -0.0014267329 0.0020286622 -0.0029682426 -0.0021816613 -0.002990995 -0.0036936519 -0.0036526206 -0.0024945778 -0.0036349334 0.000485456 0.0011259218 0.0010205451 0.0037838828 -0.0021726177 1.7104665e-05 0.003485327 -0.003556194 -0.0011116334 -0.0003775148 0.0035159818 0.0020821323 -0.0019724283 -0.002506932 -0.0028050242 -0.0031270566 -0.0019903758 -0.00076685334 -0.0025044081 0.00279794 -0.0002535409 0.0025471677 0.0022339316 0.0011497987 0.0024178613 -0.0034664434
50 -0.0014410934 0.0012084651 0.0008905877 -0.003774641 0.00019043277 0.003835567 0.00044411162 -0.0007152503 7.9127625e-05 -0.0020244836 0.0029910791 0.0010033397 -0.0025686016 0.0004306617 0.00085431786 -0.0017957909 -0.0024174312 -4.803627e-06 0.002986925 0.0023511501 -0.00090343744 -0.0031353908 -0.0015753652 0.003195572 -0.00042299548 0.0029744578 -0.0007781163 0.0030942725 0.0011417641 0.002866996 0.003189985 -0.0023552484 -0.0007621292 -0.003098334 -0.0027029724 -0.0016760946 0.00262231 -0.0019439963 0.0010339415 0.0016798911 0.0039004222 0.003509058 0.0027038185 -0.003005667 -0.0022346573 0.0024058127 -0.0013747105 3.7024463e-05 -0.002483984 -0.0022470672 0.0021050717 -0.0023983764 0.0009486322 -0.0037667267 -0.0038646844 0.0015448375 0.0027323607 0.00347726 0.0017556652 0.0012752349 0.0015663533 -0.00107792 -0.0020370148 0.0007035018 -0.0035622227 0.0012306763 -0.0003940124 0.0018057147 0.0032256925 0.002242789 0.00092883914 -0.001013798 0.00015044598 -0.00065548444 -0.0013588282 -5.452958e-05 -0.0008726043 0.0030752611 0.0004144213 -0.0015951737 5.905527e-06 0.00061877025 0.00019132643 -0.00090767525 -0.0023689133 -0.001723058 0.0029254968 0.0025670251 0.0034092637 0.0015125948 0.0027972283 -0.0021616404 -0.00021651415 0.002880424 0.000506231 0.0018085041 0.0023781639 0.0022912826 -0.0030109321 -0.0010811054 -0.0032757877 -0.0028185078 0.0024955429 -6.542552e-05 0.002932011 0.0019180913 -0.0023472004 -0.00223237 -0.0020007836 -0.00104019 0.0031808934 -0.0011622176 0.00055586227 -0.0030940948 -0.0010554045 -0.0008602208 -0.0035215851 0.0024220985 -0.002226825 -0.001975554 -0.002614842 -0.003753338 -0.0024394484 0.0025616135 -0.0005816546 -0.0033835552 -0.0033788527 0.0010223942
66 -0.00029199524 -0.0009721508 -0.002137762 -0.00043629837 -5.172904e-05 0.0035276283 0.0005929162 1.8115396e-05 -0.0009476689 -0.0015272736 0.003531963 -0.002123698 0.0031386523 -0.0023188028 -0.002997947 -8.766205e-05 0.0030493885 -0.00018575185 0.0017546874 -0.00086060487 0.0032244865 0.0035572334 0.0033552635 -0.0022051672 0.0010023982 -0.000111440124 -0.0017920248 0.0014699614 -0.000495801 0.0032282225 -0.0030477745 -0.003295053 -0.0027282217 0.0012586041 -0.0001462996 -0.0016554965 -0.0024148065 -0.0021634016 -0.0032502052 -0.0038280054 -0.0024531004 0.0034363454 -0.00093806145 -0.002943848 -0.0019578587 0.0004888671 0.0027192691 0.002447799 -0.0006028956 -0.00010005144 -0.001313702 0.0017957604 -0.0016199147 -0.0021363392 -0.0020390325 0.0034017125 0.0034692166 -0.0014361404 -0.0024368726 -0.0020176773 -0.0023270578 -0.00037617696 0.003286198 -0.00250949 -0.0035179502 0.0033972932 0.0004615219 -0.00010028236 -0.0024566485 -0.003275291 -0.00216865 -0.0021543724 3.4147764e-05 0.0012734052 0.00045332 0.0013672521 7.03416e-05 -0.003464094 -0.00042770215 -0.0018433793 0.0020161488 0.0019941763 -0.0038183816 -0.0021383232 0.0014206425 0.0006970358 0.002188396 0.0017017932 -0.00091903063 0.003333553 -0.0022969928 0.003871152 -0.0008479451 -0.00046743566 -0.0010714125 -0.0009828756 0.0026337258 -0.0027267344 0.001885517 -0.0015955408 -0.0026869837 0.003807766 0.0028007687 -0.0006644778 -0.0014224594 -0.002883071 0.0021310702 0.0032270835 -0.0030189708 -0.003302119 -0.0009416971 -0.0023036841 0.0015887553 0.0026016452 -0.002023468 0.00015324238 -0.00026368332 0.0038214494 -0.0004075225 -0.0036965 -0.00214669 -0.0015202558 -0.0034300357 0.0023641754 0.0011229995 0.002485816 0.0021306523 -0.0037649954
1 -0.003308601 -0.0018800793 -0.0020875093 -0.0019395354 0.0031223267 0.0014286222 -0.00057883223 -0.0018366514 0.0038093363 0.0017212847 -0.0021881727 -0.003049321 -0.0027603225 0.0038991806 -0.0038703948 -0.003346471 0.0030519818 0.00044948325 -0.0033957947 -0.0013157504 0.0026026068 -0.00020455517 -0.003618617 0.0017316509 0.0023193192 -0.002085137 -0.0002512236 -0.0013759873 -0.0010487515 0.002424463 0.0039047927 -0.003604479 -0.0034392262 0.0032843566 0.00070383504 0.0008703495 -0.0036019303 0.0007860468 0.0013239586 -0.0035706586 -0.003724178 -0.0032199086 0.0034168332 -0.0032504546 -0.0020281363 0.0023566848 -0.0027662648 0.00204998 -0.0008822044 7.333012e-05 -0.0019135389 0.0018648483 0.0033668147 -0.002592563 0.00056426984 -0.0012982157 6.2658386e-05 0.0010995553 0.0003557962 0.0008210822 0.0018212631 7.860291e-05 -0.00028856096 0.0032494308 0.0020062856 -0.0004927454 -0.0008524041 0.0023032515 -0.0038090588 -0.00059197214 0.002674831 -0.00063986995 0.00091683987 -0.0025671555 0.0020534005 0.0028357143 0.0016526142 0.0009502768 0.0038035777 0.0009434837 0.00064648426 -0.0036912241 0.000537616 -0.003572515 -0.0012366442 -0.0015226008 -0.0006088141 0.0007116501 0.003061366 -0.00271124 -0.0016053028 0.00023310917 0.0019210047 0.003473028 -0.0026784549 0.0027728234 0.0032152347 -0.0010253701 0.0026742236 0.0032939618 0.0012594498 0.0008781631 0.00036302337 0.00065142545 -0.001499343 0.0018454671 -0.0022429307 -0.002924637 0.0021295226 -0.0024413578 -0.0016919534 9.4314375e-05 -0.0007449827 -0.0019007968 0.00063822523 0.0012780004 0.0016573592 0.0038527132 -0.00021980089 -0.0013890127 0.0010809392 -0.0036149998 -0.0038372555 4.4460703e-05 0.0030423969 0.0011644175 0.0010522003 -0.0011834415
26 0.002334258 -0.0020849581 0.0031899512 0.0024494212 0.00257509 0.0023072031 3.6288486e-05 0.0025630929 0.0018156454 0.002117549 -0.0021287866 0.0017995259 0.0038280394 0.0006364358 -0.001175803 0.0024157779 0.0009770032 -0.003787221 -0.00025235026 0.0035368109 0.0033281492 0.0025450685 -0.003766539 -0.0025026454 0.00013942165 -0.00035645204 0.0025393376 -0.00039613945 0.0024076854 -0.0027775262 -0.003205271 0.0006338106 -0.0019808987 -0.0017645039 0.00012596571 -0.00064632914 0.0017160239 -0.003355979 -0.0013944104 -0.002521989 -0.00300811 -0.0036080654 0.0029391362 0.0006300026 0.0030907064 -0.0011328789 0.0019956417 -0.0015121278 0.0031534017 0.00021671173 0.0032378782 0.0032869496 0.003037094 0.0020570501 0.0014005417 -0.0007897183 -0.0028448107 0.0007482224 0.0029898833 0.003577538 -0.0008096309 -0.00083253236 -0.0029187754 -7.296779e-05 8.4071e-05 0.00026730943 -0.0029198488 0.002035029 0.00085765467 0.0033592165 0.0033782932 0.0020785886 0.0015866421 -0.0036059213 0.0009542632 -0.002750056 0.0023790637 -0.003253517 -0.00014323361 -0.0038438388 -0.000983783 0.0016799923 -0.00019544298 -0.0016025578 0.0026715423 -0.0025307576 -0.0029306752 -0.0007977054 0.0028189593 -0.0013030685 0.00079872244 8.989826e-06 0.0029412904 0.0038920455 0.001163439 0.0007431372 0.0038841227 0.00068369537 0.00086144416 0.0016573925 -0.0034451468 -0.0012010025 0.003766501 0.0037810935 -0.0018905213 0.002722752 0.0013434005 -0.00058988016 -0.00035041277 0.00057694694 -0.0017458522 -0.0010074389 -0.00022625164 -0.0017564859 -0.0020758659 0.0037436928 0.003136828 -0.0005896762 -0.0014083801 -0.00087075157 0.00088266295 -0.00024526785 -0.0021530883 -0.0015776223 0.0014001407 0.0018607745 0.0013202858 -0.00040307586
89 0.00038692585 0.002495669 0.0028354707 -0.00020529013 0.0009994383 -0.0023917763 -0.0016986844 0.0017522549 0.0034905397 0.0017648658 -0.0013872213 -0.00228566 0.000774141 -0.00033588716 0.0032748492 0.0024992607 0.0037060732 0.0025481144 -0.00041868616 -0.0018675455 0.00012696694 -0.0033604426 -0.0036274444 0.0012876103 -0.0019203422 0.0029667737 -0.0022351355 -0.003394043 -5.7741407e-05 -0.0015882862 -0.0021398952 0.0011868895 -0.00091310666 -0.0020006653 -0.0005033038 0.003638083 -0.0030847036 0.00035347627 0.0038723997 -0.0009631957 -0.0038585137 -0.0033132262 0.0009866928 0.0021518525 -0.0006564944 -0.001344938 0.0023142751 0.0029355234 -0.00073567074 -0.003901572 -0.0032867277 -0.002633678 0.0028602756 4.315633e-05 -0.001592469 0.00017055633 -0.0038562734 0.0032211735 0.0032939191 -0.0015688778 0.002682756 -0.0027704812 0.00026442466 0.0014366084 -0.0014279905 0.002816811 0.0032167751 -0.0038549006 -0.0013737176 -0.0012225042 -0.0017482385 0.0013268222 0.003414409 0.0024496333 -0.00024878484 0.0010352494 0.00047444305 -0.0024753541 -0.0033672694 0.00073784625 -0.0014010082 -9.581973e-05 0.0033043895 0.0023053426 -0.003873933 -0.0020663568 0.0014891836 0.0010786911 0.0034569977 -0.0018759184 0.0015892513 -0.0008377413 -0.0033626663 0.0033600861 0.0025810245 0.0026152509 0.00019502947 -0.0020751639 0.003583011 0.00031203055 -0.0025516518 0.0013458012 -0.0013459404 0.0033275103 0.0031879174 0.0016647228 -0.00333799 -0.00040940443 0.0036026235 0.0025013844 -0.0010355747 -0.0010952755 0.0026687004 0.00094939256 -0.002190292 2.7898455e-05 0.0033205193 -0.0021854239 0.00045393096 0.0031259344 0.0013727845 -0.0037750553 0.0029633057 0.0022183617 0.001209271 0.0024864674 0.0012453584 -0.0010873309
59 -0.0031585048 -0.002830623 0.0036876686 -0.0012071594 0.00019917446 0.0034017921 -0.0026313795 0.0037294046 0.0031948017 0.00045927818 0.0009800886 -0.0030115999 0.0013504565 -0.002971511 -0.0023470474 -0.002561163 -0.002246564 -0.00055756 -0.0011554295 0.0024846944 -0.0033291767 0.0006877658 -0.0020360549 -0.0022721766 -0.003675324 -0.0017183167 -0.002263344 0.0029847138 0.0013374834 -0.002646819 0.003577463 -0.0009727231 -0.0012888709 0.0022263126 0.0011314427 0.0026379137 0.0020483981 0.001458165 -0.00011224889 -0.0026100113 -0.003257182 0.0012530736 0.0020346737 0.0025602626 0.0013893533 0.0017511853 0.0023838698 0.0034735566 0.0024042418 -0.002205875 0.0017580098 0.0038564655 0.0031759331 0.0017684548 0.0019639814 -0.0022676266 0.0038581584 0.0011043778 -0.0014829091 0.0023051526 -0.0009809339 -0.0003152673 0.0009798342 0.0019794875 -0.0010340337 -0.0020217376 -0.0004681027 0.0001248958 -0.00039793347 -0.00096724293 -0.0030277919 -5.743062e-05 0.0033788069 -0.0034871032 -0.00034445946 -0.0036157358 0.00064388476 0.003880061 -0.0017509029 0.00126903 0.003303856 0.0011234942 0.001227877 -0.0025475891 -0.0022913362 0.0020110097 0.0012553246 -0.003415345 -0.003038651 -3.9271785e-05 -0.0032691665 -0.0013027489 0.0027171217 -0.0032245067 -0.00095561007 0.00014734478 -0.0023870703 0.002601228 0.0028600523 0.0010207553 -0.003493849 0.0006476676 0.0016135678 0.0014240766 0.0029186786 0.00033976033 -0.002673668 0.002747917 0.002427743 0.0038805318 0.0034453282 0.0036895594 0.002517597 -0.0012095356 -0.0013054877 -0.0012581854 -0.0012960155 0.0023344683 -0.0028884874 0.0013293766 0.00086136913 0.0025858036 -0.00018437373 0.002927573 -0.000967118 0.0032449889 0.0009184577 0.0011072956
88 -0.000580828 -0.0028549754 0.0005576305 0.0034233585 -0.00029016694 0.00069021207 -0.0006460587 -0.001677061 -0.0020103708 0.0008893368 0.0013572243 0.0026372008 -0.0011745705 0.0029442583 0.002092741 0.0035361832 -0.0037192237 0.0021726931 0.0016997281 0.0008559191 0.0018511735 0.0025724322 -0.002472764 0.0038113263 0.0028152363 0.0034019807 0.002853719 -0.0021545535 -0.00074305915 0.0036525705 0.001302299 -0.003090937 0.002790596 -0.0024905112 0.002036198 0.0022718832 0.0036034451 0.0007524056 -0.0019901954 0.0022429484 0.0029991227 0.00022848048 -0.0003588301 0.0037947735 -0.0025831673 -0.0018896144 0.002533973 0.0038778747 0.0030081929 0.0013083834 -0.0036819926 -0.0016654495 0.001423923 0.0009062843 0.00070069585 -0.0011189063 -0.002634586 0.0024343012 0.002841619 0.0016448332 -0.0026182628 0.0010026074 -0.002723018 -0.0008834179 0.0035675839 -0.0001480424 0.002209863 0.000111472364 -0.002739348 0.0020673731 0.003231213 0.0027846838 -0.0005470339 0.0015906707 0.0020236769 0.0014779012 -0.0020223483 0.0016648842 -0.0004675996 0.0024720163 0.000119084194 -0.0014362504 -0.0003116402 -0.0038447392 -0.0036984629 0.0029477812 -0.0035550992 0.0030540328 -0.0010739055 -0.00043917994 0.00043337728 -2.0179246e-05 -0.00064072426 -0.0022717146 0.0022196705 -0.0029253724 -0.0016101002 -0.0033401605 -0.0024961228 -0.00034452477 -0.0020846748 0.001828385 -0.00043408078 -0.0033128655 -0.0016790987 -0.0016219085 -0.0017984214 -0.002867139 0.0001220359 0.0021522671 0.0017785502 0.0019115756 0.0011477598 0.0020990008 -0.0025975613 0.0016837781 -0.0009891764 -0.0006817236 -0.0038674995 0.0038105135 -0.0007543926 0.0015702201 0.0012117691 0.002557599 -0.0025242392 0.0026817722 0.0011859158 0.00029643683
60 0.00354448 -0.0022333195 0.0014958872 -0.0023279474 -0.0017679003 -0.0035606425 -0.0022834614 0.003568056 0.0022514719 -0.0037378597 -0.0024744417 -0.0025775484 -0.0020566657 0.0015738893 -0.0017770488 -0.0019728458 -0.0003993887 -0.0007223444 -0.003724564 -0.002405174 0.002545021 8.301105e-05 0.00069779844 0.0010779074 0.002698318 0.0030426735 -0.003717799 0.0023741492 0.0025659108 -2.9630026e-05 0.0020329647 -0.0025035879 -0.0025388936 -0.0006981941 -0.0005468397 -0.00086869346 0.00154368 -0.0032625664 -0.002407692 0.001549553 -0.0038983189 0.00024982798 -0.0005724863 -0.0024685995 0.0006748376 -0.0032611163 -0.002452858 0.0005512302 -0.002685649 -0.0032813263 -0.0012458964 0.003852951 0.0010713557 -0.0017044247 -0.00024693532 0.0037217238 0.0029426194 0.00086683565 0.001961165 -0.0036739851 -0.003214453 0.00055337424 -0.000979186 -0.003645294 0.0038594033 0.0031777339 0.0039060947 0.0018309365 0.0019384474 0.0031528098 0.002698497 -0.0031971342 0.0007429077 0.00033942476 -0.0022008002 0.0020853486 -0.0011064153 -0.00085464335 0.0036642978 0.00012788823 -0.0016701206 -0.0032366533 -0.0001484558 0.00058138836 -0.0008567444 0.0011433318 0.00056569517 0.0028415602 0.002540194 0.0012303321 0.003597949 0.0015559774 0.0016864456 -0.0015603657 0.0014545326 -0.0021526916 0.0010102117 0.001378163 -0.0010189523 0.00075013336 0.0019461863 0.0034017486 0.0034584263 -0.0029309446 -0.0018997855 6.763586e-05 -0.0012592216 0.0003140933 -0.0019617097 -0.0027256806 -0.002235291 0.0003103384 0.0020781895 -0.003595299 0.0007370528 0.0020997527 -0.003470584 -0.0032964197 -0.0032248378 4.8246056e-05 2.6858193e-05 0.0015008543 -0.0005228518 -0.0037212851 -0.0024396852 0.0024773595 -0.0004246885 -0.0034817737
52 -0.00093778886 0.0012782086 0.0037183885 0.0011203524 -0.0022176614 -3.636352e-05 -0.0013327872 0.0018608398 -0.0011315605 0.0020412426 0.002786912 0.0034308708 -0.00089205225 0.0027625924 0.0027021328 0.0005223757 -0.00042702406 0.0037223217 -0.00015189848 -0.0024375017 0.0032375406 0.0026970913 -0.0034805778 0.00048674224 -0.0019175266 -0.0014330723 0.0010797151 0.0039028635 -0.002109431 -0.0012727097 -0.0018042303 -0.0032802513 -0.0019256738 -0.003333466 0.0005999903 -0.0029562132 0.0035740726 -0.003478722 -0.00059337396 -0.0038816223 -0.0001277764 0.00086619327 -0.0024886664 -0.00076217996 0.0007912473 0.00040155856 0.0023037698 0.0022173834 0.0032463863 0.0028313068 0.0031200023 0.0010637463 -0.003265196 0.00079925184 0.0022269115 0.0037258968 0.00047128703 0.002379315 0.0034551208 0.002916887 0.0003051505 0.001351243 0.0021900197 -0.0005628122 4.2759904e-05 0.0028095127 -0.0014028187 -4.705284e-06 -3.5554844e-05 -0.00043101088 -0.0026131475 -0.0021428724 0.0017460906 0.0028927254 -0.0007567615 -0.00086304673 0.0005675576 0.002327801 -0.00024386588 -0.0023544384 0.0011993268 0.0035079478 0.0034017717 -0.0036313806 -0.00038440822 -0.0015806615 -0.0032250716 -0.0022856833 -0.0012433847 -0.0022846262 -0.0021109073 -0.0036122696 -0.0025310116 -0.002287064 0.0023679833 -0.0012765024 -0.00017414885 0.00066936656 0.0017272164 0.00055364764 0.0037071295 -0.00049557205 -0.00066381076 0.001426583 -0.0031166663 0.0018785263 0.0036650416 0.003869852 -0.0018817465 0.00020097365 0.003295603 -0.0024362586 -0.0030794994 -0.0016916264 -0.0030275593 -0.0021951275 -0.0012273163 -0.000176122 0.0030609176 0.00093836035 0.0035740535 -0.0028762482 0.002252317 -0.0021883443 0.0014756789 0.0024954414 -0.0021916039 -0.0036536157
9 -0.0015406281 0.0026632417 0.002238859 0.0020707147 0.00188391 -0.0022161752 -0.0029110832 -0.0014043405 0.003677244 -0.003842776 -0.0006674098 0.0013762447 -0.0011207762 0.0020602637 0.0034383896 -0.002989727 0.0010123719 0.0025865696 -0.0037743482 0.0011632685 0.0026163657 -0.0031505588 0.0005560121 -0.0013510293 -0.00033774946 -0.0028142072 0.002512883 0.0013713324 -0.00079967635 1.0054495e-05 0.0030129398 0.0032441353 0.001188028 -0.0015159656 0.001087388 -0.0025051488 -0.0014952569 -0.002652725 -0.001329377 0.0027308406 0.000994428 0.0011461184 0.0019967225 0.0035578334 0.00020476742 -0.0005447874 0.0027641254 -0.0035068179 -0.0024052805 0.0023209911 -0.00016823696 0.0032261063 0.0017206824 -0.00017786615 -0.000599527 0.00063115545 0.001647276 0.002608709 -0.0011502849 0.003139622 -0.0032540737 0.002272463 0.0034187923 -0.002323043 0.003531686 0.0015266011 -0.0022749314 -0.00032847252 0.0039061669 -0.00039080717 -0.0020795593 0.0024297906 1.7114253e-05 0.000561391 0.00306513 -0.0006516089 -0.0021938146 -0.00017135256 0.002438249 -0.002051477 0.00012966602 -3.3822087e-07 -0.0011819799 -0.0030427505 0.0012429248 0.002025292 -0.0026510598 0.0014889517 -0.0020869398 0.0024885763 0.0011456581 -0.0038368555 -0.002642223 0.0005754174 0.0038820612 -0.0005635786 0.0006715086 0.0032230131 0.0024597323 -0.0031692304 -0.0015449474 -0.0024532601 0.0028017208 -0.00020595713 -0.0031854066 0.0032424768 -0.001052131 0.0009025852 0.0011227457 -0.0014734805 0.00072346366 -0.003722101 0.002109259 -0.000960365 -0.00053805916 0.0018208164 -0.0034973712 -0.001722065 0.0017198874 0.0021474347 -0.0009632961 0.0021562513 0.001976399 -0.0020419843 -0.0003159816 9.75773e-05 -0.0019327283 0.0017939715
5 0.0029537282 -0.0036680733 0.0035366856 -0.0011538168 -0.0027044746 -0.00032157497 0.0012727275 0.0038428528 -0.0037057349 -0.0024925512 0.0014374563 0.0013034894 0.0032820909 -0.003827467 -0.0023074544 0.00040654416 0.0017055571 -0.0023847055 -0.00038647742 0.0016198633 -0.00018332749 0.0005193928 0.003071136 0.001157581 -0.0014168792 0.0012277778 0.0020124333 0.00011741809 -0.00046672756 0.00016546655 -0.0034081305 0.0009269216 -0.0013238731 -0.0039005931 0.0038555588 -0.001348882 0.0029852008 0.002297655 0.0023221043 0.0017771062 0.0035365126 0.0026060187 0.0012203332 -0.0027081063 -0.0034533131 0.0028344472 -0.0033038335 0.0037841513 0.00204603 0.0015979222 -0.00032220062 0.0021523952 0.00047749202 -0.003026173 0.0021499698 -0.0018854447 0.00028942918 0.003736445 -0.0037998026 -0.003164404 -0.003100848 0.0030750474 -0.00039436284 0.0027882846 0.0009209429 0.0009630042 -0.00023951869 0.0036585194 0.0034525236 0.0036102582 0.0007125895 0.0013407102 -0.0023975193 -0.0019979463 -0.0007048287 -0.0018996749 -0.0005168673 0.00075609196 0.002666375 0.0024065655 -0.0014839632 -0.0036199144 -0.0007083209 0.0022048822 -0.0002723313 0.0006018913 0.0020548264 -0.0014551916 -0.0011479156 -0.0031426593 0.0013723208 -0.003854503 -0.001390341 -0.00065220566 -0.0025301126 -0.0029911655 -0.0008444331 0.0012924249 0.0038183255 0.002452346 -0.0034618455 -0.0033895273 0.0028055313 -0.00046772548 0.0024190196 -0.00082734384 -0.00013679166 0.0014402791 0.0033756404 0.00018590371 0.0012642324 0.003725622 -0.0015186415 0.00092440756 0.0005472508 0.0001072066 -0.0033991497 0.00042400707 -0.00095127954 -0.0011513814 0.0009514072 0.00031816008 0.0028640798 0.0009699805 -0.003234945 -0.00028085697 -0.0014656986 -0.0012260317
64 0.0014850013 0.0020564676 -0.001400117 -0.00087093475 -0.0038342222 -0.003415862 -0.0016432264 -0.003861936 0.00033349835 0.0037479931 0.0015206861 0.001147792 -0.0014116744 0.0018172909 0.0022996205 -0.0016187105 0.00015544923 -0.0024316632 0.0036652628 -0.0014137608 -0.0008856101 0.0010682403 0.00063981285 -0.003079217 0.0030261455 -0.0026574421 0.002547294 0.002864465 0.0026997242 -0.0033112543 -0.0015919445 -0.0028838783 0.0007929727 -0.00057341706 -0.00094824843 -0.0018871265 0.0016726308 -0.00058159535 0.0028276471 0.0009801389 0.0006911145 0.0006509707 -0.00074280915 -0.00024390112 -0.002914169 -0.0026137396 -0.0038362532 -0.00046746503 0.0017965735 0.002081669 0.0015829557 -0.0037320945 4.388197e-05 -0.0034961568 -0.0023328352 0.0022545164 0.0028155704 -0.0035895999 -0.0029552693 -0.003522886 -0.0023951298 0.0024966628 -0.0021870832 0.003209752 -3.9741244e-05 0.0010491164 -0.0007486509 0.00081493234 0.0025220383 0.0005486849 -0.0021245964 7.358693e-05 -0.0015747184 -0.0020187907 -0.0018544013 -0.0028902516 8.452616e-05 -0.0035619638 7.806634e-06 0.00039299438 -0.0010966384 0.0032809987 0.0014800224 -0.0014013726 -0.0007046126 -0.002114145 0.0013866288 -0.0031791555 0.0020700586 -0.003571598 -0.0037023707 0.00040629468 -0.003793653 0.0035149285 0.0015864511 0.0004283658 -0.0028751343 -4.3439955e-05 0.00012388961 -0.00018384929 -0.0017002212 0.0023744432 -0.0005644187 -0.00211052 0.0012639886 0.0027918925 -0.0024485553 -0.0025274828 -0.0014699236 -0.0018000115 -0.00043208664 -0.0019178262 0.00083347684 0.0020569698 0.0034411615 0.001291093 0.0022585504 -0.0005761674 0.0010767222 -0.00079941005 -0.0029438557 0.0029265452 0.0012271006 0.00034421188 -0.0017058047 0.002719097 0.00075412676 0.00035040153
94 0.001033389 -0.002520262 0.0019540412 0.0021721039 -0.00092656445 0.0019306182 -0.0010687711 0.0027686474 0.0017805407 0.0026360562 -0.0035344118 -0.002897153 -0.00066512165 0.0022409495 0.0034296052 -0.0027112127 0.0016886235 -1.8752015e-05 -0.003010565 -0.0021636155 -0.0024976174 0.0027839437 0.0027573495 0.0030515199 -0.00019882027 0.0003873217 -0.0034518898 -3.982674e-05 -0.0028705657 -0.0007199563 0.00096215506 -0.00022677351 -0.0025098645 0.0008154032 -0.0020049312 0.0010963596 0.0027572485 0.0036021147 0.0025205475 0.001933782 0.0005034538 0.003891429 0.0028314397 0.00021841905 0.0018166001 0.0016149622 -0.00084180763 0.0028177802 -0.0034265781 0.0015344948 -0.0038578722 -0.0029389793 -0.0035949526 0.0016359007 6.41055e-05 7.252428e-06 -0.00011217997 0.0016078633 -0.0014778072 -0.0016956136 -0.00041578067 0.0005046127 0.0024702514 -0.0025205347 0.0018887651 0.0023752255 -0.0011809354 -0.0006077244 0.0021265766 0.0012138777 -0.0029638347 -0.0019437616 -0.0014140396 -0.0035209814 -0.0031921142 -0.0026413074 0.0030844966 -0.0011792167 -0.0015617954 -0.00088195014 -0.0017354363 -0.00067886786 -0.0037759696 -0.00048310278 -0.0034125533 -0.0038658748 -0.0020632376 0.0034556962 -0.0028105169 -0.0007888715 0.00086880365 -0.0019706343 0.0016429644 0.0010391313 -0.0021923373 -0.00050418905 -0.0038438623 0.003508789 0.0024741946 -0.0018273763 0.0007104936 -0.0023349843 -0.0026818803 -0.003348472 0.00078550726 0.00073652004 -0.0017571867 -0.0012318316 -0.0017690674 -0.0011398142 -0.0016303807 -0.0003999748 -0.000367901 -0.00053173176 0.0019388843 0.002640745 0.001976617 0.003344887 -0.00053778547 0.0021587217 -0.0016523509 0.0032122808 0.0037948072 -0.0018435777 0.0030352436 -0.003581016 0.0031290418 0.00029130557
92 -0.00049420295 -0.0025246593 0.0008221733 -0.003181963 0.0026299977 -0.002937281 -0.002016384 -0.0020661943 -0.0012882288 0.0030989847 -0.0019891069 -0.00029452684 -0.001658899 -0.0016273683 -0.002802959 -0.00024311592 -0.0035216177 0.0023097496 -0.0026566426 -0.001129688 -0.0015527606 -0.00074799784 -0.002737364 -0.00037462247 0.0014676608 0.000512588 -0.00056341 -0.0030520137 0.0038700264 0.00075715285 -0.0033775847 -0.0031335917 0.003090686 0.0030549539 0.0036881452 0.0023248368 -2.3537508e-05 -0.00097118947 0.0038859113 -0.0015154737 0.0005658609 0.0029935143 -3.5449142e-07 -0.0024520515 -0.0033413344 -0.00025305923 0.0024738254 -0.0027994467 3.228974e-05 0.0012314994 -0.00047669612 7.84137e-05 0.00024887722 -0.0038894648 -0.0036597443 -0.0036748347 -0.0017821944 -0.0022731025 -5.5887715e-05 -0.0015750002 -0.0023777266 0.001738203 -1.0823931e-05 -0.0025688547 -0.0024635603 -0.0034343654 0.0037844067 -1.6171281e-05 0.0022187463 -0.0002852614 -0.0006347038 0.0017586687 -0.0034864983 -0.001395221 0.0014630425 -0.002118834 0.002686673 -0.0030062892 -0.0018920212 0.0028863437 0.0038526496 -0.00085975154 0.0019769818 -0.003246061 0.001484103 -0.00016483349 0.00039174955 -0.0019251609 -0.00057375565 0.0022919064 0.0009780383 -0.0011379867 -0.0037429072 0.00034451523 0.0020753113 0.0029203903 0.0017872186 -0.00157772 0.0038053028 0.0017980098 -0.0027285484 0.0036867848 0.0005218408 0.0001219772 -0.0028141795 0.00032964948 0.0003670973 -0.0011252068 0.0021067748 -0.0023428733 -0.00052014826 -0.0037977775 -0.0011262386 -0.0006958275 -0.0017805499 -0.00026472643 0.0021954782 0.0022611753 -0.00307207 -0.0026763228 0.00037692438 0.0014246575 -0.002752748 0.000893482 -0.0031566408 0.0017565906 0.0010885404 0.00037224384
44 -0.0006714015 -0.0021117162 0.0006819081 0.00012238325 -0.0022997991 0.00017594315 0.00341224 0.0015228045 0.0012545319 0.0005287399 0.002064343 0.0027909444 0.0007010631 0.003164589 0.0033411535 0.0026013078 -0.003553967 -0.003681342 -0.0011154714 0.0035901421 -0.00086948305 -0.0023867355 0.0016540923 -0.0035722714 -0.0038019735 0.0027333652 0.0012377806 0.0035015594 -0.0007590775 0.0020183711 0.0005939785 -0.00035986936 0.000603671 0.0034959277 -0.0012471374 0.0004698607 -0.0016434579 -0.0010537622 0.0024231935 0.0018474207 -0.0037833138 -0.0020955922 7.964881e-06 0.00065645255 0.0016216568 0.0003644331 -0.00023403027 0.00067177694 -0.0009031463 -0.0016756087 -0.0019448319 -5.0658386e-05 0.0014645215 0.003218127 0.003281804 7.252059e-06 0.0013260058 0.0012099989 0.0038422178 -0.0012775379 0.0017893923 -0.003806316 0.0023003784 0.003248184 7.353999e-05 0.0015335139 0.0012630948 -0.0021699846 -0.0014276656 0.00090976374 -0.0017078636 -0.003709506 0.003857445 0.0036176378 0.0016108037 -0.0017391822 -0.0035046395 -0.001041977 0.0021106885 0.0003674416 0.00016514449 0.00081548083 0.003270493 -0.0032858304 -0.001671742 0.0028949096 -0.000704497 -0.0005037693 0.0017748419 -0.0035261412 0.0032977008 -0.002137871 0.0023456516 0.0016100169 0.0035779492 0.0018497907 0.00059954525 0.0026543136 0.0004977719 -0.0029908076 0.0015441515 0.0031901875 0.00040550446 -0.0016962462 -0.003427047 -0.00047488607 -0.0018873543 0.0019050677 0.0023396402 -0.0029858814 0.0010205854 0.0033528248 0.00045243464 -0.00051897235 -0.0034755608 -0.0006600836 -0.0026320764 -0.0009732239 -0.0018431626 -0.0031861702 0.0020570334 0.0013173817 0.0032689273 -0.0027477993 -0.00016720594 0.001246458 -0.0024145185 -0.003423028
