96 128
22 -0.0014469037 0.0006616964 -0.0004184532 0.0018795872 0.0026311222 -0.0034117927 0.0021543812 0.003614712 0.0019073265 0.0003219544 -0.001532682 -0.002396724 -0.0006230089 -0.0010606487 -0.0012037053 0.0009063521 0.0023183003 0.0021185689 5.9495498e-05 -0.0014303091 0.0027513986 0.0033619397 0.0007065553 0.0007648949 -0.001374781 -0.0037169473 -0.0010761074 -0.0006789363 0.0007832039 -0.001815867 -0.0020960113 0.0022053095 -0.0032995953 0.003072245 0.00090099603 -0.001839932 0.0028222061 0.000982905 0.0029028116 4.179931e-05 0.00050430716 -0.002274556 0.0038307381 -0.0025063846 -0.001303496 -0.0009268653 -0.0020846825 0.00016852289 -0.0007116166 -0.0016164916 -0.0034585034 0.0036722773 0.0004244252 0.0026797378 0.0007943403 0.0037884063 -0.0029501503 -0.003314564 0.0028064381 0.0029508583 -0.0001696067 -0.0018941786 0.002727376 0.001017598 0.001591454 -0.00015785967 0.0023483085 -0.003781582 -0.000687881 0.003207076 0.00042594134 -0.00092555163 0.0023529446 -0.0035885365 -0.0031954031 -0.0015647112 -0.0009980085 0.0025596914 0.0037391905 -0.0023491045 0.0028714272 -0.0013403341 -0.0033451961 0.0010080591 0.0019596491 0.0017215051 -0.0017749927 0.002397211 0.0022478045 0.0028931564 0.0033716748 0.002318837 -0.0031753618 0.0009368297 0.0029180606 0.002289185 0.00040899427 0.0005067641 -0.003369157 0.003679574 -0.0036256074 0.0027262503 4.7342673e-05 -0.0008456809 0.0021305883 0.003077332 0.0030976462 0.0016297176 -0.00096985657 -0.0033247683 0.00035829653 -0.002583067 0.003484012 -0.0023730139 0.0030079102 -0.0017278864 0.0021197377 0.0017292885 -0.00018789875 0.0014475255 -0.0022058564 0.0024527384 0.0006368492 0.00043333828 -8.159246e-06 0.0009438834 0.002468979 -0.002515386
39 0.0016591676 0.0012546958 -0.00035605027 -0.000337374 -0.0020220885 0.0032686878 0.0010339 0.0019706513 -0.0030415575 -0.000776805 0.0027879062 -0.00012668292 -0.0010441855 -0.0025579804 -0.0012691366 -0.00010279194 0.00075647555 -0.0007922118 0.002315719 0.0023458807 0.0015576605 -0.0030429899 -0.002769364 -0.00038967686 -0.0018276196 0.000227813 0.000694308 -0.0034732374 -0.002392676 0.002940924 0.0016171098 0.0023605016 -0.0033224537 -0.0035176114 -0.0020599654 0.0026291064 -0.0025691953 0.0021521612 -0.0021503766 0.002108204 0.0010371064 0.0029477167 0.0016665314 -0.00065626734 -0.0024658039 0.002153614 -0.0029762092 -0.0035471444 -0.0013784253 -0.00016008735 -0.0024107709 0.0016236145 0.003035524 0.002641147 -0.0019507858 -0.0035574983 7.4576287e-06 0.0027184016 0.0032223763 -0.0037932366 5.513483e-05 0.0024060346 -0.0030048715 -8.508607e-05 0.0038132379 -0.0005663464 -0.001575041 -0.0028792045 0.0012761101 0.0031580462 0.0016702006 -0.002864703 0.001732045 -0.0013096057 -0.0018622042 0.0016289302 -0.0035715138 -0.0036834814 4.610775e-05 0.0011559181 0.0008145091 0.002507475 0.00017639415 -0.00092446787 0.0025648733 -0.0015815262 -2.7560809e-05 0.0025882476 0.00030996586 0.0011840482 -0.002590356 0.0015258761 0.00011735838 -0.0006330031 -0.0014899274 0.000979867 0.00023911172 0.002170923 4.3913617e-05 0.001601374 0.0014166277 0.0027996702 0.0014237164 0.0032299215 -0.00348648 0.0007418458 -0.002624851 0.0036421025 -0.0029311099 0.0038047894 -0.0006660683 -0.0022831412 0.00027453783 -0.0017029245 0.0008703214 -0.0004933723 0.00046839128 0.0005026376 0.00012336965 0.003388557 0.003273207 0.0006124759 0.00027940766 0.0018246352 0.00047567845 0.00018133766 0.0013949446 -0.0025769211
3 0.00028707203 0.0027313854 -0.0026591884 0.0002139044 -0.0010567412 0.0027024376 0.00066592894 0.0027840363 -0.0032601862 0.0007724864 -0.0017586072 -0.002556038 -0.0014413042 0.00031033112 0.0029774888 -0.0019993423 -0.00061896147 -0.0038208824 -0.0019033042 0.0009954462 -0.0036097274 -0.00089832477 -4.312123e-06 0.00072007196 -5.960756e-05 0.0025915098 -0.0022174541 -0.003321919 -0.0029341003 0.00345463 0.0020193076 -1.397068e-05 0.0030527087 -0.0005839898 0.003258231 -0.0009910546 -0.00044029937 -0.003631937 -0.0016965484 -0.0022839343 -0.0036807575 -0.0011850297 -0.00217823 -0.0017592547 0.003152005 -0.00084306614 -0.0022358873 0.00093894347 0.00011423279 -0.0009820265 -0.0017982906 0.0037549462 0.0015400909 0.003560216 -0.00085013226 0.003736664 0.0012102885 0.00045105457 -0.002395575 -0.0034247728 -0.00228055 -0.0025899985 -1.0355131e-05 7.5613734e-06 0.0034190528 0.00068142975 0.0009905598 0.0011283453 0.0011691425 0.0023687936 -0.0002835212 0.000425946 -0.003754916 -0.0026545995 0.0030560838 -0.00037335846 0.0027907114 -0.0017321175 -0.0010012032 -0.0028514643 0.0015243788 0.00045321631 0.001981195 -0.0011541733 -0.0035781132 0.0022392804 -0.0013128802 -0.0012694292 -0.0007537551 0.0036659604 0.002230058 -0.00048730706 -0.002681652 0.0013902816 0.0005415598 -0.0016663544 0.003786704 0.0007424808 0.003405934 -0.0007258918 -0.003070638 -0.0007401349 0.00065519573 0.0028814638 0.001128185 -0.002383919 -0.002666103 -0.0036745945 -0.0011463847 0.003239405 -0.0023247553 0.0014194697 -0.0018327301 -0.00060714234 0.00042012447 -0.00076004607 -0.0010502958 0.002375415 0.0036321934 0.00077255856 -0.0015926299 0.0037592142 0.0030407133 -0.0032057243 -0.0015828552 3.5774312e-05 -0.00044862766 0.0031920043
31 0.0037507724 0.0021670724 0.0030898622 -0.00057733565 -0.0030398977 0.002433434 -0.0013315195 0.00059609016 -0.00038703723 0.00077898137 0.0017245685 0.0009571166 -0.0031233807 0.0033887862 -0.0025064743 -0.0028457898 0.0033857955 -0.0018968529 -0.002660242 0.0037694157 -0.0033128022 0.00024314412 -0.0021157858 -0.0030409463 0.0021056621 0.0016542881 0.0013945051 0.0019366139 -0.00095662125 -0.0036728843 0.0011534949 -0.0037993833 0.0014378281 0.0011266161 0.0033089817 -0.0028878686 -0.0017033565 -0.0011814132 0.001098445 0.0030929227 0.0015117746 0.002441447 -0.0025350708 0.002798471 3.5114008e-05 -0.0025267818 -0.0022387146 -0.001155502 -4.80795e-05 0.0010697417 0.0021440005 0.002053797 0.001303188 -0.0016694523 0.00012234217 -0.002610634 -0.003518308 0.003759033 -0.0013062591 -0.00040291072 0.0016902095 0.0010203159 0.0034244333 -0.0029971278 -0.0032960381 0.0035656104 0.0032617936 0.00019614381 0.0011770478 -0.0014076548 0.0027764714 0.0011803813 -0.0007399458 -0.0006141526 0.0016775541 -0.002316929 0.0029602183 -0.0020558154 -0.001562994 0.002229006 -0.0039047077 -0.0021021203 0.0029963667 0.0035313442 0.003695121 -0.003686128 -0.0019749154 0.0037958836 0.0031159788 0.003614577 0.00074071734 0.0023900867 0.0004182284 0.0020775094 0.002680277 0.0010785249 -0.0007910422 5.149892e-05 -0.0026519701 -0.0013653128 -0.0019617171 0.0021748117 0.0038971219 0.00079856726 0.001986695 0.0013844228 0.0016798592 0.0016363636 -0.0025494893 -0.0017718183 -0.0037153293 -0.0023105391 -0.0011534016 -0.0038818985 0.0027829714 -0.00039991058 0.0025652077 -0.0025274048 0.0028724389 -0.0007904777 -0.0012332522 0.00066894194 0.0005528065 0.0019606508 -0.0012809794 0.0027226063 -5.9104426e-05 0.0027016988
36 0.002190661 0.0007385324 0.0006060644 0.0038484654 -0.0034597542 -0.000112078866 0.0012934346 -0.0014205432 -0.0027809138 0.0029293469 -0.00080067676 0.0005223165 0.0030955991 -0.0038465161 0.0026174558 -0.00037210438 -0.00087239494 0.0006793225 -0.002028993 -0.0016854098 -0.003864572 0.00034287403 -0.003306349 0.0022276521 0.00077893207 -0.0038460628 -0.0037511694 -0.0023791972 -0.0027828647 0.0033238935 0.0025049916 -0.001580525 -0.00011787732 0.00049524923 -0.00013962096 -0.0006690489 -0.0010124671 0.0012235321 -0.0026286382 -0.0025105218 -0.0008800064 0.0028888313 0.0029177072 -0.0021583077 -0.0008535113 0.001216952 -0.0037361872 -0.0029915816 0.0013208637 -0.0011573477 -0.001958648 0.00075363496 -0.0010068701 0.0023184596 0.0017118833 -0.0014856758 -0.0030522314 -0.003282109 0.0038514829 -0.0004671729 -0.0020937535 0.0009065659 0.0037006289 -0.0010502664 -0.0035785127 0.00052690326 -0.0017108815 0.0020992395 0.00064123224 -0.0038947929 -0.0032525896 -0.0004927906 -0.00027654352 -0.0037477238 -0.0024333044 -0.003789561 0.00041035394 0.0023956278 0.0026362906 0.0033373644 0.00023254397 0.0016207441 -0.0006088634 -0.00024961427 0.0020741571 -0.0011160587 -0.0036584793 -0.0027213118 -0.0035631047 -0.0025254767 0.0038639011 0.0022360373 0.0027728248 -0.0003437289 -0.0019890952 -0.0038701664 0.0022056398 0.0030049626 -0.0027427322 0.00079455465 -0.0029564314 -0.0008686635 -0.00021197823 -0.0029805577 -0.0008817438 -0.003845321 0.0033927166 0.00316804 0.0036369388 0.0028575265 0.0008476405 0.0013709698 -0.00010359601 0.0024557968 0.0010762042 0.0017508824 -0.0018439523 0.003272851 0.003839003 -0.003006702 0.0024757914 0.00038560652 -0.0030909365 -0.0028506892 -0.00096481934 0.00044263093 -0.001857215 -0.0032966307
9 0.0015491579 -0.0024610918 0.0021091409 0.0024648856 0.0025672829 0.00013890179 0.0024517514 -0.00023739066 -0.0009193048 0.00084469246 0.0014812052 -0.0017377512 0.0011282214 -0.0009844259 0.0012055078 0.0031718665 -0.0037159254 -0.0007258288 0.0032104154 0.00057300465 0.0004187903 0.0026619446 0.0015691028 -0.0006322979 -0.001264061 -0.0012620231 0.0006105135 0.0036075884 0.0016333646 -0.00069042767 0.001121981 0.0032384235 0.0035297514 -0.003766563 -0.001122057 -0.0002859416 0.0014728109 -0.0018689777 0.00034041618 -0.001783812 0.0019374676 -0.0022561455 0.0015275412 -0.00015231948 0.0021584479 -0.0030205727 0.0025372156 -0.0006031851 -0.0034810577 -0.00022252202 -0.003164206 -0.0016770152 -0.000544296 0.00027816297 0.0011110643 0.0035454175 -0.00065966195 0.003367457 0.001241929 -0.0012853247 0.0015251151 0.00029709397 -0.0025256488 0.001424346 -0.00093568646 0.0038050038 0.0003872283 0.0025685974 0.0012160589 -0.0005302135 -0.0013702327 0.003661836 0.0028016712 -0.0001971076 0.0029547554 -0.00015674197 0.0023748288 -0.0019052434 0.0011647323 0.0016727814 -0.0027729266 0.0016545902 0.0008055036 -0.0031116165 -0.0009601171 0.0038749939 -0.00055613404 -0.0027941363 0.0008523939 0.0004642067 -0.0013671572 -0.0035842287 -0.0033658564 0.0021864723 0.0025418347 0.0019163917 -0.0020903908 -0.0027839814 -0.00355857 -0.0023083652 0.00053314265 -0.0017828664 -7.07648e-05 -0.0006605876 -0.0028481558 0.0014145257 -0.0029809242 -0.0026201261 0.0036970202 0.002508314 -0.00063604274 -0.00039207144 -0.0006736041 0.0007962536 -0.0032975904 -0.0015541414 -0.0020114041 0.0035975 -0.002965549 0.0034131699 0.003441678 -0.0011579908 -0.0032585978 -0.0006113748 -0.0008473636 -0.00015437361 -0.002836952 0.0024583254
64 -0.0020062146 0.0010441992 0.003659457 -0.0027866478 -0.0039025203 -0.0030211133 0.00024503388 -0.0024878604 0.0031578683 0.0032546916 -0.0023757843 -0.003837211 -0.0020266618 0.0009785676 -0.0033153715 -0.0034293465 -0.00228042 0.0002738287 0.0034238666 -0.0004051499 -0.0007136475 0.0019371128 -0.0013217438 -0.0012564254 -0.0035648674 0.003451355 -0.0009444575 -0.00033883564 0.001306828 0.0035846648 -0.00047066034 -0.00062769913 0.00020386682 -0.0032488983 0.0026555979 -0.0025357988 0.0006120011 -0.0026973411 0.0022390692 0.0012517693 0.0022526048 0.000714771 -0.000885287 -0.00081459625 -0.0015151275 -0.001336941 -0.003757499 -4.170404e-06 -0.0032498022 0.00065775996 -0.0023005179 0.0020831164 -0.001421298 0.00024931814 -0.0013904499 -0.000306197 -0.0015863966 -0.001995103 0.0014412743 -0.0024786992 -0.00071169785 -0.0023608562 0.002391839 0.0021009317 -0.0034124795 0.0020668285 -0.000701875 0.0007276614 -0.0006371593 0.0023817753 0.0034538636 0.00078612304 0.0031109157 -0.003340081 0.00049991906 -0.0029144064 0.00014266235 0.00095628214 -0.00057155587 0.00146363 -0.0014997051 -0.00029677837 0.0018181346 -0.00012191119 0.0015503601 0.002242642 -0.0016529232 0.0005553812 0.0027410267 0.0038600028 -0.0015715555 -0.0030276086 -0.0023933577 0.0007159609 0.00055700104 -0.0021261629 -0.00039379697 -0.00017740314 0.00247702 0.00053423864 -0.0024826787 0.00042382965 0.00032200583 0.002980448 0.0016925771 0.00044973823 0.002728751 -0.00029941995 -0.003242277 -0.0013913575 4.188793e-06 0.000998779 0.0020266813 0.00083253864 -0.0018757946 -0.003067971 0.0032150166 -0.0023517055 -0.0022967276 -0.00046141463 0.0017404974 -0.0014325075 0.0037116176 0.0038947004 -0.00086222484 -0.0020068123 0.0037147028 -0.00046595375
10 -0.0019415014 -0.0024282858 -0.00038205067 -0.003624956 -0.0032670863 0.0016237458 0.0013315672 -0.0030104292 0.0023381223 0.0019893595 -0.00063280197 -0.0031917307 -0.00063217984 0.002082044 -0.002786627 -0.0018279433 0.0038169269 -0.0004608847 -0.001618757 0.0017185217 0.003860337 -0.002496925 -0.0013569549 0.0016263016 -0.00091699685 -0.0022630594 -0.00039046773 0.0017246947 -0.00028256883 -0.0024240566 0.0030087947 0.0015468993 -0.0012379881 -0.0034923377 -0.0024939121 -0.0009414028 0.0030779692 -0.0026372536 0.0021011124 -2.758344e-05 -0.003107005 0.00055102754 -0.0031468698 0.001744404 0.003177984 0.0031978309 0.0006838935 -0.0030952008 -0.0019098441 -0.0004897394 -0.0017525398 0.0007024881 -0.0033250493 -0.0032418314 0.0030709503 0.0033468187 -0.0016004071 -0.002627151 0.0021699057 -0.00074879074 -0.002827844 0.0025481195 0.0016414127 -0.0021732058 0.0017306333 0.0013661683 0.0016345807 -0.0031959072 0.0022756734 -0.0017529962 0.0028912108 -0.0031925738 0.000242826 0.001988829 -0.002541753 0.0027333128 0.0021382896 -0.002951229 0.0015004278 0.0016482953 0.00034166517 -0.0035179101 -0.0023029945 0.00083894556 0.00014963753 -0.0012972049 -0.00067727367 -0.0011995358 0.0010230785 -0.0028762168 -0.0038174356 -0.0037411165 -0.0007839347 -0.0032108391 -0.0036464764 -0.001989126 0.00015008403 0.0014659291 -0.0018000663 -0.002156302 0.0037471098 -0.00045554343 0.0036052112 -0.0018860957 0.00022099882 -0.00095291383 0.003330044 -7.730933e-05 -0.003287767 -0.0005669639 0.0037944354 -0.002347192 0.0032311715 0.0007648721 -0.0034126095 -0.00068067183 -0.0014047868 0.00036493156 0.002319563 0.00049534586 -0.0024314718 -0.00093106116 -0.0023415764 -0.0028063834 -0.003286689 0.00017862955 -0.0029037034 0.0038433028
29 0.001356357 -0.0016946773 0.002896071 0.0029374147 -0.0022030312 -0.0016257862 0.003312814 -1.9320376e-05 -0.0031902841 0.00048582145 -0.0012661465 -0.002128419 -0.0014670761 0.0023699917 -0.003205701 -0.0022383363 -0.0014899867 0.0019225195 0.003007849 0.00073894695 -0.0023463208 -0.001937782 -0.002333786 -0.00022048182 -0.0007353293 0.00052923086 -0.0022807377 0.0026695554 -0.00018815222 -0.0020269074 0.00030100724 0.0029442753 -0.0028389522 0.00088690297 0.002841045 -0.0035881314 0.0020764251 -0.00048412994 -0.002154937 -0.0016396882 -0.0029626915 0.0035610728 0.0019663768 -0.0012514421 0.0021248076 0.002246843 -0.00046706363 -0.0015646494 0.001279352 0.0006959195 -9.899806e-05 6.774552e-05 0.0016429347 -0.00094407087 -0.0036341052 -0.002957389 -0.0010820475 0.0027577677 -0.0032599207 -0.001064391 0.001991201 0.0017154689 0.0029564041 0.0038513017 0.0026820588 -0.0034147073 -0.0035863568 0.0031680164 -0.00033207505 -0.00383575 0.0027341552 0.0011976886 0.0020309803 0.00051404367 -0.0035190848 -0.0030735198 -0.0036465186 -0.0019125559 -0.00048718945 -0.0022401772 -0.0009435448 -0.000521632 -0.0021499423 0.0015218521 0.0032083327 0.002586193 0.0025487253 -0.00017987032 0.0023235988 -0.0011841318 -0.0023122383 -0.0029853578 0.0030154749 -0.0013568056 -0.00021725915 0.0017663478 0.00039329348 0.00030227803 0.0033437717 -0.0008986417 0.0010576983 -0.0009448891 -0.0032471702 -0.00020224277 -0.0019105988 0.0003499662 0.0022922547 0.003669224 0.003006667 -0.0019189974 0.0037564188 -0.0029207768 -0.0033890905 0.0007828364 0.0024831423 0.0038738025 -0.0034457885 0.00322996 -0.00025738808 -3.7711514e-05 0.0016126251 -0.0035428384 0.00017537344 -0.0034261942 -0.0024940104 -0.0010876296 0.003514366 -0.0030605362
96 0.0002947814 0.0037152397 0.0034135506 0.0029194197 0.0028688528 0.00022054414 0.0020832014 0.00037238657 -0.00017511401 -0.0017911888 0.0031321417 0.003679596 0.00026476252 0.0005362049 0.0035175248 0.0014678617 -0.0031514417 -0.0011878724 4.6972556e-05 -0.0026992392 -0.0016713794 0.00014798493 -0.0018562558 0.0019012897 -0.0005682915 -0.0038381794 0.0004216591 -0.0015732761 -0.00318678 0.0019970261 -0.0037991216 0.002581343 -0.0016500704 -0.0027209164 -0.0011642921 0.0018920068 0.001054428 0.0029122492 -0.003535089 -0.0014084865 0.0015237565 0.0014534143 0.0016293931 0.0022097873 0.0020969957 -0.0029850479 -0.0014863154 -0.0018562926 -0.00058736105 0.0029449554 0.0037908254 0.0010648967 0.0025359844 -0.0014097175 0.0017221902 0.0003098855 0.0016870423 0.00090373534 -0.0038733066 0.0036714745 -0.0025028978 0.002288413 0.0034911681 -0.00306488 0.0024066267 -0.0005519689 -0.0020620197 0.0032853505 0.0014437418 0.003806477 0.0015468894 -0.0034234158 -0.0012236189 0.0009312365 0.0037174548 0.0028722174 0.00084100565 -0.00027233976 0.0018568345 -0.0019312036 -0.0018380672 0.0027730966 -0.00076203945 0.0031465818 0.0024120521 -0.003039233 -0.0030742013 0.0031597917 -0.0038497546 -0.0031547067 0.0017787014 -0.0010406951 0.0034399473 0.002915085 -0.0012785208 -0.0006355692 -0.0034984818 0.0013981118 0.000795653 -0.002201004 -0.0009782565 -0.001572469 -0.0037958168 0.0009949023 0.00086921937 -0.001981238 0.0019631765 -0.00071358285 -0.0021273305 0.000508958 0.0029846204 0.0010800704 -0.0011653283 0.0030023758 0.0019044983 -0.001009641 -0.0036097276 0.000124415 -0.0021654952 -0.0030770819 0.0036093984 -0.0035534464 -0.001397827 0.0035860606 0.0010649075 8.5001e-05 -0.001315086 -0.0022580451
51 0.0005686817 0.0025654205 -0.00045525737 0.0024295119 0.00042664792 0.0017284299 0.0034289414 0.0018692402 0.002431002 -0.0008020812 -0.00039704933 0.00096481555 0.0013596001 0.00027699722 0.0015047233 0.0028419627 0.00010076318 -0.0029179337 0.00013433759 0.0019310173 -0.0002580655 0.00085825607 0.002719338 -0.0028714405 -0.0024745653 -0.0011616254 -0.0033057537 -0.00071042357 -0.0018206968 0.0006723632 0.0032142655 -0.0036708163 0.0024802838 -0.0021043452 0.003403005 0.001703727 -0.0007027292 0.00059817365 0.0017698169 0.0007386607 -0.002405955 0.0030865583 -0.0006473229 -0.0035379217 -0.0015988724 -0.0028093096 -0.00080104254 -0.00075250707 0.0033321658 -0.0018713163 -7.9922684e-05 -0.0002249045 -0.002654384 -0.001708448 0.00055592414 0.0033798076 0.0013981826 -0.00079925917 0.0037259723 -0.00032751987 0.0037300985 0.0001004754 -0.0016706105 -0.0021517274 0.0029131402 -0.00028508657 0.0027043873 0.0011140824 -0.0030920582 0.002169737 0.00011427992 -0.003539573 -7.622813e-05 0.0031230943 0.0017811473 -0.0029352948 -0.0032742422 0.0038751205 -0.0036718012 0.0012906243 -0.0016994076 0.0006517113 -0.002236026 0.0027738283 -0.0029985611 0.0024631084 -0.002369587 0.0030125373 0.00063903874 2.643722e-05 -0.0033092715 0.0008269528 -0.0037870859 0.002783675 0.0018328984 0.0033164788 0.00044307063 -0.0007157044 0.002626761 0.00012847986 -0.0010812593 -0.00050659897 -0.0008798171 0.0023774514 0.00018424963 0.0015467171 0.0019270984 0.0007818471 0.0015032372 0.0018618056 -0.0034509574 0.0013390689 0.00014495917 0.00309747 -0.0034291234 -0.001999599 0.0007410762 0.0037464872 0.0005134514 0.0033414986 -0.0008570045 -0.0036454645 -0.0038921328 -0.001325666 -0.0012356427 -0.0028655054 -0.001678399 -0.00029786257
87 -0.0017258656 0.0025880237 -0.0038948648 -0.0010631339 0.0014758825 0.001470443 -7.334187e-05 -0.001479683 -0.0025570805 0.001663646 0.0022367018 0.003505692 -0.0026043672 -0.0017020961 -0.0014167257 0.0029025348 -0.0010684639 -0.0026118062 -0.00086633157 0.0034655554 -0.001484003 -0.0025645255 -0.0033711 -0.00035651942 -0.00044962647 0.0016986893 -0.0003903116 0.0027818694 -8.027178e-05 -0.0013577992 0.003744629 0.002517846 0.0009440454 0.0030193634 -0.0011822325 0.0021477113 -0.003754528 0.0026297562 0.0029688794 0.001712441 -0.002557288 -0.00069630356 0.0017850938 -0.0024828913 -0.0007929698 0.001017658 0.0012938234 4.4780925e-05 0.0035004655 0.0032214818 0.001359032 0.002356682 -0.0011793408 -0.0032111646 -0.0037651095 -0.0034418385 -0.0014209173 0.0018067956 -0.0036022027 0.0014716119 0.0037058466 0.0019307733 -0.0032809833 -0.002380758 -0.0005987463 0.0020390607 -0.0033603883 -0.0037495128 -0.0033050762 0.00028679834 -0.0019687666 0.00015088788 -2.2882154e-05 0.00027989064 0.002127881 -0.0006072705 -0.0031491895 -0.0016259304 -0.001154037 -0.00092573074 -0.0013827892 0.0014454591 -0.0024812745 -0.00010188455 -0.0012103555 -0.001429701 0.0021556832 0.0031820196 0.00027874054 0.0033209822 -0.0019553874 -0.0027898657 -0.0031848755 -0.0036389425 0.0007738833 0.002002725 -1.4974626e-05 0.002409561 -0.0036600903 -0.0036804604 0.0026232658 0.0010698757 0.0017033789 -0.0026430632 -0.0019972746 0.0009456837 -0.0005557663 0.0005252309 -0.0021174615 0.00018118678 0.0035757741 -0.0008064512 0.00019060256 0.0027037177 -0.0012276378 -0.0019887316 0.003521318 0.0012749908 0.0024618667 0.00071481336 -0.0018311797 0.0025365313 0.0012610587 -0.0013097493 -0.0026129172 -0.0014787872 -0.00045759912 0.0020376118
70 0.0036931408 0.0023053617 -0.00021291325 -0.00063692126 0.000550221 -0.0005143987 0.00089037506 7.0648646e-05 -0.0015104779 -0.0014036307 0.0011290937 0.00023092635 0.0030870393 -0.0026048205 -0.003359772 0.0018229386 -0.0035648555 -0.0016963821 0.0038537937 -0.0026474134 -0.0014892328 0.0020816207 -0.0025717928 0.003880825 0.0018227218 0.0010939412 0.0025000921 0.0019491499 0.0009641269 0.0028172522 -7.899875e-05 -0.0032419078 0.0012986033 -0.002538852 -0.0019204996 0.0011852236 0.0003024972 0.002354637 0.0038856799 0.00070351263 0.0024391485 -0.0029504208 -0.00013726889 0.0034885798 0.0012452073 0.0030545667 0.0019410591 0.002237762 -0.001102859 -0.0022237424 0.0033823724 0.003881936 0.00074650877 0.00096742425 -0.0026255222 -0.0028172943 0.00085435057 -0.0037448532 0.0029560905 -0.00074058713 0.002028291 -0.003825878 0.0020400463 0.0015133967 -0.00081436854 0.0008250119 -5.322341e-05 0.0002304972 0.0020613484 -0.00077140174 0.0034407184 -0.0021568288 0.0034501012 -0.0021104414 0.0015383618 -0.0031527595 0.0026898808 0.0031207076 -0.00173381 0.00042906203 -0.0018957107 -0.0034387207 0.0008932163 -0.0027152067 -0.0034164086 0.0026359784 -0.0007379587 0.0031936527 -0.0028048092 -0.0025051862 0.0029237233 -0.0004778576 -0.002551326 -0.002302091 0.0016473421 0.0033352748 0.0032143693 -0.0023060644 0.003766561 -0.002964505 -0.0036681928 0.00089801115 0.0026783636 -0.002462338 0.0012875769 0.0013974186 0.00016462912 0.002706567 -0.0025596446 0.00021234399 -0.0014216196 0.0029956552 0.00319546 -0.0033495629 0.001861704 0.0027340613 0.0032168913 -0.00029309693 -0.0022137624 0.00045940958 -0.0022031986 -0.0036101998 0.000521234 -0.00027088283 -0.003564885 -0.0021364552 0.0015509838 -0.0034190181
68 0.0016004645 0.00228197 -0.0018418425 0.002662804 0.0014442315 -0.0032444026 0.0002474373 -0.0036793605 -0.0020256792 -0.003581699 -0.0019527001 -0.0010725796 0.00032335203 -0.0011130827 0.0022517198 -0.0014591679 -0.0020625046 0.0012319187 -0.0008670684 0.00081132795 -0.0016640553 0.002745513 -0.00034342747 0.0036247934 -0.0035789192 0.0004119067 0.0016570825 -0.0019018179 -0.0017638755 0.0030154025 0.0004968713 0.0036135202 0.00070922927 0.0030776574 -0.0002383951 0.0026610303 -0.0031437825 0.0026511555 0.0023269164 0.0032495237 0.0027761504 -0.0016315279 0.0010182352 -0.0024493567 -0.0031031182 -0.0003909273 0.0015301923 -0.0030904557 -0.0006751661 0.00025724748 -0.0033587844 0.0015901885 0.0037743025 -0.0013252393 0.0023630396 0.0011207762 0.0010094347 -0.0023339812 0.0009531074 -0.0021868667 -0.0035664206 -0.0037972103 0.0020105587 0.0027795061 0.0007424926 -0.0017954174 0.0010744277 -0.0015863018 0.002707302 0.002659231 -0.001259311 0.0015000068 0.0019197074 0.0012851412 -0.002522289 -7.369172e-05 -0.0032636623 -0.002500906 0.00023018601 -0.002748169 -0.0022724925 -0.002083577 -0.003001936 0.0033392136 0.0039054656 -0.00011413615 -0.0030785326 -0.0035409823 0.0022251175 0.0012969788 -0.0027963873 0.0024170752 -0.003372011 -0.0019926247 0.0001805601 0.0014897552 -0.0011829208 0.0010706367 -0.0012861312 0.0007901955 -0.003364887 0.0032379983 -0.0019404195 -0.0013449298 0.0029854125 -0.0022070932 -0.0011157419 -0.0024904094 0.000827337 -0.0037377023 0.0009087717 -0.0025043166 -0.0021746613 -0.0033990666 0.0026647302 -0.0036376002 -0.003586724 0.00078025385 0.0037603457 -0.00061267964 -0.0037589858 -0.0023502444 -0.0017998009 -0.0022341874 0.0013541603 -0.0027699054 -0.0012057193 0.0014669944
43 0.0015942574 -0.00025561804 0.00040659183 -0.0017985953 -0.0017400909 -0.0014719636 0.001778115 0.002548516 -0.0037960357 -0.0021795086 -0.00079801184 -0.0015905409 0.00080491585 0.0038965063 -0.0028346747 -0.0028120645 -0.0038144754 0.0005866156 -0.003083404 0.001780064 -0.00036656036 0.0007314135 -0.0015658997 0.0013913759 0.0023468072 0.00040048346 -0.0024319084 -0.00047516232 0.0025461388 -0.0029362142 -0.0037615858 -0.0005044527 0.003571453 -0.003255186 0.0006751876 0.0005798236 0.0012886748 0.0019403114 -0.0036952 0.0034344392 -0.00027334885 0.0009194935 -0.0022496684 -0.0036552784 -0.0008461786 -0.0023511432 -4.2690783e-05 0.0022779638 0.0016016893 -0.002966223 0.00024775878 0.0034549797 -0.001279608 -0.0021201547 0.0020064942 0.0020315954 5.9632443e-05 -0.0001649725 0.002747336 -0.00030113524 -0.0004284248 -0.00259497 -0.002564842 0.0027904199 -0.0019128373 0.0007677568 0.0025590798 0.0016973523 -0.0024422887 -0.00072087056 -0.00012105764 -0.00060947996 0.0028742265 -0.0028556907 -0.0027033493 0.0026413314 -0.00043770592 -0.0036127463 -0.0036794408 -0.0011156638 0.0008187935 0.0022559622 -0.0010281575 -0.00012862193 -0.00014023934 -0.0028722137 -0.0033498732 -0.0018245678 0.00030448704 -0.0015621744 -0.0011307525 0.0022930352 0.003713208 0.0033899734 -0.0022521876 0.0036098848 -0.0033827056 0.0008491741 -0.0010241607 0.0031215735 0.000526573 -0.0036266414 -0.0016778372 -0.0038908878 -0.0011305003 -0.00081825 0.0013772222 -0.0030209788 0.0020610385 0.0018060358 0.003121685 -0.0034638655 0.0007166055 0.00084290945 0.0012687114 0.0033245182 0.0021040132 0.0021328116 -0.0016729168 7.9390375e-05 -0.0026977372 0.0015801151 -0.0027176947 0.0027247695 -0.0016759767 0.00033159595 -0.0011021744 0.0037253422
21 -0.0012993687 -0.001383103 -0.0037170933 0.002177265 -0.0031785306 0.0012500829 -0.0003241586 -0.0014604515 -0.0006639129 0.0005590583 -0.0008612983 0.0028358274 -0.0022690769 -0.0031565176 0.0023796149 0.00043326296 0.0030162171 -0.0015700919 0.0028962474 -0.0024721057 -0.0037261662 0.00382642 -0.0011677903 -0.0018263053 0.0034537602 -9.2802225e-07 -0.00048142136 0.0031212126 -0.00037157675 0.0033950626 0.0018687787 -0.0022523077 -0.0020465387 -0.002525597 0.0015182642 -0.0022695046 0.00033317503 -0.0018209758 -7.823472e-05 0.001271142 0.0035248282 -0.0032439318 -0.00062276196 -0.0008334291 0.0034390795 0.00016512428 0.002574395 0.0022959511 -0.0022795375 -0.00084548903 -0.0005313561 -0.002178346 0.0020550736 0.0028795332 0.0024274602 -0.00073170575 0.0023911397 -0.0032868963 0.0028239437 0.00028902973 -0.0015763859 -0.00093266537 -0.00067000714 0.00016641858 5.385684e-05 -0.0009799135 -0.0009395726 -0.0032266248 -0.0014013518 -0.00022439574 -0.00031080766 0.003188097 0.0027323759 -0.00030951743 -0.0023365945 -0.00055301737 0.0023159825 0.0011616261 0.00082662917 0.0027102698 0.000416135 -0.0023685077 -0.001934964 0.0015855483 0.0012712124 0.0029707998 -0.0027873984 0.0012021782 0.00042923467 -0.00032322932 -0.00369263 0.0009407993 -0.00070863403 0.003618633 -0.002852543 0.003363889 0.0027182638 -0.0025374899 -0.003053628 -0.001984559 0.001832309 0.0007381336 0.0018599624 0.0011189474 0.0015004486 -0.003525803 -0.003282079 -0.00092094566 0.0026325053 -0.0007728316 0.00055891165 0.001764271 0.0012491524 0.0014133324 0.0005283013 -0.0009569723 -4.1396852e-05 0.0033465847 0.0003828944 0.0006639884 -0.0031673922 -0.003473628 0.0034203322 0.0010016778 -0.0038469767 0.00041617805 0.003785054 -0.00040858387
84 0.0037332214 -0.0020494119 0.00083956914 -0.00200564 0.0006643869 -0.00026943063 0.0030059202 0.0014298301 0.003481993 -0.0028079494 -0.00062077964 0.0028938327 0.0006719303 0.003627555 -0.0030372343 -0.002239149 0.00097319006 -0.0034198968 -0.001550834 -0.0037153196 -0.00030287093 0.0019208859 -0.0035956716 -0.002042585 -0.003834196 -0.0036700258 -0.002250989 0.00033301994 0.0003614035 -0.0014617351 0.0020485744 0.0027228305 0.00079868716 -0.00075888593 -0.0023621435 -0.003433369 0.0003262244 0.0013085731 0.0016500058 0.0032441346 -0.0036266912 -0.0018701993 -0.0009363079 -0.0022131621 0.0036061076 0.0008069741 -0.0010552538 0.001814002 -0.002327277 -0.0020947023 0.0023946087 -0.0031227188 0.0023825632 -0.0009235912 -0.0019329124 -0.0003542199 -0.0031866336 0.0005872746 0.0029264123 0.0035879544 -0.0012252084 -0.0029429924 -0.0016819186 -0.0018514931 -0.0010610104 -0.0016330252 0.0038216477 0.0038685196 -0.0012356732 -0.0022679812 -0.0012712302 -0.0015537387 0.0010139064 0.0032751595 -0.0009840879 0.0015665258 0.003352514 0.00019445011 -0.0016571247 0.0011253173 -0.003273819 0.0006341243 -0.0018443068 -0.0010854418 -0.0014835703 0.0017690554 0.0007883987 0.00045943743 0.0009907357 0.00031791325 -0.0023751976 -0.0028338083 0.00051326945 -0.0011039916 0.0027140668 0.0027681265 -0.003474789 -0.0036138836 0.0022631052 0.0008849754 0.0017199281 0.00063399726 0.0028730056 -0.00059855176 0.0008359556 0.0032736913 -0.00054422114 -0.003048715 2.2280308e-05 0.0018460605 -0.0013563304 0.0037493922 0.0011814206 -0.0016970735 0.0014643169 -0.0015841863 -0.0011495242 0.0022062832 0.0027292864 0.0009849669 0.00091994094 0.003566687 -0.0020370935 -0.0037289935 -0.002846782 0.0018338835 0.0023626843 0.0017221271
61 0.0017497388 0.0021222315 -0.001600559 -0.0014846574 -0.0032224606 0.0011375061 -0.0035134724 -0.0034026874 -0.0025199933 0.00043013424 -0.0004816822 0.000116923635 -0.0003277228 -0.00031615316 0.0023175573 0.0016715928 -0.0008095249 0.0015628785 -0.003020477 -0.00023317408 -0.0021634132 0.0015564453 0.0036780997 0.002778394 -0.003386079 -0.0010799863 0.0012539801 -0.0016156166 -0.0010784125 0.00056106976 0.0034984557 0.0032263 -0.0014120537 0.00029686393 -0.0008964582 -0.0008848992 0.00068216305 0.00060437643 -0.0035599861 -0.0014887626 0.0025997388 0.0014615571 -0.0030621917 -0.0019313222 0.0015940303 -0.00020643885 -0.003331208 0.002592966 0.0003909086 0.0009240452 0.0038377924 0.0023439818 0.0011041209 -0.0028068975 -0.0037073041 0.0022882523 0.0016368903 0.0037574738 5.3672775e-05 -0.0028193274 -0.00021218065 0.0033329604 -0.0011304596 0.0010330698 0.00299928 0.0025563368 0.00031995084 0.0002657208 -0.0021704286 -0.0036231007 -0.00018019648 -0.0014192954 -0.0027430335 -0.002280438 -0.0016820512 0.0013540956 -0.0030470637 -0.002704914 0.0020357773 0.0031730032 -5.0483784e-05 0.0037607197 0.0005621207 0.002479274 0.0016592582 -0.002566293 -0.0011358012 0.0036025133 -0.0015258526 0.0034358546 -0.0014517509 0.001375724 -0.0033589834 -0.0034177129 -0.00085499947 0.0034792724 -0.0017297842 0.0031056006 -0.0015659836 0.00032223924 -1.1253325e-05 -0.0035977613 -0.0034631991 -0.0004129612 -0.001697708 0.0016316145 7.793264e-05 0.0014567629 0.00012978185 0.0012083965 0.0018367148 -0.002281892 -0.003314554 0.001833472 0.00027109886 -0.0031259179 0.0013514754 0.00015247017 0.002714305 0.0012931287 0.00082295656 0.0006328339 0.0006550352 0.0019997985 0.0010262898 -0.0017100576 0.0013479285 -0.0024275775
55 -0.0032060524 -0.002853663 0.0033763775 -0.0012243736 -0.0027092851 0.0017685445 -0.001709879 0.0033387798 0.001571595 0.0028808075 0.00027673732 -0.002882731 -0.0016442951 0.0023612808 0.0021343904 0.0015561497 0.002457746 -0.0006037725 -0.00013642482 -0.0033804567 -0.0021913026 0.0021991841 0.00091373175 -0.0004915957 -0.00021587606 -0.00060480955 -0.0011839874 -0.0012427709 -0.0036852562 0.0025702182 0.0033509296 -8.922521e-05 0.0022121859 -0.0007255844 -0.0031866902 -0.0025014854 -0.0030696816 0.0025081197 0.0008281061 0.00068027165 0.0030436404 0.0027868818 0.0012775956 -0.0038409396 -0.0010252761 -0.0037686778 -0.00033042725 -0.0032068058 -0.0013216406 -0.00075413485 0.00096352724 -0.0023293938 -0.0009027213 -0.00078796066 0.0002982784 -0.0029595376 0.003008138 0.0035013969 -0.0020135264 0.0026410373 -0.0035684602 0.000674717 -0.0036340288 0.0029213885 0.0012351183 -0.0030796924 -0.003686487 0.002917863 0.002060662 -0.0006532921 0.0025148995 0.0028208548 0.0012423166 0.0015616553 0.0008711125 -0.0027708148 -0.0036484941 -0.0032150713 -3.163215e-05 0.0024459127 0.0037604754 -0.0005137604 -0.0023518691 0.00049820554 0.0029397474 -0.0023986867 -0.0022586011 -0.0034387629 0.0029085819 0.002404028 0.0022651602 0.0011069376 -0.0027620224 -0.002696654 -0.0013498635 -0.0024323436 0.0027649058 0.0020831095 0.00319919 -0.00068306556 -0.0006093184 -0.001575587 -0.001986711 -0.0034672457 -0.0031037552 0.002573211 -0.0035710821 0.0013937182 -0.0015436583 0.0032542993 -0.0015700588 0.00079727324 0.00068297965 0.0011232096 -0.0039027748 -0.0020621156 -0.0020602713 -0.00013655622 0.0028704023 0.0036498294 -0.001402469 -0.0026623316 7.433324e-05 -0.0035105764 -0.00037812736 0.0032812795 0.0020158293 -0.001359632
91 0.0008922703 0.0029949965 0.0038465667 0.0036195116 0.003856168 -0.00034556602 0.00091507717 -0.0028307387 -0.0010459641 -0.00350138 -0.0019825606 0.0016077295 0.000638825 -0.0037244062 0.0011245509 -0.0012470509 -0.0031745036 -0.0036985776 -0.00012995586 0.0018331211 0.0002972379 0.003417759 0.00010631846 0.0009079132 0.0036256262 -0.0037645053 0.0020549512 0.003078296 -0.0036595375 0.0011663785 0.0038677359 -0.0029146548 0.003123516 0.0006115693 -0.0005497896 0.00034074773 -0.0034600631 -0.0038501362 0.0032248287 -0.002254197 0.001492501 0.00031519335 -0.0028970991 -0.0016206302 -0.00091532373 0.0006935244 -0.00312969 0.002659814 -0.0035602313 -0.0026553725 -0.0023003158 0.0016275995 0.0038838862 -0.0025890088 -0.0038675154 0.0036704845 -0.0015244011 0.002535096 -0.0032543472 0.00048760732 -0.0023404628 -0.0030723352 0.0036896092 0.0029304563 -0.00371517 0.0018286522 -0.001369925 0.0024974118 -0.0033487661 -0.00085887953 -0.0012134596 -0.0005490216 0.0021813156 -0.003842395 0.002447809 -0.0026988373 -0.0028906437 -0.003667303 -0.0004990978 -0.003196747 -0.0009158362 0.0035390765 -0.0013720607 -0.0039001026 -0.0031002844 -0.0035136715 -0.0033174395 0.0025696394 0.002684581 -0.002969381 0.0035537884 0.0024400188 -0.0005909533 -0.0013783389 -0.0014103126 0.0024290332 0.000624383 0.0027406896 -0.0035060996 0.003219117 0.0022054778 -0.0018841138 -0.0014252316 -0.0027849027 0.0016231395 0.0012663475 -0.0027295859 0.0028182785 -0.0017049405 0.00018506235 -0.0036975653 0.0027436723 0.0032148669 0.003790734 0.003394149 -0.0016438583 0.0024707692 -0.001664912 0.00096806145 0.00092489505 -0.001538251 -0.0035674332 -0.0007855615 -0.00012824425 -0.0006172709 0.0017413703 -0.00226343 -0.0003090651
4 -0.0033061225 -0.00022673096 -0.0002446887 -0.0028121958 0.0038980395 5.4789067e-05 0.0011933284 -0.0023064606 0.0002249865 0.00094772514 -0.0018686481 0.0027677298 0.0025487887 0.0034093834 -0.0010954181 0.00012023948 0.0017790901 -0.0020687687 -0.0016999396 0.0011797985 0.003423306 -0.0031889055 -0.0008872909 6.311679e-05 0.0015655456 -0.0015219977 0.000405529 -0.0030852847 0.0033736585 0.00018067524 0.0028571626 -0.0010901787 -0.0009620698 0.0013669721 0.0015061176 0.0030432988 0.0026947923 -0.0028705786 -0.0010583978 -0.00023309735 -0.0005819822 0.00068470393 0.0031396209 -0.00123714 -0.0027688302 0.000405691 0.0017286283 0.0018218545 0.0018783155 -0.0038939812 -0.002611237 0.002060388 -0.0030690932 -0.0038609433 0.0033901792 0.00095088716 0.0017531365 -0.0012412659 7.426452e-05 0.0005674317 -0.00092409324 -0.0022414415 0.0026620575 -0.002002616 -0.0024963245 -0.0027896445 -0.00059974665 -0.0030193732 0.003865955 0.00086366566 -0.0012827897 0.0028097432 3.410564e-05 -0.0036365683 -0.0029377146 0.00082468113 -0.0032131262 0.0020733306 0.0019224477 -0.00045362388 0.0014778392 -0.0020846513 0.002046285 -0.001694944 -0.0036838693 0.0007742426 -0.0024085953 -0.00036297805 0.0008014367 0.0026417472 0.0015502849 0.00066889235 0.0038575786 -0.0029479172 0.001010813 0.002098685 -0.0024221349 0.0036985257 -0.002422217 -0.0015206302 0.003469626 0.0018069841 -0.0007070762 -0.00082692056 0.003152284 0.0026362566 -0.00091236917 -0.0018150938 0.0029379819 -0.003175068 -0.0031820128 0.0014378479 -0.00018259168 -0.00117133 0.0019131243 -0.0008700057 0.0038783255 -0.0024483753 -0.0037367207 -0.0025155433 0.0013089733 0.0021821577 -0.0036169752 0.003073216 -0.00027942032 -0.0014761443 0.0032860208 -0.0012438516
8 0.0013752751 -0.0020513914 0.0010045745 0.0010950626 -0.00024455454 -0.0028763583 0.0007188543 -0.0012720345 0.0023573588 -0.0010460472 0.0014818737 -0.00282011 0.00017247899 -0.0029045597 -0.0011291323 -0.0002397717 0.0036968137 -0.00067848805 -0.0021315971 -0.0004571138 -0.0007847006 0.0022763526 -0.0010000282 -0.0020195083 -0.0013793288 0.00013025114 -0.00091627036 -0.0009860276 -0.0030393344 -0.0032824625 -0.000997657 0.0019186812 0.0028183104 -0.0005650156 0.0038909386 0.002867526 0.0005623372 -0.0026862272 0.00058167294 -0.0012935579 0.00071853946 -0.0012906013 0.002485674 0.0026622345 0.0004415015 0.003770726 0.001956086 -0.0020337456 -0.0036406799 -0.0018223721 0.0014904825 -0.0006109662 0.0007293107 0.0016793851 0.0009171783 0.00088799826 -0.0034905106 -0.0020197174 4.618554e-05 -0.001763127 0.00019422642 -0.0033268933 -0.0014448423 0.00059302757 -0.00048211214 0.0030284743 -0.002901294 -0.0012232438 -0.0025761863 0.0031334155 -0.0025704384 -0.0015376788 0.0035240164 0.002260477 -0.0024959703 -0.0002594217 -0.0031760526 -0.0030780372 0.0036818504 -0.002690208 0.002428438 -0.000149478 0.0014372612 9.194533e-05 -0.00032573863 0.0003623427 0.000853932 -0.002343952 -0.003867771 -0.0005390476 -0.002152501 0.0008325453 -0.000533157 -0.0018512066 -0.0002839151 -0.00236962 0.0023970266 -0.0022007546 0.001104262 0.003427509 0.0010813358 -0.002930341 -0.0017803462 0.0002474016 -0.003821318 0.00025920817 0.0013896193 0.003428418 0.0027880336 0.0005195809 -0.0016998624 -0.0032726284 0.002355078 -0.0031099292 -0.0022803992 -0.0024620078 0.0036690813 0.0037353581 -0.0034963337 -0.003203185 0.0023936054 0.0010004997 -0.0005429736 -2.4542464e-05 0.0033775105 0.002301735 0.0020615882 0.00032967783
78 0.0038533027 0.003626203 -0.003165558 0.0034788859 -0.0010972094 0.00039688474 0.0013944844 0.0026347514 0.00092414714 -0.0013949716 0.0007771106 -0.0024714775 0.00086556666 0.0019914685 0.0015644893 -0.00015687886 -0.0020831162 0.0012684996 0.00029690613 -0.0028687203 -0.0033497554 0.0016774726 0.0025674438 -0.0037036405 -0.0017699649 0.00030933935 -0.0024788927 -0.0019223754 0.003194118 0.0029823368 -0.0022378636 0.0034703778 0.0013568097 -0.00048633874 -0.00036832393 0.0010065578 -0.0029938824 -0.0007953428 -0.0027795765 0.0036832753 -0.0019508713 0.00035679145 -0.0012895791 -0.0017109722 0.00062518625 -0.003675832 -0.0003458476 0.0019197402 0.0023620543 0.0033275099 0.00093264517 -0.0008806998 -0.0018703031 -0.002659461 0.003878037 0.0037463245 -0.0018826474 -3.8501505e-05 0.0022454138 0.0015932358 -0.0034328508 0.0020544352 -0.002177332 -0.0016226392 0.0012909266 0.0021049266 -0.0014271558 0.0015773103 -0.0006988683 -0.0023963014 -0.0014816844 0.0028546383 -0.0017769845 -0.00096039695 0.0028306963 0.002433131 0.0031673505 -0.00068612647 -0.0011912546 0.0007399466 -0.003510228 0.003895329 0.0024410316 -0.0013036994 -0.00068524847 0.0011015215 0.002447239 -5.3343698e-05 0.00062886585 -0.0010451198 -0.00275733 -0.0007537617 0.0024251204 0.0018384369 8.424938e-05 -0.00016625304 -0.002112159 0.0030731917 0.0005702031 0.0015275908 0.0003049091 0.0035966912 -0.0017174768 0.0026870065 0.0026595923 -0.0023909179 -0.0017904163 0.001991883 -0.00079765084 0.0006397271 -0.0035653757 -0.0029110864 -0.0017524346 0.002911241 -0.00048854074 0.0034097224 0.00026766825 0.0016119148 0.002847759 0.0027081647 -0.0031175802 -0.00068968174 -0.0027697058 0.0024124985 0.000118912474 -0.0030940485 -0.00013295418 -0.002560133
30 0.002245597 0.0036536388 0.0009864391 7.479301e-05 0.0029548975 0.0019460836 0.0032845256 0.003837315 -0.0012197932 -0.00028139201 0.0019132281 0.0017563272 -0.003556393 -0.001256402 0.002933738 0.0031853358 -0.001634432 0.00047992918 0.0005236565 -0.0036345436 -0.0016299303 -0.0019637465 -0.001556725 0.002404691 -0.0038495364 -0.0029183587 -0.0019734974 -0.0006763481 0.0014347843 0.0024980993 0.0028214478 0.0031728302 -0.0017525955 0.0019350961 -0.0031323608 0.0023538957 0.0022376096 -6.232598e-05 -0.000597021 -0.0013977386 -0.0019019827 0.0035243297 0.0027853095 -0.0007796308 3.3307904e-05 -0.00055378355 -0.0035797248 0.0011138709 -0.0011045001 0.0034035235 -0.0012059849 -0.00083852466 3.8755923e-05 -0.0031231258 -0.003479589 0.0011552256 -0.0015653415 -0.002063251 0.00022794535 0.002400235 -0.001959055 0.00023380393 -8.42555e-05 -0.00265838 0.0033494865 -0.0010136539 2.4598263e-05 0.0038343624 -0.0014356943 0.00048399318 -0.002458451 -0.003532052 -0.0026997468 -0.003784214 -0.0025140212 -0.001804126 -0.0033827412 0.0012222803 -0.0021359916 0.0008821678 -0.0022942284 -0.00068621745 0.0015300509 -0.0038792538 -0.0036918325 0.00227475 0.003820425 -0.0010606722 -0.0017749008 -0.0003553076 0.0012599805 0.00261333 -0.0020004038 -0.0023123494 0.000113269954 -0.0003689274 -0.0022230556 -0.0018495903 -0.0022240158 0.0020934404 0.0024625908 -0.0024644916 0.0022571366 0.0037883194 -0.00033797938 -0.0034233364 -0.0031976977 0.0011548281 -0.00254942 -0.0032173183 -0.0029741724 0.0010271253 -0.0019842044 -1.239172e-05 -0.0017840986 0.0014341637 0.0006775378 0.0018291376 -0.00044152897 0.002856977 0.0002348393 -0.0012147157 -0.001416451 7.185014e-05 -0.0010045575 0.0012031664 0.0008897823 -0.0025521445
53 -0.000361291 0.000112811395 0.0030344443 -0.002499676 -0.0007960216 -0.002386276 0.00305524 0.0030019062 0.003503715 0.001409899 0.0016520852 0.00083278544 0.00023614032 0.0021894306 0.0031790552 0.0008193993 -0.0017220855 -0.0031819139 0.00048060343 0.00051296054 -0.00070239475 0.0015610465 6.539543e-05 -0.0032429872 -0.0016713057 0.00030071603 -0.0034935928 0.0035032774 0.0022924154 -0.0016857561 -0.0025990377 0.0028733779 0.0035856292 -0.0002380907 0.002408396 -0.0022679367 0.0023075123 0.0006720704 -0.0012491165 -0.0028362675 -0.0029873368 -0.0007130045 -0.0030794907 -0.002925738 -0.00080339424 0.0021835607 -0.0030044515 -0.0029927148 0.0014383324 0.0026644147 0.0016306164 0.0038701885 -0.0037148027 0.00030311322 -0.00069290644 -0.000735303 0.0026712082 0.0034148067 0.0011056272 -0.0019614098 -0.000525277 -0.0005973095 -2.803753e-05 0.0019569888 0.0008009784 -0.0010680958 0.001631715 0.0018180406 -0.0031290243 -0.0014395833 0.001649375 -6.812423e-05 -0.0029518618 0.0018173995 0.0028988554 -0.0012323118 0.0020265875 0.0036960663 -0.0031844517 0.0024202773 -0.0024319927 2.5812076e-05 -0.00024279345 -0.0015204919 0.0016023476 -0.003368879 0.002026954 -0.00054251554 -0.0027877379 0.0026741317 -0.0028266225 -0.0007712302 -0.0016652467 0.0008318547 0.00036111104 -0.0006369208 -0.0015013855 0.001751456 -0.0006231063 0.0011386775 0.0025302211 0.0038456921 0.0021966519 0.0015448146 -0.00021713656 0.0037711454 0.0014428918 0.0024148133 0.0025191328 -0.0037974264 -0.003192406 0.0034666904 -0.0037071805 -0.0029151621 -0.0029549145 -0.0024494976 0.0018962469 -0.0033329732 -0.0038135992 0.000848351 0.0023372197 0.002983695 0.0019664173 -0.0016878643 0.0027945985 -0.0014591075 0.0026868973 0.0014080325
33 0.00029315238 0.0012542846 -0.0037498216 0.0013102214 -0.00041636822 0.0030143852 0.00036036753 0.00016118838 0.0030015905 0.0023245949 0.0035128829 0.002498844 -0.002848351 0.0024963596 -0.0008317735 0.00045362595 -0.0034982045 -0.0014653349 0.0028067122 0.0005850598 -0.00088800385 -0.0025903208 0.00025296127 0.002396937 0.0028566092 0.0021578458 -0.0036194166 0.0007882568 -0.0006874696 -0.0032881687 -0.0005435593 0.0019142221 -0.00038822586 -0.002179962 0.0035647466 -0.0006449407 0.003627636 0.0037687153 -0.003090369 -0.00048138562 0.0023860405 0.0023860405 0.0033135845 -0.002200478 -0.0015385345 0.0009608676 -0.0011479838 0.00086656446 -0.0005035994 -0.0020191118 -0.0016568402 -0.0024088682 0.00017662856 -0.001006367 -0.0013438744 -0.0010561742 -0.0032847947 0.0008394872 0.00087202 0.0013121075 0.003197082 0.0034054595 0.0015031176 0.0016377826 0.0021646863 0.0019177783 0.0030493608 0.00064445223 0.0033770273 -0.001791605 -0.0029767072 0.0038130246 0.0002163153 0.0005555837 0.0031147823 0.0001952167 -0.0038974765 0.0018449281 0.0031614972 0.0024416023 0.0029172932 0.000118575066 -0.0012943567 -0.0026557585 -0.0023751557 -0.00068428693 0.0032389783 -0.0014309294 -0.0019996096 -0.001254405 0.0015959601 -0.00070865615 -0.0011594112 0.0008304357 -0.0038091922 -0.0013106088 0.0036329215 -0.00022764009 0.00080848066 0.003576994 -0.0037174255 -0.0013512053 0.0023696767 -0.0038281083 -0.0018921357 -0.0029305865 -0.0010515252 0.002276567 -0.0005928686 0.0028965806 0.0026608638 0.0016362189 -0.0019082009 -0.0016844637 0.00378423 -0.00362158 0.00010746433 0.0022093228 0.0027773385 0.0016652376 -0.002601263 0.0033683917 0.00092618086 0.0028889459 -0.0007578435 4.6784462e-05 -0.0036688666 0.0033428082
56 -0.0020004364 0.0016693063 -0.0035857842 -0.002479992 -0.0001660815 -0.0024708835 -0.0024675136 -0.0018702593 -0.0017171759 0.0035402784 -0.00070427195 0.0038560845 -0.0006429183 0.0003271119 0.00023212186 -0.0026995032 -0.0026476604 0.0023967705 0.0037463096 0.0037087512 0.0008038912 -0.0036939543 0.003563239 0.0028717064 0.0026310415 0.0037977241 -0.00032838323 -0.0038313014 -0.00027346725 -0.00078621594 -0.0016475378 0.0022910305 0.0032548746 0.0028616819 0.0019176415 -0.0030970364 0.001658614 -0.003138029 -0.003057932 0.0021766068 0.0006186279 0.000443901 6.945426e-05 -0.0017256612 0.0033483065 0.0030294184 0.0020665412 -0.001161124 -0.0016694588 0.00017189338 0.0026267448 -0.0021086733 0.0034489909 -0.0016354746 0.0030128567 -0.0029037409 0.00051136286 0.0010370265 -0.0001847905 0.0033763752 -0.0027887567 0.003198342 -0.0011157987 0.003079864 0.0015044378 0.00317896 0.0024613922 0.0023624853 -0.0036864663 -0.0016161627 -0.002312253 0.0036720736 0.0010067683 0.0018599423 0.0032601757 -0.0020922911 0.0021056961 -0.0020565381 0.001957993 0.0020475625 -0.002145885 -0.0005079224 -0.0031958644 0.001409078 -0.0004558189 0.0016351666 -0.0007467536 -0.0032374763 -0.0024520839 0.0009012898 -0.0031111657 -0.00040706337 0.002951436 0.0021768117 0.0016369515 -0.0012244699 0.0015190392 0.0012736145 0.0009330554 0.0018374294 -0.00048863067 -0.002871719 0.0024470638 0.0013490461 0.0037753326 0.00070529594 -0.0010786599 -0.0006340792 0.0018734811 -0.0035104577 -0.0032284043 -0.0029660633 -0.0016984607 -0.002386512 -0.0012502712 0.0011865611 0.00090735784 -0.0036467505 -0.002402714 -0.0029486872 -0.0012869772 0.00071623235 0.0036926195 -0.0038485243 -0.0033766255 0.0038808913 -0.0031959878 0.0003056947
28 -0.0031237975 -0.00048191496 -0.0028498853 -0.0025900833 -0.00024029557 -0.0035269079 -0.0006756764 0.0037635663 0.003512511 0.002968301 0.0033023322 -0.0012252869 -0.0033788525 -0.0017715382 0.0033133077 0.0026089356 -0.0011753914 -0.00042709548 -0.0016500875 -0.001232694 -0.0029060328 0.0029228025 -0.00054327265 0.0011133964 0.00047103246 -0.003496719 0.0018712474 0.0034293358 0.002102831 0.00062744354 0.00048303837 0.0020118179 0.0019203924 -0.0028217342 -0.00053967943 -0.0003500105 -0.0028609354 0.00040874604 0.0033293765 0.0035248932 0.00031186704 0.0017660547 -0.00073369296 -0.0005764974 -0.0035582508 0.0030761347 -0.000377301 0.0020616737 -0.0019095833 -0.002794262 0.0013698499 -0.00339288 -0.0018080957 -0.00028654232 -0.0024350525 -0.0009697572 -0.0015734212 -0.0030229767 -0.00018334322 -0.003456608 0.0026864135 -0.001340527 -0.0031467136 0.0030321972 0.0002947646 -2.99244e-06 0.0015136142 0.00092006294 0.0010306041 0.0032670365 0.00339708 0.0019932028 0.0021703106 -0.0027148563 0.003255311 0.0026283306 -0.0028621738 0.0015346145 0.00038354564 -0.0008048534 -0.00278091 0.0011669295 -0.0035859526 -0.0027497264 -0.002298051 -0.0037507408 0.0029693805 -0.00054332305 0.0011759173 -0.003281077 0.0034778854 -3.630249e-05 -0.0023804866 0.0026149694 0.0025845626 0.0014380789 -0.0025509868 0.0004916773 -0.0037376918 0.0002044893 0.0011718519 0.002072728 -0.00017650146 0.0012379197 -0.003718776 0.0034510149 -0.0023700146 0.0033451444 0.0025363297 0.0013717561 0.0018703776 -0.0016066183 0.001244471 -0.002819925 -0.0025541193 -0.0009997976 -0.0036087625 0.0019445351 -0.0012851547 0.0011191382 0.002653439 0.0034490097 -0.0030506442 -0.0016015393 0.0014643546 0.0035757823 0.0012753494 -0.00039945863
16 -0.0033114713 0.003759789 0.0024534443 -0.00042454907 -0.0020570364 0.0038095037 -0.0018240138 0.0034933297 -0.002519965 0.0016279619 0.0006622899 0.001333053 8.892291e-05 0.0018575825 -0.00038061498 -0.0027180607 0.003761337 -0.0038602469 -0.0009091329 -0.0009558706 0.0033907453 0.0029322233 0.0037488635 -0.0027608292 -0.0019070171 -0.0015349981 0.0023257397 0.0033026696 0.00057860214 0.0007922331 0.0026410571 0.0021552676 0.0037871331 -0.0014538354 0.0031375254 -0.0003699687 0.0038987268 -0.0017571436 0.00033456474 -0.0029291518 -4.2975233e-05 0.0007243036 -0.0027752551 -0.0035650427 -0.0010834598 0.0023673675 0.0010153011 -0.00057053467 -0.00197911 -8.283873e-05 -0.0023917223 -0.0022566204 0.003251526 0.0001507922 0.0037328263 -0.0015336644 -0.0038666548 -0.002533519 0.0015137948 -0.002600362 0.00037088746 0.00094837183 0.00079542643 -0.00013453631 0.0022592612 -0.00020447063 -0.0020870944 -0.0015047534 -0.0019497662 0.0011169573 0.00016072483 0.0023822861 -0.0019156437 0.003663575 0.0015520443 0.00051663193 0.0036898977 -0.0037240465 -0.00013037228 -0.0017565637 -0.0024590022 0.0010781111 0.00010916355 -0.0025645508 -0.0013179551 -0.0032045254 -0.0012097914 -0.0014011903 -0.00040047537 0.0028215349 -0.0032739856 0.0012415714 0.002764879 0.0013096919 -0.00065728463 -0.0024358665 -0.0013550543 -0.0036233424 0.0019631244 0.0025917056 0.0035970195 0.0004936053 0.0038908834 0.0026741421 -8.451848e-05 0.0014574326 0.0033247028 0.00263967 0.0029887033 -0.0027377876 -0.0018524785 -0.0023954127 -0.0034905912 -0.00047462975 -0.0035216752 -0.0015584618 -0.0029390873 -0.0020443979 0.003742663 0.0017710829 0.0037215257 0.0033874535 -0.0021186376 0.0037994087 -0.00057508814 0.00035527805 0.0021811628 -0.0011022459
79 -0.0031667838 -0.0021862427 -0.00093498005 8.144797e-06 -0.00095177186 0.0023366194 -0.0018168015 -0.0034524174 0.00031060542 -0.0012423942 -0.0023206652 0.001564827 -0.0031352527 0.0033446623 -0.00047646457 -0.0037808963 0.0038301528 0.000348983 0.0018558638 0.0031048816 -0.0031216694 -0.0026421645 -0.002855639 -0.00241737 -0.0037036466 0.0030003376 0.00037667225 0.0012945475 0.0010534317 0.0035458175 0.0001870069 0.0012396983 0.0031512815 -0.0032195072 0.0022536637 0.0018852113 0.0007770258 -0.0011418647 0.0022696746 -0.0027392241 0.00061475736 -0.0018811699 0.00015836868 -0.0013783659 0.0013871172 0.00038471547 0.0008959019 -0.0036326586 -0.0022165806 0.0016562758 -0.0014511888 -0.0037731742 0.0024999892 -0.001645036 -0.001102159 0.0026009954 0.0030016473 0.0022514937 -0.001982313 -0.0003451363 -0.0031938385 -0.0005596196 0.0027552356 -0.0031721122 -0.0027235385 -0.0017548008 0.0005008718 0.00090438314 0.002236949 0.0038801979 -0.003353974 -0.0034726507 0.0008529538 0.001226393 -0.0026881483 -0.001312114 0.00046859402 -0.0018470078 0.0018717254 -0.00031329945 -0.0028638875 -0.0013889406 -0.00017280727 1.3221546e-05 0.0036286435 -0.0035426163 0.0007911184 -0.003392402 0.0003899179 -0.000357436 0.00091823697 -0.0016099375 0.0034061638 0.0017991093 0.0015365345 0.0010835606 -0.0033864381 -0.0014542744 -0.0015832047 0.0034056115 -0.0012845908 -0.00214146 -0.0012475465 0.0023827113 -0.002514906 -0.0013486219 0.0026116327 -0.0014266288 0.0014049315 0.0037189 0.0039021971 -0.0031290615 -0.0019877388 0.0033046464 -0.00047662848 -0.0018111112 -0.0018921312 0.002632058 -0.0001909184 -0.0018665355 0.00066573586 -0.0007054049 0.0010652439 0.0016023403 -0.0013714589 0.0029859557 0.00042907175 0.0003859928
20 -0.001452424 -0.0019870966 -0.0031277884 0.0023977696 0.0032967422 0.001580739 0.0035673117 0.003623044 -0.0020245237 -0.003522621 0.00076920964 0.0025455975 -0.0008713872 -0.0021390503 0.0010106176 -0.0012936476 0.0032515407 0.0009192941 -0.0007987674 0.003423344 0.0033756401 -0.0025145232 -0.00073506177 0.0035648658 0.0018935554 0.0009294549 0.0021711348 0.00060057006 -0.0018337588 -0.0025560353 -0.0016225444 0.002046219 -0.0036685402 0.0019204526 -0.0026323798 0.0020006055 -0.0030502316 0.0014541666 -0.0030243446 0.0005043401 -0.0018026645 -0.0032429567 0.0027331535 -0.0027100968 0.0034493792 0.0036010358 0.0036686778 -0.00035886117 -0.0011614264 0.000614312 -0.0019388581 0.0012418854 0.00067210756 0.0037324321 0.0033770076 -0.0037029802 0.0021193745 -0.00023926882 -0.001315669 -0.0001478262 0.0009269275 0.0024699501 -0.0013983408 -0.0015948362 0.0021940793 0.0036023105 0.0008367409 0.0017043925 0.0018372001 -0.0005507664 -0.003073621 0.0013246784 0.0036435404 0.0022744914 0.0011552324 0.00023645032 -0.00095996243 0.0016519602 -0.0026300459 0.0030233446 0.002189103 0.00035004452 -0.00035643604 0.0018072925 -0.0030751224 0.0037207154 0.0009980077 -0.0027168712 -0.0021559822 -0.0022474264 -0.0028303906 0.0031182717 -0.001537668 -0.0015089317 -0.0038094593 0.0007299526 -0.0019968827 -0.00032443396 0.00027865532 -0.0012117481 0.0010273788 0.00032651785 0.0028068263 0.003695389 -0.0032424284 -0.003786107 -0.0007672755 0.00069897296 0.00090711843 -0.0015939855 0.00020083744 -0.0029522884 0.00037655976 0.0034585246 -0.0011628518 0.0035413369 0.002931072 0.0033413824 -0.0034102355 -0.0030783622 0.003847308 0.0011634451 0.00017873812 -0.0013125007 -0.00045365604 0.0005681161 -0.00042613715 -0.0020979194
77 -0.0038887039 -0.0014046191 -0.0004544188 0.0030974443 0.0011400377 -0.0038924597 -0.0029132245 -0.0008643861 0.0038457746 0.0020128374 0.003222491 0.0025289387 -0.0003540957 0.0027067615 -0.0001916557 -0.001783586 -0.0010112604 0.0035703296 -0.001738669 -0.00088688044 -0.0012756978 0.0015114755 -0.002083147 -0.00033997383 -0.0007606472 -0.00023326527 -0.00069255236 0.0017559816 0.0018441115 -0.0031389056 -0.0015166892 0.00067587727 -0.003303804 -0.0010038753 0.0014752275 -0.0014842086 -0.0031431427 -9.402663e-05 -0.0021150876 -9.16658e-05 -0.001212273 -0.0038433033 -0.001242223 -0.0033410576 -0.002583874 0.0020256678 0.00023383526 0.0029788252 -0.0004790259 -0.00027410427 0.0009840785 -0.0023832952 -0.0033246214 0.0033755393 0.0016066296 -1.6397658e-05 -0.0006945997 0.0033245918 -0.0029851566 0.0027673682 -0.0015548686 -0.0031932262 0.0014049466 -0.0011954731 0.0013094229 -0.000115152325 -0.00038415685 0.0028424913 0.0023716835 -0.0023144453 -0.0019245106 0.0024506254 -0.0031130698 0.00261394 0.0022553457 -0.0004821881 -0.0003053958 -0.0024029496 0.0011220878 -0.0010048082 -0.00041630727 -0.00075557776 0.00060480135 -0.0006051008 -0.0025375762 -0.002304267 -0.0012977526 0.0038855106 -0.0025640642 0.0018045979 -0.001523367 -0.0017004568 -0.0038567658 0.0004755689 0.0017973855 -0.0010392104 -0.002431125 0.0029033085 0.0037118348 0.0016813324 -8.408389e-05 0.0022260104 -0.0022380294 -0.0022673763 -0.001771372 0.0015944173 0.00011253337 0.0028943315 -0.0010393029 -0.0008354082 -0.0026032422 -0.0037685006 0.0033253394 -0.0022557226 -0.002845265 -0.0014890722 0.002710591 -0.0023598368 -0.00372537 0.003551864 0.00287324 0.0036818131 0.0010393331 -0.0015889789 0.00067191967 -0.003201209 0.0037728276 -0.0033589995
94 -0.002734479 -0.0024589133 -0.0019452921 -0.0034583528 0.0019171454 -0.002767475 -0.0022674426 -0.0009620574 0.0022690352 -0.0017675146 -0.0011677509 0.0009544426 0.0036752415 0.0032572998 -0.0028583615 0.003220449 0.0022024831 -0.0027724528 -9.771951e-07 -0.0014321455 0.00080238434 0.0012835062 -0.00012849738 0.000585418 0.0034839576 -0.00052509806 0.002404197 0.0030668727 -0.0032968181 0.0020685052 -0.0012222605 0.0024054379 0.0028408067 0.003173864 0.0036375087 0.0021718726 -0.0012851788 -0.0004126014 -2.5050223e-05 0.0012502995 0.0018725074 -0.001957693 -0.000393713 -0.0026543883 7.438763e-05 0.0024201786 -0.00092046935 0.0023653472 0.0030347833 -0.00047879538 -0.00088994263 -0.00273179 0.0016655091 5.8661488e-05 0.00017235211 0.0011524156 0.003010223 0.0025850462 0.0029128524 0.0014565851 0.0027539302 0.003030925 0.0020173874 0.0011955946 0.002755934 -0.0018979639 0.002070457 -0.0022132262 -0.0011271293 0.0033167163 0.0016632964 0.0037970957 -0.002824536 0.0014304888 -0.0017512896 0.000601455 -0.002707533 -0.0017226608 6.4867476e-05 0.00078260346 0.003624468 0.0023533553 -0.00050724763 -0.0026154167 0.0011250286 0.0012471448 -0.0023943875 0.002979932 0.0030662569 9.71806e-05 -0.0007452104 -0.00053800386 -0.001701848 -0.002285889 -0.00053150486 0.0037497778 -0.0016894917 -0.002628722 -0.0019500863 0.0027626168 -0.00036095423 0.00067992235 0.0009956075 0.0016643852 -0.0013128626 0.0027360865 -0.0012063069 -0.002727891 0.00017774272 0.0037594328 -0.0014388397 -0.003368632 0.0020906515 0.0018793428 -0.0020359617 0.0027172472 0.0010758387 -0.0014479804 -0.0028764931 -0.00015082145 -0.0016923703 -0.0024399206 0.001113692 0.0013126988 0.0010519333 0.0020163823 0.0014815768 -0.0027158114
76 -0.0005652086 -0.0024604725 0.0036151763 0.002826568 0.0022076608 0.0034489715 -0.00018476865 -0.0012569189 -0.0008792458 0.003896063 0.0026296875 0.0030705086 -0.0038073508 -0.0028903077 -0.0018849941 -0.001808001 0.0007169802 -0.0022879657 0.0024099618 0.0038442912 0.0025465155 0.0021295294 0.0011930466 -0.0012146181 0.0009497293 0.0013103118 -0.0012743139 -0.0030240407 0.0011243208 0.0031740288 0.0031976353 0.0020770782 -0.0008176506 -0.00017393952 -0.00088295434 -6.120411e-05 0.0034697584 -0.0009330715 1.9512881e-05 0.0023225262 0.0026177596 -0.0025251037 -0.0023644497 -0.0006502139 0.0003334957 -6.966062e-05 -0.00012783821 -0.0014845937 -0.00020392665 -0.0013440889 0.0030868035 0.0011177637 -0.002956373 0.0030156397 -0.00086376123 -0.0016649535 0.0027323354 0.0012902706 0.0029862698 0.0035771236 -0.0021908535 -0.0016477917 -0.0035585316 0.0009684659 -3.3006076e-05 0.0035810042 0.0022093 -0.0016953095 -0.002549076 -0.00084392336 -0.0022383998 -0.00082259974 -0.0034554033 -0.0026744977 -0.0023751212 -8.07485e-05 0.0023016615 -0.003535426 0.0015504733 -0.0023849232 0.0019462775 -0.0002150551 0.0030034143 -0.0020749841 0.0023511075 0.00250131 0.0010279833 0.003227554 -0.0015401811 -0.0015964443 -0.0035058996 0.0003864307 -0.0023223879 0.002510512 0.0007428565 -0.0017441573 -0.0026915458 0.0006551643 -0.0032011257 -0.0020510987 -0.003089587 0.0009867977 -0.0038919824 -0.001569266 0.0016746275 -0.0008189006 0.0029655125 -0.001924634 -0.0006831084 -0.0014121988 0.00061888865 -0.0012790494 -0.0021013701 0.0009515174 -0.003547767 0.00039147053 -0.002236453 -0.0031036541 0.0017778501 0.0032356696 -0.0027205804 0.0039030684 0.0004983983 -0.0030366103 0.0019860342 0.0015504988 -0.0033200313 0.0038211597
71 0.0033540744 0.0010264752 0.0025118282 0.0029462948 0.00013954526 0.0019859455 0.0037752537 0.0020668805 0.0031752267 2.6647958e-05 0.0006254027 -0.0008756333 -0.0023570696 -0.002871752 0.0014983411 -0.00040440928 -0.002534515 -1.7531761e-07 -0.003159934 -0.0034239239 0.0035761162 0.0025536057 0.0017946846 0.0013128784 0.0024934376 0.0019679372 -0.0024129103 0.00046708345 -0.0014179224 -0.003357728 -0.0028083532 0.0011266391 -0.0011290946 -0.00048661188 0.0015333248 0.0020463811 -0.0005250173 -0.0021456343 0.0012883766 0.00035592436 -0.0038918245 0.001576197 -0.00060682953 0.0010196286 0.000734171 0.00015641573 -0.0021235659 0.003402058 -0.0038066586 -0.003809174 -0.0038494954 0.0035061704 -0.002309969 0.0031591696 -0.0015239159 -0.00016927789 -0.0030246545 0.0036073509 0.0014311138 -0.0026991996 -0.00074160675 -0.00354525 0.0013912125 0.0020201253 0.0018758773 -0.0019662282 -0.0010246591 0.003233594 0.003638872 0.0016718579 0.0032152433 -0.0037105149 -0.00037903377 0.003672863 -0.00085353816 0.0036568206 0.0014661496 0.00019764336 -0.003504726 -0.0030616499 0.0010528886 -0.002159281 0.0036006856 -0.0026896026 0.0027793206 -0.0012592732 -0.0038700725 -0.0005555197 0.0009894135 0.00077005563 0.0010032414 -0.00013868947 0.0029153717 0.0014952876 -0.001026877 0.0029448771 -0.00092609035 -0.003355176 0.00039401447 0.0025793314 0.0019765852 0.0006087791 0.0032381287 0.0019733307 0.0012628738 0.0019601823 -0.0035119688 -0.0013791986 0.00209161 0.0027166533 -0.0010089861 0.0035985352 -0.0033579748 -0.0037041372 -0.0010934714 -0.0024130929 0.0023819683 -0.0029304116 -0.002542686 0.0024850585 -0.0008103108 -6.388851e-05 -0.0026354825 0.00065169705 -0.0030633633 -0.00014694812 -0.00059629546 0.0015471303
23 0.002982946 -0.003351511 -0.0035805274 -0.0017905096 -0.0013437746 -0.0026598917 0.0012807446 -0.00047588872 -0.0017361841 0.0019312337 0.0019437681 0.0009628099 0.002233193 0.0018805291 0.0017642204 0.0014845126 0.0027290143 0.0008609803 0.003386684 -0.0026413864 -0.00368833 0.0024943089 -0.0016237417 0.0010022288 -0.0037584784 -0.0013358613 -0.001335032 -0.003746277 0.00320419 -0.0019537213 -0.0024955655 -0.0016539838 -0.0033734988 -0.0022927015 0.00057612016 -0.002968711 -0.0025327113 -0.0010289807 -0.0030229613 5.9454633e-05 -0.0028855598 0.0038968276 -0.00095627084 0.0028879016 -0.0009848011 -0.0019581602 -0.0016295485 -0.0027499832 0.00092240557 0.00030716535 -0.00080541684 -0.00080032245 0.0020067454 0.0005478304 0.0006882413 -0.0011631639 0.0026085898 -0.0025762215 0.0012521882 0.002815741 -0.0029785829 0.0016151636 0.0007990014 -0.0020979876 0.0011708125 0.0031230596 0.0020993354 -0.0004522215 -0.0036660526 0.0023489578 -0.0024128149 -0.0020893842 0.0025742527 0.0016671262 0.003130903 -0.0012513315 -0.0036477735 -0.0029919494 0.0006932119 -0.0022229075 -0.0021494848 0.00020654219 -0.00041335548 0.0006331018 -0.002879589 0.0016419339 -0.003454399 -0.001128352 -0.0029804755 0.003323056 0.0033468269 0.0016547205 -0.00083894713 -0.0011173367 -0.0006150175 0.0029192937 0.0009183239 -0.0022711589 -0.00078245805 -0.0034014166 -0.001557212 0.0023131089 -0.0024519195 -0.001550109 -0.001490015 0.002021282 0.0029682592 -0.001305565 0.00061850884 0.0035250874 0.0022945176 0.0014670019 0.0008000915 -0.0018135969 0.0011680766 0.0039041108 -0.0017943517 -0.0026040818 -0.00087798486 0.0030000007 0.0026510267 0.0020731403 0.0015473738 0.0034404844 0.0020996602 0.00057170854 -0.002540637 -0.0005142357
52 0.0018057274 -0.0012877061 -0.0035379166 0.0019246937 0.0021451393 -0.0016276067 -0.002497022 0.0029909408 0.0024129287 0.0024328101 0.0029917117 -0.00067436945 -0.002688263 0.0005380096 -0.001526279 0.00014254921 -0.0028429294 0.0001966991 0.00054256374 0.0028041708 -0.0004248956 -0.0007200497 0.0024278085 -0.0038449499 0.002855701 0.0008221511 -0.0011250214 -0.0023587085 0.002767842 0.00054361677 0.00046288868 0.0038451932 -0.0037489254 0.0028200892 0.0005127701 0.001656501 -0.0023153492 0.0021342626 0.0020354004 0.0020662649 0.0009785902 0.0015305182 0.0010823715 0.00021623295 0.0028060246 0.00065387343 -0.0006790444 0.0006203375 0.0019737124 0.0021525929 0.0035177483 -0.0028201863 0.0023001689 0.0031951307 0.0007106852 -0.0025830786 -0.0035736463 0.003130311 -0.0029282812 0.0016985809 0.0010722557 0.0011607121 -0.0028114594 0.0028706824 0.0012446174 -0.0024808042 -0.0008526919 -0.0024639692 0.0026811115 -0.0013275496 0.0013803309 -0.0006218166 -0.0014947454 -0.00060682005 0.0022383782 -0.0036726352 -0.0021241303 0.00053997006 0.0037004785 0.0006302735 0.0017706438 0.0026869576 -0.0038397487 0.00230682 0.0003229371 -0.0035014413 -0.00372074 0.0019814188 0.002071402 0.0028538732 0.0009510721 -0.00017814888 -0.003068564 0.0024801258 0.0017503055 0.0038714965 0.0027115815 -0.0022810092 -0.00061326625 0.001104329 -0.0027754826 0.0037681602 0.00043902796 0.0028205616 0.0007458979 0.0036705919 -0.0023458197 0.0035809395 0.002113582 -0.0012776867 0.0020935028 0.003042839 -0.0021933867 -0.0025405688 0.001325906 -0.0001313829 0.00084415486 -0.0032506827 0.001244051 -0.000608241 0.003558859 -0.0015156745 0.0030236347 0.0021967164 -0.00044295526 -0.002478556 0.0019914021 0.0011216124
48 -0.001650017 -0.0023470088 0.0020732947 0.003267602 -0.0009628264 -0.0022476406 -0.0024065354 -0.002667761 -0.0013252666 -0.00030725377 0.0030786847 -0.0018016166 0.00089584076 -0.0025773172 0.0011475548 -0.0011232469 -0.0027837523 0.0006521387 -0.0032804925 -0.0016964809 -7.7638244e-05 -0.002463969 0.0018921554 -0.0015752433 -0.00014772906 -0.0032882935 0.0034081012 0.002355019 0.0017949103 0.00255632 -0.002463464 0.0030133848 -0.0036944798 0.00063205324 0.0020791313 -0.0024459139 1.9472343e-05 -0.00061022514 0.0018647689 0.0017791198 0.0011998628 0.0012116072 0.0010707716 -0.0008675505 -0.0029585816 0.0036368307 -0.0028183754 0.00013543188 -0.0033870905 0.0038668439 -0.003160566 0.003032873 0.0028843267 0.0028763944 0.0028902413 0.0034553022 -0.0021249228 -0.0029719528 0.0031006185 -0.002736587 -0.00083018345 -0.0016792282 0.0012192704 -0.0020692581 0.0037794984 -0.002588937 -0.0023178274 -0.002306987 0.0026116208 -0.002244417 0.0010410345 -0.00081703387 0.0031677694 -0.0010520271 0.0029927501 0.0020544578 -0.00087579683 0.002275127 0.002747903 0.0008290474 -0.0023512698 -0.0022671237 0.0025696524 -0.0014222672 0.003561228 0.0031177301 -0.0003037292 0.00040450925 -0.0033849454 -0.0017601781 -0.0021705336 -0.0030431098 -0.0026199832 -0.0036230916 0.00014345543 0.00041597392 -0.0006473451 -0.00023169386 -0.0024218243 -0.002169269 -0.0030642673 -0.0011568642 -0.00022867619 -6.197288e-05 -0.0037174122 0.0018662056 0.0014292136 0.0010994483 -0.0007442376 0.0036260185 -0.001035868 0.0010226762 -0.0028945906 0.0014606008 -0.0027518845 0.00031973445 0.00088746846 0.0021075343 0.0032181556 0.0016627715 -0.003750087 -0.0012339766 0.0033493822 -0.0034436057 -0.0015785197 -0.0022560433 6.509942e-05 -0.002499795
69 -0.0031961906 0.002628955 -0.0035105099 0.003690127 0.0012573301 -0.0038628334 -0.0037798248 0.0027607838 0.00316766 -0.0003359274 -0.0037432122 -0.0028011797 -0.003630272 -0.0034433287 0.00068929 -0.0023159406 -0.0021313077 -0.00026528293 -0.0021948698 -0.0010634083 -0.0018450699 0.0024502443 0.00013873643 -0.00040258915 0.0016535879 -0.0039022788 -0.003645003 0.0016307303 -0.0013616642 -0.003248865 0.0038684753 0.0023637302 0.0015251194 0.003161895 -0.0023520254 0.0030544163 -0.002242729 -0.0011780886 0.0029436583 -0.0017322331 0.0018776316 0.0029322724 0.00094464584 -0.0018657701 -0.00047831066 0.003463989 0.0020492987 -0.0004144524 0.0003886233 0.0003173072 0.00028637916 0.0033958256 0.0027627875 -0.0035591666 -0.0014808184 -0.0027044262 -0.00078661385 -0.0010523436 0.0030304326 3.5240188e-05 0.002926568 0.0018679093 -0.0035060265 -0.0014355627 -0.0032044274 0.0026602964 0.0029395884 -0.0025048845 -0.0032938165 -0.002549057 0.0020127695 0.00040553196 -0.0013682393 0.0014844517 0.0012526753 -0.0008815066 0.00039703836 -0.0019727966 -0.0015227004 -0.0037009327 0.00290597 4.057938e-05 -5.9071997e-05 0.0018584254 -0.0031320367 0.0016315159 -0.0008951429 -0.003000371 -0.001221623 0.003674385 -0.0004721189 0.0013328565 -0.0020807707 -0.0029106857 -0.0010501514 -0.0009964526 -3.521946e-05 0.0011784646 -0.0005125357 -0.0035507781 -0.00021476233 -0.0005640102 -0.0036372142 0.0027093657 -0.0029224413 0.0021952656 0.0012449904 -0.0031025212 -0.0032802129 -0.0021872935 -0.00071469205 0.0009379512 -0.0033922584 0.003234219 -0.0037620869 -3.7717822e-05 -0.0026199836 0.0030480947 -0.00097184634 0.0005211559 -0.0035203737 -0.0039059028 0.0012663077 -0.00068710983 0.0005037296 -0.0008814969 -0.0024315263 -0.0009602228
74 -0.00043080907 -0.0026360922 -0.0022233238 0.0026336894 -0.0036173672 -0.0013102609 0.003795958 -0.00044560755 0.0002862028 0.0017565056 0.0013140935 0.00022073739 0.0003937389 0.002032922 5.8726146e-05 -0.002016726 -0.0016498908 -0.0036417071 -0.0038866976 0.002921428 -0.0032261182 0.00035711858 0.00056553766 0.0019861616 -0.0007252701 0.00020529106 -0.0023100728 0.0031356416 0.0035270988 0.002918385 0.0013377622 0.0017940829 -0.0032805 -0.0014565365 -0.0018813901 0.003773137 -0.000112634436 -0.0023977135 -0.00192498 0.0026869278 -0.0008364861 -0.00086263154 -0.0012464361 0.00095281104 -0.00072119123 -0.00081173936 0.00076896953 0.003773807 -0.0009000457 0.00020684283 0.0013072543 -0.0029924836 -0.0011211109 -0.0031887915 0.00064481026 -0.0021310726 0.0022189028 0.0034393289 -0.0008013309 0.0012465328 0.00047350995 -0.0034575963 0.0010437289 -0.00072033255 0.0008174704 0.0029439228 0.0003952114 -0.0034148265 0.0036890537 -0.002528536 0.0031817756 -0.0027520813 -0.0014547969 -0.0030165915 -0.0030992902 0.0035163625 -3.271423e-05 0.0005854708 0.003835145 0.0022302312 -0.0020501546 0.00102657 0.0021938614 -0.0017959262 0.00060527114 -0.0013201309 0.0008940532 0.0023164293 -0.003214523 0.0037961907 -0.0020837896 -6.786594e-05 -0.0028366772 0.0031443415 0.0016054377 0.0015182832 -0.0032575876 0.0031012674 0.0025520753 0.0029104901 -0.0015383743 -0.002145185 -0.0024065573 -0.0008961111 -0.0024060823 -0.002388945 -0.0035264958 -0.0019548943 -0.0025580556 -0.0014372907 0.002622758 -0.002465382 0.0031552091 0.001911652 0.0008063492 0.0014477854 0.0001347082 -0.0007097321 -0.0033875068 -0.0016260386 0.0038614527 0.0038576268 -0.0031201004 -0.0019903127 0.0016957948 -0.0007050061 0.0034494428 0.00015321694
65 0.0023344988 -0.002124282 -0.003403412 0.0038097962 -0.0008042324 0.0004184868 -0.00068144046 0.0035802952 -0.002857363 0.00044601678 -0.0038870932 -0.0011160731 0.0009763446 0.0010716358 -0.0012223825 0.0016056416 0.0036588265 -0.0030259858 -0.00179504 -0.003414115 0.0024182133 -0.00080054626 0.0024024497 0.0012902603 -0.002644576 0.000559194 0.0017774093 -0.00042754805 0.0015975595 0.0009371267 0.0032978875 -1.3178784e-05 0.0013246508 0.0023598608 0.0033737607 0.0031291493 0.00053627766 -0.0025855275 -0.0028872131 0.0034598827 0.001233174 4.5268578e-05 0.003268929 0.0010398753 0.0014844226 -0.00018664684 0.003075085 -0.0015544272 0.002029784 0.003622106 0.0002737612 -0.002087689 -0.0009607488 -0.002266703 -5.0115605e-06 0.0009247005 -0.00065596326 0.0019738316 -0.0011823192 -0.002327615 -0.0037366587 0.00086981646 -0.000881222 0.003382637 0.0038125329 0.0012510532 -4.1831285e-05 0.00038556976 -0.002420922 -0.0018925422 0.0019287295 0.0026564698 0.0018732903 0.002569207 -0.0019205236 0.0035807334 -0.001964133 -0.0013569627 -0.0034618527 -0.0006796865 -0.0035982986 0.003671473 0.00074845203 -0.0028864506 0.0032425658 0.003106029 0.0010557788 -0.0020840084 0.0033980613 -0.003464767 -7.7251054e-05 0.00020850381 -0.00036373772 0.0011863671 -0.00083686237 0.0030144637 0.0030628256 -0.0027115282 0.0014540105 0.00095274596 -0.00018797441 0.0026810598 -0.00020892956 -0.0014669425 0.00057274784 0.0011487051 -0.0011097403 -0.0012359112 -0.0023375372 0.0029513612 0.0002281023 -0.0015401132 0.0033485394 -0.003215834 0.0024043855 0.00088181417 0.0011838078 0.002228292 0.001093285 -0.0013560271 -0.0009165648 -0.0037108036 0.0029441605 0.0019858615 0.0028352044 0.0026379689 0.003220975 0.001998413
7 -0.0027760149 0.0013174937 0.0033552665 -0.0013039823 0.00066951266 -0.0005870745 0.0011082022 0.0013595865 0.00281063 -0.002919218 0.003776046 -0.00050947006 0.0034651079 -0.0021900793 -0.0035780368 -0.0018028588 -0.0025675115 0.0032695155 -0.003128581 -0.0017900398 0.0007202317 -0.0006194878 -0.0023084322 -0.0028581982 0.0033151845 0.0010304586 0.00020494405 -0.0019687323 0.0004377958 -7.024207e-05 0.00091936335 0.003357072 -0.0033486271 0.0036579135 0.0019738176 0.00027568504 -0.00012807769 -0.0013714861 0.0031848124 0.0028256937 0.0024293556 0.0028830415 0.0038938397 -0.0034384688 0.0009746249 0.0035093157 0.0038668243 0.0015828512 -0.0028468308 -0.0035497672 -0.00053056225 -0.0015699924 0.00016714259 -0.00056015304 0.0008912227 -0.0032157274 -0.00046581923 0.0037903474 -0.003155174 0.0011246991 0.00089246593 -0.0019294387 0.0033032065 0.0028191258 -0.00071533467 0.0036197654 0.0006303719 -0.0020921957 -0.0019775277 0.0030402823 3.975656e-05 0.0026945437 0.0038060043 4.780437e-05 -0.0029688857 0.0023237388 0.0017284296 -0.0032609433 0.0024356102 0.003834835 -7.8033736e-05 -0.0003364019 -0.0023234675 -0.0002581391 -0.0036856786 0.0022938233 0.0035951403 0.00041989828 0.0019820514 0.001651705 0.0023592878 0.0015338253 -0.00046474033 -0.0038644692 0.0021374712 0.0011770892 0.0006637909 0.0021818494 -0.00026856584 -0.0029072904 -0.0034858512 -0.0026972513 0.00082022935 -0.001729451 0.0035703834 0.0029579846 0.0014609618 -0.0022238365 -0.0009867908 0.0035448992 0.0019887956 -0.0013599434 0.0035238543 0.0023517003 0.0036017853 0.0009276993 0.0012318993 -0.00017009178 0.00048595504 -0.00064127316 -0.0019578435 -0.0031440072 -0.0035555784 -0.0025459449 -0.000642426 0.0013476962 -0.0023419345 -0.0031099182
26 0.0037378187 0.00034613998 0.00060241227 -0.003149947 -0.00042168348 0.0025957166 -0.0015557145 -0.0029898095 -0.0013457438 -0.0028320604 0.0028131842 0.000808661 0.0032915496 -0.00326956 -0.0014523508 -0.0025268467 -0.0016531673 -0.0036443223 -0.0032280248 -0.0017783842 0.0035206752 0.002747801 -0.0018132793 0.0020704006 -0.002773869 0.0009819657 0.0006902832 -0.0009643098 0.0005581891 -0.0018592152 -0.003775554 0.0019097029 -0.0019039483 0.000418129 -0.0019014437 -0.0035320686 0.00029199335 0.0010731698 -0.00031992458 0.0015524795 0.003000004 -0.0018167333 0.00063221506 0.0008802566 0.002627509 0.0021180573 -0.00021084432 -9.8760975e-05 0.0035236976 -0.0020990716 0.0023282077 -0.0028267321 0.0023159008 0.0031838021 0.0022203587 -0.0017148958 0.0036618812 -0.00090929243 -0.0018929378 0.0021426063 -0.0013534977 -0.0009257936 0.002011726 0.0019190566 -0.0015531642 0.0022615087 -0.0020852094 0.0011505395 0.0037761694 -0.0015032996 0.0012458197 -0.0034218244 0.00037160757 -0.0031200086 -0.0034390525 -0.0023818165 -0.0018273804 0.0023739466 0.0016431804 -0.0028763846 0.0032685562 0.0026276684 0.001551015 0.0017515669 0.000757124 0.0014357097 -0.0038396737 -0.0016757569 0.003178537 0.003090309 -0.0009200682 0.0038181357 -0.0030181794 -0.0026778884 0.0031359768 0.0026066096 0.003158351 -0.0008109249 -0.0026708522 0.001571043 -0.0028503193 0.0017134075 -0.0034675538 0.003073548 0.002727968 0.00163795 -0.003114512 0.0016646922 0.0025551566 0.003713928 -0.003198072 -0.001415513 -0.0030764702 0.0011027318 0.0036488865 0.00053775497 -0.0029306456 0.0002513791 -0.0035275295 0.003028604 0.0032982987 0.0007095488 0.0021915124 -0.0025154925 -0.001111647 0.00023264949 0.0038674204 -0.0034304373
93 0.0016777434 -0.0021151241 -0.002997304 -0.0016968453 0.0037969109 -0.00044849634 0.00053401303 0.003469966 0.00096468884 -0.0031648695 0.0022864346 0.0027508482 -0.0019505518 -0.0018670366 0.002286499 0.0011852228 -0.0030001947 0.0005099037 0.0027773122 -0.0012074157 0.00023773323 0.003063919 0.0024894488 0.00064248464 -0.0002621031 0.0015920725 -0.0028081432 -0.0009479664 -0.00072308956 -0.0005167489 0.0006136783 0.0022042475 -0.0036374887 -0.0017903238 -0.0015159494 -0.0006938408 -0.0038758188 -0.0021064973 -0.003499373 0.0022997381 -0.0017893182 -0.0010587263 -0.0024484016 -0.0022261085 0.0037647283 -0.000771056 0.0022977241 0.0033859124 -0.0015066798 -0.0020466105 0.0010092745 -0.0029922295 0.0023607602 0.0012996846 -0.0034941463 0.0022767077 0.0005358712 -0.0006402883 -0.0012343497 -5.2014828e-05 -0.0013562988 0.0024164226 -0.0023035791 -0.0028973038 0.0024115394 -0.0034617647 -0.0036635872 0.0028146543 -0.0012403222 0.00036025542 -8.10618e-05 0.0033878328 -0.00040377775 -0.002826302 -0.0016498509 0.00047290474 -0.0010492896 0.003503416 -0.0004972775 -0.0027232543 -0.0023880524 0.0014065215 -0.0016231982 0.0011676354 -0.0031346702 -0.0021238844 -0.003619479 0.0029975935 -0.0019635563 -0.0026717153 -0.0024019778 0.00259432 -0.0028749213 0.0012023544 0.0025493277 0.0030768882 -0.0010869115 -0.0013928479 -0.0013678521 -0.0026274284 -0.0033680943 0.0025969904 0.0035488144 -0.0028252557 -0.0008773803 -0.001191329 -0.00051272346 -0.002816508 0.0012632996 0.0013891213 -0.0032338307 0.0016962873 -0.0020619007 0.0036618044 -0.0029449165 -0.0006440937 -0.00027772313 0.0038094867 0.0030695202 -0.0029074405 -0.0017604001 0.0013216457 0.0019254369 0.003387357 0.00053487066 -0.00030370988 -0.0023698723 0.0036755346
88 -0.0023444497 0.0004240492 -0.002313368 -0.0037933288 0.0033287173 -0.0010098773 0.0024936306 -0.0032494958 0.0012489468 0.00051608536 0.0012932837 0.0010342088 0.0028521714 0.003877605 0.0026024631 0.0011159319 -0.0033948026 -0.0005932509 -0.002505304 0.00050698506 0.0032222667 -0.0034344206 0.0019727766 0.0017613093 0.00042906124 0.0036616107 0.0011559881 0.001443234 0.0033029055 0.0030957793 3.9877403e-05 -0.0036498695 0.00362333 0.0020439606 7.709168e-05 0.0024581063 -0.0011635185 -0.00086539245 0.0029636326 -0.0030894224 0.0019871918 -0.0036503572 0.0009430561 -0.0028776133 0.00051489443 0.00031600994 -0.0036887194 0.0027209152 -0.00081372866 -0.0020498326 0.0036590064 -0.0022408853 -0.0026819718 -0.0036267366 0.003412258 0.002277221 -0.0037228933 0.0003234611 0.00086072856 0.00024559684 -0.0013387105 -0.0026867995 -0.0036312714 0.002435653 0.0018744823 -0.0038699168 0.0020107608 -0.0033722902 -0.002382858 0.0033524088 0.0029156497 0.0017725084 0.00025826407 -0.0021526027 0.0036920588 -0.00049260014 -0.003199604 -0.0021472943 -0.0037239015 0.00029343896 0.0026278147 -0.0022791566 0.0017124045 -0.0010979385 0.0031456486 0.0005750173 0.0013358331 0.0028486068 5.333074e-05 -0.000870432 0.002954481 0.003352279 0.0021899496 0.002160706 -0.00041454338 -0.002792128 0.0036448566 0.00088696764 -0.0032271473 -0.0038809525 0.0033669395 0.0033418927 -0.0024632956 -0.0013143874 -0.003497388 0.0011608741 -0.00032462942 -0.0028071434 -0.0033702054 0.0026373575 0.003553977 0.0006284744 0.0032310958 -0.0010477616 -0.0016599688 0.003418846 -0.0029900728 0.0012908722 0.0033270437 -0.0035188056 0.001647389 0.0036463907 0.0011000693 -0.00032081985 -4.756973e-05 -0.001053395 0.0033618829 -0.0013486585
34 -0.0025249543 0.0019876105 0.0008430961 0.001886626 -0.0015910416 0.0028453516 0.002755877 0.0010100254 -0.0024260425 0.0024244348 -0.0018968919 0.00083037186 8.675132e-05 -0.0018899459 0.0033126492 -0.0034712981 0.00051652064 0.00074943097 -0.001194296 -0.0026116255 0.0028714482 0.0017431672 0.0021535307 -0.001066804 -0.0017255739 -0.0025487358 0.0034587346 0.00044786933 -0.002367234 0.0021314546 -0.0022616638 -0.0008526486 0.0017013215 -0.00044095196 -0.0029069085 0.0030052438 -0.0026128883 -0.0012973532 0.0025111458 0.0025904549 0.0036968102 -0.0007043584 0.002363424 -0.0035695639 0.00045030954 -0.0030781964 -0.001855347 -0.0023881576 -0.0030083235 0.0035800133 -0.0032161733 0.0019652466 -0.002009475 0.00078843004 0.0008107729 0.0034571174 -0.00037743506 0.001139483 -0.0025755665 -0.00053390494 -0.0007005753 -0.00044396028 0.002969125 -0.0004249957 -0.0021211207 0.0021166157 -0.0037304692 0.0020623698 0.0035184585 0.0033227156 0.0027978222 -0.00028344715 -0.00026760047 -0.003533149 -0.0017871739 0.0025085264 0.0038179036 0.0026810959 0.002313364 0.0003559896 0.0023669247 -0.0019106787 -0.0014552437 0.0022246917 -0.0023540435 -0.0034849236 -0.003685539 -0.00013480228 0.003553414 -0.002002257 0.001534232 -0.0031406323 0.0010919645 0.003662801 0.0014009409 -0.0038656169 -0.0010212212 -0.0031455865 -0.0019184554 -0.00050063326 -0.0037854936 -0.002940266 0.0036654929 0.0030937647 -0.0020398563 -0.0010746934 0.0014724907 0.0021902756 0.0031437138 0.001043531 0.0026579148 -0.0025890353 -0.0028252285 0.0028398181 0.0016835658 0.00033383595 0.0011443635 -0.002809219 0.00049202744 -0.00267122 -0.0016802845 0.003572403 -0.0031053515 0.0028719392 -0.002622565 0.003796508 -0.000310873 0.0033124348
13 -0.0019878543 0.00031364648 -0.0014525545 -0.0038897705 -0.0006403399 0.0024215481 -0.00073098147 0.000273892 -0.0013008806 0.0017050017 -0.0010727021 -0.0021150655 -0.00016302119 -0.00021851045 -0.0023782265 0.0005963608 7.039267e-05 -0.0026387665 3.0735402e-05 -0.0026399367 0.00061023654 -0.002957145 -0.00055200094 0.00044816165 -0.00055150845 0.0020428398 0.0022855706 0.001150227 -0.0008763778 -0.0017492276 0.00065579935 0.00056144287 -0.0032456738 -0.003384635 -0.00390131 0.0038561274 -0.0013432318 -0.0004282892 -0.0014251443 -0.0009619399 0.002633509 -0.0022721286 -0.0019711505 -0.0017387319 -0.0024034933 0.0037166397 -0.00022754313 0.0016835899 -0.0036207307 -0.0015620663 0.003327238 0.0002435344 -0.00031657045 0.001494151 0.002338426 0.0029195563 -0.0038084055 -0.0022416236 0.003659855 0.0031243365 -0.0008343345 0.0028816683 -0.0013084974 0.0007257623 0.0004526623 0.000729332 -0.00024014767 0.0021154257 0.0034105573 -0.0031293374 0.0026705356 0.0013505179 0.0026261974 -0.00066654605 0.003083131 -0.0018792055 -0.00023143667 -0.00052878814 0.0019827744 -0.0015585707 -0.0033372727 0.0025657485 0.0017904376 0.003850768 -0.0022586838 -0.0023734902 0.00051628094 -0.0034850582 -0.0015888344 -0.0037614107 -0.0037812958 0.0038411443 0.0017381916 0.0011280876 0.00036231003 -0.00075112336 0.0011825664 -0.0002747707 -0.0015260599 0.00051837694 0.00074967754 0.0029179354 0.0017564717 0.0024016753 0.0011745782 0.0029386717 6.58056e-05 0.0018081644 0.0011234614 -0.0028097315 -0.0028350533 0.0021585757 0.0025699618 -0.002959924 0.0019591583 -0.003164355 -0.0037347113 0.0027116707 0.0025636924 3.587092e-05 -0.0011180463 -0.00020885759 0.003579178 -0.0030820498 -0.002145296 -0.0014461406 0.00049916963 -0.001619145
41 0.0015233485 -0.0017917432 -0.0023727466 -0.0010518471 -0.0038106733 0.0012639042 0.0011257161 0.0008997333 -0.0019746218 -0.0022518612 -0.0011198029 -0.0016544083 -0.0027152686 -0.00090459886 -0.0020946264 -0.0029794185 -0.0038227953 -0.0021891044 6.105021e-06 0.0026790914 0.0032305866 -0.0013053595 -0.0034668217 0.001591697 0.0018400439 -0.00014361438 0.0013246111 -0.0036643697 -0.0025015427 0.0029556623 -0.00061718863 0.0021548427 -0.0034446665 0.0007416907 -0.0007941747 0.0029606184 0.0012621884 0.0013908013 -0.0023877842 -0.001959218 -0.0028773816 -0.0011009974 0.00015188854 -0.00160944 -0.0013060409 0.0019099166 0.003368004 0.0032139407 0.0013885068 0.0030106897 0.003688152 0.0033952384 -0.0039051108 -0.0022943288 0.0014593451 0.0020390553 0.0029664447 -0.00029608907 -0.0037231199 9.461956e-05 -0.0030102527 -0.0024613778 0.0026683984 0.0012015479 0.0011530881 0.0007721918 -0.0023616059 0.0025205165 -0.0027668446 0.0030916247 0.0008829303 0.001580262 -0.0018410998 -0.0011566526 -0.0016616327 0.0002449517 -0.000524519 -0.0024341343 0.0024946681 0.0023171373 0.0030539888 -0.0024551179 -0.0010775687 0.00090704276 -0.003691734 0.0015557448 -0.00054616004 -0.00033741028 -0.0019179008 0.0012188131 -6.5336426e-05 -0.0014184563 0.0030119538 -0.00081976975 0.0028314223 0.0017727029 0.003588375 0.0022088804 7.6082615e-06 -0.0038469587 -0.0026616424 0.0016085171 0.00038884644 -0.00097028195 0.0016654993 0.00061187503 -0.0016807193 -0.002294811 -0.0037587835 0.0018942958 -0.0033088536 0.0024213542 -0.0012082448 -0.0032204492 0.0016230174 -0.0018369999 -0.0031630609 -0.0018429384 0.0038648017 -0.0030414625 -0.001300181 0.0021519528 -0.00090498646 0.0018979 -0.002852815 0.0022159063 -0.0038500545 0.0036415854
40 -0.0012257503 0.0021644738 -0.0021204334 -0.0017168679 3.602415e-05 -0.003104281 0.0032631725 -0.0003371868 -0.0008722301 -0.0010891245 0.0011239155 -0.0036444366 -0.0017582023 -0.000602912 -0.00086889113 0.0020836457 -0.00076880795 -0.0014202818 0.0028836215 0.003807356 0.0014807925 -0.0011987388 -0.0008907771 -0.0014896417 0.0002661866 0.0020607754 -0.0023204435 -0.0012763862 -0.0027380667 -0.002657692 -0.002737379 0.0029561808 -0.0019138725 -0.0035480557 -0.001503427 -0.0025986736 0.00029624175 -0.0012092352 0.0020250878 -0.0024971068 0.0020912576 0.0023133755 0.0018730043 0.0019313121 -0.003548506 -0.002225332 0.0034121221 -0.00069420424 -0.0011699285 0.00021416042 0.0006420183 -0.0029777542 -0.0003126835 0.0021585925 0.00042423225 -0.0035146917 -0.0037787734 0.0020455495 0.0005913903 -0.0022965225 -0.003832652 -3.1162377e-05 0.00036854492 -0.0024580974 -0.0009777131 -0.0036572095 -0.0016031245 0.0032389502 0.0020609552 -0.00033723877 0.0019918731 0.0027253795 -0.0036832371 -0.0016290765 0.0022247934 0.0001795175 0.0032665674 0.0020520408 -0.0032024756 0.0010619053 -0.003372801 0.0019955474 -0.0034892363 0.002446163 0.001831785 -0.0024502978 -0.0023222552 -0.0025143772 -0.0024052905 -0.0032464978 -0.0013924012 -0.0032065022 -0.00027063355 -0.0025254409 -0.0022633648 -0.0025356242 -0.0030732893 0.0013406011 -0.001538391 0.0035536047 0.002867242 0.0030050399 -0.0031443187 0.002423147 0.00021414655 -0.0026390143 0.0022786774 0.0027229765 0.0026148045 -0.0023260138 0.0031550378 0.0035461253 -0.0008664105 -0.0015002014 -0.0012742976 0.0032881338 0.0016023042 -0.0016366752 0.0029878886 -0.0028401355 -0.00018837363 -0.0013212034 0.0022547694 -0.0020505707 0.00075284805 -0.0029699171 -0.0028583203 0.0008941826
1 0.0037027295 0.00038668912 -0.0013729736 0.0037164239 0.0025311064 0.003068921 -0.0023382746 -0.003662768 0.0017102895 -0.00084847613 -0.00033803197 -0.0014666921 -0.0007921056 -0.0010353229 0.0023122677 0.0037396334 0.00011141602 0.0017251978 0.0012735887 -0.0027396444 -0.0019867125 0.000455163 0.0038879227 -0.0025123775 0.00031517306 -0.0023596527 0.0031314949 0.003334113 0.00041499088 -0.00045205065 0.0020904008 0.0038837877 -0.0023157804 -0.0024786347 0.002652547 0.0031445043 -0.0019711985 -0.0005555707 -0.0008507261 -0.0015919064 -0.0008587035 0.003480532 0.0019573555 -0.0006876051 -0.0023725347 0.001531647 -0.0023547395 -0.0017227903 0.000387272 0.0028881808 0.0016805797 -0.0031557581 0.0038034285 -0.00091234286 -0.00071720744 -0.0017844632 -0.0027243886 -0.0025452045 0.0022457337 -0.0019608957 0.0017842548 0.0012868705 -0.003685666 -0.0038390735 0.00030643248 0.0027734702 -0.00032079345 0.001568169 0.0024531893 0.0014320071 0.002177838 0.0012267109 0.0025302058 -0.0006105584 -0.0026942526 -0.0012905437 0.0017173571 -0.0035959582 -0.0019872505 -0.00010444064 1.4775527e-05 0.0035898732 0.0005475024 -0.0016038544 0.0011170984 -0.0034082553 0.0011318522 -0.0009666055 0.0019073556 4.6917e-05 -0.0015538977 -0.00097374956 0.0019608377 0.00095417455 0.0025044559 -0.001768312 -0.0008368584 -0.0025659236 7.173315e-05 0.00367708 0.0023894734 0.00028808333 0.0025433458 -0.0018813945 0.002249607 0.0020319987 -0.0009285587 0.0030929607 0.0020438344 0.00013615166 0.0027025533 0.00096787536 -0.0020587973 -0.0018467999 -0.0024772692 -0.0017734404 -0.001488203 -0.003699733 -0.00082797726 0.0006003425 -0.003642144 -0.000875864 0.003758804 -0.00046356654 0.0019045043 -0.0032104733 0.002353356 -0.001532641
38 0.0012982738 -0.0028434899 -0.0005209791 0.0013385268 -0.0020900508 0.002730773 0.0026769051 0.002943323 0.0025730007 -0.0033112196 0.0009937119 0.002194849 0.0036895282 -0.0011346964 0.0032725374 0.000484226 -0.00046446323 -0.0014502131 0.0023380963 0.00048850226 0.0025809 -0.0028497812 -0.0020501518 -0.0003593183 2.4970834e-05 -0.00045095745 0.0010392818 0.0026605777 0.00072847924 -0.0010056866 -0.0020396914 -0.0020388463 -0.0018985887 -0.0013748726 0.0011627134 -0.0006662105 -0.0014613266 0.0035543924 0.0014897401 0.00053086143 0.0021315576 -0.0031626564 0.0007707652 0.0034197504 -0.0025602446 0.00078863534 0.0033656168 -0.0030839571 0.001612246 -2.1108033e-05 0.0013886438 0.0011378311 -0.0011707706 0.0032849628 -0.001832547 0.0032996412 0.0014144656 -0.00040274736 0.002904329 -0.0017642698 0.0016531801 -0.0022392198 0.003431721 -0.0028852394 -0.00019643863 0.0037664718 -0.0010086946 -0.0015293312 0.0022545033 -0.00097152655 0.0034669046 -0.003091073 0.0025807312 -0.0013986082 -0.0003578405 -0.0038716092 0.002677678 0.0005716078 0.0003662062 0.00048428893 -0.0030536673 0.0023067298 -0.0010487788 0.003813196 0.001016918 0.0008493227 -0.00319457 -0.0005496946 0.0014400599 -0.00010265233 0.0033650673 2.6723977e-05 -0.00022361551 0.0020575195 0.0037395908 -0.0025960703 0.002927422 -0.0034585504 -0.0035636586 -0.0002544463 -0.0022437053 -0.0014235962 0.003126751 0.0036497635 -0.0029236968 -0.0012361326 0.0031720046 -0.0012045964 0.0032450703 0.0034794295 -0.0012828982 -0.0012704128 -0.0034159154 0.0013150306 -0.0036451563 -0.00054948364 0.0026742269 0.0033013169 0.0027707636 -0.0017877436 -0.0031340949 -0.003614831 -0.0030378608 0.0033984745 0.0018323787 0.002109209 0.002865855 -0.0017835818
57 -0.0020435918 -0.0006272635 0.0015366034 0.0022352138 -0.0023819443 -0.0023329835 0.0007274896 0.0028281908 0.0030754788 0.0034230351 0.003801477 0.0028656712 -0.00036046855 -0.001426689 0.0032089793 0.0007604675 -0.0025319806 0.0021435143 0.0008776085 -0.0021080666 -0.0026959002 0.0010129544 0.0019816733 0.00342978 -0.0027851847 -0.00016957888 0.0028024293 0.0016627085 -0.00045733544 -0.0024383937 0.003786399 0.0010832523 -0.0013732071 0.00021767519 -0.0027683012 0.001793529 0.0033169559 -0.00057877804 -0.0037559299 0.0004955313 -5.709299e-05 -0.0026227462 0.00077756576 0.0014377193 0.001340505 0.00267278 0.001642999 0.0027719943 0.0013025048 0.0025570896 -0.0014825385 -0.0005037203 0.0027704919 0.001980124 0.0028056295 0.0032340444 -0.003088035 -0.0010160252 -0.0037301646 0.000829132 0.0024593896 -0.001009846 0.0009440553 -0.0019545252 -0.00013259596 -0.00072741846 -0.0020187427 0.0014335343 0.0010560416 -0.002555415 -0.003140374 0.0008536863 -0.0029755589 -0.001123026 0.0004599012 -0.0038514892 -0.0012545105 -0.0013641703 -0.00027221552 0.0038562915 -0.0038608105 -0.0037972732 -0.0035191388 -0.001192279 0.0024188587 -0.0036432534 0.0030360378 0.0019886433 -0.0026473454 0.0017884279 0.0008288689 0.0028994281 -0.0007730691 -0.00082917383 -0.0018113601 -1.3766613e-05 0.0038758116 -0.0034714513 -0.0032187225 -0.0035698914 0.0025281787 0.0013691058 -0.0008259952 0.0014753996 0.0013763496 0.00045569547 0.0023597048 0.00060464063 0.0011664198 0.002625915 0.0032590576 0.001591762 -0.0018675438 -0.00343293 0.00054035307 0.0011965999 0.0036390857 0.0025914782 0.0014568628 -6.5930195e-05 -0.00010920541 -0.0009020318 0.0002327901 0.0015374592 -0.00070614944 0.0010756867 -0.0038327964 -0.0026366017
72 -0.0021244704 -0.0022395167 0.0031511728 -0.0017444359 0.000996389 0.0017097637 0.0036034328 -0.0016363222 0.002642796 -0.0037036284 0.0025289431 -0.0003245398 -0.0016302811 0.0010077157 0.0012008683 -0.0021436908 0.0030596522 -0.0022966617 0.0033751577 -0.002653612 -0.0015933523 -0.0021025727 0.0003445371 -0.0035889323 0.0034411403 0.00038911728 0.0005881503 -0.0004742503 0.0019686704 -0.002765104 -0.0016295593 -0.0007791598 -0.0005846232 0.002895593 0.0035540492 -0.0033640256 -0.002465604 -0.00042069235 -0.0024764885 0.0012804635 -0.000728238 0.00069199945 -0.0011441333 -0.0011513791 0.0033867117 0.0005997892 -0.0010377362 0.0014961249 0.0037088299 -0.001083029 0.0031299482 -0.003555523 -0.0025556434 -0.0022643555 -0.0025547107 0.0027726558 0.0029542376 0.0028401637 -0.0024334602 0.0010324983 -0.0036829787 -0.0009141503 -0.0013189887 0.0019946252 -0.0021390098 -0.0035456384 0.0012280386 -0.0031075978 -0.001267529 -0.0001907015 0.0010671839 0.0025304584 0.0027549944 0.0027894136 -0.00082665076 0.002499841 0.0028272858 -0.0031414083 0.0016931071 0.0016773528 0.0016861892 0.0024587454 -0.0036056514 0.0015243582 -0.00041440336 0.0035760324 -0.003704156 0.0021092154 0.00081732025 -0.0009032514 0.000535581 0.0036234627 0.0015387085 0.002686357 -0.00089829846 -0.0011016012 -0.0028767474 -0.00014298993 0.00081997114 0.0011271292 -0.0027074877 -0.00074284745 -0.0012402002 0.0034778204 -0.0029852425 0.002937075 -0.0031900464 0.0017068202 -0.001904487 0.0028848236 1.9519755e-05 0.0010172088 -0.0031779238 0.0033239087 0.0015070724 0.0025994019 0.0024848443 0.0031726195 0.003082549 0.0012449704 0.0028312237 -0.002951191 -0.003214916 -0.0025019762 -0.003049803 0.0019448828 -0.0025772424 0.003178612
45 -0.0021744997 -0.0035756594 0.0010410444 0.0016721559 0.0033330363 -0.0035150351 0.0014968083 -0.0036138324 -0.0025988317 0.0021872958 -0.00054876244 0.0014039282 -0.0015308767 0.0026394178 -0.0003692692 -0.0018396496 0.0028206073 0.0014724545 -0.00072636065 -0.0031094512 0.000662466 -0.0025380137 -0.0023429005 0.00019394977 -0.00052695576 -0.0028227274 0.00021987337 0.0012145346 0.003374196 -0.0009997999 0.00015506512 0.0016785777 0.0037869774 -0.0038348702 -0.0017029796 -0.0035445092 0.0002621374 0.002024391 0.0023688246 0.00096310367 0.001523755 -0.0011001044 -0.0010964259 -2.1344484e-08 -0.0024064952 0.0011392264 -0.0008291028 -0.0010384563 0.0033946391 -0.00074583554 -0.0006703889 0.002640454 0.0036167332 -0.00087289547 -0.0037206858 0.0008125504 0.0014192109 -0.0014815903 -0.00060221733 0.00044674758 0.00030491178 0.0024906911 -0.0026937246 0.0036920216 0.002346536 -0.00071439194 -0.002691811 0.0038982588 -0.00294787 -0.0037081556 -0.0030537925 -0.0028110042 0.00033386462 0.0025841293 0.0038152842 -0.00066991505 0.001218218 0.0029893846 -0.0034427734 0.0031428616 -0.003842854 0.0011750917 0.0017551047 0.0032710955 0.0038739422 -0.00044404998 8.1020444e-05 0.0003167482 0.0013432385 -0.0014853504 -0.0028085094 0.0019554312 -0.0018987273 0.0033749158 -0.0028890853 0.0022739987 -0.0037195815 0.001995218 -0.0012505299 0.00022983116 0.0032967466 -0.003525421 0.00088988617 -0.0038575307 -0.0007884809 -0.0012951224 -0.00025452935 6.551198e-05 -0.001010764 -0.0027247204 0.003296642 0.0036471467 -0.0013942531 -0.0023670297 -0.0021262055 0.0019171793 -0.00015735651 0.0019216241 -0.0031942192 0.003889904 -0.0025539377 -0.0023619428 -0.0015627586 -0.002186603 -0.00039149506 0.0020891859 -0.0022703374 -0.0038261542
18 -0.0018831777 0.003476807 -0.0027393247 0.0020969536 0.0025900574 -0.0025035334 0.001540911 0.0011771038 0.0015822953 0.00043527476 0.00086431956 -0.000864863 -0.0034360476 -0.0008110301 0.0019763408 0.0027404614 0.0009935993 0.0012204952 0.0014106192 -0.0027209541 0.0017368399 -0.0010463601 0.0030538316 0.002086959 -0.0024007559 0.0025544818 -0.0022783573 0.0029315443 0.0015491324 -0.00012485623 0.0026099486 -0.00097354414 -0.0011497455 0.00020127124 0.00017963277 0.00010594225 0.0027336224 0.0012865143 -0.00058903504 -0.0029925376 -0.0037197229 0.0011339716 -0.003638513 -0.0038851693 -0.0017984174 0.0023840654 -0.000613501 0.0026013863 -0.001326195 -0.0033683667 -0.0018677559 0.00080081885 0.0032015226 0.0036331958 -0.0023270384 -0.0020569637 0.0011133081 0.003629251 -0.0024246625 0.0016822807 -0.0027858429 -0.0013390834 -3.2607193e-05 -0.002067138 -0.0035017282 0.0017525251 -0.0007392014 0.002297793 0.0017762184 -0.003240446 -0.0030173736 -1.7543907e-05 0.00067785074 0.0015416262 -0.0022259224 0.0008279416 -0.0021986004 -0.0023876773 0.0027828272 0.0038649514 -0.0004921018 0.0007402116 0.0012044765 -0.0024933035 -0.0035662584 0.0021722603 -0.001718998 0.0009070616 -0.0029561636 0.002977794 0.003741122 0.002762512 -0.0025641588 0.0015251007 0.0036926693 -0.00062946894 -3.982135e-06 0.001333897 0.0025350065 -0.00021183043 0.0021115476 -0.001043366 0.0037887604 -0.0026600885 -0.0031969412 -0.0031302166 0.00030950754 -0.0012310782 -0.0027221947 0.0009518424 -0.0020113238 -0.0026994613 -0.0014874206 -0.0014235547 1.6684457e-05 0.0017628752 0.00021137572 0.0014950448 -0.001068517 0.0013249482 -0.0014932769 -0.0021666684 1.7236405e-05 0.0010920269 -0.0025176352 0.003752835 -0.0022084424 0.0011469389
86 -0.003230653 0.0037320629 -0.0033808667 -0.0024660362 0.0002865902 0.00082708773 -0.0015680612 0.0035987394 0.003643595 0.0027516617 0.0036913222 2.0062364e-05 -0.00028370347 0.0034261483 0.00026257787 0.0026229674 0.0001504883 -0.0031464642 0.0021601482 0.0035367655 -0.00089150877 -0.0036299445 6.246924e-05 -0.0029787696 -0.00012172911 0.0025084973 0.0010563638 0.002164041 0.0014793529 0.0016057215 -0.002902886 0.0006877509 -0.0026726571 -0.0010715558 -0.0034288762 -0.0017049194 -0.002947429 -0.0011683392 0.002904452 -0.0006517877 0.003418405 -0.0017966273 -0.0014959509 0.0025544078 0.0011265755 0.00018967013 -0.0037595641 0.0013393804 -0.0018774869 0.0022797599 0.0017269764 0.002975429 -0.0006724825 0.0021272302 0.0012377577 0.003853383 0.0035324488 -0.0032462256 -0.0018130912 -0.00073834794 0.0033457228 -0.00047257534 -0.0011614093 0.0026691048 -0.001435508 0.00082924735 -0.002000984 -0.0010570317 0.0012404183 0.00257566 -0.0017783489 -0.0018661093 -0.00037590685 0.0019350686 -0.0013962705 0.0004590212 -0.0038677584 -0.00071115594 0.00057998515 -0.002679246 -0.0020812743 0.001161274 -0.002454953 0.0023787017 0.0021706268 -0.003049684 0.0019839539 -0.00076440076 0.00080549484 0.000107458596 0.000910006 -0.0010213811 -0.0027917319 0.00043882203 -0.0004611073 0.0011527628 0.0019414934 -0.0001299375 -0.00039244964 0.0019883728 0.0019570845 0.0027013985 -0.002358863 0.0013410173 0.001160504 0.0027800691 0.002166163 0.0030292897 0.0004768226 -0.0026124064 -0.0030865462 -0.0038507243 -0.0032423534 -0.0038841343 -0.0019970231 0.00029872244 -0.003597392 0.0023893085 0.003851231 0.0026711342 0.0016762922 0.0013500828 -0.0032018828 -0.0032854925 -0.0015805691 -0.0031886268 -0.0034912024 -0.0021304633
60 0.00087236526 -0.0010622528 -0.00096986484 -0.0024914194 0.0009766134 -0.0030952594 -0.0008558131 0.0011628247 0.0034995305 -0.0023743873 0.0033079586 0.0010245078 0.002230726 0.0027122367 -0.003026921 -0.0008654443 -0.00037820096 -0.0025036894 0.0031636874 -0.0016960418 -0.00027995318 0.0030812444 0.0030595306 -0.0023775755 -0.0033006268 -0.0015219181 -0.0007535662 -0.0022492593 -0.0026749177 -0.0016556855 0.002162643 0.0016765438 0.003648608 -0.002480703 -0.002293981 -0.003694302 0.000115408475 0.0026227385 -0.002527799 -0.0011095124 -0.003273008 -0.0029707418 0.0010987138 -0.0034394513 -0.0013948625 -0.00087564683 -0.002405616 0.003838645 -0.0032714992 -0.0031822142 -0.0012880139 -0.0021647771 0.00040486525 -0.0012145047 -0.0008816382 0.0027358741 -0.00044948087 0.0015155664 0.0024515064 0.0013429039 -0.0027530864 -8.68607e-05 -0.0008352554 0.0036282802 0.0025709844 0.0004901631 0.00064825226 -0.001084962 0.0019499223 0.0018359502 -0.00047191532 0.0005173781 0.0027908941 0.0021639725 0.0026152686 -0.0026465359 0.0030921586 -0.0028440035 -0.00092086795 0.0019851509 -0.00057018857 0.001691788 0.00028237625 0.0031330024 0.00044066214 0.002852285 0.0017392586 -3.6452927e-06 0.002162126 -0.0038904317 -0.00039718984 0.0004212096 0.003459141 -0.0013085984 0.0025958035 -0.0016679337 0.003809142 0.0021935618 0.0035015931 -0.0028862345 0.0038609058 -0.0011208266 0.001580709 -0.002485518 0.003093853 -0.0014531014 -0.00027910277 -0.0014485316 7.8760204e-05 8.917973e-05 -0.0019521067 0.00076530146 -0.003844636 0.0016615506 0.00034266818 -0.0005994559 -0.0025696433 -0.002315044 0.0022966464 0.002003502 -0.0009699859 0.0012473104 -0.0029322912 -0.0022607455 -0.0028985117 -0.0024576024 -0.0029720531 -0.00096711854
