96 128
88 -0.0034826037 -0.0026256992 -0.0009435284 0.0011508617 0.0018974297 0.00018184545 0.00065505353 -0.0032562662 0.0036568118 -0.0014536527 -0.0020535162 0.00027009693 -0.000114684095 0.002433891 3.4848046e-05 -0.0025312018 0.003880099 -0.0027434588 0.0037803962 0.0036336011 -0.0029699742 0.0009197817 0.0008962788 -0.00048448364 -0.0032980698 0.0031439662 0.003402888 0.003490805 -0.0016838916 -0.0038828133 0.003493362 0.0034089095 -0.002274048 0.00073384127 0.0011581904 -6.908917e-05 -0.002733514 -0.0009832218 0.0016763861 -0.0009634428 0.0033329355 -0.0021993294 -0.0016992493 -0.0010107629 -0.0028626078 -0.0016359753 0.0009899639 0.0021359934 -0.0012157081 0.0035068681 0.0024780093 0.0016035838 -0.0010026544 -0.0016330391 -0.0038058376 -0.00087330764 -0.00047715136 0.0009356814 0.0024771688 0.002738218 0.00034179774 0.0009528288 -0.0015175627 0.0018106356 -0.0003643644 0.0007784215 -0.0032090219 -0.0026485615 -0.0004389892 0.00033982264 0.0038686537 0.0010005421 0.0032355369 -0.0029223566 -0.003671065 -0.0003469356 -0.00067684246 -0.003185484 0.0023813315 -0.00051423017 -0.001707871 0.0012686651 0.0021539968 0.0029394873 0.0031900785 -0.0009623041 -0.0013498279 0.00062595616 -0.0017467542 0.0018253017 0.00078287086 -0.0007665259 -0.0033850803 -0.0018970834 -0.0038588906 -0.001332194 0.0025998312 0.00021428616 -0.0036364254 -0.001919689 -0.0017766856 0.0020095482 0.0021594858 -0.00024815433 -0.0038124237 -0.0021198331 2.2882958e-05 0.0017478263 -2.4738605e-05 -0.0033413297 0.0013155476 0.0012991911 0.00089480384 -0.00089263916 0.0038133422 0.0011267724 -0.0038114071 0.0021761674 0.0012417134 -0.0029507966 -0.001553552 -0.0019240349 -0.0006374153 -0.0010536731 -0.00028552068 0.0019528567 -0.0029988657 0.0022594195
7 0.0025966612 0.0037224314 0.0022950936 0.0008219319 7.704216e-05 -0.0010983838 -0.00071795617 -0.003512215 0.0012326651 0.002881443 -8.5833184e-05 0.0013537393 0.0034103824 0.0008226169 -0.002511628 -0.0013752173 -0.00077007775 0.0015953154 5.6316672e-05 -0.0015949322 0.0010620255 0.003769528 0.0022215594 0.0006108721 0.00075069605 0.0023056734 -0.0022469016 0.0016910742 0.00212109 0.002287487 0.0021347874 0.0019966902 0.001546848 -0.0032028614 -0.0009652729 0.0019927055 -0.0033062296 -0.0034948734 -0.0014161156 0.0015038595 -0.0003325229 -0.00033038383 0.0028785842 -0.002070009 0.0026097817 -0.0036451581 0.00069410476 0.00026687977 -0.0013448871 -0.00026664726 0.0035514098 -0.00012011359 4.960523e-05 -0.0021762527 0.0037362461 -0.0038442914 0.0017477628 -0.0038898531 -0.0017444991 0.0013088842 0.0034132507 -0.0036753737 0.0023492428 0.0021094745 -0.0010165739 -0.0014384635 -0.00045620478 0.0023890368 7.065895e-05 0.0038049354 0.002776839 -0.0018775653 -0.002156972 0.0016640052 0.0027200687 0.00026284574 -0.00071773893 -0.0029712569 0.0016013656 0.00068729266 -0.002088445 -0.0030720506 0.0025761372 0.0016355369 0.0017604022 0.0021965648 0.0033509566 0.003790169 -2.5864685e-05 0.0035285605 -5.396426e-05 0.001126589 0.0020530084 -0.0027700157 -0.0027844606 -0.002221619 0.002752949 -0.0009942518 -0.0008941383 0.0003284649 -0.0015906849 0.001484368 -0.0019472546 0.0026738162 0.001341006 0.0009636427 0.0029757088 0.0017054294 -0.00046170902 -0.003143404 -0.0025686852 -0.0009186926 0.0029106825 0.0035586387 -0.0014304256 -0.0035192373 -0.002832848 -5.8071714e-06 0.0003508452 -2.9453156e-05 -3.8810136e-05 -0.0016834913 0.001953536 -0.0023880966 -0.0020318918 -0.0025394757 -0.0011127027 0.0010070849
87 0.0021087555 -0.0022628095 0.0001178019 -0.0021064226 0.00018435466 -0.0028201707 -0.0034619202 0.0018608456 -0.0015841527 0.0032118564 -0.0009797344 0.002884386 -0.0028232005 4.5866436e-05 -4.1130235e-05 0.003366001 0.0007701747 0.0029113567 -0.0007791644 0.00045144194 -0.003026897 -0.0025690997 -0.00091298565 -0.0006315886 0.0013646176 -0.0027213602 -0.0005849045 0.003393261 0.0036393607 -0.0005892913 -0.0033515962 -0.0020260413 -0.00280973 -0.0007260965 -0.0015682132 -0.0028050304 -0.0036019308 -0.0007625635 0.0001352241 -0.002723363 -0.0025828504 -0.0021602446 0.0007989041 -0.001794441 -0.0006097198 -0.00084194087 -0.0030962797 0.0036639133 0.0018368857 0.002888095 0.0036450631 0.0018525121 -0.0027373985 0.0010853582 0.0014061847 0.0010135869 0.0032988358 0.00027949119 0.0018288698 -0.0012017108 0.0005416873 -0.0022938007 0.0033295408 -0.0016077874 0.00021983785 0.0029871096 0.0035630506 -0.00116769 -0.001397587 0.00027896746 0.0038776686 0.0029624926 0.0023283886 -0.0005025983 -0.0029311993 -0.0036623813 -0.001051207 0.0029441174 0.0029556889 -0.0015836002 -0.00079792715 -0.0022196793 -0.00079206226 -0.0021871252 -0.0036152275 0.00041351895 0.00091531116 -0.001433729 0.0005264248 -0.003769469 -0.0020972043 -0.0003054713 0.0002567957 -0.0038847462 0.001365981 -0.0036307108 0.000127128 -0.003612288 0.0011161765 0.0032794215 0.0026922126 -0.001122679 0.0037317055 0.00019365389 -0.0020422374 -0.0010774238 -0.0014454062 0.0038537337 0.0019241257 0.0037005346 0.0005921836 -0.0033794567 -0.003668401 -0.002254817 0.0029517761 0.00017838349 0.0031022474 -0.0012733237 -0.0014568847 0.00047925152 0.002297136 0.003288687 -0.0026684746 -0.0032310148 -0.0033390345 -0.0017265035 -0.0019241057 -0.001737244
54 0.003504674 -0.002270557 0.001360543 0.0028765337 0.0010525518 0.0031827767 -0.0028408829 0.00012437107 -0.0018822821 0.0018158673 0.00035858323 0.00042621652 0.0020518096 -0.0013393898 -0.0033632927 0.002688579 0.002268073 -0.0029837086 0.0020083014 0.002388862 -0.00019668989 0.0026492083 0.00044744601 0.0029795044 -0.0035780363 -0.0004025944 -0.0027718141 -0.003056632 0.0034955044 -0.001347712 0.0020715531 0.0011177564 -0.0028713057 0.0034643072 -0.00019069498 -0.00040608863 0.0037941125 -0.0014816185 -0.003813501 0.0037748273 -0.0016792975 0.0010087045 -0.0023720812 -0.00011291036 -0.0021552057 -0.0026442788 0.0015148902 0.0033521836 0.0020922741 0.00040398224 -0.0025390876 -0.003136656 -0.001905176 -0.0008933687 0.0031358537 -0.00032863748 0.0020425625 -0.0017086784 -0.00054486224 0.0026773917 0.0016918067 0.0020249917 -0.0011510267 0.00021730168 0.0023163392 -0.0026420003 -0.001765744 0.0018697127 -0.0018581946 0.00087235845 -0.0036789605 -0.003169091 0.0031217572 0.0020067098 -0.0010320361 0.0012005438 -0.0009141479 -0.00024872465 -0.0022899716 0.0029272826 0.0025069977 -0.00073240284 0.0016746597 0.0013928913 0.0009386366 0.0025624742 -0.0032376868 0.0024350532 0.0026376164 0.003459304 -0.00030251025 -0.0015988877 0.0005256712 0.0037257671 -0.002302739 0.0020252832 -0.0013877611 0.0022603069 0.002508036 -0.00065273675 -0.0013060953 0.003752327 -0.0023837513 0.0035154487 0.0033587907 -0.0023314191 -0.0025427116 -0.0004507546 0.00021206652 0.00040325822 0.00092217606 -0.0037297597 0.0030027428 0.002477401 0.00032751178 0.0031760037 0.0035041973 0.0001225569 0.0022673951 -0.0036225074 0.0005392435 0.0024182743 0.0018779916 7.0658694e-05 -0.0022338773 -0.0029295024 0.002776236 0.00036871506
22 -0.0011749375 -0.0010074653 -0.0005399155 -0.0008653902 0.0008993479 0.0003639412 -0.0009917605 -0.00031211172 0.0012219736 0.0031847763 -0.0037839154 -0.0006828475 0.0035759239 -0.0010180168 -0.00033001998 -0.0014193933 0.0030509417 -0.00316418 -0.003514075 -0.0016957852 0.003334772 0.00067321945 -0.0029210446 -0.00028031264 0.0016184018 0.0016225735 -3.0472498e-05 0.003863257 0.0026999994 6.125825e-05 0.0025326062 0.00168427 -0.001451011 -0.002153893 0.0034641747 -0.0019369466 0.0011312942 -0.0016036427 0.003352134 0.003678692 0.0013466508 -0.0035879575 0.0026672946 -0.00086782133 -0.00063595595 0.0008713914 0.002656571 0.0037909222 0.0030087961 -0.00035116568 0.0013276788 -0.0026970713 -0.0032031399 -0.00151588 -9.208306e-05 0.002093698 -0.00096286443 0.0023009419 0.0031818575 0.0030049519 0.0035822927 -0.00075369125 0.00075902784 -0.0007697231 -0.0030282745 -0.0030096932 -0.0010810358 -0.0019429865 0.0005608663 -0.0025999523 0.00063674705 -0.0018976132 0.0026369337 0.0025550765 -0.0009419043 0.0038744023 0.0016305301 -0.0013606765 0.0016727067 -0.0010739669 0.0036059548 0.0027920539 0.0012538637 -0.0030904876 0.0011345841 0.0035061883 -0.002509123 0.0032024404 -0.0028811167 -0.0017445303 0.00038436035 -0.0020855637 0.0011471447 0.0016641634 0.0036519438 0.0027921703 0.0011523163 0.003315076 0.0011367803 0.0011852833 0.0036608856 0.0016073665 0.0026998909 -0.0033526814 0.0032607785 0.002133612 -0.0022055306 0.0029919364 -0.0012749025 -0.0032069532 -0.00068284204 0.0028884124 -0.0037135056 0.0010152172 -0.0029210118 0.0027014222 -0.003073903 -0.001717093 -0.003278285 0.0038239507 0.000488356 -0.002849685 -0.0026595327 -0.0038674884 -0.00013198984 -0.0014182396 0.0010295815 -0.00071944005
42 0.0034087219 -0.0012434301 1.5352858e-05 -0.0030875495 -0.0022633567 -0.003656641 -0.001501156 0.003291246 0.0011493501 -0.0014146144 0.0011460691 -0.00071051426 -0.0023489937 0.0031104465 0.0023882878 -0.0032142038 -0.0019418171 0.0026581702 -0.002238669 0.00083709136 -0.0030000284 0.0032514725 3.565138e-05 -0.0019763252 0.0008946002 0.00084588054 -0.002944596 0.0034107973 -0.0026394622 -0.0011333755 -0.0026759524 -0.0011344211 0.0036752562 0.0019405412 -0.00039185036 -0.0028415571 -0.00033294826 0.0035874976 -0.0022879187 1.683751e-05 0.0030279064 0.00070357753 -0.00043882278 0.001882527 -0.0014478447 -0.0023960022 0.002535092 0.0033510884 -0.0017528322 -0.0028398558 0.0008135252 -0.0021472184 0.0015930032 0.0034929016 -0.0013372715 -0.00230325 0.0019775885 0.002465235 -0.0038150102 0.0032522918 -0.0037141433 0.0012531823 0.0036059376 -0.0022450066 -0.0037305767 0.0016594366 0.0010799718 -0.0028925822 -0.0019779862 0.00060719124 -0.0020317885 -0.002900632 -0.00033543585 0.0021498085 0.002825285 -0.0032154147 -0.0035300977 0.0028779646 -0.0023377934 -0.0033137535 0.0030515376 -0.0028961557 0.0030488276 -0.0033529587 0.001310452 -0.0009755608 -0.0016697923 -0.0024695417 -0.0035859193 0.0031920916 -0.0037324643 -0.00278061 0.002047723 -0.0008400761 0.002881129 0.00037360706 0.00359688 0.002038281 0.003483503 0.0023125636 0.0016554705 -0.003299062 0.0036969355 0.0019523166 -0.003649121 1.33424855e-05 -0.0038806582 -0.00068416103 0.00078793184 0.0014904926 0.0030373833 0.00065226504 0.0026611544 0.0011652923 -7.290234e-05 -0.001309856 -0.0010770492 -0.0005711473 -0.0016857642 0.002983035 0.00092219183 0.003807104 0.0010565356 0.002052337 -0.002400323 0.0026158935 0.0026987137 0.00043143702
55 0.00017075725 0.0029144606 -0.0031619086 -0.0029153356 0.0012875928 -0.0003955536 0.001960642 0.001975618 -0.0011252279 0.0014214971 0.0018267066 -0.00075389387 0.0037781547 0.00046705428 0.00084531767 -0.0003018318 -0.0010431075 -0.0003726656 0.0037216656 0.0036695832 -0.0038685712 0.003231259 -0.0034600976 -0.0017459842 -0.0007826663 -0.0028006916 0.0038120914 -0.0007372629 0.0012576907 -0.0020823807 0.0015664748 0.0005199508 0.0011006548 -0.0005164631 0.0030433128 6.940175e-05 0.00016698487 -0.0008480964 -0.0024101492 -0.0010445837 -0.0025832118 -0.00031453962 0.0034615851 -0.00016685949 0.0035295195 -0.0033018994 0.0035095953 0.0017254517 -0.00056579005 -0.0025761395 -0.0027914501 -0.00309385 0.0029626933 -0.0030865425 -0.0022917388 -0.0031839812 -0.0024724829 -0.003194284 -0.0005066694 0.001882691 -0.0009297549 0.0020347286 -4.9636274e-05 -0.00028161978 -0.0034738984 0.003840177 0.0027646204 0.0025581499 0.00043319335 8.463466e-05 -0.0013700648 0.0016673903 -0.0024197064 -0.00018811986 0.0010992024 0.0024807681 -0.0021392275 -0.0025824376 0.0016647999 0.0014123777 -0.00024600222 0.000108574335 0.001210878 0.00097106135 -0.0035758265 -0.0035972921 0.0038952732 0.00055011455 0.0029049756 0.0034879465 -0.001882911 0.0035537058 0.0020263728 -0.00071598374 0.0035825532 0.003411454 0.0015435033 -0.0019157673 -0.0015095852 0.0010433436 -0.002083387 -0.0032203752 -0.0036028223 -0.0008187719 -0.0037262717 -0.0019696713 0.0020780736 0.0025740268 -0.00057765807 -0.0021856846 -0.000704473 -0.000466962 0.0025140336 0.00024253817 -0.0031922732 -0.00047705075 -0.002901971 -0.0014035695 -0.0012680145 -0.0027087054 0.0033715314 0.0031460635 0.0012569529 -0.001455146 -0.0018794177 0.0021220068 0.0017886726 -0.0030071803
39 0.003649694 -0.0011031982 0.0007516738 0.001918128 -0.0032515854 -1.4899773e-05 -0.0015873826 0.0015778112 0.0027435827 0.00047599486 -0.0003074668 -0.0027459206 -0.0019103542 -8.173356e-05 -0.0009927647 -0.00088151917 -0.0035195816 -0.0009959993 -0.00013312788 -0.002292853 0.00132236 -0.0029451551 0.0001983583 0.001435801 0.0022419156 0.0021126256 0.0017711218 0.001666863 0.0038509644 -0.0011509615 0.0033547173 -0.0032772853 0.002377841 -0.0028681133 0.0003169771 -0.0035777125 0.0017644833 0.0018134335 0.0031660188 -0.00079836743 0.0037509429 0.00012696435 -0.0005995406 -0.002582848 -0.0031260976 0.0011728305 -0.0038105955 -0.0023627842 0.0027813572 0.0019881977 -0.0032270735 0.0013533495 0.0038825101 0.00073356717 -0.0032021557 -0.0020910406 -0.002829771 0.0010901876 -0.0008774831 0.0016847452 0.0028138915 0.00016462823 -0.0035386372 -0.0013227372 -0.00091936823 -0.002936364 0.002863568 0.0026400043 -0.0002397506 -0.0009691897 -0.0013946688 -0.0022874826 0.0016427101 0.0022908167 0.0035087971 -0.00017803856 0.0038987624 2.8099697e-05 -0.0019715836 -0.0030945642 0.0017373107 0.001018496 -0.0034143063 0.0005684001 0.0032060733 0.0032342665 0.00067554915 0.002473035 -0.0026142653 -0.0018623833 -0.0012039895 0.0033682724 -0.0022957334 -0.0034658567 -0.0016196065 -0.0033392427 0.0029474632 0.0012089121 -0.003372281 -0.0020079499 -0.0023832845 0.003440619 0.002551017 0.0020071738 0.0014654042 0.001985236 -0.0012957116 -0.0002159 0.0027387908 -3.6874433e-05 0.0014242776 0.003325064 0.00073134084 -0.0031960364 -0.0035997694 0.00039191346 -0.00044336604 0.0033210018 -0.0032810294 0.0011353138 -0.003528131 0.0017195236 0.0037485443 0.00050495187 -0.0038900026 0.002728376 -0.002289824 -0.00094471086
29 -0.0037105014 -0.0015842987 -0.0007744446 0.0027788328 0.0012848405 -0.0025034375 -0.003093259 0.0011523333 -0.0035142626 0.0016471394 0.0013121514 0.001968421 -0.003506302 -0.0015232381 0.0035510978 -0.0026054075 0.0005786039 0.003295753 0.0019614056 0.002449942 -0.001434164 -0.0033587217 0.0031178002 0.0034359717 -0.002449357 -0.00047130955 -0.0025951446 0.0036237778 -0.0037655896 -0.0036264684 -0.00056604843 0.0010810168 0.0025876786 -0.0029798897 -0.000744285 -0.002278435 -0.0033426224 -0.0034542587 -0.0023762737 0.0033722324 0.0021997532 0.0031957477 -0.0026850551 0.003208991 -0.0009164533 0.00050041376 0.0014608144 -0.0035863302 -0.0011361049 -0.0019133905 -0.002230091 0.0027789234 0.003046199 0.0024339906 -0.0026794244 -0.0020208347 0.0008053696 0.0031995538 0.00025843328 -0.0019832123 -0.0005294097 -0.00029603287 -0.0019859145 0.0019796789 0.0014997256 -0.0015717504 -0.0021574679 0.0013679046 0.0011204565 -0.0027871914 0.0023288762 0.00090203946 -0.0030124786 -0.0032239307 0.00044192845 0.001196991 -0.0017656732 0.0023630841 -0.0026843774 -0.001107879 0.0014800731 0.0033250474 0.002247293 0.0009483779 0.0028086111 -0.0038235765 -0.0011375633 -0.001751009 -0.0022126248 -0.0021334447 -0.0037393006 0.0028384484 0.0019749643 0.0013926282 0.0019582128 0.000114284194 0.0008298062 -0.002078831 0.0017344208 -0.003231611 0.002642255 0.0013507768 0.0028763057 -0.0023589986 -0.0024974297 -0.0031011067 0.000176119 -0.0019140102 -0.00013254069 0.0030900969 0.0018647389 0.0034311428 -0.0039025643 -0.0009073641 -0.0008518055 0.00292865 0.00051622046 0.0004259376 -0.0019779427 0.0026684215 -0.00310307 -0.0008959074 -0.0014223094 -0.0037896645 0.0015640983 -0.0020669473 -0.0013313828 0.0021912172
3 0.0028524802 0.0025803582 -0.0006872203 0.0025718964 -0.0023975254 0.0017948548 0.0005418125 -0.00025702314 -0.0022814097 0.0028830073 -0.0011420246 0.0038252715 -0.0030136402 -0.0009674222 -0.0011114595 0.0011723702 0.0016290535 4.1247557e-05 0.0009421734 0.0011544907 0.00385588 0.003376503 0.0019740069 0.0038763913 -0.002900437 0.0023152137 0.0032549126 -0.0006898778 -0.0020010169 -0.0031427045 0.0013853281 -0.0032624914 0.0006995553 -0.00010454813 -0.0017502914 0.001197881 0.0022364324 -0.0016082996 -0.0024696935 0.0037686506 0.0009474918 -0.0015437764 -0.0007022337 0.002826001 -0.0021020065 0.002985313 0.0014259235 0.0036436792 0.003218364 -0.0035803798 -0.0014300456 -0.0018664785 0.002825871 0.0009980372 0.0007473828 -0.0016421127 0.0027017072 -0.0034643726 0.0008640044 0.00042496368 0.0010183506 0.0033934251 -0.0013673212 -0.0020668504 -0.0012971351 0.0025789423 -0.002850693 -0.0030769086 -0.0024436102 0.0005428481 -0.0034889225 0.0029213019 0.0030807236 -0.002460169 -0.002350822 -0.00069880305 -0.0027273502 -0.002595623 -0.0018926366 -0.0013388362 -0.0026558323 0.0038170745 -0.002778414 -0.0034810728 -0.0010653114 0.0031975475 -0.0029559697 0.0024808063 -0.0022024992 0.0029603264 -0.003784651 -0.001502998 -0.0009747597 -0.0021096733 -0.0021823426 -0.0025955183 0.0020890832 -0.00385326 -0.0026190584 -0.001275072 0.0001915835 0.00040529468 0.0027205492 0.0026192025 -0.0026855152 0.003154052 -0.0023615486 0.0011365676 -0.0012494426 -0.0032875913 -0.0016876702 -0.0017960009 0.0008392496 0.00086834887 0.00016084466 0.0028269873 -0.00041753336 0.0028940013 0.002067458 -0.0024278879 -0.0035222387 0.0012947667 -0.002987239 0.0037951856 0.003444481 3.3882163e-05 -0.0030580545 -0.0023151773
70 -0.0030964562 0.0011583092 -0.0028698966 -0.000845299 0.0026910526 0.0032642884 0.001945976 0.0031775562 0.0034683018 0.0025202155 0.0013647474 -0.0012932889 0.0012345839 -0.0015173972 -0.0013534776 0.001719527 0.0013689019 -0.0035040872 -0.0018832702 0.0019609188 -0.003452303 -0.00096995116 0.0016770111 -0.0006148956 -0.0025720045 0.0020806224 -0.0014361477 -0.0011829627 -0.002094856 0.0014836265 0.0013018128 0.0020081948 0.001460546 0.0021372987 0.003759454 0.0032931918 -0.00033063514 0.00043013511 -0.0021488098 -0.0017691713 0.0010390657 0.0009428352 -0.0026034694 -0.0028052488 0.0024911957 0.0019768164 0.0002813495 0.001019195 0.0013303172 0.0016138885 0.0022955993 0.001667556 -0.0011349337 -0.00035108707 0.0027345966 0.0020111601 -0.003563363 0.003403172 0.0012629871 -0.00019284638 0.0038333174 -0.0029796707 0.0026685453 0.0020929798 0.0026695952 -0.003428961 0.0030850507 -8.354823e-05 0.0031934637 -0.0004869233 -0.0035417555 0.0034469932 -0.00060037413 0.0035522834 -0.0029953793 -0.0035378828 -0.0012129109 0.003719273 0.0006615534 0.0030088003 -7.1528143e-06 0.0010179227 0.0035777336 -0.002879627 0.002194648 0.0036956514 0.0011385595 0.0038268268 0.0011391955 -3.300794e-05 -0.0037868964 0.0034067703 -0.003176961 -0.0030536477 0.0031927829 -0.0021601012 -0.0017404868 -0.0024773716 -0.0005202434 -0.0016605114 0.0017698888 -0.0012530022 -0.0020134961 -0.0011464963 0.00025732163 -0.00065389596 -0.0033372284 0.0021707974 0.0007989272 -0.0025319227 -0.0020406537 0.001280578 -0.0011577922 -0.0013274744 0.0018948441 -0.0027343514 -0.002353532 0.0036000349 -0.0022141412 0.0030453766 0.0032481598 -0.003201775 -0.00015288545 0.0038209378 -0.00034897527 0.00100065 0.0021949469 -0.0032508378
71 -0.0016065557 0.00240213 -0.0014585638 0.0024249044 0.0033950324 0.0009781608 0.0016939009 0.0014781631 0.0014584907 -0.0023222417 -0.00020334241 0.0023492922 -0.0038930203 0.0029915995 -0.0005023099 -0.0022468935 0.0031643256 0.000754002 0.002052688 -0.0036279352 -0.0015846288 0.00021259951 0.002113119 -0.0033275785 -0.0016234606 -0.0012048911 -0.003656816 -0.0038907605 0.00037272496 -0.001301999 0.0035047662 0.00038356616 -0.0032128799 0.00050365814 0.00017541448 -0.001652557 0.003065081 -0.0009275674 -0.0026828938 -0.0020821153 0.0037472958 -0.0037313465 0.00015329407 -0.0015352275 -0.0011004707 -0.0004473862 0.0001327399 -0.00017525298 0.0027585947 0.003517268 0.0033863797 0.00013997697 0.0012888293 -0.0008634421 -0.00040063867 0.0008638465 0.0031279942 0.0024124605 -0.0025464466 -0.0013082022 0.003880426 -0.0005004083 -0.00021105038 0.0032685432 0.0036146874 -0.001686876 0.0011034476 0.0005678857 -0.0010909076 0.0037493368 -0.003617297 -0.0014275741 -0.0032528685 0.00122681 -0.0024372437 0.0011358721 0.0036125195 -0.0036689017 -0.0017682149 -6.858397e-05 -0.0030979181 -0.0005223601 0.0020066348 -0.0016256933 0.0020476277 0.0005701213 -0.003501437 0.0015995625 0.0037896503 0.0009996099 -0.0035885486 0.0017460356 0.0015642291 -0.0011812465 -0.0034611782 0.0018193306 0.0020866748 -0.0037871758 -0.00050471065 -4.5922156e-05 -0.0017368592 -0.0004804829 -0.00020074284 -0.0039021575 -0.000388615 0.0010081353 -0.0031331754 0.0026524868 -0.00074606517 0.0013115779 0.0018082685 0.0009987003 0.002978781 -0.0026712364 0.0034338457 0.0014985066 -0.0014436143 0.0010381856 0.00027680767 -0.0024197125 0.0039051382 -0.0001897082 0.0005596448 -0.0024101348 0.0004869856 -0.0021958703 0.0024621377 -0.0033745347
84 0.002559176 0.00022412345 -0.0022511822 -0.0025019017 0.0028453262 0.0025255696 0.0024944812 -0.0033438164 -0.0032079713 0.0034342292 0.0017038791 0.0007808621 -0.0023455564 -0.0016139945 0.003609091 0.00054431485 0.0034839672 0.0021992326 0.0029050645 0.0009030617 -0.0009658056 -0.0017934705 0.0032073986 -0.0013034281 0.0020467523 0.0026551029 -0.0007020468 0.00082769396 -0.0009569769 0.0016061331 0.00356607 -0.0011802592 -0.0030052373 -0.0009929169 0.0016172706 0.00019806632 0.0026844726 0.0015329495 0.00027196764 -0.0035427862 -0.0033278062 -0.003714144 0.0026942051 -0.0035400458 0.0037885848 0.0038419985 -0.0023291637 0.0034406807 0.0010087834 -0.0027887255 0.0028034174 0.0024032288 -0.0009542767 0.0013644819 0.0018939496 0.0035871353 0.00235892 0.002221905 -0.0003987494 0.00039150115 0.0024091047 -5.7797497e-05 0.0034600028 -0.0009805522 -0.0032939876 -0.0032786923 0.001703744 -0.001986186 0.0029325963 0.0017275526 -0.0028297354 0.0014214215 0.0010018307 5.286951e-05 0.00023533741 -0.0024001861 -0.0011032271 -0.0021827503 0.0015690175 -4.9119237e-05 0.0009607365 0.0032000816 0.0032178883 0.002956663 0.0019331545 -0.002606129 -0.0031929156 -0.001122014 0.0019069553 0.003589141 0.0018014626 0.0032426899 0.0007172191 -0.002573438 -0.00018686849 0.0013950682 -0.00019633735 -0.002390863 0.002153733 0.0023320513 -0.00325587 0.00075730233 -0.0007636605 -0.0009770171 -0.0011303143 -0.0010528024 0.0012611906 0.0011556315 -0.0017272899 0.003134489 -0.0020570408 -0.0005512272 0.0013490405 0.00060018967 0.0027506202 0.00010065187 -8.326947e-05 -0.0011318817 0.0008285161 -0.002701301 -0.001421398 -9.577864e-05 0.001674584 -0.0016758065 -0.0022837045 -0.00046950547 0.0017759354 0.0010778662
77 -0.0025182434 0.003726287 -0.0034667044 0.0034564508 -0.0017268459 -0.0010343769 -0.0031630113 -0.0015650354 -0.003179261 0.00046464152 -0.0033360228 -0.0022688701 -0.0020927154 -0.00077655364 0.003274586 -0.0013471043 -0.0016300732 0.0032124103 -0.0033096895 -0.0027863209 0.0011641207 2.3238774e-05 -0.0031313654 -4.8547834e-05 0.002535481 -0.0030386616 0.003335704 -0.0011341276 0.00035017604 0.0035703767 -0.00082133024 0.001822915 -0.0013404355 3.252726e-05 0.00068757683 0.0027227565 -0.0032232348 0.0033738872 0.0029005315 -0.0029660477 0.00015140898 0.00043965742 0.0029825615 -0.00097620225 0.0014419734 0.0019239354 -0.0032181703 -0.0036664344 0.0011260535 -0.00052781287 6.2550425e-05 -0.002695528 -0.0013575073 -0.0027306275 0.003649962 0.0031979969 0.0037331486 -0.0021370142 -0.00020013857 -0.0034772912 -0.00224186 -0.0013356393 -0.0036286484 -0.0017747983 0.00014868756 0.00022370895 -0.0018182866 -0.0024459884 -0.001099033 -0.0005469906 0.0016791722 -0.0034250685 -0.002754292 -0.002931219 0.0005346554 -0.002315777 -0.0022928787 2.5743162e-05 -0.003502517 0.0033833054 -0.00088010274 -0.0006511341 -0.0015361202 0.0010637264 -0.0009821767 -0.0035486259 0.0015963701 -0.002378685 0.0010521397 0.0038620697 0.0035831018 0.0013459438 -0.0031813814 -0.0018921717 -0.0008415136 -0.0031948732 0.0035878452 -0.0023159643 0.0030107286 -0.0020875784 0.0006489282 0.0039043825 0.0026615027 0.001281329 0.0006852453 -0.0012726283 -0.00076582085 -0.0033507077 0.003855467 0.0015328875 -0.0021862942 0.0017065866 -0.0027712286 0.0028842085 0.00028605844 -0.0014336843 0.0037114816 -0.002522011 0.0018252828 -0.0020794373 -0.00043283936 -0.0025163407 0.0024929324 -0.0033050715 0.0015354285 -0.0018564677 -0.0038628844 0.00051917444
81 -0.0036446 0.0035079932 -0.00305566 -0.0005599264 0.0008426728 -0.0020230256 -0.002880889 0.0028544809 0.003702789 0.0034351912 -0.0030321488 -0.0017416559 -0.0025018305 -0.0011237266 0.00088749675 9.715259e-05 -0.0001854994 0.0017987024 0.0016504233 -0.003808306 -0.002013972 -0.00014596076 -0.0023514659 0.0010907835 -0.002286465 -0.0003797975 -0.0037967374 0.0011054314 -0.0036435027 0.0034584808 -0.0009111258 0.0018305484 0.00064401753 0.0012304457 0.0038940294 -0.0030531536 0.0016459868 0.002927672 -0.0038734605 0.0035224739 -0.0010238403 0.0031622653 0.0015925388 0.0019517927 0.00347132 2.5254787e-05 -0.0034116802 -0.00025360388 0.0024540953 -0.002406102 0.000111673304 0.0019169307 -2.9986611e-05 -0.00017992161 0.002413467 -0.0015908458 0.0006478771 -0.002135472 0.0017735123 -0.0022234537 0.0021312635 -0.0025651772 -0.0038145776 -0.0014557493 0.0019495666 0.0029989472 0.00074821437 -0.00096536666 -0.003117479 -0.00075589307 -0.002150594 -0.002240296 0.0011377294 0.0038639107 -0.0011910816 0.0022047877 -0.0036832974 0.0037679935 0.0008269725 0.0035516908 0.0036326423 -0.0029500383 0.0027839337 0.0030153005 0.0034447426 0.0031166319 0.002283241 0.0037480667 0.0007676309 -0.0006550373 -0.003468523 -0.003848389 -0.000784621 -0.0018941928 0.0026601884 0.000782042 -0.0014703303 -0.0027433864 -0.003498997 -0.0025039194 0.0006523672 0.0030649493 0.003247605 0.0003880097 0.00066735543 0.0027137254 -0.002248933 1.6516888e-05 -0.0024673243 0.0033125018 0.0028320788 0.00014256443 0.001176682 0.00049662933 0.002893162 -0.0023311847 -0.0032374265 0.00078830135 0.0033431018 0.0013681019 -0.0025343213 -0.0025601403 0.0012432698 -0.0028721571 9.18198e-05 -0.0019180541 -0.0027021407 -0.0027894017
49 -0.00034248983 -0.003042669 -0.0006074629 0.0022885303 -0.003193406 -0.002046938 -0.0022849883 0.0002578726 0.00062999106 -0.002460142 -0.00027167215 0.0031685347 -0.003172869 -0.0011790224 -0.0017804125 -0.0017542599 0.0030823506 0.0024688956 -0.0020541446 -0.0014474719 -0.0017287391 -0.0021999576 -0.0023897686 -0.0021721523 -0.0037361626 0.0020034234 -0.0033661183 0.0006560643 0.0035488326 -0.0005722473 0.0004025346 -0.0030595276 0.0006324445 0.0022052582 0.00053262594 0.0018718608 -0.00041084076 0.000508212 -0.0034043607 -0.0033981232 -0.0020753222 -0.002233875 0.0021879694 -0.0012319364 0.0030090646 -0.0018998488 0.0021630588 0.0037703542 0.0011570273 -0.0038169618 0.0030054594 -0.00304923 0.0013720825 -0.0029660084 -0.0025812392 -0.0005441587 0.001869343 -0.0015065238 -0.0022706026 0.003275531 0.0022122352 -0.0022568416 -0.0023711042 -0.0032793127 0.0006050893 0.0030936736 -0.0032997434 0.0024504634 0.00027021163 -0.0002564144 -0.0034363044 -0.00054192235 0.0018762352 0.0031779166 0.0002556941 0.0021419101 0.002661609 -0.0038647312 -0.0007136898 -0.0031461597 0.003805333 -0.0023509376 0.0005626134 0.0014782166 0.003675406 -0.003518381 0.0016943616 0.0027725059 0.0007004985 -0.0018500093 9.0626845e-06 -0.002579132 -0.0027789914 0.0039009298 0.0017623958 -0.0024108216 0.0026329432 0.002904107 0.0030087158 -4.5243367e-05 -0.0028661424 0.00190253 -0.0011715204 0.0023760332 -0.0026502025 0.0010236481 -0.0017150157 -0.0026076087 0.002335652 0.0022022587 0.0014320075 -0.0032368838 0.00019250676 -0.00293496 0.002895132 0.0010859326 -0.000568442 0.0031732952 0.0031840645 0.00015504712 -0.0005910191 0.0014508119 -0.00022806184 -0.0016102148 -3.88326e-05 0.0036405122 0.0001166699 -0.001295062
23 -0.0026652655 0.00040180332 -0.0014505334 0.003031104 0.0022326293 2.8756895e-06 -0.0009109493 0.00066640653 0.0026624799 0.0010397938 0.0014234206 -0.0022218267 0.0005228747 0.0035190857 0.00018098837 0.003090478 0.00044556032 0.0036690626 0.0020734593 0.0017194516 0.00017581145 -7.426355e-05 0.001137824 0.0036312237 0.0033392212 0.0032557733 6.270711e-05 -0.0035111587 0.0014337739 0.0022269706 -0.0002850369 -0.0015077549 0.0033261054 -0.0009893412 0.00070670946 -0.0020469557 -0.002508577 0.00017539691 -0.0029223072 -0.0038484382 -0.0014505391 0.0021100582 -0.0029418531 0.0011886247 0.0029393672 0.0011428223 -0.0035700111 -0.0035993995 -0.0037134974 -0.0038861677 -0.0012051265 0.0036273047 -0.00095116504 -0.003849707 -0.0017941482 -0.0009462114 -0.0010719358 -0.0037295956 -0.0018829214 0.0015929306 -0.0004727888 0.0010867361 -0.0012884545 0.0020823705 0.0030910347 -0.0008839443 -0.0016256873 0.0003105355 -0.0013905984 -0.0035226918 0.00050968863 0.00013810092 -0.0011099575 0.0021231428 -0.0035138873 -0.0037035279 0.001950079 -0.0029875983 0.0036698251 -0.001970675 -0.0013858767 -0.0017609657 -0.0007436219 -0.0017451734 0.0005534476 -0.00039350023 0.00010191029 -0.002800292 -0.0016550492 -0.0002528667 -0.0017187503 0.00088227016 0.000197913 0.0030975044 0.0013142588 -0.0026099202 4.277038e-05 -0.0035301382 0.0016315648 -0.00030486152 -0.003200055 -0.0030578892 0.0025719344 0.0016142479 0.00314268 -0.00070387026 0.0026298384 0.0029733847 -0.0014407361 0.00075424265 -0.0032559242 0.002886992 -0.0020812673 0.002740764 0.0001429667 -0.0022149736 -0.0025776315 0.0038647882 0.00257842 -0.0024933713 0.003264049 -0.00029975592 -0.0020572145 -0.00093574333 -0.0023968848 -0.0005954785 -0.0008170799 0.0023665405
65 -0.0027605696 0.0038929642 0.0033207238 -0.0010467562 0.003590688 -0.0029529831 -0.00055089645 -0.0029559925 -0.002736581 0.003360404 0.002238257 0.0038330285 0.003510396 -0.002778528 -0.0018786945 -0.0024030122 0.001249815 0.0021496585 -0.003223734 0.0027344332 0.0015274918 0.0019122259 -0.003032507 0.0020545789 0.00035684998 -0.0033938948 -9.503219e-05 0.001948639 0.0013305262 -0.002763151 0.00087011606 0.0009810921 -0.0028233998 -0.0010233009 0.0020327116 -0.0017349636 0.0022358133 -0.00011955514 -0.0019830926 -0.002696195 -0.00062343467 0.0017476829 0.0010539788 0.0023706206 -0.002255318 -0.0038062406 0.0025481787 0.002219407 -0.0029721765 0.0019709924 -0.002054764 -0.0009191863 0.003759344 0.003451422 0.00051184115 0.0007648016 -0.0019076617 0.002701947 -0.003803814 0.00051649543 0.00043951164 0.0019823995 -0.00063555426 0.0028800864 -0.0007987996 -0.0027429035 0.003189268 -0.00047587915 0.0025086524 -0.0025498692 -0.0019143332 -0.0017498044 0.0009779196 -0.0009663187 0.0034526556 -0.0008357323 -0.0002941387 0.0034305642 -0.0035007244 0.0017951273 0.0025461167 0.002989886 -0.0031410088 0.0014580386 0.0027763173 -0.0027555563 -0.0009946891 -0.0014406468 -0.0013844605 -0.0026214984 0.0036336172 0.003893293 -0.0017850751 -0.00026327666 -0.0026024352 0.0038656062 0.0011530499 0.0016486987 0.002468154 -0.002105006 0.0020753338 -0.00082168484 0.0016401061 0.0017942928 -0.002209097 -0.0021751144 -0.0032965143 -0.0013808449 0.0011649128 0.0024963878 0.0017237278 -0.0020415531 -0.0014342371 0.002986696 0.00013125021 -0.0010740918 -0.0036134922 -0.0004270199 -0.0006105912 -0.0037723097 0.0016129834 -0.0019165395 -0.00023897718 -0.0025354854 -0.0019828868 0.0037354256 -0.0015585693 0.0024145553
26 -0.0015269927 -0.0028240606 -0.0017695866 0.0028624875 0.0036116398 -0.0014449874 0.002548846 -0.002891791 -0.0002816991 -0.0037281967 -0.003415167 0.0019025683 0.0010605841 -0.0019851641 -0.00038902482 -0.0009466657 -0.0014947499 -0.0004599267 -0.0024085322 -0.0024216047 0.002311629 -0.0005315019 0.002509015 0.0026701076 0.0037711707 0.0028957748 -0.003322387 -0.0011829804 -0.0028977634 0.002024824 0.003887151 -0.003539315 0.003323247 0.0013353847 -0.0017717668 -0.00029604684 0.0024320658 0.0019900613 0.003103921 -0.0032807845 0.0007159818 0.0012068709 0.00010446971 -0.001393366 0.002127184 -0.0009930287 0.0035391385 -0.00068242237 0.00035630917 0.0013769343 7.63153e-06 0.00048128786 -0.00054616784 0.0020138242 0.0002605735 -0.0023531346 -0.0020325643 0.0027827793 -0.0033368072 0.0011716376 0.0010186383 0.0028922188 -0.00037608756 -0.00064283994 0.0028809332 -0.0037437128 0.00012619709 0.0016630103 -0.0013055796 0.003736528 0.0026925905 -0.0023664846 -0.0020941603 -0.0029892863 -0.0012962598 -0.0014104568 -0.0012560847 0.0022581539 -0.0024975056 -0.0022162225 0.00022347087 0.0013515749 0.0018501808 2.287803e-05 0.002768419 -0.0038754817 -0.000761018 -0.00062298897 0.0015694638 0.0013251996 0.001685298 -0.0023229371 0.0025238905 -0.00071380264 -0.0035804836 0.0007020551 0.0005272877 -0.0036169388 0.0005574066 0.0035219805 -0.0016245865 0.003312721 -0.0027170905 -0.0006365975 0.0025092643 -0.0019702783 -0.0036805265 -0.00026611798 -0.0030492002 0.0023776998 0.00042075335 -0.003498778 0.0014361022 0.0036617774 0.0020341198 -0.0036142075 -0.0018054345 0.002908348 -0.002794337 0.00030543917 0.0030486414 -0.003391479 0.0016154908 -0.003861537 0.003762967 0.0033699488 -0.00035220932 0.0037469922
51 0.0020357296 -0.0010183182 -0.0020722633 0.0038795013 0.0025437279 -0.0019728062 -0.00340515 -0.0004985071 -0.0012663355 -1.7425327e-05 -0.0022734888 0.0023906238 -0.0027945081 0.001819029 -0.0028404747 -0.0014130358 -0.0002989904 0.0028135278 0.00021039162 0.002559684 0.0038878322 0.0027951521 0.00268065 4.704139e-05 0.0035781036 -0.0022078515 -0.0033533892 -0.0016833732 0.0014681944 -0.0010677153 0.00065718585 0.0002588556 0.001683605 -0.0027758146 0.0012713993 -0.0012720361 0.0013652656 0.0035574923 0.0015589417 0.0034333265 0.0026660287 -0.0020564569 0.000379759 0.0025771626 -0.0006351125 -0.0013394092 0.001331657 0.00084801676 0.0010351932 -0.002504374 0.0036087746 0.0007025084 0.003667366 -4.5612738e-05 0.0031278983 0.0031428451 -0.0013105817 0.0032854918 0.0010310835 0.0029248146 0.0025258749 0.0023143103 0.0033637537 -0.0026109437 -0.0001583269 0.0033352652 0.00139389 -0.0020887994 -0.0017197992 0.0027638967 0.002923951 -0.00024602396 -0.0017073678 0.0032953683 -0.00213526 0.003318596 -0.0013329568 0.0020878394 0.0015416556 0.0028680551 -0.003075399 -0.0023543534 0.0031830573 -0.0031959931 0.0038002804 -0.0015317774 -0.0014817356 -0.0035680938 -0.00042050672 -0.0019993258 0.0013057244 -0.003789256 -0.0016542166 -0.0017307175 0.002882909 -0.00067068596 0.0026899579 0.0015785147 -0.0035203097 -0.00043220914 0.0020695457 0.00150389 -0.00058775605 -0.0031268513 0.0016580999 5.1140887e-05 0.0022019362 0.003577025 0.0009564793 0.00018258055 -0.0023559297 -0.0023482086 0.0006595146 0.0015940877 0.0011231864 -0.0010551584 0.0034229395 0.0038251386 -0.0013967043 -0.003110079 0.0011790608 -0.0008830691 -0.0020479504 0.0009061726 0.0028356074 0.0010371926 0.0036695744 -0.003125069
40 9.469951e-05 -0.00085273385 -0.0015754203 0.0019682518 -0.0009030601 -0.0020284757 0.003542474 -0.002943614 0.0035694297 0.0028156524 -0.0021382298 -0.0034700865 0.002232529 -0.0014620556 0.0001909399 -0.0003142376 -0.0035029117 0.00061427255 0.00040517122 -0.001119088 -0.0011371697 0.0004981296 0.0007431369 -0.003693087 -0.0011183416 0.003776555 0.0025192872 -0.0014330414 -0.0026990809 -0.003578236 -0.002022732 -0.00214142 0.0018479121 0.0010600998 0.002769952 0.0028365469 -0.00034111927 0.0030512726 0.0016554066 -0.002077719 -0.0038727308 -0.0025586954 0.0033745563 -0.0033879075 -0.0035482205 -0.00064179173 -0.0017711369 0.0001815102 -0.0012245649 0.0019347214 0.0011035721 -0.00036332707 -0.00010970105 -0.00213178 0.0038664525 0.0012370936 8.972972e-05 -0.0032620837 -0.0005689925 0.0007388293 0.0018913158 0.0009844968 0.0027532813 -0.0033458953 0.0020033966 0.003229554 -0.0025528516 0.0033516733 0.0020232643 0.001438615 0.0024822673 -0.0020606928 0.0008932843 0.0015949481 0.0029715255 -0.0035188233 0.0011257633 0.0034491096 0.0025459216 0.0035908746 0.0030056864 0.0012462408 0.0024091161 -0.0015281056 -0.0024938162 0.0028732573 -0.0030210188 0.00029997394 0.0012830056 0.0016069249 -0.00058087124 -0.0019489265 -0.00091490155 -0.0013145538 0.0032275643 -0.0032364998 0.0006417248 0.00078991463 -0.0016671931 0.0028350316 -0.002528073 -0.00043670277 -0.0009780658 -0.0034275004 0.0012222859 0.0028632733 9.7914424e-05 -0.0008150174 -0.0012771018 0.001678694 0.0011582883 -0.0007058023 -0.0035013764 -0.00034263998 0.0025437265 -0.0021751618 7.5901476e-06 -0.000622995 0.0017932886 -0.0014501736 0.0009289964 -0.0015741935 -0.0014639637 -0.0015524367 -0.0021542644 0.0037193983 0.0007737369 0.0025283024
18 -0.0031329237 0.00066627224 -0.0009331519 0.0029262856 -0.002817496 0.0008152234 -0.0033772348 -0.0034831061 9.5220086e-05 0.0017291536 0.001283088 0.0017326681 0.0035909703 -0.0008230707 0.00067765237 -0.0037027523 -0.0023536673 -0.0003540497 0.00243226 0.00023204814 -0.002918217 0.00052404526 0.0022538614 0.00047227019 0.0025989877 -0.0030908547 -0.0021521542 0.001737356 0.0013289278 0.0029799545 -0.0034946026 0.0011022903 -0.0010403449 -0.00035839656 0.0035800794 0.0025178478 -0.0021515181 0.002079922 -0.0028595214 -0.001653297 0.0038719766 -0.0002143549 0.0030983817 -0.0037185103 0.0035915005 0.0018013727 -0.00037686888 0.00024146595 -0.0006537911 0.00012803097 0.002006882 -0.003157013 0.0021233656 0.00028761703 0.0014720698 7.627912e-05 -0.0010338854 -0.0006785836 0.0030658762 -0.0011513227 -0.0023222272 -0.0020257838 -0.0005656034 -0.0027025575 -0.003610718 -0.0018477794 0.0033401642 0.0018074607 0.0018997771 0.00077281013 -0.0016210321 -0.0024563214 0.0034685887 0.00087856594 -0.0037467282 0.0008615441 0.0033235094 -0.0037852372 0.0029969043 -0.003459585 -0.000647711 -0.0008519213 -0.00354942 -0.0031850473 -0.0035686719 0.0015267298 0.0020500624 -0.00032651535 0.0028618306 -0.0017559171 -0.0037389481 0.0035353582 0.00088041957 -0.0028302802 -0.003675627 0.00019436755 -0.0023308126 -0.0013476965 -0.0019427257 0.0012274279 0.00033911853 -0.0009573083 0.00025095957 0.0032826795 0.0021351918 -0.0025482622 -0.0013128825 -0.0014640451 0.0007852532 0.0016282958 0.0035735155 0.00037958068 0.0028778203 -0.0005801842 -0.0021438396 0.0037647618 0.0014407057 0.0012175452 0.003258059 0.0020733282 0.0026987998 0.0028413166 0.0028923075 0.0011664525 -0.0021533705 0.0006318875 0.0022401845 0.0029282742
61 0.00012932166 -0.0007775739 0.000896928 -0.0036670305 -0.0011063919 -0.0015441241 0.0014070644 0.00359113 0.00072496437 -0.00048058556 0.00080305664 -0.0026443151 -0.0010755883 0.0009772348 0.0005848811 -0.0010434404 0.00011541566 -0.0036669455 -0.0009573347 0.0038867723 -0.002925749 0.0023169331 0.0030399899 -0.003897153 -0.0012495236 -0.0038099294 -0.00084664114 -0.0012324248 -0.0018239508 0.0025116268 -0.0005205305 0.002792348 0.0034080716 -0.0019930187 -0.0018705657 0.0014164326 -0.0036651131 -0.0027245337 0.0011143446 0.00077735534 0.0010534087 0.0029890593 0.0032104878 -0.0009880413 -0.0032139735 0.0019205378 -8.3542385e-05 0.0015631126 -0.0014572414 -0.0018849359 -0.0033383016 -0.0025315448 0.00022358066 -0.002478107 0.002022554 0.0015189438 -0.003191558 -0.0012757202 -0.0017253236 0.00014295094 -0.0012201997 0.00086489436 -0.002949911 -0.0008229075 0.0017818768 -0.0024975028 -0.0020132626 -0.0001640698 -0.0018986701 0.0038517395 -0.0034603241 0.0038631826 -0.0011569029 -0.0004730086 -0.0019625344 0.00089163886 -0.0022533096 0.003347041 -0.00039578747 -0.0019465848 0.0019928545 -0.00082590437 -0.00032363707 0.0030543373 -0.0010135021 -0.0010415748 -0.0031982134 -0.0012142992 -0.0017386718 -0.003165906 -0.0027124942 0.0025157016 -0.0022173815 0.0004988401 0.00027733375 0.0026587183 -0.0036516967 3.771189e-05 -0.0011943795 0.0013376446 -0.00255806 0.0029506267 -0.00027294224 0.003123991 0.00064971653 -0.00039448024 0.00057002285 -0.0008946012 0.0013410075 0.0030866526 0.0009603795 -0.0005217655 -0.0009968478 -0.0007300774 0.0034974187 0.00012384003 0.0013647914 -0.0010959598 0.00034966203 -0.0034332033 0.0005130894 -0.0034538708 -0.0007901269 0.003076853 -0.002230399 2.454379e-05 0.0011264172 0.00014053343
52 0.0012194762 -0.0013090415 0.0014413693 -0.00069478195 -0.003479616 -0.0007836744 0.0028363166 0.00053165643 -0.0010386137 -0.002710561 0.00054991804 0.0020011195 0.0030512896 0.0034681275 0.0018033629 0.0029368808 0.0007160602 -0.0022730702 0.0030844712 0.00021780857 0.0022340452 -0.002595944 -0.0034275344 0.0035854776 -0.0020668267 -0.0024613545 0.003371523 0.0020776584 -0.00027299146 -0.0010222272 0.0012700312 0.0012140083 0.0035457066 -0.002823479 0.0020424875 0.0027914566 0.0021927913 0.0005669915 0.0030847644 0.00077544997 0.0028961583 0.003322274 -0.0036174713 -0.00045274035 -0.0007662053 0.0008065728 -0.0016094178 -0.0010896332 0.0006083779 -0.0006491553 0.00055856025 -0.0015986266 -0.0014865706 -0.00013328149 0.0024881058 -0.0019308166 -0.003483955 0.0002576311 -0.003400881 0.0014362271 -0.0027860545 0.0019935926 0.0008397361 -0.00080362003 0.0012552331 0.0026283665 -0.00012616506 -0.00035058532 0.00053534633 -0.0004838132 0.0025852353 -0.0022045989 -0.0009126504 0.0013467427 0.0011999371 -0.00084456214 -0.0009542405 0.0004918992 0.0035348926 -0.0025143977 0.0010112452 0.0025244958 0.0019436015 0.00025423625 -0.00028973375 -0.00027871536 -0.0029088112 0.0017784757 0.003671568 0.002967792 -0.00013954796 0.0034945244 0.002208607 -0.0019779222 0.00083129416 -0.001530281 0.00021452755 0.0035099832 0.003844167 -0.0019866975 -0.0029103968 0.0019128908 0.00032787447 0.0030349996 -0.0028312053 0.0015476752 -0.0029744955 0.0025137363 0.002241353 0.0033676396 -0.0011514296 0.0037723575 -0.0012970935 0.0035474566 -0.0008889289 -0.0027141885 0.0008505557 -0.00066054665 -0.00015153181 0.002913679 0.00045261724 -0.0035366411 0.003229183 -0.0033468665 0.0016162114 0.0036076193 -0.00096328853 0.0005517539
4 0.0023416423 -0.002116753 -0.0018027937 0.0018019148 0.0025166648 -0.0038363845 0.0020296304 0.00022302034 -0.0012639812 0.0015836474 0.0030624007 -0.003097184 -0.002878943 -0.0026730318 0.0005625932 0.0017240585 0.00018242733 0.0016560766 -0.00083519553 -2.63516e-05 0.002844112 0.0015323928 -0.0034881935 0.0037009723 -0.0017667752 -0.0013078651 -0.0011722996 -0.002053845 0.00016316996 0.003313987 0.002471569 -0.0032608795 0.0027165653 -0.0020897645 0.003350185 -0.0032261065 0.0016000447 -0.0030256633 0.0022211047 0.0026442686 -0.003621107 -0.00067237037 0.0030682795 0.0037405805 -0.0019791904 0.0031219781 -0.00075957394 -0.0034901148 -0.0023147238 0.0019069659 0.00016499635 0.0031058923 0.0008101424 0.0034457345 0.0005246928 -0.0014339664 -0.0038968057 -0.003051683 -0.0025098892 0.0012119181 -0.0013457936 -0.0038532037 0.0037882228 0.0014343578 -0.0028870453 0.002577056 -0.0027196414 0.0032637161 0.0016297527 0.003216835 -0.0010242112 0.0018995372 -0.0025368037 -0.003251403 -0.0038409315 -0.0035635685 0.0009166915 0.0038099305 -0.0029041157 0.00010322735 -0.0018920677 0.0022242633 -0.0025973322 -0.0017836744 -0.0010730083 -0.0024198566 6.3340456e-05 -0.0020181488 -0.0024796145 0.0006209126 0.0016843033 -0.001038374 0.0038179932 -0.001296747 -0.0024634402 -0.0025699297 0.0017978689 -0.0007297163 0.00285745 0.0034250773 0.0023883355 -0.00025694698 0.002108242 -0.002126422 -0.0021047858 -0.0009085945 0.0001832659 0.00028806936 -0.003041874 -0.0016442417 -0.0005101903 -0.00027868044 -0.0023109484 0.0025024451 -0.0013145172 -0.0034975156 0.0022342557 0.0027811683 0.0031453553 -0.0032567442 0.001069215 0.0038070779 0.0014216789 -0.0012591567 -0.0012335898 0.0035891286 0.00051419315 0.0005853242
36 0.0006036792 -0.0015767164 0.0009620501 -0.0015296236 0.00046644264 -0.00048384245 -0.0016826855 -0.001463459 0.0037281557 0.0023897595 0.0020951256 0.0019887853 -0.00069798133 -0.003396578 -0.000807726 0.0021634975 0.0038420619 -0.002481109 -0.00073151727 0.003525054 0.0012990478 -0.0034339451 0.00033121963 0.0029968014 0.0011910237 -0.0013512823 0.00020053037 -0.0028190417 -6.354776e-05 -0.00078413327 -0.0020737173 -0.0023714346 0.00083124964 -0.0029894894 -0.0012172614 -0.0007081946 -0.002005776 -1.9316408e-06 0.0038854973 0.0016675417 -0.0014647102 -2.313705e-06 0.003777194 0.0012728729 -0.0038118255 -0.0015620703 0.0025088915 -0.0013344352 -0.0001868878 0.0012721408 0.0026959984 -0.0016875793 0.0034180875 -0.0011568479 0.0023040609 -0.0029211119 0.0011788523 0.0006471303 -0.0013426731 0.0029686827 -0.0037184788 -0.0019472203 -0.0030631432 0.001007083 -0.0019619786 -0.00015027147 0.0026579949 -0.003797052 -0.0007143037 -0.002402106 0.003582036 0.0019495116 -0.00023843934 -0.002276691 -0.0021628682 0.0038886166 0.0019545283 0.0023374818 -0.001229131 -0.0003098667 -0.0001449708 0.0013904504 0.0010659186 0.00012169242 0.0008090832 0.00067467167 0.0036580518 0.0025431958 0.0035350195 -0.003232575 0.0023286433 0.0023758137 -0.0025970067 0.003381759 -0.0025231722 0.00044725213 0.0015365786 0.001987534 -0.00055590953 0.0013799128 0.0020584268 0.0013001662 0.0016877601 -0.0032211253 -0.0014740751 0.0029813077 -0.0028365285 -0.0010043029 0.0026718774 0.0037105992 -0.0007908995 0.0014452236 -0.0011917244 -0.00087695854 0.0016444061 0.0019698746 0.001528548 -0.0006016433 0.0023640373 0.0019331335 -0.0023554817 0.0004789581 -0.0013449863 0.002304239 0.0032292674 0.0026534428 -0.0023006124 0.0020796559
17 -0.0030835522 0.0024464666 0.0012876786 0.0025930456 0.0009871419 -0.0036540634 -0.002814392 0.0031898075 0.0005291137 -0.0028350616 0.0034642192 0.0009972054 0.0016095728 0.0027632068 0.0027987217 0.0038588666 -0.0034100304 0.0024615675 0.0010629928 0.00087884563 -0.0038685477 -0.0027635042 -0.0035752372 0.0014830161 -0.003645127 0.00027932462 -0.00012778657 -0.0028256865 0.00058641256 0.0006240868 -0.0022109814 0.0018265526 0.0034935286 -0.0010070768 0.0028349827 0.0022230868 -0.0024019033 0.00031982068 0.0019739214 0.0022565578 0.0025325872 0.00011981134 -0.0016173632 -0.00035745968 0.0011510757 0.00012696297 -0.00085255003 -0.0019696103 0.0033486804 -0.0016165024 -0.0026023313 -0.0032877754 0.0020363203 0.0021326374 -0.0034037887 -0.0034316597 0.0038370234 0.00294399 -0.003479202 -0.0021427015 0.0011062268 -0.0025712803 -0.0024199616 -0.0037634196 0.0020514808 -0.0007947856 -0.0034109592 0.0020733608 0.0007461766 -0.00024448897 -0.0016822855 0.0031707115 0.0005596087 0.0035264522 -0.003409811 -0.00039558375 0.0009422452 -0.0033962545 -0.00016631499 0.0014499634 0.0036886372 0.0027714854 0.0027750486 0.0008916988 0.0012459768 -0.0013327487 0.0024424146 -0.0031023782 -0.0032801586 0.0013084905 -0.0010535866 0.0009496229 -0.0010536428 0.0026135019 0.0018085175 0.00090394804 -0.0030765496 0.00370478 0.00026346452 -1.3425042e-05 0.0003971607 0.003368878 -0.0031439757 -0.0037937802 0.0002843505 -0.000950202 -0.003788542 0.00020549692 0.00066412194 0.0032323305 -0.0016071574 0.0025213785 0.0011136091 -0.001722926 -0.0017206252 0.003359306 -0.0024773232 0.0016532788 -0.0003088958 0.0018413675 -0.0025825026 0.0032157043 -0.0035989236 0.0023032175 -0.0035891226 -0.0012427786 -0.0017427002 -0.0033553818
74 -0.001759333 0.0015397575 -0.0001216961 -0.0027471571 -0.0019559178 -0.0011149545 0.0005509828 -0.0031194333 -0.0019531557 0.0029285944 -0.0014986257 -0.0032194003 -0.00015730823 0.00058018917 0.0007220039 -0.00090533757 -0.0012992816 -0.003464598 0.002183274 -0.0012235217 0.00035221167 0.002285422 0.0016892432 0.0006670818 0.0026690743 0.003785647 0.00027093315 -0.0032213405 -0.0023109773 0.0016795337 -0.003238343 -0.0018693346 -0.0016367424 0.0008108418 0.0021389704 0.001159597 -0.0024842808 0.0032170466 -0.0015906176 0.0029690447 0.0036251487 -0.0012761744 -0.0036765006 -0.0002093794 -0.0014878662 0.0023890994 -0.0035805623 -0.003435043 -0.0035185267 -0.0032257782 0.0010915073 -0.0011393209 5.3717355e-05 -7.218862e-05 -0.003829369 0.00014714012 0.0016845312 0.0029285864 0.0030989961 -0.0032745383 -0.0022443465 -0.003467185 0.0009244659 0.0031568059 -0.0029551766 0.0024467178 -0.0023393594 0.0020225355 0.00018037533 0.0019280857 -0.000422644 -0.00026122187 0.003364555 0.0034932902 -0.0022284794 -0.0034336275 -0.0025836767 -0.0019114633 0.0017069945 0.0027004902 -0.003168676 0.0022312223 8.718225e-05 -0.0025766795 0.0021452298 -0.001039687 -0.0015876727 -0.0021982703 0.0022816588 -0.0022298729 -0.0025500972 0.0012098377 -0.0021602318 -0.0025193598 0.0032564595 0.0023953312 0.0014405265 -0.0010162519 -0.0034515397 -0.0028555936 -0.0029061735 -0.0025706114 -0.0032487898 -0.00025285367 -0.0027492794 0.003096262 0.0010538086 0.0022299234 0.0019283668 0.0015698703 -0.0015900221 -0.0016449913 -0.0011550338 -0.0017780158 0.0020062316 0.0003733065 -0.00054786005 0.0017587779 -0.00061230466 -0.003670832 -0.0021612763 -0.002511511 -0.0036753272 -0.000607502 -0.001686019 5.1731786e-05 0.00036809006 0.0033416166
9 0.0015144047 0.0012612885 0.00016344625 -0.00044370058 -0.0035835567 0.0025600106 0.002731846 -0.002875472 -0.0023131347 -0.0013950252 -0.0031464275 -0.0020691305 -5.7026926e-05 -0.0007352721 0.0031797912 -0.0033366343 -0.0038173057 0.0010164962 -0.0026291064 -0.002488015 0.0024151683 -0.0029898582 0.0032840222 0.0037447787 -0.001112065 -0.00050595833 0.0027749948 -0.0034936403 0.0031414973 -0.0022802455 -0.003629992 -0.003416053 0.0022197156 -0.0012371305 -0.0036129083 -0.0035664309 0.00076699705 -0.0019438048 0.0009680809 -0.0015549727 0.0026849657 0.0010028216 -0.0020799574 -0.0010000037 -0.0016048654 -0.0038091235 -0.0034152982 0.003703576 -0.00061087473 -0.00289533 -0.0026045805 -0.00091502635 0.00037011947 -7.286917e-05 -0.0031894473 -0.0022186213 -0.00045826484 0.00036213727 0.0009850962 -0.0037159263 -0.002247188 -0.0003554509 -0.002544058 0.00062009913 -0.003168055 0.00065934245 0.002433074 -0.0015301255 0.0015059425 0.0018030717 -0.0003368328 -0.002560937 -0.0028522825 0.0011273109 0.0012363485 6.0303275e-05 -0.0036754704 -9.068042e-06 0.0027722826 0.0035793053 -0.003469439 -0.0029174993 -0.0014821457 -0.00090995134 -0.0037932652 0.0009599317 -0.0034284946 0.0018239674 0.0020723396 -0.00048620134 0.00025046951 0.0023371067 0.0026788178 0.0019026094 -0.001822179 0.0014546588 -0.0008204053 0.0010243463 -0.00038129685 -0.0019192842 -0.00161292 -0.00012486776 0.00052891066 0.0016535572 -0.0035780722 -0.002012351 0.0038327945 0.0024544327 -0.0029837475 0.00363337 -0.0017833521 -0.00059767516 -0.0010974024 -0.0015912595 -0.0013105393 -0.0015759789 0.002735526 0.0006137753 -0.0008592567 -0.0010621616 0.0004384704 -0.00334361 0.00018544233 -0.003662403 0.0034151266 0.0028388451 0.002408134 -0.0016162556
47 0.0007905062 -0.0019499534 0.00026483205 0.0038258955 -0.0037874016 -0.0016894247 -0.0024027776 0.0020117834 -0.00034323824 0.00052280194 0.0035909975 0.002085502 -0.0035981978 -0.0019000275 -0.0016837401 0.0029892353 0.000412577 -0.00041372495 4.216211e-05 -0.0020748682 -0.00011488848 0.00078954286 -0.0036689064 0.0028288793 0.0031985661 0.0004936096 -0.00033940643 0.002207221 -0.0005795201 0.0021588372 -0.0013975464 -0.0012360247 0.00021108572 -0.00087322865 0.0019083146 0.0019500112 0.003856609 0.0014361833 -8.91692e-05 0.0021692158 -0.0019583679 0.0013484788 -0.00020027225 -5.4372114e-05 -0.003378884 0.0009154634 -0.0030566202 0.0004716879 -0.0025373376 0.0031202012 0.0021709595 -0.0010228476 0.0028400132 0.00071633793 0.003028031 -0.0019274754 0.0025288374 -0.00047649766 -0.00019474 -0.00046034594 -0.0017830173 0.0008363692 -0.0028910434 -0.0031859248 -0.0015898433 0.0009869774 -0.0032471162 -0.00061563257 0.0007462268 -0.0030561292 0.0025446338 -0.0030762544 -0.00048240952 0.0017430471 -0.0029032913 0.00032075413 -0.0021100072 0.0023172232 0.0036014924 -0.0011463386 0.0008373341 -0.0029492362 0.00014637802 0.00046488098 -0.0034617304 6.618943e-05 0.0038530703 0.0010174542 -0.0009438201 -0.00012832954 0.003512907 -0.0027082795 -0.0005364368 0.0030817313 0.0024867656 -0.0022838553 0.0009605708 0.0035317892 -0.0033182292 -0.0033171284 0.0011575093 -0.0019508448 -0.00020607871 -0.00072513125 -0.0026955286 0.0036852695 0.0023706525 -0.002538781 -0.000517934 -0.0008817034 0.0019502756 -0.0033677528 0.0014822939 -0.000653234 -0.0015613197 -0.0023045011 0.00073209254 -0.0009941024 0.00040915655 0.002276602 -0.0033510919 0.0013456414 0.003282689 -0.0035071527 0.00040422846 0.00023022019 -0.0019332215 -0.002127698
72 0.0037287495 -0.0007588836 -0.0004974026 0.0018217205 0.0011536244 -0.0016894148 -0.003314913 -0.002831056 -0.0032506145 -0.0004188221 0.0025920116 -0.002815369 -0.0030754025 0.0038490924 -0.00014708927 -0.00035925777 0.0010398055 0.0016188 0.0013406583 0.002962325 -0.0003118383 0.00032706966 -0.0020118018 -0.0016861893 0.0017235937 0.0028209118 -0.00048636846 0.003898694 0.00070418976 0.0008719008 0.0034284561 -0.002940464 -0.0037590938 0.00082378404 0.0038248757 -0.0032624165 0.0036424366 -0.0029663919 0.00093880045 -0.00012843509 0.0034957833 0.0012387164 -0.0005320187 0.0035146954 -0.0018705003 -0.0009239531 0.0024947114 0.0031931214 0.0016592019 -0.002141683 -0.0012280493 -0.00030949354 -0.00025671397 -0.0031561768 -0.0016888371 -0.003596474 0.0004789998 0.003003898 0.0027644562 0.0021101576 -0.0013315192 -0.0006626263 -0.00138407 -0.00012722415 -0.001314688 0.0008191999 -0.0005114754 -0.0031448514 -0.00016896043 -0.0017925089 0.0036817458 -0.0019110617 -0.00048298526 0.0026022245 0.0025419397 -0.002484347 0.0033176853 -0.0002692627 0.002455918 -0.0038396535 -0.0017827487 0.001326793 -0.0027368672 -0.0037948985 -0.003901103 -0.0034129024 0.0035245763 -0.0032154878 -0.0038318979 -0.0029658666 -0.0018078982 -0.0004657016 -0.0020524412 5.4062384e-05 -0.00041377023 0.0024048937 0.0026399898 -0.0033607131 0.0035998134 -0.0033233152 -0.0019417951 -0.000840471 -0.002229123 0.0033171393 -0.0011118929 0.0029878141 -0.0007655719 -0.0032318488 1.5921843e-05 -0.0009906483 0.0014828738 0.0038956911 -0.0017406284 -0.0024098454 0.00075755676 -0.0010511768 -0.0012915898 0.0031351505 2.6333494e-06 -0.000486486 0.002613991 0.0019422813 -0.0006195997 -0.0033272982 0.0029520148 0.0030747768 -9.986505e-05 0.0036603992
24 -0.0028912043 0.0012096941 0.0029545852 0.00097308366 -0.0032245202 0.00037557405 0.0009971792 -0.0010420955 -0.0024136547 -0.0021589387 0.0035401145 -0.00061865867 0.003385731 -0.00067992223 0.0015653599 -0.0022679989 0.00048719958 0.0021216997 0.0021172743 0.00087409304 -0.0012941839 0.00045992353 -0.0032838853 0.0013617495 0.0020338665 0.003364253 -0.0038539232 -0.003622882 0.0027062178 0.0010894267 0.0017173402 0.0019573306 0.0014317371 -0.0013917155 -0.0029809568 -0.0032909382 -0.0016383267 -0.0037256372 0.0011485232 0.0030028636 0.00059760467 0.0017553433 -0.003873894 0.0026716995 0.0025287338 0.0030712034 -0.0021662337 0.0027256105 0.00035853553 -0.0035222892 0.0014785184 0.0014191099 0.0031006916 -0.00038128713 0.0025746324 0.0011700502 -0.0010819215 -0.0018583245 0.003442507 0.00064914563 0.00046128628 0.0013188376 0.00072332344 0.0026518335 -0.0006473386 0.00049116276 0.001758055 -0.00385321 -0.002855475 -0.0019749901 0.0030534535 -0.0006332622 0.0006705495 0.0036834024 -0.00056118047 0.0032560194 -0.0007344904 -0.0013387349 0.0035753255 0.0004548463 -0.0017361157 -0.0005473875 -0.0020206864 -0.0015922703 0.0024120524 0.0037145251 -0.0027716104 0.0005799909 -0.00043308153 0.0038767015 0.0009234323 -0.002834109 0.0009319855 -0.0021396729 -0.00019080575 -0.0010355319 0.0038721194 -0.0004959913 -0.0017588434 -0.003556385 0.0020175779 -0.00058387086 0.00061288965 -0.0016212204 0.0013511705 -0.0029804632 -0.0011371033 -0.0029502718 0.0005996629 0.0016889703 -0.0020875714 0.00036396942 -5.562041e-05 -0.00073585944 -0.00013279705 0.0010307424 -0.002524747 -0.003687243 -6.1365e-05 0.00011136569 0.0020840697 0.00018765095 -0.0037413363 0.003699711 0.0037618012 0.0037576344 -0.0030188747 0.0022201713
41 0.0010637906 -0.0020317317 0.0011221888 -0.00015715681 0.0020986048 0.0025713646 -0.0038762717 0.0006856932 0.003898889 0.0014099963 0.002795977 0.0014083672 -0.0021495565 0.00038927034 -0.001278219 -0.0024957166 0.0035568678 -0.00040771434 0.00069896993 -0.0005961981 0.0007456918 0.002074603 0.0024086316 0.0020241784 -0.0008526151 0.0036210525 0.0007976347 -0.003765054 -0.0013416292 0.0037677337 0.0018466571 0.0021034495 -0.003535627 -0.0013309264 0.0034082104 0.0004358188 0.0008109478 -0.002558502 -0.003450952 0.003066333 0.002987314 -0.00036988122 -0.0027826128 -0.0013952691 0.0016006107 0.0037662562 -0.001049585 0.00021287847 -0.0035414472 0.0016206655 -0.0031037843 0.0012349439 0.00022450984 0.0031399415 0.003759628 0.00039587944 0.0026933788 -0.0010118479 -0.00016123032 0.003435602 -0.0038788272 -0.0019853304 0.0022016745 -0.0025232804 0.00074155285 0.003358606 -0.0025317962 -0.0026196581 -0.0010006328 0.0005317997 0.0027058795 0.0007803763 0.0025337846 0.0021018414 -0.0022675807 -0.0027017791 -0.0014749225 0.0010430884 0.002621063 -0.0014139591 0.00043422554 -0.003257398 -0.00017972388 -0.0016649497 0.0026282528 0.0015026667 -0.0017258632 0.0036141288 0.0007431024 -0.0022825487 0.0012648504 0.0014495802 -0.00033528192 0.0034166982 0.0037213564 0.003719225 0.002509201 0.0033875606 0.0005962243 0.0019392186 0.0037426436 0.0010483474 0.0017720985 -0.0038342548 7.008271e-05 -0.0013299774 -0.002291351 -0.0029971914 -0.0036638796 0.003310777 -0.0023515385 0.0034853646 -0.0013082764 -0.0025748895 0.0038668157 0.0022084538 -0.00319568 0.0009962474 -0.0006291978 -0.002746022 0.0019752914 -0.0025044424 0.0018443388 -0.0037337178 0.0016646582 0.0012861522 0.00053448544 0.0021577713
8 -0.00028371625 0.00044457288 0.003075933 -0.0013248224 -0.0028636248 -0.0015040752 -0.0023620198 0.003605736 -0.0016629528 0.0034591206 -0.0029056105 -0.0009909472 0.0012272317 -0.0029091176 -0.002848209 -0.0016463301 -6.280946e-05 -0.00060110586 0.00088050775 -0.002065004 0.0015354245 -0.0022980734 -0.0023962206 -0.0035106728 0.0010141173 0.003425324 0.002128654 0.0038417536 0.0014454391 0.0009859473 0.0038254738 0.0018375404 -0.0024130705 -0.0037827697 0.0014291013 -0.0016745437 -0.0038945912 0.0030583597 0.0037879315 -0.0013888782 -0.0012638624 -0.003594347 0.0014498229 0.0027422917 0.0012786089 0.0026146306 -0.0004379207 -0.0032291384 0.00018129093 -0.003714278 -0.0026783026 7.881421e-05 0.0021751532 0.0036710324 -0.0018735366 0.0026148742 -0.002817195 9.226829e-05 0.0022152078 0.0014198748 -0.0027213204 -2.1077502e-05 -0.0029806437 0.0030613097 0.0033478572 -0.0017027215 0.0031759997 -0.00026133485 -0.0016760777 -0.0015209997 -0.0033532328 -0.0010265489 -0.0016846454 -0.0035344458 -0.0036610132 0.0027304124 0.00015468369 -0.0003514933 -0.0030773787 -0.00083625683 -0.0015080352 -0.0026594868 0.0013909463 -0.0026928463 -0.0010134018 0.00035891548 0.0015581495 -0.0029740687 -0.0015852484 -0.003880625 0.0020812212 0.0022615325 8.202934e-05 -4.7080895e-05 0.00042219134 0.00336098 0.00036922595 5.3664484e-05 -0.0006734652 0.0020189031 -0.0038998344 0.001887864 0.0012952716 -0.00247395 -0.0030715368 -0.0033051062 -0.00022102216 0.0017574979 0.0014930797 -0.0019405491 -0.0022859522 0.0007581665 0.00294737 0.0003169895 -0.0035113802 -0.0027017402 -0.0027828738 -0.0037328987 0.0022490812 0.0005337374 0.0014829912 0.0036730634 -0.0024257447 -0.0014236617 -0.0012475955 0.00019490065 0.0024074381 -0.0019836696
92 0.0032867528 0.0032337012 -0.0011545601 -0.0010148744 0.0030603947 -0.00076043524 -0.0030340333 0.002907684 0.0005900136 -0.0011007846 -0.003065355 -0.0012951973 -0.002364424 0.00048845226 0.002109937 -0.00022377784 0.003071035 0.0022867413 0.0019693733 -0.001891005 -0.0019924599 0.00039086497 0.0021713122 0.0028322632 -0.00079933624 -0.00016742971 0.002095673 -0.0009896908 -0.0038387768 -0.00085587945 0.0031923337 0.0001360919 0.001783951 0.0011600876 0.0012860134 0.0031188426 0.00037159908 0.0014989824 -0.0005158036 -0.00060982397 -0.003547317 0.0027561914 -0.001506153 -0.0019215539 0.0032946984 -0.0015749474 0.0012655975 0.0027724365 -0.0027763585 0.000766529 -0.00070860615 -0.0007844718 0.003382574 0.0035790612 0.0014204032 -0.002760589 -0.0019232909 -0.0013715742 -0.0010149082 0.00072321534 0.0020153827 0.0032980663 -0.0033555636 -0.0018006185 0.0033879867 -0.0033693938 0.003861375 -0.003602186 0.0009518706 -0.0027598285 0.0014178009 0.0023363805 0.0010764557 0.0025517584 -0.0036825791 0.0016053362 0.002463676 -0.0008994137 0.0026298815 0.003359356 0.0014267083 -0.0026231727 0.0027772868 0.002921098 0.0009725339 -0.0030387407 0.0022622128 0.0015932104 0.0019480162 2.9921337e-05 -0.0033543091 0.0024469083 -0.0016490996 -0.002537003 -0.0006524853 -0.000670573 0.0002339096 -0.0017192445 0.0023930955 -0.0007856489 0.0019929972 0.0018321854 -0.00013020488 0.0030145182 0.00096037966 -0.0023952723 -0.00029078635 -0.0026512034 0.0021584725 -0.0008520868 0.0021624854 -0.0011714745 -0.0010370961 1.1769998e-05 0.0020627815 -0.0031756277 -4.61011e-05 -0.0032877396 -0.0024411094 0.0014747281 0.0008554746 -0.0035392384 -0.0018864365 0.00093067304 -0.00086598506 -0.0020769115 -0.0017762058 0.0012397057
28 0.00360643 -0.002917506 -0.0036506988 -0.001569479 -0.0016116044 -0.0018054746 0.0034655274 -0.0003569227 0.0031831458 -0.0014012388 0.0016400405 -0.0030257457 -0.0024595575 0.0014524556 -7.100637e-05 -0.0008643288 0.00063393166 0.0037982361 0.0015345765 -0.002088117 0.0020991098 -0.0004932738 0.0029143516 -0.0015032267 -0.0011752204 -0.0018027201 -0.00071061385 -0.0010041737 -0.0014528322 0.0020015677 0.0036311473 0.00085807464 -0.002969056 0.0020259349 -0.001772837 -0.0012379088 -0.0024296474 0.002426329 -0.00040658793 -0.002893302 0.00039393947 0.0012848091 -0.0014768244 -0.0018641925 0.0010247029 -0.0025719383 -0.0028568245 -0.002507573 0.002276783 0.0012157457 0.0024136545 -0.0029073285 -0.0014672447 -0.0006740432 -0.0015992502 0.002743289 -0.0010409534 -0.00057090755 -0.0015189691 -0.002550993 0.0022729354 -0.0007413411 0.0031275344 -0.0013350636 0.003882484 -0.0014613684 0.002620805 0.0030034916 0.0014538086 -0.0025451197 -0.0037122564 0.0027910224 -0.0026823166 0.0018893759 -0.003230126 0.0028180082 0.0034816505 0.003623107 0.0030336292 -0.00082987867 -0.0038796465 -0.0032975478 0.003172985 -0.0032156582 -0.0027256187 -0.0025634372 -2.845613e-05 -0.0024378004 -0.0033409568 0.00015812035 0.002070222 0.003321637 -0.0006003063 0.0019267148 0.0026768022 -0.0029103807 -0.0012360725 0.0032435728 0.0011849265 -0.0035035782 -0.00014179914 -0.0033896368 0.002188351 0.0033343511 0.0028700274 0.0014403148 -0.0031727203 -0.0012503904 -0.0008445881 -0.00030007356 -0.0026882875 0.0022958543 0.0010512606 0.0021323122 0.0017153638 -0.00011104545 -0.00032983685 -0.0026919534 -0.002045695 0.0020019193 -0.0016628526 -0.003549053 0.00080541027 -0.0021101893 -2.8378065e-05 -0.0010280433 0.0015164939 0.0021856944
20 0.00038080846 -0.0018644761 -0.00096377125 -0.0024362174 -0.0021534539 0.0037158749 0.0013478321 -0.0028734775 -0.0033067449 0.00011940707 -0.0033613488 -0.0019609013 -0.0005621276 0.0029591054 0.0016459143 5.451369e-05 -0.0018334938 -0.0019405717 -0.0030707815 0.001465741 -0.00054050365 0.0022506693 0.0030791613 -0.0032076223 -0.0038416695 -0.0032941713 0.0030120905 -0.002884274 0.0022841902 -0.0037370417 0.002153993 -0.0022382718 -0.000116907286 -0.0026401468 -0.0032983914 -0.0017455515 -0.0019719016 -0.0011605604 -0.0021364074 0.0019032295 0.0012135417 -0.0037592174 -0.0037109253 0.0021983671 0.0032339508 -9.559566e-05 -0.0030530621 0.0027226303 0.0032183416 0.0020094407 0.0011878014 0.0003911774 -0.0013174674 0.0033481377 -0.0019197848 -0.0035659724 0.0027445485 0.0005176206 0.003449048 -0.00014201392 0.001139275 -0.0020013843 0.0035310448 0.0026266938 -0.00020528543 0.0037503666 0.0017043669 0.0016725303 -0.0033959323 0.0021007997 -0.0028039578 -0.0025918975 0.0003389257 0.0029689437 0.0037123517 0.0031833325 0.00045766702 -0.0016561693 -0.00031571632 -0.001954578 0.0036631948 -0.0016349576 -0.00218235 -0.0010940628 0.002655769 0.0021071003 -0.0005809783 0.0017621021 0.0019905139 0.0036501526 0.0007350395 -0.0020341598 0.0012482908 0.0034714646 -0.0019254595 0.000111874455 -0.0033923038 0.0029854851 0.001467995 -0.0028779397 -0.0027022173 0.0019105871 -0.0021494923 0.0004810678 -4.20645e-06 -0.0036705725 -0.003136677 0.0007814805 -0.0004854084 -0.00026476628 -0.002791872 -0.0037268696 0.0005153062 0.0014713517 0.00090290466 -0.0036720282 0.0010972152 0.0019294157 -0.0031297528 -0.0002585291 0.0032266064 0.0014576848 0.0018248798 0.0035363857 0.0028996882 0.0028578904 -0.00085185096 0.0003345189
13 -0.0032890185 0.00019250634 0.00048122936 0.0035626458 0.0012968293 0.002612151 0.00013667802 0.0025745 0.0029397253 -0.0031980183 -0.0017172139 0.0015432849 0.00041167912 -0.00251562 -0.0038668485 0.0022341497 0.0010513639 4.0110448e-05 0.000803032 0.0034790859 0.00030876524 -0.00067521614 0.00060434284 0.0025910442 0.001970585 0.0026225648 0.00052287197 0.002872475 -0.00234741 -0.0008409616 -0.0028472422 -0.0036682142 -0.0019340647 0.0013957381 -0.0035899642 0.0018711523 -0.0032233929 -0.003118582 -0.0026917756 -5.7122043e-06 0.0017133753 0.0030817485 0.0025679255 -0.0010858723 0.0016050258 0.0009345072 0.0037624207 -0.0015495353 -0.00084293407 -0.002969197 0.00079434144 -0.0033009662 -0.0029131877 -0.00038270897 0.0017663441 -0.0023714988 0.000605482 -0.00064606447 -0.0015405449 -0.0026039483 -0.0022442408 -0.0019057804 -0.0021765386 0.0007768541 0.0036845407 -0.00051907176 -0.001585143 0.00083630864 0.002336206 -0.0032368412 0.0020075317 0.0027483592 -0.0034620676 0.0024215856 0.00011653668 -0.0036174918 -0.0038750027 -0.0012419224 -0.0010162792 2.5275602e-05 0.0020906758 0.00020943061 -0.003778428 0.0014030767 0.000108142456 -0.0008843592 0.0012974603 0.0007774131 0.0014283237 -0.0038698746 -0.003483022 -0.0003138452 0.000679862 -0.002035047 -7.9626014e-05 0.0008065494 -0.0027395196 -0.0022206907 -0.001888477 0.0033535995 0.003728526 0.0023051165 0.00039379485 -0.002174887 0.0005649614 0.0022396417 0.0020490736 0.0030741359 -0.0024394984 0.0005611287 0.002819746 0.0010646118 -0.0027361817 -0.002150897 0.0010977158 -0.002573273 0.0024839141 0.0028018465 -0.00024259542 0.003491336 0.0029030181 -0.003208804 0.0037717065 0.0004589768 -0.0012182869 -0.0012813517 0.0009645803 -0.0005077065
5 -0.0026466432 0.0036750552 -0.002053087 -0.0009352984 -0.0020923784 -0.0010914447 -0.00068817864 0.0021618693 0.0027451601 -0.00338013 0.0002703304 0.0021963667 0.0028160184 -0.0025177128 -0.00034065614 0.0031847416 -0.0031281563 0.0029720028 0.0011219847 0.0034005335 0.0002972301 -0.002674919 0.0032866024 -0.0018122783 0.0036727872 -0.00027117322 0.00043096594 0.0005892002 -6.706551e-06 0.0011807749 0.0018211607 -0.0018864346 -0.0002944263 -0.0005964346 -0.00023279445 0.0033487203 -0.0006032867 0.0014247957 0.0011673956 0.0006429882 0.0012945775 0.0033709023 -0.0026490868 -0.0010994477 -0.002581246 -0.0028968977 0.0010428609 0.0022858814 -0.000620152 0.0015072173 -0.0008729795 -0.0035552743 0.0037137403 0.0037650848 0.0020514207 -0.0029193826 0.0009860228 0.003764936 3.642536e-05 0.00055940385 0.003229709 -0.003044794 0.0026963495 -0.0021738955 -0.0036748343 0.0009514221 -0.0016707674 0.0020531295 -0.0027812053 -0.000969346 0.0013287105 -0.0004317531 -0.0025878064 -0.0013744978 -0.0009818581 0.0008494733 -0.00089360576 0.00081810984 5.316098e-05 0.0010051212 0.0010541424 -0.0026184607 -0.0038585737 0.002202613 0.00081883324 0.0012332846 -0.002718967 -0.000825632 -0.0002333825 0.0005171063 0.0024574096 -0.0034695622 0.0015085962 0.0017215831 0.001663324 -0.0033440925 -0.0020060302 0.0006846253 0.0031920807 -0.0034818666 0.0029577229 -0.003399974 -0.0024817002 -0.0015288559 -0.0038284662 0.0027632422 -0.0008979735 -0.0013988158 -0.0024520166 -0.0033162893 -0.00090127165 0.00053230836 -0.0037366534 -0.00345925 0.0030109142 0.0014848257 -0.0028461476 0.0012905049 -0.00033863535 -0.0017780755 -0.0036119423 -0.0018969651 0.0018676965 0.002838839 -0.0034864878 -0.003870608 0.003729695 0.0036275215
67 -0.00145343 -0.0017406022 -0.0028309403 -0.0010845368 -0.0015785388 -0.0015541592 0.002396644 -0.00057079725 -0.0032059904 -0.0014978382 0.002904499 0.0030453682 0.002387932 -0.0015847465 0.0033041765 -0.0036941862 -0.002158739 0.0025509738 -0.00044537112 0.002278608 0.000679455 0.0016548773 -0.0034363258 -0.0030226337 -0.0024641051 -0.0004970935 0.0015018597 -0.0018225035 0.0030072394 -0.00084153604 -0.002631713 -0.0017628963 0.0018591961 -0.0021845875 0.0010244218 -0.0018920022 -0.003367258 0.0038320366 -0.003113636 -0.0018727749 0.0035352055 -0.0014494405 0.0011182546 0.0032576222 0.0016524426 -0.0033479359 0.0030972557 0.0012405551 -0.0029425973 0.0020548173 0.0028830327 0.00036068165 -0.0038170603 0.0025957692 -0.0007685377 -0.001086215 0.0020595575 0.0008297217 -0.0002259754 0.0020404158 0.0028827488 0.0012274273 0.0029950952 0.000916111 0.002622516 -0.00044940945 -0.0032815915 0.0036053327 0.0017098993 0.00034697415 6.9392845e-05 0.003569222 0.00279423 0.0033896521 -0.0037195345 0.0012659475 -0.001668663 -0.0025860087 -0.0014602324 0.0038377626 -0.00076514366 0.003731315 0.0028279452 -0.00029376295 -0.0016201555 0.0005463443 0.0034635663 -0.00023795478 -0.00056104455 -0.0033282433 0.0031847442 -0.00052677176 0.00361087 0.0005717373 -0.0018637684 -0.0010722134 -0.0038659703 -1.9340345e-05 0.0004386206 0.002786252 0.0027272773 -0.003744478 0.0009997541 -0.0033907702 -0.0006891374 0.0012192389 -0.0035371627 -0.0009969614 -0.0011744313 -0.0034906433 0.00076790544 -0.0013314683 -0.0011940902 -0.0024537265 0.0031482754 0.00034895612 0.0028809845 0.0027928916 -0.002949543 -0.00014114525 0.00052830024 0.0036433558 -0.0038102348 0.0030236137 -0.0005387825 -0.001914434 0.0028181113 8.683937e-05
76 -0.00010207859 0.0032751707 -2.3759101e-05 2.3739647e-05 -0.002980162 0.0015770713 -0.0024281358 0.002197808 0.00090081716 0.0027239246 -0.00082925864 -0.0019910696 0.0032758315 0.0032058065 -0.0017161316 0.0025543857 -0.0037041623 -0.003026691 -0.0036221056 0.003442511 -0.0012885797 0.002782508 0.0035413525 0.0012417285 -0.0005352593 0.0027916112 -0.002676259 -0.0013323282 0.0010374263 0.002424009 0.003276035 -7.4915326e-05 -0.0028452184 0.0019636347 -0.0026527275 0.00012904053 0.00020306073 0.0033345777 0.0007916735 -0.00023434387 0.0028926458 -0.0033814013 9.004718e-06 0.001652874 0.0011870619 -0.00173926 -0.0013486451 0.0030065493 0.0025839028 0.0033905245 -0.0010978755 0.0032301315 -0.0037347255 0.0012216867 0.00040134933 -0.0030126343 -0.0021214914 -0.00052586274 0.0009734895 -0.00082616246 -0.0005465467 -0.0023790319 0.0007816211 0.0006720226 0.0029570092 0.0033839662 5.121089e-05 -0.0013190528 0.0025255259 0.0021030863 0.0010010407 0.00044135327 0.0030763294 -0.0003600664 -0.0010198419 -0.0031800854 -0.00013074407 -0.00069890916 0.0032009676 -0.00079043437 0.0023620445 0.0027655594 0.0018934165 -0.0033874458 -0.0020317195 -0.0007483815 -0.0032910302 0.000563787 0.0017683117 0.0025079863 -0.0036108776 0.0033990259 -0.00033891105 1.291138e-05 0.0018386436 0.0036477472 -0.0023150316 -0.0007610642 -0.0014513764 -0.0014199414 -0.0017677888 -0.0032159584 0.0003724219 0.0036842641 0.00026624926 -0.0013491708 -0.002867944 -0.0011942167 0.00346996 -0.0017090664 0.0015416382 -0.0014194817 0.0014880067 -0.0025684652 -0.0004892018 -0.0013473276 -0.001350205 -0.0027531881 -0.00020734225 0.0014599926 0.0026795554 0.0036920821 0.0036869685 -0.0023690518 -0.00076714443 -0.00088686583 0.0028494205 0.00020407842
53 -0.0021060172 -0.0034756847 -0.0013781062 0.0030578673 0.002718603 0.0025219775 0.000785134 -0.0008066273 -0.0015110184 -0.0016544788 -0.001003964 -0.0020328392 0.0003038128 0.0024656572 -0.002706582 0.0027545006 -0.0011596523 0.0014764897 0.0004680689 0.00018681113 0.0025604852 -0.0027463285 0.0010524811 0.0012219499 -0.000467645 -0.00090100156 0.00015162541 0.0014442806 0.0002602859 -0.0018162208 0.0026146262 -0.0015648628 -0.0011987414 0.0034932275 -4.379564e-05 -0.0010679445 0.00029441022 0.0035778715 -0.0027863176 -0.0037697465 -0.0022410646 0.002811901 -0.001400242 0.0034759599 0.0004910555 -0.0003432107 -0.0023739208 0.0023952737 -0.0018460962 0.00337802 -0.0020251248 0.00075253757 0.002932742 -0.0014492803 0.002414683 -0.0009769624 0.000521603 0.002822854 0.0018058341 -0.002678777 -0.0028264446 0.0017722311 -0.00023764929 0.00083688577 1.5990772e-05 -0.00085186283 0.00016736903 0.0022752562 -0.0017365532 0.00011656783 0.0029624745 -0.0038362886 -0.002349106 0.0014461302 -0.0006723022 -0.001167557 -0.00020295518 0.0024123592 -0.0033131482 -0.0031798875 -0.0031665165 -0.0009687506 -0.0026296836 0.0030618263 -0.0037535613 0.00050483935 0.0038298897 -0.0023017551 -0.0025394766 0.003517082 0.001903384 -0.0013793538 -0.001256926 0.0027193779 0.0014342195 -0.00044356895 -0.0031528845 0.0028303142 -0.0019524919 -0.00056010653 -0.0037749682 -0.0009606273 -0.0025554479 0.0017740151 -0.0014289877 -0.00011441757 0.0011879875 -0.001283161 -0.0025254802 -0.00054058386 -0.001749967 0.0034718201 0.00091122056 -0.0034004587 -0.0011785385 -0.0006966519 -0.0026183608 -0.0018696673 -0.002821468 0.00244807 -0.0033300982 0.0033584805 0.0035247116 0.00043231528 -0.00035948714 -0.0015569536 -0.0021109884 -0.0037181526
78 -0.0019142953 0.002456635 -0.0019279777 0.0025723227 0.0034474107 0.00301296 0.00016803764 0.0021565976 -0.0037632298 -0.0020126945 0.0035752016 0.00027136484 0.00325371 0.0029948081 0.003553989 -0.0037483925 -0.0019217462 -0.003298727 -0.0035964567 -0.0009605705 -0.0027253295 -0.002051342 0.0012396368 0.003039659 -0.001488207 -0.00028253073 -0.00093814684 0.0013946458 0.0006186013 -0.003493489 0.0037099242 0.0035674646 -0.0022963919 -0.0038090304 0.0034444088 -0.0023287293 -0.0021154045 0.000253976 -0.001570806 0.0034082155 -0.00039973494 -0.0036864362 -0.00015034956 -0.0030365498 0.0035779357 0.0033881841 0.0021486797 0.0035087853 -0.0034812812 0.0033957977 -0.00010804218 0.0030747533 -0.002318361 0.002771338 -0.0027903884 0.0010176551 0.003557255 0.0023853185 0.00013409788 0.0018434263 0.0026908854 -0.0011301772 -0.0010834483 -0.0035430717 -0.0013151307 -0.0008027224 -0.0021134983 -0.0029834067 -0.002992367 0.0006254857 0.002465316 0.0004986328 0.0024903046 0.00190891 -0.0036701732 -0.0022087991 0.0003373749 -0.0013054264 -0.0029730492 -0.0027987491 -0.0023695435 0.0014373957 0.0013649848 0.0031654213 0.003068666 -0.002513344 0.003757713 0.0030502272 -0.0008913052 -0.00092743896 0.0022815506 0.0014237833 -0.0011414436 0.0017071159 -0.00053908286 -0.003431263 -0.00038360513 0.0006186105 -0.0001530102 0.0025499056 -0.002549813 0.0038945347 0.0029055583 -0.0021614488 -0.0036291555 0.0020439322 0.0023502642 5.503506e-05 0.0011013292 0.0006911607 -6.1991705e-05 -0.0012684296 0.001794928 0.0023251802 -0.00035460386 -0.0030481073 0.003374872 0.0006194688 -0.0023870452 0.0024803407 -0.002965264 0.0031789134 0.0011143198 -0.0019563409 0.0018607238 0.0022045777 0.00054619194 0.0034037957
6 0.0007769197 -0.002851816 0.00038495543 0.00074304186 0.0026601197 -0.0014426558 0.0024986737 0.002937773 0.0022215073 -0.00078413944 0.0031385047 0.0036030717 0.0023207506 0.002417295 -0.00023627537 0.0016886854 -0.0035073967 0.0016898433 -0.0027688195 -0.00045898976 -0.00022524151 0.0035940898 0.0002237163 0.0024648972 -0.000690599 0.0003715411 0.0009701281 -0.0020174691 -0.0018104793 -0.003369616 -0.0015850259 -0.001284746 -0.00095607695 -0.0032793195 0.003413843 0.0031599666 -8.525762e-05 0.0022659006 0.0005100953 -6.148363e-05 0.0029824928 -0.00057413924 -0.0014206275 0.0028166764 0.0012112597 0.001625761 -0.0013151482 0.0036294132 -0.0021930921 0.000613643 -0.0033651488 0.00044680614 0.0012813556 -0.0009996403 -0.0018925271 0.00043228726 0.0012881733 0.0014815864 0.00090385706 -0.0037356042 0.0013172403 -0.002799477 0.00048765427 -0.0030406292 0.0033324198 -0.0019618704 -0.0025247615 0.0017470673 0.0022733095 -0.000999236 0.0036414687 0.0032939932 0.0035100256 5.2247346e-05 -0.0023647118 -0.002768188 0.00017096232 0.003667032 -0.0023956192 0.002653199 -0.0007073727 -0.0023034627 0.0037620096 0.0022752306 0.0007692026 -0.0014294933 -0.0004226061 -0.00026772884 0.00036109416 -0.0014600449 -0.003814414 0.0006456299 0.0020390581 -0.0025893452 -0.0030964082 0.0023037763 -0.0012704226 -0.002050781 0.002877027 -0.0037539375 0.0027022522 -0.0020325095 0.00047464084 -0.003343887 -0.0020294888 0.0009400859 -0.0032466275 -0.0022386876 -0.0017918326 -0.0018073621 0.0032925056 -0.0036432345 -0.0038188433 -0.0031776025 0.0037908976 0.00083070673 0.0034371405 0.0013185127 0.0036485216 0.0013041629 -0.00093235687 -0.002074165 -0.003246872 -0.0015373449 -0.0016120424 -0.00064943574 -0.0018586803 0.0014241297
66 0.0027138223 0.001290221 -0.002989566 0.0028703636 0.0012307632 -0.002391574 0.0033719502 0.0028498701 0.001565029 0.0010813865 -0.003128493 -0.00043739332 0.0026270044 -0.0011738297 -0.0019159125 -0.0004558978 -0.0021301687 0.0017856173 -0.00073189544 2.6720938e-05 -0.001405918 -0.0038259441 0.0004901218 0.0024501025 -0.0004952091 -0.002225377 0.0036764035 -0.0012445332 -0.0023023968 0.0029523454 0.00326324 -0.0038217844 -0.0038866743 -0.0022424434 0.0030073011 0.00071925 0.0023941083 0.0019804116 0.002934704 -0.0026919888 -0.0033263701 0.00045030337 -0.0016576999 -0.0033804297 -0.0014160638 -0.001151601 -0.001406302 -4.469908e-05 -0.002136205 0.001422817 -0.00064995943 -0.0038659154 0.0038773676 -0.0030813678 0.0027170242 0.0030049745 -0.0028669732 8.131145e-05 -0.0017728921 0.00046618638 -2.3326435e-05 -0.0033870027 0.00335336 -0.002396469 0.0030196516 0.0018317652 0.0025158867 -0.0010972464 -0.0017749699 0.00086015096 0.002332607 0.0033447845 -0.0034552007 0.0023083796 0.00032806242 -0.0013498745 -0.001224172 -0.0022749912 -0.0016578196 0.0027754486 0.0038026157 -0.0012929505 -0.0021134033 -0.0005070937 0.0029819189 -0.0033977493 -0.0021095604 -0.0026759135 -0.0019672646 -0.0022851776 0.0019687542 -0.0025839265 -0.0023808149 -4.1975247e-05 0.003274583 0.0036461672 -0.00019506301 9.302724e-05 0.0007838418 0.0030207427 -0.0019182875 0.0025113071 -0.0008207926 0.0020033773 0.0027613207 -0.0017349984 -0.0032890532 0.0020151085 -0.0037269825 -0.0026060469 0.0034378062 -0.00046841943 -0.0013744783 0.0023763755 0.001977467 0.00073813234 0.0029078282 0.002773377 -0.0008310982 0.0014482791 0.0007233846 -0.0004965149 -0.003296613 -0.0028092521 0.00025706046 0.0010738664 -0.0016687004 0.0023116288
2 0.00021382998 -0.0037540467 0.0035011547 0.0027556184 0.0027818326 0.000696879 -0.00067132886 0.0038922692 -0.00018983231 -0.0038852238 0.002719295 0.0005870918 -0.0027980271 0.0029271538 -0.0023574994 -0.0011315619 -0.0022664892 0.0035338332 -0.0003427554 0.0036618344 -0.002593327 0.0011918854 -0.0038632054 -0.0034542896 -0.0017300723 0.0005464637 0.0021876057 -0.0035434687 0.00085949706 -0.0021793244 -0.0026543066 -0.0014997459 -0.0032761206 0.0020735355 -0.0015224115 -0.001995587 -0.0017124491 -0.0023062117 0.0028653792 -0.002118083 -0.00036535124 -0.0011717137 -0.0011199836 0.0014960817 -0.003894956 0.001634432 -0.0032099495 -0.0036855787 -0.0028263882 0.00015010797 0.000110259905 -0.003641908 0.0025239384 -0.00078225473 0.0034061037 0.003529605 0.0027985564 0.0029037115 -0.002858094 -0.0035420267 -0.0014074737 -0.0034119075 0.002910434 0.0018488456 -0.00062468357 0.000418397 0.0038901314 0.0031384847 0.0023121724 0.0008707069 -0.002669502 0.002149094 -0.001612558 0.0036084906 0.0028007135 0.0016333221 0.0038580887 0.001680504 0.001523058 6.4591055e-05 0.0004596875 0.00274253 -0.0031365724 0.0015856127 0.0035651105 -0.0005682443 -0.00093060255 0.003747946 -0.00021881795 -0.002204516 0.0012549654 0.0015221366 -0.0006152676 0.0037509045 -0.0037414988 0.0022004666 -2.6542786e-05 -0.003656189 -0.003320801 0.000965129 -0.0033733612 0.00090564135 0.0022567185 -0.0018453948 0.0035788948 0.0018115086 -0.002642774 0.0037060836 -0.0029281105 0.0015538811 -0.0021179523 -0.00091709 0.0034057654 -0.002700755 0.003561393 -0.0029880833 0.0014415636 0.0033519443 -0.0007019913 0.003197359 -0.00023379752 -0.0034243627 -0.0037549543 -0.0035547053 0.0024807507 -0.0038808899 -0.0032200718 -0.0031042262
50 -0.0023021426 -0.0018778048 0.0009561165 0.00086204027 0.00243213 -0.00045387665 0.0032604388 -0.001592055 -0.0029507023 0.0018230524 -0.003381612 -0.0028560602 0.0004017419 0.0039023971 0.0014331166 4.3737678e-06 -0.0010468974 0.00022598155 -0.0032809335 0.0006488641 -0.0011862855 -0.0036292167 0.0010220848 -0.0027906606 0.0022825934 3.5545047e-05 0.0036877897 0.0024250941 -0.0025642347 -0.0021562227 -0.003773216 -0.0030053474 0.0018594478 -0.0023030078 0.0036725895 0.002843657 0.0032972412 -0.00042898444 0.00096735416 0.000881823 0.0011870525 0.0010219613 -0.00020548959 0.0031428044 0.0025164192 -0.0038517592 0.0018626972 0.0021329294 0.002970345 -0.0019438198 -9.550608e-05 -0.0024311752 0.0030846992 -0.002473217 0.0012460942 0.0022012452 0.0025135637 -0.00024604297 -0.001670334 0.0024463043 -0.00041441031 0.0036497242 -0.0028355217 -0.0012996208 0.0022403854 -0.0011556612 0.0014976559 -0.002882016 -0.0038095152 -0.0018784823 -0.002714426 0.00028576778 0.0022802325 0.0024177842 -0.0007999527 0.0017653515 0.0012807174 0.003502354 0.0019091778 -0.0013051477 -0.0004260538 0.0038542952 -0.0038305684 0.0026401058 0.0021707602 0.0014318645 0.0021257428 -0.001505507 0.0011773391 0.0021301939 0.003013217 0.0005013152 0.0011440099 0.0038954075 0.0012610455 -0.002159192 -9.561643e-05 0.0026843566 0.0022451896 0.0015780961 -0.0022236933 0.0020564806 -0.0034539222 -0.0020271593 0.0023332033 -0.001341385 -0.0017902172 -0.0035982504 0.0019139957 -0.0009724742 -0.0011610393 -0.0038753606 0.0020031307 -0.0035401648 0.001500901 0.0033988126 0.0037368704 0.0035132922 0.0022304023 -0.0013593188 -0.0020075378 -0.0012996751 0.0007278163 0.001423543 0.0037903723 0.0013620647 -0.0026868396 0.00040319396
79 -0.0021661096 -0.002554164 -0.0009844514 0.002760421 0.002543574 0.0018050167 0.0033587972 0.0006048548 0.0024410652 0.0008541595 0.0035561747 -0.0024816487 -0.0027951272 -0.0012020076 0.0003321653 0.0033034917 -0.0026015604 0.0013337918 -0.00036330585 -0.0020575072 -0.0019210443 0.0032981616 -0.0037794136 -0.0033491002 -0.0028624276 0.0026230323 0.0028586884 -0.0013460094 0.0015498407 0.00071596756 0.0028046297 0.0027752314 -0.0012250519 0.0015522052 -0.0029342007 0.00077815476 0.0037600847 0.0017095098 -0.0006081389 -6.553167e-05 0.0016418725 0.001443018 0.000877494 0.0015391109 -0.0023496903 -0.00039366545 -0.003740504 0.003538282 0.0029331166 0.0037383991 -0.0031936935 0.0020775073 -0.002400643 -0.00051899656 0.002650314 -8.628576e-05 0.0003953647 -0.00063853955 -0.0011991968 0.0014520697 -3.906614e-05 0.00026491567 0.0026092334 -0.003223312 -0.0007087335 -0.0026199128 -0.0017735086 -0.0009716255 0.0038878252 0.0018658923 0.0006291072 -0.0013101418 -0.0031798682 0.0025949883 -0.0025507936 0.0033892675 0.0033325676 -0.0019654618 -0.0022356007 0.0024855775 0.0031548853 0.001164093 0.0017076499 0.0028784021 0.00044296935 -0.0031459176 -0.0033557876 0.0013917802 0.001254443 -0.001422345 0.0036423856 0.0031735054 -0.0017510728 0.0038097354 0.0036771006 0.00027742193 0.0010306452 0.0036347408 0.0015429277 0.002607814 -0.0004856401 -0.0009423826 -0.0010315342 -0.002615125 -0.00035710054 -0.0029694373 -0.002976582 0.0023967004 0.0033632072 -0.0015495899 0.0018514235 0.0029583296 0.00030395912 0.0012549438 -0.0016710855 -0.0034375195 0.0033384892 0.00021797298 0.0017148127 0.0026669987 -0.0005593564 -0.00097414746 0.0001413367 0.0005896527 -0.0006429532 0.00035096382 -0.003362997 -0.0019661859
1 -0.003887895 -0.0013500073 -0.0030317265 -0.0031029163 -0.002838586 -0.0029767144 -0.00028189103 -0.00323513 0.0022140264 0.00198488 0.0029383635 0.0034182756 0.0011152746 -0.002120323 -0.003394948 -0.0034335002 -0.003156862 0.0028264143 -0.0035203693 0.0011398057 -0.0007560283 -0.00039289347 -0.0014046014 -0.003345876 0.00080388226 -0.00067184726 -0.0014407833 -0.0023692169 -0.002540545 0.0020684584 0.0026735782 0.0014935717 -0.002851914 0.0037565543 0.0002955771 0.00050241844 -0.00359192 -0.00037200341 -0.0007325864 0.0013322802 0.0034411615 0.0010423238 -0.003581956 0.0029678913 -0.0026117624 0.00029265383 0.0011482899 0.0025975201 0.0023919758 -0.0017779421 0.0029925487 -0.0008981138 -0.0017582142 0.002675109 0.0017205431 0.0031120453 -0.0011677819 -0.0009693928 0.0026835727 -0.0036210679 -0.0017985118 0.002191217 0.0016496028 -0.0015472744 0.00030375266 0.000929125 -0.003111689 -0.0006662566 -0.0025599322 -0.0011450547 -0.003723259 -0.0023578913 0.00078932964 -0.0038397599 0.0019972664 0.0031033698 -0.0020669487 -0.003801507 8.87293e-06 -0.0013139044 -0.0036133018 0.0038139636 0.0012059555 0.0034612794 0.0038527458 0.0028542785 0.0012834333 -0.0033505422 -0.0004952897 -0.0029362724 0.003727553 -0.0017925404 2.1896773e-05 -0.0025353734 -0.00047366018 0.00022124843 -0.002625707 -0.0019715908 -0.0027474812 0.0028996505 0.0008847464 0.0012702905 0.00026247092 -0.00033854274 -0.0017722424 0.003161774 -0.0026706222 0.0023333775 0.0017257724 -0.0013633248 -0.0031378507 -0.0031259172 -0.0023897882 -0.003233415 0.0003561782 -0.001694521 -0.0031369359 -0.0037605318 0.0007100859 -0.0017284537 -0.002384384 0.0017293298 -0.00094360154 0.0020786894 0.00027134983 8.960358e-05 0.0022369302 0.00023986657
33 -0.00340533 0.00046726453 0.0007951649 -0.0023544882 -0.0017927769 -0.001155716 0.0032027643 -0.0031807495 0.0012108183 0.002870217 0.0030481052 -0.0033679036 0.003026141 -0.003667787 -0.0035008364 -0.0006657879 -0.0020532636 -0.0015760465 0.0034384225 0.0031976993 0.0022547673 0.0025750939 0.00023691857 0.0019023895 -0.003798789 0.0012114891 -0.003008332 -0.001523178 0.0014957857 -0.0029736215 -0.0010855744 -0.0023313335 0.0012892674 0.001262889 0.0013546416 0.0036063946 0.001625184 0.00048004158 0.0016423102 -0.0010814941 0.001490698 -0.00377025 0.0015625615 -0.0023365663 0.00244831 -0.0018143732 0.0015448027 -0.0015492114 0.0022634186 0.0008771372 0.0031639554 -0.0014501358 -0.0032701455 -0.0033338387 -0.0013032145 -3.115707e-05 -0.00033932438 -0.0033498774 0.0010213637 -0.0009522305 -0.0037669179 0.0013800786 -0.002185955 -0.0010858108 -0.0018256827 0.0034604697 -0.0016710361 0.0024720551 0.0007001705 0.0002578203 -0.00027220979 -0.0016575604 0.0024233297 0.0012302127 3.6018143e-06 0.0036735819 -0.0016769933 0.0013788736 -0.0038294918 -0.0016021993 -0.0029420715 0.0007674463 -0.0010015743 -0.0037415116 0.0038566566 0.0011964659 -0.0027826675 0.0006688704 -0.002832749 0.0032789519 -0.0034670783 -0.001773377 0.0016290522 -0.0034799376 -0.0026414394 -0.0004449087 -0.0034030161 -0.003787292 -0.0019311908 0.0031341587 0.0016132491 -0.003127995 0.003389345 0.003195922 -0.0038575458 0.00041525238 0.0020137497 -0.00034367226 -0.0008134445 -0.0036191358 0.0021964065 -0.0032875238 -0.0038388208 0.00081954274 -0.0002850965 0.0036292104 0.0037382152 0.0014676679 0.0038407114 0.003433884 0.0016855103 -0.0018546754 -0.003047956 0.0035290432 0.002357521 -0.0011444391 0.0035340479 0.0034420337
86 -0.0008615266 0.0036207214 0.0026827545 -0.0004635924 -0.0023299241 0.0005352283 -0.0024900034 -0.0016410144 -0.0011749624 -0.0008975475 -0.0033322456 0.002142677 -0.0030555434 0.002377801 -0.0034110637 -0.00065488706 -0.003049493 -0.0037933898 -0.0021673702 0.0019279862 0.0008452949 -0.002427152 -0.0013767463 -0.0009957885 0.0020336583 -0.0014353502 -0.0007517008 -0.00096522394 0.00025010578 -0.0031961373 -0.0031002113 -0.003105612 0.0010513491 -0.002870049 -0.00015510971 0.0027594238 0.0029819938 0.0009507606 0.0014139514 0.003133245 -0.002105255 -0.0018732508 0.0006135467 0.0013936294 -0.0005968827 -0.0011015066 -0.0007225083 -0.0028981443 0.002808418 0.002345297 0.003369784 -0.0011481573 0.0006888067 -0.0022154357 -0.0033399924 0.0008818772 -0.0010215061 0.0028798282 0.0027263653 -7.2787254e-05 -0.0016460544 -0.001481133 -0.0016539908 -0.0030666005 0.002445818 0.0005493372 0.0034706744 -0.0017823876 0.0023133622 0.0019399364 0.0014300753 0.0018053642 0.0014356907 -0.0014396391 0.0020098889 0.0022805075 -0.0030069372 -0.0008325964 0.00032527532 0.0022122725 0.0018449316 0.0034307786 -0.00022601374 0.00044167516 0.0003997735 -0.0031626981 0.00039733603 0.0015765468 -0.00017260989 -0.0014939315 0.0002784076 -0.00050562114 0.00031767206 0.001694297 0.0032220415 -0.00089498854 -0.0026364406 0.002251874 -0.0033566044 -0.0013049508 0.003776439 0.002308325 0.00071283407 7.2881434e-05 -0.0009097203 0.0031259747 -0.0006054698 0.0009874282 0.0025021948 -0.0013251279 -0.00072819553 -0.0026324203 0.0020353962 -0.0030035244 -0.0027917428 -0.0027403114 -0.001249689 -0.003596513 0.0024089257 0.0025529512 0.0022861215 -0.0019581057 -6.398591e-05 -0.00055145577 -0.0011669754 0.0009312714 0.0009136921 0.0014169068
68 -0.0035064442 0.00054054847 0.0011541955 0.0017488356 -0.0005473671 0.0035271468 0.00042195988 -0.00060419494 -0.0028655976 -0.0013133704 0.0013216679 0.0010187944 -0.003775878 0.000353997 -0.00020028734 -0.0035501907 -0.0023398534 -0.0012436712 0.0024363676 -0.0033273094 -0.0038730926 0.0007483394 0.002803053 -0.003267587 0.00056359323 -0.0032446946 0.0013765277 -0.0019282645 0.0016065052 0.0001581351 0.0031362802 0.0014921901 -0.0030044434 -0.0013719959 0.0025517119 0.003110283 0.00072134647 0.0016024789 -0.0031914185 0.0020197097 -0.0021139549 -0.0011876515 -0.0025439556 -0.00014200356 -0.0037918617 0.0029444122 -0.0029302214 0.00050778774 -0.0029814248 0.00039008755 -0.0017468621 0.0021064077 0.0030201753 -0.0021556402 0.0002120906 -0.0029132157 -0.003014166 0.0038095945 0.0036543147 0.0035075224 -0.002199574 -0.0022685817 0.00044768208 0.0025699674 -0.0031453639 -0.000597289 0.0037389935 0.00037799313 0.0019922263 0.002677292 -0.0019521813 -0.0020040618 0.0008817328 -0.0020301712 -0.0009984571 -0.0023840154 -0.0028984784 -0.0026520176 -0.000294755 0.0019216725 -0.0011305904 -0.00030446379 0.0024212105 0.0005580487 -0.0012074545 0.0009897642 -0.0027353715 -0.0024277784 -0.0011884007 -0.0039052358 -0.00052976527 0.0037632713 0.0020612571 0.0030866181 -0.0006825125 0.003522076 -0.0016651046 -0.002296051 0.0007480397 -0.0004982093 -0.0026307595 -0.0009472638 -0.0036831165 -0.0019313005 0.0039026116 0.0016445793 -0.0032772173 -0.0010853569 0.000528329 0.0036214164 0.0019338577 -0.0002481058 0.003420917 -0.0023682748 0.0011196055 -0.0010428908 0.0023930003 -0.002003613 -0.0010850773 -0.0027928331 -0.0024103832 0.0017988882 -0.0007011746 -0.0008246942 -0.0038201779 -0.0017145535 0.0005085347 -0.002969315
16 -0.0013017366 0.0035985392 -0.00027506106 -0.003722684 0.0035094998 0.002575781 0.0016395958 0.00050122663 -0.0034481634 -0.002869078 -0.002573652 -0.001283515 -0.00064143405 -0.0010532036 0.00076186814 -0.00016074632 0.0018256301 -0.002445933 0.00052866124 0.0025153386 0.002517706 -0.0011856721 -0.001494154 0.002664042 -0.002593401 -0.0030986075 0.00278202 -0.0011117825 -0.0016358746 -0.0032613808 -0.00019288904 0.00370629 0.0031185707 -0.0034492211 0.00028686057 0.002371931 0.002678113 0.00038865776 -0.00023291161 -0.0002500353 -0.00027218662 -0.0011154537 -0.0037339127 -4.6758058e-05 8.287678e-05 -0.00094931654 0.0030741247 -0.00018486424 0.0021577016 0.0038124204 0.001865084 -0.0010528128 -0.0023587462 0.0011062647 -0.0017698978 -2.355561e-05 -0.0027787755 -0.001880844 -0.0035715785 0.0027590066 -0.0031482882 0.0020457017 0.00216389 0.0002433628 0.0025007753 0.0027308576 -0.00089426414 0.00063519034 -0.0005091492 -0.0028306462 0.0016908756 0.0030257949 0.00021610354 -0.0026526805 0.00025455328 0.00026189937 0.001811181 0.0030493166 -0.003343019 -0.0013146292 -0.00024310923 0.0014716899 -0.0016517441 -0.0037282063 0.0036643767 0.00048016486 -0.00041489085 0.0020478293 -0.00244715 0.0021785405 0.0018707976 0.00021294515 0.0014527043 -0.00066738843 -0.0019944753 -0.0035575682 -0.0035359513 -0.0036702307 -0.0015684396 0.0018061944 0.0013133921 0.0030429228 -0.00096882315 -0.0022060464 -0.0033706424 0.0004136924 -0.0009166361 0.0007258385 0.0014835318 -0.0006655882 0.0017172152 -0.00020281841 -0.0013598559 0.00043860314 -0.0018456794 -0.0018294263 -0.0025650526 -0.0025957667 0.0011122494 -0.001248643 0.0023887863 -6.3879364e-05 -0.0025820995 0.0005551934 -0.0035096216 0.0006319474 0.00191308 0.00021398136
32 0.0019160142 0.00252231 0.0012464627 0.000114723014 -0.002316276 0.0005807138 -0.0023171976 -0.0014948966 -0.0007639388 0.0016829652 -0.0027065093 0.0013016249 0.0015390951 0.00059792225 -0.0038137273 -0.0014483692 0.003534421 0.002109537 -0.0026598088 0.0010674755 0.002596275 0.0012461152 0.003142649 -0.0030224265 0.00038548288 1.8810302e-05 0.00020661428 0.00016575608 -0.0030105105 -0.0017283282 0.0013489581 0.0034241702 0.0035251596 0.0008541671 0.0019757021 0.0006543274 -0.00086496683 3.767505e-05 -0.0015919209 0.0004897735 -0.003051181 -0.0011870825 -0.001824168 -0.001653321 -0.003768366 -0.0021515216 -0.0016551769 -0.0025381339 0.00051185593 -0.0018978135 0.00209934 0.00012385989 -0.0017542745 -0.0034973202 -0.0034725855 0.003486392 0.003002577 -0.00092085777 0.0021452012 0.003624391 0.0030395798 0.0013126385 -0.0015540387 0.003595781 8.6978536e-05 0.0038723075 0.0034134646 -1.7600029e-05 -0.0020605992 -0.0024811279 -0.003488236 0.0031375068 0.0025505936 0.0014839735 0.00061628997 0.003560134 -0.00030370033 -0.0027106996 0.000512933 -0.0036299168 0.0013932281 -0.0012337272 -0.002554129 -0.0011835501 0.002736891 0.0028691762 -0.002357118 0.0008097444 -0.0004973258 -0.003774434 0.002809117 0.002526273 0.0005501748 -0.0035464661 -0.0015678447 0.0021735558 0.0024644667 -0.0009582696 -0.0018581428 0.0022045616 0.001367897 -0.0010620026 -0.0002604433 -0.003113748 -0.0024707555 0.0027814996 -0.0016572741 0.0038536314 0.003327769 -0.00057426846 0.00075548963 -0.0009994538 -9.356947e-05 0.0019387921 0.0024596574 0.0009203405 0.0030027796 -0.00043110375 -0.0034372148 0.002389569 0.0013532826 -0.0035161828 -0.0024260264 -0.0038693917 -5.335325e-05 -0.00076033897 0.0037435412 0.0018239847
62 -0.0015522902 -0.0036463717 0.001809728 -0.0031614378 0.0003729112 -0.0027622199 0.0009259365 -0.0037633802 7.665135e-06 -0.0034562806 -0.0018338828 0.0035814687 -0.0019094947 -0.0028388556 0.002587862 0.00128502 -0.00062144856 0.0010254616 0.003406112 0.0017794193 0.00017382563 0.0036943997 -0.0035205004 -0.0011275163 0.0032186047 0.0025382934 -0.0002717046 0.0023046378 0.00043349783 -0.00035106463 0.0019436204 0.0036035213 -0.0024117022 0.0032835552 0.0005869197 -0.00068402896 0.0020989955 -0.0027667354 0.003067788 -0.0024352681 0.0018635965 -0.00261998 0.0026549092 -0.0036052405 0.003080742 0.003285996 0.0038149862 0.0017567024 -0.0016490797 -0.0025195146 0.0036400107 1.4757444e-05 -0.0002598617 0.0038786456 -0.0004823809 0.0001713853 -0.0020716307 0.0027440148 -0.0019801757 -0.00388945 -0.0037925357 -0.0033335674 0.0005143809 0.0013939306 0.002220432 -0.0013074501 -0.0002437547 -0.0031199683 0.0014027852 -0.0004360754 2.3956334e-05 0.0020993974 0.0003445157 0.0038871192 0.0004444735 0.0020893312 -0.0017843777 -0.0015726839 -0.0035782147 -0.0004407708 -0.0016402885 -0.0030470446 0.0023291593 0.0028672225 -0.0023269942 0.0022688522 -0.0019380265 -1.0819003e-05 0.0021819323 -0.0012835966 0.0006891407 0.002542556 -0.0014954287 -0.00056266726 0.003795707 -0.0020811325 0.0027806736 -0.0038064688 -0.0015807728 0.0026828912 -0.0034473734 -0.0033392669 -0.0023317158 -0.002785759 -0.00035598222 0.0002627572 -0.0016414187 0.0036895687 -0.0029123037 0.00024465003 0.0021243049 0.0026140064 -0.00077924423 -0.002352225 -0.0029196762 0.0033120264 -0.0030993144 -0.00376017 -0.001769668 0.00374722 -0.0020534862 0.0026282172 0.002005151 0.0023642913 -0.0020138116 -0.0011344097 0.0012363866 -0.000100372636
89 -0.0017888143 0.00080377643 -0.0014732194 -0.002883051 0.002575769 0.0025172355 0.00087720156 -0.0038305658 -0.001302092 0.0010005251 0.002877087 -0.0015072864 0.003277533 -0.0019047962 0.0002326628 1.2511516e-06 0.0007847386 -0.0009404242 0.0025804173 -0.0033984869 -0.002444529 -0.0032003063 -0.00010206828 -0.0016463738 5.9660677e-05 -0.0017537316 -0.0032632612 -0.0018555907 0.0008716753 0.0013824902 0.001416382 0.0021285478 -0.0022641807 -0.0032953147 0.0014623624 0.00091367605 -0.0020284313 0.001310349 0.00389152 0.0034315367 0.0023836158 0.0015241266 -0.0023245679 0.0032365718 -0.00041615064 -0.0016027956 0.00085189444 -0.00048535768 -0.00032945967 -0.0035911123 0.0023836298 -0.00010495806 0.001937221 -0.0020058372 0.0027946623 -4.093052e-05 0.0024694614 -0.0019880994 0.0033430557 -0.0009358928 -0.001124075 -0.0007486458 0.00030639264 0.0010942664 0.0027467057 -0.0038995305 0.0038843437 -0.0028759618 -0.0036644149 0.002227225 0.0013556671 0.0017249502 -0.000171734 -0.0025450482 -0.002682383 -0.0033592668 -0.0002830226 0.0015024513 -0.0033460082 -0.002994677 -0.00080492464 -0.0033957157 0.00063503464 -0.0029039215 0.0034530135 -0.002415546 0.0023075233 0.00039020716 0.0014839319 0.0030444236 0.00013646149 0.0027137003 0.001838002 0.0028399117 -0.0038585307 -0.0035136978 0.003157641 0.00015930657 -0.0010526953 0.0016227037 0.0005661205 -0.0028465453 -0.0036486653 -0.003479127 0.0035485502 0.0024266685 -0.00076799333 0.00016143688 -0.0036232183 0.00320236 0.0011510443 -0.002476624 4.8046186e-06 0.0035107746 0.0035717678 0.0026956245 0.0036049644 -0.00021937101 0.0026675593 -0.0027517632 0.0011839558 -0.0008497742 0.001367501 0.0021456005 -0.003695725 -0.0022591641 -0.0031228622 0.0026238048
64 0.0015537333 -0.0029899755 -0.0038917086 0.0027186982 0.0016149235 0.00028981964 0.00082362664 -0.0021144226 0.0033248605 0.002615168 0.0030635996 0.003019179 -0.00015773498 0.0031362178 0.0035100973 -0.0020731634 0.00085168204 -0.0023754223 0.0010785238 0.0025685218 0.0027326874 -0.0016290046 -0.000722148 -0.0021645997 -0.0023432153 -0.0012755258 0.00067291333 0.0012355623 -0.0032526867 0.0012951484 0.0010763136 0.0011100835 0.00019110627 -0.0029334223 -0.0022060762 -0.003061828 -0.002504701 0.002321511 -0.00111024 -0.00010822024 0.000673871 -0.0034336399 -0.0036639983 -0.0028680302 -0.0035370314 -0.0011741157 -0.0028892248 0.0021306574 -8.30523e-05 -0.00065511215 -0.00046696144 -0.00202759 0.0036145921 -0.0016630084 0.0030081586 -0.0037150509 0.0025649494 0.0004387449 0.00041530965 0.0031719361 -0.00043776777 -0.0020870564 0.0013477189 -0.0007611335 -0.003687113 -0.003836056 -0.002822937 0.003895387 0.00089504913 -0.003491523 0.003270059 0.00010104138 0.0034036404 -0.0014120732 0.0034050816 0.0033874812 -0.003392377 0.0006553719 -0.003029389 0.0003257227 -0.0028767493 -0.0018039612 0.000807644 0.0032689578 -0.0029407947 0.0030410103 0.00088661583 -0.0030097908 0.0030635009 -0.0037400385 -0.0023195322 -0.0024340618 -0.0008421908 -0.00011306866 0.001402307 -0.00045843492 -0.0014731904 0.0031948162 -0.0027950266 0.0011630801 0.00024495999 0.0006880477 -0.0034329782 0.0025732685 -0.0028589375 -0.0037219785 -0.0038069317 -0.001968501 0.0014119021 -0.0025530471 -0.00015690172 -0.003802461 0.0016283815 -0.0028668528 -0.0030237378 0.00037568115 -0.0017878828 0.0014505967 -0.0034987652 -0.0009442229 0.0031845234 0.0005431147 -0.0023102649 0.002297591 0.0037005106 0.00023616538 0.00089023734 0.0018262257
