96 128
53 -0.0021278698 -0.0014691623 -0.00033552974 0.0035229058 0.0034068702 -0.00027242 -0.0027203718 0.0037515739 0.0008215802 0.00010138677 -7.264939e-05 0.002897419 0.0023042953 -0.0029364994 -0.0027629023 0.0025361353 0.0015235306 -0.00019870863 -0.001872065 -0.0027530922 -0.0020602804 0.0034606755 -0.0032936763 -0.0014414099 0.0026480155 0.0032983967 0.0021350062 -0.002145879 0.0018749813 0.0019035923 0.0018549919 0.0018621308 0.001949412 0.0029713819 0.0020021626 -0.0029915143 -0.0023163082 -0.0013220615 0.0016160116 -0.0014884697 -0.0006601088 0.0037375465 8.853019e-05 0.0019554931 -0.0006617899 0.0036529792 -3.7965736e-05 0.003442797 -0.001621812 0.0030981293 -0.0027749303 -0.00027755433 0.0015221853 0.001717409 -0.000525583 0.0009167726 0.0026378038 0.0019709708 -0.00037255543 0.00065116613 0.0012182689 -0.0037742676 0.0005392222 0.0011988382 0.00061086146 -0.0010859537 0.0023108763 -0.0019649672 -0.0037601085 -0.0027780537 -0.0004254606 0.0020382537 0.0031360646 -0.0030723563 -0.00384859 0.0022223082 0.0023892056 -0.0018467514 0.00028439317 -0.0035304762 -0.0014606781 0.0021763218 0.0009538608 -0.0038856163 0.0004530061 -0.0021680188 0.0033816595 -0.0013636585 -0.002446261 -0.0006402121 0.0030382427 -0.0038546177 -0.00048267364 0.00055195723 0.00027284113 -0.00028726476 0.0027614646 -0.0010071401 -0.0037241776 -0.0016412634 -0.0005037597 -0.0030656978 0.001638188 0.00200065 0.0038691275 -0.0038626906 -0.0016359447 0.0023190144 -0.00085407455 -0.003688648 -0.0015513039 0.0021855226 0.0019525829 0.0006256327 0.0006083146 0.0025384093 0.003473764 0.002565387 0.0033633437 2.9919627e-05 0.0014451363 -0.0035209793 0.003378602 -0.0008940354 0.0013867388 0.00067786925 -0.001865489 0.0034366332
30 -0.0029805186 -0.0011529803 0.003303873 0.0038720656 0.0036811035 -0.0030766297 -0.0023476698 0.0008941018 0.003423442 -0.00070946995 -0.0003318967 -0.0027970506 -0.0010230545 -0.0016769677 -0.00034279178 -0.0010286646 0.0015586352 0.002517996 0.002298061 0.0005165794 -0.0038222575 5.660127e-05 0.0027900685 0.0008156588 0.0035600634 0.0005464893 -0.0003322236 -0.0012752427 0.00059884536 0.0007253043 -0.002711502 0.0015902206 -0.0031580143 0.0024823057 -0.0020884871 -0.00326553 -0.0010272454 -0.0025572402 0.001422066 -0.00088301435 -0.0015508697 -0.0019753247 0.0020098747 -0.0038643496 -0.0032610735 0.00032692126 0.0005359464 -0.0010567526 0.0019202268 0.0014169965 0.0013452821 -7.4961354e-05 -0.003045232 -0.0014752789 -0.0005334073 -0.0006651923 -0.0006853258 -0.0023142262 -0.00013952797 0.0035195313 0.003494461 -0.0019702695 0.0031904194 0.00037478303 0.003383033 0.0017947203 0.0026240617 0.0011332824 0.0012049562 0.003057136 0.0014639685 0.0017615287 0.0037030166 0.0038878685 -0.0015998263 0.00047210508 0.0012574531 8.327322e-05 -0.0026705158 -0.0032141143 -0.0010387857 -0.0023617272 0.003111184 0.0014870436 -0.002032796 -0.0015429968 0.0010466031 -0.0033282253 -0.0022514171 -0.002851412 -0.002209609 0.0033054333 -0.0030447969 0.0005911069 0.002565365 -0.0008983399 -0.0016513759 -0.0027251388 0.00067110633 -0.00072747754 -0.0022073018 -0.00039124547 0.0010551643 -0.0021509186 -0.0038428097 -0.001962882 -0.0020347214 0.0034088837 -0.003411913 -0.0026993966 0.0022712226 0.003808805 0.0030547855 -0.0023911805 0.00036988547 -0.0009839161 0.00017432062 0.0026985137 0.0038831176 0.001864246 -0.00078881957 -0.0001588539 -0.0018817604 0.0022387768 -0.0019614054 -0.00091334264 -0.0003559058 -0.0036693069
94 0.0037611036 -0.0023753461 0.0014100285 0.00024065029 0.0018087968 -0.0034456279 -0.0018266313 0.0015529983 0.0038872247 0.00033781023 -0.001823894 0.00020503621 0.0025115265 0.0014647681 0.0024830077 0.0018635284 1.4486134e-05 0.0019155893 0.0010904281 0.0026019283 0.0024842368 0.001286432 -0.003003329 0.0021408573 -0.00017399539 -0.003018216 0.0023062704 -0.0029809622 0.003874023 0.0014796522 0.0009999357 0.0013081192 0.0015852483 -0.0030672166 -0.0019654895 0.003261876 -0.0025087658 -0.0018529268 0.0031493334 -0.001341733 -0.0008591039 0.0030052967 -0.0014968729 0.00039837696 0.0008360076 -0.0030853928 -0.0018701882 -0.0032411306 -0.0021350293 0.0038242794 0.0008725623 0.002080306 -0.0018301669 -0.0016383182 -2.8287724e-05 -0.0035453606 0.00022028216 0.003689928 0.0005448733 0.0028396964 0.0024527633 -0.0006080927 -0.0009813263 0.002401401 0.0035674362 -0.0003372122 -0.0022705025 0.0019138565 0.0017490088 0.0008091126 0.0017483146 0.0033289474 0.0004201555 0.00065417995 0.0033251308 0.00075461477 0.0019087186 0.0016369591 -0.0017891587 -0.0014622296 0.00013163438 -0.003302607 0.00281181 0.003529328 0.00034418798 -0.0038096583 -0.0037920522 0.0033518127 -0.0009299263 -0.0015711553 -0.00038435985 -0.0020548021 0.0031157108 0.002798514 -0.0014997857 -0.0036897517 0.0032569298 -0.00059883157 -0.0014536728 0.0011824428 -0.0036978212 0.0038129878 0.0003195502 -0.0032554662 0.00031365934 0.00028452606 -0.0027678949 0.00042623922 0.0008995095 -0.0006504525 -0.0006837447 0.002731582 0.0028283289 0.0015505934 -0.0006238424 0.0016667664 -0.00205761 0.0025118005 -0.0020106258 -0.0024259002 0.0018287286 0.0019577115 -0.0026932354 -0.0035337184 -0.00076580234 -0.00016419 -0.0017784066 0.0034229227
46 0.00070490356 -0.0026593893 0.0022702578 -0.001009777 -0.0037405975 0.0007794872 -0.0012780413 -0.00093271624 -0.0008622781 -0.0022205734 0.003075959 -0.002768911 0.003130002 0.0020531793 -0.0035107143 -0.00037255656 0.002119367 6.0478877e-05 0.0015698371 -0.0021757577 -0.0028105534 0.0011176234 -0.003057224 0.0028314898 -0.00089982967 0.0017518904 -0.0022710313 0.002021766 0.003176966 -0.0025006146 0.0017941635 -0.0002142122 0.0017938943 -0.000537221 0.0009912653 -0.0028205568 0.0028677918 -0.0020926108 -0.0019887367 -0.0022942328 0.0021412126 0.0025340703 0.0031349934 0.0034769988 -0.0017065465 0.0009052632 0.0027720549 0.0010954327 -0.0019314217 -0.0020523905 0.0034450495 0.0026060594 -0.0012294549 -0.00021180372 0.0038607323 0.0006792418 0.0005013477 0.0028524457 -0.0032092582 -0.003346687 0.0029635036 -0.0027564203 -0.0030563283 -0.0008949491 -0.0014344422 0.0017373537 -0.002475274 0.00015906112 0.00020936155 -0.00017109723 -0.0011554093 0.0023494 0.00121577 0.003562835 -0.0022368813 -0.0026507913 -0.0033175256 0.0011452179 0.00037814648 8.59395e-05 -0.0033784003 0.00020256819 -0.001666039 -0.0008743966 5.765777e-05 2.4428808e-05 -0.0021534092 0.0027680928 0.0037367311 0.0016602541 0.0008849391 0.0037440364 -0.00206423 0.0027180633 0.0038539264 -0.0001564518 0.002958329 0.0025279506 0.0023831958 0.0033832379 0.00021917379 0.00044726342 0.002835087 -0.0021507815 -0.0033592714 -0.0012481465 0.0032382798 0.00096842897 -0.0028476478 0.0006647268 0.0018760776 0.0037036582 0.000105075844 0.0025197766 0.00090530247 -0.002867353 0.0016733 0.0016594098 -0.0030619444 -0.0015970457 -0.003512048 -0.0023862275 0.00032541808 -0.0012842481 -0.0019266477 -0.0020788698 -0.0030018943 -0.0032786475
50 0.003667985 -0.00256847 0.00044010184 -0.0024750743 0.0032008456 0.0016586799 0.0010679342 -0.0015349633 -0.003314569 0.00047581227 0.0007546729 -0.0021291377 0.0013959138 0.0024114472 -0.0034079133 -0.0035885207 -0.0015973648 -0.0037819936 -0.0030014361 0.0021963194 0.0007891566 -0.00010007125 0.0030205715 -0.0038642797 -0.0012459622 0.0010816252 -0.0009914915 0.0018148583 -0.0009191325 -0.0034527902 -0.0010885379 -0.0038918338 0.0033757493 -2.3138473e-05 0.002072588 -0.000516429 0.0017262128 -0.003804238 0.0021752084 0.0019947428 0.0010797678 0.0030298529 -0.0032896136 0.0012894523 0.0019658331 -0.0012854562 0.0033703127 0.00013111226 -0.003450333 0.0035396698 0.00087959226 0.0012675832 -0.0039030926 0.0038955247 -0.0030923465 -0.00058004656 0.0016581481 -0.0026417386 0.00051692745 0.0034897993 -0.00016606519 0.0039015564 -0.0002967747 0.0032283566 0.0011251583 0.003756911 -0.0012698837 -0.003066768 -0.0018756402 0.0016758048 0.0014683397 -0.0012298004 -0.00020641401 0.0022996736 -0.002886634 -0.0005256137 -0.0024151844 -0.0017803377 -0.0020687326 0.0015807846 0.0026585083 -0.001348202 0.0038491506 -0.0011957883 -0.0038643405 -0.0019632296 0.002016099 0.0023001153 -0.00076246203 0.0023165026 0.0037656538 -0.0004546091 0.0006975551 -0.0028574686 0.0009943154 -0.002770835 0.0033113416 -0.0032657532 0.0026437494 0.0013476693 0.0036071562 -0.0009636206 -0.0037483997 -0.0005352071 -0.003820851 0.0015925568 0.00031792358 0.0036862434 -0.0036128766 0.0012017897 -0.0025916295 -0.002855431 -0.0019549893 0.0035888348 -0.0006046799 -0.0015417782 -0.00276948 -0.0037962256 -0.0036559696 -0.0029462536 0.0013826716 0.0030083905 0.0009265183 -0.0025094284 -0.0018858339 0.00033713688 -0.0023222864 0.0035140326
33 0.0013105131 -0.0007530627 -0.0005487079 0.002005566 -0.0033815294 -0.0036009639 0.0035533977 -0.0038420372 0.00063389767 -0.0015445681 0.00061801326 -0.0029276763 -6.695738e-05 -0.001442746 0.00014767825 0.0033028708 0.0015294775 -0.0010593911 9.218514e-06 0.0004527061 -0.0001249344 -0.0018329743 0.003875733 0.0033376603 0.00296269 -0.00041573765 0.0005844568 0.002603024 -0.0039048346 0.00076477684 0.0031298373 0.0031684258 0.0038506044 -0.00020771747 0.0015596476 -0.00084082957 -0.0031580927 -0.0016120849 -0.0026632654 0.0028707527 -0.0007244787 -0.0011535111 -0.00053845654 0.0015004899 0.0017056775 0.0032222471 0.0033054058 -0.00029883493 -0.0033331239 -0.0017899495 0.0011694614 -0.0001836525 -0.003859287 -0.00016200433 -0.0029557443 -0.0025709674 0.0033720355 0.00041920913 0.002246461 -0.0010476132 0.003256515 1.073624e-05 -0.002971883 0.0020465432 -0.00075242494 -0.0029965255 0.0003700977 0.0008036909 -0.00082888245 -0.0022225261 0.0031432637 0.0015302642 -0.0017572736 -0.0020236848 -0.00014303763 -0.0019693978 -7.608635e-05 -0.0034528768 0.0032916327 0.003300092 -0.002079029 0.0037193783 0.0031029866 0.0030360671 -0.0035486673 -0.0031016946 0.0030819704 -0.0023905342 0.0035225789 0.003882359 0.0037524507 -0.0030327505 -0.00038401675 0.0016059738 0.0003850812 -0.00024627533 -0.0023616983 -0.0031144232 0.0022107896 0.0016924717 -0.0035999431 0.0009159283 -0.00058710447 0.00085302937 0.0022424257 -0.0034853842 0.0019553157 -0.0004872682 0.002498031 -0.0004343943 0.0006849443 -0.0017102695 -0.001764447 0.0038455315 -0.002906343 -0.0015987202 0.0021991516 -0.0010305156 0.0016230076 -0.0027635528 0.0038075354 -0.0020000148 -0.00358296 -0.00015201855 -0.0022540218 -0.0011322136 0.0031850906 0.00030395706
70 -0.0018949267 0.00078809005 0.003877985 -0.002780487 0.0013498141 -0.0004839508 -0.00033349343 -0.00079510873 0.003062419 -0.002003293 -0.00028936434 -0.0009159676 -0.0016854734 -0.0013533732 -0.0031041598 -0.0034845346 -0.0001884039 0.0008444132 -0.003147533 -0.0023602627 0.0001440846 -0.003338353 0.0017616949 0.0007106824 0.002636673 -0.001519291 -0.0029670976 0.0017603667 0.00068080873 -0.0032419066 0.0021731835 0.0009074736 0.0014453366 0.0027452179 -0.003662819 -0.0034863912 -0.00307491 -0.0009869207 0.0015849513 0.0024627445 0.0009000305 0.0003918678 -0.0037194183 0.0026060245 0.0032986589 0.00036645526 0.0024558376 0.00081314775 0.00067618163 0.00081514916 0.0024488152 0.0006267304 -0.00063586177 -0.002673882 0.0001715708 0.003786378 0.0016701778 -0.0035405238 0.00083100586 -0.0021437248 0.0017296149 0.0018465553 -0.0022201305 0.00021628027 -0.0035335992 0.00063209696 0.0032412095 0.0014863524 0.0012423818 -0.003057737 -0.00022058412 0.0031014765 0.001507282 6.043498e-05 -0.00042886825 0.0034269022 0.0014406262 -0.0010581979 -0.0023068173 0.00038536583 -0.002722974 0.0019901288 0.0010216193 -0.0037158213 -0.0026409032 -0.0038668544 0.0010456046 -0.0019979598 0.00200609 0.0014394525 0.0014201506 0.0033388217 -0.0017970393 -0.0024534324 -0.0014302055 -0.0027292296 0.0010129719 0.002616622 -0.0038423312 -0.0005949035 -0.0010685277 -0.002007295 -0.0031908134 -0.0038307142 -0.002161603 0.0013188462 -4.3158172e-05 -2.6665526e-05 0.0002675011 -0.0031098353 0.0033372035 0.0006184752 0.0013362743 0.00061158265 0.0024691992 -0.0036813207 -0.0015319177 -0.0012157789 0.0024299035 -0.0019865918 -0.0011740121 0.00066161697 0.0015153709 0.0027815443 -0.003644453 -0.0023298834 -0.00047239658 0.0013990544
47 0.0011957249 -0.0024027254 0.0024687788 0.0029963457 0.0008010126 0.0013905239 -0.00032461458 0.0023625335 0.00015237856 -0.0014302174 -0.0035227686 -0.0033684105 0.00096400466 0.0035881754 -0.0025519333 -0.0019898356 0.0005486684 0.0039025154 -0.0034155445 0.00039788018 -0.0035355957 -0.0019274807 0.0026615022 -0.0034754176 -0.0033343171 0.00067707954 0.0035465239 -0.0010290586 -0.003819168 0.0010493168 -0.003230338 -0.0027797339 -0.0017288757 0.0035182035 -0.00073048606 0.0008104616 -0.0024591503 0.0023355784 -0.0006013355 0.0018693727 -0.0030275562 0.00044094483 0.003740475 -0.0023420297 0.0009096782 -0.0032710456 0.001072965 -0.0020715178 0.00029166648 0.0023868433 0.0030307285 0.0025656414 -0.001232543 -0.0017517942 -0.00032100335 0.0011065017 -0.0013417924 -0.0016301048 0.0011956709 -0.00022410211 -0.0010751414 -0.0018729382 -0.0035588515 -0.00088483014 -0.000894207 -0.0015243771 -0.0021205246 0.0019127072 0.0027919046 -0.0021038118 -0.00065167673 0.0025341157 0.0031444647 -0.002290523 -0.0022158767 0.00031508526 0.0017011473 -0.0020118998 0.0029750932 0.0035154275 0.0032451707 0.0035370144 -0.0010807827 0.0029431237 0.0021933983 0.00027938402 0.0008399256 0.0002670997 0.00025226362 0.0027188598 -0.0002255192 0.0035808661 -0.0010961682 -0.0027987582 0.00015105653 0.0018881416 -0.0036216697 0.0030651768 0.0021163248 0.0037935919 -0.0037333763 -0.0019848368 -0.0033588442 -0.00075174385 -0.0038049018 0.002950493 -0.0023012687 0.0025582938 0.0024783788 -0.0028185907 -0.0022900263 0.0025966696 -0.00036981658 -0.0022228442 -0.0020948958 -0.0021536208 0.0026351463 -0.002903583 0.0031833851 0.001690044 0.00048490005 -0.0027754502 -0.0012683284 0.0023709126 -0.0024751704 -0.0009307483 -0.002046803 -0.00037011248
20 -0.002938507 0.0017675359 -0.0023222726 0.003260709 0.0029642303 0.0008860127 0.0023894424 -0.00279484 -0.0028554006 0.00045099203 0.0005312653 0.0031403548 -0.0016695055 -0.003688675 0.002298295 -0.0025869298 0.000692196 -0.0027697282 -0.0019238765 0.0019143005 0.002434667 0.0020354665 0.0021967138 -0.003413315 -0.0018367032 0.0012157133 -0.0021455311 0.0034929963 -0.0009401052 0.0021939399 0.00035120986 0.0037069318 -0.0022189096 -0.0030839813 -0.0005644302 -0.0022602705 0.001178676 0.0036795011 0.002675496 -0.0010106154 -0.0022186423 -0.0018463711 0.0038253188 0.0019572645 0.0022663318 0.0025462555 0.00071230985 -8.285286e-05 -0.0038394767 0.0033626137 -0.0033539901 0.001307801 -0.003307863 -0.0021333562 -0.0029905955 0.0004129613 -0.0021560146 0.0016743151 0.0032729388 -0.0033158637 -0.0037809615 -0.0035001447 -0.0033588219 -0.0010650468 0.0029145407 0.00089404784 0.001772831 -0.00040151994 -0.002272607 0.0032198937 -0.0024647065 -0.0018811306 0.0021699993 -0.0012192824 0.0029107926 0.0028420577 -0.0020028541 -0.0034699154 0.0010176841 -0.0037952634 -0.0015749374 -0.0023299833 0.0037875753 0.0006180204 -0.0037990827 -0.0013055247 0.00094806403 0.0023896634 4.7935904e-05 -0.00038515107 -0.002262548 0.00085887243 0.0019815601 0.001988612 0.0030604776 -0.00017687019 0.0034268016 -0.000503497 -0.00068274874 0.0003591162 -0.0030950042 -0.00039104815 -0.0032723253 0.0015408223 0.0005853368 0.00036647765 -0.0013993386 0.0029244039 -0.002483687 0.0018427916 -4.1704916e-05 0.0010514925 0.0036510278 0.0025278672 0.002799787 0.0022206146 0.0025077376 -0.0006920414 -0.001472146 0.00040034807 -0.0033282028 0.0021804676 -0.0007555451 0.002342504 0.002266896 -0.0032458194 -0.003896965 0.0016993734
8 0.0034751995 0.0038429487 0.00049644086 0.0033238078 6.258718e-05 -0.003650214 -0.0026522377 0.0004516342 0.001484651 0.0003532124 -0.0006439539 -0.0006386393 -0.0021454014 0.0007443556 0.0027680336 0.0016566564 -0.0035020337 0.0036170674 -0.0025057334 0.0019845336 0.0021759165 0.003020367 0.0011460063 -0.0005142874 -0.0011103798 -0.0009093565 -0.00089342735 0.0025039625 0.0011673188 0.0037529052 0.0013418164 0.0031175015 0.0015360733 0.0027962886 -0.0036072228 -0.0019760362 0.00042821167 0.0010021377 0.0012187596 0.001648852 0.0003917351 0.0031331817 0.0025852164 0.00088896474 -0.00258152 -0.00013387631 0.003641548 0.002778549 -0.0011739854 0.00028943951 -0.0010086998 -0.0036060587 -0.0035773078 -0.0022870859 0.003084444 -0.00374271 -0.00251461 -0.0037729123 -0.0015922049 -0.0029286577 -0.003029883 -0.0012276361 -0.00085885957 0.0017275612 0.0025707067 -0.0036122983 -0.0023857143 -0.003711446 -0.0011746469 -0.00225198 -0.0018498119 -0.000113990565 0.0030063223 0.0028816704 7.0672446e-05 -0.0038468952 0.001996214 -0.0029968347 0.0036411693 0.0023098309 0.002374745 -0.0020778636 0.00022777247 0.00085148256 -0.0020067121 -0.002889606 0.0013235814 -0.0014248119 0.0038528198 0.0021682798 -3.2191943e-05 -0.0021730035 -0.0022787633 0.003403402 0.002586336 -0.0013007955 -0.000776739 -0.0028518657 0.0019997708 0.00033360638 -0.0020996954 0.00056943484 0.00111478 0.0011986918 -0.0020911251 -0.0029958417 -0.0012585436 0.0018125382 0.0014568464 -0.0017076818 -0.0011080493 0.00188877 0.00053714507 0.0016303109 0.0029956177 0.0014360473 0.0023312669 -0.0036734669 -0.0023074842 0.0035247423 0.0032881172 -0.0036862625 0.0010450049 0.003742948 0.0032216958 0.001729305 -0.001062517 0.0014331748
76 -0.0018136452 -0.0037868675 0.0023198263 -0.0005060445 -0.0007735507 -0.0009834314 0.0014270052 -0.0038367482 0.0026396993 0.0011027473 0.0022331032 -0.0030176146 -0.0024170678 0.0020086123 -0.00072143826 -0.003577376 0.0027826633 -0.0018969746 -0.0027267837 0.0031113694 0.00068496197 -0.003772226 0.0018327559 -0.0022796637 -0.0029236574 0.0025901154 0.0027078078 -0.0026735212 0.0017023874 0.0013610243 2.445394e-05 0.0010954774 -0.0020470927 8.39132e-05 -0.003281809 -9.5217634e-05 0.00047956203 -0.0033396764 0.0038709263 0.0025702333 -0.00083781 0.001198491 0.0026932703 -0.0025275077 -0.0013989361 0.00012673394 0.0019903455 0.00035244398 -0.0026389258 -5.4747557e-05 -0.0026823664 -0.0035844746 0.0011002298 -0.0005279568 8.4169405e-05 0.0037824567 0.0010767005 -0.0014717913 0.0032648952 0.0001988397 0.003080058 -0.0036117816 -0.00037853434 0.0016200141 -0.0028485297 -0.0032170818 -0.0008080697 -0.0012073355 0.002609904 -0.0016487369 -0.0014291353 0.00012975812 -0.0022833985 -0.002149468 -0.0016193411 -0.0035727888 -0.0019853266 -0.0016585242 0.00021258902 -0.00080732116 0.0030978722 -0.0008797359 -0.0030873902 0.0017961768 -0.0006185955 -0.0033500472 -0.001565399 0.00025779888 -0.0008320494 0.00094757497 -0.0004789618 0.0035402772 0.0031209118 0.0013865934 0.002245789 0.0022425484 -0.0019316807 -0.0013033493 0.0013474303 -0.003767381 0.0035439997 0.0014557877 -0.0037051074 -0.0009895796 -0.0015193783 0.0028236886 0.0019127562 -0.001418656 0.0011317463 -0.002444029 0.0017157377 0.00072938105 0.0024937843 0.0011803797 -0.000747116 -0.0026888717 -0.0026692725 0.0026513655 0.0032686945 0.002417322 -0.0027906476 0.00038432365 -0.0037874228 0.003681631 0.0030349072 0.0017591048 0.0022232379 0.0013553203
38 -0.0026299614 -0.0007884179 0.002233045 0.0010395887 0.00039604405 0.0021152347 0.0029683027 0.00054536975 -0.0004630549 -0.00012220674 0.00016427164 -0.0023864887 0.0027878138 -0.0020014371 0.003112692 0.00088153593 -0.0029050875 0.0003305346 0.0017998015 0.0012432435 -0.0035519872 0.0013339627 -0.0037699023 0.0011049409 0.00034399686 -0.0016111166 -0.0023045787 5.4630615e-05 0.0019711936 -0.0016616432 -0.0037898568 -0.0026490355 0.00010808583 0.0027487313 0.0013216586 0.0014045844 -0.00075397524 0.0020256958 -0.003056401 0.0028889452 0.0020141958 -0.0018818264 0.0014771835 -0.003216566 -0.003491447 0.00043755161 -0.0008309303 -0.003508627 -0.0037908703 -0.0009330795 7.554412e-05 -0.0016574247 -0.0016737203 -0.0036248276 0.0022520684 -0.0032402035 -0.001034401 0.0034104444 0.003420524 -0.0020933035 -0.0012469304 0.0026794553 0.0019479421 0.003611244 0.0026163603 0.0035528387 -0.0029500793 0.0015906789 -0.0038202975 -0.0020775506 -0.0036211943 0.0005193048 0.0021721716 0.0038532251 -0.0012300508 0.00086005905 0.0017997483 -0.0034956406 0.0020021803 0.0032693332 -0.0036576963 -0.0034188065 0.0009071722 -0.0022286293 -0.00037247717 -0.001224695 0.0034947332 -0.0021705597 -5.345904e-05 -0.003009287 -0.002100196 0.00025849888 -0.0024382512 -0.002469786 0.00019022672 -0.0019031097 0.0015487486 0.0012728076 0.0011816702 -0.001700457 0.0024178454 -0.0020966027 -0.0012967136 0.0020860368 -0.00089733524 0.00346521 0.00037576316 0.0015103513 -0.00080313307 -5.8935464e-05 -0.002381064 -2.4659774e-05 -0.0032659066 -0.0028053257 -0.0036290325 0.0025090915 0.0025855051 -0.00022227287 -0.0032287543 0.0034974706 0.003703354 -0.002107188 0.0021615396 0.0027125916 -0.0017742002 -0.0022368932 -0.002649752 0.00346822
21 -0.0024644914 -0.0011582774 -0.0024837865 0.0011443739 -0.0018581351 0.0010370236 -0.0030459398 0.002877961 0.0036934905 -0.0025446818 0.0038908962 0.0027873188 0.0018639156 -0.001278215 0.0018134873 -0.0030687412 -0.0011676028 -0.0026220668 0.0012735336 0.0025562984 -0.0015042765 0.0037391724 -0.003242422 0.002927162 -0.0016797857 0.0033988766 -4.0225674e-05 0.0010901378 -0.00080163695 -0.0018362382 -0.0035939435 0.0009572223 -0.0015424646 -0.0004992454 0.0026476039 -0.0010891997 0.0033377777 0.0028518066 -0.0027196908 -0.0030300582 -0.00289019 0.0036870847 0.0006630285 -0.0024822182 -0.0032305422 0.0035900008 -7.0080045e-05 -0.0016950356 -0.00080740696 -0.0019368378 -0.0030919975 0.0010886025 0.003183156 0.003267969 -0.00328669 -0.0026827138 -0.00058538467 -0.0022527538 0.0032745518 0.0026284608 0.0023001574 0.001943861 -0.0029597355 0.00084981386 0.00043606965 -0.0005031636 -0.0016695805 -0.0030143769 -0.003814419 -0.003267444 -0.002361621 -0.0033841708 0.0006307676 -0.0024790587 -0.003695765 0.0008036665 0.0018127136 -0.0030371763 0.0037230803 -0.0034119783 0.0009252834 0.0022203524 0.0026047577 -0.0015676799 0.0016638223 -0.00283699 0.0012560416 -0.0028317475 0.0025686817 -0.0012810578 -0.00048612177 -0.0007319518 0.0011302007 0.0024403678 0.0010315487 0.0016968705 0.0005433549 0.0017031599 0.0006789402 0.000257199 -0.0001613548 0.0019325042 -0.0036424214 -0.0027433261 0.0025525321 0.0011357202 0.0025526034 -0.00032148682 -0.0015720689 0.0020063901 0.003386021 0.002698207 0.0030290296 -0.0018015403 0.0035479916 -0.002510884 0.0022899262 0.0028225058 0.0006228757 -0.0031745518 -0.0021922416 -0.0037158541 0.0027766577 0.0011723131 -0.0023916832 0.0014262061 0.0026673242 -0.0012898339
93 0.0020065047 -0.00075206853 -0.0011961064 -4.424019e-06 -1.9781497e-05 -0.002558176 -0.0019343619 -0.0027827434 0.0038121224 -0.0035245821 -0.002535192 -0.00073508045 0.0031490505 -0.0021257815 -0.0034487285 -0.002328161 0.00014969042 0.0025432736 0.0022454523 3.6074085e-05 -0.0019862389 0.0008380462 0.000757087 0.0016817631 0.0025346067 0.0015379832 0.003491492 0.0015183919 -0.0020711748 0.0037284358 0.002186951 0.0015495544 0.0026281339 -0.0014196327 -0.0009799885 0.0022946026 -0.0038482274 0.003117107 -0.000771908 -0.0038799883 0.00017819706 0.0013168772 0.00013698975 -0.0011681056 0.0005857555 0.0026090257 0.00080410804 -7.711052e-05 -0.0010668483 -0.0016749176 0.0023043153 -0.0036913522 -0.00016559927 -0.0024030844 0.0015585454 0.0031096304 0.0011435342 -0.0018274966 -0.0007923226 -0.0011289776 -0.0029304663 0.0004474112 0.003301432 -0.0018663624 0.0003179983 -0.0026413691 -0.0016863982 0.002261169 -0.00250456 -0.0031602266 0.0027382514 -0.0002756181 0.0014721991 -0.0014499148 0.0028584353 -0.0015459718 0.0010731977 0.0006423043 0.003615795 -0.0035194121 -0.0038797935 0.0014941316 -0.0016904316 0.0024263372 -0.00035745814 0.00020661106 -0.0026576216 0.0033213582 0.0030338462 0.0004609272 -0.00031628594 -0.0032457681 0.0020246173 -0.002369401 0.0033891061 -0.0013592821 0.003178186 0.0007908736 0.00018948544 0.0014310016 0.001967923 0.003847886 -0.0022970284 0.0017347467 0.0017754647 -0.0005346204 0.0038000753 -0.0009071293 -0.0011041863 0.002388338 -0.0028064956 -0.00073062757 -0.00078288943 0.00045014854 -0.0010602258 -0.0016101565 0.0013727606 2.6500296e-05 -0.00073102035 0.0017250181 -0.00054005074 0.001395439 0.0019688776 0.00043465596 -0.002721838 -0.0013082928 0.0005814023 -0.0004397938
5 -0.0023957654 0.00036305585 0.002936291 0.0019996844 0.0026376203 -0.0037331649 -0.0030544866 0.0012804818 0.0023089782 -0.0032411367 0.0032080433 -0.002137149 0.0033992217 -0.0017599661 0.0025616381 -0.0017730958 -0.0028823386 0.0021783567 0.0036130266 -0.0012777658 0.0038121194 -0.0020265055 -0.0018419784 0.0013447326 0.0015139807 0.001323066 0.001301336 -0.0005834661 -0.0011218159 -0.0025143088 -0.0017476709 -0.00082687166 -0.0033713025 -0.0016908508 -0.0014261014 0.0023143897 -0.0007869118 0.0029662843 0.0036163377 -0.0014899252 0.00074529834 -0.00066037424 0.0003696369 -0.001248356 0.001283974 0.0014832094 -0.0010106574 0.0022472597 -0.0002434819 0.0018394428 -0.0024520056 0.0009815098 -0.0014760863 -0.0033217454 -0.003488827 0.0010333387 -0.0010078702 0.0036266376 0.0037905273 -0.00024336699 0.0036943438 0.0030794116 -0.0014725913 0.0018122711 -0.00021168317 0.0026830356 0.00060263474 0.00049046235 0.003071722 0.0031242939 0.0009481648 0.0012469192 0.002748567 -0.0030238382 0.0020956774 8.176717e-05 -0.0005669939 0.0032638405 0.0009222751 0.0020536056 0.0019225274 -0.0027660069 0.0030613018 0.0029026014 0.0007203311 -0.002891615 -0.003498386 -0.0018633261 -6.2016516e-05 0.0010658546 -0.0006250705 0.003229991 -0.0021218604 -0.0018737494 0.0010977302 -0.0038340425 0.0019202118 -0.0021181547 -0.0015183862 0.0029947835 -0.00050449575 -0.0019408911 -1.0450664e-05 -0.0006423651 0.0012240411 -0.0012445971 -0.0016106026 0.003134634 0.0035508843 -0.002363518 -0.00094559044 0.003359774 -0.002300948 -0.0023460367 0.0003230375 -0.0003913453 -0.0023463161 0.003144419 -0.0026460076 -0.0016070906 0.0005088981 0.0038231828 -0.001662125 -0.000595242 0.0033259848 -0.00031731467 0.0029953388 0.0025051185
91 0.0009953385 -0.0022604244 -0.0024938607 -0.0035013463 4.4676508e-05 -0.0009781019 -0.0011027214 -0.0034326448 0.0038744605 0.0026049677 0.00256255 0.0030952871 -0.00091348414 0.003197265 0.002645198 0.0030351125 0.0027522068 0.0034696131 0.00072580745 -0.00022885506 0.0011308973 0.0028304595 0.0005326475 -0.003806663 0.0019435993 0.0026256084 -0.0034659887 0.0035274017 -0.0015781362 -0.0019824994 -0.0019759252 -0.003378794 0.00046616895 0.002986545 -0.0010956554 -0.001865851 -0.0021056114 0.0037250791 -0.0035008586 0.0020109038 0.0030537243 0.003252831 0.0012226116 0.0017937217 0.0010890476 -0.0038461774 -0.0038532163 0.00072758313 -0.0016930944 -0.001559884 0.0001258166 0.0013159746 -0.0026208737 -0.0031572506 0.0038926862 0.00160247 0.001586512 0.0011790639 -0.0036969432 0.00064490276 0.002892612 -0.0026874421 -0.00068642467 -0.00085763185 0.0022887553 0.0022109756 -0.003155459 -0.0018060477 -0.0005397462 0.002561791 -0.0038885775 0.000871127 -0.0028566308 -0.0029412229 0.0013580691 0.0018465266 0.0026868235 0.002636512 -0.00069721 -0.003301768 -0.001583408 -0.00081242644 -0.0030437945 0.0027094295 0.00020136291 0.0019269902 -0.0004474563 -0.0011542415 0.00087431615 0.0037160304 -0.0025619152 -0.0028171898 0.003165302 0.0022943998 0.00180151 -0.00198875 -0.0015339967 -0.001252137 0.00022389967 0.000608951 0.002213713 0.0027196486 0.0012818163 -0.0015849762 -0.0020042767 -5.2225092e-05 0.002220248 -0.0026410196 -0.0019964129 -0.0024724628 0.0019582347 -0.0016049432 0.0022349844 0.0025831994 0.0022591976 -6.328579e-05 -0.002083033 0.0016260787 0.002437454 -0.001130497 -0.0021828844 0.003392384 -0.0021521915 0.0020815544 0.0011790653 0.0025603417 0.003447352 -0.0031255186
13 -0.0020314017 0.0032830478 0.0029581818 -0.0010071294 0.00013772535 0.0016482509 -0.00066290156 -0.0029756476 0.00017281859 -0.0028789963 0.00262815 -0.0027333884 0.002577678 0.0023798437 -0.00037402444 0.0021315743 0.0029834171 0.00084955303 0.0019498108 -0.0004005562 -0.0030106655 0.002089024 0.00019219102 0.0009531938 0.0031492962 0.00023777132 0.003805596 -0.0009824088 -0.0009301203 -0.0015518618 0.0018706921 0.0016597125 0.0015879521 0.0031567407 -0.001251658 -0.003241361 0.0032160578 0.0018291599 -0.0020783409 0.00025433392 0.0033243392 0.0029830816 0.0019523924 0.0003931208 -0.0013491998 -0.0013782758 -0.0031888427 -0.00028090604 0.0025096952 -0.00338318 0.003435582 0.0038869379 -0.0027917826 -0.0037394043 0.0006369458 0.0024310627 8.182014e-05 -0.0035596911 0.002743841 0.0032627578 -0.0011267251 -0.0024019254 -0.003070524 -0.002749343 0.0019186568 -0.0020058989 -0.0036076833 -0.0022815757 0.002825662 0.0010723784 0.0005208786 -0.0019154226 -0.0025777288 0.00081237964 0.0020939184 -0.0026129063 0.0021548283 0.00045593432 -0.0005072314 -0.0022386457 -0.0008059872 0.0025220949 -0.00090946624 0.0035125394 0.0028018376 -0.0025701914 -0.00187047 -0.0020158088 0.0035140868 -0.0032565554 0.0006729488 -0.0014346519 0.0031359768 -0.0013642902 -0.002831894 -0.0027242072 -1.9667095e-07 -0.0020538257 -0.0015438796 -0.002384836 -0.0013141693 0.0007461468 0.00078911026 0.0034596017 0.0018175883 0.003235083 -0.0034251201 0.001981796 0.0021226853 0.0022929152 1.829689e-05 0.0015868855 -0.0024049208 0.0027587386 0.0023980674 -0.0032980314 -0.0013415816 0.0011355384 0.0036489577 -0.0033850863 0.00097310526 0.0034950224 1.2044997e-05 -0.002163305 -0.0028985683 -0.002091238 -0.0033854458 0.0003437637
45 -0.0023618115 0.00091136445 -0.0031951633 -6.2626474e-05 0.0024731483 0.0015668178 0.00018598174 0.0033994943 0.0031024832 0.0012852271 0.003816934 -0.0021489046 -0.0006948629 -0.0025006365 0.003567335 -0.0028704433 0.0015210231 -0.001271762 0.00088042155 -0.0037023204 0.001187706 0.0016867515 -0.003826243 0.0036065073 0.0026685626 0.0006701476 -0.003821307 0.0008895783 0.0009044255 0.0032923254 -0.0012103665 0.0008376304 -0.0011355885 0.00048621238 0.002385009 -0.00050350226 -0.001470248 0.0016469503 -0.0033075588 -0.0006560298 0.0035590788 -0.0002194033 -0.0028019913 -0.0032916463 -0.003389562 0.0001587405 0.0026340086 0.00052262394 -0.0013463096 0.000803249 0.0032846213 0.0027805392 0.002637156 -0.0006073307 0.00205771 -0.003475001 0.0010746999 0.002305334 -0.0035753087 -0.0006219542 0.00027809822 0.00020350836 -0.0037917634 -0.0033094797 0.002045022 -0.0018007093 0.0034429522 -4.5133464e-05 0.0011076552 0.0020346462 -0.0021165316 -0.0007316391 0.0024345703 0.0030127666 0.0017175206 -0.0018116808 -0.000859003 -0.0013213775 0.0015375792 0.0023895346 -0.00050788815 0.0016316271 0.0027076113 0.0010592057 -0.0023002694 -0.0015546188 0.0024070023 0.0033238735 0.0004446076 -0.003863701 0.0026371125 -0.003041291 0.0012668674 0.0020529774 0.003472587 -0.0026675828 0.0023790929 0.001129091 -0.0030468071 -1.0149067e-05 0.0010811385 -0.00083429646 -0.0019016666 -0.0028183 -0.003413775 -0.00044619798 -0.0021670042 -0.0021913645 -0.0024169565 -0.0012867005 0.0017024768 -0.00093680824 -0.0017055223 -0.0005028324 -0.0010888715 -0.0034554496 -0.003689809 0.0012101991 -0.0036799477 -0.0010963402 -0.0038849683 -0.0006050764 0.0013845456 0.00087590364 -0.0023817748 -0.0021009499 -0.0028375224 -0.0016338722
9 0.0027756544 -0.002426646 0.00192196 0.0027452009 0.0017838605 -0.002536894 0.0008552538 -0.001405996 -0.00022708927 0.00078405906 -0.0016609953 -6.205063e-05 0.0031968737 -0.0013394408 -0.0037779398 0.0001579199 -0.0029421493 0.0024228306 -0.0036182192 -0.0014761334 0.0027982593 0.0031036364 -0.003129101 -0.0037423926 -0.0021831463 -0.002307371 0.0026205098 -0.003045101 -0.0009984578 -0.0023726719 0.0016850018 -0.0034949998 0.0037104841 0.0027699717 -0.0033053805 0.0030378709 -0.0005745221 0.0002007466 -0.0020213763 0.0032433458 -0.0013923494 0.0023678513 0.0018402233 0.003644626 0.00029896898 -0.0036601003 0.0018499448 0.0030950513 0.00047571133 0.0033398042 -0.00036325504 0.00042146858 0.0029607823 0.0008216562 0.002575978 -0.0014220183 0.0018639492 0.0006619559 0.0012798378 -0.0016647376 0.0022877087 -0.0038537397 -0.0035699725 -0.0021428938 -0.0012700221 0.000758781 0.001728017 0.0012555051 -0.0031935198 -0.0028954356 -0.001287184 0.0029375884 0.001457405 -0.001061691 -0.0034629854 0.0029146727 -0.00041186024 0.00255651 -0.0029633883 0.00088679563 0.0010898325 0.0034569085 0.0016100606 0.002790601 -0.001296759 0.0018500178 -0.0023654024 0.0018677494 0.0021631178 0.0014189851 -0.00070172624 -0.00086231023 0.0011197986 0.0031882478 0.0015845498 0.0008144246 -0.00039401985 -0.0025983583 0.0006091688 0.0009176748 0.00012561966 -0.0011687645 -0.00029191416 -0.0015910935 -0.0020075606 -0.0017349178 0.0031369552 0.00082005974 0.0026967903 -2.2347855e-05 0.0026493522 0.0028308127 0.0024962889 -0.0022843257 0.0023203152 -0.00034318128 -0.0009029727 0.0025921308 0.0025831626 0.00037770934 -0.0010735074 0.00013711498 -0.001365161 -0.0038805075 -0.001044143 -0.0012078973 0.0011692283 0.0035870075
23 -0.0012060576 -0.0034259022 0.0024367822 -0.0021136166 0.0039034782 0.00085835636 0.00023669319 -0.003058208 -0.00040322536 0.0031450011 -0.0026367274 -0.00039806095 0.0033829026 -0.00091773144 -0.0035372584 -0.00053645804 0.0020544266 -0.0009554372 -0.0028169858 0.00043947334 -0.0007818096 0.00062784407 0.00025274782 0.0035453502 0.0035408568 0.0002536146 -0.00046526958 -0.001789743 0.0035187174 0.003201615 -0.002237397 -0.0025605957 -0.0013362094 -0.0019904047 -0.0037245634 0.00017712243 0.0035565412 -0.0026599797 0.0007851392 -5.5325858e-05 0.0006072928 -0.0025353625 -0.0014813865 0.0028968868 0.0006759133 0.0028872783 -0.0013969843 0.0028662414 -0.0033081456 0.0031085552 -0.0029927671 -0.0013710534 0.002633278 0.0001578185 0.0027318865 -0.001544525 0.0036988233 -0.001825835 0.0018519589 0.0007574003 0.00075482175 0.00022882216 0.00024253043 -0.0031415138 0.0007486038 0.0010405564 0.0017870328 -0.0009788706 -0.0028685404 -0.00018707186 0.0032728028 0.0012568086 0.0017492379 -0.003473604 -0.0010386748 0.0022145666 -0.001981546 0.0024549393 -0.001945118 0.0015050546 -0.0031338402 -0.002031057 -0.0010538724 0.0032498932 -0.0028089006 4.4787434e-05 0.0011886101 0.0021250504 0.0010249191 0.00049493706 0.0017808209 -0.0010092112 -0.0007975958 -0.0005367515 0.0022164138 -0.00052106415 0.0018961575 0.0036596458 -0.003211852 0.00080286345 -0.003301744 -0.0020269016 -0.00027453183 0.00035510902 0.0020492868 0.002004719 0.001092744 0.0012356628 -0.001721355 -0.0026150001 8.682907e-05 -0.002259673 0.0018293004 -0.0017918539 -0.002292761 0.0034901872 -0.0012639067 -0.00324448 0.0010951068 -0.0017126402 0.0019010209 0.00049520074 0.0014277048 0.00036301147 0.0007065325 0.002016698 -0.0019432505 0.0026170502
69 0.0020716202 0.0024189795 -0.00061141007 0.0037502088 0.0025644747 -0.0022831946 -0.0020858047 -0.0025812334 -0.00016138447 -0.0027091112 0.0034297782 -0.00037637816 0.0013120683 -0.003898758 -0.0033764022 0.002823399 -0.0014024298 -0.0016458157 0.0021860683 -0.0029651793 -0.00043076166 -0.0025315795 0.00080827315 0.0023139208 -0.0031222152 0.0011068148 0.00057186116 -0.0032165723 0.0029463326 0.0030757606 -0.0017806874 -0.00046083704 -0.0027438698 0.0012930112 -0.0012318265 -0.0006304487 -0.0005593623 -0.0005615351 -0.00027260825 -0.0008062629 -0.0034859788 0.0007641631 -0.00051314436 -0.0034175045 0.0016251799 -1.0631062e-05 -0.0017455276 -0.00034252417 0.002137518 0.002229158 0.0033934577 -0.0019977186 -0.0028231516 0.0015058763 -0.0019785138 0.0011310144 -0.0010406504 -0.0012407474 3.2803734e-06 0.0036017355 0.00076315587 0.0018228532 0.0005899908 0.0027380183 0.0025727528 0.0033565203 0.0024386256 -0.0024791867 0.00035744696 -0.0018347385 -0.0033727176 -0.0028954502 0.001129011 -0.00033584618 0.003144147 -0.000847853 0.0013118741 -7.695053e-05 -0.0026747403 -0.0038268927 0.0030833173 -0.0019721715 0.003167256 0.0014449916 0.00018972605 0.002110899 0.00017872185 -0.0020323973 0.0018817689 -0.0026916182 0.0023881656 -0.003330898 -0.0025562532 -0.0020411618 -0.00020790068 -0.0019743885 -0.00045664338 -0.0027327668 -0.00389147 -0.0027196673 0.0014106992 -0.0010381263 -0.0028091508 0.0023070083 0.002300505 0.00022899515 0.0016619721 -8.812107e-05 -0.003199667 -0.0030109142 -0.00035968615 -0.0037312997 -0.0010702246 0.00032884075 0.0030228044 -2.200578e-05 0.001078247 0.00019887187 0.0006519363 -0.0010453546 0.002296017 -0.002818126 -0.00054818665 0.0036635513 -0.0011745539 -0.00021388807 -0.0038935102 0.0037717756
61 0.0028820937 -0.001841575 0.0031798726 -0.0016304108 0.0025915513 -0.0024690644 0.0027198594 -0.0025253932 0.0010629224 -0.0005321327 -0.00055994064 0.0004202388 0.0033198248 -0.0009692855 0.0011873209 0.0029447698 -0.0012126997 -0.0003994847 -0.003171463 -0.00013380594 -1.2306182e-05 -0.0016029411 0.0009236902 7.646391e-05 0.0012263744 0.0014183476 -0.0014931314 0.0016546997 0.00090977666 0.0028022374 -0.003411157 0.0008934053 -0.0022639364 -7.56628e-05 -0.0017823934 0.0022878393 0.0013201061 -0.00198286 0.0021622041 -0.0021012812 0.002401375 0.0022677684 0.0020013426 0.00024038184 0.0009403625 -0.00016657905 0.0017079044 0.0033292358 0.001511354 -0.00094570505 0.002553138 0.00041851995 0.0006540966 -0.0028406593 -0.0017798803 0.0004600472 0.0028304448 0.0029126045 -0.0014371155 0.0030554163 0.0015518755 -0.0010523796 -0.0030500535 -0.0031804994 -1.45523845e-05 -0.001328694 -0.0022322836 -0.0013826377 0.002430085 1.1913124e-05 0.0014649209 -0.0034064017 0.0031776433 -0.0037377586 -0.0012202958 -0.0033126678 0.0016418326 0.0023374725 -0.00010924422 0.0015976019 -3.7932955e-06 -0.0025884185 0.00010904045 0.0015030011 0.0013500191 0.0038506808 -0.0016837392 0.0037157312 -0.0017152672 -0.003673241 0.0025144739 -0.0015000667 -0.002048844 0.0028212513 0.00015623645 -0.00039385396 0.000503102 -0.002189251 0.0023170677 0.00073755346 0.0030944652 0.0014960205 -0.0028405206 -0.00237754 -0.00327654 -0.0018704175 -0.002989946 0.0038269958 -0.002160386 0.0023222824 0.00016390701 -0.0023419615 0.0028594555 -0.001973481 -0.0020257018 0.0009962434 0.000898739 0.0023542927 0.0025012025 0.00022317703 0.0038225737 -0.0035152214 -0.00256427 -0.001873202 -0.00020391741 -0.0021418252 0.0011999712 -0.0005658686
42 -7.458128e-05 -0.0023398453 -0.0029737966 0.0002874812 0.002197557 -0.0009230891 0.002619963 0.00029750925 -0.002044329 0.0026216905 0.0008248652 0.00029018236 0.0037315988 -0.0006446725 0.0008547809 0.0009852548 0.002055422 -0.000760825 -0.0009508887 -0.0033589622 -0.0014384867 0.0022660315 -0.0010931212 -0.002852337 0.00012331796 -0.0028383732 -0.0021650735 0.0022073688 -0.0022338578 -0.00033303758 0.0018458462 0.0004583935 -0.0030617863 -0.0025740084 0.00024230807 -0.0017875349 0.00014935763 -0.0025397527 0.0010728688 0.0020310925 0.0031886494 -0.001277028 -0.0027830135 -0.0005431094 -0.0033098334 0.0012611594 -0.0001032437 0.0017192585 0.0014834306 0.00146894 0.0024551398 0.0034956508 -0.00013033523 0.0018413302 -0.001332798 0.002369107 -0.0017033281 0.003228249 0.0029759123 0.0008721772 0.00057084434 -0.00063136365 0.00096439157 -0.0006868117 0.0017767882 -0.00094840233 0.0031342136 -0.0018908046 0.0008087828 0.00073566847 -0.0004669513 0.0023733058 0.0015953336 0.00094615895 -0.001272543 -0.0023286499 0.002141092 0.0038659612 0.0024985238 0.001661945 0.002390762 0.0012117384 0.0011075994 -0.0021313366 -0.0025510257 -0.0016634156 -0.0005018444 -0.0030790211 0.0010040412 0.0026684548 0.003694405 -0.0005502769 -0.002128488 -0.0017506167 -0.0004872998 0.0018357553 0.0024523514 -0.00031333067 0.003704647 0.0011692719 -0.0031514093 0.0011891765 -0.002053958 -0.0038523779 0.0017357862 -0.0027929638 -0.00019881365 -0.0022409873 -0.0027383845 -0.0034681188 0.002654799 -0.003013493 -0.003616333 -0.00024763035 -0.0037897867 0.0014912991 -0.0024251656 2.6349226e-05 0.0016846679 0.0011364971 0.0016898718 -0.0032042575 -0.00077021116 -0.0038468288 0.0016690168 -0.0017882363 0.0016510009 -0.0031276965
90 -0.0018406996 -0.002860628 -0.0008730095 0.0015205865 0.002354414 -0.001973983 -0.0024224103 -0.003515062 -0.0024803106 -0.0014835066 -0.0023155778 0.0029132143 0.00039107216 -0.00045127168 -0.0037097777 0.0035758119 -0.0006196952 -0.001214775 -0.0006938476 -0.001211304 0.00023846817 0.001265168 -0.0017577942 0.0035252902 -0.0017137607 -0.00051875686 -0.002352986 0.0031600543 -0.0017389 -0.0025809025 -0.0037854114 -0.0016430638 -0.0028600893 0.0026315036 -0.0026099589 -0.0036938728 0.0026222093 -0.0038926785 0.0026744092 0.0009780563 -0.0016715784 0.00045407418 -0.001139293 -0.0010831804 -0.0021800497 0.0018354787 -0.0009186599 0.00012086673 -0.0029715963 0.0032236895 0.0010844774 -0.002781068 -0.0008731242 -0.0003968816 -0.00015560891 0.0035903305 -0.0017860014 -0.003879358 -0.002364919 -0.002930961 0.0017016089 0.002127762 -0.0038099217 0.0035825127 0.0018683451 -0.0005880211 0.0018753499 -0.00027411562 0.0029084736 0.0028188967 -0.00040021355 -0.0036795437 0.002572784 -0.003466986 -0.0021146324 0.0017349982 0.002454871 0.0025832113 -0.00077519595 -0.0014320478 0.002320063 -0.00017961556 -0.003266212 -0.0023413766 0.0012000186 -0.00226544 0.002072462 0.0009796056 -0.00175858 0.000862985 -0.00047352366 -0.00072203577 0.0021018365 0.0025590146 -0.0021450287 -0.003503538 0.0012069633 -0.002527407 -0.003024894 -0.0007215259 -0.00035829257 0.002083702 -0.0016998749 0.0022839485 0.000105961444 0.00013736056 -0.003416043 0.000104317565 -0.0006552678 -0.0006852752 -0.0037138246 -0.0020496864 -0.0013308047 -0.0022920088 0.0028056852 0.00033113448 -0.0020457762 0.00057548436 0.002644753 -0.0012023164 0.0005892455 -0.0029697914 0.00037799 -0.0019306637 -0.0031289945 -0.0005949305 0.0032308497 8.618516e-05
72 0.0028803216 0.0017933376 -0.0015060371 0.00327983 -0.0013048435 6.273649e-05 -0.0035771762 0.0011995552 -0.0030516062 0.0007689826 -0.0010477372 -0.0018776641 0.002563577 -0.0007553558 0.0012179199 0.002893853 0.000710339 -0.0020603049 -0.0034314285 0.00069325493 0.002728557 0.0036983197 0.0016232922 0.0035517202 -0.0012938515 0.0030744516 0.0024357585 -0.0035191432 -0.0008432072 0.0029203019 0.0026924873 -0.0008143022 0.0010425573 0.0016545133 -0.0005454521 -0.0007603879 0.0022246174 -0.00017874435 -0.0027156228 -0.00041679692 -0.0039016218 0.0011926375 0.0011409185 0.0031741902 -0.0027207478 -0.0032772599 -0.001232434 0.0025451316 0.00016075754 -0.003851232 -0.0010206172 0.0015595463 0.003361368 0.0020591505 -0.0013637027 -0.0021672263 0.0024115928 0.003065497 0.0019738753 0.0004976471 0.0012870781 0.0033868921 0.0021122938 -0.0034404974 0.0035471176 0.00063412025 0.00032599512 -0.000639795 -0.00043686447 0.00039918232 0.00023984881 -0.0018495601 -0.0027264745 -0.0021361893 -0.0011086591 -0.003706904 0.0016111344 -0.0023641377 -0.003172905 -0.0027989885 -0.0037975789 0.002870928 -7.146767e-05 0.0018440806 0.000901144 0.0026785287 0.0015345797 -0.0035692216 -0.0035304495 0.0016055064 0.0015573723 -0.0031477264 -0.0014621428 0.002478318 0.00014227162 0.0032828257 -0.0011430504 -0.0033757617 0.0005109035 -0.0003784377 -0.003089548 -0.00025403613 -0.002327677 -0.0012877855 0.0037247005 0.00078756217 -0.0029826153 0.0022267788 0.00021510512 0.0020511148 -0.00092800066 0.00075007096 0.003698856 -0.0021509563 0.003767913 -0.0010631718 0.0039029715 0.0017217089 0.0014500789 0.0012148088 -0.001824565 0.0038221544 -0.003604739 -0.00026074937 -0.0016230164 0.002714489 -0.0033164215 -0.0012700848
44 -0.001631225 -0.0010927685 -0.0010248822 0.00248608 0.0021945548 -0.00030925524 -0.002673473 -0.0012570695 -0.0011708506 0.0003672351 -0.0020766289 0.00087384967 0.0015546322 0.00189828 -0.0011602598 -0.0038855646 -0.0008366671 -0.0014475664 0.0028324786 -0.003020706 -0.00032921866 -0.003540138 -0.003579981 -0.0013654586 -0.00048772726 -0.00064127153 0.0003979635 0.001737015 -0.0004412314 0.0027403524 -0.0020530769 -0.0007805456 0.00125088 -0.0025011064 -0.0017348743 -0.0033156048 0.0026187461 -0.001850895 0.003740665 -0.0017621542 -0.0031653426 0.0017049867 0.0033361514 0.0010409028 -0.003286996 -0.0033919439 -0.0037609586 0.0036700875 -0.002676319 -0.003877272 0.0015662791 0.0033839121 -0.00013930532 0.0014273537 0.0009864719 0.0021583803 0.003835438 -0.0029913012 -0.0016886449 0.0036760794 0.0026635944 -0.0024797772 -0.0021308712 0.000709482 0.0009552405 0.0021232653 -0.00046953518 -0.0022264395 -0.0011359629 -0.0015607775 -0.003823869 -0.0007209457 0.0026871886 -0.0009424745 0.0017591005 -0.0023703575 0.0034825376 0.0020481683 0.0023664497 0.0020970816 0.0015173085 -0.001231212 -0.00085328793 0.0024140095 -0.0016681504 0.0018907182 -0.0021893457 -0.0019032891 0.0020112975 0.0020019517 0.0038591335 0.0035983403 -0.0018605113 0.0033335993 0.00029860562 0.001262562 -2.0711408e-05 0.0028243642 0.0013593205 0.0011643874 -0.0003104704 -0.0008915556 -0.0036623897 0.00079778855 0.0015978188 -0.0015397458 0.002511609 -0.003721008 -0.0023911092 0.0035554247 -0.002033759 -0.0034370343 -0.0015313431 -0.00015014397 -0.0017627124 0.00079473737 0.0020092782 -0.0019805962 -0.00038027458 -0.0006910694 -0.0024199898 -0.0029868982 0.0014560657 -0.00071670656 -0.0033493864 0.0013809254 -0.0034157597 -0.0032595182
22 -0.0029424964 0.0020323547 -0.0012124624 -0.0021176538 2.8829209e-05 -0.0012786859 -0.0012985042 -0.0038206219 -0.0018435912 -0.00010160368 -0.0037820945 0.003299764 0.0005012893 -0.0030211667 0.003593251 -0.0024354747 0.00069274014 0.0014455382 -0.0028249624 -0.0019533406 0.0013787033 -0.002481236 0.002361308 -0.00015761427 0.003277664 -0.0011541453 0.0011203946 0.0038419047 -0.0026543092 0.002842068 0.0025571177 -0.000751366 0.0035484836 0.0024093855 0.0013283818 0.0032032025 -0.0025993905 -0.00026099998 -0.0035319396 -0.0035460296 -0.003172375 0.0017896928 -0.0021410545 -0.0025566996 -0.00086287415 0.0030875981 0.0019990131 -0.0009284001 -0.00080824894 -0.0024475646 0.003203708 -0.0036368053 -0.0035792654 0.0017243167 0.0025078745 0.0030124327 0.0016414893 0.0022039723 0.002263439 0.0027392597 0.000834184 -0.003399126 0.002334654 0.0021715614 0.0014725734 -0.0028183053 -5.1827087e-06 -0.0028257887 -0.0010596783 -0.0023268987 0.0030023446 0.0035693068 -9.407123e-05 -0.0014788228 -0.0023832887 0.0018892803 -0.0023092069 -0.0021578202 -0.00056492933 0.002271856 0.00070072955 -0.0022207315 -0.0027733578 -0.0002784792 -0.001366591 -0.0014847143 -0.0023161347 -0.0028370498 -0.0024852355 0.0026511017 0.0027278648 -0.0024939112 -0.0019794658 0.0036702477 -0.00077714864 -0.0023912308 -0.00041814006 0.0032540357 -0.0034205401 0.0008085002 0.0028150436 0.00080768915 -0.0017360667 -0.0008782774 -0.0023078914 -0.00358869 0.0016133733 -0.0011534636 -0.0037235515 -0.0024137832 -0.003646472 0.0035086256 0.0036503323 0.0022686203 -0.0023073056 -0.0014461658 -0.0003441021 -0.0011468526 -0.003759801 0.0005780127 -0.00014094773 -0.0007411845 0.0013083557 0.0006003859 -0.00019789774 -0.0034293963 0.00029267377 0.003435332
78 0.0033875774 0.0006784715 0.0021329857 0.00020681962 0.00032118845 0.001835836 -0.0036759162 0.0007596492 -1.3212798e-05 0.0016389401 0.0011116195 0.0015556577 -0.002543661 -0.0005792697 -0.000882939 0.0021179796 -0.0007993479 -0.001198043 -0.0012691782 0.00065562833 0.0023111242 -0.0033282074 -0.0030200675 0.0030211792 0.0010615326 0.0028639184 -0.0023538976 -0.0009895107 -0.003006979 -0.0025756396 -0.0025684766 0.003830344 0.0014605802 0.00034222298 -0.0020183458 -5.733029e-05 0.0009839666 0.0026553746 -0.0032532585 0.002293831 -0.0006037542 0.0024044225 0.0030944992 0.0029369332 -0.00100383 -3.1131185e-06 0.0036857293 0.0004217705 -0.003311787 -0.0010365804 0.0010805678 0.0007169074 -0.0012411757 0.0029252276 -0.0031083121 0.0028760019 -0.0011311327 0.0012808776 0.00067231746 -0.002515727 0.0034123135 -0.0034686893 0.00080601405 -0.0033778169 -0.0022201785 -0.0034840568 -0.0015332152 0.0037026156 0.0030710434 -0.0023636094 0.0019480971 0.0037504411 0.0014604379 -0.0015487906 0.003723479 0.0038401212 -0.0019397739 0.00040861583 0.0023842347 -0.0025912237 -0.0016816903 -0.003844272 -0.0031813148 -0.001951153 0.0009084434 -0.001393404 -0.0035548636 -0.00047349167 -0.00021285522 0.0015554659 0.001538127 0.0020878583 -0.0021038086 -0.00012014875 0.00028835377 -0.002260359 -0.002613984 0.0015189833 -0.001015405 0.0033329483 -0.0032875894 0.0033258752 0.0038669417 -0.0010230273 0.0027985738 -0.0019505927 0.0009791248 0.0007862887 0.002878102 0.0007792803 0.0027423017 0.0021171607 0.00017643411 -0.00031469844 -0.00091746304 0.000603713 0.0034221748 -0.001345894 0.002184555 0.0014588726 0.0011433727 -0.0022246435 -0.00028552974 -0.0023559893 -0.0005135084 -0.00086664583 0.001956055 -0.0015910361
1 0.003362781 -5.0193714e-05 0.001953449 -0.00061635015 0.00035667792 -0.003590633 0.0036197559 -0.0010673585 -0.0023869292 -0.0019446571 0.002701903 -0.0013188896 0.0019238655 0.0007661646 0.0035956597 0.0033280025 0.0013330915 0.0018907964 0.0013946601 -0.00018016393 -0.00090030814 0.0012551617 -0.0024094724 0.0017576906 0.00020713631 -0.0030417587 0.0012820398 -0.0034865274 0.002798112 0.0027217 0.00050921686 -0.0024034688 0.0020358434 0.00044872912 -0.00085399393 -0.0009318718 -0.00045513324 0.0014003633 -0.001431206 -0.0009839208 -0.00051631324 0.0026338694 -0.0006730593 0.0026585378 -0.003745877 -0.0010820469 0.0005052064 -0.003670634 -0.0037705433 0.002737143 0.0017346521 0.00018993767 -0.00309128 -0.0035716263 0.000989112 -0.0035319342 -9.138961e-05 -0.0030734495 -0.0012026659 -0.0026802386 -0.0025193845 -0.0021586702 -0.0011377587 0.0032870346 0.0019272638 0.001115461 -0.0014977352 -0.0006699014 -0.0022260854 0.002844165 0.0014908967 -0.0024792715 -0.0012766618 -0.00069223513 -0.0032171845 0.00075876596 -0.0017636003 -0.0016278623 0.00034979728 0.0011173602 -0.00016444517 -0.0024071126 -0.0027970155 -0.00059142715 0.0025129514 0.00196233 -0.00012741887 0.0016390157 -0.0005190189 -0.00049393653 -0.0022372005 0.0037580873 0.0037790725 0.0030558177 0.00120699 -0.0012151194 -0.001499044 -0.0005686116 -0.0016185418 -0.00059269404 0.0009481074 0.0026882607 -0.0003233627 0.0029554972 -0.002181368 0.002551935 0.0038656516 0.0021933592 -0.0031356714 0.0014076473 -0.0018554571 0.0012252167 0.0025527435 0.0020831274 -0.0009821417 -0.0020638243 -0.0013736954 -0.00029945924 0.0036492897 -0.00030421332 -0.0033716518 0.0014441632 0.0014870955 0.00044537778 0.00078692526 -0.0015114117 0.0011957474 0.0023138185
49 -0.002466699 0.0013719454 0.0008073457 -0.0038522189 0.00064621324 -0.002491304 -0.003104819 0.0020680814 -0.0035868615 -0.0016947946 0.0014742392 -0.003792758 -0.0038764176 0.0015555519 0.0007921853 -0.003400259 -0.0013453141 -0.0035064644 0.00041163774 0.0028747271 0.0022728348 8.6469e-06 -0.0010943897 0.0024317838 -0.00080597406 -0.0033502544 0.002169296 -0.00050536287 -0.0035564068 0.0027313833 0.0036928183 0.0005916381 4.481257e-05 -0.0012521198 -0.00079749955 0.0015156536 0.00036407768 -0.0018068823 0.0023697328 -0.00057461637 0.0018259248 0.00013807959 -0.0035391876 0.0012257055 -0.00064126163 0.0020833497 -0.0035015647 -0.0031300613 -0.0011120094 0.00010205959 0.0012751363 -0.0017142523 0.0012488991 -0.0019281167 0.0032086817 -0.0035551274 -0.002062615 4.6724752e-05 -0.0037172122 -0.00040475026 -0.0018662363 -0.0016912257 0.0013745307 -0.0014884275 0.00076195074 0.003032168 -0.0017646747 0.0008477799 -0.0018149515 -0.002694199 0.0026224228 -0.0038429452 0.0011180185 -0.0024113592 0.001227128 -0.0024767176 -0.001601757 -0.0029762627 0.0012496558 0.0030714 -0.0024447262 -0.00046149603 -0.0020418991 -0.003053346 0.00038964165 0.00018570783 0.0035206631 -0.0038228263 -0.0024551481 -0.0012073112 0.001955914 0.0027283037 0.001903578 -0.0003360845 -0.0021301135 -0.0020654025 0.001949762 -0.0033544807 0.00014316212 -0.0026085812 -0.0008353797 0.0024452158 -0.0038341428 0.0032776224 0.00048098425 -0.00020371749 -0.0033021665 -0.0022317038 -0.0025537307 -0.0013685215 0.002808339 -0.0026913187 -0.0027220792 0.0014245478 0.0012366431 0.0005569152 0.00014869815 -0.0029946372 0.0020826994 -0.00089697377 0.0016174437 -0.0030575625 0.0011361939 0.0022772395 -0.001709263 -0.0018545351 -0.002060082 -0.002457522
68 0.00084009685 0.003592003 0.0019513968 -0.00010133299 0.0029835217 -0.0010434238 -0.00033642846 0.0024740188 0.0027653843 0.0009743779 0.0035091194 -0.003168271 -0.0014453868 0.0019568647 0.002068737 0.0033562898 8.2558894e-05 0.0038123352 -0.0006002 -0.0018805973 -0.0012994166 -0.0008937385 0.00079980586 0.0021034884 -0.0023251714 -0.0016293966 0.0028000213 -0.0005396829 -0.001120345 -0.003492823 -0.001892253 0.002357486 -0.00086327747 0.0026416483 0.0033193028 -0.0015452326 -0.0008299836 0.0033570984 -0.0038439496 0.00173148 -0.0034930643 -0.0022751237 0.0033402976 -0.0022993567 0.0022502954 0.003058064 -0.00226254 0.0028634616 0.0028947247 0.0033284368 0.0020337366 -0.003589517 -0.0036064724 0.00015098615 0.00035085905 0.0011222591 -0.0005983479 -0.002355381 -0.00220899 -0.00025433494 0.0021802208 0.0012982849 -0.0038162104 -0.0022611513 -0.0022831974 -0.0024690486 -0.00017436125 -0.0010606733 0.0006222969 -0.0026049942 -0.0017986613 0.0016401637 0.001827475 -0.00281096 0.0038262457 -0.0037291814 -0.0026837082 0.0024995145 0.0028340316 -0.00050775916 0.0019130353 -0.0010758025 0.00032618662 0.0004068357 0.0006010485 -0.002863358 -0.002638513 -0.0028938602 0.00381329 -0.0038945968 0.0035023235 0.0028875878 -0.0035149236 0.0026836446 -0.0016605376 0.00039037285 0.0014924508 0.00015894117 -0.0010979259 -0.003166523 -0.002973821 0.0025763253 1.43163015e-05 -0.0020202307 -0.0010084655 -0.0027287605 -0.0023535835 -0.0017951742 -0.00213275 -0.0032504022 -0.0024365513 0.0006540598 -0.001118813 0.0017173128 -0.00039055027 -0.0030388136 0.00034246038 0.0007360957 0.002333127 0.0031680441 -0.001216738 0.001516948 0.0027770724 -0.0032289797 0.0020258625 0.00084543205 0.0026956531 0.0017702834
58 -0.0013691351 0.0001520786 -0.0032898602 0.00228201 -0.00057481474 0.00267585 0.0028930404 0.0004504518 -0.0015427006 0.0014157238 0.0007576577 -0.00047555674 -0.002298722 -0.002525005 0.0024261377 0.0022689386 0.0022383041 -0.0027452237 -0.00037852043 -0.002027886 -0.0022763144 0.0025293673 0.0033216989 0.0037594053 -0.003402132 -0.00036967985 0.00069028715 0.0025398815 -0.002878712 -0.0036874076 -0.0018855395 -0.0007707646 -0.0036593177 -0.0014896634 0.00060993305 0.00052444334 -0.00096244086 0.0015300836 0.000133814 0.0008240174 0.00094868365 0.003518083 -0.0010187911 0.0007926148 -0.0021392812 0.0010465453 -0.003828702 0.0012229959 0.0006990436 -0.0019333678 -0.0033806423 0.003364975 -0.0005104751 -0.00045006585 -0.0013589577 -0.0013837988 -0.0019962005 0.0009886492 -0.0002173105 0.0030700318 0.0015258425 -0.0009630788 -0.0022791238 -0.0038743948 -0.00061403465 0.00050477637 0.002513337 -0.0031155995 -0.0012914384 0.0028738384 -0.003304673 0.0019320719 0.0036804222 0.0003952989 -0.0027193914 -0.0017021621 -0.000837605 -0.0029967981 0.0007596635 -0.0037956864 -0.0016157435 0.0025689122 -0.00080300146 -0.0034174845 -0.0011652121 0.0014237188 -0.0031130258 -0.0017590832 -0.0005142669 0.0023543597 -0.0028870804 0.00058404077 -0.000913497 0.0007078974 -0.00020926345 -0.0024592665 0.0019805438 0.0007689676 0.003431353 0.0021135018 0.0006914564 -0.003810453 0.0034232056 -0.0031176556 0.0024373662 -0.00018739905 0.0025631913 -0.0007943451 0.0011395566 0.0003417777 -0.0023890543 -6.5691085e-05 0.0023900142 0.0027186724 0.0008759728 -0.0021566695 0.0035899603 -0.0038621058 0.0023425545 -0.0031365857 -0.0008612918 0.0036741341 0.0032131856 -0.0035625566 0.001274742 0.0037181599 0.0018536672 0.0017494217
80 -0.0010305931 0.0012850825 0.0010219803 0.0028462405 -0.0010945426 -7.094125e-05 0.0014674463 0.0017987575 -0.00056432496 -0.0036569827 0.0034200079 -0.0022278826 0.0009145524 -0.0011094786 0.001944416 0.0003187396 0.0011172321 -0.0037398967 0.0005791383 0.0025766655 -0.0035746463 0.0038178277 0.0003725573 0.0010654529 0.00076625415 -0.0010720022 -0.0035767814 -0.0022482944 0.0014839687 0.0016122658 -0.00016565715 0.0008973712 0.00027390852 -0.00034165967 -0.0011227379 -0.0015692443 -0.003672394 0.003321571 -0.0015695598 -0.00083844893 0.00149855 0.0011514105 0.0017138796 -0.0007206371 0.0035160442 0.0018356765 -0.00373338 -0.0006879628 -0.003471754 -0.0013304357 0.0028180536 -0.0008590115 -0.00045447293 -0.0006816268 0.0017296217 0.0012444778 0.0027745382 -0.0018175618 -0.0023472381 0.00024344606 -0.0032667557 -0.000480333 0.0019956639 -0.0022938782 0.0017692018 0.0031616592 -0.0012148106 0.0021349883 -0.0022111768 -0.0026709698 0.00056910975 -0.0018984388 0.0010880396 0.0038813644 -0.00088609743 0.001961269 0.0010931455 0.0010885643 0.0015263523 -0.0010568323 -0.003215442 0.0032718554 0.0029771517 -0.0016655832 0.001758934 -0.0024025484 0.0016325354 -0.0014949694 0.0008889918 0.00037688253 0.00372582 0.00021477185 0.0035759953 0.00036268565 0.003022821 -0.0037166004 0.0034871306 -0.001031128 -0.0014838467 0.0022037558 0.0017851654 -0.0020129492 0.0015987494 -0.0021421202 0.0014941302 -0.00047153808 -0.0035945086 -0.0006783826 0.0027867896 -0.0030985153 -0.0031805502 0.0017083656 0.00040170967 -0.00073196343 0.0016257374 -0.0037433926 -0.00036102594 -0.003232851 -0.0026095272 -0.0032020719 -0.0018144118 -0.00020032165 -0.001028342 0.00018114476 0.0029407048 -0.0023806903 -0.0015396826 0.002926018
12 0.0038131785 0.0014731536 -0.0037523038 0.0018151272 -0.0035435942 0.0009952197 -0.0027330113 -0.0015707178 0.002389534 0.00039122175 0.0031025754 0.0011148596 0.0011706348 0.003712453 0.0010503369 0.002195787 -0.0024882576 0.0037365537 0.0038746495 -0.0030851928 0.0037529545 -0.0012285366 0.0022514302 -0.003838222 -0.000706636 -7.222043e-05 0.0015296361 -0.0038968634 -0.00044327567 0.0024798259 0.0028359813 -0.0016198256 -0.0017791955 0.0013713908 -0.0002701797 0.0034196575 -0.000113608075 0.0009956245 0.00085336727 -0.0011450509 -0.0032678975 -0.00024576118 -0.0017131659 0.00048172145 0.003095174 0.0013223045 0.0005217315 -0.0027197746 0.003419351 0.0012181428 0.002500052 -0.0033406736 -0.00082044804 0.0024455618 0.0014350611 0.0014982844 0.0022531794 0.0035441061 -0.0032303862 -0.0030639158 -0.0006604362 -0.0034745364 0.0005385475 0.0003032649 -0.0011954259 -0.00076655246 0.0030594212 -0.002586807 -0.0030305085 -0.0028085532 0.00021420537 0.00026749232 0.002825857 0.0026078676 -0.002805091 -0.0031084504 -0.0031275284 0.002056221 6.443006e-06 -0.0029744396 -0.0007158496 -0.00095485244 -0.0010712971 -0.0011218949 -0.001915019 -0.0019295943 0.0014178443 -0.0027585658 -0.003511586 -0.0016588465 0.00019563612 0.002700097 -0.00053207675 -0.0002711951 -0.002228286 0.0036906407 -0.0019511514 0.00204946 0.0010854373 0.0010617933 0.0017558907 0.002352159 0.002326142 0.0022663982 0.0029015068 0.0017320499 0.0031665931 0.0001921923 0.0016397327 0.0026613234 -0.0008088854 -0.0007599148 -0.0004941154 0.0012891504 0.0005838373 0.0012814732 0.002517667 -0.0027286685 -0.0028011445 -0.002425016 -0.002232894 0.0010777597 0.0024834329 0.0022595169 0.0032256097 0.002133201 0.0038708742 -0.0015512316
81 0.0005366277 -0.003599902 0.0036482445 -0.0030032708 -0.001163006 0.0018663334 0.0027637952 -0.0038216005 -0.0026423342 -0.00017515056 -0.00019599576 -0.0034433245 -0.0038235076 0.0033499585 0.0025084899 0.0038793941 -0.0024317773 -0.00044589586 -0.0024063017 0.00018092898 0.0003561909 -0.0020050006 -0.0024142961 0.00012613439 -0.00025424172 0.003344903 -9.6780066e-05 0.0037851112 0.0016722488 0.0029503326 0.0003045661 -0.00046937718 -0.0021641897 0.0032296078 -0.0035463527 -0.0027984758 0.0012902099 0.0021942647 -0.0008871522 -0.0008268938 0.0037930661 -0.0006712931 0.0032004013 -0.0019838233 -0.0019913858 -0.0004557131 0.0018191957 -0.00040936127 -0.0024481872 -0.0020044534 0.003126572 1.773981e-05 0.0028267608 -0.002495321 0.0016161776 -0.0024293521 -0.0017912294 0.0031135972 0.0013302217 -0.0020724903 -0.00040170693 -0.0028448682 0.00070147216 0.0013031029 0.00087452645 0.0031705825 -0.0027242417 -0.0030818728 -0.0034557614 -0.0020581365 -0.00078620936 0.0037147081 -0.0008768727 -0.00305536 -0.0037858207 0.0020722593 0.0029678138 0.00044651589 0.00062575284 0.0020336101 0.0029406184 0.0017344503 0.0006413847 0.0013890624 -0.0013393601 0.0014397129 0.0030178176 -0.0022581941 0.00029993692 -0.00091935706 0.0018324391 0.0029138473 -0.00024478527 -0.003203735 -0.0007586699 -0.0027312527 0.0031666916 -0.0022491235 -0.00020452504 0.0004298081 0.0030305164 0.0026153352 0.0002531488 -0.0035648362 -0.00033151297 -0.0036414126 -0.002816507 -0.0013965179 -0.0028380966 -0.0011813967 0.0018585213 0.0023744388 0.0008718542 0.0030832137 -0.0014939487 -0.0028244941 0.003690062 0.0024778196 0.0027825625 -0.0020754624 0.0010148939 0.0010440857 0.0006816996 -0.0012796079 0.0009390699 0.0011710016 -0.0006509099 0.00035171045
79 0.003861719 -0.00012675625 0.0018599619 0.0019367528 0.0034493566 -0.0007386881 0.0022159857 0.0035607629 -0.0028114351 -0.0034119003 0.0005718437 0.0018226694 -0.001784586 -0.0012112398 0.0028978158 0.0026127037 -0.0025794667 -0.00089210743 -0.003200038 -0.0017089038 -0.0036364803 0.0034175252 -0.0024629745 -4.157435e-05 0.0013710381 -0.0015982959 0.000499736 0.00336732 -0.0029165957 0.0033503494 -0.00223005 0.0005182283 -0.00016147373 0.0023762693 -0.0032671816 0.001468783 -0.0021862693 0.0029170979 0.0012477494 0.0017786853 0.0004740064 0.0017621419 -0.0014848887 0.001468822 -0.0034809697 -0.0007514761 -0.0017740462 0.00051757717 0.0010022032 2.921285e-05 -0.0028377217 0.0037554442 -0.0033853005 0.001456466 -0.0028441085 0.000116431955 0.0012547872 -0.0011273397 0.0030107717 -0.0010879228 0.00062519714 -0.0009978047 0.00067478046 -0.0016406551 0.0026222279 0.00030907436 -0.0030068837 -0.001209464 -0.00038914726 7.687976e-05 -0.0011592134 -0.00044682837 0.0015462657 0.001405272 -0.00026304464 0.0010303078 0.0030421528 0.0008622144 0.0032478918 -0.0028265964 -0.0011957637 0.00069544994 -0.0024513688 -0.0022235706 -0.00026857606 -0.003415316 0.0015280567 0.0019874603 0.0010828271 -0.0036433353 0.0034040003 -0.0033619974 -0.0027739627 -0.0005272228 -0.002777698 -0.002819897 -0.002877143 -0.001212999 0.00015174241 -0.0032347185 -0.0026472262 0.0019252814 -0.0027770067 0.0027451986 0.0023765515 0.0022126758 0.0036803822 -0.0022361972 0.0012872134 -0.0035649505 0.0036371148 -0.0006281159 0.00383683 0.0038616923 0.00015703203 0.0020167246 0.001995067 -0.00033152528 0.0008541269 -0.0027991512 -0.0029093376 0.0033798518 0.0038197804 0.003221505 -0.0022184232 -0.0017864804 -0.0017547214 1.8632016e-05
10 -0.0012303554 -0.000849369 -0.00051077455 0.0009988217 -0.0011029 0.00116189 -0.0034197497 -0.0021790827 -0.0019892 0.003782217 -0.00017103433 -0.0038893593 -0.0012360655 -0.0028468743 -0.0014013936 0.0030323078 -0.002023154 -0.0026216463 -0.002567314 0.0029829296 0.0014982509 0.0024750822 0.0038241507 0.0014923733 -0.0025570912 0.0029852812 0.0030529865 -0.0031060136 0.0024346022 -0.002340111 0.00046386998 0.0004110863 0.0016450931 0.0004989336 0.00056787697 -0.0024639769 -0.0020419552 -0.0014000697 -0.0013717376 -0.00325278 0.00047851703 0.0025233773 0.0019338509 0.0022760772 0.0011204062 -0.0022878207 0.00034968293 0.0035452624 0.003088987 0.0010316394 -0.0024485872 -0.0030520586 0.0020297708 -0.0025904255 0.0004912163 -0.0020033526 0.0015989725 -0.0028704153 0.0010582329 0.00013709211 0.0006930648 0.0031169388 0.002926649 -0.0011341503 0.0005372363 0.0017719211 0.0034806272 0.0023925735 -0.0038758863 -0.00010267448 0.0011631976 0.003140713 -0.00053257705 0.003178696 0.001132402 -0.00015909171 0.00035971004 0.00146359 -0.0003837007 -0.000720967 -0.00018984689 0.0017625355 -0.0020393773 -0.0013791416 -0.0015540723 -9.24924e-05 0.002134156 -0.00088611076 -0.0036909012 0.0029090836 0.0031075354 -0.0011935063 -0.001275582 -0.0016056497 -0.0021154026 -0.003654971 0.003520812 0.0026317397 -0.002033284 -0.002335885 0.0037726897 0.0015673906 -0.0007571418 -0.0034391799 0.0006395219 0.0029229906 0.0032346589 -0.0006254021 0.0030546607 0.0016215731 0.0038250214 0.0029682901 -0.0025506974 -0.003250629 0.0033142185 0.0036538464 -0.00028058988 -0.003362292 1.0826383e-05 0.0025250393 -0.00054791494 -0.002072559 -0.0011109939 -0.0017772474 -0.0018988216 -0.0033132187 -0.0029416708 -0.003742937
95 0.0016318847 -0.0022742406 0.0033364033 0.0038829877 -0.00026131884 -0.0035424945 0.002599119 -0.0026353535 0.0030740688 -0.00081169384 0.002676907 -0.003248128 0.00038023957 0.00049940817 -0.0007822464 -0.0031309344 0.00022125673 -0.0023390579 -0.002926928 0.00110302 0.0026092792 0.0028965585 0.0017585381 -0.0034451429 0.0037173966 -0.001182658 -0.002216227 0.0018573035 0.0026744935 -0.0005272146 -0.00079957553 0.002480688 -0.0012437564 0.0012628364 0.0013154217 -0.0013390915 0.0017228218 -0.0038145962 -0.0030222926 -0.0026194833 -0.0031805404 -0.0013091551 -0.0015693353 -0.00032400337 -0.001153928 -0.0018458104 0.0020773925 0.0031092044 0.0033607876 0.0010661602 -0.0017592898 0.0025737078 -0.0023993303 0.0034641547 0.001014048 0.0021144825 -0.0023963184 -0.0012758927 -4.229285e-05 0.0037874617 -0.0024157986 0.0012208079 0.002116509 0.0016678994 0.0027185003 0.0014697218 -0.0015549421 -0.0017088846 -0.0023120798 -0.0017901706 0.0027777005 -0.0037367884 0.002202548 -0.0038523306 0.00010954041 0.0017660825 -0.0030192826 0.0034562517 -0.0033738634 -0.003352995 -0.0025721889 -0.0021827044 -5.0349692e-05 -0.00215261 0.001704526 0.0019723766 0.00020883678 0.0014408559 0.002804114 -0.002208528 0.000516329 -0.0005585522 0.0024344742 0.0012899558 -0.0015787769 0.0019263381 0.00043830165 0.0011198655 -0.0014531739 -0.0020067198 0.0025958219 -0.0037165158 0.0019974576 0.0038972662 -0.0031679769 0.0013360918 -0.00022091519 -0.00055915816 -0.0026827722 3.4843208e-05 -0.0015166064 0.00056386046 -0.0028906553 -0.00019723833 0.0029323911 0.0007208472 -0.0034044033 -0.0026628734 -0.0024611477 0.0033874703 -0.00021392145 0.003000545 -0.0028694754 0.0025748387 0.00077581627 -0.0025050847 -0.002493257 0.00069150334
54 -0.0014314376 -4.65004e-05 0.0027554668 -0.00023709117 0.0020500703 -0.00092296046 -0.0012075804 0.0026890934 0.0030016594 -0.000377543 0.002025919 0.0018868817 -0.0014346918 0.00075559225 -0.0030412523 0.0032567894 -0.0014675331 -0.0038028718 0.0005482009 0.0005265661 0.0027717152 -0.0020597798 0.0020554974 0.0013764991 0.002050632 -0.000499659 0.0023543006 0.0035355238 0.003372109 -0.00379412 0.001586023 0.003671945 8.074383e-05 0.0036574188 0.0015764224 0.0004056406 -0.0017978314 -0.0009847619 -0.00235315 -0.0019857727 0.00014939165 0.0010037578 0.0027909647 0.00092736655 0.0030984324 -0.0014500925 0.00092153944 -0.0007969653 0.0033250554 -0.002428184 -0.0010166845 0.0034227548 -0.0031758484 0.0014522562 0.0007706029 -0.0035257232 0.00047826278 0.0030162765 -0.00095982954 0.0016441854 -0.0026417659 0.0006299736 -0.0029461186 0.003615434 0.0019955456 -0.0024724193 0.0026783904 -0.00038707943 -0.0021163619 -0.0028007473 -0.0032070826 0.002048325 -0.002993686 -0.0028953324 0.0028946588 -0.0014573262 0.003568155 -0.0017460071 -0.0013872756 -0.0023826575 0.001420882 -0.0033948838 -0.0015347449 -0.0019092736 -0.0012657176 -0.0018806908 0.0038683373 -0.0010552742 -0.0034639002 -0.002432961 3.0076319e-05 0.000292269 0.0035351752 -0.0003990224 0.0019418107 -0.0017591616 -0.002380369 0.00046632186 0.00019366074 0.0025597184 -0.0032583426 0.0019173551 0.0020025212 0.0011122407 -0.0025545533 0.00026854099 -0.00017634073 0.0033502292 0.0021770599 0.0014558029 0.0037700257 9.604835e-06 -0.002029025 0.0017114943 -0.0011231723 0.0026754818 -0.0014491319 -0.00210561 -0.00028727914 0.0015390394 -0.00044354348 -0.002702836 0.003368138 -0.0006812316 0.00052100164 -0.002601551 0.00026953104 -0.0011773102
2 0.0034154314 -0.000532074 -0.0028210944 0.00066990574 -0.0028388563 -0.002902133 -0.0033385134 0.0029079802 -0.0027423333 -0.0029714147 -0.0030461834 -0.002577739 -0.0009810382 0.00039257098 0.0018228109 0.0011438053 0.0019444085 0.0029093334 -0.00092581357 -0.003162779 0.0018403885 -0.0038249453 0.0033179887 -0.001456931 -0.002335235 -0.0008680236 -0.0014288058 0.0034091992 0.0026761452 -0.0015059621 0.0038648553 0.00033354104 0.0006932856 0.0015430511 0.0031430603 -0.0005696144 -0.0021456485 -0.002774501 -0.0031839043 0.002512849 0.0011712624 0.0031780917 -0.003670597 -0.002902234 -0.0009091779 -0.0028521342 0.0021699711 0.003746046 0.00015840755 -0.0036915722 0.0012944633 0.0028278187 -0.0034067864 0.0025800094 -0.00050063146 -0.0013537207 -0.0006976117 0.0028626174 -0.0015664668 -0.0036910356 -9.3496565e-05 -4.4850258e-05 -0.0035722607 0.0011613743 -0.0027630269 0.0016578921 0.0031705878 0.0038231863 0.00032159424 0.00066168676 -0.0035080458 -0.0032953671 0.00047572723 -0.00059606374 0.0002266243 -0.0010851148 -0.001610751 4.805779e-05 0.003511092 0.0025218807 0.0007575501 -0.0014952655 -0.0012321323 0.00047859355 0.0028024048 0.0030094201 0.0025860074 -0.0014688926 0.0009994527 7.070454e-05 0.0033870928 0.0003881572 -0.002845259 0.0022817336 0.0008907788 0.0024796852 0.00091175304 -0.003057384 0.0034393303 0.0016220249 -0.00300177 -0.003127971 0.0013169716 -0.001834453 0.003822716 0.0018445182 0.0013044258 0.0017302841 -0.00084456295 -0.0032010819 0.003016548 0.0017912568 0.00086858706 -0.0013009063 0.0011269817 -0.0025649234 0.0019765457 -0.0022611495 0.0011553128 -0.00054517627 -0.003087489 -0.0017720729 -0.0030037912 0.0031878173 -0.0008062445 -0.0003847189 0.0023073955 0.0001287222
41 0.00208085 0.002591486 0.0002524476 0.002999043 -0.00031198421 0.0037502036 0.0013565837 0.003441669 0.0019947619 0.0027823893 0.0017116434 -0.0013168288 -0.0026197552 0.0019230633 -0.003012045 -0.0016042547 -0.0034098316 0.001118757 0.00027513359 0.003517605 -0.0010917116 -0.001968907 -0.0029558078 -0.002536725 0.0027732295 0.00044654025 -0.0031195967 0.0035435061 0.0025453677 0.00010860087 0.0010870851 -0.0036339522 0.0020209898 8.992086e-05 -0.0022600312 0.0030667665 0.0012460324 0.0014809612 -0.0030228505 -0.002353386 0.0006039051 -0.0007780301 -0.0012380664 -0.0031639873 -0.0011199833 -0.0016568066 -0.0021660877 -0.0005095993 -0.00015712225 -0.003498657 -0.00328408 0.0021353154 0.0020264676 -0.0018931914 -0.00032474348 -0.0021168203 0.0014343373 -0.00078103505 -0.0010669992 0.0038009454 0.0012642625 -0.00036472888 0.0013015599 0.00045596948 0.0022378485 -0.002793455 0.0014482341 -0.002085244 -0.0032324381 -0.00042231503 0.0038263693 -0.0022344207 0.0031845644 0.0036066754 0.0034617356 -0.002363023 0.0029221715 0.0002262525 0.003697234 -0.002771745 -0.0002020974 0.0034724781 -0.00032836094 0.0010755699 0.0007956399 -0.0038485718 -0.0014114502 0.00037239454 0.002226337 0.00038329928 0.0023696837 -0.0020919566 0.0030057528 -0.0008412272 -0.0018923405 0.0029715472 0.00387456 -0.0037765899 0.00178675 -0.000622175 -0.0029056058 -0.0032608972 -0.0037198546 0.001038287 0.000771128 -0.00025652235 -0.001670539 0.0028449676 -0.0013582244 0.0027591153 -0.000971587 0.0031321538 0.0015787578 0.0019090829 0.0018777692 0.0023895283 0.0034519238 0.0001188831 0.00185968 0.0014253111 0.0023855506 0.0032311669 -1.2696906e-05 -0.00095245667 0.0035539996 0.0034786346 -0.00031793947 0.00089707813
16 -0.003182646 0.00079673127 0.0001763687 0.00262268 -0.0036942638 -0.001324108 0.003592499 0.0034160072 0.0018934747 -0.0003424776 0.0038790964 -0.0019086068 0.0026431028 -0.003387156 -0.0018061512 0.0010088029 0.0035725574 0.0032634672 -0.0038454814 0.00019158918 -4.118816e-05 -0.0023708341 0.0019437004 -0.0021557957 0.00045599972 -0.0012575089 0.0034238815 -0.0015785625 5.4491607e-05 0.0020799318 0.0008420938 -0.00096003397 -0.0011960752 0.0039002905 -0.0015604766 -0.00013320387 0.0025857675 0.00303505 -0.002563092 0.0027108379 -0.0019863828 0.0029607322 0.00034093534 -0.0015390762 -0.0019448801 -0.0023523173 -0.0036662803 0.002242964 -0.0025923792 -0.0025674703 0.0025183365 0.0038140025 -0.0011227893 0.00010388103 0.0011872125 0.0012487076 -0.0037018256 0.0030810793 0.0021372014 -0.0016371049 0.00039492446 -0.002692713 -0.0023259807 0.0027501995 -0.002369612 0.002827892 0.0017203703 -0.0038976881 0.0023209332 -0.00034354732 0.0021177272 0.0012914534 0.00019426984 -0.0015441176 0.0033777233 -0.0003369455 -0.0025951331 0.0012641932 -0.00302638 -0.00060580845 0.00044275093 0.0007671924 0.0024989261 0.0023556282 -0.0026226554 -0.002359793 -0.0016472549 -0.0017074636 -0.0008077914 -0.00237505 -0.0030136767 -0.0024446507 0.0019092028 -0.0010451339 0.003593178 0.0031129327 0.0022748038 -0.0001334786 -0.003463351 0.0033236353 0.003715825 -0.0020132093 0.00090588856 0.00056830555 -0.0008116828 -0.0028205663 -0.0005543319 -0.0021656572 -0.0019839911 0.0038289598 0.0005976722 -0.0026425803 -0.0008922404 0.003373291 -0.0009064492 -0.00019002167 -0.0020067715 0.0012887456 0.0018505146 -0.0015989321 -0.0025813351 0.0006999146 0.00069982524 -0.0029563236 0.0023350779 -0.0017210678 0.0038250352 0.002497034
92 -0.00059253426 -0.0038610052 0.0006643809 -0.0019544065 0.0020789912 -0.00097611774 0.00048669762 -0.0029096866 0.0013605092 0.0022253015 0.0026949665 -0.0013298279 -0.0015199694 8.640549e-05 -0.00026699356 -0.002815433 0.0025082573 0.0008155201 -0.0015169936 0.002674285 0.0010255307 0.0036928528 0.0034489743 -0.0024362314 -0.0010239725 -0.0020817094 -0.00017941707 -0.0015421133 -0.0037526046 0.0023295006 0.00258469 0.0025163519 -0.0014835255 0.0021400773 0.0027239025 -0.0028972905 0.0032518534 0.0012977743 -0.0005552396 0.0015944217 -3.601335e-05 -0.000629355 -0.00085687847 -0.0035532848 -0.0025900288 0.0008244645 0.003776088 0.0036652926 -0.0037168723 -0.0016009569 0.0008598138 0.0014893994 -0.0019487493 -0.0019684823 -0.0023017423 0.0005799785 -0.0005625671 0.0015687428 -0.0028154743 -0.0014336952 0.0018765281 0.00017961458 -0.0036476 0.0031077762 -0.0021929643 0.002772375 -0.00096363743 -0.002885578 0.0010374025 0.0029856658 -0.00014218673 0.0025624149 -0.0017804648 0.0038269497 0.0006505457 -0.0015525179 0.0009825096 -0.0014295462 -0.002481915 0.0004530386 -0.0018039566 0.00033152307 -0.003440946 0.0016607475 0.00043420127 0.00059550226 0.0011777629 0.0021533477 -0.0012306733 0.0022722934 -0.0035834364 0.00092130026 -0.0015474412 -0.00018323629 -0.0023600424 0.0033978452 0.0008836614 0.00050041144 -0.0019584051 0.0011223349 0.0034072718 -0.001079645 -0.0024346914 0.0032836017 0.0011810848 0.00071950036 -0.0004426658 -0.00023464335 0.0035116868 -0.0035167017 0.0011909585 -0.0037962315 -0.0028686197 0.002979725 0.0004998644 0.0015415087 6.7022214e-05 -0.00042325997 0.0010893346 -9.194954e-05 -0.00080175564 0.00066132547 -0.00052646315 0.0027222545 0.0012435713 0.0022757605 -0.00053501845 0.00061364955
31 0.0034727359 -0.0018604968 -0.0035756445 0.003844154 -0.0012412064 -0.0003100531 0.0033562917 0.0008703554 0.0037968676 -0.0020843816 -0.00076597295 0.0032808746 -0.003083887 0.0032566364 -0.0032508078 -0.0011070278 -0.0011553438 0.0013628775 -0.0005299363 0.00013874135 0.001992594 0.0019503246 -0.0030788297 -0.0013742746 0.0030726849 0.002719233 0.0034015775 0.0004249656 0.00038304026 -0.00039894017 -0.0014619229 -7.331238e-05 0.0023543956 -0.0007968757 -0.0016897322 -0.001979217 0.0025401295 0.0018292218 0.00049764616 -0.0016291298 -0.0008653912 -0.0019352201 0.0018901929 -0.0010244822 -0.003750862 -0.0010325348 0.0013779948 0.0033468462 0.0034862522 -0.0027598015 -0.0017142924 0.0003382292 -0.0014357027 -0.0015173127 0.0034373263 -0.0024128691 0.0013346168 0.002674325 0.00047355326 0.003275834 0.0004618632 0.0023026667 -0.00032815008 0.0037239252 -0.0016885317 0.0016066788 -0.0010508818 -0.0014467372 -0.002025183 -0.001469122 0.0032940498 -0.0012931674 0.003390183 0.0018304021 -0.0034268976 -0.00066612597 -0.0038717529 0.003654499 -0.0021871051 -0.0032144757 0.0021539791 -0.00090363546 -0.0026642138 -0.0038168777 0.0029620412 -0.002823772 0.0033981178 -0.002133987 0.0013420421 0.00057997054 0.0017798173 0.0005536315 0.002609476 0.00055925275 -5.9801423e-05 0.0030557201 -0.0023305325 -0.0018878151 -0.0033138786 0.00092390674 -0.003287406 0.0025049055 -0.0007529776 6.122748e-05 0.0020543057 -0.0031561218 0.0005856105 -2.8244456e-06 0.0009365578 0.0013461508 -0.001625668 0.0012855765 -0.002675816 -0.00017912709 -0.00094270473 0.00086587114 0.0031112714 -0.00070130656 -0.0032733087 0.00080551667 -0.00029584544 -0.0022547648 -0.0021690181 0.0035661845 0.0016507003 0.0019733375 -0.0021599776 0.0024782976
48 0.0017814719 0.0001424361 0.0030338066 -0.00087584567 0.003665054 -0.00074175355 -0.0038359 -0.0018283859 0.0031574306 -0.0025988535 0.002355499 -0.0019292657 0.0001329044 -0.0014077626 0.0028676437 -0.0019334629 0.0016719179 -0.0034080248 0.0018862612 -3.5224475e-05 -0.00037196896 0.0022215007 0.002815305 -0.0029260882 -0.0034789254 0.0012538477 -0.0030174295 0.00039743294 0.0015535369 -0.0030367612 -0.0024874408 0.00078998465 0.0003515712 0.00050556444 -0.0008535592 -0.0018476123 0.002572498 0.0016977526 0.0034436428 0.0032093944 0.0028781132 -0.0012786238 0.0018721092 0.0036791032 0.002733849 -0.0010696145 0.0027480044 -0.000556612 0.002197643 0.003725339 -0.0027461946 -0.0007834013 -0.0032565717 0.0015342527 -9.9702396e-05 -0.0035684234 0.0016897618 0.0035974877 -0.0026655963 0.00037234448 0.0007866904 0.0030229255 -0.00039633902 -0.0013706423 0.0032590812 -0.0025090259 -0.00011500336 0.0033860996 -0.0026178134 0.0031947852 -0.001224072 -0.0012449583 -0.00035616843 -9.201995e-05 0.00093793555 -0.0014390153 -0.0026591548 -0.0019650816 -0.00051035214 -0.0018745367 0.0028895715 0.002285402 0.0036791207 -0.00352538 -0.0027283086 0.0023979053 0.00080990704 -0.003610686 0.00034400186 0.00025861236 -0.003047619 0.0030064238 -0.0031783993 -0.0014227041 0.0014212662 -0.0013184051 -0.00084253633 0.0038803427 0.0020313952 -0.0038641798 -0.0031019074 0.0017394333 -0.0017351989 -0.0032001825 0.0014065775 -0.0027277651 -0.000648194 -0.0021820853 0.00064308284 0.0018434834 -0.00024997475 0.0018913009 0.00298959 0.0029305045 -0.0018114718 0.0013813548 0.0036390412 -0.0025219626 -0.0024379455 0.0033412864 0.0016708609 -0.0018249308 -0.0030134476 0.0031977342 0.00043325275 -0.0032663126 0.0025942214 -0.00034045486
43 0.0023586045 -0.00074452726 -0.0012716976 -0.0014590371 0.0030726176 -0.0003593804 0.00022324611 0.0034269132 0.0011473194 -0.0035465937 0.0026509997 -0.0038135326 0.00028136195 -0.0022990021 0.001457028 -0.0011522582 -0.002044424 -0.0010551984 -0.0017018188 -0.0008189223 0.0011652753 0.0030265958 0.0011713983 0.00044966422 -0.0021484457 -0.0029556567 0.0034530705 0.0035837435 -0.0010569708 0.00067893515 -0.00091408537 -0.0029353658 0.0011213156 0.0035243786 -0.0010020415 0.0031610779 0.0010940765 0.003508561 -0.0029627706 -0.0027175331 0.00086140167 -0.0003092676 0.002155701 0.0014122183 0.0026488532 0.0011669634 0.0006069557 0.0032292574 0.0018201623 -0.003447065 -0.0014349727 0.0036170194 -0.0028927063 -0.002107349 0.0013838587 0.0026041155 -0.0016974004 0.003480967 0.00068541977 0.000995504 0.003584249 -0.0028099103 -0.0005332892 -0.0033187834 0.001830834 -0.0009798367 0.0009429664 0.0033555282 0.0035706528 0.00023314208 0.0019774048 0.0024322444 -0.00056344044 0.0019190827 0.0023947717 -0.002329123 0.002471841 0.0014228905 -0.0031385864 -0.0020079892 -0.0012602332 -0.0012539779 -0.0024613293 -0.00092412136 0.0011772636 0.003783321 -0.0036055294 -0.0012327009 0.00096459576 0.00027427988 -0.00019145709 -0.001488261 -0.0027297328 -0.0021580914 0.0017167423 -0.0019000979 -0.0022304687 -0.0020080437 0.00082048116 -0.002406623 -0.0020922448 5.9926908e-05 -0.0031941987 -0.0013169608 0.0020245602 0.001306309 -0.0005723887 0.003325824 -0.00094809936 0.001435835 0.0006296511 0.00011630197 -0.0025206495 0.0027388567 -0.0034711375 -0.0006040666 -0.0023096232 -0.0023671042 -0.0020307554 -0.0011516617 -0.0012635236 -0.0022683037 0.00049294217 0.00072216935 0.0015450763 -0.0004703801 0.003526277 -0.0028132335
52 -0.002235878 -0.0006505004 0.0038407822 0.0030313572 0.0024193942 -1.0910767e-05 0.0028853742 -0.0008352736 0.0034671011 -0.0031693066 -0.0007629909 0.0011327071 -0.0018465134 0.0033047 -0.0034545953 0.0031610755 -0.0031745343 0.003315758 0.003100013 -0.0003937426 0.0005923859 0.0014305526 -0.0009053613 0.0037172663 0.00045755593 0.0029579485 0.0033049788 0.0022521722 0.0028710528 -0.0025941208 0.0025301185 0.0031834706 -0.0038759455 -0.0012025697 0.0019156121 -0.00065522565 0.00012835888 -0.003331436 -0.0032852897 -0.0034433731 -0.0019274002 0.0011871933 0.00030986368 0.0030444302 0.0011825522 -0.0031786135 -0.00079860265 -0.0019264014 0.0023443503 -0.0033979933 0.0006788669 -0.003302454 -0.00018707657 0.0015548564 -0.0017261264 0.0029246807 0.0022725791 -0.003311503 0.0015230887 -0.0022291725 -0.001583936 0.0038528591 0.00011053546 -0.00016156185 -0.0021697572 -0.0036062766 -0.0006481223 -0.0034501376 0.002135561 -0.0002721636 0.00050059124 -6.98394e-05 -0.0015429015 -0.0018839176 -0.0029905024 -0.0022728113 0.0016552949 0.0029184753 -0.0034404725 -0.0022421284 0.0032856578 0.0035913913 0.0032768357 0.00068957027 0.0038486982 0.0035151609 -0.0006695251 0.0011151049 -0.0012429839 -0.0027366076 -0.00070787716 -0.00066005887 -0.00092608656 0.0032039497 0.002657086 -0.0023079356 0.00065202435 -0.0036381735 0.0022935169 -0.001263624 0.0011698103 -0.0035294055 0.0029724757 -0.0004902365 0.0023243285 0.0023763154 -0.0031513006 0.00081931835 -0.0024592308 0.0010036189 0.003262355 -0.00084440137 -0.0021785584 -0.0011690485 0.00072437414 0.0028730088 0.0012086208 0.00021320317 0.0018607876 0.0035044702 -0.003458829 -0.0015992691 0.0020580024 0.00013891808 0.0015217614 0.0022919672 -0.00160601 0.00031635736
39 -0.0010379379 -0.003097869 -0.00072367396 -0.0021968638 0.002472826 0.0011663714 0.0006699808 -0.00028126367 -0.003816784 -0.0007203001 9.934283e-05 -0.003774353 -5.33568e-05 -0.0009938377 0.001772052 0.0010650503 -0.002656621 -0.0024130647 0.00046382676 -0.0028597445 -0.0010342003 -3.6497586e-05 0.0033078298 -0.0023349463 0.0023091086 -0.0032900851 -0.001468126 -0.0001757822 0.0028636712 0.0038716923 -0.0007439056 0.0022220595 -0.0035188708 -0.0024243586 0.0015393591 0.0027246606 -0.0021904225 -0.0031623857 0.0034186682 -0.0034247409 0.0016839665 0.0012834962 -0.0019743452 0.0021628141 -0.0030305411 -0.0032891734 0.00045911613 0.00043330458 -0.0015059446 -0.0035049436 -0.002974831 -0.0015666909 -0.0029156527 -0.0019597574 0.0026587243 -0.00019493562 0.0017308177 0.003861998 0.0007828864 -0.0015059074 0.0030031307 -0.000929298 -0.003224904 0.002874603 0.0031156584 0.0011964721 0.0029345674 -0.0003533626 0.003832611 0.0005782405 0.0019750472 0.0038486626 -0.00035487144 -0.002932422 -0.00078040134 0.0011638032 0.0030366585 -0.0033104308 0.0035877973 0.0036370235 0.0010019145 -0.00015958451 0.0024024334 -7.473171e-05 0.00048268845 -0.0015661092 -0.003337666 -0.001982217 -0.0025652214 -0.0019677805 0.0027381 0.003340149 0.002596494 0.003531571 0.0010824547 0.0014323412 0.0014593112 0.0008059051 0.00088520185 -0.0030828218 0.002992602 0.003877238 -0.0013951396 0.00050284923 0.00037375948 0.0037620086 -0.0027927358 0.0019647614 -0.0011394897 0.002983103 -0.002997131 -0.0032624854 -0.0009832759 -0.00088229537 -0.0026574996 0.0001550254 -0.0028559905 -0.0012069956 -0.0009173677 0.0018772255 0.002982623 0.0037349537 -0.0029315331 -0.0012419387 0.0015721819 -0.0006942508 -0.0036349813 -0.0012857161
24 0.0009831114 0.0027489543 -0.0037499964 0.0031995934 0.0011457552 0.0027916147 -0.0015132135 0.003113378 0.0012684986 -0.0017056804 -0.00037293584 -6.721537e-05 -0.0006561292 0.0017703596 -0.0024898618 0.00078908546 0.0032071318 0.00045298302 0.0008966223 0.0022063858 0.00162384 -0.0009924322 0.003186823 0.001102428 0.001107649 0.0029370417 0.0017819736 -0.00010917123 0.0014801243 -0.0008893524 0.0037465252 -0.0037333975 -0.0011915416 -0.0032291254 -0.00071121205 0.0025461053 0.0019155124 0.0006425459 -0.0013587866 -0.0034655796 0.0032216946 -0.0024886641 0.0022896754 0.003564302 0.0016508626 0.0036917746 0.0029869366 -0.002881732 0.002244034 -0.003349513 -0.0030190968 -0.0012764462 0.001786492 -0.0016326815 7.314118e-05 0.0034932138 -0.0021199589 -0.0037675698 -0.003784181 0.0024943089 -0.003589485 0.0013178543 0.0018329644 -0.003854352 -0.0027269835 0.0033511962 -0.0024445371 0.00015185466 0.0005316298 0.0007311163 0.0017310497 -0.0015547364 -0.0025908188 -0.002468017 0.0026038948 -0.001429942 -0.0036224003 0.0009718239 -0.0023921998 -0.0011500121 -0.0017730232 -0.0004997652 0.0029308486 0.0025231028 0.001971583 0.0015811371 0.0003421432 -0.0014808122 -0.0012223264 -0.0015095815 0.001249876 0.0022102352 -0.0033019597 0.0030960434 -0.0035403627 -0.001049616 -0.0009652707 -0.0021950256 0.00062160566 -0.001339913 -0.0014335423 -0.0015916247 0.003880889 -0.0005743543 -0.0014646205 0.0006458795 -0.00051643036 -0.00024594873 0.0013279269 -0.0026362196 0.0038723822 0.0023553038 0.0027914795 -0.0009848443 -0.0020181013 -0.0019205916 0.0019788493 -0.0007348037 -0.0035442486 -0.0038464968 -0.00033531614 0.0028422293 0.001985649 -0.002539394 -0.0004607056 -0.0027839104 0.0028494427 -0.0033723684
67 0.0032611145 -0.00030684218 -0.003230448 0.0029980426 -0.0034905295 -0.0022102445 -0.0034995554 0.0027494526 0.00045991904 0.001810166 -0.00095955003 -0.0011571951 -0.0014652208 -0.0009647676 0.0026174102 -0.00048514057 -0.0015888436 0.0015467571 0.0018266288 0.0012071297 -0.0017997 -0.0033913332 -0.0021724843 0.0038453203 0.0017433903 0.00075309695 -0.0006186631 -0.0030289812 -0.002512787 0.0005602062 -0.0032346167 0.0028706403 -0.00014008475 0.0019462116 -0.0010156273 -0.0016679772 0.00050565007 -0.0011438129 0.0020554126 0.0030233355 -0.0028401357 0.0019723154 -0.0009475602 0.0029385758 -0.0016286271 0.0030706828 0.0007997084 -0.003536949 0.0018280112 0.0034362737 0.0011112291 0.0005961463 0.0019864158 -0.00029468272 0.0019485741 -0.0033650026 0.0029670375 -0.0031185169 -2.5354468e-05 -0.0012316942 -0.0026707689 0.0022533848 -0.0026018687 0.003651766 0.0029007948 0.0018321947 0.0038053535 -0.0011326695 -0.0012186489 0.0029990843 0.0004517939 -0.00086430967 -0.00022933315 -0.0005938276 0.0015122894 -0.00029086304 0.00092278153 0.0011317973 -0.0025054896 -0.0037620792 0.0017812473 0.0015430168 4.0097842e-05 -0.0004900665 -0.0003283856 -0.0023366206 0.001590241 -0.0013686412 0.0024810422 0.0026912908 -0.0021812445 0.0026390096 -0.0030985842 -0.0013371787 -0.0012467494 -0.0033733284 -0.0029491878 0.0030321698 0.00093121035 0.0027345507 0.0038970937 0.0036346135 -0.0010837127 -0.0021083087 -0.002197392 0.0003475336 -0.0006546111 0.002081944 0.0014172076 -0.0019454248 -0.0017576932 -0.0020586108 0.00067297934 0.0010184993 -0.0024757455 -0.002049948 0.0032236043 -0.0014461917 -0.0005828886 0.0023687899 0.0020662418 0.0033496802 0.00089772866 -0.0027689536 -0.0018811796 -0.0014482939 0.0024076123 -0.0029835308
6 0.0008410633 -0.0025761714 0.0013784912 0.0019824794 0.00069004693 -0.0033806318 -0.003199541 -0.0011958239 0.0037093093 0.0022412809 0.0009378008 -0.0031519262 -0.0027785394 -0.0011915489 0.0009032349 0.0015031856 -0.0030377218 -0.0026750348 0.0027839006 -0.0012934795 0.002506383 -0.002656633 -0.003202527 -0.0011181356 0.00031174385 0.000380631 0.00046103253 -0.0021268746 0.0036170406 0.0006726699 0.0023730737 -0.0028989608 -0.0003411661 0.00019488558 -0.0015348726 0.0025526208 -0.0031238396 -0.00078064675 -0.0025762052 -0.0028976672 -0.0034595078 0.00010175407 -0.0009587897 0.0037000927 0.00023610369 -0.0034078546 0.0026409798 0.0032789027 0.00018458554 0.0006282622 0.000500853 0.0023260757 0.0025662084 -0.0012659399 -0.0036937105 -0.0019139267 0.0016647363 0.0032453549 -0.0025534092 -0.0019293037 0.00024364301 0.0025987292 0.0013974482 0.0008337296 -0.0031821753 -0.0009173784 0.001997713 0.0013955705 0.003090736 -0.0022833452 0.0024378586 0.0021442634 -0.0011127406 -0.0024122407 0.0019966406 0.0013864873 -0.0015146178 -0.001313297 -0.0024981669 -0.003154995 0.0022158998 -0.0010309094 0.001069317 -0.0020453164 0.0034239406 -0.002650758 0.00096379773 -0.0022284384 -0.00096906954 -0.00040670406 0.0020752007 0.0013656205 -0.00294906 0.0028840643 0.0008857344 0.0034875716 -0.0028501488 0.0027339987 -0.0028766699 -0.0020523337 -0.0027631323 0.0008362303 -0.0009090362 -0.0013099696 -0.00034088036 0.001937121 0.003302231 -0.0023095652 -0.0022013346 0.0031215777 -0.0005493485 0.00027802968 -0.0034730406 0.003327101 -0.0015383703 -0.003337729 -0.0025449635 -0.00033134327 0.0005017251 -0.0013672953 -0.0014359731 0.001339068 0.0015292405 -0.0026987991 0.003851703 -0.0029512206 0.00065705716 -0.002812662
32 0.0027810673 -0.0038867637 0.0007236636 -0.0023910983 -0.0034134355 0.0018836849 -0.0006173169 0.0022890696 0.0036473256 0.0007113379 0.001044186 -0.003062205 0.0017828486 -0.0034292457 -0.0018346923 0.0037899786 0.0026637756 -0.0032092957 -0.00072729203 -0.0036479295 0.000909113 0.0022800707 -0.0019906242 -0.0037783985 0.0038501346 0.0013876582 0.0016135102 -0.0011095585 -0.0038504482 0.0019782116 0.0025941136 0.0028930865 -0.0017585777 0.0014692363 -0.0008873589 0.0033571653 -0.00090905034 0.0006833862 -0.0034062993 0.00050800823 -0.0027429601 -0.0020039305 -0.0016077681 -0.0020483912 -0.0031692565 0.0031412004 -0.0038280739 0.00025410918 0.0031799409 -0.0003193298 -0.0013402759 -4.1583113e-05 -0.0026971907 -0.00056710426 -0.0019344029 0.0009211436 0.00018833605 0.00021523618 -0.00223971 -0.0036550546 0.0027810836 -0.0021398207 -0.002499004 0.003487764 -0.0032677383 -0.0018340101 0.0020773257 -0.00068210793 -0.0012973426 0.0006470376 0.0033146425 0.0032111786 0.0038816645 0.0013829782 0.0019493144 0.002179234 -0.0021974118 -0.0017232776 0.0010527953 0.0030470383 0.0012521344 -0.0019922417 0.0030078455 -0.003837527 -0.0019948715 -0.0013470433 0.003513846 -0.0013209702 0.0038829893 -0.0023249784 0.00067171874 0.0007808886 7.847886e-05 -0.0036478883 0.002625757 -0.0006061677 0.0031129 0.0025634242 0.0009114744 -0.0013124302 -0.0006458237 0.0017376111 -0.0036769046 -0.002689776 -0.00031029797 -0.0005756559 -0.0033350878 -0.00049075607 0.0015877552 0.003817779 0.0010622153 -0.00239615 0.003326395 0.001981863 -0.0013545407 -0.0010391135 0.00052154146 -0.003827345 -0.003204756 0.0027712286 0.0008693205 1.7490931e-05 -0.0031325694 -0.00081897556 -0.003545314 0.0016019855 -0.00082757906 0.00063016475
71 -0.00037724996 -0.0029688454 0.0016518352 -0.0030178337 0.0007230676 -0.002167223 -0.0017581935 -0.001984666 0.001500256 -0.0034475455 0.0005756934 0.0015570485 0.0004440788 0.0004562849 0.0022559648 -0.0028431888 0.00024129615 0.00048636147 0.0023195785 0.00053733005 0.00050621084 -0.0010896014 0.0029713812 0.0022764818 0.0039034989 0.00036443837 -0.00030568225 0.0006916434 -0.0022868963 -0.0021383476 -0.0020831032 0.003168012 0.0010631845 -0.0028689892 -0.0031703254 -0.0005145957 -0.001523523 -0.0026953511 -0.002470233 -0.0013619727 -0.0034934506 -0.0030816416 -0.0017872624 -0.00044661373 0.003108268 0.0016337244 0.0006361056 -0.0036709637 0.002843817 -0.0010596594 0.00056180987 -0.002865918 0.0013799103 -0.0032226772 -0.003215117 -0.00027418986 0.0012797144 0.0033021453 0.0006376678 -0.0016554404 -0.0018735749 -0.0013454309 0.0014603346 -0.003057078 0.0024339622 -0.002632323 0.00015880972 0.0020193306 0.0016902693 -0.002545672 1.6249126e-06 -0.0031553458 0.0035744342 -5.0894156e-05 -0.0027338364 0.0008816352 -0.00078591064 -0.002986832 -0.0022014 -0.003485708 0.00049944455 -0.0003662325 0.0011288676 0.00076616433 -0.0027811765 0.002708526 -0.0013820649 -0.00046029084 0.0030339516 -0.003835193 0.0027477485 -0.0010529491 0.0033889 0.0026126863 7.94205e-05 -0.0023180982 0.003759462 0.0028387813 0.0036725944 0.0034561637 -0.0020568569 0.0016721882 0.0015480289 -0.00074146374 0.00010686136 -0.0035763006 0.0037237278 0.0031280683 -0.0027117126 0.0027165513 -0.001419894 0.0035300292 -0.0032544732 -0.0034047575 -0.00088499364 -0.0036671336 0.0012713883 0.0011485331 0.002084566 5.7166664e-05 -0.0032994538 -0.0027459234 0.0027048662 -0.0031707934 0.003018135 0.0009518899 0.00019090666 0.002395612
29 -0.00057577813 -0.00029559262 -0.0010484289 -0.002924039 -0.0030888866 0.003585381 0.0032888048 -0.0009742835 -0.0006076947 -2.0464178e-05 0.0014869286 -0.0028016 -0.0006732113 -0.0024964858 -0.0016923312 0.0021827773 -5.357184e-05 -0.00085319416 -0.0014406494 0.0007072943 -0.0020636139 -0.0010170243 0.0026754492 -0.0014665602 -0.0017691106 0.0036607208 0.0020749636 -0.0002243166 0.0038190887 0.002482571 -0.0026641767 -0.0005363477 0.0001370482 -0.0025759013 -0.00067803735 -0.0030015206 0.00047468574 -0.0016970672 0.0034974562 -0.00021640402 0.0011621863 -0.0027376302 -0.0033182597 -0.0015493027 -0.0017854208 -0.0015612816 0.0019238521 0.0025366447 0.0022424539 0.0013806564 0.00087855215 -0.0014908735 0.0024381129 0.0015141235 0.0009940811 0.0011736008 -0.0001861566 0.0029887545 0.002444733 -0.0029077483 -0.0017123726 0.003828404 -8.156857e-05 -0.0027095256 0.0027246273 0.0019929332 0.0001532939 -0.002310029 0.001032927 -0.002662294 0.0019332417 -0.0027827774 -0.0014967398 0.0017649782 -0.000752056 -0.0008286841 -0.00019741678 -0.0012340081 -0.0005519003 -0.0014979732 -0.0010572353 -0.0004347635 0.0018892178 0.003599784 -7.020577e-05 -0.0023686888 -0.0028962572 0.002623544 0.0018926013 -0.0018734867 0.0036466534 -0.0037513839 0.0018030079 -0.002545675 0.0013105387 0.00080527546 0.002805625 0.0011522833 -0.0030930433 -0.001631432 -0.0034391503 0.0018368406 -0.0038311975 0.001819829 0.003398828 0.0020410183 0.0013617276 0.0030248475 0.0028246897 0.0005310741 0.0027297162 -8.22132e-05 0.0038198736 0.0025259864 -0.0015127626 -0.0031709052 0.000883501 -0.0022610228 -0.0026194747 0.00144614 -0.0026466849 -0.0022014405 0.0001665414 -0.002752467 -0.00023652196 0.0032828827 -0.0029066463 0.0029727996
36 0.0036416869 -0.0011304611 0.00384216 -0.0029657613 0.0025868441 0.0013088043 0.0030900708 1.3597213e-05 0.0016016425 -0.0033551247 0.0018001676 0.0034581095 0.0010717195 -0.0034189934 -0.0039000597 -0.0004856218 -0.0004948155 0.0013733659 0.0014402792 0.0022607294 -0.0020342742 -0.001008363 -0.0020472053 -0.0032498247 -0.0025395597 0.0033198348 0.0007310026 0.0003776067 0.00086608506 -0.0024715858 0.0037490511 0.0035727357 -0.002637672 -0.002887491 0.0003947922 -0.0004598137 -0.00027985498 -0.0007380907 -0.0013076992 0.00033733711 -0.0015220427 -0.0037334107 -0.0033375719 -0.0037682622 0.0031754717 0.0030803755 -0.0011383983 -0.0012309134 0.002357323 -0.003742507 -0.003286605 0.0032456645 0.0035672977 -0.0030530933 0.0004326688 -0.0036977152 0.0018926786 -0.0027665065 -0.0018814524 0.0035998623 0.00021371432 -0.0031046805 0.0015619601 0.0021578236 -0.0013601499 -0.000858244 -0.0010092912 0.00062381406 -0.0026059176 -0.0005511894 -0.0011517314 0.00049743697 -0.003543448 0.0033433982 -0.0015728964 0.0037505256 0.002901448 -6.172905e-05 0.0032470431 0.0007719603 -0.0005012804 0.0026377006 0.0019761794 -0.0021379413 0.0018335589 0.002636849 -0.00083869306 0.0021715467 0.0020204165 -0.00325739 -0.0015311757 -0.0020875544 0.00044359075 -0.0020794705 -0.0017055536 -0.003190058 0.0026288398 0.0011355657 -0.00054184237 0.0026022028 -0.0014055296 0.0037752066 0.0036938488 -0.0024590504 -0.0035254862 0.0036522942 -0.0025951162 -0.0029723058 0.0017329124 -2.8199624e-05 0.0037638093 -0.0017007405 -0.0030840323 0.0027521355 -0.0021817791 -0.0017211024 -0.00053666154 0.0028552108 0.0007938656 -0.0029519342 0.0032617047 -0.0014437579 -0.00048180268 0.0019106412 0.0018104753 0.0012147498 -0.0034139436 0.0013133984
57 -0.0010480253 0.0015185401 0.0015896092 0.0029593816 -0.002285107 -0.0010477891 3.8458275e-05 0.0010137096 0.00025351514 0.003631002 0.002159895 0.0017933426 -0.0024626863 0.0037613618 0.0012485931 -0.0031862417 0.0016263278 -0.0017901327 0.0024055375 0.0024970951 -0.0017751001 -0.0029214693 -0.00032368628 0.00076264027 0.001260821 -0.0012707722 0.0034048487 0.0038356162 0.0017059012 0.00041439832 0.002713492 0.0027465243 0.00028242535 0.002550159 -0.0026922347 0.0014222623 0.0021732314 -0.0011505169 -0.0024447208 -0.0007700239 9.640519e-06 -0.0032646805 -0.00075932784 -0.00043861687 0.0012857836 0.0031194084 0.002259305 -0.001101368 0.0002107556 -0.0015478688 0.003856784 0.0023781795 -0.0021875668 -0.0037583644 0.0027778847 0.0024159343 -0.0026993365 -0.0016906227 -0.0034191224 0.0007509047 0.0029115737 0.0027282464 0.0017044386 0.0030601942 0.0021813847 -0.0015417186 -0.0012123077 -0.0034724225 0.001259684 0.0028060214 0.0037865296 0.0036852404 0.00024902998 0.0028684512 0.0014489406 0.0008718827 0.0037274675 -0.0011148856 0.00035808046 -0.00022584666 -0.0013733695 0.00089230214 0.0036934565 -0.0035469304 0.00195473 -0.0024095527 0.001364447 0.0005492149 -0.0014001267 -0.0031858862 0.0019735415 -0.0021861338 0.0010614829 0.0023949745 -0.0027102584 0.0016689824 0.00298091 -0.0015244057 0.0004027681 -0.002903072 -0.00061240635 0.0017085338 -0.0019666734 0.0035130961 0.0017891083 -0.001639875 0.0029440753 0.0038718146 0.0033603562 -0.00026188008 -0.0031101103 -0.002368004 -0.0012009628 -0.0038061398 0.0015198472 0.00028034637 0.0031212368 -0.00074657117 0.00032363154 -0.0008152031 -0.001980972 0.0021226772 0.0013038393 0.0013872168 0.0020959813 0.00043976784 0.002836386 0.0034907763
17 -0.0018239564 -0.0028457402 -0.0032718803 0.0030466956 -0.0025852812 0.0016746771 0.0023093894 0.0038193134 0.00052960665 0.0025374051 -0.0018562 -0.0009579948 0.003322302 0.0021944137 0.0036998044 -0.0014378496 -0.0015905423 -0.0026841953 -0.0013964121 0.00032901138 0.0033305893 0.0004876654 -0.0036311764 -7.995504e-05 0.0022957192 0.0005882522 -0.0023758458 0.0016742648 -0.0018243161 -0.0015697951 -0.0028355513 -0.0002686223 0.00055089814 0.0005229851 0.0017000401 0.0018468733 -0.0026770614 6.8449845e-05 0.0021428433 0.0006858944 -0.002343388 0.0010053423 -0.0035567794 -0.002678209 -0.0011457958 0.00013917167 0.0038697738 -0.0023509855 0.0012659178 0.0028553938 0.0037284184 -0.0005631507 0.0022012617 -0.0008068434 -0.0013790103 -0.0010793977 0.0021217621 -0.000112768284 -0.00082184805 0.0025173535 0.0037579217 0.0035890627 -0.001632837 0.0014897306 -0.003362786 0.00076989754 -0.0034722583 -0.0029169752 0.0033169389 0.003665467 -0.0018770953 -0.0037036175 -0.003268929 0.00018077779 0.00044736103 0.002831082 -0.00026173398 -0.0019773399 -0.0014177677 -0.0018028844 0.0022097286 -0.0024551016 0.0034896585 -0.0005862978 -0.002459705 -0.0012684244 0.0009068337 0.0037058303 -0.00045204762 0.00031665643 -0.0023432751 -0.00046054515 -0.0018956859 0.0024917005 0.0025538953 0.0029108932 0.00052955194 -0.0028522993 -0.00047898042 0.0015894431 -0.0038011784 0.00040772095 0.0019034832 0.002925396 -0.0028885663 -0.000110230525 0.0016779088 -0.003482354 0.0021831885 -0.001925289 0.0038347673 -0.0011737039 0.003870994 0.00027199383 0.0027596871 0.0008480215 -0.0026086424 -0.00062244065 -0.0027971007 -0.00094906957 -0.0034457184 0.00380152 0.0010779375 0.0009488327 -0.002821249 0.00091518165 0.001188847 -0.0013168576
