96 128
37 0.0007674871 -0.0017941225 -0.003052711 0.0013541693 0.0027095273 -0.0020077524 -0.0038440365 -0.000986477 0.002967005 5.122625e-05 -0.0032166818 -0.00015552973 -0.00073433784 0.00018379091 -0.0019192145 0.003038778 -0.003876192 0.00020211714 0.00083841255 -0.0006732877 0.0010176767 -0.001572289 -0.0037458984 -0.0022073432 0.0004917354 -0.0036236804 0.00043869123 0.0036948207 -0.0009553733 0.0018631909 0.0020470396 -0.0019999533 0.0019968979 -0.0010204369 0.0005780838 0.0021873536 0.0038730612 -0.0036794203 -0.0030675824 0.00014415056 -0.0023036648 -0.0013583058 0.0022547808 0.00062800397 -0.0031690763 0.0025157307 -0.0020656693 0.00067021267 0.0016620243 -0.0012014009 -0.0029107055 -8.127659e-05 0.0022097293 -0.003076318 -0.0015963871 0.001625992 0.0007337557 -0.0014177331 0.0026597797 -0.0020449662 0.0037541892 -0.0026065349 0.0035301822 0.0033771028 -0.0038319898 0.0021660484 -0.0024800578 -0.0022640573 -0.0016721888 0.0029565936 -0.002087656 -0.0019293593 -0.0014613296 0.0029283254 0.002507032 -0.00088733603 -0.0009961235 -0.0028441756 -0.0021941445 -0.0001765517 0.0034837956 0.003492326 0.0032310528 0.0030694772 -0.00043237378 0.0010055909 -0.00022257863 -4.5847373e-05 0.0033091784 0.0030539453 0.002407967 0.0025682957 0.0027254694 0.001743406 -0.0030928915 -0.002966247 0.0032979501 0.0010601685 0.0016358976 -0.0011291732 -0.0015793621 0.0030161375 0.0031282746 0.0035568548 0.0008980557 0.0016245404 0.002587625 -0.0001017002 -0.0018146265 -0.00056809746 0.002656024 0.002051104 -0.003274643 0.00057655695 -0.0033666645 0.0030129459 0.0032012626 0.0038077876 0.0027981624 -0.0008509574 -0.0017707983 -0.0028117367 -0.003719828 0.00013961372 -0.003284933 -0.0035411862 0.00056495576 -0.002341398
46 0.002860363 0.0018678769 0.0005784528 0.0017110007 -0.0029813321 0.001435344 -0.0018767571 -0.0038000569 0.0007425141 -0.0014695455 -0.0035873535 -0.0005557918 -0.00027939247 0.00020867224 0.0032343431 -0.0018508913 -0.0026344813 0.0009845783 0.0019659745 0.0003339275 0.0014407956 0.0031004094 0.0021282472 -0.0035982626 -0.001853319 -0.0010587709 -0.0017841676 -0.00032827686 -0.00012649973 -0.0007748243 -0.0014336915 -0.0020605105 0.0029371842 -0.0029614517 -0.00029975036 -0.00051867665 0.0016956503 -0.0018537451 -0.0031325193 0.0030357924 -0.0012620651 0.0023600138 -0.002304874 0.0011635028 0.003232526 -0.00068041653 -0.00068575295 -0.0018593874 -0.0012132842 0.001581574 0.00039494387 -0.0027766193 -0.0009398291 -0.0015864634 -0.00066390366 0.002574197 0.0009771356 -0.0004705796 -0.000798495 0.0035818361 0.00054673833 -0.002712031 -0.0031740675 -0.0027025167 -0.0036563303 0.0014833065 -0.00040094813 -0.0010461529 -0.0019030015 -0.0029484648 -0.0036035727 0.0026756064 -0.0021987695 0.003675427 0.003027276 0.0029430434 -0.0011560146 -0.0002774259 0.0017625721 -0.0013929261 0.002907195 -0.0029380014 -0.00022734186 -0.0038459965 0.0004566598 -0.001471423 -0.0020765332 -0.00014142584 0.0022497587 -0.00089714176 0.0011505919 0.0009575198 -0.003826675 0.00059934316 -0.0032427786 0.0037368273 0.0023088886 0.0006990694 0.0030185727 0.00041251592 0.0013639856 -0.00040324128 -0.00034904355 -0.0021009224 -0.0022060226 0.003739095 -0.00012383323 -0.00040997972 0.0015213056 0.0034920848 0.0037034107 0.0024720086 -0.0030345095 0.0011219181 -0.0025702054 -0.0028624623 0.0037675838 -0.002267943 -0.0027424674 0.0028968393 1.486926e-05 -0.0016675516 -0.0029949883 -0.0023177722 0.0015150751 0.0035495409 0.0012254822 -6.185875e-05
21 -0.0016633077 -0.0024246562 0.0010373765 -0.0002898205 -0.0006491992 0.0022945756 -0.00014038717 -0.0004957211 -0.0018942758 0.0029398943 0.00043188655 0.0034351929 -0.0034536705 0.00084391516 -0.0010698746 -0.0023783965 -0.0026895166 0.0029903871 -0.00034987295 0.0015073452 -0.0026594708 -0.00023563507 -0.0015878637 -0.0025640978 0.00061310123 0.0017133782 -0.0018901207 0.0032328265 -0.003334242 -0.0005453986 0.003011386 0.002357572 -0.0036376049 0.0036023199 -0.00018804453 -0.0036586702 -0.0034811508 -0.0009383149 -0.001493664 -0.0018142026 -0.0020135723 0.0031066835 0.0004833237 0.0017878574 0.0020542787 -0.00092179736 -0.0038684928 0.0018304187 0.000215776 -0.001758345 -0.002377594 0.003296466 -0.0035643934 -0.002961979 -0.0005516313 -0.00064761 -0.00039579574 -0.0023955193 0.0037480781 6.4888256e-05 -0.0034816875 -0.0004150172 -0.0036991425 -0.0019842242 0.0029675073 0.0021576798 0.0032301042 -0.0035981727 -0.001004685 -0.0011667726 -0.0009162909 0.0007168587 0.0011192793 0.0012453033 -0.00036770114 0.0003551729 0.003560121 -0.0030725207 0.0029071232 0.0038250692 0.0007391199 0.0021700487 0.0033444199 0.0032799891 0.0025122114 -0.0017767374 -0.0009094907 -0.003294177 -0.0015286687 -0.0031976262 0.00016843184 0.0030876417 -0.0005109088 0.002349931 0.00061958545 -0.0013270308 -0.0005788763 -0.001268451 0.0029339085 -0.0023959947 0.003846314 -0.0029262197 0.0013718848 -6.559244e-06 -0.00077105814 -0.0015409535 0.0038581009 -0.0030150027 -0.002151659 0.0030318643 -0.0038499923 -0.0005091352 -0.0014420893 0.0034834447 -0.00021660149 -0.00027123684 -0.0034436856 -0.003045494 -0.002162866 -0.0023666262 -0.0013271766 0.0006574501 -0.002902667 0.00052689546 0.0028805318 -0.0017966947 -6.433031e-06 -0.001953358
38 0.0013927462 0.0019479096 -0.002852158 -0.0026843518 0.0015870609 -0.0034012357 0.002445959 -0.0013457431 -0.002941973 0.0011922267 0.00068717345 0.00183429 -0.001156996 0.003808487 0.0024427094 0.001755006 -0.0014442682 0.0038181802 0.0033332251 0.00010553515 -0.001268619 0.0023465634 -0.0016941291 -0.001819657 -0.00232136 -0.0017603756 0.0036515845 0.0033283501 -0.0006126871 -0.0020079773 -0.0025268425 -0.0026510637 0.0018347123 -0.003026738 -0.0023126386 -0.0019663435 -0.00374459 -0.003338894 0.0036962465 0.0004127181 0.0021417977 0.0005317998 -0.0036539414 -0.0032905908 0.0020983124 0.0038405915 -7.555892e-05 -0.0016931604 0.0031674188 -0.0028513921 -0.00051535794 -0.0014531827 -0.0037228633 -0.0006140796 -0.0024265165 -0.0007060455 0.0010168601 0.0026183375 0.0010849858 0.002462947 0.0026175338 0.0027424518 -0.002687561 0.00043708272 0.0025120215 -0.0007157303 0.0032187311 0.001289021 0.0011204672 0.0024595624 0.0024006173 0.0018886148 0.003056339 -0.0025819086 0.0014539033 0.0006872799 -0.0009127304 0.0032385644 -0.001974091 0.0019250774 -0.0022474974 0.0019378322 -0.00084632926 -0.0038377496 -0.003552567 0.0027457394 -0.003782134 0.00045770293 0.0035107504 -0.0010737742 -0.0023133608 0.00332121 -0.0011041597 -0.003133533 -0.0016074114 0.0032836096 -0.0036933953 0.00042834386 0.001172833 -0.0029309809 -0.00311561 0.0002787266 -0.0015896242 0.003435511 0.003212767 0.0027226307 0.0022354505 -0.0011814643 0.0024639496 -0.002810759 -0.0022170865 3.0004821e-05 -0.0032036274 0.002840997 0.0028919247 0.000422124 0.0027745725 -0.0024451893 0.00092443416 -0.0007763812 -0.001404108 0.0019485119 0.0013224422 -0.0029256046 -0.003323417 -0.002598359 -0.00335749 0.0023601328
33 0.00071195874 0.0023186647 -0.0015079684 -0.0019721352 -0.002276217 -0.0010741674 -0.0030881776 0.0008114836 -0.0034304773 -0.0001520567 0.0009724965 0.0038808144 -0.0027450945 -0.002317856 -0.0002172004 -0.0036111288 -0.00057450705 0.0008137429 0.0027014054 -0.0022717284 0.0034003141 -0.0030914135 -0.0013810089 -0.0029524614 0.002910939 0.0012161009 -0.002594525 -0.00043649436 0.0019335987 -0.0025456937 0.002772485 0.0027502542 0.0019236082 -0.003575647 -0.0013235592 -0.0020636714 -0.0017452153 -0.0034568894 -0.001004507 -0.0011792046 -0.0019958254 0.0037738408 0.0037984475 -0.00045877506 -2.9355855e-05 0.0012423038 -0.0011369154 0.00085981586 0.0021828986 -0.00322631 0.0025819167 -0.0012953761 0.003097331 -0.00021707037 -0.0008855215 -0.0032929368 -0.00071629556 0.0025603676 -0.00078159577 -0.0010110651 -0.00021791157 -0.0020705876 0.0016486059 0.00253659 0.002313776 -0.0028213365 -0.0025763484 -0.0023330506 -0.002330087 -0.002412109 -0.0035810072 -0.00378188 -0.0023059687 0.0016478784 0.0029995055 0.00080877444 -0.0005606739 0.0027785671 0.00028358542 -0.0020435653 -0.0021664675 0.00014649126 -0.0021773959 0.0016459074 -0.0014702488 0.0031944222 -0.0020224617 -0.001574696 0.0022073237 -0.0002699842 -0.0023502456 0.002579326 0.0027864936 -0.0022446264 -0.0010809146 -0.0014642469 0.0033559226 0.0015671314 -0.0013971133 -0.0025521093 -0.00044644688 0.0024213106 -0.0038875588 -0.0004793635 0.003832118 0.001073999 4.7057423e-05 0.0026186828 -0.0027679976 -0.0007702609 -0.0010311087 0.0022519925 -0.0016588987 -0.0037787135 0.0008659232 0.002846609 -0.0006293763 -0.0035076207 -0.0012785397 -0.0031078237 -0.0017117012 -0.0020909426 0.0034720304 -0.0023248931 -0.0013208621 -0.0030348508 -0.0021940735 0.0010749591
5 0.0018954104 0.0011888365 -0.0038972374 0.0017580311 -0.0023029023 0.0012014592 -0.0002890511 0.0017615476 0.00017326965 -0.0006637734 0.00044339252 0.0010292504 0.0002984766 -0.0032520997 0.0027918315 0.0017253717 0.00077246304 0.0021911557 -0.0038318955 -0.0031605836 0.0016425513 -0.0012832474 -0.003335612 0.00078139873 0.0025482008 -0.0013832079 -0.0010843988 -0.001483007 0.00014947081 0.0002798395 -0.00016655585 -0.0036555447 -0.0029783095 0.003232697 -0.0030607192 -0.0038796682 -0.0003178113 0.001172015 -0.0022574668 0.00048717565 -0.0021088384 0.0035406204 -0.00016368579 0.0020426926 -0.0015310136 0.0026302845 -0.0017779225 0.0027093347 -0.0012087302 -0.0008356115 -2.9369507e-05 -0.0030474502 0.002771698 -0.0021915468 -0.0033874707 0.0025169458 0.0037685833 0.0010819589 0.001610196 -0.00063007366 -0.0019443193 0.002798506 -0.0035698796 0.0014291052 -0.0020944492 -0.0033020175 -0.0035711515 0.0015632818 0.0013792486 0.003675964 0.0034569146 0.0028835065 -0.003082691 0.002734587 0.0008301326 0.0007752861 0.0016939056 -0.00095612253 -0.003653205 -0.002868422 0.0027074523 0.0015769033 -0.0027908224 -0.003529129 0.0012059222 -0.0020336444 0.0017605155 -0.002331992 -0.0005412569 -0.003900039 0.00314537 0.00017173355 -0.0022794672 0.00011181968 0.00040734364 -0.0037333358 -0.003557729 -0.0017675427 -0.0005354708 -0.0018918823 -0.003456724 0.0014617199 0.0019615546 -0.0003366125 -0.0022153824 -0.00094055204 -0.0012159402 -0.00074431417 -0.0023302236 -0.002268791 -0.0005259543 0.00018801933 0.0013882042 0.001927887 0.0028436866 0.003234615 0.0023115147 1.3950966e-05 0.0035686004 -0.0007670167 -0.002737642 -0.0025243512 -0.0022084054 -0.00020993425 0.002085024 0.00017855088 0.0027195706 0.0021014535
1 0.0011047844 -0.002521762 0.00011818964 -0.0007969174 -0.002096813 0.0018895279 -0.0020838608 0.0018445803 -0.0009221862 -0.00086787576 -0.0031784142 -0.00051878655 0.0031266934 0.00015308749 -0.00037899363 0.001686495 -0.0004943644 0.0021168124 -0.000707338 -0.0016856461 0.0013237942 -0.0016754864 0.0011492968 -0.0014261154 0.0018060938 0.0037404485 0.0009651233 -0.0011152333 0.002876399 0.0025678994 -0.0014149813 -0.0038734372 -0.001233471 -0.0022678608 0.0016340772 0.00022671194 -0.0010822694 0.0017040967 0.0027758975 -0.0030590822 -0.0026607115 0.0033842667 -0.0024314846 0.0025054861 -0.0038711678 0.00078387867 -0.00044729424 0.000242426 -0.0021464806 0.0009831814 2.7452365e-05 0.002449076 0.0020100095 -0.0024048877 -0.0014537765 7.465579e-05 0.0015071229 0.0034685144 0.00087133696 0.002941409 0.0021884707 -0.0018577966 0.0015056012 -0.0033732255 0.0036384643 -0.0022747407 0.0018565156 0.0019443304 -0.0026432406 -0.0037105337 0.00113623 -0.00207473 0.003168771 -0.0032213035 -0.0014020759 2.9389501e-05 -0.0033700946 -0.0020498612 0.0031034807 -0.0025120233 -0.0026938757 0.00245335 0.0030620582 -0.0036489642 8.993118e-05 0.0005538889 0.00061831856 0.00041232028 0.0016128105 0.0021511423 0.00096255995 -0.00090905867 0.0018513881 0.001083806 -0.00021180625 -0.0034854095 -0.0015388762 0.0019172606 0.0036919832 0.0018727838 0.00077498035 -0.00023950939 0.0008581966 -0.0037991547 -0.00014276267 -0.003275355 0.000113784954 -8.3055245e-05 0.0015734461 -0.0038954904 -0.0008387258 0.0027741073 0.0008792029 0.0028111849 0.0009068611 0.0021652672 0.0036666011 0.0037708613 0.00035910847 -0.001496655 -0.0025605299 -0.0020833123 0.0029841082 -0.0011019267 2.697271e-05 0.0015465223 0.0023626382 -5.742158e-05
49 1.9131532e-05 0.0009616563 0.0015958421 0.0015610288 -0.0027766016 -0.0017903947 0.0026418816 -0.003532959 -0.0020047748 -0.0026216868 -0.0037075593 0.00027822272 -0.00337393 -0.0035795 0.003232047 -0.0033416909 -0.0025020477 -0.0011071585 0.0038436528 -0.0018603972 -0.0022497831 -0.0034643218 0.00283877 -0.0015237434 0.002510841 0.00033699747 0.002836647 0.00037260857 0.0011301261 -0.00037446528 0.0005364121 -0.0037919246 0.0028573258 0.0032235414 -0.00360106 0.0032373653 0.0024077084 0.0006191146 -0.002352336 -0.00091191137 0.0035021245 -0.002397063 -0.003839098 0.0038913782 -0.0013152101 0.0025922528 0.0007693671 -0.0035049156 -0.0035694586 -0.00052291015 0.000967538 -0.0016881914 0.00037222126 0.0012557696 0.0031612627 -0.003716462 -0.0024646984 -0.0036929888 3.870476e-05 -0.0014956692 -0.0016663445 -0.0027510924 -0.00017663563 -0.0025609534 -0.0020152063 -0.0013984421 -0.0018753173 -0.00033819463 0.0001787902 0.0017487548 -0.0014787711 -0.0034018215 0.0005889878 -0.00087955204 -0.00031739817 0.0024321657 -0.0018835668 0.0027090511 -0.00051535456 0.0006345042 -7.9241036e-05 -0.0006686273 0.0012923244 0.0023250347 0.0036908109 0.001431916 -0.0006361341 -0.0023825446 -0.0036820467 0.0022370566 -0.0027931964 -0.003409836 -0.00095431966 -0.003464552 -0.0024919168 0.001941898 -0.0015533547 -0.002751835 -0.0030677137 -0.0006388562 -0.0024493816 -0.0022762031 0.0009926099 0.00021995307 -0.0034154286 0.00052235933 -0.0007210641 0.0012414713 -0.001722293 0.0020736943 -0.002465417 -0.0036647064 -0.0036972482 -0.001824454 0.00010521123 0.0018110424 0.0038403098 0.0034357747 -0.0019610564 0.003023109 -0.0037869287 0.0019560729 0.003253464 0.0010266557 0.00010696073 -0.0026507908 -0.0017030328 -0.00070201926
77 0.0018459284 0.00034698626 0.0022249673 0.0017193474 -0.00013866245 -0.0029518642 -0.003750354 -0.0028734796 -0.002933334 0.0016374382 0.00046579572 -5.387086e-05 -0.0014050265 0.00032911127 0.0035212205 -0.0031044579 -0.0022016258 0.0026057963 0.002092939 -0.0011468767 -0.00362126 0.002555738 0.00011129246 -0.00034707438 0.0014423716 0.0022934468 0.0025904395 0.0032860946 0.0005888813 -0.0030392872 0.003725634 -0.00019919388 -0.00077190605 0.0007257734 0.0022757333 0.003180652 0.0029997546 0.00097002333 -0.003862936 -0.002460039 -0.0017101049 -0.0005229902 -0.003238055 -0.0023360022 -0.00020059143 0.00066375494 0.0002788203 -0.00065863377 -0.0016876014 0.0015113677 0.0013248608 -0.0029337415 0.0024798857 0.0028446175 0.0015044415 -0.0023241572 0.0013834826 0.0015538246 0.00075778575 0.0018680327 0.0020914155 0.0025819596 -0.00220114 0.0038104116 -0.00054772495 -0.0036747654 -0.0014351651 -0.0004936146 -0.0026171943 0.002718102 0.001971083 0.0015799492 -0.00024577518 -0.002858977 0.0031728512 -0.0022889422 0.0031358209 -0.0022052906 0.001776592 -0.0010715981 -0.00065472536 -0.0024209465 0.0010825909 0.0014385468 0.001868846 -0.0027671377 -0.0036352465 0.0009171502 -0.002183379 -0.001525886 0.0034632133 -0.0007870185 0.0026819806 -0.00046595122 -0.001795672 -0.0012532689 0.0011844067 -0.0038805313 -0.002432781 -0.0017674518 -0.0033463088 -0.0025177964 0.0028692854 -0.0021970186 -0.0035208669 0.0026304803 0.0037272277 0.0019004409 0.00079937506 -0.0007627892 0.0037626484 -0.00033897362 -0.0038722192 0.00089035835 0.0032426259 -0.000780423 -0.0014648819 -0.0022475533 0.0024746957 7.40398e-05 -0.0014195701 0.0013003568 -0.0010243925 -0.002939463 -0.0011022487 0.003249721 -0.00074553024 -0.0029055441
7 -0.0030551483 0.0014766293 -0.003165739 0.0016005381 0.002741621 -0.001631176 0.0021252546 0.002860591 -0.0028772638 -0.0015077401 0.00041827682 -0.0022907797 -0.0033875 -0.0029448858 -0.0014736799 0.0020145127 -0.0038901179 -0.0006139893 -0.0007308761 0.0030828465 0.00020863453 0.0021737441 0.00017120237 0.0027881109 0.00058735785 -0.00074815564 0.00050690107 -0.0019532244 0.0029502902 -0.0006190647 -0.002284575 -0.0008634105 -0.00074228126 0.0010272154 -0.0012381518 -0.0018331745 0.0003407237 0.0024725965 -0.0026574251 0.0011781645 -0.00058942207 -0.0011499692 0.003561849 0.0023555274 0.0011656396 0.0007245607 -0.0019000882 -0.0033027 -0.0027012664 0.0018863468 0.0028891428 -0.0018738378 0.0003519525 -0.0019212562 -0.0019127311 0.0016702646 -0.0022093877 -0.0024266941 0.0011806244 0.003139323 0.0007656223 -0.0036861936 0.001970153 -0.0022422671 0.0020713557 -0.0026329237 -0.0005708372 0.0029244479 0.0004072872 -0.0005824233 -0.0023248827 -0.0036332058 -0.0022557485 0.0005640056 0.0003865877 -0.00029963444 -0.00015279831 -0.0012967939 0.0007415571 0.0037527785 -0.0033443964 -0.0037136767 0.0016840186 -0.0028185495 0.0021433905 -3.6025995e-05 0.0011697124 0.0032585105 0.0028270674 -0.00052014756 -0.0038586012 0.0006358896 0.0017511046 -0.001458548 0.001863672 0.0018117663 -0.0037265187 -0.0006936576 0.00086131686 -0.0016790531 0.0031209174 -0.0036328575 -0.0014790558 0.00037182702 0.0029429423 0.002275793 -0.0012312357 -0.0022040666 -0.0031185208 0.00010114575 -0.0009890512 -0.0032739737 -0.001867829 0.0017600744 -0.002856748 -0.0027201117 0.0015324434 -0.00073447434 -0.002446648 0.001980582 -0.0020900646 0.003489296 -0.00075994374 -0.0016771951 -0.0020265032 9.6226555e-05 -0.0011809019 0.001872745
81 0.001902974 0.0010345492 0.0018933262 0.0005349465 -0.0011585051 -0.0020365536 0.0024891798 0.0021352142 -0.00333453 0.00027522963 0.00058799837 -0.0034640443 0.0038395263 0.0024706805 -0.0009864966 0.0015829952 -0.0034648078 0.0031271563 0.00058450276 0.0020710179 -0.0029563797 0.003317318 -0.003589117 0.0012253314 0.0038428633 -0.0026807059 0.00015484795 -0.0035578103 -0.0031376285 0.00094159244 -0.0023943982 -0.00047499355 0.0022266046 -0.0015590998 0.00021544135 0.0009915653 0.0034621037 0.0017235301 0.00068461365 -0.0016371615 -0.0012686673 -0.0034088963 -0.0023694779 0.0010002344 -0.002930546 -0.0010453172 -0.0032531053 -0.00015749111 -0.0024250043 -0.0016774358 0.0034425738 -0.001862563 -0.0012129827 -0.0006920822 -0.0024531556 0.0017786715 0.003775719 0.0017131156 0.0016150685 -0.0018180166 0.0032098792 -0.00090398925 0.0034283916 0.002865231 0.0016171065 -0.0034138635 -0.00071891875 -0.00041732055 0.0020192554 -0.0016175304 0.003174569 -0.0020284653 0.0038607186 -0.0012248537 0.002013899 0.0037592715 -0.0015968701 0.0038462207 0.00075750623 -0.0038566403 0.0027025528 -0.0002130236 0.0005510906 0.00021329682 0.00014033832 0.0038656264 -0.0021168909 0.0013805496 -0.00057050196 -0.0018616191 0.002758598 0.0005240497 -0.003897089 -0.0036159274 -0.0003526387 0.0035476433 0.0009946508 0.0016056894 0.0006153755 0.0001569349 -0.0012142007 -0.0037423968 -0.0005220053 0.00046528754 0.0003375929 0.0004608311 -0.0001968579 -5.329354e-05 -0.0027165094 0.0023707824 0.003066869 -0.00031833383 -0.0033903057 -0.0033614463 -0.0028278762 -0.00080274214 -0.0023463885 0.00023947716 0.0034044029 0.0025066473 0.0014081823 0.0011500942 0.0006944537 0.0030204135 -0.0037008775 -0.0015286016 0.00040155617 0.0006478103
20 -0.0020143425 -0.0011496355 0.003763032 0.00045023067 0.000100518184 -0.0012841038 -0.0014557077 -0.0027305519 0.003116388 0.0009342785 -0.0038636026 0.00032626753 -0.0035294604 -0.00089498714 0.003053534 0.0020175825 -0.000930505 0.0013182653 -0.0034244421 -0.00023828587 0.003622449 0.001895961 0.001540233 -0.0007000885 0.0017703248 0.00078459934 0.0013612639 0.0020639652 0.0016332361 0.0036725723 0.001997241 -0.00079667656 -0.00019227757 -0.003642112 -0.0023201185 0.0026417393 -0.002095388 -0.0029833866 -0.002521168 0.002400601 0.003172502 -0.003111045 0.0035404465 -0.0018607259 0.00258605 -0.002867233 0.003017418 -0.0033665833 -0.0030691056 -0.0023089845 -0.00378795 0.0033612459 0.0010147672 -0.0011701676 -0.0001487927 -0.0024977822 -0.0014486928 0.00013759051 0.0015072492 -0.00066965603 0.0014827315 -0.0017578331 0.0007393534 0.0032055676 0.0024683771 -0.001978968 -0.0017188605 0.0031173865 -0.0017396328 0.00080509705 0.0013505222 -0.0010650408 0.0011239459 -0.0012326429 0.0023848673 -0.0013352752 0.0036197328 -0.0010576114 0.0005143548 0.0007989359 -0.001330839 0.0013972522 -0.0014049847 -0.003890771 -5.1741445e-05 0.0030916557 -0.0009882562 -8.98375e-05 -0.003554422 0.0030009078 -0.0030401747 -0.0025540546 -0.0017867862 0.0012307754 0.0030628166 -0.00018397946 -0.00064020243 0.00021319232 0.0012895234 0.0033376927 0.0021445856 -0.0032456054 -0.002170796 0.00069398416 0.0023480456 -0.0018436622 0.00018514451 0.0019749436 -0.0006556873 -0.00033201088 0.0023450048 0.0017456827 0.00031113432 0.0027027612 -0.00069786137 -0.00068558374 -0.0026256975 -0.003333926 -0.0012386534 -0.00035079566 -0.00067981397 -0.00040775293 0.0004031971 0.0018450498 -0.0008149246 -0.0008110773 -0.0008848672 -0.0001938607
34 0.0030292151 -0.0016912674 0.003488112 0.0012418194 -0.00013251635 -0.0037514362 0.0002522813 -0.0026291178 -0.0012569113 -0.0031425557 0.0013367098 -0.0032699807 0.0023778074 -0.0010405469 0.00043676555 0.0019914662 0.003835096 0.0014660661 -0.0027824866 0.0030534102 -0.002223795 0.00015108335 0.0021526637 0.0027789352 -0.0015963673 0.0031197327 -0.00245789 -0.002346534 -0.00303185 0.00024868423 0.0012969909 0.0024682495 0.00014545095 0.0008162643 -0.0030277977 0.0011482295 0.00032640088 0.0031078279 -0.0038186463 -0.0027072898 -0.002288564 -0.0013603588 0.000735318 -0.0015413319 0.002159387 0.0015871638 -0.0012159783 0.002717056 0.00054202264 -0.001350305 0.00072503573 0.00074533885 -0.0037503745 0.003512242 0.0016300204 -0.003787456 0.0023076208 0.00086434354 -0.00059589895 -0.0027519437 0.0014266747 -0.001688468 0.000109227 -0.0005745896 0.0017856156 -0.0022212353 -0.00047467006 0.002735482 0.002522926 -0.0023572596 0.0019167721 0.00066424866 -0.0027982725 -0.0012935846 0.003247953 0.002343345 -0.0032417136 -0.002781879 0.0010823116 -0.0036119816 0.003845676 0.0007334085 0.00033727483 0.0005156051 0.00017006413 -0.0016632751 -0.0021669858 0.0023137503 -0.0009832225 0.0036447677 0.0012154229 -0.0008714632 0.0029425183 0.0029359858 0.00030147634 -4.2158626e-05 -0.0023697426 -0.0014473967 -0.0028423714 0.0035780638 0.0032105884 0.0031647563 -0.003406771 -0.00019503335 0.0033164634 -0.0036195235 0.0023499469 -0.00027703075 0.0028465632 0.0023474467 -0.0038852424 -0.0034606354 0.0031309845 0.0038630294 0.0015558144 0.0018205718 0.0004106039 0.0015477705 0.001780796 0.0022813047 0.0033685465 -0.0017331709 -0.0034510402 0.0014166514 -0.0029974107 -0.0019304587 -0.0009751123 -0.0032285175
60 0.0011252017 0.0015440974 0.0006135928 -0.0022226798 0.0003730022 0.0030680941 0.0031724558 0.001434086 0.0003411838 -0.0030166076 -0.0032370077 -0.003880487 -0.0028922872 0.0022425104 -7.1212504e-05 -6.119182e-05 -0.00068721554 -0.0036806073 -0.0014792923 -0.00087591924 -0.0031415655 0.0033991633 0.0037802262 0.0015783214 -0.0015569701 0.0005848445 0.0007033071 0.00031651405 -0.0016228302 0.0031946532 0.0036542555 0.0018961254 0.0013881618 0.0033884188 -0.00021932481 0.0033221974 -0.00010340615 0.0027711464 0.0009940573 -0.0038839714 -0.0029386862 -0.0024998472 0.00082457036 -0.003155337 0.000970501 -0.003880053 0.0028713543 0.0012508694 0.0019774367 -0.00044523028 0.0025732045 -0.00013417975 -0.0021852506 0.002304589 -0.0025370922 -5.063473e-06 -0.0037252903 0.0032315424 0.0034872135 -0.0014494002 -0.0033533918 0.001373882 -0.00017584387 0.0016385975 -0.0012556656 -0.0013255229 0.0027813606 -0.0009640183 -0.0010694913 0.0021832192 0.0025666761 -0.001267929 -0.0028573896 -0.0016542666 0.0020180952 -0.0010744685 -0.00062136975 0.00088434765 -0.0028416584 0.0006827013 -0.001349222 -0.0033073241 0.00026870501 -0.0022128003 -0.0028733003 -0.0012799039 -0.00384426 0.0034380404 -0.0019332265 -0.0016296232 -0.0028719003 0.0009943193 0.0023228512 -0.0013292201 -0.0018923917 0.00042727325 0.003871703 0.0007451423 0.000112393995 0.0030163107 -0.00024821798 0.0014406486 0.0015040183 -0.0009068985 -0.0014746847 0.00079675624 -0.00081663416 0.0014421679 -0.002579898 0.0011346632 0.00011145011 0.0008030757 -0.002734947 0.0015926802 -0.0016155787 0.0011081 0.0038451396 0.001382943 0.0007792521 -0.0030881509 0.00030073494 -0.0011351076 -0.0017036546 -0.0010870454 -0.0011631512 0.0022319406 -0.0009525032 -0.0030467275
18 0.0025843396 0.0019863653 -0.0015736696 0.0015924837 0.000376801 -0.0012688789 0.0032612395 0.0004360704 0.0034173408 -0.001393602 -0.0015128036 -0.0025063758 0.0027118279 0.0023440397 -0.00027538263 -0.0027844706 -0.0018339257 -0.0006116889 0.0013647245 -0.0030735692 -0.002717782 0.0028304062 0.0037059786 -0.002412809 -0.0031815707 -0.0036503896 0.00094625045 -0.0031291547 0.0015708491 0.0022706205 -0.0034403768 0.00030419664 0.0018451726 -0.00017625377 -0.0020843786 -0.00023395207 -0.0021937995 -0.0007592587 1.7963877e-05 0.0035443965 0.0020976497 -0.0024612076 0.0023753294 -0.002082573 0.0013931806 0.0034787206 0.0035168647 0.0036138452 -0.002529046 -0.0012033411 -0.0033683856 -0.0005848047 -0.0024301722 -0.0028072982 0.0025628111 -0.0025678466 -0.00017055101 -0.001292331 0.0012167626 -0.0016976845 -0.0021121101 -0.0004266885 -0.00095657527 0.0012314742 0.0032163942 0.0013125394 0.0031544238 -0.0023248305 0.0030339418 -0.0036726613 0.0016363085 0.0014136824 0.0014188035 0.002613805 0.0019798025 -0.0029878004 0.002004513 -0.0016082159 -0.0007500002 -0.0015693457 4.366282e-05 0.003395133 -0.0002056372 -9.7797405e-05 -0.002190133 -0.0018563445 -0.0030530635 -3.810035e-05 0.0034473527 0.0018851595 0.002560568 -0.003600563 -0.0036982356 0.0006528893 0.0013980916 -0.0005902374 -0.00028311467 -0.0018536482 -0.0010462448 0.0037232616 0.0007605861 -0.0023608608 0.0024158566 -0.003272042 0.0016746247 0.0035255095 0.0008992607 -0.00016939508 0.0014569848 -0.0027059966 0.0025329443 -0.0008102441 -0.0014322205 0.0012138329 0.0028121888 -0.0018970595 -0.0026450444 0.0004027771 -0.0021783442 0.0016665191 0.0037172192 0.0014991573 -0.0038702849 -0.00048167192 -0.001832864 0.0032313997 -0.0027397808 0.0016845104
45 0.0038750162 0.0024865852 0.0029726115 -0.003645997 0.000279651 -8.008967e-05 0.0028276383 -0.0016467785 0.0010234469 -0.0025644642 0.003815329 0.0006203802 0.0008983381 0.0035835663 0.0032893454 0.003084623 0.00064069533 0.0018987654 -0.0005851551 0.0021073637 -0.0022696164 -0.00088718394 0.0035473069 0.0025705101 0.002508272 -0.0033233517 -0.002314572 0.001400254 0.0011504687 0.0005772076 -0.0010832069 -0.003894416 0.0022387952 -0.0038184724 0.002275738 -0.0024360842 0.0006399152 -0.0013549764 -0.0010272685 0.0036504415 0.002272314 0.0037326894 0.0023184803 0.00092390226 -0.0021374095 0.0002624492 0.0024321673 0.003197937 0.003173272 -0.0016517059 -0.003296677 0.002266086 0.003482986 -0.0001925094 0.0026826619 -0.0023219634 -0.0017931379 -0.00055382313 -0.0011244093 -0.0021329767 0.0035513758 8.6449014e-05 0.0022593655 -0.0016832824 0.0016281344 -0.0016152615 -0.0035199292 -0.003134978 -0.0010938996 -0.0028768838 -0.00059665955 0.0018230937 0.0012422713 -0.0010448992 0.0011403547 0.0037810411 0.0016688609 0.0022637567 0.0014396814 -0.0006309757 0.0028920325 -0.001316379 0.0020051068 -0.0028333748 -0.003398543 -0.001855507 0.0031744747 0.001884555 0.0031653987 0.00115976 -0.002562788 0.002515052 0.00021650468 -0.0036432417 0.0031398297 -0.00027761445 -0.002633857 -0.0028990817 -0.0024427448 0.0032534476 -0.0025015078 -0.00081221154 -0.0014140472 0.0029044678 0.0022490055 0.00030790016 0.0023506654 0.0033300768 -0.0029277662 0.0032493605 5.639351e-05 -0.0009718582 0.0031346485 -0.0034929283 0.0018694007 0.0018113441 0.0038829243 -0.003847803 0.0025397206 0.003352506 0.002938157 -0.0016167497 -0.0026667842 0.0021091562 0.0026560703 0.0036288009 -0.0034642266 -0.00079396326
26 0.00048864516 -0.0024942742 0.0030381053 -0.00022694745 0.0006412087 -0.0003973559 0.00036386919 0.0005448636 0.003901818 -0.001057513 -0.00057448016 -0.0033675726 0.0030915246 -0.0022152273 0.001297924 -0.00070183806 0.00046218437 0.0014880116 0.00019799962 -0.0012106909 -0.00085496006 0.0020349901 -0.0015207324 0.0038977882 0.0011524492 -0.0011831429 0.00019578813 0.0020028541 -0.0026229573 0.0005621395 0.0015665164 -0.0033532307 0.0008680794 -0.0030885565 1.8653414e-05 0.0019351392 -0.0013738885 0.002084371 -0.0013463045 -0.002251623 0.0027901253 -5.9465154e-05 0.002264307 -0.0011803681 0.0013819251 -5.486866e-05 -0.0037589052 0.0005780969 -0.0028488317 0.0012114481 -0.0037866163 -0.0018008144 -0.00016326383 -0.0009693946 -0.00047700683 0.0024948854 -0.00044866852 0.0025672084 0.0011422934 -0.0035996577 -0.00254824 -0.0009688471 0.0030887432 0.0027838617 -0.0026441591 0.0030291658 0.0034553702 0.0007236505 0.0014138006 0.002618467 -0.0032705679 0.0028548753 0.0019208976 0.0028731714 -0.003143495 0.003502331 -0.00044434099 -0.0014878331 0.0011818971 0.00023677188 -8.349538e-06 0.0030530798 -0.00051569456 -0.0036645134 0.0037138986 0.001594836 7.9800455e-05 -0.0015095143 0.002792738 -0.0024344057 -0.00029000777 6.880963e-05 -0.00019150457 -0.002315757 -0.0011045741 0.0038261455 0.0031227174 -0.0028431746 -0.0030929795 -0.0009951446 0.0023379521 -0.0003625645 -0.0032657783 0.0025353034 -0.0010705808 0.00063560955 0.0027967219 0.0024810075 0.0031303447 -0.0019936983 -0.00048036355 0.0003564025 -0.0013828053 -0.0013172831 -0.001866654 -9.913738e-05 -0.002488105 -0.00040866804 -0.0035829032 -0.0009860604 -0.0028004444 -0.003148461 -0.00017854493 -0.0006915458 0.00046434495 -0.003555536 0.0030677826 0.0024513223
23 0.0008200441 -0.0032649161 -0.003351649 -0.0022322237 -0.00024832017 -0.0028386766 -0.0024447471 -0.0038483487 -0.00047746516 0.003288378 0.002064435 0.00013252436 0.0007522006 0.0026602647 -0.003176563 0.0004680141 0.0010739956 0.0029271638 -0.0009286003 0.003084495 0.0031635056 0.0025307753 0.00075832667 0.0032242918 0.0030875162 0.0005820726 -0.0038948858 -0.001176451 0.0014212993 -0.000764908 0.00048385546 -0.003747239 0.0016042474 0.0034443666 0.0011375162 0.0024048146 0.0011393038 0.00014866164 0.00058944075 -0.0010370866 0.00044588634 0.0038384176 0.00093266787 0.0038831197 0.000884654 0.0025744534 -0.0025147374 6.642608e-05 0.002531386 0.002029587 -0.003541804 -0.0029896954 0.00035045858 -0.003796838 0.002184224 0.002486645 0.0023474502 0.0025277247 0.0026766954 -0.0009046673 0.0011497412 0.00021873531 -0.0012003527 0.0005234981 -0.0009257496 -0.00061471236 0.00039405643 0.00019603962 -0.000418047 -0.0037396252 0.00012952961 0.0016061931 -0.0013801965 0.00030101274 -0.0010276443 0.0027575996 -0.0024126498 -0.0005200578 -0.0018070079 -0.0028332355 -0.0027042578 -0.0025806425 -0.0012833001 -0.0023491655 -0.0002937386 -0.0003850356 0.0023705487 0.001920389 -0.00034098414 -0.0015754675 0.0015811577 0.0016366661 -0.003625467 0.002400002 -0.00160053 0.0027093801 -0.0021913585 -0.0021019257 -0.002410438 0.0012840664 -0.002349525 -0.00045068096 -0.0018879395 -0.002848537 0.00019935415 0.00055985793 0.00032136784 -0.0028790357 0.0018144357 0.002485493 -0.0022004447 -0.0011913882 -0.002329399 0.00028305364 -0.0026949304 0.0033009646 -0.0037620363 -0.0029591771 -0.0007717399 0.0032985804 -0.00014318516 0.0019722616 -0.0033249538 0.001637491 0.0019967875 -0.003412783 -0.002378794 -0.0032153756
54 0.0021996927 -0.0028220005 0.0008431136 0.00096496375 -0.0015769256 -0.0029533284 0.002913316 0.00013443276 -0.00034082675 0.0025260982 -0.0029467917 0.0003119231 -0.003401344 -0.002871403 -0.0035517267 -0.00017396429 -0.002966863 -0.0029345308 0.0017083422 -0.001942036 0.0020071343 -0.0008746946 -0.0021423749 -0.0031128868 0.0018105026 -0.003526375 -0.0028066428 0.0021425276 -0.0026804141 0.00047476497 0.00096582226 0.00171152 0.0034128937 0.0030374806 -0.002488481 -0.00045363672 -0.0006253439 -0.0033284386 0.002653245 0.0019534428 0.0029161202 -0.00061333884 0.0029853275 0.0034671407 -0.0014428314 -0.0002325825 0.0022565052 -0.0007082533 -0.0028139811 -0.0024904376 -0.0018994816 0.0030736786 0.0034245315 0.0015706988 -0.0038763618 -0.0023221215 -0.0011197425 0.0016566195 0.00071909267 0.00088279304 -0.0022596598 -0.00037795538 -0.0036612037 -0.0020092854 0.00124003 0.0011390769 -0.00109054 -0.0012820713 -0.003891155 0.0034780204 0.002918059 0.00085970503 0.00037815134 -0.0003340222 -4.515325e-05 -0.0005636681 -0.0013316867 0.0011812873 -0.0024107797 0.003320327 0.0006794088 5.0381546e-05 0.00088349986 0.0020685333 0.001465956 -0.00023567361 0.0031987089 -0.0015467 -0.00040389568 -0.0018204303 -2.4718254e-05 0.0018186918 0.000354777 0.00026282962 -0.00089743006 0.00032712045 0.0021731637 -0.002649297 -0.0026447973 -0.0025937348 0.0011538288 -0.0035326593 -0.0016169215 0.00316131 0.00053212326 -0.0015072735 -0.000550736 -0.0030235995 -0.00036414358 0.0038577586 -0.0033899983 -0.0016671222 -0.0013371225 0.0019247709 0.001364749 -0.0011305094 0.0021244127 -0.0024201416 -0.000537186 -0.00012862709 6.2025116e-05 0.0030965656 0.0005396753 -0.00018028676 0.00069975853 -0.0020531958 -0.0013515255 0.0034475734
29 0.0014722121 0.0006823875 -0.0015301032 0.001067163 -0.0011744507 0.00017504604 -0.0035363962 -0.0028969566 0.0008830238 0.0014518433 0.00014737116 0.00046442365 -0.0017393851 0.003595926 -0.0014856971 0.00030402906 0.0019931516 -0.00096762873 0.001461055 0.00062134763 -0.002644824 -0.0011117144 0.0033423726 0.0011515579 -0.0005097842 0.0023367456 -0.0036270581 0.0036997919 0.0030692716 -0.000685119 0.0018541821 0.00040635047 0.0036039497 -0.0025975825 0.0016632319 -0.0014108156 -0.0010024236 -0.0011179713 0.00015902967 0.0024283675 0.0024024528 -0.0036524043 -0.0020254254 0.001703592 -0.002114843 -0.0025546437 0.0005541128 -0.0012535629 0.001037729 0.00027770965 -0.00067319366 0.0027760037 0.0037311611 0.001225905 0.0019196883 0.0005447226 0.0026977486 -0.0027250976 -0.0020047252 -0.0019970455 0.00019367097 0.003118961 -0.002944268 -0.0032385439 0.0037313784 -0.0011611218 -0.0015542746 -0.00040298118 0.0035727036 -0.0005607871 0.0032401592 0.002618917 -0.0031571588 -0.0026132187 0.00021408363 0.0026894896 -0.002832858 -0.0005568758 -0.003203721 -0.00094836514 0.00033218847 -0.0023489844 -0.0028167316 -0.0028516015 0.00066383823 0.0010032544 -0.002201661 -0.0012501744 0.002447167 -0.0015337123 -0.0022213804 -0.002002217 -0.0035915654 -0.0022541338 -0.0025346156 -5.077447e-05 0.0006788815 -0.0010283452 -0.0024596094 0.0021525554 3.1653723e-05 0.0013577429 0.0034879355 -0.0009968946 0.0023153785 -0.0028910015 0.0037376543 -2.608581e-05 0.0010460883 0.0006954028 -0.0013175937 0.0030987684 0.0030503108 -0.0029679034 0.001493232 -0.0021854267 -0.0018476162 -0.00089873123 -0.0015464774 0.00017134861 -0.0012120411 -0.003863808 -0.002593968 0.0029391919 -0.0018621398 0.00016679497 0.0024458417 -0.001363789
19 -0.0011288555 -0.0008624808 -0.002270289 -0.0013629826 -0.0037365179 -0.0038429778 -0.003634607 -0.0014881121 0.00046186903 0.00037696297 -0.0021740978 -0.00082988804 -0.00029753405 -0.0017127498 -9.9339246e-05 -0.002219768 0.003728301 0.0032669588 -0.0014929394 -0.0038801136 0.0007254282 0.0017048662 0.0036087104 -0.0022838928 0.0017932444 0.0034635472 0.001766057 -0.00029375887 -0.0015533671 0.0024562965 -0.003833752 0.0026242398 -0.0011783389 0.0011307037 -0.0023490598 -0.0018543359 0.0010685868 -0.00047863348 0.0015675854 0.002083182 -0.0030760744 -0.000719874 0.0014646861 0.00077772106 -0.0030181229 -0.0033161552 -0.0003178241 -0.0007390001 -0.003520967 0.0009860848 -0.0028115534 0.0031542482 0.003197016 -0.00036595648 0.003557878 0.0037972296 0.0019930734 -0.0011126546 0.00217444 0.002941499 0.0024617426 -0.00092650484 -0.0029795584 0.002076081 0.0021487188 -0.0024471078 -0.0002415758 0.00018115023 0.0021961087 0.0034960224 0.0030307586 0.00014959382 -3.040331e-05 0.002708913 -0.003053763 0.0010906945 0.0021465316 -0.0016307252 -0.0027309696 -0.00017530796 0.0026864826 -0.0034476882 0.00045814557 0.0012719425 0.00034778644 -0.0020589936 -0.00023067412 0.0021760128 -0.002973717 -0.0014828645 0.0012704027 0.0035278169 -0.0025340843 -0.0035757844 -0.0037144958 -0.0010615397 -0.00065762916 0.0036252504 -0.0002471741 0.0032281475 -0.00045649003 -0.0025759 4.0504798e-05 -0.0028977368 -0.00042875975 -0.002420175 -0.0028775188 -0.0020026455 -0.001780398 -0.0036711814 0.0023041437 -0.001348829 -0.0014075169 0.0034993198 -0.0019336997 -0.0030735421 0.002319863 -0.00075025513 0.00087264075 0.0010263689 0.0016499787 -0.0025919948 -0.0035482924 0.0007100322 -0.0009855198 0.0002441929 0.0036058992 -0.0028704451
13 0.00023265427 -0.0026193063 0.003521675 0.0022376098 -0.0027573425 0.0036735644 0.003494975 0.0023508545 -0.0017133928 2.9228922e-05 0.0018781677 -0.0020491327 -0.0025201668 0.0010534158 0.00081132626 0.0031950872 0.0038005342 0.002920867 0.0018996475 0.0015177032 0.00068790006 -0.00014683674 0.000101074045 0.003542229 0.0010057515 0.0032345178 0.00029007278 0.003591829 0.0013663344 -0.0033564854 -0.0010794307 0.00019424304 0.001769894 0.0010123672 0.000308738 -0.002186503 -0.0013800244 -0.0005605562 0.002442791 -0.001950744 0.0037055449 -0.000476594 -0.00022170933 0.0033792611 0.0026341826 -0.0028212625 -0.0027470037 -0.0014788221 -0.0025539915 0.0023446227 0.0026091014 0.0019367274 -0.002401553 -0.00026494823 0.00124264 0.001961161 0.00078202656 -0.0039013019 -0.001045805 -0.0026969607 0.00015108685 -0.00080321246 -0.0007037833 -0.0023691666 0.003284988 0.0031715739 0.001397988 -0.001003057 -0.00081191654 0.003167274 -0.0008168553 0.0014598973 0.0016492774 0.0005160175 -0.0038597186 -0.0007348894 -0.0023273719 -0.001072971 0.0024788375 0.003763682 0.0017603043 0.0015003507 -0.0027435026 0.0012062947 -0.00021877143 0.0029751733 0.0031249747 -0.0032730328 -0.002990831 -0.0018682437 0.0006637014 0.00078194577 -0.0006161918 0.0038990814 -0.00040553013 0.0028646144 -0.0027852664 -0.00083990075 0.0037205585 0.00024170238 0.0031304343 0.00343922 0.0010228574 0.0022998685 -0.00044883756 0.0015629889 0.0019737056 -0.0037291849 -0.0031930336 -0.003425185 0.0010733554 0.00011549497 -0.0020510482 -0.000937819 -0.0022487885 0.0012515438 0.0032292637 -0.0034774097 0.00032976037 0.00015906565 -0.0029050873 -0.0019162133 -0.000380183 0.0021274246 -0.0004543025 -0.00093203154 -0.00055035984 -0.0020006422
12 -0.001029889 -0.001904159 0.002090427 -0.001212073 0.00143401 -0.0031008588 -0.0018042107 0.0027996788 -0.00048479944 -0.00076385285 0.0036246362 0.0022000025 0.0031567065 -0.0037249927 0.0009913229 -0.0006461663 0.0019978813 0.0021880635 0.0010890017 -0.00095678994 -0.001998075 0.0016946978 0.0004572346 -0.0022804514 0.0006649094 -0.0021931657 0.0036587103 -0.00075866963 0.001551376 -0.0023601516 0.0013239712 -0.0031526915 -0.0034488677 0.00097109977 -0.00064662995 0.0005530118 0.0020858836 -0.0020403762 -0.0036907298 0.002327562 0.003003286 0.00020000686 -0.0013454568 -0.00073776674 0.0019993228 -0.001404154 0.0014011625 -0.0014865372 -0.0009989571 0.0025932856 -0.003159351 0.0017348245 -0.0014479441 0.0020914166 0.00047346152 0.002217031 0.0035363433 0.0024360102 -0.001801004 0.0031766498 0.0019084741 0.0006503504 0.0024688144 0.00057214446 -0.0001438646 -0.003854847 0.0025858327 -0.0010215823 0.0018164581 -0.002629729 -0.0021639918 -0.0029807035 0.0037380394 -0.0010955115 -0.0013413245 -0.00078032166 0.0027410954 -0.0021944921 0.00092683505 0.0029645818 0.0034301484 -0.0017164593 -0.0010881592 -0.003495107 -0.0007265103 -0.0034911586 -0.0029838767 0.0024295251 0.0004871082 0.0031117944 0.0010014591 0.0017347686 -0.0019828088 -0.00035747618 0.00018049713 0.0021990773 0.002829134 0.00036599895 0.0002099184 -0.00041710888 0.0025258453 0.00104437 -0.0005088188 -0.0036598104 -0.0017837154 0.0035569768 -0.0035482051 -0.0019037973 0.0020697291 -0.0004576781 0.0007133337 -0.0014307774 -0.0012655753 0.003327393 -0.0006018786 0.0026739428 -0.0017115085 0.001405132 -0.002554899 -0.0022303255 -0.0033890551 -0.001249603 0.0032645194 -0.00025022266 -0.0029038815 -0.0011107302 -0.0014429705 -0.0028734147
14 -0.0007502893 -0.002518883 0.0035123236 0.00038747568 -0.00020850735 -0.0020516552 -0.00019845071 -0.00080838834 0.0031548287 0.0036311436 -0.0035931894 0.0007071108 0.00012164369 -0.00026664778 -0.0026476423 -0.0037393167 0.0025786893 -0.0028729097 0.0017471729 0.0028027429 0.0010822099 0.0004211784 -0.001031111 9.260064e-05 7.1462106e-05 0.002967862 0.00056511606 0.0021152135 -0.0023983195 -0.0018760723 -0.0022857492 -0.001134225 -0.0012230218 0.0036624253 0.0023235928 0.0038860897 0.001431995 0.0024404572 0.0017868065 0.0005799641 -0.002079442 0.0015019798 6.181836e-05 -0.0018333159 0.0028557645 -0.0036792003 -0.0037993656 -0.0021375665 0.0021837363 0.0031481977 0.0027145639 -0.0006263591 0.0037412578 -0.0015610841 0.00034048065 0.0036748236 -0.0007011924 0.0031108484 -0.00052891293 0.002058843 0.0015006916 -0.00047730605 0.0025065334 0.0038875309 -0.0019015922 0.0014757928 -0.0015710499 0.00139719 -0.0018774399 -0.0032333673 0.0010331547 -0.0013993911 0.0039009345 0.0020218901 0.0023475941 0.0032225782 -0.0023228296 0.0011529161 -0.0021695334 -0.0008334992 -0.00023724801 -0.0034900531 0.00021088062 0.0030202293 -0.003211891 0.0015808943 -0.002714749 -0.0024913137 -0.00047884774 0.002607219 0.0025876963 -0.0006063446 0.0018053943 -0.0014813606 0.0022491766 -0.00053801225 0.00025767228 -0.002195607 0.0030835236 0.0012747167 0.0012127575 0.0020414547 0.0033124683 -0.0021954847 -0.0034194263 0.0036620977 0.0030437112 -0.002144747 0.0016009947 -0.0026125954 0.001518416 0.0015987402 0.0035000027 0.0020472333 0.0016240748 0.0020655133 0.0038578978 -0.0030441293 -0.00045907943 -0.0021602435 -0.0012453928 0.0007440817 -0.0018223332 0.0038992723 0.0007485344 0.00013091632 -0.0038721764 -0.0022769964
6 -0.0034838258 0.0012685879 -0.002642751 -0.0010365398 0.0012432237 -8.068998e-05 0.00195482 0.00034006935 -0.00023625667 0.0014293991 0.003245014 -0.0021185982 0.00026927725 -0.0005375494 0.0030600356 -0.0021629417 0.0024248592 -0.0019925039 0.0022807433 0.0025724825 -0.0023775464 0.0017591933 0.0016675679 0.0017371483 -0.0023357486 -2.7272892e-05 0.0009197192 -0.0012610264 0.0025144762 0.0016598343 -0.0026595478 0.0025711784 -2.4656874e-05 -0.0010010179 -0.0010429396 -0.0027280152 0.0010324132 0.00035416632 0.0016440527 -0.0013065343 0.0019964643 -0.0030988923 -0.0008883881 -0.002887044 -0.0019083829 -0.0022619916 0.0030445796 -0.0011843441 0.0034060145 -0.0027857535 -0.00056238956 -0.0014388742 0.0027121033 -0.003715528 0.0035757686 -0.0030797222 0.0012926693 -0.0009964685 -0.0034704732 0.003613629 -0.0006534338 0.0011053616 -0.0017884945 -0.0005311379 0.003084692 -0.00036302934 -0.0012976798 -0.0017828441 -0.0037647756 0.0007045388 -0.00065788324 0.0033652277 0.0002807755 -0.0033561636 -0.00225917 -0.00066674827 0.002387034 -0.0016091536 -0.0016216795 0.003662583 0.0015022414 -0.0037553688 -0.0015426249 0.0020443203 -0.0016376883 -0.0029215624 -0.0006599161 0.0010840282 0.00015775408 -0.003009603 -0.0010692454 -0.0011542956 -0.00012694793 -0.001750782 -0.003357546 0.0033173726 -0.0035098211 -0.0016937519 0.003505809 -0.0028436258 -0.0018898702 0.002675712 -0.0030939467 0.0005585511 0.0012612349 -0.0026343514 -0.0007093589 0.00029422718 0.0026258028 0.0016677522 -0.0027597605 -0.0022058957 0.00014160981 -0.0011050552 -0.0005218152 -0.0035948462 0.0022608654 0.0015254874 -0.0011302583 0.0023493718 0.0036484057 -0.0017389338 0.0016374438 0.001271032 0.002053386 0.0017090698 0.0033688492 0.0031098358
3 -8.259777e-05 -0.003227247 -0.0027986227 -0.002286817 0.0011659621 -0.0005986846 0.0018294354 0.0019854333 0.0035645799 -0.0021422007 -0.00042824258 0.00080574804 -0.0013448499 -0.0036999239 0.0022756504 0.0006204649 -0.000655185 0.0011477533 -0.0034709866 -0.00023208115 -0.0024103478 -0.0033885771 0.0036425781 0.0034856938 -0.0018257466 0.0032727683 -1.8969362e-06 0.0031408665 0.000530941 -0.00059674686 -0.00066420424 0.00086147076 0.0011896836 0.0012445702 -0.0020057438 -0.0005929086 0.0011604662 0.0034946369 -0.0008810342 -0.0037211804 0.0027091573 0.0026124981 0.0008819788 -0.0015498663 0.0036394969 -0.0017800386 0.002065586 -0.00044497856 0.0011790338 0.0019600862 0.001904672 -0.0012903279 0.0028303994 0.002701602 -0.003130791 0.0004222229 -0.003696188 0.0021928416 0.0032775777 0.0017447412 -0.0008355547 0.0001396543 -0.002737208 -0.0021671727 0.0018731898 0.0018435438 -0.0015619644 0.0032739122 0.000861909 0.00088649796 -0.0008611041 0.0018120604 0.002140577 -0.0011791567 0.0018591066 -0.0018204828 0.0007391153 0.0038198004 0.0013004737 0.0030297006 0.00062518567 0.003073881 0.003395156 -0.0008201441 -0.0026826875 0.0016872473 -0.00049570017 -0.0027613065 5.0740895e-05 -0.00018379523 -0.0010890511 0.0027073412 0.0035455443 0.002647941 0.0021851824 0.0038659251 -0.0012428346 -0.0024808263 0.0019429304 -0.0030685666 -0.0033206125 -0.0030536423 0.0010056363 0.0008065882 0.00088675093 0.0012463498 0.0029858183 -0.0033076666 0.0017770058 -0.0012869007 -0.0007090972 -0.0021125148 -0.0011068713 -0.001285344 -0.0033844397 0.0029454867 0.0022494742 0.0024470123 -0.0025193125 0.0013458034 0.00029351018 0.00015427456 -0.0018485878 0.0005752487 -5.8327343e-05 -0.0024477313 0.0017277396 -0.0035878588
58 0.0023840428 0.0027487918 0.0023008382 0.0022718937 -0.0010606422 0.003090302 -0.0037199848 -9.0455476e-05 0.0014880955 -0.0025822876 -0.00089027785 0.001550113 -0.0015499751 -5.3315605e-05 0.0032271282 0.0021642519 0.0031152284 -0.0020601305 0.0015383112 -0.001805152 0.0012169464 -0.003533344 0.002149609 0.0007438532 0.0015477475 0.002677234 -0.000255605 0.0021248125 0.0010778927 0.002285906 0.0021374212 0.00095482665 0.0016766763 -0.002089651 -0.0031440118 -0.003242128 0.002783159 0.00070019515 0.00087492634 0.0018412407 0.0027953952 0.0014485789 0.0014678445 -0.0027336848 -0.001810458 -0.0005623567 0.0022547126 0.0013621901 0.0016322613 -0.0034879074 0.003083574 0.0016354377 -0.002648668 -0.0033110303 0.0006730418 0.00055013614 0.0021137528 -0.0026303336 -0.0017629848 0.0014725699 0.0005942335 -0.0032667373 -0.0022405563 0.00087518105 -0.002458168 0.0036591915 -0.0013345393 0.0038608 0.0018849471 0.0019374959 0.0013411758 -0.002401671 0.0024698507 -0.00023113548 -0.0033680045 -0.003516706 -0.000963512 -0.0031844012 -0.00019106269 0.00063459296 -0.002014927 -0.0020439446 -0.0005112685 -0.0015706606 0.0022257096 0.001157339 -0.00019907842 -0.0005084103 0.0036960256 -0.0019993333 -0.002515286 0.002356827 -0.00091499963 -0.002384606 0.0026156192 -0.0031228592 -0.0018423344 -0.0017180947 0.0027633978 0.0027123096 0.0022952508 0.003530953 -0.0025444846 0.0019480032 -0.00029248407 -0.0020638593 -0.0008946482 0.0010731936 0.003705005 0.0013619179 -0.00064463954 -0.0032634523 -0.0016415664 -0.0019289786 -0.0012944799 -0.0014972504 -0.00082197087 -0.0016254343 0.00056711654 0.0012320607 -0.0017906649 0.0036077604 0.00343953 -0.0036627182 0.0033540407 -0.0028888846 0.0037251748 0.0030819352
4 0.0014215872 -0.0035399091 -0.0031588492 0.00080357643 0.0021336353 -0.00091099844 0.00076263637 -0.0022790532 0.0016648055 -0.002175188 -0.0023849597 -0.00047513025 -0.00041590235 3.703904e-05 0.0006879874 0.002590268 0.0015783152 -0.0022258123 -0.0004378748 0.0004983741 0.0019603462 0.0025745083 0.0019121827 0.0019051076 -0.0009293571 -0.0010642051 0.0032452391 0.0011663998 -0.0021155432 0.0013758274 0.0037094948 -0.0020587554 0.0032050991 -0.002157084 0.0034504917 0.0006506263 0.0014800975 -0.0037300144 -0.0006775693 -0.003242048 0.003852442 0.0007092149 0.0034016564 -0.0034335314 -0.00042059517 -0.003283484 0.0008941812 0.003669968 0.0014137798 0.0028505703 -0.0024485863 0.0025807065 0.0027840193 0.001562539 0.00249103 0.0019008024 0.0027562892 0.00091031345 -0.0012219526 0.0021808986 -1.9368077e-05 0.0034579707 0.00075522816 -0.00078799325 -0.00059601036 0.0031937286 0.0011272024 0.0005019214 0.001887866 0.0012402287 0.0029373101 0.0014637358 0.0014068356 0.0005134077 0.0010520915 0.0021182492 -0.0012648494 0.0012863749 0.00029496732 0.0003060443 0.00033332978 0.001911593 0.0038966779 2.9151922e-06 0.0031937798 0.00017078943 -0.00094879535 -0.0016695588 0.0012175603 -0.0026210696 -0.002226659 0.00028694392 -0.0001354146 0.001447207 -0.0026538735 0.00274349 0.0038258638 0.0015592244 -0.0035276453 -0.00015809012 0.001518003 0.0026230435 0.0008025529 0.0029664177 -0.0024508715 0.00261079 0.0038614492 0.00028075863 0.00016817822 0.0017428128 -0.0025876116 0.0017202961 0.0023643968 0.0019343637 -0.0028286723 -0.0022158956 0.0015540533 0.00082909246 -0.0016860798 -0.0011434073 0.0020607451 -0.0023366534 0.0016546376 -0.0014430627 -0.0019986967 -0.0016916167 0.0023337253 0.0010235932
8 -0.00019290461 -0.0025693423 0.0028035578 -0.0034040334 -0.00080236874 -0.0008842803 0.000598984 -0.0022524837 -0.0037700373 -0.0023874391 0.0023657875 -0.0030147815 -0.0014329931 -0.0022846314 -0.0008879479 0.00018281626 4.4397817e-05 0.0029365881 0.00012545065 0.0005643394 0.0015349567 0.0007200069 -0.003894403 0.0035960155 -5.1610106e-05 -0.0017350396 0.00041773528 0.0023096101 -0.0033451028 0.0027604292 -0.00026249292 0.0031133066 -0.0001657939 -0.003769353 -0.0037413496 -0.0009468595 0.0021055492 0.0017804566 0.0038158314 0.00026920438 -0.0012640401 0.0022576123 -0.0037715803 -0.0026887597 0.0024888741 -0.00273592 0.0034063554 0.00030985396 0.0038303635 0.0038877085 0.0035733627 0.0010988461 0.00089436275 0.0019097194 0.00013796822 0.002955895 -0.0022948408 0.0018234692 -0.0037227978 -0.0026516097 -0.0038458507 -0.0011912569 -0.00255728 -0.0037898193 -0.000368506 -0.0038300944 0.0028467467 -0.0009370011 0.00037948712 -0.00046942875 -0.00028114105 -0.003384411 0.0013359262 0.0015775512 -0.002092594 0.0034853565 0.001969164 0.00038717012 -0.002958244 -0.0022717656 0.002353085 0.0018074232 -0.0029093365 0.00027538417 -0.0006157012 0.0009766123 0.0010863399 0.002188387 0.0024413955 0.0018879385 -0.002115809 0.0017719402 0.0021206902 0.002769546 0.002647923 0.0011067907 0.00040470067 0.0035219637 0.00073321967 -0.0012756885 0.00216023 -0.002549903 0.00032613217 0.002830297 0.0037403733 0.0022919439 -0.0010940997 0.0014638082 0.0006698196 -0.0022601786 0.0015071796 -0.0017710328 0.00067314936 -0.0018549163 0.001671553 0.002960596 0.0034820095 0.00079203676 0.0037642517 -0.0019734371 0.0027493811 -0.0033081365 -4.199644e-05 -0.0017247905 -0.0016856341 1.8270592e-05 -0.00036558576 -0.0035039526
73 -0.0030671817 -0.0001172568 0.00011811041 -0.0014992168 -0.0021006595 -0.00026842052 -0.0034863544 0.002070525 -0.0015052896 -0.003385394 0.00252282 -0.003899304 0.0034381817 -0.00070980407 0.0011750084 -0.0016148532 -0.00037755896 -3.214431e-05 5.936306e-05 0.0015333206 -0.0005983124 -0.0016669602 -0.0012051063 -0.00012221657 0.0011926143 0.0029728925 -0.002848863 0.0036939008 0.0019755154 0.0038009416 -0.00042689606 -0.0019918734 0.003458286 0.0018325902 0.003735824 -0.0039031594 -0.0025415996 0.0015318516 6.602341e-05 -0.0016720219 0.0038227555 0.0001237984 -0.001411143 -0.0033755815 0.00025286383 0.0020045836 -0.002392766 0.0013791026 0.0038575486 -0.00073632994 -0.00014566374 0.0027472782 -0.0012746461 0.0026599308 0.0038125725 0.0013534897 0.0014506141 0.00238561 0.0030385873 -0.0018344069 -0.0036819775 0.0038958443 0.0029495587 -0.0028233326 0.0037429961 -0.00037793987 -9.551065e-06 -0.0016995311 -0.00092587457 -0.0020491562 0.0037242845 -0.0004143714 -0.00021242988 0.0035145471 -0.0019022047 0.00037025727 -0.0013727321 -0.0017052303 -7.9673024e-05 0.0038219176 0.0029494418 0.0018237985 -0.0013523417 -0.0024665112 -0.0021512003 -0.0013679215 -0.00060342107 -0.003846525 -0.0009393647 -0.0008457107 0.0035849786 -0.0019189942 0.00029128132 0.0020820561 -0.0005626741 0.00226716 -0.0006278934 -0.0037879923 -0.0028630146 -0.0010774182 -0.0038003363 -0.0028712358 4.315905e-05 -0.0017839485 0.00332254 -0.0017540071 0.0012407957 -3.853187e-06 0.0016473626 0.0005372701 0.0017186648 -0.0017421152 0.00016259382 -0.0029195982 0.0036292349 0.0015013936 -0.0008603382 0.0033144418 0.0023348562 0.0030577464 0.0018336932 -0.0029318416 -0.0031127594 -0.0010504628 0.0018281087 0.0022589082 0.002346891 -0.002459006
30 -0.00087974477 0.0022309315 -0.00095238583 0.003165714 -0.0008232702 -0.0014691767 0.0027762407 -0.0007072002 0.0015535514 0.0023680227 0.0017736955 -0.000362183 0.00024070786 0.0024439027 6.379122e-05 0.0035436663 0.0033159482 0.0014390184 0.0013062835 0.0004296044 -0.00053308223 0.0031907957 -0.0015685537 -0.0014174607 0.0016939286 -0.003018651 0.0005858897 -0.0019541725 -0.0001685642 -0.0016384159 0.00026450807 -0.0036517896 0.0010233367 -0.001303565 -0.0017190997 -4.5928253e-05 -0.0018408685 0.002462045 0.0025124722 0.00027291407 -0.0030406578 0.0016051754 -0.0012081063 -0.00061629334 -0.0012040498 -0.0036147467 -0.0024547994 0.0019274622 0.0014835605 -0.0028155725 -6.267823e-06 0.0006434208 0.0017595342 -0.0015744482 -0.003727733 0.0011930595 -0.0037234947 -0.0009931497 0.0027250254 -0.0037593883 -0.0030727286 0.0024514722 -0.0014936951 -0.002469087 0.0027503923 -0.0026176407 0.00010180331 0.001619536 -0.002297917 0.0030207739 -0.0003793111 -0.0026832463 0.0020533125 0.00034261207 -0.0038545954 0.0017290347 0.0023299837 0.0030485613 -0.0008177262 -0.003679214 0.0019517483 -0.0028208988 -0.0002713831 0.0020457376 0.0033141032 0.0010258739 -0.001217764 -0.0026715419 -0.0019561895 0.001598149 -0.002979397 -0.0015254597 -0.0024044567 -0.0016352533 0.0005335459 -0.0011947793 -0.0018056988 0.0017732924 0.0024002038 0.002215343 -0.0024405213 0.0018167719 -0.0016398039 0.0033098385 0.0024165947 -0.00015553477 -0.0018218237 -2.359688e-05 0.0034403787 -0.0037239727 0.0018243116 -0.0015595387 -0.0038708795 0.0021671653 -0.0032479067 0.0018030674 -0.0031081254 -0.0005734892 0.003872698 -0.0038130698 0.0022517415 -0.00015266222 0.0022826185 0.0027889193 0.0030739307 0.0021056985 -0.00289376 -0.00078971067
93 0.0032267391 0.0007681945 0.0029260353 -0.002238923 0.0038366674 -0.0008813856 -0.0013790104 0.0005015717 -6.70609e-05 -0.0029279122 -0.0018026035 0.0019022687 -0.0017433654 -0.0037062678 -0.0006567287 -0.0026566915 -0.00072503113 -0.002669905 -0.0029070424 0.0016973314 0.0024627156 -0.0030209771 0.0037188877 -5.265101e-05 0.0013584234 -0.0005894963 -0.0032324393 0.0032188972 0.00078076124 -0.0024418468 -0.0032498867 0.0029862106 -0.0020897347 -0.001715555 -0.0016463258 1.9270967e-05 0.0010106042 -0.0007455084 2.1843736e-05 -0.00076206215 0.0033921401 -0.00081965147 -0.00070549134 0.0023996795 -0.0022040303 -0.0026736113 -0.0035230983 0.0017046229 -0.0001477199 0.0007846275 3.423884e-05 -0.0033891532 -0.0008896588 0.0013944044 0.0027730379 0.0028510643 -0.0017840619 -1.1356592e-06 0.00315459 -6.441378e-05 -0.0019551828 0.0038046269 -0.0036382794 -0.0010721055 0.0026233424 -0.003818113 -0.0036750408 0.0030981505 0.0020764638 -0.00097241346 0.0032033643 -0.0008593432 0.001456309 0.0034829967 0.003333332 -0.0025827081 -0.0018536942 0.0032031243 0.0008285706 0.0013883264 -0.0031161746 0.0018525807 0.0004328895 -0.0020885773 0.002972728 -0.0027298299 -0.0019452226 -0.00042170222 0.0022900326 0.0018738791 -0.0018843007 -0.0009122366 -0.0023170407 -0.003371165 -0.0006012979 0.0034721242 0.00059383584 0.00078506145 -0.0011547676 -0.0026400085 -0.0036818641 0.0021274234 0.00055602024 -0.00014528353 0.0027638248 0.0034356692 -0.00022448784 -0.0008278119 -0.0029706266 0.0027510861 -0.0016358882 -0.0030235406 0.0036733435 -0.0034633419 -0.0019559467 -0.002743876 7.686501e-05 -0.00023123845 0.0016081787 -0.0035041745 0.0009353775 0.0013379893 -0.0038372567 0.002513479 0.0025533587 -0.0018312971 -0.0037410408 -0.0038106693
51 0.0017099608 -0.002158582 0.0009756528 -0.0016974997 0.00011759846 0.00018136363 0.0010284011 -0.00084804016 0.0014311798 0.0002415069 -0.0013982942 0.0017126478 0.001093116 0.00096655486 -0.0031260776 -0.0017088243 0.0010078701 -0.0037934755 0.0011031871 -0.0027102435 -0.0021011655 0.0020986488 0.0016687427 -0.001440293 -0.0020114335 -0.0010341153 0.0011349341 0.0010609655 -0.0019366711 -0.0013568534 0.0027076046 -0.0026492374 -0.00036058162 0.0028222462 -0.0028006437 -0.002678772 0.0026153214 0.0012652606 0.0021959464 -0.0030685547 0.0010280049 -0.0009226135 0.0024410584 0.000955697 0.0016250479 0.00042564684 -0.0026313367 1.3396364e-05 0.0024366272 0.0013284202 -0.002167172 0.0034103212 0.00010879242 -0.0038936452 -0.0021269051 0.0021611876 9.914139e-05 -0.0002843727 0.0019265919 0.0011469586 0.003865897 0.00048071003 0.00145059 0.0025954617 0.0009187519 0.0016715465 0.001652905 0.0016558871 -0.0030028527 0.00318656 0.0027907405 -0.0015147616 -0.00221612 -0.0019277785 -2.3009321e-05 0.000844103 -0.0014385835 0.0026140788 -0.002612461 -0.0034831103 -0.0026541844 0.00082598464 -0.0014776493 0.0019602461 -0.0027827378 -0.0034525036 -0.0021067034 -0.0012577049 -0.0030811853 -0.0012297372 -0.0035381198 0.0030496144 0.000332929 -0.0014523249 -0.0035517362 -0.00027427825 0.0030861995 -0.0023123506 0.0018874167 -0.0025663956 0.0026942987 -0.0011543719 -0.0018482124 -0.00068471505 -0.00062481966 0.0020310867 -0.0017468807 -0.0027111957 -0.0034962182 -0.0028354258 -0.00256512 -0.0018735293 0.003199582 0.001906466 -0.002254256 0.002731197 0.0030719917 0.0029979085 -0.003126509 -0.002759125 0.0021820082 -0.0027161064 -0.0012604005 -0.0013030004 -0.0035330802 0.0013793226 0.0011370281 -0.0027659405
22 -0.0020913666 -0.0031231826 0.003568689 0.0035521986 0.0008617564 0.0009817163 -0.00010016077 -0.0007806748 -0.0034311586 -0.0024303326 -0.0018836281 -0.001261119 0.001188285 -0.0019534894 0.0026519508 0.0023893376 -0.00047279746 -0.0030937868 0.002746471 -0.0018400457 -0.00025689736 -0.0009603441 0.0009817939 0.001760611 -0.00082352693 0.001430736 -0.0009126292 0.0005276809 -0.0021491472 0.0030534582 0.002575447 0.0036096198 0.003374598 0.0037284717 0.0017007259 -0.0030168612 -0.00033726316 0.0014796501 0.0006669087 0.0028039184 0.00031524172 -0.0038907882 0.003405622 -0.0002771965 0.00069939066 -0.0015675367 -0.0028578348 0.0013678658 0.002026534 -0.003416686 0.0012953689 0.003219785 -0.00032614067 0.0018750017 0.0012720425 -0.0014742196 0.0018082537 -0.0017167957 -0.0013608045 0.0032709436 -0.001795801 0.0022417447 -0.0025380196 0.0024424088 0.0023425857 -0.0014207906 -0.0026604123 -0.003606411 0.0037566004 -0.0015167353 -0.0023182256 0.0020913158 0.00086887676 0.0015991549 -0.0021341194 -0.0015946883 -0.003093769 -0.003874989 0.0029777703 0.0005975787 0.0021932158 -0.0021238485 -0.003256285 -0.0027737054 0.002289814 -0.0037197757 -0.0013260132 -0.002918875 -0.000588416 -0.0037791512 -0.0034350755 0.00047571977 -0.0027757394 -0.002815357 0.0031648802 0.00035871437 -0.0025073013 0.0007553717 -0.0025919103 0.0010284587 0.0015023386 -0.001611425 -0.0037381435 -0.00387786 -0.00059628213 0.0035779802 0.0014481149 0.00056068203 -0.0018959023 0.0017567793 -0.0022050904 0.0008857382 0.00097382977 -0.0038805539 0.0036263776 -1.5954925e-05 -0.0019392847 0.0038721205 -0.0005286365 0.0017963572 -0.0024767476 0.00043744675 -0.0026522686 -0.0032609315 -0.002626491 -0.0017403458 -0.0012475351 0.0010354136
76 0.0034189026 -0.00068453385 0.00095690787 0.0015367297 0.003558592 0.00071492215 -0.0024885172 -0.00019592034 0.002227724 -0.0006313453 0.0024457348 -0.0025692524 0.0026496702 -0.00155942 0.0036251738 0.0013953634 0.0024633394 -0.001199144 -0.0005668128 0.0026828244 0.0020855714 0.00018091853 0.0035019675 0.0019653742 -0.0025999304 0.0034494165 0.0028087688 -0.0037797869 0.00031859195 -0.00019177442 0.0036688542 0.00024094975 -0.0034471645 0.003485266 -0.0024731613 0.0016203588 0.0020183655 0.0017926336 -0.000120149016 0.00015790825 0.002026852 0.00042947862 -0.0003721715 -0.00033821064 -0.0037648366 -0.0016254518 -0.0036970566 0.0020753853 -0.0018137076 -0.0014728814 0.0020119902 -0.0019348722 0.0019486004 0.0018720593 -0.0017151395 0.0028145215 0.0022516772 -0.0033737773 0.0029312482 1.8664108e-05 0.0037098483 -0.00039284406 0.00073812756 0.0011139428 -0.0020633356 0.000713651 -0.00011260482 0.003453653 0.0025169759 -7.2047194e-05 0.0013901428 0.00039326423 0.002515431 -0.00254818 0.0017789 -0.0032055823 -0.0012190643 -0.0029905501 0.0037823278 0.0031738456 -0.00031160752 0.0005185677 0.0029339623 -0.0033590188 -0.0008764606 0.0006563287 -0.0026280093 -0.0012363992 0.002429887 0.0024366337 0.0014351455 -0.00048264768 -0.002439078 -0.0016546816 -0.0020932746 0.0021649513 -0.003507203 0.001248441 0.00055926916 0.0037291404 -0.0017505134 -0.0034413054 -0.00042962693 0.0017829788 -5.2524487e-05 0.000748707 0.0026455398 0.0015270704 0.0004127366 0.00062974525 -0.0031500885 -0.00038871288 -0.00030000464 0.0017846924 -0.0014604413 0.000513859 -0.0030188053 -0.0036281873 0.0029659248 -0.0025589385 0.00048370386 0.0033033278 -0.0002100884 -0.0028624162 -0.003493999 0.00224492 0.0018369716 0.0036263291
28 3.3712866e-05 0.00075653713 0.0011323778 0.0028082002 -0.00011721297 0.0014483564 -0.0023703377 -0.001001602 -0.0012256489 0.0031665522 -0.002213198 0.00049423584 0.00011011572 -0.003469374 0.0018284845 0.003719176 0.0022522446 0.003727369 0.0013061074 -0.00040606907 0.00091810303 -0.0019358192 -0.0017653527 0.0010343579 -0.0024141609 0.0030348273 0.0018770646 -0.0020510438 -0.00024810026 0.0024581188 0.0030299397 0.0027884026 3.5966546e-05 -0.0008576384 0.0035821802 0.0015906779 -0.002167389 -0.00020344046 0.001508289 0.0006754771 0.002371576 -0.0011132477 1.0227276e-05 -0.0022614808 0.003101798 0.0037030808 0.0015597558 0.00017221892 -0.0038013514 0.003778751 0.0015007446 0.000394549 0.00017561897 -0.0006036239 -0.0033755808 -0.0022632768 -0.0029208597 0.0037516002 -0.0021791179 -0.0037903402 0.0034853893 -0.0029194753 -0.0035227097 0.0025537976 0.003506752 0.00027731116 -0.0010248052 -0.0036561454 -0.00060404703 0.0018367101 0.0025553547 0.0036730357 0.0024728912 -0.0008011894 0.0028644446 -0.0017366768 0.0004597793 -0.003599331 0.00018180886 0.0027282939 0.003638419 -0.0026303208 -0.0028369776 -0.0030658003 -0.00087808335 0.0030118478 0.0017773843 0.0012706674 -2.170522e-05 -0.002470816 -0.0024894346 7.2929484e-05 -0.00020608638 -0.0038584014 -0.0002319969 0.0027617842 0.002606484 -0.0037784253 -0.0011579524 -0.0016942427 0.0007892547 0.0010608205 0.00024238006 0.00068315346 0.0028805744 -0.0016981174 0.00061044376 -0.0029673204 -0.0032833244 0.0015229173 0.0005774645 -0.003825701 -0.0008852019 0.0026481135 -0.0015823564 0.0038187974 0.0015524756 0.0034205073 -0.0002937232 0.0014226106 -0.00218427 -0.003419862 0.0020371156 -0.0005899454 0.00035284922 -0.0008878138 -0.0025831005 0.0025841012
78 0.0018391098 -0.0030577458 -0.00083164807 -0.0037485638 2.8811008e-05 -0.0026847378 -0.003343045 -0.00096136925 0.0019059659 0.001045175 -0.0037376322 0.0018429729 0.0012349818 0.00040006867 0.00085650425 0.0032961327 -0.0038608753 -0.00032820305 -0.0019015695 -0.0029881373 0.002552635 -0.0026590286 0.0023880582 -0.002346715 0.0022003849 0.00044784654 -0.0015236075 0.0029584856 -0.0030711757 0.0010757346 -0.0025266204 -0.002467245 -0.00024555816 0.0006458206 0.00091035885 0.00034840667 -0.0017963774 -0.00023513247 -0.0036153297 -0.0012325902 0.0017767746 0.0012809085 -0.0012487445 -6.087976e-06 -0.00073042145 -0.00015057604 -0.0031058101 0.0004429979 0.00075698626 0.0027874338 -0.001455589 -0.003209577 0.0018292837 0.00039445865 0.00063008984 -0.0036877922 -0.00071848964 -0.0033164553 0.0020325414 0.00097425864 -0.0010565973 -0.0012273509 0.0034351463 -0.0008840207 -0.003174803 0.00071634346 -0.0017826066 -0.0038326995 0.00059475435 -0.0023082427 -0.00055195595 -0.002296123 -0.0038523339 -0.0031822715 0.002270287 -0.0026811953 -0.00024174983 -0.0010821198 0.0017891077 0.0022483608 -0.0034329577 0.0012797496 0.0018765731 0.0007458051 0.002035786 -0.0012003898 0.0034621835 0.0030865804 0.0018403723 0.0027072532 -0.00034754042 -0.0030835215 -0.0034292429 -0.0030733275 -0.0014441921 0.002993877 -0.000620106 0.0023886575 -0.002503528 -0.003625381 -0.00039633055 0.0016935116 0.0032879591 -0.00023162687 -0.0010240704 -0.00020649967 0.0028947026 0.00088446576 -0.00036762634 -0.00097381213 -0.0021286372 -0.0022977802 -0.0015330649 -8.2789185e-05 0.0024113755 0.0010143024 0.0013616948 -0.0006847135 0.00154009 -0.0024233279 -0.00036041316 -0.002011431 0.0024587105 0.0038748037 0.0008538823 -0.0032047946 -0.0022237715 0.0018453499
75 -0.0024548704 0.0032919422 0.0033571129 -0.0036557892 0.0023381116 0.0038899567 0.0026504453 -0.0034406676 -0.00371892 -0.0031185409 -0.0037080524 -0.002736875 -0.00031781002 -0.0035247258 -0.00021590087 0.0011065212 0.0028000455 0.0016273034 0.003252473 -0.0010386625 -0.0011791795 0.0005519635 0.0030401628 0.0025523375 -0.00045183778 -0.002976574 -0.0026960373 -2.5197709e-05 -9.6945725e-05 0.0029396804 0.00021053969 0.0019192765 0.003691807 -0.0028507998 -0.0032663252 -0.0010361386 0.0016414969 -0.0015554753 0.0029420303 -0.0029306149 -0.0006835244 -0.00085614424 0.0025699593 0.0031204342 0.0034723294 0.0012904576 -0.00037871406 -0.0026391267 0.00072809117 0.0033225894 -0.0018828777 -0.000117830285 0.0036056074 -0.0024616104 -0.0021594653 -0.0003850429 -0.002086161 -0.0031243893 0.003869825 -0.001024574 -0.0011918258 0.003814648 -0.0019171458 0.0011486254 0.0032853032 -0.00046384346 0.00028123235 -0.0028691099 0.003021912 -0.0034750523 0.002548136 -0.0026848603 -0.00027252868 -0.002920863 0.00024561578 -0.003542802 -0.00041996938 -0.0017874449 0.0024709646 0.0001807272 -0.0017321903 -0.0027042744 0.0004121925 0.0020861982 0.00023093412 -0.0037776201 0.0022475822 -0.0013819799 -0.003064531 -0.0002003846 0.0022730073 0.0018845353 3.7977108e-05 0.00299405 -0.0026534752 0.0020831344 -0.002881087 -0.0011568833 -0.00047481075 0.0015907881 0.0023496589 -0.00036299016 -0.0036747034 -0.0028070707 -0.0033354866 0.0027444402 -0.0025359262 0.00051634345 -0.0037333108 0.0020346479 0.0023001456 0.0010424892 -0.0007170589 0.0006950238 0.0014488539 -0.0029314624 0.0018120726 -0.0012524995 -0.0028209493 -0.0009774999 0.0029664158 -0.0024954996 -0.0037503135 -0.0010998549 0.0007106089 0.00042046516 0.0028634446 0.0011035589
10 -0.0027255237 -0.0024345638 -0.0023276594 -0.0030789995 -0.0033305772 0.0007321514 -0.0033949742 0.0011567933 0.0027138519 -0.00338331 0.0026523205 -0.001358278 -0.0037035057 -0.0037135365 0.0018835642 -0.0019904478 -0.0011296286 -0.0022501436 -0.0029448888 0.0036899876 -0.0032579442 0.0030360431 -0.0029930205 -0.002829106 -0.0011823273 -0.0010118813 0.0012703341 -0.0030561683 -0.0014970138 0.0032046656 0.0037434723 -0.0008107062 -0.002859205 0.003308537 0.0028701448 -0.0010063414 0.0034192125 -0.0008937266 -0.0023935135 0.0033259944 0.0026264768 -0.00016549743 -0.0029718853 -0.0010280184 -0.0012812845 -0.0012704278 -0.0028772021 0.0013105843 -0.0035796573 0.0026639733 0.00032259081 0.0025977571 0.0005790408 -0.003336346 -0.0020422975 0.001695399 -0.0022333593 -0.0025397935 -0.00069610233 0.0010974681 -0.002533645 -0.002738979 0.0025299063 -0.0010353617 -0.0035026404 -0.003438541 -0.0012041463 0.002670197 0.0016204981 0.0027257057 -0.0035669378 0.0036599769 -0.0025424436 0.0033570703 -0.0026638731 0.001321524 0.0028908814 0.0018000375 -0.0020736381 0.0036563822 0.003888226 -0.002883973 0.0037693013 0.0025776005 0.0036999418 -0.0034929162 -0.00037712336 -0.0013237824 0.0018531432 -0.0023131515 0.0006030006 0.00035129624 -0.0027473958 0.0011379609 0.00062679895 -0.0038735725 -0.0033089959 -0.003488219 -0.0028274348 0.003148994 0.0017864456 0.0037526106 0.0026553194 0.0015183492 0.00020380059 0.00089602085 0.0032500087 0.0034521644 0.00179463 0.000685479 0.0011517832 0.00039322543 -0.0020887677 -0.0017854183 0.00051618245 0.0005452431 0.0033291671 0.0020995282 -0.0029427102 0.0033180097 0.00065779034 -0.00030790866 0.0029701518 -0.0009435759 -0.001078413 0.0016664474 -0.003245543 0.0009310679
66 0.0024243111 -0.0026233143 -0.0022891203 -0.0018840213 -7.596666e-05 -0.0019322489 -0.0017946948 -0.0030488777 -0.0014599245 -0.0016285038 -0.0016061246 -0.000891942 -0.0031319656 -0.0031227702 0.003160355 0.003031276 -0.0003814405 -0.00227487 -0.003613932 -0.0013032052 0.0014989608 -0.0012247451 0.002511153 -0.0014959582 -0.0010061446 0.00283453 -0.0008994014 0.0011916818 0.0028418507 0.0034941125 -0.0036535973 -0.0023381652 0.0016627441 -0.00029628808 0.0011739519 0.00039817032 -0.0037539173 0.00046154307 -0.0005253159 -0.002453255 -0.0024313722 -0.001680406 0.0005006253 -0.0019168243 -0.0037846689 0.0019229924 0.0028374027 -0.0016466113 0.0033529857 -0.0030459363 0.0012206924 -0.0018724314 0.0008891 -0.002005181 -1.25760225e-05 -0.0026516218 0.0013706583 0.0024007054 -0.00096301315 -0.0008235444 -0.0023608531 -0.0017838285 0.0038974052 -0.003147182 -0.001260733 -0.0016106445 0.003644439 -0.0036052428 -0.0039017568 -0.0005103926 0.0014786881 0.0013644774 -0.0006429864 0.00037063926 0.002295423 0.00025233667 0.00061194896 0.0013877054 0.000378358 -0.0031191974 0.0026092662 0.0031849996 0.00079920964 0.000315092 -0.0024520718 0.0035921196 -0.00056102796 -0.00018629829 -0.000617859 -0.0009955862 -0.0019717277 -0.0024610667 0.0018767687 0.0016924447 -0.0029655437 0.00025816952 0.000643913 -0.0029344533 -0.002103733 -0.0013980988 -0.00060438673 -0.00087840477 -0.003128861 -0.0006201491 0.0003363758 -0.00037550973 0.0037649372 0.002096929 0.0035746153 -0.003682859 -0.002757636 0.0019583062 0.0027416875 0.0016641706 -0.0023795553 -0.002827666 -0.003841045 -0.0009389207 0.0032693716 -0.0028363725 -0.0020074209 -0.00041485537 0.002642768 0.0011379718 -1.7589253e-05 6.4094784e-05 -0.0019917246 -0.00039651798
25 0.0023240042 0.0033733174 0.0005324986 -0.0026346769 0.0023840542 -0.0031522498 -0.0025062333 -0.0031052127 -0.0020663538 0.00064514356 0.0034473662 0.0036395728 -0.0035275235 -0.0014493971 0.0002209331 0.0013859326 -0.0036228076 0.0017830845 -0.0009556953 0.0037616177 -0.00025784253 0.0037067002 -0.00010959461 0.0022212586 0.0019820249 0.0029350591 -2.5892907e-05 0.0028677622 -0.002943451 0.0033735542 0.0002591512 -0.0018363902 -0.0029493652 -0.0032271324 -0.0035549342 -0.001095077 -0.0006322648 0.0035595738 0.003621356 -0.002064668 -0.0033215485 0.00073657354 -0.0016341878 0.000806258 0.0033851652 -0.00038575009 0.0020027778 -0.0008267875 0.001128621 -0.0019502328 -0.0021800948 -0.0010937561 0.0034429536 -0.0010139517 -0.0027434265 0.0020435667 -0.0035013168 -0.0011658636 0.0005076512 -0.0038392225 -0.0035588164 0.0030127324 -0.0012055145 0.003443918 0.0026876505 -0.0033469787 -0.0018449485 0.0017304656 -0.0032825163 0.002724453 0.0023306392 -0.002428158 0.0013027985 0.0033972347 0.0034494186 -0.0015410205 -0.0015802634 0.002871126 0.00080202654 -0.00021085652 0.0036527193 -0.0003335154 0.0036068326 0.0035890616 -0.0030529322 -0.003139778 0.00033157284 -0.0035795255 -0.00034550775 0.00050787017 0.0024063005 -0.0004029033 -0.003361042 0.0034208044 0.0038753825 -0.003847105 -0.00034782954 -0.0036182213 0.0037304477 -0.002609215 0.00038627483 -0.0035536834 0.0013286289 -0.0014831966 -0.0011997219 -0.00069882063 -0.003435814 0.0001825477 0.0019948585 -0.0038402986 0.0006055109 -0.0023104248 2.6262713e-05 -0.0025732995 -0.0022066066 0.00021859117 -0.003363849 0.0032936672 0.0010230292 -0.0037889772 0.0024170005 0.0009156526 -0.0036180615 -0.003035887 -0.0002558863 0.0022793338 -0.0027738619 -3.0560906e-05
65 0.0006751685 -0.0024365177 0.0027639533 0.002943278 -0.0021161914 -0.0014671786 0.00036787734 0.0025419344 -0.0035874657 -0.0021760873 0.0015167596 -0.0019950133 -0.0012006433 -0.0015068044 0.0035411592 -0.0017004826 -0.0005082588 -0.0019314236 0.0032280434 -0.0038090001 -0.0007237733 -0.0017940669 0.002727693 0.0010045395 0.003010935 -0.00070630043 -0.0023861735 0.00047834124 0.0026027125 0.003719458 -0.0019834298 0.0024111718 0.0009785268 -0.003601862 0.0027248068 0.0014860608 0.0018284228 -0.0013786331 -0.0031812799 -0.003869058 0.0002862041 0.0038085706 0.0033760576 0.0014165324 0.0021334025 0.0014317941 -0.0019323226 -0.0012968397 -0.00024988817 0.0013996237 -0.00047019092 -0.00010757528 -0.0030611018 0.00034673477 -0.00040308057 0.0027880436 0.0031873435 0.0019703214 0.0037692871 -0.00068992877 -0.0019101852 0.0016023903 0.0031237863 -7.946281e-05 -0.0011404643 -0.0008525938 -0.0003061719 0.0010053798 -0.0034319544 -0.0027386264 -0.0013570442 0.0031848755 -0.0020636157 0.0021275654 -0.0038156284 -0.0024393264 -4.141371e-05 -0.0021334707 0.0039028605 -0.00078763673 -0.0033093656 0.0016556076 -0.0029737398 0.0012143991 -0.00074853504 0.0033389153 -0.003729158 -0.0006885881 0.002372272 -0.0038028175 0.0020163083 -0.0030889348 -0.0025836867 -0.0020608658 -0.0025749865 -0.001559056 0.000899684 0.0015797196 0.0036082962 -0.00320045 -0.0031426027 -0.0020524652 -0.0009835433 -0.0025483598 -0.00247101 0.0011300759 -0.0038789955 8.838384e-05 0.00086710847 -0.003091646 0.0015912786 -0.003485142 -0.003423798 0.0018042015 0.0006965867 -6.2129286e-05 0.0039040032 -0.0030668518 -0.0016612855 -1.8842984e-05 -5.329091e-05 -0.0030026548 0.0010897788 0.0034496493 -0.002587225 0.0012236487 0.0012439798 0.0036647718
2 0.0014708253 0.00015907829 0.001131377 -0.00070770696 -0.00033278178 -0.002788971 -0.0035638115 -0.0025083278 -0.000107041575 -0.0016008673 -0.0033845224 0.00067059917 -0.00039692267 -0.001121919 0.002036211 -2.3503013e-05 0.0025601115 -0.0035201744 -0.0027055445 -0.0033874563 0.0025888071 -0.0012923169 -0.0020824794 -0.003170396 0.00043503704 -0.0034630843 -0.00020954212 0.0027850058 0.003675265 0.0030272314 -8.367538e-05 0.0019658809 0.0033846248 0.00034718195 8.455346e-05 -0.0038269644 -0.0025639147 0.0009771098 0.0008729082 0.0010974485 -0.002482998 -0.0028349701 -0.00026237202 0.0023070595 0.002189538 0.0037927805 0.00067715783 0.00071959675 0.001967886 0.0028315918 0.0010650016 -0.003386577 0.0013074223 0.0032573112 -0.0028481246 -0.002465575 0.0031701755 -0.0033730522 -0.0023353146 -0.0024768254 0.0035619594 -0.00036113904 0.0010408022 -0.0032365934 0.000816761 -0.00026938284 0.0012800277 0.0006304816 -0.0015245958 -0.0033439158 -0.0026421298 0.0001296989 0.0011520408 -0.00387446 -0.0013005266 0.0024403103 0.00017694822 0.00016802728 -0.0010367422 -0.0014877953 0.0008828247 -0.0018559558 0.002572751 -0.00067170593 -0.0010928232 -0.0012651714 0.0012650687 -0.0006933749 0.0031314217 0.0011699602 0.0028220117 0.0005335751 0.0037673446 0.00022642913 0.003314624 0.0022651413 0.00209875 0.0028961683 0.003382287 0.00056669366 -0.0032503216 0.000909657 0.0005800241 0.0021498606 0.003523845 -0.0037507198 -0.0017738186 3.1603377e-05 0.0003550866 -0.0009456744 -0.003487117 0.000466354 -0.0033480218 0.00088097906 0.00078032893 -0.0011279568 -1.9037208e-05 0.0020193027 -0.0023625265 -0.0004154167 0.00092994224 0.00049485633 -0.0020934981 0.0006982912 0.0033417025 0.0011305289 0.0024267808 -0.00199674
62 0.0036400317 0.0025968188 0.0012960171 -0.0037472483 -0.0007124101 -0.00032334786 -0.0023297847 0.00073659845 -0.00020328576 -0.0034502193 -0.002533075 0.0026493613 -0.0013969806 -0.001881278 -0.0013027027 0.0020450677 -0.00052188785 -0.002854714 -0.0005511618 -0.0018430143 -0.0010922401 0.0011828307 -0.00042447855 -0.0037785252 0.0011759184 0.0009496476 0.0018125022 0.0036995558 0.0019733356 0.00315869 -0.0004332017 -0.0035857284 0.00207324 0.0038193278 0.000716419 -0.0036973339 0.0009849798 0.0027165753 0.0003470896 -0.0016055432 -0.0033866174 0.002495185 0.00023612617 -0.0012618251 -0.0011015163 -0.0012279 -0.0026376348 -0.00025621444 0.0030039698 0.00014311956 -0.0016453376 0.00054233556 0.0021767374 -0.0018821222 -0.001596161 0.002037735 0.00061930285 -0.0026402685 -0.0029796332 0.0033882612 -0.00067008246 -0.0020953552 0.0014352485 -0.0024530375 -0.0032002395 0.0019978373 0.0038310816 0.0031911547 -0.0018315403 -0.0024350598 -0.0019154574 -0.0036015913 0.00038622716 0.003335477 -0.0037280582 -0.002728953 -0.0020060604 -0.003461498 -0.0007479733 -0.0024191616 0.0024032064 0.0007196014 -0.0012852608 0.0008753591 -0.0037204742 -0.0015377814 -0.0029385053 0.0019386224 0.00034125109 0.0007523289 -0.003231678 0.0023684516 -0.002078704 0.00276365 -0.0030063482 0.0033506816 -0.0008781611 0.0008529248 -0.002387451 0.0017364577 -0.0008313543 0.0029975756 -0.0005344548 -0.0009272985 -0.0015697475 0.002022733 -0.0032943997 0.0013632799 0.0030332056 -0.0022074122 0.00231988 -0.0005121937 -0.0029951655 0.0035523234 -0.0008600705 -0.00038497808 -0.0031128319 0.0035722696 -0.0023267402 -0.0013635473 -0.00067807006 -0.00031025975 -0.0022241264 0.0022692918 -0.0011075764 0.0008582616 -0.001259575 0.00096203247
17 0.00020514485 0.0020784477 -0.0007905833 -0.0007530607 -0.0038105906 -0.0038992213 0.003650895 -0.0019701137 -0.0014008103 0.0016753547 -0.0028344938 -0.0007010719 6.852351e-05 0.0009438967 -0.002150341 -0.0036706175 -0.0018503474 -0.00093647203 0.003184279 -0.0017774616 0.0006829562 0.0011538294 -0.0038217353 0.0019626312 -0.002807762 0.00032741445 -0.00055996096 0.0010788469 -0.0018698076 0.0003935208 -0.002439262 -0.0013169459 -0.0036892241 -0.00080570485 -0.0024908434 0.0017853546 -0.0026843634 -0.0004863633 0.00050805876 0.0019187678 0.0027733406 0.00093923474 -0.0021318218 0.003085835 -0.0032810937 0.0023602643 -0.002694719 0.00030050142 0.0020199374 -0.00237046 0.00015861953 0.00038213385 -0.00090758724 -0.0011743689 6.260644e-05 0.0037261012 -0.002969373 -0.0028677727 -0.0021498727 0.002738643 0.0027169131 -0.003558255 0.0028990167 -0.0011545017 -0.00044004183 -0.0007061663 0.0005691837 0.0022326403 0.0031015456 -0.00013180508 -0.0037482334 0.0013425793 0.003163029 0.0014830068 0.0011064615 0.00015543605 -0.0018134548 -0.0020693357 0.00063872384 0.003492274 -0.0022802171 -0.0029486113 -0.0029618866 -1.4785153e-05 0.00113802 -0.0031626746 0.0017936009 -0.0016113478 -0.0013908966 0.00063267164 0.0012169316 -0.0038273213 0.0006404969 -0.0033850442 0.002838278 3.34792e-05 0.0023155767 0.0035888206 -0.0019917714 0.0036556465 -0.0019029345 -0.0006464883 0.0036527577 0.0006194577 0.0017580979 -0.0010112374 -0.003000121 0.0023963808 -0.0033123 0.0032990184 0.0016764783 -0.0032257477 -0.00034283346 -0.0025370212 0.0029376154 -0.003619901 -0.0020139096 -0.0021469411 -0.0013166581 0.0015335318 0.0025239955 0.002051935 -0.00052998017 -0.0036490695 0.0032062454 -0.0031788454 -0.0036077301 0.0027548333
27 0.00091100583 -0.0021130268 -0.0011269383 -0.002116867 0.0002282735 0.00028232575 0.0011639241 6.5631764e-05 0.0028963652 0.0035672581 -0.0039025901 0.0008059145 -0.001605219 0.0013796631 0.00260379 0.00081596756 -0.0028431348 -0.0028234504 -0.00268323 -0.0027638283 -1.8996725e-05 0.0026056562 0.0029060014 0.0025906686 -0.00071043556 -0.0010724586 0.00049519463 0.0022275376 0.0022902146 -0.0022297727 7.359905e-05 0.0029034188 -0.0011852134 0.0022641995 0.0009934922 -0.0016977496 0.00030567453 0.0014850924 0.0034695338 -0.0008908401 -0.0015987093 0.0037958478 0.002476293 0.0035260173 -0.0004808513 -0.0009467222 0.0017797446 -0.0018503196 0.0015471164 0.001046956 0.003494291 0.0011343363 0.0035169646 -0.00068687415 0.00020261173 0.00012700431 0.0037781715 0.00030764999 -0.0014620203 -0.0020697117 0.0006792873 0.0028740764 -0.00027018043 -0.0019495176 0.0018419466 0.00039045227 -0.0030629835 -0.0023107587 0.0035265323 -0.0016629326 -0.0002778621 -0.0017592784 0.0022620396 0.0004297839 -0.0001056552 0.0011716094 0.0020150489 -0.0015582175 -0.0023810829 0.00018959091 0.0036935206 -0.0021596889 0.0002630533 -0.0035083662 -0.0038333666 0.0021377313 -0.0010699243 0.0012918 -0.0034263432 0.0010216471 -0.0028444778 0.0013289902 0.0024742943 0.0019092266 -0.003312083 -0.0018096633 -0.0031227008 -0.0015812566 0.003374189 -0.0027019556 -0.001983259 0.0032591945 -0.0035065566 0.0023186505 6.083753e-05 -2.1857359e-05 -0.001237329 0.0018821489 -0.00026283658 0.0037308745 0.00010635267 -0.003761299 -0.0018042561 0.0033379842 0.0013740113 0.0010887895 -0.00030694643 0.0011663692 0.003022729 0.0013242278 -0.0032531153 -0.0008662378 0.0038431028 0.0033760113 -0.0013770106 -0.0006453133 -0.003801499 -0.003632681
9 -0.0011394689 0.0023052345 0.00044419194 6.8222194e-05 3.4370798e-05 -0.0034701435 0.0022628475 -0.00061966974 0.0037382124 -0.0034209383 -0.0037885658 -0.0002440674 0.00041722757 -0.0009921219 -0.002576608 0.0009896725 0.0026082678 -0.0020049897 0.0024588457 0.0009226754 0.0012931407 -0.0017453369 0.003351755 -0.00034636655 -0.00026628387 0.0026955116 0.0016802932 -0.0009681072 -0.0020589407 0.0019214546 0.003624088 -0.0022783508 -0.001361899 -0.00010016426 -0.0008982697 0.00085512636 0.0030043202 -9.634375e-05 -0.0016651899 0.0005698856 0.00081609405 0.0006071305 0.0037470679 -0.0024675352 0.00054285175 0.0026238356 -0.0010411583 0.00041531082 -0.0012631388 0.001808439 -0.0032230597 -0.0026566156 0.003144211 -0.0016089972 0.0018951151 0.0027103364 0.001182204 0.0021484885 -0.0026600657 -0.0034423512 9.333591e-05 -0.00018633451 -0.0019208653 0.0018786744 0.00036332165 -0.0035370786 -0.0019263767 -0.0024658283 0.0030501802 -0.00073953567 0.00058852707 0.0027272715 3.6185178e-05 -0.0015457068 0.0010735804 0.00090207974 -0.0036830108 -0.0015967898 0.003158742 0.0009863982 0.0032933366 -0.0026649728 -0.0013184402 -0.0011493849 0.0016571225 -0.0004497114 1.4081099e-05 0.0038261185 0.002049628 0.0020779783 0.0009778648 -0.002254227 0.0038641023 -0.0008929543 -0.00021216038 0.0026311523 -0.0016007702 -0.0038047596 0.00043177363 0.0026246076 0.0021603294 -0.0018533311 -0.0032800909 0.0025093202 -0.0019364908 0.0024815758 -0.003319654 -0.002583829 0.0021068363 -0.0017501141 -0.0009145054 -0.0021714736 0.002834759 -0.0029084184 -0.001332171 -0.0011140959 0.00088926835 -0.0018888711 0.0006453201 0.0010583014 0.0027008469 0.0025326274 -0.0017200225 0.00020947668 -0.0013147172 0.0030077964 0.0025664151 -0.0032310702
56 -0.0019090645 -0.00021533207 0.00045432785 -0.0019689898 -0.0014658025 -0.00075342675 0.00014137871 -0.0006544619 0.002902179 -0.00038769573 -0.0024512762 0.0013391726 -0.0024059946 0.003762136 -0.0016695685 8.3819265e-05 0.0011978517 -0.00067655044 -0.0017790346 -0.003224581 -0.003808741 0.00048336663 0.0015893033 0.00059415284 0.0032349727 -0.0036581524 -0.0033856637 -0.00027400348 0.0008185241 0.0021993893 0.0028152673 0.003400986 0.00028975814 -0.0035837484 -0.002491773 -0.0022329364 -0.0011858823 0.00359676 0.00379029 0.003623432 -0.0012646689 -0.0029471694 0.0028806897 -0.0009257285 0.0037041432 -0.00036973323 -0.0020149837 0.003099363 0.000491635 0.0016743978 0.0008497848 0.0020840445 -0.0034303162 0.0007672478 0.0028198909 0.0029567285 -0.0009349724 -0.0012489114 -0.0038370297 0.0028438363 -0.0020841267 -6.8927984e-05 -0.00298209 -0.00097341166 0.001603934 -0.0024943321 0.0018438064 0.0021165144 0.0017487048 -0.0019680487 0.0021811654 -0.0029765002 0.0038355947 0.00076548895 0.00094335125 0.00063882134 -0.0019390034 0.003637765 0.0004427657 0.0010709414 -0.0033390494 0.0025992733 -0.002972064 -0.0022161053 0.00038108724 0.002830805 0.0019865201 -0.0008563622 0.0008767788 -0.0020083054 0.0010628508 -0.0011535239 0.0017694138 0.0018130543 0.0015632946 0.0032724806 -0.0032128673 0.0032568586 -0.0038401012 0.0034675752 0.0018347413 0.0015058882 -0.0025765675 6.931209e-05 0.0019650676 -0.00047559472 0.0032473833 -0.00210866 -0.0013970931 0.0012977363 -0.0004930069 0.003596707 -1.7906788e-05 -0.0018056888 -7.0168135e-05 -0.0030054234 -0.0030913241 -0.003416735 0.0019261953 0.0034277567 6.986797e-05 -0.0007965955 0.0007044311 0.00010932055 -0.0015008332 0.0017681767 -0.0015060216 -0.00096983404
74 -0.0015973842 -0.00018224336 -0.0006082648 0.00094995456 -0.000882685 0.0016080297 0.000105427076 -0.0003951476 -3.5237183e-05 -0.0028624642 0.0034718714 -0.0012050729 -0.0016702436 -0.0032834746 0.0012874561 -0.0005352723 0.003716005 -0.0019206038 0.0023317682 0.0023301672 0.003030146 -0.00079651095 0.00387965 -0.0021165865 0.0026519115 -0.0019546617 0.0010173914 -0.0036892705 0.00047908074 -0.002248743 -0.00053562294 -0.0013386795 -0.0014744415 -0.003232245 -0.0037455338 -0.00028827935 0.0021229982 -0.0013254618 0.0031348832 -8.011043e-05 -0.0011324012 0.0011950193 6.590649e-05 -0.0022277352 -0.00017533617 0.0014820166 -0.0037658745 0.000527788 -0.0023527057 -0.0016965225 -0.0030407552 0.0021688105 0.0005938983 -0.00096489757 -0.00071482646 0.0036184436 -0.00025452662 0.0009847202 0.00020747265 0.0024971142 -0.0037862558 0.0038786805 0.0038456542 0.001214935 -0.0035118572 -0.003306375 -0.00031732832 -0.0026158614 -0.00077387417 0.0023978797 -0.0023691065 -0.002357231 0.0020593174 0.0026609988 -0.00243199 -0.001933917 0.003824565 -0.00075940357 0.0036553354 -0.00085870206 0.0021321657 0.0036460774 0.0003296349 0.002950217 -0.0024370071 -0.0024655475 -0.0004701198 -0.0014167529 -0.0015912477 -0.0018232849 0.0027619184 -0.0030293798 -0.0023269332 -7.2474586e-06 -0.002970613 0.0017807367 -0.0009026028 0.00019183401 -0.0016185053 -0.000787452 -0.00029810678 -0.002269876 -0.0011437057 -0.00034714787 -0.0027678646 -0.00045693375 -0.0031260485 -0.0012532749 0.001717293 0.003339579 -0.00095664535 0.0015961571 0.0023223842 -0.0013934671 0.0006749244 -0.00038625114 -0.0019518281 -6.569376e-05 0.0028876197 -0.0035376053 -0.000610948 0.0021809503 0.00096689025 0.0035544205 0.003903915 0.00017350273 0.0029723586 -0.0038077005
55 0.0012463853 0.0028186932 -0.002278965 0.0013917289 0.0020194664 -0.0018568423 0.001684461 0.0025760594 -0.0031715776 0.0031524221 -0.002692335 0.0025854323 0.0029411998 -0.001910785 -0.002725786 -0.00049739715 -0.0016377757 -0.0028526108 0.0024936546 0.0027719776 -0.0021766233 -0.0022870824 0.0038680953 -0.00054510613 0.0015533569 -0.0009069084 -0.0020387399 -0.00078837824 -0.0017864016 -0.002907366 -0.0015207335 0.0027125648 -0.00018783692 -0.003769093 -0.0033709316 0.003538392 0.001734722 0.0015447946 0.0005485546 0.00019746339 0.0028422088 -0.00044379025 0.00029548813 0.0024333622 -0.0018962078 -0.0013846351 -0.0021341858 -0.0033514271 0.0027095457 -0.0023258626 -0.0027415073 0.00048416056 0.00047400064 0.0033133838 -0.0010424429 0.001671705 0.0034088874 0.0011053206 -0.0018141812 0.0024471064 -0.0006681662 0.0027131992 -0.00052373885 -0.000115470226 -0.0015557555 0.0018455879 -0.0009804558 -0.0018417672 -0.00091653597 -0.00059208006 -0.0026544975 7.265384e-05 -0.001473568 0.0035600527 -0.0031575048 0.0020705278 0.003768912 0.002141233 -0.002264025 -0.0013757782 -0.0021580977 -0.00050329795 0.001886045 0.00013315058 -0.0034124868 0.0028727667 -0.0006604244 0.0006098098 -0.00096052093 0.00021908204 -0.0037796425 -0.002910594 0.0026956555 0.0024999867 -0.0004819188 0.0013855923 -0.00022428157 0.0015085897 0.0026053726 -0.00036319214 -0.0029215456 0.00028712186 -0.0016852163 -0.0008485719 -0.003669499 0.003309305 -0.0006059076 -0.0031935985 0.001917728 0.0030653784 0.0017025763 -0.0013815 -0.0003366093 -0.00014458019 -0.0009263152 0.00024608412 0.0033301832 0.0004475105 0.003559746 0.0033973996 0.0017629184 0.0027404716 0.0017097078 0.002897627 0.0024209856 0.0003087689 0.0033032643 -0.0003072485
31 -0.0037869615 -0.0008750112 -0.0038477273 0.0013089103 2.8626895e-05 0.0030843408 0.0038958043 0.0026266477 -0.00051616476 1.642922e-05 0.0031626527 0.00389015 0.00088659243 0.0030016804 0.0021352435 0.00086969626 -0.001768812 0.00069875433 0.00018351368 0.0007187758 -0.000116127805 0.0023449014 -0.0024991315 -0.0010500785 -0.003701402 0.00025314838 0.0015061656 0.0029693749 -0.0003186177 -0.0005097002 -0.0027705827 -0.002811057 -0.0023065233 -0.0009853776 -0.0010817788 0.0032144936 0.00053311954 0.0038789841 0.0014969751 -0.0013270122 0.0020933652 -0.0018908913 0.0027505537 -0.0036735272 -0.00275408 -0.0027554797 0.0023691515 -0.00088321825 0.00020974375 -0.00052678015 -0.0031124018 0.00095503475 -7.8677236e-05 -0.0023613905 -0.00040877878 0.0011498557 0.0007990861 0.0015230136 0.001713801 1.4128812e-05 0.00073912175 0.0038425655 -0.00045026132 -0.001504005 -0.0032933697 -0.0021987977 0.0035794969 -0.0029150152 -0.0035206524 0.002161051 0.0016387396 -0.0033647402 -0.0010783535 0.0026704308 -0.0021234276 0.0016487715 0.0013866195 9.571005e-05 -0.00039362785 0.002254308 -0.001676562 -0.0003205016 -0.0029300877 -0.0037270463 -0.002347784 -0.0027909542 -0.0008521992 0.0017750831 -0.0016527269 0.0017285423 -0.000889875 -0.0020969743 0.0025981038 0.0011428137 2.2529042e-05 0.0018601095 0.0017544094 -0.0011031869 0.0008201068 -4.734948e-05 -0.00013166442 0.000753329 0.0019611516 -0.00088014023 0.0006721326 0.0034513166 -0.0027073226 0.0010032828 -0.0017114045 -0.00062622194 0.0032847521 0.0005829899 0.0018278377 0.0004292741 -0.0035686337 0.0006037976 0.00086097704 0.0014933621 0.0021639585 -0.00082661933 -0.0022717717 -0.0037213413 0.00028207368 -0.0036543764 -0.0004093328 -0.0018928917 -0.0013908696 -0.0015781063
16 -0.002317501 -0.0015157191 0.0022080732 -0.0026414136 -0.0024024302 0.0012061426 -0.0021639953 0.002493123 0.0029665173 0.0027669582 0.00019120163 0.00044685177 0.0009236216 -0.0034941256 0.002238954 0.002889434 -0.0007606846 -0.0037231133 0.0017326664 0.0017280633 0.0010577333 0.00109926 -0.002875226 -0.0013252638 -0.0020223327 -0.000812036 -0.0027217031 0.000120366014 -0.00016497834 0.0031076155 0.0026597076 -0.0015840577 0.0027091466 0.0016174178 -0.0023325512 0.0037311704 -0.00051277975 -0.0028668202 -3.511576e-05 0.0002878051 0.002092321 -0.0009618108 0.0009548256 0.0030685556 -0.003307029 -7.6663215e-05 -0.0027575234 -0.0035397238 0.0003000009 0.00040907896 -0.0024128759 0.0022125538 0.0011175165 -0.0005977181 0.0021587638 0.0009882395 -0.0008575365 0.00045498676 0.00031278783 0.0029386294 0.00124213 0.003367087 0.0018443683 0.0013600313 0.0033954675 -0.0019253463 -0.0014020893 -0.0037209142 -0.0014341207 -0.0019748388 9.927309e-05 -0.002955387 -0.00010317922 -0.002088022 -0.0031432377 0.0005212486 -0.0036562895 -0.0022108061 0.0009771484 -0.0020203455 -0.002237663 0.0009105169 0.0025788185 0.000512119 -0.0038655759 -0.0038544184 -0.002957423 -0.003454667 0.003032776 0.0022166083 -0.0018532429 -0.0023687696 0.00129872 -0.00042541637 0.0019341591 0.0010129482 0.0018820523 0.0036190436 0.0016262894 -0.0010691639 0.0012204157 -0.0027188237 0.002777863 -0.000268787 -0.0038423124 -0.0037336997 -0.0009711839 -0.00030853585 0.0025901312 0.0027304143 -0.0035750426 -0.0014208434 -0.0028471982 -0.0015841369 0.00352044 0.00049863197 0.0027293344 -0.002362293 -0.0013012935 0.0028012956 0.00020740296 0.00049025373 0.00028956492 -0.0039040733 0.00043760292 -0.00367878 0.0019015706 -0.0011787562
67 -0.0019064946 -0.0038331978 0.0018132126 -0.0013122668 -0.002110382 0.0036346475 -0.0033290524 0.0028946504 -0.0027248661 -0.0017336111 0.0009023771 -0.0004944037 0.00048312236 0.0031568618 0.003287409 0.0032786839 0.001726976 0.0013736145 -0.0016107329 0.0030871725 0.0013113288 -0.0029817175 -0.00088140334 0.00014044567 0.0020999708 0.0004560498 0.00045871962 0.000854109 0.00055462145 -0.00057918933 9.3230105e-05 0.0025545394 -0.0036536164 0.0017105212 -0.00027899395 -0.0038569442 0.0012907583 -0.0029218963 0.0020136992 0.00096164574 -0.00036678242 -0.0032038935 0.002124827 0.0015493676 -0.000640403 -0.0037769473 -0.0018717388 0.0029183498 0.0034616184 0.0031640083 -0.0018296377 0.0010487731 -0.0025398817 0.0023808526 0.0028194827 -0.0026177284 0.0033156006 -0.00079865684 0.0006762636 -0.0024951189 0.0030419065 -0.0005418643 0.0032533498 0.0037954785 0.003708896 -0.00029148755 0.0036528518 0.0013131334 0.0023585795 -0.002385424 0.0034589586 -0.0010699031 0.003766915 -0.002650392 0.0005632795 0.0011420648 -0.0011596663 0.0028540704 0.0022567203 0.0011418615 -0.001655613 0.0037037975 0.003726853 -0.00077594805 0.0009223646 -0.0036810453 0.0032217496 -0.0030104816 -0.0029713148 -0.0021860942 0.0012850207 -0.0026852272 0.0011098606 0.0025235242 0.003535919 -0.003156287 -0.0025143058 -0.0036325734 0.00060602947 0.0014775823 0.0037862419 0.0012798142 0.0034827667 0.0007257938 0.0020261945 -0.0015508852 0.00014518718 0.0019158712 -0.0025402028 -1.9325878e-05 0.0024753127 -0.0033978801 0.0018496487 -0.0031950404 0.0021370964 0.0014545978 0.0017217034 -0.0009321439 0.0023270468 -0.0014644245 -0.0017748466 0.002866708 0.0010339612 -0.002599566 0.0025892716 0.00066848734 0.002319969 -0.0017450337
57 -0.0037131172 0.0024773977 -0.0021370419 -0.0008224126 -0.0038052904 -0.0029095295 0.0026372855 -0.003110463 0.0037033628 -4.088186e-05 0.0025725923 -8.987534e-05 0.0037273893 0.0031287605 0.0029528742 -0.0013254228 -0.0033505755 -0.0037565092 0.0010143566 -0.0002563079 0.0032213521 -0.001314423 0.0023380828 -0.00021700343 0.0006820908 0.0010170805 0.0022893543 -0.0010262912 -0.00031226297 -0.0031704116 -0.0006354826 0.001761509 0.0008754463 0.0032006875 0.0008456443 -0.00022281906 -0.0016719699 0.002916676 -0.0014182504 0.0032058514 -0.00039565683 3.325695e-05 -0.0033895632 -0.003747683 -0.0006309233 0.0017849832 0.0038581619 0.0035343722 0.0010301368 -0.00036456625 0.0013187997 -0.00040097476 -0.0029289417 -0.0029801063 0.003491822 -0.0011908513 -0.003075201 0.0029080526 0.0025451926 -0.0005745565 0.0019369473 0.0036883606 0.0033629735 0.0002998045 0.0027182687 0.0014607683 -0.00021841389 0.0014574733 -9.880607e-05 -0.00011906684 -0.0026958215 0.0028633338 0.0013292755 0.0018066855 0.0028948847 0.00043977692 -0.0021109534 -0.0038217704 0.0037477475 -0.003205778 -0.0034666848 0.00073379115 -0.003867279 -0.003400196 0.0027608743 0.0019324981 0.0030413591 -0.0018948542 0.0007043822 -0.0013099579 0.00032900978 0.0017010812 -0.0020670483 -0.002477882 -0.003746858 0.00095628365 0.0026321393 0.0007782581 -0.0023461415 -0.0021152445 -0.0036802865 0.00027445875 0.0007916943 -0.0005473007 0.0037527443 -0.0014542205 -0.0029331008 -0.0015214034 0.0022737293 0.0016394301 0.0029745325 -0.0031045175 -0.002262213 0.0031806317 -0.0009063235 -0.0024974612 0.0031409506 0.0034790696 0.0018778606 -0.00229223 0.0011462477 -0.003502126 -0.0007722509 -0.0019836097 0.0010240421 0.0025244874 0.0018004227 -0.0014591061
96 0.0013060856 -0.0027313982 0.0010008881 0.0036360305 0.00028466262 0.00256498 0.0022407747 0.00024319749 0.001307285 -0.0036730764 0.000702602 -0.0001629822 0.0011914909 0.002718279 -0.000526198 -0.0006783133 -0.0034742826 -3.882638e-05 4.3877557e-05 0.0022061013 -7.4304575e-05 0.002435949 0.0015700118 -0.0034824423 0.0014037655 0.003667436 -0.00069235667 0.0006836553 -0.0029472935 0.00355807 0.0021356521 0.0005117402 -0.00048031184 0.0019577956 -0.0022076685 -0.00057068066 0.00041306918 -0.00234787 -0.0031000294 0.0015306952 0.0003307254 -0.0013179189 0.0022055323 -0.002470144 0.0007197048 -0.0021873289 -0.00060642837 0.00013411035 -0.0036877682 -0.0018325759 0.0018124537 -0.0010192227 -0.000110071 -0.0034014296 0.00028559062 0.0010836013 -0.0005831971 0.0037046813 -0.00060159113 0.0010549409 8.311096e-07 0.00033195957 -0.0030878964 -0.00013349748 -0.001145699 -0.0008622002 0.003641408 -0.0034959374 0.0014315634 -0.002564122 0.0017012089 -0.000828249 -0.0037103582 0.0009111442 0.00381734 0.0036551235 -0.001764037 0.0024609284 -0.001545371 -0.0026423254 -0.0036622754 -0.00035516947 0.0038896103 0.0025823442 0.0015946191 -0.0023371177 0.0009765493 -0.0006190673 -0.0025334395 -0.00028992599 -0.0019326505 0.0014988021 -0.003112623 0.001749715 0.00026404808 0.0037761838 -0.00010627229 0.00021860389 0.001439967 -0.0013331985 0.003440021 -0.0021242788 -0.0035496743 0.0012611011 0.0023720367 0.00063289003 -0.0032416251 -0.0010694745 -0.0019962632 -0.0038982935 -0.0029776955 -0.0015890237 -0.0013987756 -0.0015258625 -0.0012211316 -0.0034484048 0.0020216387 0.0006178912 0.0015949379 -0.001005516 -0.00234981 0.0018026535 -0.001962894 0.001410094 -0.0034805955 -0.0011990641 0.0024927396 0.002250193
47 -0.0005572218 -0.0024604558 -0.00012510856 0.0036900071 -0.0026903248 -0.00049894396 0.0004366546 -0.0016118884 0.0017588306 -0.0031470798 0.0015448271 0.0017024652 0.001983962 -0.0004251436 0.0021157863 0.0018807556 0.0016066327 0.000255655 -0.0009836422 0.0016855032 0.0015274901 0.0033278018 -0.0026593609 -0.0036246872 -0.0025063744 -0.0017044208 0.0017356533 0.0017723283 7.977787e-05 0.0033111095 -0.0027524265 -0.0009966623 0.0021389266 0.0016162943 0.0024269393 0.0016204881 0.0026087407 0.0038411694 0.0023113303 -0.0013351999 -0.0008803734 -0.002212593 0.0038694004 -0.0025955446 0.0038337575 0.0038799103 -0.0032409683 -0.001977014 0.0034042965 -0.002560236 0.00072121766 0.00207933 0.0026436262 -0.0033786069 0.0030845192 -0.0011592938 -0.0010097978 -0.0034262976 -0.0037187152 0.0026038138 0.0015693929 -0.0030481913 0.0012010891 -0.0027871497 0.002201253 -0.002938832 -0.0021725306 -0.0031851819 0.0036338787 0.0036937895 -0.0031513078 -0.0011245206 -0.0027202426 0.00048064743 -0.002277699 0.0033513394 0.0034960874 0.0008433448 6.48221e-05 0.0015396893 0.0023087477 7.9729194e-05 0.001029168 0.0032171886 -0.0016416375 -0.0011492047 0.0013423158 -0.00085777784 0.00024934477 -0.0032050423 -0.0018839521 -0.0021962482 -0.0007467866 -0.0030614103 -0.003240416 0.0005042088 0.0005038572 -0.00014799244 0.0012391681 0.001730397 -0.0011620481 -0.0011470639 -0.0023902848 -0.0030744476 -0.00016838651 -0.00059152173 0.0027052911 -0.0007236866 -0.0013134606 0.002271246 0.0008848738 0.0015753972 0.0017318882 -0.00033563192 -0.0006493024 -0.0014260885 -0.0011622254 -0.003618502 -0.0015744687 -0.002481358 0.00057319726 -5.7593265e-05 0.0030438397 0.0029842772 -0.00035134272 0.003050802 0.0018078813 -0.0014867176
41 -0.0029028184 -0.0010226093 -0.0006341396 -0.002760523 0.0026309593 0.0021002928 -0.002294643 0.0006949767 0.0018029428 -0.0021672805 0.0012663113 0.0036934423 -0.0036173477 -0.000891717 0.00062651257 0.0030742227 0.0009769631 0.0020856818 0.0019768968 -0.0032303003 -0.0026466348 0.0014376434 0.002062358 -0.0038697696 7.212273e-05 -0.0024722065 0.0023936403 0.0010850304 0.0014597048 0.0001437099 0.0009459419 -0.003153081 -0.0030238912 -0.0015805864 0.0037036662 -0.0033645863 -0.0015194584 -0.0014133616 -0.001995684 0.0026463098 -0.0006654924 0.000950654 0.00025884638 0.0022008112 -0.0037132315 0.003354573 -0.00013717882 -0.0015507927 -0.0005520429 0.0029619595 0.0005068744 -0.0032118848 -0.00046885005 0.0016651574 0.0016989962 -0.0011635424 0.0025376293 0.0030360343 -0.0038128446 -0.0009482322 0.0002452503 -0.0037486556 -0.0005059169 -0.0015996107 0.0028911363 -0.00377511 -0.0008034787 -0.0038912182 0.0031176032 0.0023349938 0.0037683062 -0.003343432 -0.0034883858 -0.0014766612 -0.002827944 0.0032890348 -0.0014037105 -0.0030572128 -0.00042317115 0.003197615 -0.0030766416 5.2870364e-05 0.0002797607 0.0001406609 0.0029943006 -0.000974901 0.0028993562 -0.0018545062 0.00013600779 -0.0036832213 -0.0027545104 0.002150357 0.000111153655 0.0034081603 0.0038333442 7.8054036e-05 -0.00055798824 1.5046933e-05 0.0022218954 -0.0034560976 -0.002924663 -0.0027535728 -0.003480382 -0.001356411 -0.003888224 0.0011553101 -0.0029699563 0.002070349 -0.0026668753 0.0011255731 0.00069093244 -0.0029855056 0.0021665376 -0.0011496601 -0.0028268385 0.0033638906 0.0014092977 -0.0015380094 -0.0013486928 -0.0022951313 0.0035827567 0.0011765163 -0.0011591788 0.0013247086 0.001749349 -0.0014664672 -0.0017314794 -0.0026144453
