96 128
78 -0.0038693615 -0.0022274985 0.003322917 0.0015596858 -0.0032200527 0.0007782418 -0.00216206 0.0036256195 0.0008594071 -0.0033426075 -0.0019404697 -0.0012186759 0.0029709393 -0.00065744465 -0.0016756841 -0.0019425086 0.0024191854 -0.00078103633 -0.00049915334 0.0021599266 0.0004912226 0.0012182825 -0.0022775987 -0.0033674724 -0.0023871695 0.0036461467 0.00035172128 0.0024646858 -0.001972265 -0.0029214069 0.0026503005 0.0026460926 0.003308922 0.0024688728 0.0011689458 0.0011272167 0.0017160978 0.0032419364 7.192875e-05 -0.0032908937 -0.0024083366 0.00064417976 -0.002754892 0.0037460465 0.002970593 -0.0036298123 0.001670678 -0.00044156853 0.003407901 -8.1325925e-05 -0.0022880028 -0.0025031741 -1.6220936e-05 0.0012912283 -0.0034402232 -0.001719009 0.0034100388 -0.0026975903 0.00058965746 -0.0018903995 0.0034553483 0.0006987111 -0.00087559223 -0.0033527904 0.0036400328 0.0023876894 -0.0025182248 0.0020623757 0.0027413259 -0.00018607212 -0.0016743944 0.0018340491 -0.002076375 0.0033963223 0.0033486385 0.0037775391 -0.0026056487 0.001103209 3.3974276e-05 0.0031791748 0.00073511264 -0.0026911055 0.0037452187 0.0011459395 0.0012419018 -0.00096574007 -0.00017540103 -0.0020708772 -0.0022465878 -0.00027451973 -0.0032387655 0.0036644873 -0.0015027861 -0.00078235345 0.0023849255 -0.0012415425 -0.0005756228 -0.00018136762 -0.002929177 -0.0019366463 -0.0015098823 -0.0004543016 0.003468267 0.002488019 0.0035428654 0.0036784206 0.002247766 0.0029935234 0.0007160008 -0.002228641 0.00028258158 0.0010406214 0.0033232674 -0.0012662957 0.003597607 -0.001995681 -0.00076554384 0.0010952493 0.00028776008 0.0009209951 -0.0005473118 0.0012105149 -0.0002916772 0.0034063722 -0.001501073 0.00044753618 -0.0007964434 0.00016123687
22 -0.0029694156 0.003282475 0.0016127873 0.0024827868 0.002593566 -0.0015410045 0.003829911 0.003493579 -0.0032379378 -0.0008770509 -0.0038616743 2.01534e-05 -0.0012793271 -0.0017178935 0.0014348747 -0.0029960503 -0.00063190603 -0.0024802887 -0.002381246 -0.0015704017 -0.0015110497 -0.0039061601 -0.0014604923 0.0026420278 -0.001833391 -0.0024997655 -0.0010120571 0.0026760323 -0.0013476303 -0.003145482 0.0031322103 -0.0010106667 0.0027221555 -0.0015764026 -0.001232801 0.0030810665 -0.002149567 -0.003695183 0.0003019788 -0.0031311389 0.00068126334 0.001498041 -0.0030179084 0.0012861147 -0.0030346487 0.0026788143 -0.0005609585 0.000201107 -0.000117507865 0.002345416 0.0015992929 -0.00387059 0.00096799165 0.00062068814 -0.0020149585 -0.0032475947 -0.0027526298 0.0033968417 0.0025377185 0.001918234 -0.0023977885 -0.0011828198 0.0029389656 -0.0027019717 0.0017924205 -0.0023363654 -0.0031437082 -0.0019205756 -0.0029288235 -0.00079756667 -0.00050134666 0.0019349807 0.0023879763 -0.0014100894 -0.0025951797 0.0037308792 0.0014511321 0.00048402196 -0.002044012 -0.0030325388 -0.003363992 -0.0006010766 0.0028390675 0.0027756724 -0.0035015263 -0.0036525375 -0.0017748831 -0.00062065513 0.0017805422 0.0034946052 -0.001234047 -0.0017143802 -0.0036508054 0.00016933956 -0.0033679896 -0.0031710595 -0.00067385775 -0.0021122673 0.0016028141 0.00016292644 -0.0034900927 0.0013529105 0.0028122028 -0.0026369668 -0.002925099 0.0008277582 -0.00091547094 0.0027173318 0.0030094348 0.0017088554 -0.002202918 -0.0030992022 -0.00027390174 0.0005282077 0.0026959002 0.00020133323 -0.0019611379 0.003893351 -0.0020916613 0.0025050591 -0.0035866532 0.0012322969 0.0030349405 -0.0026383956 0.002971079 -0.0004358875 -0.0033439696 -0.00061598513
17 0.0019978695 -0.0020494063 0.0033700704 0.00085545995 0.00010736946 -0.00045727548 0.0029223957 -0.0027942997 -0.0006132796 0.00076922233 -0.0012080139 -0.0009803392 0.0029016573 9.4766554e-05 0.0017486465 0.0010022932 0.0021320516 0.0004971689 -0.003675561 -0.0037960596 0.002194513 -0.003717652 0.0016034879 0.00056851 -0.0016902783 -0.0028393958 -0.0023537893 -0.0028696686 0.0011395811 0.0019347528 -0.002350223 -0.0010114585 -0.0022251112 -0.0014375579 -0.00076287054 -0.0012355914 -0.0021966451 0.00010251708 0.00038315883 -0.0023036588 0.0022758266 -5.9481255e-05 -0.0019192481 0.0030682546 -0.001740554 -0.0038964767 0.0027000983 0.0036188609 -0.0022467622 0.00082997145 -0.00011029239 0.00019579011 -0.0019926121 0.0016594998 0.0033995872 -0.00022343549 -0.0031427608 -0.0007429753 0.0018917453 -0.00093785685 0.0023653538 0.003077192 0.0029102764 0.0014298168 0.0009147935 0.0008069221 0.0038129059 -0.0037789384 -0.002856114 0.0010505114 -0.0034956818 -0.0027033088 0.002589094 0.0027952432 0.00014217303 0.0011330596 -0.0031017514 0.0011446421 -0.0020242692 0.00069761585 -0.0031354341 0.0016721265 0.0012221073 0.0028523884 -0.0017837404 0.001474924 -0.00050632446 -0.0033434953 4.9600392e-05 -0.0038449937 0.0033736774 -0.0029126974 -0.0022001544 -0.0017183941 0.0033455426 -0.0019726101 0.0032073394 -0.0028197065 0.0004061925 -0.002445335 -0.0011466476 0.002613225 0.0005159177 0.0036706016 -0.0010188236 -0.0033923846 -0.00030441655 -0.0021215298 -0.0023040248 -0.003527679 0.0017392364 -0.0019484047 -0.0022160015 -0.0016307236 -0.00044756377 -0.002513387 0.00084660284 -0.0035591822 -0.0014283017 -0.0008450095 0.0015993395 -0.0011321503 0.0028071238 -0.00014162113 -0.00241897 -0.00013587996 0.00091851316 -0.00089506246
49 -0.0011290337 0.00096541486 -0.0023835218 -0.0011677566 -0.0029412548 0.0001983399 -0.00080408616 0.0037611309 0.0034642264 -0.0015165105 0.00054173433 -0.0032703597 0.00051694125 -0.002649916 0.0009142164 -0.0017159337 0.0022796579 0.0018681771 -0.00016790906 -0.0006915902 4.8211306e-05 0.001715975 -0.0015971847 -0.0018101081 -0.0015738596 -0.003588593 0.00020155167 0.003844275 0.00089536543 0.0003387037 -0.003691728 0.0001105305 0.003023029 0.0025167037 0.0021874367 -0.00261774 0.0035362307 -0.0017036546 0.0010123235 0.00027621415 0.0022818374 -0.0017125289 -0.0012713543 -0.0013173419 -0.00027716867 0.00014843054 -0.0009959311 0.00051669666 0.0017145156 -0.001195407 -0.0006486569 -0.003800916 0.003259371 0.003231195 0.0014745734 0.00075710216 0.00043800924 -5.3910047e-05 -0.0025815887 0.0028114899 -0.001970727 0.003561177 0.0015260549 -0.0031395718 -0.0012222526 0.0023650827 -3.8500522e-05 0.00019719277 0.000154965 0.003236076 -0.00029441665 0.0011643425 0.0031939019 -0.0028486548 0.0010323428 0.0012175245 0.0033580356 -0.0017028357 0.0031931258 -0.0023122944 0.0019322778 -0.0028534583 -0.001104952 0.0022564956 -0.0039027408 -0.00096825074 0.0013330482 0.0009699252 0.0016675078 0.0005908487 0.00010920279 -0.0010336064 0.0016966348 -0.002590014 0.0003547679 0.0004855144 0.0013230003 0.0016099676 0.0021237305 -0.0035019394 0.0021680072 0.0028542408 -0.0009321758 -0.00083083595 0.00034978395 0.0015961785 -0.00014801286 0.00015378921 -0.0034636192 0.00027304975 -0.003582178 0.002461216 0.00016629814 -0.002033004 0.0010304434 -0.0020376507 -0.0009385354 -0.002196167 0.0038483315 -0.0026203026 0.0033130299 -0.00223938 -0.0033554533 0.0012775937 -0.00039007282 -0.0024144938 0.002557091 -0.002278262
91 -0.0014776302 -0.00075557537 -0.002786273 9.36589e-05 -0.0014683615 -0.0016443904 -0.0012331597 0.0036201307 0.001320543 -0.0024337652 0.0036363748 -0.0025048582 -0.0016546855 0.001377644 -0.0016992277 -0.00093920366 0.0016196197 0.0024879512 -0.0014710397 -0.0007690879 0.0034964564 0.0028288928 -0.003802538 0.002615279 -0.0018742443 -0.0019202387 -0.0018458711 -0.003745758 0.00035601752 -0.0033381933 0.00049142074 -0.0028588842 -0.0001410447 -0.0013127653 -0.00034892457 -0.003810697 0.003112953 0.0008927557 -0.0037240172 0.0021262206 0.0029325767 -0.00302609 -0.0002336732 0.0037206602 -0.0031111124 -0.0015356606 0.003884953 -0.0023103007 -0.0022237764 0.003408334 0.0014596918 -0.0027260932 -0.0027939049 -0.0010802787 0.0005552421 0.0004082984 0.0015029031 0.0034816547 -0.0009672696 -0.0018814853 0.00041012088 -0.00335296 0.0035602343 0.0020142708 0.00032318162 -0.0013153562 -0.00015993808 -0.0011037737 -2.574271e-05 0.001636374 -0.002410481 0.0020140065 0.00037554873 0.0005336102 -0.0038068008 -0.0007841054 -0.0009388091 0.0028439679 0.0012129424 -0.0005685482 0.0035061454 0.0023662916 -0.0019415601 0.0007141825 -0.0034552135 0.0017931156 0.00093297666 -0.0023929721 0.0016456281 -0.0014576102 0.0029697733 0.00025082382 0.0025389951 -0.001672575 0.003104792 -0.0017418662 -0.0023718565 -0.0002938171 -0.0034262617 0.0029754858 0.0032245612 0.003401368 -0.0023480367 -0.0005692799 -0.0015416824 0.00029577545 0.0019687896 0.00047538264 0.00060252193 0.002813849 0.00014128431 -0.0034687493 -0.00037095972 0.00012585403 -0.0038638741 0.0022703456 0.0037841706 -0.0037301674 0.0010585195 0.002357592 0.003043045 -0.0034762057 -0.000981242 -0.0010583967 -0.0036271513 -0.0029408436 0.00024049856 -0.0024002949
45 0.0019635847 -0.0033748434 0.00227809 -0.00030546516 -0.0015812662 -0.0038875735 0.0005465613 0.00016316977 0.00026878552 0.0010582347 0.00095803034 0.0012736042 -0.0032110398 -0.0032390351 -0.0035457702 0.0008217365 -0.0015859398 -0.002500073 -0.00080931466 -0.00065065495 0.0026494614 -0.000992044 -0.00204163 0.001083333 -0.00012007316 0.00096921326 0.0019135266 0.0036341094 0.0023939887 0.0010425 -0.0017474378 -0.0019601942 -0.0013466161 -0.0011587276 -0.00082201493 0.0019865772 -0.0015779093 -0.0011499738 0.003858968 -0.0032122994 -0.0005548571 0.00032480725 0.0039002206 -0.00043908926 -0.0031655622 -0.0015537225 0.0014048814 -0.0033673742 0.0003766281 -0.0024538515 0.0004274308 -0.002279497 0.0005413085 -0.0025017501 -0.0021508068 -0.0013103727 -0.0038487497 0.0034298038 -0.0036403674 -0.001957564 -0.002512884 0.00016805407 -0.0030865045 0.0030828598 0.003768941 0.0021021762 -0.0036752117 0.00294298 -0.0010462225 -0.0029180255 0.0035132894 -0.0035891288 -0.0023278631 -0.0012762927 -0.0016718534 0.00031050263 0.0033601546 -0.0033044221 0.0033933474 0.0005528206 -0.0018385524 -0.0020224059 -0.00050242327 -0.0034252822 0.002161282 -0.0020913025 0.0022072915 -0.00047648078 -0.003854906 -0.0015275206 0.0037892351 0.003196046 -0.0030541085 -0.0029975506 -0.000271369 -0.001160452 -0.00045759595 0.0011603533 0.00085838116 -0.0010107303 0.0005574383 -0.0034886189 0.0026575788 -0.0012430692 -0.0009110606 -0.0038421457 -0.0024404107 -0.0031406854 0.001092145 -0.0010916739 0.0025433584 0.002550591 -0.0024085462 -0.0002644141 -0.00057223387 -0.00020336236 -0.0013304185 -0.00068552577 0.0004976942 -0.0037504102 0.0038832312 -0.0006321559 0.0011906489 0.0022677504 -0.00028229906 0.0013151898 0.00034387765 -0.0010627024
88 0.0005986442 0.0018456219 -0.002538219 -0.0038889996 -0.0029002554 -0.0010003829 0.0035599866 0.0007213599 -0.0026646238 -0.001471086 0.0037914873 0.0003363967 0.0033583166 0.0016903412 0.0017028829 0.0016872587 0.0010014197 0.00038806314 -4.4667e-05 -0.0021211933 0.0006568728 0.00070709066 0.0031090789 -0.0025144876 -0.0011281198 0.002170304 -0.0029747311 -0.00095411204 -0.0026084697 -0.00011973175 0.003347123 -0.0036482934 -0.001671979 0.0006357062 0.00077399507 -0.0015121076 -0.0031489502 0.00053473015 -0.0011536407 0.0027703892 -0.0012414186 0.00077284226 0.0030918412 0.00047584157 -0.0021353825 -0.0011093736 -0.0017884519 0.0037955705 0.0023536112 -0.0009686323 -0.00019393637 -0.0016504164 0.000637706 0.0031814992 -0.0036341816 -0.0033281718 0.0020990467 0.0006563689 -0.002685128 0.0004533864 -0.0012187903 -0.0036724037 -0.00017212423 -0.00087276666 -0.0015903938 -0.00026416202 0.00088114064 -0.0033198888 -0.002714088 0.002266945 -0.0031532783 -0.0009955233 -0.0002897523 1.2074961e-05 -0.0007195773 0.0023479508 -0.0010668649 0.0031295738 0.0026083684 -0.0024228767 0.00054730836 -0.0035730966 0.003585256 0.0007841567 0.0019771561 -0.0005257812 -0.000281078 -0.0005502543 0.00061029056 -0.0027203076 -8.732586e-05 0.0029467165 0.00068947877 0.0015197047 0.0021646456 -0.0035198375 -5.525189e-05 0.00037273928 0.00082853256 -0.0017089869 -0.0034301484 -0.0016723747 -0.0023249213 0.0029175286 0.0030853276 0.0014231016 0.0009940993 0.0018609426 -0.00014601661 0.0037112078 0.0025714466 -0.00065129314 -0.0021385006 0.0019406679 -0.0024153986 0.0036516385 -0.0028649026 -0.0015435697 -0.0008833132 0.0009432389 0.003679136 0.00041830703 0.00030369344 0.0005050773 0.0034190726 0.002995672 0.0007302288 0.0013763207
66 -0.00023332203 -0.00075771817 0.00351762 -0.000337688 -0.0010638973 -0.003752329 0.0020971843 -0.00017620533 0.0011519484 -0.0021248912 -0.003051238 0.0029496837 0.0008454662 0.0032974712 0.002926804 0.0016706047 0.0021856485 -0.0030306783 0.0021375678 0.0010513141 -0.00040496973 0.0010716711 0.0015716474 -0.00060172676 -0.0009083416 0.0033853962 -0.0030269043 -0.00044225383 0.0037718788 0.0019652783 0.002221595 -0.001024569 -0.0011804271 -0.003509299 -1.9501107e-05 -0.0013834399 -0.00017378129 0.003037391 -0.003756083 -0.003535994 -0.002140051 -0.002109891 -0.0022710636 -0.000105275896 0.0026113864 0.00030092057 0.0028611673 -0.0027107398 -0.0038251511 -0.0030271253 0.0003377135 -0.00028452382 0.003085384 0.0029790448 0.00025233423 0.0009233371 -0.001993832 0.00014339332 -0.0022408525 0.0029978931 0.000208443 0.00034923785 -0.00373161 0.0027261807 0.0017687512 7.812003e-05 -0.0027827022 -0.0017837023 0.0037014748 -0.0017854992 -0.0028511444 0.000865756 0.0031386511 0.0034620385 -1.4382665e-05 -0.0015959742 -0.0021136648 -0.0029056838 -0.002262858 -0.0008269611 -0.001073132 0.0039010155 0.0022588386 0.00059762184 -0.00383145 -0.0008596168 0.0015429371 -0.0016163406 0.0013787819 0.00073535787 -0.0013626969 -0.002947826 -0.0008548016 0.0008824055 0.0023923428 0.002712991 0.0021427595 -0.001267082 -0.0037409638 0.0033601788 -0.0038123603 0.0035638264 0.0031105003 0.0024671433 -0.0019853644 0.0032155833 0.00057575246 0.0025719663 -0.0018498419 0.0036941154 -1.9013318e-05 -0.0022926147 0.0015582038 -0.0012098006 -8.4270705e-06 0.002507936 0.0023457508 0.0010517988 0.0038136332 0.0019624918 -0.0015641715 -0.003830795 -0.002317564 -0.0007026248 -0.0031700046 0.0035078607 -0.000318711 -0.0019338542
72 0.0038813842 0.0021407425 -2.4250554e-05 -0.002427777 0.0033215284 0.0037730078 -0.0021705595 -0.0019197377 0.0019725012 -0.0026639379 0.001882161 -0.0006223187 -0.0037055407 0.0027190973 -0.0024242518 -0.0013694338 -0.0015038528 -0.00044873057 -0.0025367856 -0.0028530343 -0.00048850785 -0.0019187541 -0.0023832321 0.0034947363 0.002898783 -0.0017615419 0.0016701004 0.0038167234 -0.00019869281 0.0032166208 -0.0033948622 0.0033352412 0.0027866878 0.0029790069 -0.00042072168 0.0025747763 -0.0012356932 0.0024868052 0.0029839983 0.0032794497 -0.0006086214 0.0038330117 0.003491311 -0.002464015 0.00026421325 -0.0038258038 -0.0027193583 0.0012925093 0.002577183 -0.0005870154 0.0015928232 -0.0021408305 -0.0031299973 -0.0011194996 0.003483927 0.003250686 -0.0005447564 -0.0019325257 -5.5026954e-05 0.0010846801 0.0014855065 -0.0023231362 0.003355042 0.00065227837 0.002274355 0.0014318185 -0.002263234 0.0036356822 -0.0003837265 -0.0028160457 0.0011425337 -0.002084721 0.0028309547 -0.0038523704 -0.0020792582 0.0036668996 -0.0035650579 -0.0028440466 0.00025521655 -0.0010477278 0.003877596 0.00317974 0.0008963772 -0.0026064748 7.695537e-05 0.001788959 -0.00023489907 -0.0016620121 0.00010247784 -0.0020615507 -0.0001365714 -0.00036717876 0.002357808 0.0022418383 -0.002796587 -0.0006985166 -0.0019718192 0.0021004025 0.0024160277 -0.0013530584 0.0037844952 -0.0025030004 -0.0033538595 -0.0019150224 -0.0005445382 0.0010283035 0.0027679724 0.0036754669 0.0030554738 0.0035242774 0.0019550398 -0.0014750122 -0.002350818 0.00086432096 -0.0036020332 0.0016039569 0.0010193272 -0.0010998137 -0.002220355 0.0037851022 -0.0028779032 0.0025674857 0.0013212573 -0.0028586134 0.0010635911 -0.000644297 0.0018238252 0.0015962797
7 -0.0038154493 0.0010609438 0.0016629356 0.0023341633 -0.0015824855 0.002501041 0.0015174809 -0.0005532705 -0.0027415613 -0.0030362015 -0.0028879375 -0.0018663809 0.0022719214 0.0014696489 0.0028712237 0.0036824488 -0.0020432451 -0.003095154 1.4985253e-05 0.0025440657 0.0010842475 -0.0023481434 -0.0030375547 0.0012809761 0.00229085 0.000992318 -0.0033906132 0.0021542525 -0.0024827577 -0.0012209449 0.0013103224 -0.00341749 0.0020140316 0.00029384394 0.0010818032 0.0013173983 -0.0018119027 -0.0034563674 0.00064548274 9.141414e-05 0.003530284 -0.0017966294 0.0036789551 0.0038681517 -0.0028680419 -0.00361325 0.0022037663 -0.000852742 0.0012170286 -0.0021894905 -0.00070726004 -0.0034206575 -0.0011899717 -0.0011627979 0.001275899 -0.0024404654 -0.0014048036 0.0002281071 -0.00067403534 0.0008324131 0.0022160853 -0.0011999322 0.00058670144 -0.003742588 -0.0023320902 -0.0026296887 -0.0016279641 -0.0017142366 0.0006366494 0.0030832542 -0.0029384778 -0.0028250653 -0.0006391876 -0.002620133 -0.0012569636 -0.0032324668 0.0034379966 -0.0038253502 -0.0019898335 -0.0025239582 0.001198924 0.00090911676 -0.0027317815 -0.001124458 0.0016922603 -0.0020847206 -0.0017098351 0.0011676061 0.0009333962 0.0022262484 -0.0038077882 0.0005517272 -0.00096988137 0.0035203472 -0.0016253332 -0.00012835654 -0.00021243108 0.001534426 -0.00032642728 -0.0035045098 -0.0013094894 0.0009159765 -0.0017223042 -0.003146185 0.00043763098 -0.0015927888 0.0030063197 -0.0025369392 0.0038391226 -0.003729861 -0.0016800336 0.0014271563 -0.0016056946 0.0012036114 -0.0013549483 -0.0023374732 -0.003371988 0.0033598258 0.0025916344 -0.0029093374 0.002558891 0.0015414661 -0.0033218102 -0.00028592796 -0.0009077006 0.0030335544 0.0027395638 -7.918768e-05
55 -0.0001303709 -0.0038861665 0.003329889 0.0008997085 -0.0030988262 -0.00053280476 -0.0014602658 0.00082277134 0.0032677897 0.0026823455 0.00016641812 0.0007116323 -0.001448285 -0.0037641034 -0.001548535 0.001455895 -0.0001761092 0.0022394992 0.00076229434 -0.00037339586 0.0024912355 -0.0016145376 -0.002362577 0.00044499815 -0.003463728 -0.0024650341 -0.0022459335 0.0004524259 0.0024504706 0.0010402697 0.0015324693 -0.002421333 0.0004957455 -0.0027847192 0.0032408792 -0.0007619229 0.00030927712 -0.0026046156 0.00035976153 -0.0029257443 -0.0029800935 -0.0024162123 -0.001228137 -0.0031951535 -0.00014644531 -0.0026497133 0.001965988 -1.5871501e-05 -0.00061561976 -0.003368221 -0.003831118 0.0034115997 -0.0019479496 0.0009021676 -0.0008244461 -0.0030851683 -0.0033973043 0.0007586092 0.0003201929 -0.0038521152 -0.0010293927 -0.0027741636 -0.0015312523 -0.003198944 -0.00018928996 -0.0033227592 0.00080153346 -0.0036406128 -0.00076803286 0.0009954934 0.00021259078 0.0016171208 -0.0028821179 -0.00066801184 -0.0011485172 0.0013387302 -0.0038096544 -3.6275953e-05 -0.0014978527 0.002995701 0.0012110793 -0.0020837057 0.0013743198 -0.0034353086 0.0005529189 0.0036724294 0.00194768 -0.0021823873 -0.0022047516 0.0032489395 -0.0038833888 -0.003854135 0.0009326982 -0.002881688 0.0019453834 0.000733319 0.002672481 -0.0029394152 0.0019150035 -0.000862737 0.001291783 -0.00037576223 0.0032426594 0.0022232768 -0.00016916485 -0.0038216722 0.0024485106 -0.00024265827 -0.0029529745 -0.00035559884 0.0030695505 -0.00046412885 -0.0033983702 0.00079163496 0.001617949 -0.0009455102 0.0005699543 0.0026769738 0.00014706147 -0.0010277209 0.0025462306 0.0014060801 -0.0008828277 -0.0033486814 0.0010662464 0.0007394066 -0.0016316109 0.0012209305
79 -0.0003599788 0.0034008662 0.0019803718 -0.0018351021 -0.00028800176 0.002960128 0.0023216303 0.0025632007 0.0010388495 0.0009914389 -0.0033713516 -0.0009659163 0.00014250982 -0.0034661237 0.0014525779 0.00026928718 -0.003672904 0.0011533255 -0.0025523228 0.00240406 0.001811387 0.0027288077 -0.0009313128 -0.001992515 0.0012454054 0.001087195 0.00050406915 0.0012849102 0.002687215 -0.0020894676 -0.0034656685 -0.0009787757 -0.0007034285 0.0019852344 0.0012679113 -0.0027034061 -0.003542886 0.0027140346 -0.0032765912 -0.0016651787 6.543384e-05 -0.002726693 -0.00029856822 -0.0011499691 -0.0008278482 -0.0016530477 -0.0010832541 0.00037110518 0.0011713777 -2.3017178e-06 -0.0023956671 0.00073623535 0.0023992634 -0.0028387646 0.0020700507 0.0013926796 0.0037211156 -0.003479214 0.0038565127 -0.00084385776 -0.0024005144 -0.0014911733 -0.0010961157 -0.0030734795 0.0021003264 -0.0028866527 0.0011482228 0.00014665721 -0.002044905 0.0024955426 0.0010852511 -0.001489874 0.0031433336 0.0020493562 0.0007426923 -0.001684096 0.0012087451 0.003276463 -2.5053949e-05 0.0037390674 0.0035371128 -0.00038373726 -0.00076536695 -0.00020618642 0.0032753276 -0.0032473549 0.003383026 -0.0027842657 0.0018369142 0.0037738986 -0.00064885244 -5.5426633e-05 -0.0017368076 -0.00066728424 -0.0034803255 0.0010521943 -0.0017689033 0.0030036215 0.0014117965 -0.002870997 -0.0036909804 0.0011143619 0.0010143697 -0.003892805 -0.0015527204 -0.0023078402 -0.0027511043 -0.0029963495 7.2992276e-05 0.002059582 -0.002264538 -0.0009073682 -0.00045723506 -0.0012234498 0.0012096321 -0.00073505775 -0.003317545 0.0012960344 -0.0037736986 -0.003568601 0.0012971497 -0.0030883562 0.0035774573 -0.0035122426 0.0028583573 -0.0033620668 -0.0037330126 -0.001490046
35 -0.0015609432 -0.0027459122 0.0023532151 0.0027683177 0.003835979 -0.0019022663 -0.0017638118 0.0031195523 -0.0015687081 0.0016933902 0.00027722257 -0.00054075004 0.00095622335 0.0028174892 -0.0012685894 -0.0011141275 0.0027137923 -0.0011529253 -0.0004766283 -0.0018173327 0.0016907067 -0.0038861386 0.002735236 -0.0035316704 -0.002280146 -0.0008003118 -0.00095586496 0.0013469044 0.0016360963 0.00063306815 -0.0025964605 0.002845195 0.0005324112 0.0013027882 0.00018214708 0.0006187982 -0.0024838434 -0.0024826447 0.00013484167 -0.0020619917 7.018767e-05 0.0021125271 0.0037638103 0.0030017963 -0.0008774426 0.0010783372 -0.0014005412 -0.0017807457 0.0027873411 0.0032085131 0.00086774793 0.0022058683 0.0010055655 -0.0024815626 0.0016237502 -0.0010596105 -0.0007769723 -0.0023347244 0.0017487598 -0.0010770113 0.0035140724 -0.0022073514 0.0015264915 0.000588197 0.00374526 -0.0011290254 -0.0021410955 -0.002464487 0.0016966448 -0.0037781696 0.002789714 0.0013099582 0.0018994333 0.00012829788 -0.0012451152 -0.0013807715 -0.0028726258 -0.0031075436 0.0030155147 0.0019537369 -0.00033903666 0.001768655 0.001462528 -0.00048086818 -0.0019742607 -0.0013255918 0.003091711 -0.0016362618 -0.0012884587 0.0012211942 -0.00377802 -0.0037052736 0.00022804862 -0.0010099228 0.00021226738 -0.0005042104 0.0035343093 0.0024492403 -0.0015756842 -0.0014242218 0.003652619 -0.0026248181 -0.0029216013 0.0025576593 0.00091919024 -6.773271e-05 -1.769288e-05 -0.0034310902 -0.0036278924 -0.0035657522 -0.0025176802 0.0009816274 0.0017464382 -0.0033131298 0.0009285203 0.0013281968 -0.00096106395 -0.0025293883 0.0030550298 0.0013332829 -0.0035405227 0.002124913 0.0027047854 0.0017990081 -0.002540205 -3.314588e-05 0.0033547767 0.002443761
51 0.0004784801 -0.0019949772 0.0027934148 -0.0025325702 0.0018117707 0.0018042488 0.0031214876 -0.00050004426 0.0024518268 -0.00023548525 0.0005494966 0.0012922985 -0.0024578155 0.0035038367 -0.0020279512 0.001976799 -0.002213208 -0.0013681772 0.00020404358 0.003851712 -0.0011349741 0.0032747907 -0.0021449092 0.0037405698 0.0032163202 -0.0011218262 0.00015404381 0.00025510378 0.0032123472 -0.00042593558 -0.001318081 -0.00085074164 -0.002755529 0.00020488801 -0.000245755 0.00083986035 0.0034182568 0.0020732859 0.0032037445 0.0012683957 -0.0037819205 0.0005535121 0.00017646872 -0.0007053848 -0.0034583237 0.0032236667 0.0004896163 0.0010986541 0.00026082716 0.0009981935 -0.003670098 0.002293976 -0.0029745987 0.000607168 -0.0030345246 -0.0037827014 0.0027744074 -0.00030713144 0.00037899942 -0.0036467595 0.0037504528 -0.0007281303 -0.003417496 -0.003811041 0.0017685386 0.0018567515 0.0001853513 0.0017788303 -0.0033537904 0.0016691388 -0.0028858874 -0.003160243 -0.0037763838 0.0017000478 0.0012274082 0.0030367395 0.0006043296 -0.0005416574 0.0013263903 -0.0033473838 -0.0011300421 -0.0015591638 -0.0012150031 0.0028547025 0.0013693982 -0.0024584811 3.443333e-05 -0.00033301284 0.0013465075 -0.0021320865 -0.0007576481 -0.0028815025 -0.0017792031 -0.0009490024 -0.0011546826 0.00068984577 0.002434016 -0.0015752085 0.0014745381 -0.00022470814 0.0014599613 0.0020346865 -0.00019986552 0.0031929065 4.2344982e-05 -0.0012784244 -0.0017894593 0.002266151 -0.0008025616 0.0036701388 0.0007260833 0.00012430489 0.003147959 0.003076645 0.0016278696 -0.0023641754 -0.0024948232 -0.0031266203 0.0035238545 0.00010872802 0.000580318 -0.002790186 0.00022746132 -0.0024090763 -0.0011511284 -0.0024591102 0.0036446385 -0.00042941803
23 0.0018023023 0.0007429978 -0.0038925025 0.0038843693 -0.0011245469 0.0037442185 -0.0009172076 0.0022284493 0.0004450848 0.0024345045 -0.0022642994 0.0010735677 0.0031978937 0.0009795394 -0.0023428095 0.0022772579 -0.0030898438 -0.0013460781 -0.0021642277 -0.0014631507 -0.00044672927 -0.0026901106 -0.0029203915 0.0020293323 0.0025933525 -0.0012756417 -0.0018027759 -0.002605501 -0.0003702411 0.003825791 0.0033740592 0.0011706941 0.0035041543 0.002867858 0.0010890056 -0.000720318 -0.002290053 -0.0010851644 0.0029668 -0.0014030522 0.0012603411 -0.0038948297 -0.0022235936 4.7411802e-05 0.0027109275 -0.0033409023 -0.0020644246 0.003753519 -0.0008476522 -0.0034766234 -0.002731052 -0.0036148631 -0.0010341997 -0.0016601202 -0.00011133182 -0.000785409 -0.00046600334 0.0012397766 0.0003792716 -0.00013216912 -0.00079444563 -0.0037750038 0.00026282773 0.0016877992 -0.0038843462 0.00035540765 -0.001464368 0.00019191709 -0.0022117633 0.0017590785 0.0026615881 0.0019510296 0.002761212 -6.365884e-06 0.003682552 -0.0019459081 -0.0037931884 0.0005087926 -0.0030526228 -0.00053108315 -0.003253213 -0.001867976 -0.0023457033 8.603856e-05 -0.0028553193 -0.0031887947 -0.000342254 -0.001261089 0.0029801936 0.0017219543 0.0036993544 0.002043373 -0.0012276585 0.0027462116 0.0016298469 0.002707592 -0.00027560396 -0.003892761 0.0038619982 -0.003411965 0.0016345518 0.0038598927 -0.0006791065 -0.0005966506 -0.0035502706 -0.0024131879 -0.00054096564 0.0020960635 -0.0012249452 0.0015453188 0.0022724844 -0.00056576513 0.0024632309 0.0034868275 0.003668701 -0.0014108149 -0.0024800003 0.00082315074 0.0037393875 -0.0021291496 -0.0018052437 0.003863596 -0.00032350043 -0.0014787286 0.00011266681 0.0017992237 0.0032785952 -0.0028155185
20 0.0033150108 0.0032488748 -0.0034849925 0.00048151033 -0.0024318495 -0.0031468237 0.003773359 0.0014293127 -0.0029965595 -0.0019234266 0.0036856432 -0.0035724945 -0.0015158815 -0.00083912717 0.002697465 -0.0013162112 -0.0035496592 0.001226882 0.0017272967 -0.0014091549 0.0015995329 0.00070303923 0.00072827394 0.0011517664 -0.0011619441 0.003468072 -0.0031634762 -0.0018552729 0.0039042742 -0.0038398735 -0.0023462875 -0.0017063735 0.0014268858 -0.0026985114 0.0021978917 -0.0013802466 0.002095748 0.0025526932 0.0038227916 0.0007541233 -0.0022162832 -0.003093535 -0.002607106 -0.00031063208 -0.0023548661 -0.0026604675 0.0023746802 0.0024115625 0.0002812668 -0.0010287169 -0.00021375903 -0.0007241922 0.00042062716 0.0038254983 0.00061144895 -0.00085153687 0.000527791 -0.0010167994 0.0023607144 0.0013150041 -0.0031572045 0.0010613374 -0.0037029088 -0.0016404726 -0.0003437294 0.0019565793 -0.0038526068 0.0033203533 -0.0005857375 -0.0031877637 0.0013687888 0.0015745402 -0.0018293269 0.0024007515 -0.0023528368 0.0019248654 0.0013623235 0.001913054 0.0013825435 0.0018119622 -0.0023840063 -0.003124301 0.0032426442 0.0014067772 0.002122387 -0.0012089345 -0.0005337248 0.0011693999 -0.0026204535 -0.0028696798 0.0017287575 -0.003487235 -0.0029905213 0.0021067467 -8.479361e-05 0.00022667629 -0.0017290089 -0.0029364096 -0.0027012716 -0.00079207757 -0.002693999 -0.00054503384 0.0005809343 -0.0032536997 0.0028163632 0.0006432399 -0.00212548 -0.0018097507 -0.0002195494 0.0030104788 0.0038201944 0.0025665786 -0.0008920773 0.00082025473 0.0038850247 0.0018656878 -0.00218975 -0.0031043245 0.001314918 0.0006572471 0.00056911143 -0.00013454126 0.00092647754 0.0029773412 -0.0020510822 -0.0036929233 0.0015391822 0.0015651657
43 -0.00063200906 -0.0032561535 -0.00022326566 -0.0007004089 -0.00021865475 0.00090674096 0.0011091705 -0.0020320395 0.0038816787 0.0016449478 -0.0029416233 -0.0035924413 0.0025658908 -0.001843464 0.0001507312 -0.001241415 0.00078112684 0.0036341434 0.0014596254 -0.0014662907 0.00050529436 -0.0030181636 -0.00060154166 -0.002460318 -0.0038603905 0.003864852 0.003776669 0.0016111012 0.0016029469 0.0013656636 -0.002288365 0.0025650626 -0.0008418065 0.0023484912 -0.00066260603 0.0012278297 -0.0020499246 0.0021014551 0.0021946554 0.0012848676 0.0036373122 0.002944342 -1.3261129e-05 -0.00028330163 0.0019062427 0.003264837 -0.000704676 -0.00013449095 0.0034301428 0.0031438968 0.0027971512 -0.0019031039 -0.001937867 0.0014832624 -0.0018207941 0.0021755698 0.003461746 -0.002312352 -0.00018634666 0.00022374355 -0.0023832433 -1.3222796e-05 0.0033667944 -0.0020139522 -0.00038416666 -0.0035976912 -0.00018729377 -0.0025363944 -0.0012443477 0.0016365906 -0.003644504 0.0038275495 -0.0022579187 -4.9645274e-05 -0.0015152482 -0.002382771 0.003765869 -0.0012081773 0.0021595615 0.0030771927 -0.00030530666 0.003686482 -0.0037812646 -0.0030757515 0.0016933304 0.0038456954 9.2762384e-05 -0.0035715487 -0.0022715582 0.002158545 -0.0017810697 0.0024144214 0.0019352175 -0.000987141 -0.000999317 0.0028665897 -0.0012206201 0.0019614666 0.0025029092 -0.0010128126 -0.0019674124 -0.0029323248 -0.0025706408 0.0009141955 -0.0030505941 0.001791371 -1.8027562e-05 0.0008857741 0.002103869 0.0036110713 -0.0019690143 0.0021704093 0.0011142368 0.0011771141 -0.0011072976 0.00074891147 0.003143427 0.0038552443 -0.0012335381 0.0037290566 -0.0033576547 -0.0021200955 0.0017545517 0.0008746678 -2.87829e-06 -0.00015000642 0.0013331062 -0.0028589559
65 -0.0017792408 0.0011427659 -0.0033061202 -0.0030710327 0.00056165864 -0.0014174128 0.0019225569 -0.001334004 -5.5763467e-05 0.0027294066 0.00232815 0.0034230677 0.0032899443 0.0005935398 -0.0030895292 -0.0026795922 0.0038300005 0.0028197656 0.0028190867 0.0032461092 -0.0024546636 0.0011902204 0.0014080238 0.0028788834 -0.00029669658 0.0028593186 0.0022539075 0.0020816366 -0.0035897305 0.00051092013 0.0021081814 -0.0015506783 -0.0016458416 -0.0028680526 0.0018817084 0.0011620538 0.00064244564 -0.0036216774 0.0014287896 -0.0035740014 -0.002510001 -0.0008264598 0.0029545387 0.003243835 0.0030258617 -0.0039007151 0.0034318422 0.0028067755 0.001761848 -0.0028967194 0.00039885353 0.0007682705 -0.0032258602 0.00017612736 0.002590246 -0.0015010356 -0.0038478596 -0.0030194982 -0.001149932 0.0036034137 0.0017952794 -0.0022158548 -0.00040571592 -0.003001172 0.0027847728 0.0025264174 -6.0012317e-05 -0.0010452043 -0.0016251054 -0.003335753 -0.0029610551 -0.0021584914 0.0025268598 0.0017276042 0.000105075385 0.0024841786 -0.0013781996 -0.0010261188 -0.002512045 -0.0031579281 0.00033312768 -0.0018405832 0.0028606106 0.0014132342 -0.00086585106 0.0016743345 0.0010726979 0.0014427757 0.0008050643 -0.0026025868 -0.00063214975 0.00018660226 -0.00068338064 -8.004559e-05 0.0021169807 0.0007083807 -0.001999088 -0.0019172014 0.0028480827 -0.0035334711 0.0032300786 0.0036686447 -0.0004916074 -0.00038906172 -0.0037674247 0.003094524 0.0029326607 -0.00093012885 -0.0027626676 -0.0014076635 0.0009943607 -0.0009480497 0.00055802445 0.002722387 -0.003431091 -0.0018039843 0.003897793 0.0032171756 0.0033056214 0.0024817656 0.002207919 0.003698633 0.0025151437 0.00028568943 0.003339718 0.0037594475 -0.0029964421 -0.00091846165
36 0.00179495 -0.0029489794 0.00092919706 0.0022283564 -0.0011158454 0.0035611559 -0.0029285685 -0.0018474765 -0.003671519 0.0015365984 -0.001967522 -0.0027179595 -0.003468766 -0.0010025072 0.0010051728 -0.0029096291 -0.0010521379 0.00034237903 0.0036796278 -0.00029156552 0.0026678168 0.00017839215 -0.0026221897 0.0026251557 -0.0027435196 0.0004126138 -0.0015600361 0.00059566705 -0.0027660595 -0.0029954992 -0.0011261691 0.0021523181 0.002069264 0.00028259048 -0.000118473276 -0.003004189 -0.0015932358 0.0013889343 0.0025383206 -0.003180369 0.0013092057 -0.003101578 -0.0009800888 0.0020962735 0.0019009674 0.0027273318 0.003077243 -0.000992813 -0.0003960877 0.0002802034 -0.0009955058 0.0011063176 0.0018548059 -0.00314608 -0.002837843 -0.002871752 -0.0013954538 -0.0012157959 -0.00019951501 -0.0019109664 -0.0018156363 -0.0009744928 0.00090121 -0.0030387507 -0.0029364165 -0.00011416898 -0.0031119057 0.000967883 -0.0035317116 0.00027513475 -0.0031934625 -0.0024356698 -0.003195757 -0.0026787987 0.0028795453 -0.0010471342 0.0018438096 0.0026366524 -0.0030084634 0.0028654772 0.0023844994 -0.00037492908 -0.00057435554 0.0038794465 -0.0020541507 0.002655775 0.0034313358 -0.00090385485 -0.0019247539 -0.0029904395 0.00034479858 0.0013746055 0.0019715151 6.0110757e-05 0.0037632512 0.0014828559 0.0017558214 0.00068278855 0.0028714682 -0.0038418814 -0.0017019951 0.0039015256 0.00043164298 -0.0034416884 0.000102890444 -0.0006143297 -0.0029818537 -0.0030553022 -0.00056165794 0.001507859 0.002381148 -0.002917053 0.0033248535 -0.0013765179 -0.00029906974 -0.00074580556 0.0028770003 -0.0021314216 -0.0030845965 0.003629673 0.00038416355 -0.0037373004 0.0034759804 0.0033007204 0.0005523947 0.0025796758 0.0036315126 -0.0003857546
8 0.0026539355 -0.0008872638 -0.0024509858 0.00043600347 0.0021649497 -0.0018706175 0.0012654442 -9.433084e-05 -0.0022082042 0.002574097 -0.00116362 0.0027510908 0.00091466604 0.0025804238 0.0037552747 0.0036332288 4.076769e-05 0.0023408774 -0.0035279633 -0.0019909 -0.0026906435 -0.0016466472 0.0030091628 -0.0023249537 -0.0028983413 -0.0016753805 0.0029468944 -0.0012604672 -0.0025079572 0.0006683743 0.0012620381 0.000883616 0.0001351473 0.0019458126 -0.0023097668 0.002500733 -0.0012183653 0.003237427 -0.0004688893 0.0023537916 0.0017067837 0.0010125755 0.0012350754 -0.003856319 -5.5587898e-05 0.0032665555 0.0014037108 -0.003796214 0.001423588 0.0009734193 -4.694671e-05 -0.0020246056 0.0011235471 0.001659834 0.0039027913 0.003849193 0.0037733188 -0.00013964776 0.0018538676 -0.0016226927 0.0007329061 -0.0029731987 0.0013759877 -0.001227925 -4.6569847e-05 -0.00064895424 -0.0025788583 -0.0028466524 -0.0014448345 -0.0018189328 -0.0032216718 -0.00058210513 0.002512337 -0.0014952574 0.00017607029 0.0033296007 0.0015717717 -0.0011572003 -0.0029757645 0.0005426382 0.0002495334 -0.0033218365 0.0014522416 -0.002854127 -0.0037887157 -0.0033287285 0.000560645 -0.000655724 -0.0026150583 -0.0020827858 -0.0016944789 0.0034467136 0.00038286002 -0.002924649 -0.00035809336 0.0029756706 -0.0018386474 0.0010535568 -0.0011565888 -4.706809e-05 0.0015784984 -0.00077004195 -0.0033988839 -0.0023141669 -0.0011211573 -0.0008133057 -0.0014837428 -0.0033042242 0.0008804905 -0.0031789807 -0.0010300244 -0.0025748906 -0.0014176918 0.0014948676 0.00016239933 0.0018908402 0.00207508 0.0012469476 0.0005774793 -0.0013891279 0.00093263824 -0.0029860998 0.00052914093 0.0011037479 -0.0024849938 -0.0009455663 -0.001779817 0.003414314
40 0.002317755 0.0018505155 -0.0028047587 -9.805927e-05 -0.0009458293 -9.749409e-05 0.0033838623 0.003033667 -0.0022451582 -0.0004965951 -0.0024304173 0.003701168 0.001071048 -0.00085312437 -0.0033904398 -0.0016085824 0.0032382237 -0.0011391562 0.0024878054 0.0021210047 -0.0014011026 -0.0027736945 -0.0005006528 0.0022613704 0.00067598134 0.0014192772 -0.0027695466 -0.0034989389 8.744172e-05 -0.0012571537 0.0033215622 -0.0007923955 0.0011852137 0.0011262666 -0.0020600273 0.0025583273 -0.0010633299 0.0022523832 -0.00055949495 -0.0012962433 0.002531132 0.0005105929 0.0035399941 0.00045308284 0.001641926 0.003269386 -0.0033415807 0.003893277 0.0017676211 0.002381549 0.0026546638 -0.0019206882 -0.002357034 0.0020730926 0.0013136467 -0.0015231213 0.00024130415 0.003051081 -0.0012188632 -0.001778452 0.00083411025 -0.0017762708 -0.0020510019 -0.0009171322 -0.00081604713 -0.001168683 -0.0020525623 0.0004890112 0.001125609 -0.0016606926 -0.0026287276 0.0012353823 -0.0016772215 0.003503068 -0.0022305918 0.0012989223 -0.0031986686 -0.002103105 0.0021870646 0.0037446897 -0.0017988194 0.0010512118 -0.00057379605 0.0025638884 0.0028576879 -0.0018133202 0.0023676634 0.0015421457 0.0013413219 -0.0016106586 0.00026899396 0.00018258551 0.0023101326 9.6822725e-05 -0.0022847992 -0.000601993 0.0014848261 0.0021812208 0.0004313951 -0.0026272188 0.0022525596 0.0020185912 0.0007939009 0.0034786626 0.0024736458 0.0029060906 0.0007192526 0.003658797 0.0019495394 0.0025576176 -0.00062270265 0.0034712208 0.0010586046 -0.00020536756 0.0027413496 0.0029026314 0.0026769198 0.002751669 -0.0018820831 0.0024400353 0.0030581658 0.0034139098 -0.0009115773 0.0036995239 -0.0027539968 0.0027392346 -0.0030604557 -0.0026517992
93 -0.0013038105 0.0013821967 -0.0038492503 -0.0005858137 -0.00022869358 -0.0014620278 -0.0028147716 -0.0038180905 -0.00053471205 -0.00073000736 -0.00038562377 0.0035291445 0.00084783696 0.0026394702 -0.003748959 -0.0038901053 0.00341583 -0.003166644 0.002063846 0.00060889096 0.0026912391 -0.0026662988 0.003805149 -0.00073680247 -0.0029982456 -0.0024305666 0.0033928526 -0.0023494076 0.002179074 -0.0010025478 0.0022049863 0.0007900932 0.0015589963 -0.0032686896 0.001984919 0.0019579427 -0.0015949917 0.00015379293 -0.0014881757 0.0038386781 -0.0025076026 0.0014003402 0.0023284368 -0.0010925804 0.0030824498 0.0026257888 0.0017274771 -0.0037590985 0.0038813949 -0.0009717403 -0.0021091178 0.003651282 -0.0003622614 0.0016618234 0.000977796 -0.002344407 -0.0026150749 0.0026706099 -0.0008418935 -7.5151824e-05 0.0028791465 0.0021960787 -0.0034011195 0.0022096413 0.0024590192 0.0035602879 0.0022535708 0.0006648907 -0.0017193339 -0.0038435373 0.0030808307 0.00026272694 -0.00041100048 7.267565e-05 0.0015914593 -0.0034309574 0.0023075873 -0.0027434847 -0.0005509583 -0.00074154744 0.0018251054 0.00025548215 -0.0005959627 0.0020299305 0.0008538378 -0.0022297287 0.003816831 -0.0018215771 0.0016798335 0.0036420329 0.0002675102 -0.00053021853 -0.001697106 -0.0034710523 0.0009300589 -0.0020112675 -2.0464888e-05 -0.0019010352 0.0029258921 -0.0013849346 -0.0010054532 0.00039693425 -0.002536153 0.0010325004 0.0007685745 0.0022972757 -0.0035084884 -0.002430923 -0.0008143602 0.0034722849 -0.0008917296 0.0025553291 -0.0007898125 0.0037687293 0.0005171474 -0.0016000327 -0.002614514 -0.00061939564 -0.002387472 0.0036011485 0.0006245462 0.0011982501 -0.0020444428 7.040312e-05 -0.0016654864 -0.0007752863 0.003876589 0.0018249159
71 0.0013855982 0.0024865973 0.0029340845 0.0034900492 0.0025864898 0.0015648432 0.0018431299 -0.0024406714 -0.0021016698 -0.0017294723 0.0028815696 -0.0021307562 0.002045519 -0.0020504298 -0.00234734 -0.0024461744 0.0035812801 0.0034046094 0.003254804 0.0015130712 -0.003326343 -0.0022269266 -0.0013299106 0.00055689446 0.00067026855 0.0015039089 -0.0015523619 0.0025534227 -0.0026468774 0.0019065767 0.001801645 -0.0035045329 0.0012971718 0.002333217 0.0022331986 -0.0022554304 0.0023953198 0.003093916 0.0024403736 0.0011646325 -0.0015878818 0.0028438277 0.0026347765 0.0013159246 -0.0005538921 0.00032626558 0.0022364222 -0.0017158268 0.0009761303 -0.0012392194 -0.0020809756 -0.00043551627 0.0024261903 0.0032529503 0.003831629 0.0024846874 0.0021827961 0.0009845821 0.0032790813 -0.0006222664 0.0015350315 0.0028688996 0.0021433104 0.0013506247 -0.003013903 0.002449587 6.0006896e-06 0.0006210516 0.0023617689 0.0011612558 -4.1438057e-06 0.0006907858 -0.0006133413 -0.00040994576 -0.0028089753 -0.00064658147 -0.0020362942 0.0013478058 0.0033644561 -0.0024326942 -0.0017538836 -0.0035678232 -0.00074739056 -0.0014456266 -0.0018817221 -0.0006124769 0.0023287728 0.0027705561 -0.0006686974 -0.0038635125 0.003407177 0.00094700063 -0.0006807983 -0.00091873395 0.00066188676 -0.00062773813 0.00038811908 -0.001236931 0.00026814034 -0.0024464172 -0.0027514347 0.0016716187 -0.0019201327 0.002790795 0.0034811774 0.0022992236 0.0031710488 0.0022335895 -0.0034824617 -0.0006249464 -0.0010127707 -0.0021181586 0.0006100939 0.0012382091 -0.0012022655 0.0010551462 -0.0022388631 -0.001353921 0.0016273542 -0.0011811296 -0.00022059052 0.0038867581 -0.0011975156 0.00371085 -0.0012549799 0.0009435722 0.0021649303 0.0007113872
46 -0.0002979143 0.00335015 0.0015903424 0.00267276 -0.0036214418 0.00094702974 0.0037809957 -0.0029813426 0.0002467917 0.00092779694 0.0009658334 -0.0036720983 -0.0001656802 -0.003571466 -0.0012420531 0.00049758545 0.0014203496 -0.0032056405 0.0033252488 -0.0011949831 -0.0022678575 -0.00047635642 0.0010378303 -0.00038170008 0.0008045145 0.002157169 0.0026209569 0.0034166058 0.0036652056 -0.0013377352 0.0024403315 0.0033274547 -0.0018536841 0.0008064031 0.0026264747 -0.0011222197 -0.00024495562 0.0007430846 -0.0030203725 -0.0013500345 -0.003660975 0.00085184537 -0.0025444436 0.0030003292 -0.0031692474 -0.00045830122 0.0002486222 0.003829029 -0.0019462894 -0.0023661677 0.00091516675 -0.0013442915 0.0005062735 -0.0035893638 0.001022405 0.0014735431 0.00054804754 0.0024556615 -0.0025909056 0.0023694574 0.0003488979 -0.0035468233 -0.0027748004 0.0014819074 0.0018790519 0.0010534984 -0.00074971654 0.0018648056 -0.0009193849 -0.0027356818 -0.002555286 0.0012762377 -0.00041050516 0.00022680571 0.0015585743 -0.0024584527 0.0015574202 0.002206568 -0.0021225961 0.0032723295 -0.0013552024 0.0021195298 0.000351778 -0.0029226725 -0.0005598739 -0.0005953816 0.0005651106 0.002488437 0.003246426 -0.0034792451 0.0035601447 -0.0038729869 0.00039989222 0.00023656987 -0.0038287113 -0.0022000792 0.00013964792 -0.00012053474 0.0032564297 0.003729786 -0.0028315464 0.00040772615 0.0019556123 -0.003423631 -0.0021847715 0.0020694865 0.00017160935 -0.003063745 -0.0038070711 0.0019518959 0.0019159236 -0.0025722217 0.0024608152 -0.003240314 0.0030661598 -0.0020511379 -0.0017031151 0.0031224734 -0.0013368395 0.00090649555 -0.0036728021 -0.0021597997 -0.0028191805 2.6351641e-05 -0.0014999871 0.00037904625 0.0003382766 0.00086459756
10 0.0015395217 -0.0028704137 -0.0036796932 0.0007859229 -0.0009637702 0.00025938245 0.0035207956 0.0016578969 0.0026956755 -0.00033602817 0.00025651063 -0.0026279588 -0.0031423725 -0.0010852631 -0.0038019652 0.00019291868 -0.0002474659 -0.0023915682 0.0009949375 -0.003615393 -0.0010564668 0.0008795094 -0.00069135474 -0.0033911006 -0.00064680376 0.0021137935 -0.001936076 -0.0013783693 0.0016195317 0.0027168225 -0.0018291709 -0.00035464345 -0.0028532555 0.00042246058 -0.0016074437 -0.0033684713 -0.0037694452 -0.0019620368 0.0021565116 0.0025417153 -0.0034550296 -0.00074678595 -0.0023204952 0.0030103181 0.0033392769 -0.0028655312 -0.0005716219 -0.002500687 0.0019591704 0.0033998543 0.0006642863 -0.003785256 0.0007601012 0.00038202017 -0.0017421716 -0.0023625495 -0.0013552618 0.002127697 0.0012098157 -2.8315062e-05 0.0019793466 6.012659e-05 0.0029863243 -0.002382147 0.0027647524 0.0032148587 -0.003838344 -0.00041797973 0.00031613393 0.0035991818 0.0019094696 -0.0019231549 -0.0016652624 -0.0012813993 -0.0016266404 0.00101787 -0.0015870379 0.0035927072 0.0026712269 -0.0010189048 -0.0021556383 0.00038026104 -0.00055646995 0.00012222715 -0.0032206844 0.0013995839 0.0018894348 -0.0032366475 0.00019785321 -0.0025826187 0.000255575 0.0013136594 -0.0015989131 0.0035009708 0.0009976813 0.00030333825 -0.0025375346 -0.00037803352 -0.0030513108 -0.0028218413 7.4826917e-06 0.0015186745 -0.003849545 0.0015898703 0.0023889234 -0.00094614073 0.003660415 0.0021786154 -0.0034897963 -0.00034558427 -0.001130974 -0.0034902003 -0.0017160663 -0.00022482681 0.0014108728 0.0016405756 -0.00022136583 0.0020642623 -0.0024906266 -0.0029460194 0.0013248274 -0.00065512315 -0.0016703989 -4.1308733e-05 0.0031119974 0.00069595076 -0.0031516042 -0.0013458931
92 0.0016535874 -0.0026514041 -0.0017137753 -0.00011336417 0.0037309458 0.00031143444 -0.0011722486 0.003788465 -0.0025495607 -0.0031407385 -0.0004974768 0.0038069722 0.002577852 0.002420999 -0.0012731929 0.003584556 -0.0004161906 -0.0014218555 0.0023243234 -0.003535321 -0.0008284965 -0.0015817722 -0.00058619835 0.002244562 0.0012627897 0.0015735045 -0.0012208179 -0.00214967 -0.0029608174 -0.00024112518 0.0013077685 0.0034245215 0.00038092432 -0.0020438011 0.0021279673 0.0020920255 -0.0011405043 0.0035469371 -0.0030281981 0.002334693 -0.0023958276 -0.0020990619 -0.0034606655 0.0020258212 -0.0008978709 0.00053978624 -0.0028349299 -0.0031257996 0.0019458785 0.0005951466 -5.8215373e-05 0.002127008 -0.0006516249 -0.0032953946 -0.0029988028 -0.0033955644 -0.002397094 -0.0024603447 0.0037595564 -0.00089035067 0.0027162575 -0.0016999205 -0.00025340496 0.0029026421 -0.0018223292 0.003420433 -0.001763993 8.8481924e-05 -0.0031842012 1.0408008e-05 -0.0035091948 -0.0015370575 -0.00030886306 0.0033787843 -0.0027691722 -0.00018634321 0.0038952818 -0.0019499621 0.0008899142 -0.0010049206 0.0032857088 -0.0011659001 -0.0038075284 0.0028151828 -0.0008018622 -0.000820664 -0.0018565749 0.0037197554 0.0030993808 -0.00014363574 -0.0015458268 -0.0007842001 -0.0037749973 0.0005183227 0.002360996 0.0014477286 -0.002606031 -0.0001780771 0.00034648943 -0.0027412158 -0.00041277832 0.0027612462 -0.0036854884 0.0017643088 -0.0026938103 0.0027298992 0.0005615944 -0.00022722672 -0.0025685725 -0.003728998 -0.0028322719 -0.0013750502 -0.0020745902 0.001249915 0.0027098372 0.0012600897 0.0003562463 0.0013584672 0.0009018491 0.0035405187 0.0010295856 0.003215858 0.0006020265 0.0028665822 0.00229117 0.0010750666 3.6555335e-05 -0.001390888
16 0.0015922122 0.00048334306 0.0022051942 -0.0036660298 -0.0004455841 0.0019271926 -0.00044516704 -0.0023938178 -0.0030514996 -0.0022253692 -0.0018803407 0.0016685227 -0.002590149 -0.0026696897 -0.0022168108 0.0017886285 0.0005738051 0.0020131343 -0.0037672815 -0.0033110925 -0.001475601 0.00081722403 0.0036671348 -0.001478001 0.0030371367 -0.00028993533 0.0030700555 -0.0030787196 -0.003537926 -7.0907663e-06 -0.00051671115 0.0017719072 -0.0006461503 -0.0033215717 0.0017245932 0.0038031423 0.0033146532 -0.00015441467 -0.0003291848 7.345736e-05 -0.0011898236 0.0028694286 0.0015242407 0.0021758666 -0.0014898864 -0.0018426932 0.0014598786 -0.00032286422 0.0009940651 -0.0028919517 -0.0031372502 0.0025698885 -0.0036331313 -0.0032959294 0.0028909252 0.0038428612 0.0031061012 0.0029523433 0.0032723187 0.0029903157 0.0019771873 -0.0003726855 0.003700127 0.0035991059 0.0018790805 0.0036216376 -0.00051921536 -0.0037864184 0.00047193968 0.0030867057 0.00093047775 0.0003608732 0.0005123542 0.0038685428 0.002090826 0.0024779974 -0.0008438781 0.0012534068 -0.00019791661 -0.00081196596 0.0015496504 0.0007791554 0.00055303704 0.0013758345 -0.001401593 -0.0035815646 0.0021282288 -0.003687117 -0.003588773 0.000931126 -0.0008188343 0.003527579 0.0030322275 -0.0017781752 0.002340651 0.0034913816 -0.0011566457 0.002470609 -0.00015583841 2.7935761e-05 0.00236676 0.003790951 0.0014718866 0.0015763614 0.0011370856 -0.00093860994 -0.002430285 0.000412109 5.0508534e-05 0.0011515581 0.0037713565 0.0017291749 0.0034178353 0.0038312904 0.0007077588 -0.0029633157 -0.0014396781 0.00086601515 -0.0034746078 -0.0009782326 0.0003638175 0.0009216864 0.00039503 -0.002786469 -0.0030324168 0.0015962423 0.0013403572 -0.0032990512
80 -0.003482997 -0.0018062157 -0.0013298733 0.0005862836 -0.0030788316 0.0016090741 -0.002570316 -0.00027417002 0.001957061 0.00076156046 -0.001316075 -0.0016458463 -0.0034177734 0.00020461576 0.003107754 -0.0029537492 4.526885e-05 -0.0003774049 -0.002963144 -0.0020026255 -0.00078881654 0.0006544613 0.0024013403 0.0035013636 0.0035798538 0.0010086448 -0.0016565557 0.002966833 0.0011103409 0.0006191633 0.0026288377 -0.0030029556 -0.003868877 0.0022380345 -0.0021362938 0.0018674358 -0.002059551 0.00074516237 -0.0017379622 -0.00030353377 -0.0037812574 -0.0022374564 0.0009550435 0.002172675 -0.0036920519 -0.0018932751 -0.0011090998 -0.0025436555 -0.0032464287 -0.003692728 -0.0013625385 -0.001538444 -0.0012927445 -0.0029425942 -0.0017984068 -0.0029799417 0.0027220328 -0.0028971636 0.0020285232 0.0004510718 0.0013462688 0.0019829907 0.0033444539 0.0016859064 -0.0021153642 -0.0023581372 0.0010381996 -0.0006824927 0.00059377216 -0.0013906527 0.0034481785 0.0020641568 0.0022133614 0.0032009752 -0.002859661 -0.0035273456 0.003854432 -0.0021023515 -0.00030804126 -0.0012218575 -0.0005500583 -0.0030856938 2.814534e-06 -0.0005635127 -0.003308245 0.002284818 -0.0021875438 0.0012231825 -0.0016829126 0.002495933 -0.0019128559 0.00130732 0.0010884854 0.002572325 0.00056243147 -0.0013339105 -0.0010798707 0.0020104907 -0.0012051346 0.00062650035 -0.002887697 -0.002912282 -0.0032710338 0.0038191702 0.002383154 0.0018344425 -0.0022711896 0.0026320142 -0.0013773016 -0.0008424212 -0.002038967 0.001880965 0.0035915303 -0.0007553431 -0.0021433602 0.0020339894 -0.0033907571 -0.0018070897 0.00021099513 0.0036426708 -0.0019735391 0.00036402335 -0.0024363545 -0.0034051193 -0.0031054884 0.0029860763 0.0030148064 0.0037845494
47 -0.0028735902 -0.0014877205 0.002516623 -0.00042082736 -0.0017248765 -0.002264474 -0.0021502047 -0.00049601204 0.0015611232 0.0029949625 -0.0019059778 -0.0028489998 0.0033565855 0.0010686221 0.0037088941 -0.0020792696 0.0018289431 -0.0008289394 -0.0014506946 0.0033931746 -0.0036796406 0.0005245073 0.0021243661 -0.0030512672 -0.0029781864 -0.0008755956 -0.001619533 -0.00096546835 0.001731156 0.0027049305 0.001687709 0.0025310863 -0.0014544008 0.0010378173 0.00036424078 0.0019673845 -0.0027273425 0.0036725542 -0.0005848429 0.0037654235 -0.0012149423 -0.0011606781 -0.0020427299 -0.0023354525 -0.0028978784 -0.0023808982 -0.00085023185 -0.0013667627 -0.001135353 1.9384746e-05 0.002077781 -0.003115013 -0.003828837 0.003570241 0.001691823 0.0028015638 0.0021184103 -0.0031586566 0.0029333634 -0.00062287605 0.0002505392 0.0006416435 0.0017195663 -0.0036180746 0.00089116115 -0.0038201131 0.0018798639 0.0012398569 -0.0023310517 -0.002983419 0.0033832614 0.0026608293 -0.0028037252 0.0021973911 0.0031663184 0.0017390348 -0.0021583852 -0.0035311098 -0.0012386547 0.00048794696 -0.0011002583 0.003661165 0.0032639757 -0.0031308974 -0.0038695612 0.0027507078 -0.0031331852 0.0013260029 -0.001215654 0.0018866296 -0.0029490523 -0.0030616778 0.0008819881 0.0009085448 -0.0021019091 -0.0017295284 0.0033116958 -0.00018664324 0.0023509564 0.0004325124 0.0004920224 -0.0004428075 0.0033976322 0.0015642634 -0.0028785612 -0.0006607549 -0.00037224233 0.0010054066 -0.00033693938 -0.0030036792 -0.0012347562 0.002647559 -0.0016815499 0.0014656881 -0.0024442023 0.0034386697 -0.00354559 -0.0009698606 -0.002675575 0.0014768762 0.0027760726 0.0028198187 0.0004103331 0.0012943887 -0.0034204011 0.003059493 0.00011719597 -0.0010182669
96 -0.0034917502 -0.0038409638 0.0028740717 0.0030230745 -0.0022636538 -0.0013938502 -0.0025650086 0.0037754655 0.002220332 -0.0032462752 -0.0023986313 -0.00020804645 0.0013474695 -0.0039052272 -0.003618868 0.002712529 -0.0012090665 -0.001761972 0.00187557 -0.003084597 -0.0019931362 -0.0009216867 0.00084548286 -0.0015976399 0.00060080364 0.0031557365 0.0012004944 0.00019948086 0.0011759292 0.000503075 -0.0017435205 0.0027566021 0.0029721395 0.002646411 -0.0033693858 -0.00077966007 0.0033184201 -0.0032262618 -0.0021240143 -0.0038658604 -0.00013147357 -0.0037386888 -0.0031418875 0.00010092624 -0.00249855 0.0019289793 -0.0008796467 0.0018925504 -0.0021677078 0.0008672291 0.0014239623 0.0033668936 -0.0038917956 0.0012191411 0.0021080405 0.0033080669 -0.0032987217 0.00084211136 -0.0006873713 0.0007218962 0.0029555145 -0.001867138 -0.0011484254 -0.000583602 -0.0021965678 0.0025087069 0.003871564 0.0004190749 0.00023475042 -0.0014143226 0.0009383953 0.0013343015 -0.0011140741 0.0016078089 -0.00065943674 -0.0027059345 -0.0011893736 -0.0011882889 0.0037311546 -5.7815378e-05 -0.0020368649 -0.0027771695 0.0030626114 0.00044906852 -0.003787497 -0.0037493708 0.0031216205 -0.0021372975 0.0036061183 0.0009921903 -0.00036210153 -0.0027826591 0.00086724805 0.00093727367 0.00092952134 -0.0011637755 0.00061766134 -0.0013769374 -0.0029457724 -0.0022096203 0.0029185708 -0.0013121506 0.003089369 -0.0032968938 -0.0038992106 -0.0014033741 0.0011320839 0.0011348539 -0.003679175 0.0032961154 -0.0019595507 0.0036524038 0.00063701015 0.0024741045 0.0026842502 0.00051054906 0.003811574 -0.0034424558 -0.0034542556 0.0016259906 0.00052175985 -0.0013076692 0.002750217 0.0018662077 -0.0027788638 -0.0032649278 0.0015627677 -0.00063646986
30 0.0015288411 -0.00048777825 0.0012305758 0.0037167496 -0.0012852713 0.00096460356 -0.0033299585 -0.0018836429 0.0021337187 -0.0035762694 -0.0009343768 -0.00020638497 -0.0028011461 0.002562549 -0.00060513016 0.002249547 0.0031966409 0.00037494194 -0.00221441 -0.0022832341 -0.0017517654 -0.0004344774 0.0033149624 -0.0036317671 0.00070274173 0.0036342083 -0.0035374176 -0.0031603328 0.0016879783 -0.0011473794 0.0019191768 -0.00336477 -0.0019923334 -0.0030807334 0.0038826866 -0.00064995437 0.0038002178 -0.0012859276 -0.0023633626 0.003603041 -0.0011902918 0.0008713237 0.0038611372 -0.0020890653 -0.00018257824 -0.0032304202 -0.0037812528 -0.0037050175 0.0029804741 0.0012142305 0.0033877487 0.0008713236 -7.6408214e-05 -0.00054574216 0.0009835546 0.002883674 0.00028363022 0.0009150984 -0.0011966706 0.0018298046 0.0008801664 -0.0017109839 -0.0009145908 0.00031789806 0.0009003624 0.0012921458 -0.0011218055 -0.0005483851 0.0033505433 -0.0032152557 -0.0023911837 0.0013898805 0.000871909 0.0023455736 -0.0014945504 0.0015527409 -0.0035425564 -0.0023944099 -0.0038469145 -0.00256511 -0.0028798163 0.0018348714 -0.0009840702 -0.0016087787 0.0036463737 -0.0020679662 -0.0028459649 0.00029491258 0.001229206 0.0008773371 -0.0002625051 0.0028980987 -0.0008444323 -0.0020599568 0.0012783328 0.0002598581 -0.0017381231 -0.0013919121 0.00091586355 -0.0021317229 0.0038490645 0.00025982052 0.0017406134 -0.002438811 0.0022723046 0.0027938662 -0.002241442 0.0024920853 0.00044624283 -0.0013152738 0.00203573 0.0023275267 0.0026261967 -0.0015379791 0.0025169149 0.0030576421 0.0018826755 -0.0031967277 -0.0015817811 -0.0026538775 -0.00037344085 0.0033177757 0.00020974745 -0.0012242781 -0.003376364 -0.0037678597 -0.0014723329 0.0006679026
4 -0.0034314906 -0.003764004 -0.00042830623 0.0019397737 -0.0020194398 0.0023196468 -0.0022774609 0.0012699495 0.0019250948 0.0029323571 0.0011699476 -0.0033572365 -0.0030242007 -0.0020111848 0.0028573216 -0.00054993294 0.0024244748 0.00070269796 0.003488383 0.0018000224 -0.0033858682 -0.0028871233 -0.0037306745 0.00040125998 -0.002689303 -0.00053462444 0.0014604329 -0.0026445438 -0.0029964917 0.0018494923 -0.0015883744 -0.0013044436 -0.0029913555 -0.0023853052 0.0017559121 -0.0022360615 -0.0025445945 -0.0036007548 -0.003062562 -0.0038186605 -0.0018720948 0.0027013167 0.0035290208 0.0036181274 -0.0034936925 -0.0036008288 0.00021873415 -0.0026774213 -0.0013474266 0.0032433157 0.0033438476 -0.0005868495 -0.0023179932 0.0012367665 -0.002599049 0.002217202 0.00253399 0.0026297038 -0.0003976824 -0.0024515342 0.00028240177 -0.001017296 0.0012921675 0.0004175294 -0.0016115386 0.0010546573 -0.0034568373 0.0021579538 -0.00015591482 -0.003229574 0.0034908021 0.0008533983 0.002213381 0.0014112394 0.0023600648 -0.00021378268 -0.003857958 4.1861116e-05 0.0029325783 0.0030770635 0.0032451681 -0.00032570708 -0.001640282 0.0036585717 -0.0011376244 -0.0013769476 0.003650425 0.0033462464 0.0028117658 -0.002166257 -0.0023515795 0.0038370106 -0.0016387439 0.002058177 0.000896191 -0.0017963294 -0.00012579547 -0.0006494337 -0.0024694416 0.0007425631 -0.00022671283 0.0032777917 0.0035227179 0.0037895986 0.003387975 0.0008058436 0.0009122028 0.0033137756 -0.000771348 0.0029533256 0.0015652367 0.0021473588 0.0012282823 0.0004114307 0.0015696203 0.0023332285 0.0035119902 -0.003164753 0.0017647035 0.0028291587 0.0021242348 -0.0035059939 0.0026929725 -0.0015606302 0.0020796065 0.0029213622 -0.0019690332 -0.0025357478
31 -0.0033643318 0.000745595 0.0033150585 -0.003901322 0.0022694971 -0.0014355662 0.0010098194 -0.0020895293 -0.0015786121 0.0017096485 -0.0010427652 -0.000631259 -0.0021542609 0.000105644176 0.0019264583 -0.0015912268 0.0031662125 3.149609e-05 0.002182596 -0.0029915576 0.003585373 5.6142046e-05 0.0028967808 0.0021348877 0.0009383311 6.089191e-05 -0.003705858 0.0024050022 0.0034506994 -0.0019230633 0.00035647934 -0.0020171336 -0.0026172495 0.0014176479 -0.0033907706 -0.0012345827 -0.003033542 -0.00031473025 -0.0014956662 -0.002418818 -0.0021106515 -0.0026405475 0.0015033906 -0.00090629177 0.0031113608 0.0022953916 -0.002231615 0.002452331 0.002386254 0.001605682 0.0020871048 0.0013688571 0.0035588809 -0.000743867 -0.0018385581 -0.0006107246 0.00025356206 0.0031118935 0.0033593704 -0.0007775908 0.0030540882 -0.0012047127 -0.002104217 -0.0011912739 0.000977731 0.0028976393 -0.0036280632 0.0021929373 0.002064806 0.0016432175 0.0020606318 0.002416498 0.0033601886 -0.0020626222 0.0034285507 0.0031410048 0.0027460502 0.0034146195 -0.00011398572 0.0015912297 -0.0034453731 0.0021010654 0.0018234457 0.00037035046 0.0017590781 -0.0003329282 -0.0026144327 -0.0010856463 -0.0014366109 0.000397058 0.0017681897 -0.0038031286 -0.0007683284 0.00090473995 -0.0032569224 -0.0026110497 0.0014839267 0.0019090342 -0.0030310652 0.00043139848 -0.0012216641 9.259469e-05 -0.00043379964 2.1025062e-05 -0.0014863639 0.0017969285 -0.0009628125 -0.0027610408 0.003078141 -0.0021350977 0.00074291346 -0.0027498142 -0.0012860872 0.0036141872 -7.40256e-05 -0.00048312361 0.0024806766 0.0022647777 0.0011105184 0.00011242752 0.0005989056 -0.0026732802 0.0018074961 -0.0023740232 -0.0035332746 0.0017645025 -0.00088421395 2.191947e-05
32 0.000727431 0.00038831856 -0.0014320713 -0.0037304354 -8.005379e-05 0.001593842 0.0027039668 -0.003255036 0.00067716604 0.002022678 -0.0035371229 -0.0012400304 0.002851422 -0.0019967137 0.0038847986 0.002186896 -0.0015489934 0.0018800831 0.00092320953 0.0023990523 -0.00058058515 -0.0017497464 0.0009457397 0.002577437 -0.0037301723 0.00045943048 -0.0023529525 -0.003459995 -0.001628284 -0.0032507498 1.2387255e-05 4.6921432e-05 -0.0022012952 -0.0020140228 -0.002629059 -0.0011245388 -0.00013791301 -0.0036838166 0.0018026008 7.43543e-05 -0.0007386408 0.0017335417 -0.0019166507 -0.0019975705 -0.00025765988 0.0008748356 0.0032262935 0.00210605 0.0018959843 0.0009756364 0.0012547328 -0.00042194987 -0.0008113529 0.0038757992 0.0016966527 -0.0026879234 0.0011145561 -0.0029493337 0.0031073797 -0.0031217004 0.0019793727 -0.0013203816 -0.0007030714 -3.0859753e-06 0.0036773235 0.0024176608 -0.0013481992 0.001396371 0.0032820096 -0.0023595402 -0.0019631786 0.0037818952 -0.0027367522 0.0027248315 -0.0001926588 0.0010209508 0.0013017238 0.0018663408 -0.0024882464 -0.0006646826 0.0015651999 0.0004681736 0.0036144413 -0.0029197272 -0.0026531091 0.0023860869 -0.00051083934 -0.0012157409 0.0037065274 -0.0014446748 -0.001087451 0.00063071697 0.0031174256 0.0032131525 -0.0032814469 -0.0031646255 0.0024587691 0.00012256052 0.00049288734 -0.000868998 -0.003766017 -0.00067123823 0.003636779 -0.0028397567 0.0029678994 -0.0032918705 0.000631177 -0.0016244127 -0.003871587 -0.0018567153 -0.0008031387 0.0019821594 -0.00061168097 -0.002349877 0.00067924015 0.0008996481 -0.0009191699 0.0005956583 -0.00034018923 0.0022281283 -0.0037110387 0.0008442253 -0.0037185084 0.0023885542 -0.0021973054 -0.0020680944 0.0005514574 -0.00094959897
19 -0.0027063144 0.0034881588 -0.0018114228 -0.0034933563 0.0022715307 -0.00065462047 -9.3135284e-05 0.00045338206 -0.0034838293 -0.0038132244 -0.0037311811 -0.000284707 -0.0029616845 -0.0014224149 -0.0012571365 0.00046839815 -0.0023231052 0.0005507303 -0.0032248434 -0.0011353228 -0.0037253122 0.0036583568 -0.0029649525 0.0017387627 0.0026780802 -0.0028988835 0.0011190834 0.0013280928 -0.0026028191 -0.0011791623 0.003700385 -0.00047302502 0.0012813059 -0.0036892013 -0.002733599 -0.003500093 0.0020948846 -0.0017257676 -3.799463e-05 -0.0022907436 -0.00335763 0.0036490532 -0.0019436382 0.00028959385 -0.0035594876 -0.0030264081 0.0011151871 0.0010567245 -0.0025644908 0.003718229 -0.001643681 -0.003181415 -0.0008951921 0.0019083676 0.001937699 -0.0035170591 0.0034304445 -0.0001514276 0.0032114103 0.003524521 0.0011425229 -0.0023336941 -0.0011736237 0.0026357726 -0.003045454 -0.001410431 0.00083261513 0.00049356493 -0.00041580314 -0.00016144852 0.002827849 0.0036113062 0.0038827818 -0.002017226 0.0026041337 -0.0026914717 -0.0038060886 -9.353442e-05 -0.0034869586 -0.0015648822 0.001927745 -0.0014016922 0.0005356257 0.0025340992 0.0023875623 0.0010561965 -0.0017480028 0.0037741438 -0.0026606182 -0.003754736 -0.003166108 0.0005712003 -0.0024703178 0.00060638046 -0.0025393253 0.003037017 -0.0031947931 -0.0008299122 -0.0032243603 -0.0021283599 -0.0006924134 -0.002849445 0.002791181 0.0018238593 0.00067486503 -0.0006128609 0.00072232494 -0.0025588349 -0.0022103693 0.0008213425 0.002328061 0.00014543755 -0.0003253284 0.0020634166 -0.00375901 -0.00042693576 0.0012129763 -0.0010987702 0.00093590125 0.00015882186 0.0010162714 0.0033802404 -0.0034373768 0.0024217605 -0.0037507773 0.0026390897 -0.003508089 0.002860473
13 -0.0017501172 0.00302012 0.0026034154 -0.0022227792 -0.0032524962 -0.0013646865 -0.0027006136 -0.003133979 0.0018491737 -0.0011724508 0.0030693254 -0.0017334686 -0.002658473 -4.2709024e-05 0.0010830046 -0.00014570642 0.00085185276 -0.0027672343 -0.0023643074 0.0029664424 0.0027717303 0.0036390375 0.0032939112 0.0017213303 0.0026274293 0.0018471956 -0.0016326079 -0.0029698028 0.0023543446 0.0029926805 -0.00077806925 -0.0009893031 0.0007984688 0.00089201337 -0.00079294393 0.0031512408 0.0029313145 -0.0008668444 -0.0023298457 0.0009638582 -0.0032643504 0.00013942839 0.0033024803 0.000112271664 -0.0015181557 -0.00057235465 -0.0023767555 0.0038044492 -0.0018734148 0.0033623984 0.00096819963 0.00086735626 -0.002787415 -0.00078485656 0.00078140816 0.0037570552 0.002300226 2.1555557e-05 0.0016073049 0.0024407152 0.001683562 0.0024554124 0.0037038818 0.0034679184 -0.0012179716 -0.0006022275 0.0026165885 0.0029859305 -0.0024860122 0.0027026685 -0.00027946703 0.0007810602 0.0005662045 -0.0031351773 -0.002417023 0.0019498512 -0.0021492932 -0.0035180766 0.0020558962 0.003068459 0.00029373044 0.0027516345 -0.0010452174 -0.0005685578 0.0035344234 -0.0022093721 0.0019979738 0.00180912 0.0020598066 -0.0002815745 -0.0032695818 -0.0027069917 -0.0021360847 -0.00011006053 0.00087183353 0.0029601275 0.0020348998 -0.0027662818 0.0018010625 -0.0033304812 0.0014641827 0.002881456 -0.0024685974 0.0038002932 0.0019400414 0.0033333937 -0.0007463134 0.0027277877 0.0012362084 -0.0032683867 -0.0008205441 0.0020002893 0.0010273677 -0.003146293 0.003413405 -0.00040557413 -0.0011847478 0.0020308392 -0.00059962575 -0.0038694497 0.001998799 0.0010454394 0.0019246998 -2.9000894e-05 0.0031678411 -5.683259e-05 -0.0029209077 -0.0025277063
39 -0.0030241243 0.003353755 0.00054898707 0.0029649877 0.0033301525 -0.003897546 -0.003226141 -0.0016478939 0.0025282225 -0.0005041874 -0.001982041 -0.003639612 -0.0035173655 0.0017730437 0.0023788596 0.0022881434 0.0038792752 0.0016766366 -0.0022439936 0.0018124022 0.0021823624 0.0026635346 -0.0038784873 0.0033068245 0.0035005475 -0.0006876109 0.0009375734 0.0015865115 0.0036947955 -0.0012127192 -0.00047780928 -0.0022661446 0.0027990302 0.0021902553 -0.0022999102 0.0022128513 0.0007302236 0.00224093 0.0028574003 0.00044334872 0.003259762 -0.0010855101 -0.0011035594 0.0012919103 -0.0002117478 -0.002167052 -0.0018754775 0.0023412963 -0.00096077484 0.003286129 0.0027761837 -0.0033472003 0.0035748584 -0.0033625003 -0.0010600857 0.003331304 -0.002407972 0.0018995285 0.0017562846 -0.0010557545 -0.0027749413 0.0035613596 0.00013988564 -0.0032413148 -0.0023767746 9.573754e-05 -0.0023274012 -0.0015220299 -0.002066429 0.00349691 -0.0024398102 -0.00077193585 0.00069203693 0.0032141628 0.0011557016 -0.000362209 -0.0006555032 0.0038853763 0.001996005 0.0035100128 0.0016390826 0.0023571092 0.0014055852 -0.001752566 -0.0016337226 -0.0037969763 -0.0021492145 -0.0013987694 -0.0031314336 4.474444e-05 -0.00027757126 -0.00194621 0.0031607794 0.0017901056 0.0005070136 -0.0020707692 -8.547317e-05 0.002817395 -0.0023901209 0.0007639712 -0.00038409507 0.0029314526 -0.0014259764 0.0026688848 -0.0026521047 0.00020527896 0.0006818868 0.0024513023 0.0009162387 -0.0022422774 0.00048894994 0.0010153259 -0.0017818345 -0.0012030837 0.0031810084 -0.0030777073 0.0012150541 -0.00056994276 0.0008573037 0.0024895289 -0.00070591207 -0.003329508 6.745592e-05 0.0022056836 0.002234834 -0.0034622618 -0.0017960191 -0.0003468689
53 0.0029725288 0.0029871583 -0.00066865626 0.003580967 -0.0010503405 -0.00038541842 -0.002818673 0.0031171713 -0.0022729484 0.0023680762 -0.0013299215 0.0020163688 -0.0023185348 0.0017337877 -0.0027267637 -0.00030880494 -0.0030248389 0.0009134885 0.0003187571 0.0025754145 4.078072e-05 0.0016719309 -0.00054969254 0.0018366466 0.00387354 0.001547272 -0.0017781584 -0.0019746157 -0.00055115134 -0.0015051212 0.0037297755 -0.0035284478 -0.0013659354 -0.0005284513 -0.0030864947 -0.0031519975 -0.0026698294 0.0013644008 0.001957926 -0.00073586946 0.0036719318 0.0019342103 -0.0024548217 -0.0026687696 -0.0020891428 -0.00030529802 0.0026934214 -0.0024285584 0.0038110064 -0.0007643265 0.00020060234 -0.00084563345 0.0021413388 0.0028205393 -2.3764207e-05 0.0024159157 0.0020534107 0.0022295793 -0.0023503643 0.00063801487 0.00096347684 -0.00039809596 0.0017797356 -0.00021634928 0.0035840014 -0.00023536911 -0.0014907867 0.0001545694 -0.00021440178 -0.00047807617 -0.0025138124 0.0033629835 0.0031946725 -0.0021155651 0.0025749323 0.0031027629 0.0031712882 -0.0020712411 0.002358123 -6.6042165e-05 -0.0022814604 -0.0033281213 -0.002882647 0.0018102486 0.0004993805 0.0019233342 0.0026121712 0.0012726021 6.270982e-05 -0.0021134918 -0.0014271127 -0.0015320961 -0.0011496366 0.0003785125 0.00016997036 0.0026847166 -0.00034071878 -0.00080811616 -0.0017326681 -0.0018081602 0.0016210689 -0.0019889164 -0.00040318375 0.0023535683 -0.0011036769 0.00012702102 0.0015879957 0.002125595 -0.00072068576 0.0038662488 -0.002070024 -0.00021044695 -0.0035337259 0.0014894212 4.3115773e-07 0.0037472253 -0.0016484115 -0.00040635595 0.0031315899 -0.0019091541 0.002314851 -0.0029565045 0.0001930886 0.0012414705 -0.0012267617 -0.0006277203 -0.0022236696 -0.0007211889
3 0.0036421611 0.0020232452 -0.0015001683 -0.001509908 0.003878829 -0.0022760138 0.002306955 0.00024444336 -6.678851e-05 -0.003723313 0.00080430927 0.002334882 0.0021082684 0.0024414286 0.001912875 -0.0018505877 -9.654512e-05 -0.0022333623 0.002411158 -0.0020998179 -0.0008976747 -0.0018469593 -0.0011284327 -0.0023268687 -0.002778577 0.00090230705 -0.0032190871 0.003803109 -0.0022298528 0.0027811492 -0.0013623938 0.0031448961 0.003223154 0.002367792 -0.0014950961 -0.0026926063 0.00033789352 -0.001239362 -0.0017637381 -0.0021856504 -0.00046231278 0.0035468752 0.00017599895 -0.0034947484 -0.0028014672 -0.002276834 3.729584e-05 0.0020419606 -0.0026647258 0.0008909569 -0.00022205144 0.003846165 0.003209663 0.0028305447 0.0027139292 -0.00024021119 -0.0033378054 0.00039923174 0.0010302606 -0.002765157 0.0038807665 0.0017271044 0.00091389916 -0.0036229345 0.0025115227 -0.001660756 0.0022078692 0.0019971842 0.003571339 0.0015498713 -0.002232656 -0.0025363273 -7.600545e-05 -0.00065544713 0.0018454766 -0.0013637184 -0.0017907865 -0.0019925437 0.003823169 -0.0005414654 -0.0029460154 0.0013812073 -0.0036165614 -0.00038829035 0.0004054762 -0.0015815048 0.0025655504 0.0016399702 0.0022494863 -0.0033596004 0.002515048 0.0027963677 -0.0028817297 -0.0028473262 0.0008764249 -0.0018577613 0.002917788 0.0026005914 0.0029930375 9.3701274e-05 0.0017008549 0.0036891927 -0.0017136848 -0.0021279436 0.0027207593 0.00034282048 0.002904542 0.0033039472 -0.0023518088 0.003808012 -0.0030637998 0.003122631 0.0017738197 -0.0033509112 -0.00022939345 -0.0004715655 0.001402017 -0.0002474047 -0.0024490429 -0.00031554498 0.0014597074 0.002052776 0.0023304212 0.00029613927 -0.0024493905 -0.0028818564 0.0015272585 -0.0032175444
95 -0.0013733715 0.00316058 0.0021079348 0.0014388963 0.0021861575 -0.0029185873 -0.0026263127 0.0017892356 -0.0026390103 -0.0012907987 -0.0024171264 -0.003705796 -0.0029109747 -0.00017810203 -8.5041735e-05 -0.00075175404 0.0030782626 -0.002206699 0.003070452 0.002126112 -0.0009043569 -0.00067077536 0.0006469732 -0.0030888927 3.9336046e-05 -0.0011283655 0.001743304 -0.001957512 -0.0011213735 0.0036408685 -0.00039333856 0.0010656038 -0.00341816 -9.302278e-05 0.0039024472 -0.00023926744 0.0015889144 -0.000557597 -0.0035203064 -0.0005168981 -0.0030451936 0.0014918052 0.0036772569 0.0011244853 -0.00015579381 0.0036066745 -0.002590045 -3.5618566e-05 -0.0012977778 0.0030161545 -0.0018040139 0.0006761886 -6.8704736e-05 0.0025692354 -0.0028764522 -0.000592782 0.0034568699 0.0037493398 0.0029855282 0.0014545848 -0.0017988732 0.0014322317 -0.0019893597 0.0025848227 0.0032522369 0.0031548108 -0.0032497887 -0.0005770107 -0.0016773954 0.0009137235 0.001650321 0.0034130483 -0.002540793 -8.400307e-05 -0.00015397498 -0.0027392572 -0.0010212838 -0.002695923 -0.001784661 -0.0021663 -0.0031822457 -0.0014814874 0.0028824715 -0.0016608698 0.00252676 -0.0030406152 -0.0013481608 -0.0027427806 0.0020425539 0.003775566 -0.00044072606 0.0004912689 0.0032543265 0.0033001017 -0.0019705284 8.28867e-05 0.0036335557 -0.0018287663 -0.003687079 0.0014597548 0.0032341466 0.0013155442 0.003288449 0.001421517 -0.0009985302 0.001864914 -0.001996064 -0.0016087464 -0.00010195765 -0.0014862132 -0.002053595 -0.0018941275 0.0031033435 -0.0008274494 -0.0029292593 0.0036386265 -0.0019960466 -0.0036734233 0.00060672336 -0.002946464 -0.0031584173 0.0031487595 -0.0036116943 0.0017039566 3.068854e-05 -0.0011074342 -0.0037391372 0.0020369818
24 0.0038399564 -0.002250238 0.0034403936 0.0009440551 0.0008993365 0.002764095 -0.0018331633 0.0020152954 -2.8260387e-05 -0.0015149892 0.0009936942 -0.003611681 -0.002228708 0.0015418376 -0.0025067711 0.003538075 -0.0007071909 0.0007073717 0.0006632001 -0.0034425794 -0.0020376393 -0.0017975358 0.0019885192 6.7749264e-05 -0.003798894 -0.0032971334 0.0029584607 0.0029669944 -0.00031509064 -0.0031322488 0.0031059277 0.0019684897 -0.0037476753 -0.0032765558 -0.0030505399 0.00024432296 0.0016638729 -0.0018284043 -0.0022393584 0.0024991168 0.0017446392 0.0007144548 -0.0024208315 -0.00038576828 -0.0028909899 0.0021921073 -0.0035369825 0.0010953108 0.0005621131 -0.0026980704 -0.0020347915 -0.0010569271 -0.0035933345 -0.0029698305 0.0019711282 0.001044044 -0.0034835197 -5.0437982e-05 -0.00089289213 0.0036963911 0.0010867646 -0.0020989066 -0.0010905624 -0.0034612266 -0.0028985564 0.001120612 0.00048522474 0.00049594796 -3.8555594e-05 -0.0009096017 -0.0004495531 -0.00032319344 -0.0012599708 0.001731512 -0.0010382014 -0.0017729956 0.0011481018 0.0015751527 0.002929348 -0.0014816733 -0.00030287242 -0.0028915186 -0.0011832173 0.0014040455 0.0016033235 -0.001111042 8.665817e-05 -0.0010099869 -0.0027482323 0.002278213 0.00051132083 -0.0022107817 -0.0014081905 -0.003383676 0.003150863 -0.00058576366 -0.0011697559 0.0015272766 0.0009659319 -0.0013997033 0.0036200357 -0.0015445435 -0.0020750645 -0.0026960073 0.0018363479 0.0005112985 0.0021922346 0.0032766205 -0.000491804 -0.00059717416 0.0036384088 -0.0022686236 0.0013516473 0.0020929256 -0.00041534504 0.001216736 0.0015768984 -0.001668067 0.002576498 -0.0028565233 -0.0007323779 -0.0022859368 0.0036210706 -0.001680046 -0.0034886596 -0.0006111152 -0.00096896506 0.002864499
9 0.0034719005 0.003010132 0.0023446179 -0.0003728483 -0.0013846292 -0.000315035 -0.0020839917 0.0038288496 -0.0013674098 -0.0027935912 0.0020149506 0.001964291 0.0030131591 -0.00040643834 0.0032313303 -0.0021618619 -0.002583775 -0.0037011988 0.0018919721 0.00060653803 0.0009937467 -0.0018436774 0.0006920751 -0.0022978429 0.001385448 0.000464791 0.0029429465 -0.0016195333 0.0032101532 0.0035261437 0.0035839688 0.003022807 0.0034419326 0.00047575752 0.000855355 0.00028596524 0.0035881246 0.0025143765 0.0030857406 0.0026648827 0.002701204 -0.00089000235 -0.0022808223 -0.003025977 0.0029313478 -0.0038938269 -0.00040080654 0.003718808 0.0023006087 0.0010348638 0.0009958468 -0.003742774 0.0013117264 0.0007092037 -0.00023429102 -0.0026092024 0.0017870326 4.8752943e-05 -0.0036824436 0.0024661813 -0.0033448834 0.0023030327 0.0035976854 0.0033600968 0.0036633085 -0.0010306734 0.0036254767 -0.0013592127 -0.00097941 0.0015962479 -3.1487292e-05 -0.00095186755 -0.00046608492 0.0009818925 -0.00094309635 0.0026400858 -0.0019965004 -0.0013248491 -0.002422007 -0.00054598623 -0.002987784 -0.0003562244 -0.0005811215 -0.002683594 -0.0030202202 0.0018285353 0.0018880682 0.0021781304 -0.00029608462 -0.003506603 -0.0039020246 -0.00028568495 0.0035526936 0.0031119077 0.0022727968 0.0019347284 -0.0033908768 0.0037245776 0.002199244 -0.0013276413 0.0011887137 0.00086057326 -0.0038142698 0.0025612898 -0.0036080575 0.003621896 -0.0018301861 -0.0028320958 -0.002787766 8.788498e-05 0.0038907342 0.0018266584 0.00035437295 -0.00045307397 -0.0021485868 -0.00026357963 0.0013758473 -0.002669944 -0.0031514633 0.0035254012 -0.000117226824 0.003182684 0.00089678896 0.0011808708 0.0007856675 0.002099039 -0.00286999 0.0033188967
74 -0.0029979765 -0.003524172 -0.00025712317 0.0029596235 -0.00049118925 0.00037528528 0.0018594473 0.0026642585 0.003174659 0.0019565087 3.725964e-05 -0.00149829 -3.7254726e-05 0.0022379607 -0.002992451 -0.0037910996 6.59357e-05 -0.0013899846 -0.001744251 -0.0037593276 -0.0024728237 -0.0036976454 -0.00260619 -0.0017634092 0.0019499573 0.0038149094 0.0026888603 0.001119184 0.0026666168 0.0015947288 -0.0019826558 0.0026459037 0.00053645 -0.0022755559 -0.0030854023 -0.0014710373 0.0010767992 0.0029984987 -0.0028187456 -3.170326e-05 -0.0008006111 0.001110849 -0.0030239061 0.00017371649 0.0015598289 0.0026982864 -0.0035663655 0.00357459 0.0026486942 0.0009745345 0.0014975831 0.0016763109 -0.0010042887 0.002408567 0.002992995 -0.0026703773 0.0038171012 -0.0035564322 0.0033296966 6.1910505e-05 -0.0026353165 -0.0033212402 -0.0022637134 0.001128532 0.0010289154 -0.0029209894 -0.0018833184 -0.0036635408 0.0019160482 -0.0009483411 0.002999557 -0.0034444504 -0.0028535337 0.0017904156 0.002107486 -0.0029883098 0.0030731447 0.003383874 -0.0018340227 0.0016878436 -0.0023210316 -0.0030303579 0.00027755837 -0.0011660969 -6.448829e-05 0.0015867256 0.0023318978 -0.0038703338 0.00086731365 -0.003535468 -0.0022358198 -0.0028308518 -0.0024391443 -0.0025464357 -0.0037726818 0.0009970308 0.0009012639 -0.00082643406 -0.003355098 0.00057284784 -0.0010207747 0.0034496384 -0.0006923831 -0.0031327615 -0.0012013952 -0.001148584 0.0018271165 -0.002841167 -0.0036786946 0.00088987 -0.0020023442 -0.0020880576 0.0035267514 -0.0029431458 0.0008624558 0.0006102457 -0.0035140973 0.0006244575 0.0012561899 0.0021965937 0.0010556146 0.0035258194 -0.0013541696 0.0018974605 -0.003520143 9.6262964e-05 -0.0018713198 0.00029820506
75 0.0023186097 -0.0021519375 -0.0027117427 0.0024665329 -0.0003792995 -0.00015544296 -0.0011395776 -0.0021180264 -0.0011324789 0.0011507514 -0.0026304096 0.00013314877 -0.00036359055 0.0036181987 0.00290135 0.00067100703 -0.0029685323 0.0021556527 -0.0030961672 0.0023365172 0.0003950836 0.0012680979 0.0015034906 -0.0003109412 -0.0027733978 0.0007481326 -0.0030781946 -0.0013111581 -0.0019380526 -0.0020769406 -0.0017451037 -0.0037223978 0.00021909561 -0.0035889726 -0.0016514054 0.0009897603 0.0007428856 -0.0030411484 -0.0036558278 -0.002826835 0.00086317625 0.0008337582 0.0037086764 0.0026909697 0.0038252103 0.0004746161 0.0014836963 0.0025993674 -0.0023293735 0.00047921087 -0.002383083 0.0014582253 0.0014395177 -0.002470917 0.0034243667 -0.0025708715 0.0007295493 0.0005916224 -0.0016005338 0.0035397164 0.0002759996 -0.002066649 0.0029315422 -0.00056165096 0.0015526562 0.0038828752 -0.002476624 0.00046239063 -0.00050723855 -0.0013616272 -0.0023140977 0.0011455828 0.0032571543 -0.00035597986 -0.0019738248 -0.0016598558 0.0029473053 0.0017446493 0.0025494844 0.0029644156 -0.0002870934 -0.0025699208 0.0028373385 0.002967855 -0.0024369915 0.003183063 -0.0025399546 -0.0029531994 0.00134011 0.0026588233 0.0033362291 -0.000121720695 -0.0031538347 0.0021722866 -0.0022457815 0.0016415191 -0.0013447284 -0.0004627533 -0.002999182 0.0032873303 -0.0035360327 -0.00030068704 0.0039045196 -0.0032889233 0.00023488564 0.0021282707 0.0006859653 0.0021943296 0.003474071 -0.00051968405 -0.0031764668 0.0007423895 0.0032486594 -0.0016284615 0.00048700866 0.0031426146 -0.0027852112 0.0008081011 0.0005501671 4.3459855e-05 -0.0032414144 -0.0017687094 -0.0010826713 -0.00014022274 -0.0017060225 0.0025791053 0.0017607132 0.003543711
83 0.0027738402 -0.003040697 -0.00074804894 -0.00096241035 0.0037201974 -0.0031018064 0.0003343411 -0.0032678612 -0.0003645124 0.0029573932 0.0029455728 0.000955203 0.00213476 -0.0019730027 -0.0032550173 0.0016174341 0.003596165 0.0017634754 -0.0027064688 -0.0023737801 -0.0012746898 -0.0036722317 0.0029737875 -0.0032296448 0.0016961556 6.331591e-05 0.0022594978 -0.002750505 0.0011139258 -0.00086860853 -0.0025123847 0.00060890586 -0.0029488357 0.0014904386 0.0016727208 -0.001821507 -0.0005319501 0.00028788546 -0.002039686 0.0006183207 0.0021573992 0.0016858745 0.00015616718 -0.0032028023 -0.0017013776 -0.0032888392 0.0016836316 0.0029208662 -0.0037170444 0.0018252826 -0.0005061611 -0.0012225381 -0.0014147655 -0.0024515667 0.0014600771 0.001982378 0.0017325459 -0.0015196289 0.0031424686 0.0015913727 -0.00078747835 0.00014944401 -0.00134992 -0.0013165962 0.0016244114 -0.0011927298 0.0006008576 -0.000258289 -0.0037130003 0.0029058876 -0.0010562183 -0.0021791125 -0.00053254684 -0.0025454732 0.0031289465 0.0024509414 -0.0037463598 -0.00279284 -0.00040131828 0.0014090532 0.0036108044 -0.0022478008 -0.0030584526 0.0011194749 -0.0017048221 -0.0022963113 -0.0024410025 0.0031664453 -0.0022017434 -0.0035690032 -0.0024964567 -0.00068741344 3.365653e-05 0.0010967852 0.0009984149 0.0009627213 3.5963458e-05 -0.002982903 0.00070285803 2.037925e-05 -0.00065366155 -0.0019758083 0.00367408 -0.0010312836 -0.0018628857 0.0005918728 -0.000892723 -0.00042102524 0.00010749849 -0.0014999461 -0.0026886142 0.0007572532 0.0013379821 0.00051548035 -0.0024552708 -0.0031076008 -0.002559488 0.0031690688 0.0010843534 -0.00038273702 0.0013102491 -0.0013285528 -0.0006144488 -0.001107211 0.003859969 -0.0038177376 0.0025265156 -0.003041909
70 0.0005461319 -0.0025006232 0.0022310482 -0.0012245439 -0.00047926253 -0.0017010439 0.0018033802 0.0037997884 -0.0002858845 0.002990886 -0.002505317 0.0026703826 -0.00093376293 0.0011832721 0.0016939827 0.0025933173 -0.0035202063 0.0017777003 -0.0035486373 -0.001203279 0.0024514715 -0.00014117385 -0.0015991104 -0.0033506518 -0.002711845 0.0020465592 0.0026960077 -0.0008659086 0.0030973842 -0.0034080143 0.0015269282 -0.0035116826 0.0004899052 0.0012137654 0.0017245663 -0.0011024711 0.00055611 -0.0032815032 0.0019344741 0.0035545228 -0.0014755208 -0.0006653387 -0.0037450674 0.003697512 -0.0030705358 0.0032694272 -0.0023040988 -0.0026062557 -0.0011763951 -0.0013088696 -0.0012509702 -0.002147882 -0.002658279 0.00084697705 0.0028165549 0.0035937112 -0.00192005 -0.0019733277 0.0030146996 0.0016974891 -0.0020530615 0.0019360662 -0.0008022162 -0.002271713 0.0019408902 -0.00029637708 -3.2311636e-06 0.0013183837 0.0013238902 -0.0037058573 0.0032776615 0.0029067239 0.0007334796 0.0011119442 -0.0017604777 0.0030401705 -0.0034315314 -0.00243796 -0.0015457291 -0.0022317185 0.0005782943 -0.00045155917 -0.0005701779 -0.00011941779 0.003893149 -0.0012853902 0.0028240143 0.0018857999 -0.0012660901 -0.00062713865 0.0031641216 0.0037013858 0.0013776508 0.0036822152 -0.0001282696 0.0021076559 -0.0037252672 -0.0005951764 0.0009053148 0.0019570966 0.0024539891 0.002659161 0.0035497644 -0.0005270893 -0.0026513825 -0.0012299208 -0.0005442762 -0.0017515532 -0.003779404 0.00015208415 -0.0006372941 -0.001234234 0.0011509183 0.0026520893 -0.0036608928 0.00074862165 -0.0012137787 -0.0034583746 0.00085378316 -0.0027218217 0.0017459921 -0.003657961 0.002321473 0.0037806742 -0.0020266804 -0.0034374967 -0.0015111015 -0.0029253268
94 0.001109622 0.00068876776 0.0014432108 0.0007050178 0.0021454673 -4.311434e-05 0.0012730423 -0.0012747962 0.00072914304 0.0013739377 -0.0011343638 -0.0034656187 0.001478017 0.0035318055 -0.0012021272 0.0015773898 -5.8481277e-05 -0.0024573917 0.0029825196 -0.0008129681 0.0011246603 -0.0032877917 0.003807221 0.0010722787 0.0019102138 -0.0021684344 -0.0031030325 0.003154406 0.0013194373 -0.0034937314 0.0017031895 -0.0005233412 -0.0012877701 0.0036263182 -0.0008867947 -0.002852888 9.0441485e-05 0.0025701583 0.0034278808 -0.0016437294 0.0009747911 -0.0020206475 0.001203061 0.0029468706 -0.0028382025 -0.00094143575 0.0028609317 -0.0034713869 0.0018606158 -0.0020631272 -0.0011010385 0.003886568 -0.002886861 0.0038735112 -0.0026460022 0.0025864993 -0.0005107211 0.0017235829 -0.00064328307 -0.0015395043 0.00036201658 -0.0007184036 -0.0013046958 -0.0036398626 0.00042440146 0.0021668847 -0.003337273 0.0026364035 -0.00094420725 -0.0023225104 0.0025214513 -0.0008663386 -0.0034406562 0.0014387781 -0.0013557145 0.0037387747 -0.0026082282 0.00015908053 -0.001445469 -0.0026596845 0.0012197375 0.00363946 0.0012539702 0.0029923068 0.0030819837 0.0030852025 -0.0021445835 -0.0017778418 0.0011872965 0.0020219907 -0.0010424118 0.0037098797 0.0006437069 0.0015471707 0.0017761675 0.0010689435 -0.0021519095 -0.0038848913 0.0021421367 -0.0016295228 0.0023190542 -0.0001290077 0.0005812418 0.0030837355 -0.0028476012 0.0031981582 0.0031947852 -0.002179479 -0.0030266957 -0.0029249983 9.196884e-05 0.0007860469 -0.0019133571 -0.0011109549 0.002655819 0.0030636366 -0.0024768645 -0.0007534479 0.0023632778 0.00029562443 -0.003372103 0.002847116 -0.001993949 -0.003566334 -0.000260433 0.0022709235 0.003559645 -0.000422482
52 -0.0019775021 8.594305e-05 -0.003353994 0.0019046874 0.0028130333 -0.00093128067 0.0014455698 -0.0033557776 -0.0034036068 0.002140337 0.0014328172 0.00046090203 0.0023638585 -0.00021613839 -0.0020808512 -0.00039914588 -0.0035614483 -0.0010689844 0.0010076569 -0.00062968535 0.0030444763 0.0014585762 -0.0009983388 -0.0012397878 0.0037409586 0.0032972204 -0.0028176047 -0.003757771 -0.0011565762 0.0002718116 -0.0030772206 0.0016394266 0.0012953673 0.0020032385 -0.0025794075 -0.0006069975 0.0002615493 -0.0035681906 0.0025384158 0.0035487867 -0.0012923414 -0.00072166283 0.0027524931 0.0019119717 0.0017932712 0.00048945897 -0.00025547974 0.0011313836 -0.0014613956 -0.0005416822 -0.0017978932 0.0018636318 -0.003421368 0.0016392252 0.0007697841 0.0013028602 0.0015695185 -0.0010269424 0.0005485133 0.0021424338 0.0025817521 -0.00029017864 -0.0014668661 0.0029182783 -0.0018257294 0.001302584 0.00254462 0.0010889003 0.0029957392 0.0017556867 0.0020017463 -0.00017459418 0.0005631396 -0.0018571405 0.0003196642 0.0033821322 0.0018242982 0.0034329821 0.003759058 -0.0017321866 0.00030313863 0.0025038612 0.0024980924 -0.00019397598 0.0034217134 -0.0014837359 -0.00095821416 0.0022018554 -0.003740408 -0.0027058688 -0.0006244847 0.0024551568 0.001118457 0.0018010905 0.0003342554 0.0036628493 -0.00065399945 0.0013250553 0.0020439904 0.0009554968 0.0019303232 -0.00027265016 0.001658394 0.0027146004 -0.0018750351 -0.0007956722 -0.0035412326 -0.0029505251 -0.001258289 -0.0037789985 0.0012241894 0.0037777892 -0.0036187319 -0.0026960566 -0.00091134186 -0.0025385788 0.0022117204 -0.0024105858 -0.0030697195 -0.0002067411 -0.0005235822 0.000758323 -0.00037849054 0.0016381987 -0.000539948 0.003155828 -0.002482142 -0.0022265536
42 0.0007652818 0.0015816552 -0.0018483696 0.00047096534 -0.0014772038 -0.0034998094 0.0038523108 0.003662718 -0.0023022213 0.0023747105 0.0012909408 -0.00045151345 -0.0007033628 -0.0032022602 -0.003123586 0.0014508486 -0.00062484335 0.002345799 0.0019045197 0.0037424709 0.00049507996 0.001586336 0.0010925396 0.0028002867 -0.0034843732 -0.0019287358 0.0017982973 -0.00061952963 -0.00025775167 -0.0014122059 -0.00079387194 0.0018590611 -0.00022155087 -0.0011699415 -0.0028204594 0.0038648732 0.0036068747 -0.0008891864 0.003593461 -0.0020547216 -0.0024477406 0.00093041017 -0.0015300105 -0.00023398898 -0.0010674981 -0.002116318 -0.0033882954 -0.0011628675 0.0012126785 -0.00041036928 0.0030589104 0.0017355578 -0.00058244047 -0.00047404304 -0.0034701284 -0.001053724 0.00094763516 0.001415547 0.0013337256 -0.003468925 0.002323369 0.0025433535 0.0025878495 0.00081523875 -0.0032808443 0.0005589179 0.002385235 0.0011672825 -0.0015711808 -0.0007881115 0.0021629818 0.0029134206 -0.0006104684 -0.0022330726 0.0034692218 0.00093628815 0.0035431283 -0.001187988 0.001290593 0.0005950268 -0.0031968819 -0.0028355957 0.002457126 0.0023388006 0.0017612936 0.0018358994 0.0004175691 -0.0019946555 -0.00011329671 -0.0015795119 0.0037783564 -0.00036951038 -0.0032597883 -0.0015601518 0.0014864879 -0.0028875158 0.0026395936 0.0014135789 -0.0028922365 -0.0027945773 -0.0028395317 0.0033881925 -5.6416953e-05 -0.0007649169 0.000210915 -0.0027725175 0.0028755073 -0.0027364793 0.000757063 0.0021018118 0.0030042797 0.00095442403 -0.002636627 0.0026083353 0.0033003483 -0.002444924 -0.0012928258 -0.00076138676 -0.00064006593 0.0010391764 -0.0027518114 0.0031017389 -0.00010918268 0.0017653187 -0.00060019403 0.0033860425 -0.0007270582 0.0020186217
56 -0.0007057895 -0.00080516003 0.000751711 -0.0021348142 -0.0028934798 0.000535608 0.0012848384 -0.00090087723 -0.0025563943 0.0038103883 0.0032844075 0.00055332354 -0.0019531432 0.0008452115 -0.0029430455 -0.0025658056 -0.0037181433 0.0019354562 -0.002583422 0.0007257547 -0.003863897 -0.00011567903 0.0027696379 -0.0031800081 -0.0008485974 -0.003516156 0.0016689204 -0.00033270486 -0.00059961824 0.0033106164 0.003034475 -0.0014892389 0.0033841112 -0.001865436 -4.0402483e-06 0.0016106593 0.0002626515 0.0031429261 -0.0024428423 0.0030940622 -0.00202759 -0.003879519 -0.0032660097 0.00034825338 -0.0031150095 0.001961658 0.0038330646 -0.00305792 -0.0027329386 -0.0032979727 0.0013280363 -0.0012389737 -4.0422718e-05 0.0008392378 -0.0026743708 0.0037706129 -0.0018506269 -0.0032759707 0.0024621775 -0.00018295117 0.0021675008 0.002887013 -0.0026116504 -0.0033745975 -0.0038288063 5.067673e-05 -0.0013190764 0.0016363127 0.0026156544 0.0002240271 0.003248007 -0.0018877711 0.0034629141 -0.0016845358 -0.001647659 0.0012492932 -0.002843554 -0.0008254008 0.0012815492 -0.0010255548 0.0010601457 -0.0016121259 -0.0032844404 -0.0013872492 -0.0029381474 0.0015811083 0.0010958668 0.0037735384 0.0019009638 -0.0011263421 -0.00273958 -0.0036129996 -0.0009984352 -0.0006529236 -1.4621081e-05 0.0028955848 0.0028756396 -0.001649058 0.0027822445 -0.0003326301 0.0012181991 0.0005552666 -0.00015938148 0.002514676 0.0018157222 -0.0013313539 -0.0005147877 0.0019006733 -0.0019889395 0.0013811548 -0.0038967081 -0.0016518569 -0.0037881883 0.0025750403 -0.0011893788 -0.00012333572 0.0018440377 0.0032970223 0.002221836 0.0015803165 0.0022513769 -0.00079219096 -0.0014709304 -0.00012273864 0.0016557139 -0.0020218107 0.0025126971 7.703756e-05
29 -0.0017818079 -0.0032783342 -0.0015925005 -0.002216421 0.00015644888 0.0021428624 0.0022502036 -0.0020292976 -0.0022338692 -0.002042504 -0.00027468498 -0.0015324518 0.0027126654 -0.00069455884 0.0038955687 0.0028926032 -0.0024584362 0.0009669404 0.0032772957 8.30235e-05 -0.0019164209 -0.0038275844 0.003476612 0.0030502856 -0.0027291833 4.305753e-05 0.0033015802 -0.0009767634 0.0014188533 0.0025068778 -0.0032017133 -0.0022585278 0.0007294169 -0.0027465562 0.0012598546 0.0024078845 0.000931775 0.0019733289 -0.002163916 -0.00075810176 -0.0026027418 0.0027852384 0.0032670246 0.0038863006 0.002689968 -7.162924e-05 -0.0035338725 0.003584268 0.0024310134 -0.0027319626 -0.001682334 0.003803399 0.0025594113 -0.00028904088 -1.43919215e-05 -0.0016007884 0.0029346882 -0.0007536416 -0.0006810222 0.0026355893 0.0016478548 -0.0025740457 0.000101962694 -0.0027150316 -0.0033023788 0.00079039356 0.001179742 0.0010344683 -0.0023056106 0.000106247055 0.00027941572 0.0016853047 -0.0022507315 0.0004251675 0.0020921135 0.0017033275 -0.002256509 0.0010290698 -6.467074e-05 0.0031925605 -0.0037574873 -0.0028660586 -0.0026834279 0.00053041504 0.0015204047 -0.00087896327 -0.0014010128 0.0018551269 0.0032274334 -0.0009952913 -0.0032954877 0.003504855 -0.003249347 0.002715253 0.0027354048 0.0021063033 -0.0013536984 0.002417372 -0.0018539011 -0.0025166546 -0.0002017106 -0.002577794 -0.0022253434 -0.000250497 -0.0022281315 0.0035687361 0.00036696534 0.0008913208 -0.0022123307 0.0012406259 -0.0026652755 -0.0010586707 0.0033084387 -0.0037123645 -0.001598617 -0.0038592683 -0.00062758254 0.0020016893 -0.0011045329 -0.001728751 0.0029660598 0.0038869195 0.0008970093 0.001627072 -0.0021968398 0.002907985 0.0033383002 0.0033526025
26 0.001269975 -0.0016446239 -0.0002452897 -0.0038981223 0.00097184646 0.00081259944 -0.0006416734 -0.001626436 0.0023568273 -0.0008789205 -0.001931306 -0.00046791922 0.00017662939 -3.6344274e-05 0.0034341644 0.0032797998 0.003305552 0.0031445175 -0.0015084706 -0.0020145024 -0.00014313914 -0.0030641402 -0.00044033982 -0.002286292 0.00028640294 0.0009423483 0.0016099424 -0.0037297104 0.0002738566 0.0027138717 0.00022126282 0.002162404 -0.0034316776 -0.003201164 0.002118733 0.0037060848 -0.00015660039 0.0015635577 0.002748892 0.0030568058 -0.0038143776 -0.0010950207 -0.002125996 -0.0018332478 -2.0030746e-05 -0.002236279 0.003011337 0.0034030147 0.0015891098 0.0015274906 0.002261046 0.0036101772 -0.0038930667 -0.0017817223 -0.0009768294 0.0019409485 0.0030924003 0.0017166216 -0.002148424 0.0033748301 -0.0038685824 -0.002843664 0.0012864261 -0.0019143268 -0.0009725375 0.0022672748 0.0036664302 -0.0014223584 0.0026536377 0.0024210468 0.0006483413 -0.0006771456 -0.0033888342 0.00029188444 0.0024232932 0.0022054636 0.0022811817 0.0029445044 0.0021448426 0.0021409297 -0.0007325069 -0.003211756 -0.0036042256 -0.0015595966 0.0037269879 0.0023502763 0.0032600188 0.0015896683 -0.0005563685 0.0020665014 0.0030495708 0.0023365875 0.0030648329 -0.0012471003 -0.0011286737 -0.00031296504 -0.0026854046 -0.0012898471 0.0027922837 -0.0027379198 -0.0013609097 -0.0025415428 0.0030066774 0.001808886 0.0033591336 -7.403401e-05 -0.0023246587 0.0018525079 -0.003851401 0.0035705122 0.00036839733 -0.0006476743 0.0020243952 0.002034329 -0.00021077933 0.0033590703 -0.0025547305 -0.00058562495 0.0015566038 -0.00029428108 -0.0007374268 -0.0034564103 0.00077627064 -0.0028714808 0.0017199067 -0.00037422692 -0.0032424955 0.0008482787
38 0.0027144616 -0.0010393321 0.0014132548 -0.00058067066 0.000741821 -0.0021874001 0.0027118684 0.0031706255 0.0011662766 -0.0033042992 -0.0015336284 0.0027185956 -0.00124427 -0.0011347148 -0.0010036099 -0.0008182192 0.0011366751 -0.0012583161 0.0006302837 0.0038332227 0.0017440126 0.0022425763 -0.0033078329 -0.0009689717 0.003146129 -0.00039481666 0.00089222187 -0.0010003505 -0.0009560846 -0.002369449 -0.0027943824 -0.0033284684 -0.0015280335 0.003712 0.0034289577 0.00082050695 0.0030826477 0.00071776065 0.0010903623 -0.0003143899 -0.0025753835 0.0020089292 0.0016874423 -0.0021451756 0.0031202438 -0.0007690081 0.0036911857 0.003782318 0.0011398073 0.00347501 -0.003530848 0.0024983236 0.0033881383 -0.0026085286 -0.0015047842 0.00051319523 0.00324326 0.0023287523 -0.0020341112 0.0032094617 0.00032981197 0.0008096084 -0.00095594337 0.0022518034 0.0029822877 0.0020829795 -0.0003853699 -0.0006702193 -0.0025470578 -0.0036909087 -0.002668767 -0.0027852084 0.00048828116 -0.001953377 0.00090093777 -0.0022164385 -0.0036155917 -0.00037508798 0.0029092873 0.0001044869 -0.002766325 -0.001636546 0.0021994829 -0.0015672985 -0.0030291881 -0.0029636445 -0.0022427703 -0.00012154501 0.0015634525 -0.0031232298 -0.002815315 0.0010610314 -0.00060618646 0.00031958782 -0.0015703553 -0.0036216294 0.0025194664 0.0007948911 0.0023747417 0.0027215001 -0.0018665452 -0.002158367 -0.000681957 -0.0013125032 0.0031657259 0.002827381 -0.002756933 -1.5611678e-05 -0.0020026062 -0.00040307417 -0.0002984263 -0.0035857302 -0.0015860278 0.0031433864 -0.00018141947 0.003709915 0.00076025893 0.00067995733 -0.0028318488 0.0019112051 -0.0011449567 -0.0020551116 -0.0031725946 -0.00029090108 0.0013499805 -0.00023251254 0.0030350261 0.0006412075
44 0.0030218216 0.003531489 -0.0007651388 -0.0012749023 0.003308742 0.0004070082 0.00045829703 -0.0017590447 -0.001852401 -0.0022912368 -0.002109301 0.0015932102 -0.00043730062 -0.0016174954 0.0019447054 -0.0038603097 0.00018013227 0.0032889831 -0.0017590286 0.0028651322 0.0030467177 0.00087815494 -0.00089101103 0.0020190494 -0.0004565493 -0.0008200157 -0.000513799 0.003676635 -0.0006290092 0.0017527028 6.636533e-05 0.001040971 -0.0038371263 -0.0038584664 0.0037494397 -0.0038127534 0.00019763771 0.00119392 -0.0024047077 -0.000324028 0.0011059372 0.000700445 -0.0020795711 -0.000565755 -0.0035810268 0.0030706576 -0.0034438851 0.0027657668 0.00016225893 0.0017826922 0.0006984754 -0.0013030147 -0.0021284604 0.0029298197 -0.0021420866 -0.0016220643 0.0029149058 0.0012250658 -0.001380908 0.0027147632 0.0014844409 -0.0023987896 0.0037295101 -0.0017804438 0.0006636761 0.00067781407 0.0018444952 0.0029384573 -0.00075268943 0.0038750712 -0.003659893 0.0016042459 0.0012794194 0.0020309812 -0.0004052875 0.0028856741 -0.003034836 0.0021232737 -0.0026174753 0.0033345218 0.00027702123 0.0017857151 0.000841375 -0.00066020334 0.0023564273 -0.0018899194 0.0016362743 0.0014886305 -0.0027617177 -0.003264004 -0.0031507658 -0.00229906 0.00069688744 -0.00093272654 0.0020009498 -0.002501809 0.00014903107 0.0031941058 -0.0029078505 -0.00082687946 -0.00374295 -0.00079607713 0.000830203 -0.0022988194 0.0037041232 0.0021775493 0.0019813168 -0.002972495 -0.001107546 0.0019693382 -0.0021993043 -0.0035523695 9.1452435e-05 -0.001534213 0.00085645815 0.0030782118 0.002504003 0.0020741436 -0.003836221 -0.0029929169 -0.00035701043 0.0021071222 -0.0012588437 0.0033353602 -0.002838922 -0.0033355625 0.0023944643 0.0037403782
6 -0.0016943316 -0.0033478595 -0.0016923898 0.0027858797 0.0018482442 0.0024463974 0.00011956551 0.0009570143 -1.0372322e-05 0.0028590427 0.00043301258 -0.0015806514 0.0019017978 -0.002298288 -0.0033775507 0.00017037596 -0.003686747 0.0029614493 0.0032648568 0.0008760031 0.0028279033 0.00027758692 -0.0024341792 -0.0038613058 0.0020369478 0.003678503 -0.0013656733 0.0014203594 -0.0026560377 -0.003321359 -0.00085737166 0.0031624103 -0.0036754329 -0.0008395709 0.0024564296 0.002031905 -0.0009538129 -0.0021914372 -0.0018114782 -0.0030460537 -0.0005388862 -0.003840722 0.0019303866 -0.0038627007 0.0033830365 0.0035188308 -0.0012619884 0.0016818808 0.0032579678 -0.0038774458 -0.0014871259 -0.0024941338 -0.0035090928 0.003527918 -0.0011222282 0.0024085399 8.430043e-05 -0.002955093 0.00021965125 0.0016288825 -0.0023017325 -0.0035460677 -0.0033251608 0.000975401 0.003069089 -0.00014974402 -0.0032739907 0.002896025 0.0021549906 -0.0016088065 -0.0033509824 -0.00062347954 -0.0035523039 0.0004620019 -0.00018601502 -0.0028580118 0.0030744679 0.0015740551 0.0020634087 -0.0036651967 0.0024350353 0.0031576424 -0.0015161166 -0.00058341434 0.0014921655 -0.0028467702 -0.0009259084 -0.0003143874 0.0034045256 5.46371e-05 0.0011813291 -0.0002814353 -0.0012109239 -0.0007756571 -0.002116232 0.0017438424 -0.0036814027 0.0014803126 -0.0003387181 -0.003004558 0.0025977874 0.0030261555 -0.0028254208 0.0022592219 0.0029536458 0.00034527306 -0.0026772213 -0.0009293376 0.0006337419 -0.0035293398 0.0033991553 -0.00296487 0.003495949 0.0019711652 0.0036427209 -0.0035865118 -0.0025013806 0.00059297774 -0.0011489893 -0.0021953993 -0.0023378269 0.0009310938 -0.0037332163 -0.0022289045 0.0037982888 0.00038553996 -0.00037747715 -0.00097079953
77 0.0020301144 -0.0003688161 0.0030163922 0.0018877222 0.0017440462 -0.0029499552 0.0008670943 0.0011719455 -0.0037918293 0.0038344124 0.0015779879 0.0005889273 0.0010915624 -0.0010058397 -0.002253245 0.0012492739 -0.0022397707 -0.0028110645 -0.00055605004 0.0017378879 0.0020373284 -0.0015428666 -0.0024785874 0.0014230447 -0.0026860929 5.9781687e-05 -0.0034035095 -0.001293125 -0.00044169612 -0.0031862124 -0.0033719784 0.0010919787 -0.0020792966 -3.280216e-05 -0.002312017 0.002077365 0.0030940431 -0.0007699445 0.0028072277 -0.0014363416 -0.0005638596 0.0038772558 -0.0018091182 0.0020282918 0.0027378527 -0.002819874 -0.0023037994 -0.0038089983 0.0015967821 0.00095887616 -0.0017870791 -0.0012986917 -0.0013470687 -0.0012350219 0.0027108716 0.0030918643 -0.00025873896 -0.0013579553 -0.0013390178 0.0008474655 0.00035654887 -0.00038779053 0.002125611 -0.00014940095 0.0026218204 -0.0013232402 0.00026843807 0.0018369652 -0.0033312805 0.0038658413 -0.0033292572 -0.0022566144 -0.0014739378 0.00012984076 0.0023814137 -0.0015390891 -0.0033825596 0.0031713452 -0.0007263174 0.00061638077 0.00011325226 0.0010200927 0.0016765784 0.0018402827 -0.0034025551 -0.00085426524 -0.0030338953 0.0025683898 0.0007840345 -0.0026803445 0.0014643623 0.0025577764 -0.0030904887 -0.0015679516 -0.002533344 -0.00051968556 0.0016845743 0.00095051853 8.672432e-07 0.0035530927 -0.0004027581 -0.0037843746 -0.0011591112 -0.002012803 -0.0037415877 -0.00029450454 -0.000541969 -0.0029335963 -0.0022443046 0.0027028976 -0.0005510245 0.00010838755 0.0027872166 -0.0022931653 0.0028939964 0.000746242 0.0007961321 0.0032100375 -0.0010652732 -0.0037063176 -0.00085753977 0.0026063807 0.00068591 0.00085552334 0.001342474 -0.0001565739 0.001355377 0.0035989627
18 -0.00045668855 0.0012019527 0.0025938302 -0.0007380262 0.003423958 0.0016366013 0.0014440422 0.0037565602 -0.0032916733 0.00092470227 -0.00069736975 0.003691354 -0.0021574958 -0.0005748259 0.003840307 0.00074756437 0.0019922098 0.0027697987 -0.00046697626 0.00077392993 0.0016027448 0.0017408816 0.0018782811 0.0023549185 0.0011399137 0.00093811034 0.002099411 -0.0021411858 -0.0030564226 -0.0028177446 0.001175816 -0.000101858794 0.00017217042 -0.0010241866 0.0009729305 -0.000593379 0.0007819436 -0.0035119248 -0.0017144401 -0.0007782367 0.0013248749 0.001190623 0.0034938236 9.3842544e-05 -0.0027640334 -0.0026783342 -0.0038120637 0.0019235377 0.0026252538 0.0017512055 -0.0025766157 -0.0018409428 0.0025617771 0.0018784421 0.0036856495 -0.001891871 0.0024304232 0.002994577 0.0035957596 -0.00091298425 -0.0034775177 -0.000711661 -0.002932434 -0.0014086475 0.0027429562 -0.0032486839 0.0010326348 0.0019200934 -0.0010909498 0.0017741622 0.0007507242 -0.002677055 0.0025426513 0.0017885026 0.0011850888 0.0021067394 -0.0006051028 0.0008639021 0.0012150377 -8.208042e-05 0.0010651129 -0.002584037 -0.0013584569 -0.00089061883 -0.000643747 0.00012893886 -0.0035301722 -0.0009310684 -0.0015899761 0.0028902723 0.0035452938 0.0032490185 -0.0020559432 0.0032343366 0.0023892336 -0.0037619513 0.002022552 0.0015600194 -0.0019579318 0.0022315446 -0.0036205738 0.0006625358 0.0009527711 -0.0025233196 -0.00064106396 -0.0029745565 0.0027224624 0.0034774886 0.0013519522 0.0035793756 -0.003789773 0.00062678417 0.0036557363 -0.0033886184 0.00034395416 -0.003108367 -0.0022410569 0.0018409252 0.00053446414 -0.003530812 0.00047013722 0.0024802412 0.002020517 -0.0031053675 0.0032099183 0.0011073463 0.0029721512 0.003690561
