96 128
80 -0.0013952218 0.0031527411 0.00047650814 0.0007526061 0.0012985813 -0.003602048 1.5868061e-05 -0.0037876228 -0.0037925043 -0.003406203 -0.0014733592 0.0023801494 -0.0016229732 -0.00069226633 0.0036640358 -0.0029964743 0.0016681215 0.0020585803 -0.0025200509 -0.0008511387 0.0014093054 -0.0005935311 0.001830901 0.00022580846 0.0037576451 -0.00013956777 4.51486e-05 -0.0015942953 0.0018943066 -0.0010345366 0.0020574108 0.0026243418 0.0005592948 0.0011053951 -0.0019457529 -0.0008574953 0.0019003144 0.0017164823 -0.0024221558 -0.0017327055 -0.0008760681 0.0021271498 -0.00041153005 -0.0029758343 -0.0031321659 0.0021632512 -0.00015006559 0.00030436253 0.002218944 0.0018687866 -0.0019196295 -0.0034201643 0.0023494738 0.0020697461 0.00061259256 -0.0015427698 0.0016424896 0.0029708194 -0.00275853 0.0026065472 0.00021853841 0.001963145 -0.0023759517 -0.00091301807 0.0012952533 0.0026897057 -0.0037373041 0.0021689602 -0.001463412 -0.0012241808 -0.0015500124 0.0007586823 0.0008817586 -0.0006487055 -0.0009491705 0.0032514327 -0.0019412525 -0.0013186925 0.00034574108 0.0017339232 -0.0023449732 -0.0033086257 0.00054957625 -0.0011012971 -0.0038182475 -0.001924834 -0.0010385461 -0.0027962034 -0.0026778367 0.0008389238 -0.00265082 -0.0013215912 0.0008977292 0.0012006261 -0.001945037 0.0032120978 -0.0018980257 -0.00097640546 -0.00021934907 0.003281861 0.00026826293 -0.00086832885 0.0032669306 0.0028255237 -0.0009632193 0.0032840893 -0.002758316 0.0016859216 0.0027590445 -0.0036249447 -0.0027667077 -0.0018952178 0.003452533 0.0036565687 0.0003859988 0.0025394915 -0.00096138974 -0.0032887745 0.0035634441 0.0036347657 -0.0025786925 -0.0028515842 -0.0025398135 0.0031413254 0.0016883818 0.0018782471 0.0038252673 0.0021156515
79 0.00039010672 0.00035302193 -0.00069144316 -0.0006419528 0.001046699 0.0004315281 0.00031945924 -0.001119499 0.001175114 0.003024299 0.002343628 0.0030610408 -0.0007612218 -0.0014624932 0.0019955153 -0.003271448 -0.0013072093 0.0019115093 0.0019338707 -0.0007997948 -0.00090137124 0.0017627596 0.0005756677 -0.002311549 -0.002996751 0.0029838267 0.0022139843 0.003641014 -0.0013824253 0.0014597281 -0.00028230163 -0.0029799715 0.0037681425 0.0027897425 -0.0007567338 -0.00045053818 -0.002080848 0.0034076152 -0.0036243526 0.0034112928 0.0034784034 0.0016080025 -0.0010868397 -0.003052511 0.0037090373 -0.00054440525 -0.0035324055 0.0029896228 -0.003126082 -0.0038753666 0.0008007117 0.0021503787 0.0031205036 -0.0020287805 0.0034553632 -0.002401013 0.0032535836 0.0025971744 0.00019510703 0.0019979626 -0.0036209538 -0.0018303836 0.0006771046 -0.0033423782 -0.000121684374 0.00040197352 0.0008542417 0.0029713018 -0.00063651986 0.0013602703 0.0030204884 0.0006017001 -0.003392038 0.003298763 -0.002712476 -0.0023999051 -0.0022501005 0.002132997 0.0032848958 0.0014935861 0.002611274 -0.0016685629 -0.0022599457 0.002452129 -0.0018478527 -0.0034403696 0.0005496709 0.0013823361 -0.003211335 -0.00177501 -0.003033545 0.0001679923 -0.0006409067 0.001978954 -0.0035505982 0.0006851604 -0.002565057 0.0012422383 -0.0019467918 0.0020088297 -0.001510605 -0.0024302853 -0.003686952 -0.0035684542 0.002232738 0.00032714984 0.00016040198 0.0035277216 0.0020751024 -0.0021336074 -0.0016385134 0.001392954 0.0011328745 -0.0032282493 -0.0007423862 -0.0010926278 -0.0038822552 -0.0037209585 -0.0012935827 0.0023345833 -0.00042945103 0.0005826397 0.00013076131 0.0037740488 -0.0036418594 0.003780181 0.00064659404 0.00033106018
31 0.002965857 0.0022764495 0.00020387745 -0.0008255848 0.0018165269 -0.0011391259 -0.002621446 -0.0027071417 -0.0019336726 0.0027727557 -0.0012835182 0.003395212 -0.0015552419 0.002596907 0.003828472 0.0012791612 -0.0037595765 0.00040153746 -0.0009821322 0.0019365125 -0.0017507081 0.002752768 0.0037977411 -0.000936002 0.0030874193 0.0003718213 -0.0008978459 0.00088369293 0.00372789 0.00065698026 0.0013850075 -0.0017201357 -0.0023693573 3.9686613e-05 -0.001824735 -0.0032135376 -0.0030067086 -0.0005466229 -0.0025809717 -0.00017505937 -0.003507084 0.0005500401 -0.0026601707 -8.095319e-05 -0.00310093 -0.0023724379 0.00078716833 -0.00040782057 0.0016342747 -0.0018926177 -0.00033761686 0.003096232 0.0009257045 0.00085639785 0.0015005488 -0.000391154 0.0031595991 -0.0023717852 -0.0030633318 0.0038465958 -0.0031905049 0.0027001458 0.00061511464 0.0030243115 0.0005120701 0.0012070683 -0.0019258457 -0.0026403293 -0.0011881586 -0.0029321325 -0.00061399554 0.003386863 -0.0021515128 0.0014774367 0.0033413728 0.0014778171 0.0025137796 -0.00346874 0.001085233 -0.0026143505 -0.002848081 0.0026542381 -0.002906234 -0.0013174119 -0.0010534116 -0.0029383053 -0.0007234523 -0.00092399894 0.0001843909 0.0009843317 -0.0034637286 0.0007940977 -0.0036629888 0.00021821616 -0.0014708695 0.0021091457 -0.0032768091 -0.0026558596 0.0024710647 0.0020264357 0.0032323743 0.0010926274 -0.0025679911 -0.0013589816 0.00079162075 0.0037097961 -0.003165991 -0.0030602564 -0.0036251054 0.00029609387 0.0021037299 -0.003762514 -0.0035605745 -0.0031540794 -0.0037756423 0.0009806795 0.0037996557 0.0011902894 -0.0017378409 -0.0007734387 0.00013130551 -0.0020221048 0.0017032514 -0.002837095 -0.003704421 0.002720406 0.00010764918 0.0007702865
39 0.0009919603 0.0023763848 -0.0038087873 0.00066770747 -0.0029021255 -0.0010258439 5.8182348e-05 -0.0005483323 -0.0038612597 0.0026530027 5.668365e-05 -0.0011711421 -0.00082100887 0.003321105 -0.0015123123 -0.0029163165 -0.0020862117 -0.0023756698 0.003615103 -0.0026326366 0.0032592055 -0.0016050723 0.0010266533 0.0010690365 -0.0035742263 -0.0037883464 -0.0024386286 -0.002845231 0.0013578109 -0.0026687821 0.0027129473 0.002307139 0.0018522086 0.0016055914 0.00028451852 -0.0027686618 0.0027483546 -0.0009719765 0.00077892555 4.324338e-05 0.0032923834 -0.0020732703 0.0035786268 -0.003117759 -0.0026332869 0.0021217135 0.0027190754 -0.0004273197 0.0024216396 -0.003635901 -0.002596391 0.0013750417 0.0038591197 -0.003876235 -0.00019161087 0.0030731729 -0.0023493648 -0.0012364569 -0.0018599387 -0.0011134141 -0.000102572914 0.0019533641 -0.003020963 -0.0011316058 0.0028274176 -0.0022800942 -0.0014442843 0.002687477 0.003669667 0.0029338596 -0.00305541 -0.0015889887 0.0028161563 -0.00361166 -0.0029317818 -0.0039012618 0.000509745 0.00026055222 -0.002399743 -0.0006046931 0.0021242434 -0.0033726445 -0.002372966 -0.0025218616 0.0031562059 0.0012296321 0.0031497427 0.00059546635 -0.0015388256 7.3455594e-05 -0.0007582618 -0.0010349352 0.0034922496 0.0036686433 0.002767024 0.0008296032 -0.0018358458 -0.002579778 0.0030903297 0.0017877294 0.003233623 -0.0026123312 0.00042622036 0.0010013859 0.0033784346 0.002498724 -0.001086668 -0.0030343938 -0.001865419 0.0011699994 -0.0006309174 0.003863798 0.0020273372 0.0032349192 -0.0008020143 -0.0026464788 -0.000336275 0.0036045164 -0.002996734 0.00285407 0.0019385342 0.0035124912 -0.003296416 0.0029839876 -0.0014849686 0.00018119349 -0.0002505165 -0.00054376933
22 -0.00022777611 0.0022045446 0.000977488 -0.0022430387 -0.0032054354 -0.002472976 0.0005575143 0.002186964 -0.0029628938 0.001173495 -0.0010026457 -0.0031677852 0.001788489 -0.0014364321 -0.0008791352 -0.0012509897 -0.0035769169 -0.00036102592 0.0020747404 0.001342929 0.0029868663 0.0026432797 0.0025396165 -0.00051018776 0.0031594604 -0.0013344878 -0.0028550404 0.0009494268 -0.0028062628 -0.0009555195 0.0012259566 0.0037572617 0.0023837269 -0.000428991 -0.0032717865 -0.0030123808 -0.003077325 0.0027269842 -0.001086457 0.00022723008 0.003877162 0.0025440315 0.0010404979 0.0036822106 -0.00038693877 -0.0033282477 0.00071020605 -0.002292701 0.0001868179 -0.001345187 0.0014299029 -0.0022225806 -0.00057419407 0.0012377845 0.003255143 0.003165075 -0.0022857455 -0.002163278 0.0014108433 -0.0017482558 -0.0019756402 0.0028897785 0.0017091191 0.0028073492 -0.0029874549 0.0022980273 0.0033551096 -0.0035264327 0.0007321742 -0.0033234137 -0.002785406 0.0005925513 0.0016259779 0.0014380605 -0.0014032015 -0.0027732442 -0.0031074448 -0.0034838375 0.0001304994 -0.0016838226 -0.0017259618 0.0018969417 -0.0029614007 0.00016817806 -0.001696765 -0.0025739989 -0.0033570258 0.0035139148 0.0029342182 -0.0023048108 0.0035140004 -0.003253172 0.0034218677 -0.0012978632 0.0031544897 -0.0027396057 0.00016333639 0.002743783 0.00073393935 -7.1659656e-06 0.00081565976 -0.0010720578 -0.0021710403 -0.0016578301 0.0016928792 -0.003458548 -0.0019228974 -0.0021845384 -0.001269772 -0.0029794734 -0.0034372562 -0.0025092117 0.003239413 0.0034157203 0.0023098455 0.0011112447 0.0016047655 -0.0006124995 0.003045741 0.0032937874 -0.00022774529 0.0020509588 -0.0010644011 -0.0032557042 0.002529525 -0.0011700612 -0.00089402 0.0034887607
64 -0.0018387123 0.0017666348 -0.0011968659 0.002648506 0.0017990898 0.0025893482 -0.0038930185 0.0030561616 -0.001861453 -0.0036366608 -8.828974e-05 0.0023914988 0.0032668074 0.00088835927 8.551138e-05 -0.002644557 -0.0018757203 7.1650866e-05 0.00020605222 0.0026428232 0.0003814399 -0.001202781 0.0030590028 0.0014527322 0.0015214586 -0.0018988139 0.0025254525 -0.003086846 -0.00071988744 0.0020421336 0.0026846398 -0.0027470135 -0.0026939546 -0.0036783165 -0.00268974 0.00013239478 -0.0028035068 -0.0035388784 0.0011931089 -0.0038222012 0.0018877222 0.000109933404 -5.5599183e-05 0.002281887 0.0027626131 -0.0030729035 -0.00010835593 -0.0030651607 -0.0030403398 8.333901e-05 0.00062741904 0.0034946492 0.0028223798 0.0015139352 0.0010032869 0.00055666 -0.002715175 0.0030858624 0.0027291335 0.0010968331 0.0032592472 0.00071459654 -0.0032659231 0.0035181723 -0.0029705728 -0.0018748785 0.003590761 0.0011633395 0.0008000401 -0.0014695082 0.00018707773 0.0008169492 -0.002885548 -0.0012965212 -0.0023824603 -0.0012790147 0.0011801833 -0.0021093886 -0.00015900524 -0.0007925579 0.0034432681 0.0022586528 -0.0034398201 0.0020214305 0.001217184 0.003546203 -0.003333096 0.0031479332 -0.0017486279 -0.0013831438 0.0019627889 0.0038848422 -0.0013532235 -0.00071219204 0.00012313854 -0.003067073 -0.0021041844 -0.0015323802 0.0010617401 0.00013517062 0.0033417821 -0.0014769521 -0.003407886 -0.0035873842 -0.0011807613 -0.0017348551 -0.00021730701 -0.0027414681 0.0025472627 -0.0028008206 0.0034290804 -0.0007334706 -0.0005086715 -0.0018108045 -0.0032645355 0.0006126714 -0.002740501 -0.0016688388 -0.0025690405 0.00018445209 0.001041691 -0.0010314423 -0.0021123462 -0.0032893613 0.0036768508 0.0013390258 -0.0038618925 -0.00094170007
54 0.000120319775 0.0030618326 0.002722737 0.000708272 -0.0009873032 -0.0020383706 0.0011305505 0.0011362267 3.9811723e-05 -0.00067180174 0.0020642239 -0.001107023 -0.000668163 0.0023430153 -0.0017553318 -0.0034095712 -0.0007993634 0.0025154646 0.0034566887 0.00012533323 0.0038837532 -0.0012921261 -0.0033030936 0.00228045 -0.0036488436 0.002430349 -0.0010972329 0.0037948699 -0.002874126 -0.0037614484 0.0018692841 0.0015963442 0.0022320263 -0.002941024 0.0002947713 0.0018013648 -0.00073448697 0.0037596228 0.0010888332 0.0013726628 -0.0017610553 4.757208e-05 -0.0038499513 0.0013719212 0.0030941477 -0.0029992769 0.0005304671 -0.0008189459 -0.00013370783 -0.001460127 0.0030767603 4.1527614e-06 0.003711341 0.003364687 -0.003880595 -0.0031683538 0.0028554492 -0.001674196 -0.0004598275 -0.0025019785 -0.0014460525 -0.0022801028 -0.00088753906 -0.0013130526 -0.0008488806 0.0024740587 -0.0020422738 -0.003811446 -0.0028747465 0.003682313 -0.0008442867 -0.0033179785 0.0036098352 0.0022496306 0.0017525433 0.0017504282 0.0031806848 0.00029158106 0.001398808 0.00031080452 0.0006516191 0.0037223068 -0.0012071443 -0.0024736056 -0.003887998 0.0001175042 0.0018584405 0.00024926872 -0.0014348519 -0.0019694632 0.0006317792 0.0034129785 -0.0020992765 -0.00068544527 -0.0005235892 -0.0015959545 -0.0028466082 0.0033755347 -0.00013086772 0.0031597463 0.003486584 -0.0013282222 -0.0019991084 -0.002553923 -0.002354093 0.0019147806 0.003046549 0.0038963237 -0.0031789404 -0.0021197072 -0.0021408454 -0.0002573427 0.00058106176 0.003591536 0.0038187401 0.0028442205 -0.0024771611 -0.00038209127 0.002955253 -0.00029161535 0.0032892304 0.0038292676 0.00012528604 0.0024371257 -0.0010540585 -0.0019483598 0.002053989 -0.00036678193
23 -0.002445354 5.6295346e-05 -0.0021867894 -0.00093259156 -0.001468113 -0.0007082822 0.0030445284 -0.00014482609 0.0028414638 -0.0021239582 0.0037477692 -0.002587613 0.0032411283 -0.0020238056 0.0021987665 0.0026576137 -0.0025080102 -0.0014604876 -0.00069560594 -4.3941796e-05 0.0029932503 0.0034563895 0.0023438677 -0.0015049386 -0.003894401 -0.003157049 -0.0027545055 -0.0028231363 -0.0020244804 0.002593149 -0.0015585019 0.0020239367 -0.0010478038 0.0008725877 -0.00034808693 -0.0031485779 -0.00026141654 0.0007265186 0.00030602215 -0.0022005478 0.0024612998 0.0024425744 0.0024849449 0.0022033907 0.0020621526 -0.0016141547 9.59389e-05 -0.002095498 0.000974989 3.5934336e-05 0.0030296084 0.0036138876 4.5669418e-05 0.0020728498 0.00010643435 0.0037015758 0.0025978165 0.0034749222 -0.0007920904 0.0030743505 -0.0032765938 0.0010678053 0.0013760906 -0.0023993133 -0.0002953375 -0.002202962 0.00029926357 0.0016321184 -0.0035679387 -0.002343759 0.0032868271 -0.0011920901 0.0024545332 0.0033383826 0.0024681238 0.00026059948 0.0003900724 -0.0034023186 -4.7116573e-05 -0.0035782638 0.003152866 -0.0012128245 0.0023026422 0.000957391 -1.9212952e-05 -0.0022691102 0.0006365082 0.0027507364 0.0030787087 0.0024466775 0.0002818848 -0.0037195822 -0.00021239898 0.0014357949 -0.0016614707 -0.0021986687 -0.000927112 0.0018258808 -8.160444e-06 0.0011718305 0.00056266785 0.0018551935 -0.0015967692 -0.0030975547 0.0023764083 -0.0010384227 -0.00296 0.003176664 -0.0013194515 -0.0030630173 0.002726034 0.0024841647 -0.00045107913 -0.0016370601 0.0022199443 0.0010479597 0.0034125147 0.0021439097 0.002747925 0.00041789107 0.0016419239 0.002892194 -0.002418743 0.0027923982 -0.0024333782 0.000263814 -0.0012001477 0.00022640801
55 0.003295272 0.0005239196 -0.00073032244 -0.0031958758 0.0016323148 -0.0023033323 2.2608714e-05 0.0031700376 0.0031560077 -0.0018590542 0.0020556524 -0.0029373837 0.002168434 0.0011075388 0.001478231 0.0013414103 -0.00031627182 0.000114733026 0.0023523641 0.0019332462 0.0015924313 0.0038625994 0.00046850878 0.0021035185 -6.622587e-05 0.002811509 0.0018854967 -0.0007831368 -0.0027194798 0.0017380523 -9.049305e-05 0.0012182976 -0.0011750868 0.00097364554 -0.00066410354 0.000308836 -0.00054225407 -0.0007539024 0.0038795925 -0.00050407706 -0.0018071556 0.0009473934 0.0036976652 0.0013702183 -0.003842794 0.0034491667 0.003399062 0.0018753101 -0.0015933398 0.0028339275 -0.0013506138 -0.00215389 0.0024018183 0.0037929274 0.00025820913 0.003735599 -0.0030419964 -0.0023615484 -0.0019910512 -0.0017475444 -0.0015738419 0.0014903103 -0.001181896 0.0033961071 -0.0010695715 -0.0034321882 0.003568431 -0.003225193 -0.0007813357 0.0016416392 -0.0013597206 -0.0006202482 0.00022895783 0.0031155515 -0.0014597834 -0.0001887876 -0.0024136207 0.0014046796 -0.0028624383 0.0030371314 0.0038974255 -0.0007360543 0.0010452822 0.0022352617 0.0029757721 0.001281218 -0.0010027152 0.00057839626 -0.0004223027 -0.00265914 -0.002560276 -0.00037400605 0.0012117922 -0.0008030489 0.002402138 -0.0016545722 -0.0002354175 -0.002193402 0.00059589307 -0.0015516905 0.0032600223 -0.0030124711 -0.0033232975 0.00046664415 -0.0011064842 -0.0011369196 -0.00018416498 0.002363417 -0.00037447835 -0.0038165157 0.0010249609 0.0007080123 0.0017949654 0.002002012 -0.0027868934 -0.0028865202 -0.0029665208 0.0027680623 -0.0014616213 -0.002618588 0.00020191289 -0.003014217 0.0035281426 0.0014382829 -0.0012468973 0.0016404154 -0.0038263106 -0.0022233461
51 0.0020103734 -0.0022547569 0.0023738442 0.0030318643 -0.0010512539 0.0030768646 0.00096416404 0.002925379 0.003826675 0.002914251 -0.0037784209 0.0004446636 0.0034025402 -0.0016570395 0.0018423899 0.0018838181 0.0024636642 0.0022072352 -0.0019470936 -0.0022361998 -0.0019368519 0.0011171834 -0.0023993074 -0.0020330574 -0.00023478741 -6.227584e-05 0.0022714934 0.0021829165 -0.002710969 -0.0015297056 0.00018871731 -0.0026066804 -0.0011285478 0.00078189996 -0.0025078757 0.0018094982 0.0031881027 0.0008655734 0.0026624582 0.0029620533 0.002578267 0.002412356 0.0038634732 0.0007754975 -0.00054172723 -0.0009178443 -0.0001454662 0.0010684635 0.0013596527 -0.0016813917 0.0036034596 -0.0006023944 0.0021198145 -0.0013538458 0.0024355494 0.0011558094 0.0038805772 -0.0014306565 0.00030955844 -0.0035807635 0.0002174306 0.0016430796 0.0015644294 -0.0018932405 0.0009887227 0.0025620542 0.00021284414 0.00038473928 -0.003157355 0.0009295584 -0.0013963676 0.003088487 0.00044783443 0.0006737238 0.003729467 0.00094997935 0.0014306179 0.0021947208 0.0037529767 0.0028964512 0.0007471574 -0.0023236903 0.0022730806 0.0037875199 0.002605285 -0.0012706801 -0.0024439723 0.00048763928 -6.470901e-05 -0.0015039489 -0.0018283218 0.0025014165 -0.0030604613 0.0012426989 -0.002056498 -0.0002251181 -0.0015089854 -0.0029349623 0.0010221837 -0.0023926587 0.002805072 -0.001215138 0.00026610988 0.0005158925 0.003784019 -0.0034129655 0.0015640752 8.186786e-05 -0.0028044605 -0.002593351 0.0038144104 0.0015638344 -0.003702052 -0.0021893447 -0.0013472605 0.0013913632 -0.00046536242 -0.0027250054 -7.678164e-05 -0.0011743807 0.0021044787 -0.0032542495 -0.0031648728 0.0010812713 0.002671608 -0.0036875263 0.0037645295 -0.0015228034
71 -0.003434626 0.0024488957 -0.0012341125 0.00037673427 0.0038152842 -0.0035779416 0.0034595248 0.0028437378 0.0012800875 0.001207702 0.00072963035 0.0031616078 -0.0008517402 -0.0021595026 0.0031039838 0.0020714323 0.002557093 -0.002160388 0.000556821 -0.0034617404 0.0022376485 -0.0017426043 -3.816307e-05 0.0029376112 0.0013565449 0.0010571759 -0.003089142 -0.0001805017 -0.00013305056 -0.00031695946 -0.0017858568 -0.002379617 -0.0016490009 -0.0015676955 0.0031382705 0.0028626698 0.0015590186 0.00082561607 0.0015826387 0.00038254072 -0.0033918389 -0.0011680986 0.0038267074 -0.0035905547 -0.0018877441 -0.0036950845 0.0012981389 0.0023347514 0.0009881293 0.0013895027 0.00058269355 -0.00236711 0.0029877073 0.0015293458 0.0025157307 -0.0010833447 0.0036454336 -0.0031044655 0.0020103266 -0.0021794415 0.0027515134 0.0022002861 -0.0020877079 -0.0028155441 0.001175653 0.003523033 0.0023804225 -0.0038245788 -0.00032804362 0.0035681603 -0.0009044612 0.0029541089 -0.002143175 -0.0018268903 -0.003004566 -0.0010851759 -0.001175418 -0.00045249923 -0.0003465147 -0.0015074998 -0.0015151344 8.240277e-05 0.0033931036 -0.0023560321 0.0024006194 0.0030423768 -0.00072666595 0.0029370359 -0.00038400423 -0.0028860273 0.0038541781 -0.003421396 0.00014869882 -0.0021771307 0.0008257343 -0.0018797611 -0.0012102489 0.0037944342 0.0021015285 -0.0008147708 0.0023784223 0.0037677253 0.0031198696 -0.002917862 0.0016072344 -0.0005993762 -0.0032097842 0.000590023 0.002507763 0.003201568 0.00028658402 0.0014135418 9.260394e-05 -0.001745835 -0.0033401602 0.0021848488 -0.0006443523 0.0025858686 -0.002676476 -0.0018804157 -0.0011438545 -0.0023628508 -0.002305601 0.0022694112 -0.0012122617 -0.00085834955 0.00061550224 0.0021222054
70 -0.0030521639 -0.0028625818 0.0022200665 -0.0032357024 -0.0013590022 -0.0010927678 7.565988e-05 4.801077e-05 -0.0014362424 0.002058922 -0.0016035868 -5.275232e-05 -0.0036317476 -0.00053691963 -0.00210358 0.0019515048 -0.0028098882 0.0011644412 -0.0001523743 -0.0027595453 -0.0007213241 0.0035586818 0.0034096993 0.0038863767 -0.0024270813 0.0011014886 -0.0002264994 3.3179193e-05 0.0016359343 0.0018775433 -0.0022364238 -0.0021562793 -0.0033441393 0.0009058951 -0.00055219006 0.0005803965 -0.0019235903 0.002579963 -0.0030063149 0.001777313 0.0008137648 -0.00092607527 -0.0018587513 0.00040283962 0.0011048053 0.0027893048 -0.0030601968 -0.0012137027 -0.0023663577 0.003454385 -0.0015656085 -0.0021420384 0.0030559576 -0.0014043798 -0.002352685 -0.0031007382 -0.0002758911 0.00032798835 0.003678994 -0.0032790597 -0.0015605544 0.0021066149 0.0007479774 -0.00078858493 -0.0004608727 0.00013225527 0.0004190483 0.0024963522 -0.0017776075 -0.0008291053 -0.0018359598 0.0007349956 0.0016075396 -0.0004080709 -0.002474715 -0.00013272806 -0.0009992515 0.003572103 -0.0031333687 -0.00071348454 -0.0026966517 0.002319329 0.0032484275 -0.0013307059 0.00041543055 -0.0014196329 0.0016846597 0.00036742937 -0.0020572906 -0.0010736774 0.0036623818 -0.002477994 -0.00022503034 0.0031659154 -0.0030039581 7.725934e-05 -0.0018996021 -0.0004603557 0.0017144345 0.0027350513 0.000924896 -0.0010132891 0.0011084432 0.001887085 0.0033918102 -0.001641193 0.0008786162 -0.0017405613 0.001559487 -0.0032238741 -0.0028318167 0.001934564 0.003640262 0.0006210597 0.0004812451 -0.0036713842 -0.00011221859 0.001352639 -0.001963349 -0.00094595074 -0.003488727 -0.0029208525 0.0026645577 0.003671681 -0.0017767504 -0.0025531615 -0.0017860832 0.001737588
61 -0.00023243485 -0.0004519544 -0.0029105146 -0.002486929 -0.0029764674 -0.0004988071 -0.0007699986 -6.831888e-05 -0.0021868593 -0.0033397349 -0.0017283857 -0.002424725 -0.0019218941 0.00213175 -0.0019603637 -0.0016105039 -0.0019108662 0.001226979 0.0014982558 0.0010790786 0.0028862152 0.0029111716 0.0010261319 0.00038010758 0.00045325086 -0.0038371559 0.0019459893 0.0028440803 0.0015396334 0.0009105267 -0.0017746877 -0.003808306 0.0006519305 -0.00025816585 -0.0027537453 0.00289819 0.0018821789 -0.0017310077 0.0010910488 -0.0031492915 -0.0011170774 -0.0016221124 -0.0015538362 -0.0024719432 -0.003689204 0.0001845714 0.0010218405 -0.00041225157 -0.00078224833 0.0033117316 -0.003760399 -0.00027307912 0.0018217578 0.0020096418 0.001821693 -0.0017787691 -0.003455566 0.0007684679 -0.0029098731 -0.0032383937 -0.0011149159 -0.0004322644 -0.0032528362 -0.0010485839 0.001748162 -0.0034222375 -0.0012977069 0.0038319062 0.0029839042 -0.0007289939 -0.0018291093 -0.000679406 -0.0014897984 -0.0029560218 0.0032366668 -0.002423657 -0.0006323868 -0.0011150559 -0.0011970433 -0.0019923914 -0.0028659601 -0.0027208799 -0.0030563367 -0.002205921 -0.0016687473 -0.0007709583 -0.0017169799 0.0036804867 -0.0023467795 -0.001905747 -0.00020216408 -0.00036943713 -0.00051281997 0.003665142 0.0014339497 0.0020014215 0.0030292347 0.0008790735 0.0015394388 0.0004288176 0.0019205228 0.0037489613 -0.0008978509 0.0038973612 -0.00094767124 0.0015322667 -0.002755033 0.0002747868 -0.0016507922 0.00037248983 0.0030627272 0.0016338177 -0.00248146 -0.0025924824 -0.0034561043 -0.003371252 0.00054449466 0.0008709159 -0.0027612275 -0.0028580949 0.00043994788 -1.7539232e-06 -0.003903125 -0.0014280629 0.002901913 1.8010023e-05 -0.0010872231 -0.0013352026
57 -0.0010050861 0.00071501295 -0.00066099915 -0.0033199203 4.644831e-05 -0.0025260134 0.0024904073 -0.0005297466 0.0009850634 -0.0015966293 -0.0009124254 -0.003206149 -0.0027255197 -0.003207109 -0.0029701244 -0.0025813228 -0.0028195912 -0.00041881527 0.0018315782 -0.0032733427 0.0022888612 -0.0022281113 -0.0024819977 -0.00045924974 0.0010052648 -0.003486566 0.0024980775 -0.0021090205 0.00015812644 0.0023431676 -0.0027137501 0.0019105029 -0.0030942792 0.0009161886 -0.0017745298 -0.00018976552 0.003739849 0.0028653105 -0.0017344136 0.0013970233 -0.0037059588 -0.00032800846 -0.0001580801 0.0014524622 4.3677264e-05 0.002149005 -0.0006066849 0.0036632875 -0.0027620492 -0.00072782184 -0.0012769777 -0.002803633 -0.0024097066 0.0032977164 8.393306e-05 0.00035042875 -0.0011462427 0.00055791665 0.0017643279 0.0028098198 0.0034201355 0.0024461506 0.0014893279 0.00243842 0.0005513486 0.0003364225 0.0023386977 0.0010539416 -0.0016664859 -0.003337377 -0.0022868626 0.0025966456 0.0027158046 -0.0035566455 0.0018020347 -0.0016046083 -0.0013973175 0.0016269257 0.0028844017 -0.0020382102 -0.002048802 -0.002449806 0.0035791965 -0.0016437308 0.0020532026 0.00045412485 -0.0018016238 -0.0003851011 -0.0034261807 -0.0024994994 0.0009166345 -0.0031691985 0.0003774863 -0.0031613905 -0.003905171 -0.00038219045 0.0038769678 -0.0008439726 -0.0021904178 -0.00069944194 -0.00025080596 0.003108633 -0.0036872034 -0.00070346013 0.0030574873 -0.0019912655 0.0011060932 0.0016475538 -0.0015254401 0.0017063966 0.002090912 -0.0026968871 0.0037112038 0.0008736512 0.0011844264 0.0027730167 0.0014530316 -0.002397206 -0.00054910814 0.0014634479 8.9169975e-05 -0.0024996682 -0.0021042456 -0.0019489048 -0.0034636774 0.0037343248 -0.0017011069 -0.0006681049
68 0.0012668689 0.0021403553 0.0025303722 -0.0016334853 0.0032813754 0.003535382 0.00033530558 -0.0014130756 0.001970705 0.002975017 0.002753465 -0.002119557 -0.0034160598 0.0018806829 -0.0003400369 0.002579154 0.0036159079 0.0009840223 0.0034705503 -0.00010521281 0.0015569334 0.0023217727 0.00010417408 -0.0028440736 -0.0026097677 -0.0011158475 -0.002436448 -0.0013886628 -0.0025810609 -0.0026892629 0.0015813541 -0.0006503651 8.980507e-05 -0.00064867653 0.0030836104 0.002307806 0.003313895 -0.003126549 0.00058801053 0.0008790897 0.0013238474 -0.0025765896 0.0015697303 0.00048166697 -0.002250631 -0.00023827894 0.0029764848 0.00060461415 -0.0013032488 0.0023577623 -0.0007264168 1.8076713e-05 0.0038348422 0.00021467959 -0.0026898724 -0.0011474752 0.002359755 -0.003884337 0.0023292901 0.00043231223 -0.00066010555 -0.0006728016 0.002862299 0.0004276213 -0.0016833054 -0.0014273213 0.0024768813 0.00035658674 -0.0020465876 0.0029937595 0.002267085 0.0031545006 0.00043478975 -0.0011901262 -2.4092074e-05 0.0025311473 -7.034099e-05 0.00033639913 0.0021434068 -0.002340548 0.0028390673 -0.0017529909 -0.0017638754 -0.001532844 8.970952e-05 -0.0020484868 -0.0035403818 0.0007576234 -0.0018574201 -0.00221257 -0.0011253468 0.0038889805 0.0008883386 0.0026503408 0.00063113426 -0.0011689977 0.003865675 -8.291835e-05 -0.0027998022 0.00059891643 -0.0013832715 0.002086342 -0.0023545003 0.0018732172 -0.0013517734 0.0010205226 0.0011729922 -0.0003914126 -0.0012269381 0.0026230828 -0.0012571297 0.00032096537 -0.0007529079 0.0023439764 -0.0027962434 0.0004559621 -0.0012012579 -0.0026218067 0.0021491353 -0.0027231686 0.0032268045 0.0021897403 -0.002564963 0.0019104423 0.00275639 0.000940974 0.0012475335 -0.0030350355
49 0.00020243421 -0.0025495912 0.0037738963 0.002487023 0.0013164666 -0.0026763447 0.001790979 0.003680992 0.00022954676 0.0016172519 0.0011009093 -0.00054739893 0.00093149167 -0.0030127566 -0.0034289462 0.0016985129 0.0019442001 0.002616151 -0.0010155617 -0.0012710054 -0.0024682411 0.0034090935 -0.0037068287 0.00041472778 -0.0004621279 -0.0038885733 -0.0007111731 -0.0002915956 -0.0013009277 -0.0018970382 0.0036441658 0.0037990354 0.0025204085 -0.00083453715 -0.0016780094 0.0015750458 0.00316515 -0.0032822227 -0.0014554103 0.000106194915 -0.0004708645 0.00022699234 0.00077761366 0.00021825734 -0.0031574748 -0.0013914087 -0.0011063721 0.00029315322 0.0003269627 -0.0033472895 -0.003402431 0.0013760657 0.00080399204 -0.0020286427 -0.0009008821 0.0004872523 0.0028148536 -0.00084356987 -0.0019389115 0.0026377745 -0.002101698 -0.003761054 0.0016334079 -0.00018068815 -0.0026518775 0.003342386 -0.002733451 0.0020134146 0.0028283861 -0.0006222811 0.0031103443 0.0011651492 0.0027633877 0.0016842044 -0.0013555033 -0.002877801 -0.0008633142 -0.0020709634 -0.0033582356 -0.002400316 0.0037973402 -0.0015754194 -0.003580184 0.0031094218 0.003836238 -0.0018567102 -0.0031873821 -0.0015906203 0.00052502233 -0.0010541717 -0.0023669072 0.0023728318 0.00057066773 0.0017309003 0.003328644 0.0022828826 0.003208829 -0.0035065059 -0.003276361 0.001997023 0.0034646725 0.003397288 -0.0011312868 0.0023518219 -0.0021406242 0.00084389094 0.0019290016 0.0026370129 0.0013032546 0.0005135527 0.0032135267 -0.003380667 -0.001652032 4.4202952e-05 -0.0024983163 -0.0019958944 -0.0036016074 0.0028524345 0.0022631194 -0.0004878209 0.003152497 -0.00032603578 -0.0011912081 0.0027447746 0.0026299707 -0.0021609825 0.001995283 -0.0010654039
95 0.00036405725 -0.0010709596 -0.0035014474 -0.0015122645 0.0010117906 0.0033757316 -0.002147829 0.0007234705 -0.0024674952 0.0010789378 -0.0012754581 0.0023179045 -0.00043584092 0.0004112742 -0.001966152 0.0006209453 0.0014376641 -0.0011985579 0.0023228356 -0.0006802925 0.002805671 -0.002836107 0.002399922 0.0038050127 -0.0030968504 -0.001983027 -0.0015239627 0.0027944574 -0.003019504 -0.0016864849 -0.0032808336 0.0034118227 0.0034594245 -0.001337916 0.0008338415 -0.0020273153 -0.0004100056 -0.0028545395 0.0014026026 -0.0014151066 0.0024863079 -0.0009579899 -0.0020223735 -0.00021471916 -0.0032548353 0.0015930515 0.00015568479 -0.002480076 0.0009138604 -0.0030350666 -0.00024888775 -0.00356613 -0.0037828693 0.0024306434 -0.002162127 0.00022538513 7.808868e-05 -0.0026749359 -0.00027452942 0.0029236923 0.0013289361 -0.0011445954 3.5826906e-05 0.0023856724 -0.0006062187 -0.0037542454 0.0038288622 -0.0031303817 -0.0024344155 -0.0011372814 0.00166408 0.0020524792 0.0017970115 0.0032258711 -0.0014048174 -0.001223668 0.0038123296 0.0033530842 -0.0020662006 0.0006787512 -0.0013242735 0.0017646266 -0.0009736056 -0.0037056308 0.0021222318 0.0021201626 -0.0020146992 0.0005939951 0.0014578194 -0.002001233 0.0014883813 -0.0011360209 0.0036755784 -0.0031596716 -0.0019645658 0.0033904186 -0.003145073 -0.00042934154 -0.0013457289 0.002123654 -0.0027482407 0.001633025 -0.0015336975 -0.0026059356 0.0036096429 -0.0011801977 -0.0009723777 0.00053349975 -0.0005860168 -0.002652105 -0.0028471325 -0.000987635 -0.0011166479 0.0018860721 -0.0005690375 0.00160428 0.00059104216 0.0006411892 -0.0037259266 0.003651726 8.039211e-05 -0.0018857132 0.00053242996 0.0010918761 -0.0022316407 0.0002705593 -0.0014880763 0.00015270482
62 0.0036641078 0.0024702367 0.00021519624 0.0015364708 0.00042234382 0.00083868107 0.0020202412 -0.00086491654 0.0037588242 0.0024218515 0.002969558 -0.0033249361 -0.0011376749 0.0001827941 0.0024540147 0.0018867834 -0.0032922756 -0.0008452073 -0.00022249033 0.002317106 0.00043757036 -0.001565086 -0.0009161168 0.0012718845 -0.002052733 -0.003651886 0.0026794972 0.0022414057 0.0035731301 0.002677396 -0.0033376296 -0.00016398812 0.0038859851 -0.0027879174 0.0010523088 0.0017487931 -0.0038542098 -0.0038971817 -6.467243e-05 0.0025115614 -0.001441024 0.0023745901 0.0028640064 -0.0017089066 0.0013789231 0.003225089 -0.0034559304 -0.002389399 -0.0023467238 -0.0018196077 0.0025016286 2.67089e-05 -0.0015912092 -0.0009204271 0.0005649434 0.0015557237 -0.0009162771 -0.0010086001 -0.0017488181 -0.0005882495 0.0024001654 0.0030067437 -0.0017276705 0.00035717548 -0.0024393199 -0.00052372646 0.0009521867 -0.0028765437 -0.0010653634 -0.0035020607 -0.0025359064 0.0006659457 0.003905832 -0.00018614138 -0.0004383422 0.0036328365 -0.0032536294 -0.0010883561 -0.0006683236 0.00087041635 0.0027149245 -0.003348485 -0.0038825963 -0.0037055314 0.0031686754 -0.0038817879 -0.00038331022 0.0037428548 -0.0035567067 -0.00080201495 0.0021119956 0.00018996806 -0.0014117284 -0.0003747725 -0.0018576796 -0.0024103248 0.003208769 -0.0008700222 0.0030888708 -0.002264475 1.6126241e-05 0.00097588915 -0.002887863 0.00213021 0.00027279832 0.0020352472 0.0029207845 -0.0026263436 -0.0030307353 -0.002627554 0.0014334476 -0.002319837 -0.0021559554 -0.0008998273 -0.00065174483 -0.0014597181 0.0025662752 -0.003679032 0.0036639958 0.0022572188 0.0020274813 0.0028173996 -0.0014347227 0.0021936651 0.002733998 -0.000388517 0.0017223391 -0.0011459365
63 -0.0010628939 -0.002291075 9.940271e-05 0.0008288848 -0.002106357 -0.0025696538 0.0024585745 0.0022897786 -0.0013220594 -0.00012371692 0.001231348 0.0032438484 -0.00093749084 0.003392064 -0.003479813 0.0038636124 -0.0020495558 -0.001090972 -0.0036015657 0.00029295494 -0.0037653602 -0.00017246735 -0.0034229415 -0.002388442 -0.0029420727 0.0018435416 -0.0012146217 -0.0015771866 -0.0014317936 -0.0027065303 0.0030325728 -0.0019028425 -0.0034382197 -0.0017101663 -0.00085624127 -0.0011332972 0.003358503 0.0013495478 -0.001402969 -0.000992697 -0.0035198883 -0.0003787465 0.00074070133 -0.00072850153 0.003611799 0.0019003338 0.0015757183 0.00070246763 0.0004473731 0.001289706 -0.0023474223 -0.0027541507 -0.0037266887 -0.000106772124 0.0017717516 0.0019417391 0.0029011953 0.0026560961 -0.0016717598 -0.003045796 -0.0001531804 -0.0007188615 0.0024149623 -0.0024133741 0.0022714569 0.0027193474 0.000141262 -0.00259319 -0.0009911046 -0.00061150396 0.0026718345 -0.0011293683 -0.0036136718 -0.0015048741 0.0025363038 0.0017098762 -0.0026323753 -0.0005276738 -0.0010146732 0.0008676439 -0.00041430802 -0.00028744893 -0.0014816709 0.00083036214 -0.0011014849 -0.0020638197 -0.0012313225 -0.00039301591 -0.0026393153 -0.0035971976 -0.0021365972 0.0004474299 0.0025934123 0.0013702252 -0.0006302868 0.0023094185 -0.001135673 8.373561e-05 -0.00048567684 -0.0015031699 0.0023467306 -0.00068581355 -0.002121594 -0.0024173944 0.0008012914 -0.0028750848 0.0019483033 -0.0011011204 -0.0029829647 7.8886915e-05 0.0037393812 -0.00065046805 0.0010165848 -0.0026805126 0.0027337123 0.003806222 0.0020358805 -0.00034291358 0.00031375026 0.0012136229 -0.002264902 0.0030971116 -0.0017834656 0.0013249994 -0.003397243 0.00024771472 0.0016140044 -0.0019765499
32 -0.0009912889 -0.002217775 -3.3806366e-05 0.0033099782 0.0022131482 -0.001371512 0.0039053445 -0.0037685344 -0.00018129201 0.0038810046 -0.003567877 -0.00321519 0.0032166159 0.0016260659 0.0012447733 -0.001968177 -0.0032455276 0.0027213304 -0.00082580297 -0.0010115588 -0.0030315141 -0.0011880351 0.0003209978 -0.00012630454 -0.000106747124 -0.0038237844 -0.00028780955 0.002538839 -0.003629981 0.0031525353 0.0023122646 0.0021802126 0.003001307 -0.000835321 -0.0035057047 0.00010970191 -0.00018153922 7.908266e-05 0.0001152784 0.0010834156 0.0019945637 -0.0025796662 -0.00035135075 -0.0019450355 -0.0015180226 0.00027849065 -0.00029159925 0.00088085217 -0.00075915904 -0.0038926601 0.003582866 -0.0012356896 -0.000771467 0.0016399832 -0.0023641845 -0.0023451939 0.0016219044 -0.0010485642 0.0025726564 0.0005856462 -0.0030255888 0.0036704573 -0.0022800309 0.0035382498 -0.0032678929 0.0021880057 5.359202e-05 0.0038038192 -0.0015945184 0.000101492835 -0.003439533 0.0029417656 0.0014329283 0.00063478696 0.00026575642 -0.0012294565 0.002460266 5.0159717e-05 0.0030468458 0.0010489636 -0.0034361037 0.002413384 -0.0032450855 0.00044411942 -0.0038411499 0.002177657 0.0017909218 0.0006257836 0.0022600307 -0.003304161 0.0028968896 0.003542284 0.0011950975 -0.0015963286 -0.001319194 0.0037960643 0.0016020498 -0.0018535543 -0.0023436379 0.0034566494 0.0018105872 0.0027585868 0.0036922144 0.002760913 -0.0009054741 -0.002955169 0.0028230124 0.0027343996 0.0013694932 -0.0011909916 -0.0007147358 -0.0027466826 -0.001819693 0.0006402349 -0.00093703944 0.0012380198 -0.0021383578 0.0017302202 0.0010349128 -0.0012319428 0.0003484586 0.001518399 0.0026297353 0.0009203923 -0.0014841033 0.0019520782 -0.00059555325 -0.0011351625
33 -0.0025427318 0.00098287 0.00376483 -0.0036065106 -0.0029794332 0.0022049525 0.0023332 -0.0030698385 -0.0010874848 -4.9726874e-05 0.0024419983 -0.0033192264 -0.0036039155 0.00013006105 -0.00042013143 -0.0032335336 -0.0004265698 0.002747758 -0.0009070395 -0.0038393063 -0.0016612106 -0.002321098 -0.0019119937 -5.810466e-06 0.0035038698 -0.0037496404 -2.3480654e-05 0.00041444076 0.0013790627 -0.00020302745 -0.00079252786 0.0013474543 -0.0031738363 0.00014679086 -0.0020958008 -0.0035681897 0.00016454757 0.0014729678 0.0014681405 0.00039144963 4.8506576e-05 0.003690622 -0.00052238774 -0.0018948364 0.0008423913 0.0013982491 0.0020761786 0.0033867804 -0.0034193923 -0.00015371194 -0.0018748401 -0.0018636151 -0.0009945048 -0.0014030482 0.0036615867 0.0018393141 -0.0005034964 -0.0011423025 0.0023875283 -0.0032132475 0.0012376095 -0.003690095 -0.0008156865 0.0038844084 0.0017036214 0.0008018835 -0.0026747966 0.0023047444 0.0010561073 0.0003465632 0.0025123411 -0.0024934104 -0.0014860685 0.0027518547 -0.001378854 0.0019007395 0.0031557227 -0.0004884176 0.00041798066 0.0022043537 -0.0021459977 0.002346345 0.0006812121 -0.0032595175 0.0012528689 -0.0028992123 0.0015163608 0.00089115876 0.00081049366 -0.0022010044 0.0025094426 -0.00021102499 0.001007671 -0.0012581376 0.0030008547 -0.0019094934 0.003235795 0.0037099065 -0.0016764558 -0.00013320125 0.0026265054 0.0015808066 -0.0035760966 0.00076080585 0.0031638644 0.0002886881 0.0013965587 0.00020156178 0.0018618837 -0.002911101 -0.001009641 0.003395116 -0.0003485 -0.0016798185 0.00047293628 -0.0008441106 -0.002929068 -0.0019914133 -0.0024896627 -0.0016708199 -0.0011801468 -0.0018252782 -8.622522e-05 0.0020916963 -0.0025653737 -0.003348119 -0.002489249 0.00096622336
78 -0.0037611797 0.00011455909 0.0014750022 -0.0019429717 0.003678799 0.00077019806 -0.0023285586 0.0028076472 -0.0019930713 0.0026108804 -0.0008824853 0.0021950214 0.0037297662 0.0018000182 -0.0033722587 0.0011190459 -0.0010427475 0.0019613907 -0.002760364 -0.0034763988 0.0015837483 0.0032746245 -0.00020173275 -0.0006203135 0.0034257628 -0.0010089952 0.0019216298 -0.00016100174 -0.0012894609 0.0016249153 -0.0019621348 0.0014159926 -0.0038947659 0.00049203914 0.0015755224 0.0036606265 -0.0010254561 0.0038821811 -0.0024173232 0.0029067001 -0.00011437939 -0.0020665324 -0.0027886322 0.0030726304 0.003352888 -0.0011074046 -0.0035048963 -0.00094645226 0.000326267 -0.00030662428 -0.0018996773 0.0032279405 0.002242161 0.0007355992 -0.0004804047 -0.0015604254 -0.00020665185 0.0034030213 -0.0037943488 0.0034714262 -0.00057181355 0.0013629476 -0.0036629026 -0.0020086935 -0.0030938971 -0.0024772405 -0.0017599234 0.0024823344 0.003565779 -0.0003452413 0.0026661255 0.00034738047 -0.0011785842 -0.0017552632 0.0013380082 0.0018920557 0.0007287598 -0.0009610655 -0.0005553209 0.0030886247 7.1814924e-05 0.0026189897 -0.0034282964 -0.0033258558 0.0025317487 0.0008418434 0.0029981541 0.0003367525 -0.0029770713 -0.0026021725 0.0009989144 -0.0026124415 0.00018240378 -0.0031624446 0.0015357984 0.0038821404 0.0032544867 0.0029457957 -0.003057376 0.0025753013 0.0031839055 -0.0016609922 -0.00014194168 0.00024565205 -0.0035109022 0.0022908358 0.0016850702 0.0030241306 -0.00015668069 0.0017715183 -0.0001835909 -0.00383216 0.0008850491 -0.00015123267 -0.0019273673 -0.00035497386 0.0027735701 0.0003256643 -0.0012522885 -0.0026069218 0.0037117938 -0.0031232974 -0.00089720485 0.0027739545 -0.0026883641 -0.00081372354 0.002401693 0.000110465844
18 -0.0005394286 -0.0036255347 -0.0034368683 -0.0034175904 -0.0030308627 7.469458e-05 0.0005728609 0.0028671687 0.001166656 0.0010655051 -0.0032780108 0.0012445056 -0.00092958007 0.00090702117 -0.0019267641 0.0013914976 -0.0019090554 0.0015413708 0.0029437612 -0.0012420303 0.0017434758 0.0020678889 6.749099e-05 0.0026263166 0.00030360773 -0.0021471025 -0.0026141054 0.003026846 0.00089706486 -0.0035470482 0.0014191644 -0.0015593023 0.003791707 -0.0011437105 0.0032242893 0.000801829 0.002924579 0.0024341363 -0.0007546441 0.0028518867 0.0037509291 0.0017255751 -0.001133517 -0.0028497116 -0.0037121437 -0.001244035 -0.0021791994 -0.003437112 8.428042e-05 0.0022236751 -0.001538379 0.0029185133 -0.0018262324 -0.0035051636 0.0027512053 0.000659255 0.00024775334 -0.0021988268 0.0004874507 0.00057734834 0.0029964251 -0.0017691287 -0.0029839291 -0.0036891247 0.0027639172 0.00252339 -0.0029369576 -0.0021438992 -0.00016685939 -0.0029177829 0.0025227715 -0.0038916336 0.0015943183 0.002956065 -0.0009759033 0.002986559 -0.001185046 0.00095946493 -0.0021000446 0.0016706242 0.0022484006 -0.002738082 -0.0011855788 -0.001885252 -0.002021253 -0.00032921563 -0.003003995 -0.00017789405 -0.002514371 -0.0022029807 -0.002743716 -0.0017718006 -0.0025302828 0.0016219663 0.00075532804 -0.0010929387 0.0029057597 0.00074017677 -0.002829373 -0.003809876 0.0036441274 0.0017481466 -0.0013720097 -0.0017518533 -0.00081367453 0.0017490402 -0.0027038946 -0.00010697639 -0.0028684859 7.350136e-05 -0.0014111208 -0.00032410803 0.0017758544 -0.0038137543 0.0032908497 0.003270783 -0.0027766258 -0.0028163986 -0.001760111 -0.0004236143 0.0029302835 -0.0022951672 0.003688283 -0.0024401536 -0.0011057976 -0.0018374356 -0.0016249145 -0.00021501414
11 0.0018361788 -0.0031034332 -0.0021259494 -0.0023962138 0.001618916 0.0037513 -0.00056872395 -0.003537311 -0.0007616469 -0.002430727 -0.0037286251 0.0022900735 0.002747442 0.0002510188 7.020009e-05 0.0022668722 0.0020795097 0.002054115 -0.0010142493 0.00025301846 -0.0022983484 0.00077060907 0.0026472923 0.0022343893 0.0028272236 0.0017314497 0.0026750178 0.003074927 0.0034211401 -0.0024313813 0.0023442945 -0.0029747824 6.0372106e-05 0.0009513818 -0.0025076966 -0.0037915288 -0.0021807528 0.00028126326 -0.00040402668 -0.0038550224 0.0005642942 0.003212628 -0.0019599162 -0.0024093462 0.001541473 0.0025659483 -0.00027155087 -0.0031783066 -0.00358101 0.0002059217 0.0009390058 0.0033165386 0.00025951295 0.001209374 0.0024317747 -0.0037958464 0.0033426515 0.0024567288 -0.0009205373 -0.0015154935 -0.0015933868 -0.0015799507 -0.002747349 0.00056693406 0.0025937574 -0.0014242873 0.0033987057 -0.0012649004 -0.0025077385 0.0032608642 -0.0031376171 0.0019462797 -0.0006564803 0.0034364413 0.0021030605 -0.0019225025 -0.0029869329 -0.0007377212 -0.0011489158 -0.00015099018 0.00018984922 0.0025827093 -0.0005097168 -0.0032646293 0.0018615768 0.003101423 -0.0014269839 0.0001935072 -0.0028151593 0.00027677236 0.0032134466 -0.0010918898 0.0024722966 0.0021882395 0.0016459834 -0.002947094 -0.0017305018 0.002213285 0.0021196574 0.00067266455 -0.0017085302 0.0023658297 0.002905565 0.0026547203 0.0033787836 0.0019763545 0.0018217004 -0.002521789 0.0032173225 0.0006558467 0.0030179617 0.0009829007 0.003626342 -5.9207607e-05 0.00060817937 0.0017206147 0.003015685 0.0034223285 0.0033120364 0.0003107755 0.0030880517 0.0038667643 -0.0035811611 0.00016113953 0.0010800315 -0.0018923384 -0.0034680087 -0.0003702992
17 0.0007458319 -0.0009327099 -0.00086727226 0.00034436985 0.00048929633 0.0020380002 -0.0033892137 -0.0011368301 -0.0025166434 -0.0018838287 0.0014219171 -0.0026405437 -0.003900601 0.00014396672 -0.0029051944 -0.0023481848 -0.0029989607 -0.001677014 0.0025187267 -0.00020119642 -0.0005000609 0.0035951948 -0.0014076887 0.0033632573 0.001234445 0.0037332352 0.0018621155 0.0011991994 0.0024294544 0.00071730977 0.00272202 -0.0021388624 1.9075962e-05 0.0015128409 0.0011467481 0.00050255714 0.0034691137 0.0038015929 -0.0009040448 -0.0037885176 0.0008594999 -0.0032799274 -0.00149206 0.001515376 0.0011675056 -0.0037928051 0.0023484859 0.002761889 -0.0038148498 -0.0015112108 -0.0011269613 0.0025674987 -0.0010763602 0.0010739395 -0.0021026512 0.0032701984 0.0034020713 0.0012903989 0.0026549106 0.0029179663 -0.0017901717 -6.518888e-05 0.0033590582 -0.0036296123 -0.0027627181 -0.0023105834 0.0025559922 0.0026537273 0.0031178659 0.0037870666 -6.534686e-05 -0.0019219335 -0.0033339118 0.0032802164 0.002858369 0.0021924062 -0.0023381691 0.0037565762 0.0017234457 0.0034976087 -0.0034373398 -0.0015515956 -0.0033979218 0.00046977412 -0.0030813364 -0.001748294 0.00038982037 0.0013708286 -0.00049377664 0.00309673 0.00084486033 0.0038860438 0.0027901358 -0.0021782606 0.0010526339 0.0025788052 0.00031339662 0.003159935 0.0025626488 -0.00030061766 0.0029613883 0.003362928 0.003117951 -0.0022523208 0.00074524514 -0.0010135131 -0.0026378934 0.0024246606 -0.0035791548 0.0015629014 0.0034060862 0.0022713686 -0.0019879004 0.0020709673 0.0005014318 -4.451585e-05 0.0029411984 0.0028980814 0.003718108 0.0022453275 -0.003165403 -0.0037578836 0.003423135 0.0027662513 -0.0035006658 -0.0038905076 -0.0016841204 -0.0015143304
52 -0.0035889766 0.0022566963 -0.0028301713 0.0010237838 0.0021843582 0.0022114199 0.0029008614 -0.0013626819 -0.003669006 0.00045547687 0.0016800431 0.0017514657 0.00050785614 -0.0028636784 0.0031635403 0.0013434229 0.0024124575 -0.0026462753 -0.0009719619 -0.0029496588 -0.0035380966 -0.0036967155 -0.0021158655 -0.00076546194 -0.001158946 0.0014646556 0.0009431879 -0.0028293391 -0.00242515 0.00012554441 -0.0016842964 0.0014166329 0.0017849306 -0.003041177 0.0019225745 -0.0020167492 0.00014263007 0.0018169205 -0.0015455594 0.0024221716 0.0009069686 0.00051808654 0.0019921858 -0.0005795963 0.0025096522 0.00084610074 -0.0010985675 -0.0031626804 -0.003545983 0.0016621322 -0.00045009516 0.0029958743 0.0008181783 0.0006254076 0.003331384 -0.000820462 -0.0028661296 -0.0025575592 -0.0007687194 0.0020167173 -0.0031090588 0.0036140818 0.0027767182 -0.0024662868 -0.0026091721 -0.0018596404 0.0015691328 -0.0018891903 -0.0022972883 -0.00032521412 -0.002641097 0.0024242816 -0.0036370838 -0.0012543577 -0.0030856074 0.00019458658 -0.002312822 0.0034395729 0.0035068777 0.003048964 -0.0038545923 0.0028153786 0.0021241724 -0.00053151604 -0.0011449463 0.0021227826 -0.0038203513 -0.0020623263 -0.003117317 0.0037000452 0.0035911258 -0.001462178 -0.00086468563 0.003573954 0.003292698 -0.0017995723 0.0004879759 0.0020799749 -0.0015844144 0.00086576183 0.0037348839 -0.0015465479 0.00038845875 -0.0038799779 -0.002003306 -0.0008887509 0.00309044 0.0032023664 0.0026780418 -0.0019597146 0.002442773 -0.0029996492 -0.0030433417 -0.0036643005 0.0015780923 0.0012627066 -0.0031708041 0.0012576046 -0.0025562516 -0.0034870869 0.002359341 0.00045697595 -0.0033039956 -0.002202788 -0.0013627053 0.0029528304 0.0026350163 0.0006757263
69 -0.0016600183 0.0004934988 0.003677208 0.0018588974 0.0015285007 0.0021937557 -0.0033185773 0.0021759802 0.0007646136 -0.0020474277 0.0016172538 0.002152866 -0.0018815522 -0.00040313485 -0.00324782 -0.0033903995 0.002781993 -1.0972041e-05 -0.00011144676 0.0027196624 -0.0016371985 0.0033182488 0.0018856406 0.0014144079 -0.0019025097 -0.00016838379 8.946796e-05 0.002108545 0.0038344103 0.0038635363 -0.00013904822 -0.0007426311 -0.0033268342 -0.00314068 0.0012504747 -0.0005153096 -0.0024842627 0.00075953215 -0.0013703872 0.0012294272 -0.0016555642 0.0018363642 -0.0013712387 -0.0016412399 -0.002303941 0.0003076956 0.0031120563 0.0014451361 0.001544345 -0.003127976 0.002873182 -7.543366e-05 0.00027369274 -0.0017368916 0.0031991082 0.00030928818 -0.0016123896 -0.0027384358 0.0006051051 0.002344768 -0.0009825736 -0.00080760673 0.00066226686 0.00011036272 -0.00055697985 0.003819329 -8.679891e-05 0.0017885717 0.0015036749 0.0009337885 -0.0007985144 -0.0004130454 0.0038615768 0.003068986 -0.0005985708 -0.001302648 0.0015524091 0.0019251007 -0.0020316942 0.0010084409 0.0026819375 -0.0024842662 0.0010876439 -0.002193747 -0.0012198791 -0.0037105547 0.00350874 0.0035819549 0.0038851586 -0.00044571294 -0.0038655475 0.0030141969 -0.000644684 -0.0018362007 0.0025810478 -0.0032039783 0.0015321648 -0.0030146404 0.00080140034 0.00059308024 -0.0038795 -0.00141097 0.0026771906 0.003002097 0.0011244125 -0.00012295035 0.0004303137 0.0022937874 -0.0024095443 -0.0034628166 -8.4074185e-05 0.0033309998 0.003822913 0.0005823198 -0.0033082033 -0.0012833986 -0.0015592402 0.0026300023 0.0003481527 -0.0034516861 0.002226416 0.0020549938 0.0018143648 0.0038351216 -0.002941717 -0.0010003743 0.0038044085 0.0031351862
81 0.003430206 0.0036940682 0.00039733734 -0.0001127374 0.0027066707 -0.0018725762 -0.0019473288 -0.0015271999 0.0035459085 -0.00076060893 0.0018391309 0.0024162235 0.00063728326 -0.00027422953 0.0029447507 -0.0005066727 0.0005281952 0.0024915282 -0.0016274179 -0.0025176958 0.002272894 0.001744951 -0.0029282623 -8.87558e-05 -0.00084805285 -0.0028838667 -0.0033959043 -0.0001298897 -0.0021122566 -0.00037416272 0.0038816389 -0.0012703247 -0.003801901 -0.0019379837 -0.0025136953 0.00012859653 0.0031985787 0.0036559016 -0.0028197712 0.0019483784 -0.002878076 -0.003196154 -0.0037747906 0.0010916884 -0.00022229143 0.0017396488 -0.0011235531 -0.00032810066 0.00024775206 -0.0015277604 0.003860214 -0.0022487408 0.0029720368 0.0029084126 -0.0006856885 0.0006079565 -0.0007513682 -0.0021004174 -0.0015820888 0.0011038856 -0.0038127897 -0.0002338882 -0.002179137 0.00048791495 -0.0008829177 0.00048272262 0.00095894636 0.0033396154 -0.0031427264 -0.0017177342 0.0018980165 -0.0020912383 0.0022596056 0.0015838515 -0.003260332 0.0012235454 -0.0035577677 0.000999477 -0.0027186351 -0.001857925 -0.001428301 -0.0038711766 0.0033954217 -0.003278813 0.0008981366 -0.0016435268 0.001085953 -0.00074501935 0.0027125936 0.0011551465 0.001558819 4.902056e-05 -0.0017017339 0.0024540874 0.0008555169 0.0005403501 0.0037764236 -0.0035601805 0.0038413526 0.0026361553 -0.0023006022 -0.001950008 0.0024761348 -0.0012909049 -0.0032399993 -0.00032625615 0.0004304268 -0.0038814284 -0.0029145223 0.0019036679 -0.00030110305 0.0023411564 -0.00024065243 -0.002676097 -0.0038349796 -0.0026248859 0.0024556632 0.00032892896 0.0034010904 0.0011768553 0.001064079 -0.00295627 -0.00031071142 0.0015799839 -0.001038851 -0.00066460273 0.0025991476 -0.003437832
42 -0.0021677369 0.0015158079 0.0019382061 -0.003231542 0.0028378472 0.0037448753 0.0008243817 -0.0004798642 0.0021587461 0.0014380874 -0.0035468282 0.0031222461 -0.0019148467 3.2330685e-05 -0.0037039462 0.00012938921 0.0029874307 -0.002977877 -0.00046884178 -0.0023414223 0.002558542 -0.00017916797 -0.00094166613 -0.00012534282 -9.748274e-05 0.0034310129 -0.0004552658 -0.0015262286 -0.0014130595 0.00067170686 -0.0033191436 0.0015707636 0.002008824 -0.0012346309 -0.0006042153 0.0031417652 -0.00030812208 0.0031477376 -0.002001313 -0.0033044976 -0.00058776024 0.0031956653 0.0022763093 0.0011665047 -0.00030961912 -0.0031095003 0.0032412286 -0.0007021108 -0.001708433 -0.0024075455 -0.0003313938 0.0019416468 -0.0018128734 0.000438913 -0.0024612076 -0.003795809 0.00092582975 -0.0031966802 0.0007802389 -0.0039000397 0.0012148481 0.0036523337 0.0023457655 -0.0035959291 0.0013800834 -0.00080444344 0.000450172 0.0018050208 -0.0030856524 0.0015387444 -0.0015818486 0.003872188 0.0009675101 0.0035327096 -0.0024912572 -0.0021413588 0.001589895 0.002533076 0.0038736314 -0.0026656082 0.0004916966 -0.00085264666 -0.0013230235 -0.0032030756 0.0029224337 -0.0013319191 0.0011664818 0.0021811144 -0.0033700217 -0.0027436153 -0.00054389983 -0.0024136722 0.0021409884 -0.0036479796 0.0010389772 0.0017828168 -0.0018634215 -0.0024686605 0.0031408116 -0.0032959508 -0.0022879397 0.00090869074 0.003540856 -0.0016895372 -0.0032980812 0.0035430775 0.0019161099 -0.0006507896 0.0028425646 0.0030289355 0.002898128 -0.0026647453 -0.0012463772 0.0029322163 -0.0012997753 -0.00053656043 0.0010120473 -0.0028782522 0.003627709 -0.002473816 0.0035856406 0.0016747931 0.00086384977 -0.00024894424 -0.0038429755 -0.0019624298 1.2395146e-05 0.0028306833
67 0.0017643134 -0.00038528073 0.00044198608 -0.0018023684 0.00085248705 -0.0035293903 -0.0030552638 0.0028754082 0.0018273648 0.0033790953 -0.0011978323 -0.00052497454 -0.0015331665 -0.0017705787 -0.001612739 -0.0033762439 -0.0031779534 -0.0031333752 0.00135982 -0.0011268022 -0.00060027745 0.0022168278 -0.0020263067 0.0013184138 0.0005697755 0.0036587368 -0.0019696788 -0.0012762394 0.00069752586 -0.0029716021 -8.726511e-06 -0.00018931791 0.002930575 -0.00048489717 -0.00056281325 -0.0009234213 -0.001647848 0.00017652252 -0.00011227048 -0.0010488417 0.0014851408 0.001984007 -0.0013228934 0.00037533388 -0.0011667053 -0.003121429 0.0034991668 -0.0027886897 -0.0006629836 0.0027521858 0.0022249566 -0.0025810418 -0.0032735202 0.00093548815 -0.003146506 -0.0017771325 0.0013856713 0.0007036162 0.0028986514 0.003705518 -0.0012871699 0.0028257498 -0.002512746 -0.0020520322 0.0019571064 -7.875858e-05 -0.0017036811 -0.0020928134 0.0034926762 -0.0016149355 0.0012553516 0.0032222737 9.784394e-05 0.0029306265 0.0032482466 -0.0038674066 0.003188253 -0.0006977059 0.0013686414 0.0012413048 7.0785965e-05 0.0029105542 -0.0019627695 0.0007185749 0.0023728763 0.0006722293 -0.0034571006 -0.0012373105 0.0026823538 -0.0030307865 -0.0014626635 -0.002502981 0.0028993296 0.0015746267 -0.0020843537 -0.0034184402 -0.0039062381 -0.001970202 0.0029837727 -0.00016716354 0.003196308 0.0014326664 -0.0033065793 0.0014985492 0.0018638766 -0.0016915738 0.00072073465 0.0020269433 0.0024810329 -0.0025215677 0.002814585 -0.0032153917 -0.0018340354 -0.0029261685 0.0018514716 -0.00073297863 -0.0038109985 -0.00018734625 -0.0023371263 -0.0024611566 0.00030385214 -0.00076717185 0.0014719119 -0.002514828 0.00035034478 0.00024908502 0.0026107351 -0.00088771194
9 -0.0019421368 -0.0004180536 0.0017569587 -0.0037537294 0.0033659707 0.002821343 0.0018100669 -0.0035367978 -0.0031785804 -0.0024274238 0.0006947401 -0.0020328595 0.0038602836 0.0011073715 -0.0013163518 -0.0017249836 -0.0036761519 -0.0018822714 0.0025693208 -0.00028358444 -0.0009799361 -0.0018854898 0.0014641582 -0.001441377 0.0013727861 0.0032660393 -0.0018252877 0.0018739577 -0.00096449774 0.0035193868 0.003864524 0.0031049314 0.0021108727 -0.0013701088 -0.003330569 -0.00128221 -0.0022154753 0.0012739724 -0.0038974567 0.0013134867 0.00055055413 -0.00046517877 -0.003221675 -0.0014482212 -0.00092595734 -0.0020266497 -0.00027312766 5.3883556e-05 -0.0021106086 0.0021556674 -0.0024182925 0.0013003306 0.0026645083 0.0023138097 0.0011648628 -0.0010659243 -0.0019857287 -0.00096197927 -0.0027971205 -0.0021852304 -0.0009769719 0.0022167764 0.0019901749 0.001041846 -0.0031260075 -0.0027833935 -0.003550032 -0.0032674486 -0.0020843237 2.8352766e-05 0.00042604769 0.0038908166 0.002618129 -0.00091769866 0.0001267529 -0.00091142865 -0.0005687309 0.0006066578 -0.0007688269 -0.0024528808 0.0014256091 0.00183821 -0.0025778129 -0.001328175 -0.0012379495 0.00017688925 -0.0004261811 -0.0034878894 0.0030390646 0.0006441386 -0.0022537378 -0.0016755848 0.0017352896 0.0008586394 0.0007893658 0.0031312976 0.002854094 -0.0014995898 -0.0014182952 -0.00087638973 0.0017488789 0.00081153464 -0.0033450467 0.0030584345 -0.0018988304 0.00057476386 0.002680887 -0.0002639843 0.0017590505 0.0020344653 0.00024200407 -0.0011622204 -0.0021749719 0.00060401333 0.002043581 0.0027372865 0.0019158171 0.003785692 0.0008689066 -0.0019167572 -0.0035919372 -0.0023178768 0.0018070015 -0.0003443749 -0.0020431736 -0.0019775182 0.0005438518 0.0028364009
30 0.00048570582 0.0012747257 0.003873606 0.0013854847 0.002196232 0.0021044456 -0.0012065653 0.002819485 0.0011709788 -0.0013262846 0.0031156382 -0.0021920803 0.0015350657 -0.0022939811 -0.0014950696 -0.001602138 0.0033650883 -0.00023654722 0.002504209 -0.00056917727 -0.0034441275 0.0034489399 0.002904085 -0.0021627815 0.0022199538 -0.0019132148 -0.0029783912 -0.0031907496 0.002078042 -0.002947707 -0.00365217 -0.0038214896 -0.0028641096 -0.00096269953 -0.003661836 0.0008364773 0.0037012508 0.0008023882 0.0024759956 -0.0026797545 -3.30262e-06 0.0037835287 0.0017659311 -5.3682783e-05 -0.0009100381 -0.0013331772 0.0026060345 0.0038375189 0.00036734669 0.003377129 -0.00064082525 -0.0026007 -0.0028500059 0.00032501627 -0.0027256228 -0.0006461637 0.0037125023 -0.00013071284 0.0037219075 -0.0021618502 -0.0015148858 0.0010468133 0.0033825806 0.0015093606 0.000889516 -0.00086392154 -0.0024236636 -0.0006941447 0.0027450942 0.000860882 -0.0016795598 0.0002507954 -0.00020234365 -0.003365555 0.001676139 -0.0038860685 -0.002573525 -0.0020692556 -0.003861877 -0.0020773697 0.0011514935 0.0034899884 -0.0029148166 -0.0011913982 0.0018568407 0.0024140547 0.0028625752 0.0030511615 -0.0028187803 0.00097491546 0.0038709845 -0.00047165342 0.0013583878 -0.00024834738 0.0014047859 -0.0024609817 0.0031294778 0.0015928514 0.003106 0.00080004346 -0.003373166 -0.001961695 0.002877114 0.0028470426 -0.0010653257 -0.0030163918 0.0020886243 0.0038170225 0.002794525 0.003053415 0.00066111254 0.0014185476 -0.0020993701 0.0015868291 -0.002241392 0.0019528026 -0.0003550262 0.0011526386 -0.0028500299 0.0035606923 0.0012572065 -0.00038928888 0.00030063407 -0.0037474341 0.003332601 -0.0032568162 -0.003825108 -0.002540135
59 -0.0005495557 0.0024697871 -0.0029531156 0.003200024 -0.0015044091 -0.0013936535 0.0035123539 -3.372891e-05 -0.0026243203 0.00061462366 -0.0019244706 -0.00045428978 0.0036992738 -0.0032915885 -0.003254521 0.00017844488 0.0038813287 -0.0020403557 -0.003763105 0.0012537532 0.0012571089 0.0014077912 -0.0005306107 -0.0008783561 0.0014561354 -0.001596335 -0.00014910447 -0.0010307616 4.539384e-05 0.0037423698 0.0034321211 -0.002787223 -0.003054828 0.0005583455 0.00025439594 7.329105e-06 -0.0014977333 -0.00096543034 0.0008485506 0.00043349742 0.0008288549 -0.0036056344 0.0021690323 0.00025164828 0.0007703031 -0.0017040927 0.002976834 0.0023921991 0.00030293892 0.0012373853 -0.0014832107 -0.0023009542 -0.0017214649 0.001948179 -0.00020485409 0.002072022 0.0019209455 0.0010183763 0.0027660383 -0.0005097764 0.0030799496 -0.0010702524 -9.2608876e-05 0.0023641977 0.0012675527 -0.00085081067 0.0031926995 0.000929966 0.0034082746 0.0021273303 -0.0015908203 -0.0026209806 -0.0024583575 -0.0024610162 0.00022300686 -0.0032409567 -0.0018667127 0.0036558176 0.0032992265 -0.0028168631 0.0030016508 -0.0023701775 -0.003240459 -0.0021237773 -0.003793074 0.0030474463 -0.0029308985 -0.00031271807 0.0034034746 0.0003349451 -0.0010273881 -0.00060505513 -0.0036694403 0.00061183015 -0.0020290262 0.0028918225 0.0023404118 -0.0024173884 -0.0008440762 0.0023596527 0.0025735013 0.0024619487 -0.00040740857 -0.0037555622 0.0033613292 -0.00023278338 -0.000688897 0.0005261937 -0.0034911842 -0.0026137123 0.0027628646 0.0011650505 0.0016193198 0.0021529307 0.00040850256 0.0030640184 -0.0034244335 0.0003603502 -0.0037017784 -0.00029817323 -0.0015424063 -0.0013738219 0.0024988663 -0.0007004762 -0.0037282654 0.0025315774 0.0007821289 0.0038339042
38 -0.0032226127 0.0031645906 -0.0018452376 -0.002519596 0.0037051954 -0.0017135891 -0.00038493937 -0.0012030847 0.0019801052 -0.0027900669 0.0032422128 -0.0019822642 0.0038484707 -0.003102366 0.0015296725 -0.0031009712 -0.0007786344 0.002027001 0.0035250862 -0.0013898693 -0.00029304594 0.0025396505 0.002740838 0.001865421 0.00070563995 -0.0014043482 -0.0010574824 -0.0022111393 -0.0030572577 0.00048012336 0.0028851908 -0.001550489 -0.0018523703 -0.0034969558 -0.0020812566 0.00063874567 0.0021423388 0.0025200322 0.0010563665 -0.0011254625 0.0016164255 0.00035051722 -0.0018987177 -0.0012169281 0.0004543067 -0.003764332 -0.00010723806 0.003152606 0.00076315214 0.0017962094 0.0034108888 0.0034663267 0.0037979018 0.0026578242 -0.0016439453 0.00063703494 0.00089745596 0.0032148897 -0.0021585973 0.0031393503 0.0011278837 0.0013113585 0.0023345314 0.00027653543 -0.0022689335 -0.0023952806 -0.001263935 0.0008450863 -0.0016046909 0.0014397866 0.0011529454 0.0026968354 -0.0034372283 0.0021852993 -0.0018906051 0.0022166586 0.0010956713 -0.0021585817 -0.0028940816 0.0025268449 -0.0038709454 0.0025531647 -0.0015368166 -0.0013149554 -0.0025989104 0.0012833171 -0.002621414 0.0014151765 -0.002140025 0.00024058182 0.00040979063 -8.290343e-05 0.0029256965 0.001619171 -0.0009724799 -0.0013755457 -0.0033316994 0.0037768693 0.0011563156 -0.0014680391 -0.0023422458 0.0036132296 -0.00034567036 0.001912113 0.0032170196 0.0021441716 0.0006997822 0.0035047296 -0.0007170931 0.0025835412 0.003755005 -0.00046819515 0.0035940781 0.0012456126 0.0017037748 0.0011881448 -0.0037282726 -0.003171523 0.00020828874 0.0027432956 0.0036011213 -0.0037602512 -0.00061953376 -0.0024308427 -0.0013825565 0.0012167986 0.00043431096 0.00094681635
8 -0.00048534706 -0.0011103629 -0.0011501628 -0.0034251413 -0.003006552 0.0013751447 -0.0032642146 -0.00033682742 0.003882507 -0.0034332462 -0.0020770703 -0.00051851256 -0.0021366705 0.0015207805 0.0020226636 0.00077142357 0.0033676217 -0.0007846648 -0.0003370681 -0.0024709338 0.0032279354 0.00012366794 -0.0009801639 -0.0015188296 -0.0016176384 -0.0013157589 0.0029579937 -0.0022230044 -0.0016709625 0.0035857628 -0.0020241411 -0.000927029 0.0033312675 -0.0013357576 0.00092848524 -0.00072803826 0.0015160877 -0.0012477055 -0.0017961698 0.0012179732 0.0024701718 0.0005247707 0.0032733653 0.0016796422 -0.0017469757 -0.0004781292 0.0022043644 -0.0006523995 0.0029532043 0.000610868 0.0002061543 0.0010775275 -0.0008443768 0.0006296922 0.0030487336 0.003697869 -0.0017690526 -0.0016224956 0.00093578163 0.002430791 -0.00017701364 0.0022705158 0.0011685789 0.0037975046 -0.0008678711 -0.003514359 0.0031094032 -0.0018353242 -0.0024204028 0.00341398 0.0038668716 -0.0014533704 0.00030459152 2.4329205e-05 0.0026914726 -0.0025366892 -0.00030232652 -0.0011804963 0.0018534693 0.0029730145 0.0018358206 0.002856711 0.00081085885 0.002928782 -0.0006146243 -0.00015929977 0.0026447705 0.0026726746 0.0013489479 0.0012483438 -0.0032346856 0.0019239215 0.0021430466 -0.0028108007 0.0015823873 0.0015629125 0.0024475001 -0.0034405745 -0.002435546 0.000965573 -0.0017190438 -0.0028730892 -4.2195912e-05 -0.0028691918 -0.00048231508 -0.002063507 0.0021205733 0.0016404004 0.0028471127 -0.0018441834 0.0013364477 7.303997e-05 -0.00048558047 -0.0017391096 -0.0025714503 0.0037739933 0.0005349609 0.0026233725 3.2726846e-05 -6.8237576e-05 -0.0019887977 0.0019895495 0.00014372852 0.0035740414 0.0037826197 -0.003362342 0.0019236791 0.0017246371
72 -0.0017456753 -0.002123465 0.0032845505 -0.0028516883 -0.0014370191 0.0018107516 0.002467112 -0.0020936455 -0.003401534 0.0027716423 -0.001428103 -0.0032008875 0.0007407376 0.0022880645 0.0031742644 -0.0034581153 -0.0014766951 0.0027281255 -0.0014505148 0.0008720219 0.0023902454 0.0010350305 0.0020166133 -0.001999713 0.0016580562 -0.0035541088 -0.002774819 -0.0034340401 -0.0030818174 0.0012703167 0.0010856822 -0.0036721681 0.0030299672 -0.003399372 0.00206786 0.0017743751 -0.00069438445 0.003326296 -0.0025354293 0.002626193 -0.0021159705 0.002410904 -0.0024219411 -0.001178509 -0.0021826236 -0.00019214887 -0.0025747693 0.0027282257 0.0015152365 0.0026890056 0.00040582326 0.0025277922 -0.0026467722 0.0006540107 -0.001927477 -0.0021664156 0.0022165545 0.0013983368 -0.0028224778 -0.0032078135 0.0016762943 -0.00031219402 -0.0013310937 -0.0006486198 0.0015927954 0.0032498892 0.002999124 -0.0004280309 0.002194993 0.0023255367 0.003896696 0.0027465108 -0.0016538627 -0.00062894274 -0.0016381732 0.002340015 0.0029468613 0.0032032393 0.0035970379 -0.0024402111 0.0026928857 -0.0029581832 0.00140677 0.0028379073 0.0036156839 0.0019046583 0.0012870303 -0.0010153826 0.0024588564 0.0032826595 0.0014551305 0.003826468 -0.0026160497 0.0019299327 0.002625661 0.0022111207 -0.0032168084 -0.0015368304 0.003688904 -0.002189841 0.0023475783 0.0005208054 0.0023634026 0.000998539 0.0038416176 -0.0038964776 -0.0027653463 0.00063041743 -0.0032821111 0.0014668589 0.001874663 0.0013378205 -0.0035884024 0.003512243 0.0022158232 -0.001989522 0.0029793445 3.5360533e-06 -0.0036027431 -0.0005515834 -0.0015305728 0.0027304648 -0.0011154505 0.002351609 0.0032104468 0.002022982 0.0022837503 0.0027623656
84 0.0017186925 -1.6514197e-05 0.0034640112 -0.0010289866 0.0004788201 -0.0008018361 -0.00048427007 -0.0016250375 0.00046017853 0.0030386215 0.0007229488 -0.0037002473 -0.0015608073 7.423594e-05 0.0018544142 0.00091784174 0.0017727489 0.001515437 -0.0021760557 0.0033952822 -0.0031227402 0.0037746483 -0.0037786604 -0.0018692792 0.0024065247 -0.00034871508 -0.00045770404 0.0008675424 -0.0024130652 0.0014923587 -0.0031439979 -0.0014356911 -0.0016009538 -0.0034058914 -0.0035314788 0.0030914787 -0.00016993377 -0.0033609977 0.0017983295 0.0012533286 -0.003127142 -0.0006596733 -0.002698868 -0.0008406329 -0.0025309762 0.0023968644 -0.0016681443 0.00074690004 -0.0017476938 -0.0012926403 0.0032461588 0.0004473318 0.00070980634 -0.0006112148 0.0011306575 -0.0006675038 -0.0029511424 -0.0009609316 0.003295433 1.1462214e-05 -0.00047343815 -0.00023818025 0.00039599743 0.0012892754 -0.0025378638 -0.002108732 0.0033924235 -0.0030206419 0.0027601384 0.0022986645 -0.00029654714 0.0015117531 -0.0028450238 -0.001286306 0.0030351265 -0.0036191868 -0.0038884329 0.0036323243 -0.0024909994 -0.001368641 -7.3168434e-05 -0.0028679636 0.0014436424 0.0020032588 -0.0032240183 -0.003051266 -0.003897603 0.0013598907 6.7668e-05 0.0033809897 -0.0019139663 -0.000110346205 0.0038903602 0.002254829 -0.0036721833 -0.0038905626 0.00033179458 -0.001703127 0.0022865753 0.0012653036 0.0024901 -0.0022583543 -0.0010479653 0.0023287672 0.003549862 0.0005324648 0.0026373775 -0.003230669 -0.0019119653 -0.0014791278 0.0009239514 -0.0030422509 -0.003824002 -0.0034574335 0.00075732596 0.003152181 0.0023053691 -0.003177976 0.0007536859 -0.0027045198 0.0003830884 0.0028195796 0.0018765092 -0.0008576779 -0.0020626362 0.0016802802 0.0002967467 0.000110183755
12 0.0018491765 0.002526832 -0.002385541 0.0007241851 0.0005881768 0.0038599737 0.00028617587 -0.001893971 -0.0005610236 0.0013066366 0.0015901957 -0.0029128278 0.0037684755 0.00046854568 -0.0024148761 0.003112946 0.0023882498 0.003243226 -0.0007289647 -0.0014718063 0.003634066 -0.00042444287 -0.0025286633 -0.0017936906 -0.002413073 0.003050514 -0.002757991 0.0014016703 -0.0008713857 0.0033554018 0.0028699222 -0.0019615071 0.0011229402 0.002694758 -0.0016105002 0.0032236602 0.0033626019 0.003234486 -0.0022402299 0.0008465867 -0.0017939456 0.00045557332 0.0003740804 0.001542304 0.0019590743 -0.0012330574 -0.003300962 4.78309e-05 0.0011957613 -0.0030323118 0.002697962 0.0013217549 -0.0009503685 0.0013068754 0.0025909287 -0.0019790165 -0.002166705 0.001058807 0.0007285056 0.0032915315 -0.0011311902 -0.0017981365 0.0014765868 0.0031146612 0.002115062 0.0019465561 0.001989718 -0.0027096872 0.0006035532 5.0865463e-05 0.0022423903 0.0009041902 -0.0005900344 0.0016117851 -0.0018492526 -0.0025053762 -0.0026655176 -2.4472614e-05 -0.0017180657 0.00014516248 -0.003444724 -0.00092118734 0.0037003828 -0.0030868498 0.00015889991 0.0007238724 0.001627976 0.0007272333 0.0022611204 -0.0018917789 -0.00042781577 0.001712597 -0.001535934 0.0022158972 0.0013320406 0.0034382795 0.0026229362 -0.0035111804 -0.0022072706 0.0036629576 -0.0020011247 -0.0019697505 -0.0013282219 -0.0002730349 0.0020441567 0.0012036962 0.0025910162 -0.0036463994 0.0018382178 7.201316e-05 -0.0012121365 -0.00039235514 0.0030003304 0.0022987241 9.930414e-05 0.0016918782 0.00094377913 0.0010728713 0.003441937 -0.0027144693 -0.0004724445 -0.0024802792 -0.0031649687 0.00046655996 -0.000568376 0.0032111136 -0.0030541427 0.0022305828
41 0.0009915185 -0.0036751614 -0.002088955 -0.00045780983 0.0030772167 0.00046931315 -0.00026719816 0.00038929304 -0.0029849599 -4.690087e-05 0.0029725723 0.0035008104 -0.00092520856 0.0023950753 0.0015231756 0.0001560705 0.003396605 0.00024289034 0.0019365844 -0.0028565002 -0.0025147602 0.0019298311 -0.0028957569 -0.0031668535 -0.0015959219 0.00061964925 -0.0008823653 0.002670045 -0.0006879783 0.0027315302 0.0011681085 0.0031877442 0.0018671356 0.0027788258 -0.00012382974 0.0027305207 -0.0022436632 0.0029838292 0.0014920809 0.0029674259 0.00251923 -0.0019412732 -0.0030568738 0.0017372897 -0.0002798259 0.0007970691 -0.0025306907 0.0010786825 0.0007825305 0.0016894981 0.002697448 -0.001961861 -0.003689581 -0.0032147204 -0.0028269787 -0.0017067438 -0.0030671554 -0.0008603928 0.0021928877 -0.0023168789 -0.0012056562 0.0014727381 0.0005130849 0.0016882962 0.0036051136 0.0034449294 0.0027391866 -0.0026873888 -0.0028867729 0.0037426623 0.002934595 -0.0019886503 0.0022415577 0.0017565243 -0.0017829835 -0.0011644824 0.00028320102 0.0028628118 -5.462629e-05 0.00233521 -0.0012667351 0.0011209954 -0.0029650095 -0.0018239496 0.0014214067 -0.001841081 -0.0018656837 -0.0030869516 -0.0037986867 -0.00044104253 0.0022835305 0.0038933966 0.003829168 0.0036282819 -0.003809501 -0.00014924888 -0.0004567763 -0.0004695683 0.0005535214 0.002310015 -0.003531188 -0.0019356481 0.0005493143 -0.00080746034 -0.0026014466 0.0009580169 0.0006241881 -0.0014347286 0.003279567 -0.001960614 0.0023679805 -0.0025806676 -0.0010847654 0.00075948314 -0.00028488948 0.00022725614 0.0031207372 0.0014997802 0.00065016956 -0.0003527457 -0.00025167642 0.0031144926 -7.4472264e-06 -0.00024008898 -0.0026891727 -0.0037352769 -0.0011682083 -0.0003482823
7 -0.0030443792 -0.003673656 -5.7080095e-05 0.0007192537 -0.00098887 -0.00013595632 -0.00059161114 0.0033758872 -0.0007662786 -0.002799109 -0.0009955425 -0.002155567 -0.0037717891 -0.0032791528 -0.0032102324 -0.00024833155 0.0029814388 -0.00092223147 0.000291227 -0.0012850045 0.0022141251 -0.0029191026 0.0009693799 -0.0029857187 -0.003114782 -0.003376151 0.00021731014 -0.00033817108 -0.0033114662 -0.001336932 0.0036441218 -0.0015407358 -0.0030072026 0.0033980245 -0.0009998927 -0.0022852705 0.00022671573 0.0015772613 -0.0010398098 -0.0026860882 0.0026092515 -0.0036001687 0.0005892574 0.0027024096 -0.002363509 -0.00010971171 0.0006193494 -0.0023528116 -0.0029825827 -0.0030891986 -0.00076992525 0.00172651 -0.0020588245 0.0012820025 0.001104582 0.00031293597 0.0027795786 -0.0006117778 -0.0027779161 -0.003899193 -0.0028782014 -0.00058825617 -0.0035132125 -0.0017079535 0.0039029855 0.003673699 -0.00088048226 -0.0019543532 0.0036301834 0.0023742446 -0.0034211488 0.0032098724 -0.0004191903 0.0019349253 0.0020625535 -0.0020603521 0.0016047434 -0.0012236306 -0.00019015846 0.0022870149 0.002689716 -0.0009934034 -0.0022529725 -0.0022444678 -0.001806146 -0.0028431877 0.0012686744 -0.0003101993 0.0026982783 9.185053e-05 -0.0032219521 0.0034932462 0.0034363195 0.00095983094 0.002795826 0.0013232314 -0.0016897931 -0.0033136343 0.0036280756 0.0009040699 -0.0037418911 0.0019503232 0.0001927244 0.0033426292 -0.0017606429 -0.0035185562 -0.0038487006 -0.0019989826 -0.00148569 0.0026949095 0.0025093106 -0.0027387403 -0.00165904 -0.002796575 0.0017698894 -0.0025397309 0.0025593813 -0.00087611587 -0.0005450693 -0.00011689403 0.0020083063 -0.0024943005 0.0007282302 0.0008581565 0.003399692 0.0010046075 0.0037260693 -0.00018270002
3 0.0019965884 -0.0026899483 -0.0032372356 0.0037989197 0.001957242 -0.00129908 0.003822079 -0.002537107 0.0013174035 -0.0015858548 0.0036516 -0.0025373567 -0.0014154486 0.0016137576 0.0028233526 0.0033857964 -0.0038347705 0.0028613412 -0.001459635 0.0032654596 0.0031703867 0.0005497482 -0.001881024 -0.003333519 -0.0008514979 0.0017619503 0.0029546877 -0.002417442 0.0011230045 -8.897807e-05 0.003465464 0.0018871732 -9.7364e-06 -0.00319095 0.003471295 -0.0016166467 0.0036069085 -0.0021083292 0.0020034523 0.00084755034 0.001296795 -0.0032286658 0.0022909201 0.0017796194 -0.0034271542 0.0002667326 0.0021189225 0.0012420693 -0.0037909334 -0.0011842636 0.0011579153 -0.00013858928 0.0034519632 0.0007769387 -0.0011780998 -0.0011443846 -0.0015658997 0.00029771382 -0.0009076264 0.0002856539 -0.0004888126 0.0031040076 0.0021971797 0.0013870184 0.002025029 -0.0022255727 -0.0004836947 0.0007636481 0.0034949025 0.0038671107 0.0015235186 0.0010255734 -0.0014707792 -0.00056539004 -0.0018639313 -0.0022552698 -0.0027021668 0.001598057 -0.0030156288 -0.00095471705 -0.0038440179 -0.0035815083 0.0019266115 0.0015124211 -0.00023349508 -0.00039824026 -0.001919685 -0.000968868 0.0019511147 0.0029382252 -0.0037518141 -0.0006074431 0.00036550523 -0.0018950071 -0.0020667892 0.0021700189 0.001019791 -0.0012089986 0.002926734 -0.0030101428 0.0021237002 0.0017576846 -0.0014469496 0.002556953 -0.0012503406 -0.00018960124 0.0011428467 -0.0005840374 0.0014431031 0.001746864 -0.0030808782 -0.0032640342 0.0037915243 0.0032884094 -0.0029797368 -0.0015255408 -0.000652074 0.0032359692 -0.00015261704 0.002521288 -0.0036473223 0.0012704951 0.0006911875 0.0005327664 0.002718649 -0.00090102316 0.0021350654 0.0034878608
10 0.0009837607 -0.002724755 0.0019335662 -0.0001336985 0.0005964158 0.0036526762 -0.0038037181 -0.0001940108 -0.0016532508 -0.0015957913 0.0015364712 -0.001198765 0.00053641765 0.003010936 -0.00020833485 -0.0010411474 0.0038104642 0.0019699081 0.001043902 7.5241005e-05 -0.0020778829 0.0012809334 0.0033457065 0.0024838625 0.003171407 0.0032403807 -0.0014929194 -0.003150083 -0.0026418667 0.0036345853 0.002968494 0.0035402377 -0.0027935165 -0.002539376 -0.0028364987 -0.0011982529 0.002736691 0.0030533813 -0.0030527427 -0.0015482288 0.0023392024 -0.0025577047 0.0003142456 0.0016383737 -0.0033666696 -0.0020054418 0.0036230057 0.0028878113 -0.0025328915 0.0023844051 0.0030028024 -0.0012368743 -0.0026266063 0.0013342852 0.0013926503 0.0018535024 0.0019096603 -0.0033673148 0.0017060512 -0.0009831476 -0.0037363397 0.00022186579 4.579586e-05 -0.0032792538 0.0036163107 -0.00087819836 -0.00024512407 0.00042060745 -0.00043462444 -0.0035853123 3.810778e-05 -0.0005078057 0.0031150985 -0.0028682032 0.00046529065 0.0029144052 -0.0014593179 -0.00050602044 0.0020963384 0.00016514683 0.0014753471 -0.0025017762 -0.0016305047 -0.0025149153 -0.0017204721 0.0013600757 0.0018373543 -0.0010101248 -0.0018919957 -8.375803e-05 -0.003405445 -0.0032592088 -0.0033328312 0.0020586036 2.206301e-05 0.00080915325 -0.0038984695 -0.0016536586 -0.0031160873 0.0014201351 0.00035804228 0.003268122 -0.0024436074 0.002840094 -4.2079414e-06 -0.002321963 -0.0018483234 0.0014857048 0.0004756205 0.0029852933 0.0017274524 0.0035759655 0.0026719563 -0.001975758 0.001140769 0.0020501665 -0.0018383649 -0.0023183024 0.0011972213 0.0022703265 -0.0031762088 -0.0029360175 -0.0029773775 0.00013047198 -0.00088530703 -0.00049122045 -0.0022101782 -0.00018202273
60 0.0013412606 -0.0023036406 -0.000108794244 0.00030645216 0.0011870301 -0.0022372752 0.0033575024 0.0009946442 -0.0030137484 -0.00044443842 -0.00061427336 -0.0012590159 -0.0018456961 0.0020683615 0.00020466001 -0.0014022796 0.002293293 0.003636654 -8.231662e-06 -0.00017894016 -0.0015077301 0.0011647822 0.0012957809 0.0034097761 -0.00022826318 0.0009763259 -0.0006593568 -0.00093689014 -0.0031020152 0.0018832665 0.0011568624 0.0010409007 -0.000791886 -0.00017835938 -0.0016197016 0.0029766154 0.0008174924 -0.0014748883 -0.0038444453 -0.0027352392 -0.003542425 -0.0009441114 -0.002582172 0.0033914696 -0.0026266105 0.0035584955 -0.0026990527 -0.0027228813 0.00073388027 0.00022395268 -0.002600591 0.0019277111 0.0024699871 -0.002024245 3.1878666e-05 0.002471233 0.00028426628 0.0018203706 0.00038248242 0.00014481923 0.0015750916 -0.003281296 -0.0016880425 0.0035323794 -0.0025947872 -0.0031691482 -0.0022816039 -7.8591955e-05 -0.003413605 0.0028912341 -0.001735985 0.002790904 0.0012510311 0.0031240173 -0.00034557172 -0.0007846438 -0.0018759517 -0.0025882598 -0.0033740606 0.0031028737 -0.00076675403 -0.0036177756 -0.00070627825 -0.0024017375 0.0018614413 -0.00051430456 0.00013626476 0.003840759 0.0028018835 -0.0022920573 -0.00095071737 0.0011223556 0.0020671668 0.0035080514 0.0019915735 0.0016303131 0.0006713398 -0.0013329663 -0.0009255626 -0.00033527447 0.0011961198 -0.0014104415 -0.0003005653 -0.00047716047 0.00043693424 0.001829634 -0.0023392118 0.0008380993 -0.0021235326 0.0014242099 -0.003763117 -0.002324203 -0.00097553356 0.0005926387 0.0020417955 0.00015721892 0.0019119745 -0.0006294956 0.0017409244 0.0020769094 -0.0022255252 0.0034366415 0.0025813116 0.0027237614 -0.0034782852 -0.0005374581 0.002675474 0.0006406865
53 -0.0036341376 0.0017739225 0.0011262428 0.00052635954 0.0021403146 -0.0020969743 0.0024055107 0.0013365318 -0.00013279493 0.002013713 0.0017166657 -0.0029889776 0.0021989725 0.002494921 -0.0013251912 0.0032278213 -0.0017545155 0.0015879539 -0.0016617451 0.0038801192 -0.0031227476 -4.6080672e-06 -0.0024627212 -0.0019241896 -0.0022276405 -0.0038900496 0.0006841921 -0.0011061699 -0.0011983106 -0.0003501042 0.001649013 -0.0013674262 0.0035828892 0.0013130443 -0.0003228307 0.0018091465 -0.0011034885 0.0009304472 -0.0005774124 -0.0017961642 0.0035956574 -0.0010399394 0.00046442123 -0.00033555884 -0.0021364042 0.002934208 0.0031862755 0.0011834434 -0.0026183096 -0.00022981931 -0.0018055614 -0.0029379665 0.0007455588 0.0036025953 0.001016638 -0.0038396495 -0.00059178256 0.0034971004 7.487515e-05 -0.0024164042 -0.00050278014 -0.0025523473 0.002088186 0.0032869524 -0.0027764563 -0.0037889248 -0.001825012 -0.0022774988 0.0009542595 -0.0023900724 0.0031341459 0.0021150701 0.0033092455 0.0031357037 0.0003994153 -0.0034781608 -0.0022881795 0.0007280901 0.0029323224 0.0004355896 0.0034414842 0.0036057215 0.0036149481 0.0035924057 -0.0036804879 -0.00093045604 -0.000838328 0.0017375009 0.002510232 -0.0038432518 0.0026548249 0.0029730338 0.003733056 0.0035600124 -1.1934203e-05 0.003167093 -0.0023824947 0.00038830473 0.00196073 -0.0021796115 -0.0032164964 -0.0007632858 -7.9550584e-05 -0.003603578 -0.003904237 0.00083619077 0.0028742368 0.0018282798 -0.0017542118 0.001185179 -0.0017444204 0.0021811961 0.0013665694 0.0001067444 -0.002096964 -0.0014288292 0.0005087354 0.0017292539 0.0027475771 -0.0033856202 0.0030293548 -0.0007022115 0.00023095922 -0.0012385785 -0.0014279995 0.0034073864 -0.0009896591 0.0033661504
20 9.6365926e-05 -0.0013138691 0.0025924107 -0.0034313274 -9.066136e-05 0.003663921 0.003312701 -0.0015637118 0.0038846473 0.0016137215 -0.003020816 -0.0007757607 0.003305349 -0.0026154579 -0.0032824795 0.0029960398 -0.0021251382 -0.0026765768 -8.0667545e-05 0.0012141927 -0.0023786463 0.002868507 -0.0021790199 -0.0022444322 -0.0027706902 0.00060289324 0.0028349203 0.0023730719 0.0033849974 0.002153093 -0.0018433863 -0.0016040416 -0.0013652664 0.00035398948 0.0026502481 -0.0030651744 0.0010903131 0.00058782654 0.0021694766 -0.0034316184 -0.002424119 -0.0035531425 -0.00011676255 0.0026707933 0.0010900901 0.0019239811 0.0026392748 -0.0018465683 0.0007690707 0.0010659132 -0.0017368447 0.0037936037 0.0033520614 0.0012864866 0.00033402676 0.002896376 0.002503989 -0.0024808631 0.0010763903 -0.002055839 0.0017689903 0.0010451378 -0.0014871847 -0.0037718725 -0.0008209289 0.001346268 0.0025833528 0.0017505122 -0.002878817 -0.0010929942 -0.0025039571 0.0027009044 -0.0037504626 0.00085004646 0.0027519339 -0.00025401416 0.0029819717 -0.0011145433 0.0011744521 -0.003221933 0.00010393762 -0.0035754961 -0.00011103876 -0.00075008406 0.0035240636 0.0018772357 0.0024171814 0.0021437807 0.00066173915 -0.0033886745 -0.00017193875 0.0007090796 -0.002108295 0.0009818076 0.0024564916 -0.002942314 0.0019183557 0.0011296449 -0.0012840183 0.00085050584 -0.0020501069 -0.0028139174 0.00092285237 -6.212577e-05 -0.002021811 -0.0012876622 0.0029352808 0.0033227203 0.002854832 -0.002240379 -0.0015652301 -0.0036684074 0.0034915735 0.0022561243 -7.685912e-05 0.0027348578 0.0016087997 -0.0025286926 -0.0029680587 0.0028501872 0.0004004472 0.0022851608 -0.0017306581 -0.0027022276 0.0034480311 0.003386628 -0.0030783222 0.0034770174
21 -0.003014103 -0.0019493763 0.0028225658 0.0026993328 -0.0013038593 0.0011279295 -0.002099835 0.000938994 -0.002370652 0.0019093249 0.002521957 0.0012685101 -0.00050471287 -0.0016561743 0.0003597818 -0.001465028 -0.003390537 0.0029875052 -0.0007487862 -0.0016961052 0.0010397196 0.0021398196 -0.0017212027 0.0015575656 0.0005079206 0.0035780591 -0.0011553396 -0.0004440323 0.0031813388 0.0004980377 -0.0012976655 0.0021746925 0.0018501246 -0.001542035 0.0021638765 0.0032183784 -1.4112506e-05 -3.063994e-05 -0.0033735475 0.00020189822 0.003025577 0.0027648103 -0.0021094559 0.0034334615 0.000732206 -0.0016775909 0.0032557675 -0.0021909552 -0.0016468877 -0.0038623812 -0.0009496396 -0.0015556813 -0.0012920519 0.0022078773 -0.0020146214 0.0009267526 -0.0024476792 -0.00037005337 0.003499414 -0.0025842823 0.00020850527 0.0035280706 -0.0036396035 -0.00031667296 -0.00090452033 -0.000629882 -0.0027759147 -0.0004731371 -0.0027519052 -0.0022265208 0.003322477 -0.0025095162 -0.00313426 -0.00046630582 0.0024176587 0.0036379832 -0.0018791022 -0.0037191852 -0.0025253033 0.0019534798 -0.0032550986 0.0003200948 -0.0035804615 -0.0024449108 0.0019092549 -0.00028182403 0.0005623316 -0.0013341815 -0.0012476951 0.003472861 -0.0036439272 0.0012299481 0.0009620576 -0.0025925178 -0.0033559802 -0.0013149345 -0.0020778766 -0.00096362556 -0.0037935276 0.0013315743 -0.0015090995 0.0019926238 0.000361524 -0.0024799223 0.0026424483 0.00012856246 4.1918254e-05 0.0010467441 0.0016810432 -0.0010641544 -0.00064029125 -0.0014016144 0.003028803 -0.00029688832 0.0011986771 -0.0012679903 -0.00019289831 -0.0024659887 -0.0014223716 -0.0005656031 -0.001875683 -0.0026632994 0.001873148 0.0007066687 -0.0013056669 0.0030511054 0.0027361554 -0.0007388705
15 0.0022794458 0.00022285456 0.0012152903 -0.0016410787 0.003756981 0.0023602445 0.00013514952 -0.0033683726 -0.0023807755 0.003573015 0.0016757951 0.003619414 0.0032788694 -0.003481618 -0.0031374798 -0.0034635435 -0.00044533063 -0.0015754582 -0.0028389483 0.00327857 -0.0018325313 0.0038744453 0.0009328251 0.0029291396 0.0036739632 -0.0015127596 -0.0012302967 0.0011598109 0.0029989518 -0.0036635299 -0.0015181181 -0.0024754493 -2.2010236e-05 0.0016063602 -0.003191229 -0.000107132284 -0.0019640576 0.0013076705 -0.0011854669 0.0035686616 0.001148167 -0.0037006119 -0.0020891908 -0.0025634016 0.0018503126 0.0014184419 0.0025010956 0.0017993812 0.001127742 -0.0006137954 -0.002871179 0.0013407599 -0.0016030406 -0.00038649628 0.0022619977 -0.0035364674 -0.00022412397 0.002352801 -0.0009749993 -0.002637421 -0.0014459034 0.0005105317 -0.0029636403 -0.002662877 0.0022652368 0.0012051428 0.0034036806 0.00047501168 -0.002415206 -0.001530309 -0.0031298846 -0.0033680955 -0.0036382298 -0.0008783907 -0.00084301585 0.002419432 0.0027101075 0.0024064735 -0.0035593624 0.00048199252 0.0023543963 0.0013525399 -0.002923368 0.002889464 -0.0029551506 0.0032896462 0.0013866129 0.00082983327 -0.0036694296 0.003814434 0.0033588358 -0.002580822 0.0002694901 -0.0031370067 -8.627106e-05 -0.0030054604 -0.0037734977 0.00066756376 0.0018688082 -0.0038328604 0.0020836235 0.00077173486 0.0028706687 0.00047072847 0.00047683614 0.0015654356 0.0005840946 0.0037456986 -0.0038693456 -0.0018377912 -0.0038055987 -0.0028058183 0.0022034568 -0.0032156555 0.0030217855 -0.00018318808 -0.0031973745 -0.0014093774 -0.002574969 0.0005484271 -0.0003311281 -0.00076271396 0.003659865 -0.0034735785 -0.0037562225 -0.0020284057 -0.002510986 0.0010184845
4 -0.0018600585 0.0027798126 -0.0027728998 0.0019981172 -0.003888865 -0.0005261838 0.0029637911 -0.0032914227 0.002443321 -0.0036090729 -0.0013405519 0.0035790468 0.0007718829 -0.00030699046 0.0013538095 0.00017674977 0.0006298931 0.0005763038 -0.0020818 -0.00067720516 0.0031230918 -0.00043426693 -0.0017651125 -0.0023262347 0.0019610561 0.0023182735 -0.0035023931 -0.000745088 -0.00037411062 0.0028684172 -0.001295087 0.0028900458 -0.0019164106 -0.0006752261 0.0016164479 -0.0030508344 -0.003667949 0.0020077585 -0.003420052 0.0015118025 0.0029003255 0.0001990054 -0.0037834493 0.0007781826 -0.000886484 0.00089817116 0.0033276249 -0.002503176 0.00088821026 -0.00096654886 0.0019135559 0.0009001087 -0.0014362457 -0.0018785372 0.0009380816 0.0034721815 0.0019074238 0.0023566831 0.0030216987 -0.0032993457 -0.001322232 -0.0007950334 0.0032729313 -0.0004896577 0.0017361887 -0.000928212 -0.0005541867 0.00057925377 0.00011643382 0.0032900993 -0.0032839116 -0.0013274391 -0.003482071 -0.0033466513 -0.0017261998 -0.0017329694 0.0020570375 -0.0005870631 -0.003056723 -0.0011055213 -0.0030524025 -0.0005323613 0.0020693114 0.0009154696 -0.0026409873 -0.0024958625 -0.0029764362 -0.001817887 0.0022471154 0.0012300827 -0.002863491 0.0026176132 -0.0036966396 0.00066172687 -0.00045732065 -0.0029306873 0.0003243026 -0.00022494902 -0.0008168349 0.0023825543 0.0029124555 -0.00024212398 0.0027053934 -0.0014086105 0.0021720135 -0.0023282503 -0.0026537515 0.00054004474 -0.0038878643 0.0019070691 -0.0029451181 -0.00037081496 0.0003935252 0.0014193275 0.0033485417 0.0027125825 0.0020319214 0.0009004974 -0.0013760963 0.0023396479 -0.0032415774 0.0020427527 0.0038465415 0.0011711665 -0.0020987876 0.0025835957 0.00021619542 -0.0024239707
19 0.00017552357 -0.0020836524 0.0029901664 0.0023270105 0.00072501955 -0.0027910671 0.0010923458 -0.0034474782 2.7038153e-05 -0.00047697866 -0.001935135 0.0031374458 0.002560703 -0.00137609 0.0023036164 0.0016542063 -0.0014315611 -0.0036887869 -0.0013268039 -0.0013698271 0.00021239366 -0.0028859621 -0.0021134247 -0.000999451 0.0021533975 -0.002230832 -0.0033529913 -0.0033143966 -0.0018065082 -0.0013158238 -0.0009400137 -0.0029606528 0.00036731214 -0.0025835233 -0.00013827349 -0.00040402196 -0.00019304738 0.0031630395 -0.0011389027 0.001381421 -0.0008895573 0.0012629334 0.0029269906 0.0034367929 0.001411552 -0.0032898379 -0.00026128098 -0.0034661281 0.0015205444 -0.00061471155 0.0006084422 -0.002927765 -0.0024760363 0.001972113 -0.0014816431 0.0012420051 -0.00033315955 -0.0015321407 0.000909914 -0.0013694933 -0.0036453467 0.0010820474 0.0038166405 0.00029908027 -0.00057239557 0.0012870562 0.0013816849 0.00050396484 0.00362389 -0.0017404296 0.0029413973 -0.0035069985 -0.0015117683 -0.0026669542 -0.0014134976 0.0030112145 -0.0028598187 -0.00046930875 -0.0027930383 0.002875721 0.0007993059 -0.0032874774 -0.001464201 -0.0038026904 0.00048313633 0.0028000467 -0.0017950281 -0.002853075 0.0015481216 0.0021371895 -0.0038694208 0.0033559531 0.0005485435 0.0023782733 -0.0012066104 0.0029646368 -0.0018903051 0.003364789 -0.0007737656 0.002795598 -8.428042e-05 0.00093551166 -0.0004368259 -0.0012976802 -0.0036171146 0.0015035404 0.0004603924 0.00346228 0.003618226 0.0036816376 -0.002936677 0.00017518725 0.0035766761 -0.00046405476 -0.0027295083 0.0019189124 0.002460628 0.0012642147 -0.003318872 -0.0012750103 -0.0018616762 -0.0037114185 0.0039050374 -0.0006268172 0.00082475157 0.0006397574 -0.003023286 -0.0003505436
35 -0.0017987652 0.00389166 -0.0022905464 -0.0011396421 -0.0016550425 -0.0038155627 -0.00035986965 -0.0018189726 0.0018594193 -0.00041780018 0.0035067499 -0.0006185189 -0.0031472957 0.0023022236 0.00069718034 -0.0005796554 -0.0032070724 0.0015130601 -0.0034835758 0.0010906863 -0.0026989651 0.0013847678 -0.0037494246 -0.00072335347 0.0010269918 -0.0018870035 0.0018427104 -0.00327031 -0.0009994786 0.0033568866 0.0013605333 0.00074160064 0.0035346327 -0.00041904737 -0.0014207077 0.0017934088 0.00049590605 -0.0015108453 -0.0021950135 0.0019228469 -0.0012042683 0.0029410615 0.0015813118 -0.00042975755 -0.0013783344 -0.0014142304 -0.002475081 0.00022078237 -0.0029060806 0.0017856063 -0.0018413336 -0.00046008333 -0.0033431037 0.00065405027 0.0004988237 -0.0036987984 -0.00042264434 -0.0022449978 -1.9971747e-05 -0.0016738395 -0.0007212287 -0.0003459743 0.0015167375 0.00063000264 0.0023865139 0.0020720807 0.0025230492 -0.0035602257 -0.001076988 -0.0016162341 -0.0025640691 -0.00085688726 0.0014923917 0.00085024716 -0.0006650317 0.0034142942 -0.00032712778 0.00061696314 0.0034665498 -0.0017652487 -0.0015576188 0.002949216 0.0035920287 -0.0030731908 0.0024237772 0.0021682584 0.0013210651 -0.0031689063 -0.0014563908 0.0018168376 0.0011691398 0.00046985637 -0.003408326 -0.0032111637 0.0030756136 0.0030757275 0.0009764084 -0.0020983818 0.0013528572 -0.0010194822 0.00020498678 -0.0014404687 -0.0012113218 0.0031827092 0.00065036584 -0.0019864812 0.001770183 -0.0010093425 0.0004763068 -0.001294251 -0.0017674068 -0.0030583234 -0.0027858065 0.00033395202 -0.0032590353 0.0029065819 0.003875218 0.0014555416 0.0030579197 0.000611311 -5.5791275e-05 -0.0034991873 0.003153412 0.001447513 0.0011691344 0.0017361159 0.003412188 0.0031301072
40 -0.0038593695 -0.00041883034 -0.002731392 -0.0016080744 0.002692286 -0.0028805095 -0.0031884299 0.0013495812 0.0014880687 -0.0005968172 -0.0037121263 -0.0019315373 -0.0013840809 0.003582334 -0.0009286071 0.0029963353 0.0020633952 -0.0015301834 0.0035030318 -0.0030475995 0.0012282613 -0.0021544956 -0.0019785892 0.0002305857 -0.0021972589 0.0011649788 -0.00028679273 0.0001909277 0.003388967 -0.0029843657 0.001340503 0.0032293191 0.0015718425 0.0012219448 -0.00018713827 0.0025258996 -0.00041385592 0.0019350953 0.0011607648 0.001034715 -0.00093235937 0.0017569568 -0.0012892574 0.0037186022 -0.0013847222 0.0036245822 -0.003824677 0.0023066332 0.0016776656 0.00072324515 0.0035248806 0.0034283472 -0.0017396464 0.003137002 0.0034722 0.0024923533 -0.0016714843 -0.001467705 0.0035664455 -4.145887e-05 0.000445053 0.00022613915 -0.002069099 -0.0037382306 0.0014702334 0.0012302693 -0.002572338 0.0013908258 -0.0023640047 -0.0029180143 0.003476018 -0.0008746154 0.0023521264 -0.00040293759 -0.0026095824 0.0010077418 -0.0030329248 0.0031675922 0.003103962 -0.0038194265 -0.0025792264 -0.0034404756 0.0001766461 0.0018813923 0.0006973213 -0.00034533747 -0.003476188 0.0016535915 0.0031016585 0.000605642 0.0011501289 0.0027846012 0.002700409 -0.0004194406 6.646071e-05 -0.0033423938 -0.0009243249 0.0024913317 -0.0030652105 0.0011201224 0.003722277 0.0028076381 0.00025997657 -0.0038159927 -0.0009928755 -0.0021752627 -0.00092910335 -0.00059515587 -0.00096600986 0.00071282976 0.0015588856 0.0028169784 -0.0013278964 -0.0004907924 -0.0021127786 -0.0017023752 -0.003886452 -0.0019802197 -6.9113536e-05 -0.0021441646 0.00016056547 0.0028647506 -0.0026412844 -0.0010015911 0.0035089403 -0.0022467207 -0.0007670298 0.00024953333
1 0.0002255401 0.0024706908 0.000888794 0.0016087418 -0.00023716451 0.00084703736 0.001753767 -0.0016919182 0.0038895584 0.0003359222 0.0014923282 0.0010886107 0.0021771006 0.00041110418 -0.0015515065 0.0021129341 -0.00041852036 -0.0011958063 0.0010640884 0.0007337842 0.00030859082 0.0038915826 -0.00087108905 0.0028704454 0.0011812577 -0.0012165022 -0.002829254 -0.0017882816 0.0002901969 0.001927133 -0.003092311 -0.00050131674 -0.0021722491 -0.00047682362 -0.0007676353 -0.0018407917 -0.001416628 -0.0011302716 -3.7530845e-05 -0.0037219007 -9.19852e-06 0.00074902544 0.0035693753 -0.0003061779 -0.002868695 -0.0016237899 -0.0007968089 -0.00023313354 0.003863997 0.0030707542 -0.0032853428 -0.0020508945 -0.0024383063 -0.0036980647 0.0033425763 -0.003450338 -0.00277589 0.00046626714 0.0009654275 0.0006693335 0.0009591631 -0.0015986547 -0.0012336246 0.0016533094 0.0016129876 0.0025447018 0.0010009754 -0.0019714062 -0.0034532985 -0.0028037287 -0.00020744951 -0.0012247671 -0.0027530522 -0.0039007138 0.0012569645 -0.00032382325 0.0035532976 -0.00096320716 0.0007331378 0.002054631 -0.0015220239 0.0012173885 0.003399059 0.00015808168 -0.002815329 0.003197195 -0.0037869818 -0.0033832649 0.0018231093 -0.0012148351 0.0026946648 0.0019252574 0.00025061783 0.0013412848 0.0036120838 -0.0032640563 0.00081392995 0.0022266791 0.0019777094 0.0016256409 -0.002709374 -0.0015523002 -0.00037288538 -0.0022614133 0.0021019117 0.0007736972 -0.00069949636 -0.00219276 0.0012132314 -0.0033682073 -0.0011514504 0.00018398452 -0.0036636854 -0.0038811013 0.0023769508 -0.0035798056 -0.003712256 -0.0010459166 -0.003711007 -0.002956722 0.0031269474 -0.0027354993 -0.0011670484 0.0019376444 0.0013949132 -0.00037748585 -0.00042659257 -0.0037663453
56 0.002104923 -0.0034574433 0.0019191884 0.0019674131 -0.0027625796 0.003778099 -0.001129734 -0.0017199978 -0.0010854137 -0.0019949672 0.00045986005 0.0030015493 -0.002211714 0.0020448242 0.00043801792 7.165193e-05 0.0026390795 0.0036119616 -0.00045587568 -0.0035436372 0.0033176015 -0.00032416504 -0.0027919237 0.0022435407 0.0032020472 0.0034142642 -0.0020661799 -0.0029838493 -0.0031107576 -0.0031047883 0.002038933 -0.0015827451 -0.0014429622 -0.0017656512 0.0013386979 -0.002050778 0.0027840633 -0.0018033425 -0.0011271546 0.0005567653 0.0033939125 0.002949978 0.003291574 0.0034605982 0.0011392981 -0.0032206138 0.0025000565 0.0038106672 -0.0012537566 0.0021736494 0.00198724 0.0008858301 -0.0024735087 0.000815079 0.0023351524 -0.0032474601 0.0037208246 -0.000188936 0.0033258463 -0.0032572588 -0.0011678176 0.0028397148 0.003646222 0.0025507228 0.0006324651 -0.0003324194 0.00054205355 0.0009454189 -0.0001450618 0.0027871437 0.0036236937 -0.0011175061 -0.00039236082 0.002282354 -0.00093025464 0.0010073069 0.0015418244 -0.00093086786 -0.003136307 0.002431457 -0.0026367514 -0.001897929 -0.0017390386 -0.00100129 -0.0020774307 -0.001421927 -0.0027363976 0.002142726 -0.002507411 0.0014817442 -0.0019431047 0.0009929752 -0.0024377347 -0.0026516712 -0.002705929 -0.0024513602 0.0019539727 0.0002877105 0.0028294988 0.0015179476 -0.0016561847 -0.0019493438 -0.0028684183 0.0016886124 -0.0022778856 -0.0038336068 -0.00055568886 -0.0015538548 -0.002499552 -0.0004107007 -0.0031251956 -0.0016488251 0.0014431514 -0.00018944913 -0.00094053993 -0.0027932504 -0.0009473623 -0.0023889486 -0.0031575854 0.0013175602 0.003012008 -0.001960513 -0.00064227096 -0.0005984239 0.0021349008 0.0012782082 0.00062477717 -0.0031287656
26 -0.003698753 0.00031769718 -0.0015799629 -0.0026384962 -0.0012088602 0.0030458905 -0.0033891452 -0.0016957363 0.0035410533 0.003808687 0.0021225873 -0.0004285935 -0.00033471244 -0.0004795739 -0.003253712 0.002836787 -0.00016721143 -0.0007887317 0.0006565175 0.0009180668 0.0037113887 0.0033256724 -0.0020273193 0.0032053397 -0.00030004472 0.002188832 -0.00096406287 0.0011355784 -0.00023834777 0.0012356612 0.0015856363 -0.003126805 -0.00035687687 0.0016490676 0.0014936217 -0.0011614049 -0.00011499289 0.002526445 0.0020881158 0.001997354 -0.0038283612 0.0022410005 0.00075946195 -0.0017362961 -0.0019749838 0.0007141975 0.0024110891 -0.002656464 0.003419071 -4.99861e-05 -0.0018839586 -0.0009874615 -0.0018017556 0.0033998056 0.003410881 -0.0015892071 -0.0036033192 -0.002648553 -0.0009474136 0.00071895873 -0.0004975695 -0.0006334891 0.0037435214 -0.00024012759 -0.002094274 0.001605477 0.0024376642 0.002519512 0.0028003927 -0.0014907925 -0.0034574457 -0.002941091 -0.000542534 0.0035502606 0.002402177 0.0021409807 -0.0030431547 0.003643381 0.0017055112 0.00056200835 0.0036706082 -0.0003998541 0.0038335456 0.0017473946 0.0016289746 0.0027954038 -0.0011200608 0.0014124758 -0.0012156466 -0.0019291319 0.00046388042 -0.0033350517 0.00039093944 -0.0034451766 0.00065018877 -0.0036416221 0.0016292095 -0.002518405 -0.0027022685 0.002073235 0.0019905677 -0.0031555395 -0.00033522488 -0.0022890747 0.0014452643 0.00044540068 0.001651161 0.0034982022 -0.0027829504 0.0026704478 0.0020356434 -0.0035709906 -0.00035648164 -0.0018445461 -0.00010888737 0.0025466925 -0.0032315394 -0.0025020929 -0.00026282985 -0.0022251182 -0.0036674326 0.0015712522 -0.0012674538 -0.0014944298 0.0038864864 0.003159736 -0.0016045228 -0.0027592836
5 -0.0038047107 -0.0010862026 0.0019571262 -0.0020293398 -0.0011107157 0.00059142767 0.00373902 -0.0021305424 -0.0020801523 0.0009965089 0.0027840098 0.003290191 0.0029295108 -0.0020884534 0.002198484 -0.00014295212 0.0038464058 0.00028309884 -0.0011937887 -0.003229923 -0.0025159495 -0.0032674756 0.002370283 0.0016890048 -0.0023456314 -0.0026064233 0.0015752625 -0.0009793526 0.003778845 0.00240395 -0.00022853655 -0.0014724804 -0.0022635674 -0.0029889662 -0.0038780721 -0.0032938456 0.002407166 0.0038922809 -0.0022001732 -0.0028724838 -0.0029609394 0.0037769459 -0.00072355353 -0.002160838 -0.0020429534 -0.0005503297 0.002003312 -0.0037108525 -0.0008491457 -5.038072e-06 -0.0015842267 -2.6263606e-05 0.0024464899 0.0038865604 -0.00083726156 -0.0011410168 0.0024125252 -0.0038737068 -0.0015456019 0.0020095701 -0.0032378086 -0.0030866705 0.00043792903 -0.0023741776 0.0022885513 -0.0007953281 -0.0001405927 -0.0026997956 0.0038336185 -0.0006444333 0.00316016 0.002640987 -0.0022195561 -0.0027226876 0.00054181734 -0.0017008197 -0.0022749584 0.0023100693 -0.0028924597 0.00016777935 -0.0015942394 0.0009846163 0.0017683825 -0.001256856 -0.0015409451 -0.0026930382 0.0010052305 0.001989003 0.0011536436 -0.0014128016 -0.0027719054 0.00077717565 0.0021807414 0.0030433617 -0.00019308216 -0.0037405337 -0.00077531696 -0.0036393688 -0.002413474 0.0029649264 0.0019959896 -0.0017166334 -0.002339549 0.0012386885 0.0032487374 -0.0022613013 -0.0024139725 -0.0029661541 -0.0016952805 0.0012526343 -0.0031145716 -0.0016441223 -0.0027887544 0.0023915698 -0.003822427 0.0035210766 -0.00035437278 0.003780905 -0.0020585437 -0.0032135672 0.0005893515 0.0033731775 0.0028261358 -0.00053113827 0.0015746534 -0.00045416382 -0.00032808082 -0.0012569991
47 -1.3418228e-05 -0.0019017959 0.00319761 0.0018016369 -0.00073392026 -0.0014142973 -0.0027806652 0.0037706823 1.684671e-05 -0.0026111375 0.00103901 -0.0014126785 0.0036499675 -0.0028804415 -0.0020453227 -0.0021658263 -0.0023397594 0.0034274007 0.0030323293 -0.0033296826 -0.0014958611 0.002312979 0.00030531024 -0.0024064207 -0.0015266618 0.0018704582 -0.0031589211 0.002439536 0.0030625705 6.088613e-05 -0.0026533185 -0.0017071587 -0.0017539596 0.00045194826 -0.0028383469 -0.0027405357 0.0009571857 -0.0032710598 0.0037424017 0.0020078958 0.00053018413 -0.0015680249 -0.0035270397 0.001815448 0.0036250548 -0.0012721381 0.002673024 -0.0021953662 2.1817673e-06 -0.0005859669 -0.002646094 -0.0024039543 0.0011632161 0.003383998 -0.0008945027 0.0025516166 0.0014691277 0.0015830683 0.00350374 -0.001724272 -0.0010175711 -0.00070035236 -0.0011631967 0.00010381958 -0.00040293275 -0.0018554457 0.00286083 -9.074725e-05 -0.0023404125 -0.0016130921 -0.002603614 0.0023898352 -0.0025752054 0.00028802888 -0.0014229583 -0.00095953915 0.003342603 -0.0015516332 -0.00096100284 -0.00042633645 0.0032072824 -0.0019370321 -0.0037415293 0.0007575428 -0.002349561 -0.0025285988 0.0006195137 0.0019642 0.0020261714 -0.00090944266 -0.0014692107 0.003039798 -0.0008299891 0.0019365454 0.002216027 0.0033005683 0.0016227495 -0.0015550646 0.0031007428 -0.0036113572 0.002580317 0.0031301463 -0.0012448796 0.003540076 -0.0012762283 0.0020928504 0.0026345314 0.0032481726 -0.00036114795 -0.00097570656 0.00014571784 0.0014922236 0.0013794601 -0.0027101445 0.0034246366 0.0020547977 0.002861508 0.0021723832 -0.0036258458 0.0014032098 0.0010933129 0.0028666148 -0.003652184 0.0009608556 -0.0023138456 -0.0001965635 0.0038599663 0.00025691415
58 -0.00027886243 -0.0014391378 -0.0032675085 -0.00086853426 -0.0036644833 0.001590277 -0.002260855 -0.0035058104 -0.00086924434 -0.0009821501 0.0010904014 0.00014084477 0.0033306775 -0.003238368 -0.001990396 0.0013937425 0.00018632786 -0.002113684 -0.0016913422 -0.0013543786 -0.002916661 -0.0024287028 -0.0013602984 0.0013499674 -0.0006563981 -0.0016401337 0.0023405405 0.00059464504 0.002620229 -0.00040042363 -0.0008940356 -0.0030869478 0.0010921344 -0.0014883543 0.003591478 -0.0022102648 0.002228885 -0.0001506324 -0.002454956 -0.0022388566 0.0022807284 -0.00094482535 -0.0009010188 -0.0032272935 0.0022637986 -0.0021026586 0.0026293246 -0.00079893955 -0.00044461066 -0.0005298623 -0.001122336 -0.0030862973 0.00087717595 0.0018346267 -2.5814894e-05 0.00286627 0.0025732033 0.00022259804 0.0019504793 0.0014772993 -0.0028893943 -0.00031704147 -0.003800827 0.0028517349 0.0010405065 0.00012844783 0.0032572441 -0.0025310933 -0.0012812509 -0.0032622267 -0.0010838514 0.0026901548 -0.0033971337 0.0009158187 0.00043321072 0.001001831 -0.0017148133 -0.0011612346 0.0033213985 0.0016073986 0.0026714888 0.0009062798 -0.0021540576 -0.0009890381 -0.0011469714 -0.00370136 -0.0030356417 0.0038396213 0.0020375017 -0.0007501808 -0.0033377619 -0.0039000346 0.0014554698 0.0036446939 -0.0034345142 0.0014803202 -0.00049767876 0.0006086718 0.003690661 0.0031667058 -0.00091963157 -0.0024677946 0.0014803131 0.0031541192 -0.0037448031 -0.0005972299 -4.6388937e-05 0.0030798668 -0.00096028764 -0.003160628 -0.002838301 0.00014000646 0.0036750326 0.001983385 0.00097283116 -0.00015462343 0.00085721526 0.0013118592 0.0019130543 -0.0016883472 -0.0037070422 0.0012409359 -0.0012580616 0.0013455008 0.0035168687 0.0022928852 -0.00019003448 -0.001883136
