96 128
19 0.0026432239 -0.0015394471 -0.0024235954 0.0017719767 0.001806324 -0.0015452106 -0.0010045314 0.002167429 0.003126077 -0.0016238722 -0.002296823 -0.0018257905 -0.003902263 -0.00014602402 -0.003656837 0.0035050078 -0.0036767174 -0.002846564 -0.0031759706 0.0018001843 -0.0016217746 0.002292427 0.0036518462 0.003833174 -0.0017539591 0.002077587 0.00018655232 -0.0008824601 -0.0039059229 -0.00053376297 0.00084377103 0.0032004067 0.0029906956 5.283317e-05 0.0018633897 0.0022852598 0.0006470855 -0.0011648446 0.00079772907 -0.0007913632 -0.0028912744 -8.283547e-05 0.00074588007 -0.0019434263 0.0034840899 0.0002499931 -1.9396199e-05 -0.0022831676 -1.6710488e-05 -0.0021600744 0.00021409146 -0.0032138517 0.0014897285 0.00296846 -0.0036376582 0.0031376465 -0.0014864836 0.0023407405 0.0032204902 0.0032509803 -0.002222778 -0.00019611848 -0.0016595775 -0.002867049 -0.003377963 0.0016164812 0.0007560637 0.0023472281 0.0015643346 -0.0021740994 0.0005581662 -0.0018242665 -0.0038477646 0.0033569192 -0.0038645582 -0.0017384876 0.0013711947 -0.0033221885 -0.0015959335 0.00067775935 0.0035808315 8.284563e-06 0.00013062356 -0.002732667 -0.001933668 0.003396625 0.0020661673 -0.0008071596 -0.0030773415 0.002463049 -0.0023647828 0.0020058083 0.0023715014 0.0017406454 -0.00056830555 0.0013971744 0.002587885 -0.0029765286 0.0033985209 -0.0020570161 -0.001678957 -0.0008081539 -0.0038100216 -0.0012113978 0.0029774816 -0.002264739 0.0036027806 -0.00013486814 0.00060371414 -0.0012332286 0.0027138358 -0.0004341242 -0.0012524265 0.002373636 0.001269268 -0.0029994007 0.0012556433 0.0003795512 0.0005714748 0.0018366025 0.0017151394 -0.0013034547 -0.002142747 0.0019041665 -0.0038120933 -0.003172814 0.0014467449 -0.0013839127
29 0.003366347 0.0007536802 0.00068617705 0.0028820403 -0.0036806022 -0.003379792 0.0007852722 0.003744492 0.002639092 -0.001286935 -0.003150451 -0.0014955589 0.0030242014 -0.0011810958 -0.0004949654 -0.003201889 0.002615594 0.0025035376 0.0019278706 -0.0037453421 -0.0021262283 0.002971842 -0.0005296754 -0.0017555619 -0.0031833325 -0.00024994896 -0.0006432347 -0.0005437523 0.003886786 0.003881661 -0.0006432497 -1.9381963e-05 -0.0014093592 -0.0027093405 0.0029363383 0.002429083 0.00036058025 -0.0030116937 0.0017099994 0.0014975918 0.0030909423 -0.0016077827 0.0013199906 0.001518495 0.00254677 -0.003728804 0.0034358576 -0.00021769115 -0.0009998565 -0.00058557466 0.0018414925 -0.0036486979 0.00043185015 0.0035083701 0.003221291 -0.003106964 -0.00019881509 0.0008381091 -0.0036571568 -0.0010545986 -0.0032186755 0.0037312086 -0.0036973925 0.0019011055 -0.0023185709 -0.00025759783 0.00046143425 0.0033637441 -0.0021258583 -0.0018742483 0.0006936355 -0.0020899707 0.0025234742 -8.46729e-05 -0.0030223946 -0.0037619595 0.0025432329 0.0010704246 -0.003304113 0.0016952613 0.00074669736 0.0035074637 0.0025822956 -0.0028299256 -0.0022205524 0.0027010553 0.00010868262 0.0030308943 0.0035267458 -0.0013832442 -0.0010983685 -5.6416426e-05 0.0028245393 0.0011664394 0.001031892 -0.0008419436 0.0015449378 -1.312028e-05 0.0022220535 0.00020043587 -0.000255566 -0.00018768804 -0.00029660654 0.0037640447 0.00078332506 6.9690446e-05 -0.0013012603 -0.0032902344 0.00073323015 -0.0037443154 -0.0028853544 -0.0005311733 0.002986646 -0.0029814884 0.0021257494 -0.0004527192 0.001163923 0.0025831088 -0.0018787689 0.0038594475 0.0028272716 -0.0017603779 0.003215042 0.00038395904 -0.0023170807 0.0028879063 0.001817402 -0.0030253993
55 -0.0019070692 -0.002188045 -0.00054590224 -0.0013035296 0.002878677 0.0025915916 0.00049432856 -0.0004603189 -0.0019750604 0.000423932 0.00031012986 0.0024758892 -0.00079341396 -0.002219073 0.0017200038 0.0025686559 0.0037709863 0.0012529105 0.0023370949 0.0014381824 0.002856749 -0.0015717705 0.00029212344 0.0011870946 -0.00047999976 -0.0009034368 -0.0019175101 0.0034029207 -0.0034165562 0.002798468 0.00034836057 -0.003218373 -0.001919818 0.0018539334 0.0031614127 -0.0033061018 -0.0016505294 0.0022989144 0.00210462 0.0035656954 -0.0035105378 -0.00094675366 0.0033218623 0.0014295988 -0.001921039 -0.0011969326 -0.0007248903 0.001153762 -0.002488376 0.0024296986 0.0012895489 -0.0008820608 -0.003327015 -0.0033376864 -0.003569171 -0.0031401052 -0.0019761962 0.00259762 0.0024385853 -0.000794033 -0.00054326333 0.0030446604 0.0007068877 0.0025428045 -0.001949373 0.0002951275 0.002429534 0.001815838 0.0038449017 0.00066090876 -0.003195886 0.003609665 -0.000118166936 0.0013194281 0.00026920988 -0.0030221497 0.0025731279 -0.0023134695 -0.0021045809 -0.0015971336 0.00080558215 0.001427362 0.0033806153 -0.00028018837 0.0025067227 0.003118427 0.0019860638 -0.000212434 0.003610298 0.0019372312 -0.00024361731 -0.0016968448 0.0013475533 -0.0011658166 0.0010939948 0.0003290608 -0.00080825365 -0.002905922 -0.0012954486 -0.0010168954 -0.0005990468 0.0025078717 0.0025649818 -1.60193e-05 -0.00092843175 0.0036980761 0.003261767 0.003157868 0.00010639587 -0.0026540663 0.0015140225 -0.0028763902 0.0026564565 -0.0016972735 0.00051440817 -0.00045807715 -0.0021911857 -0.0009562138 0.0015157344 -0.00248755 -0.0004912213 0.0024937883 -0.0035885787 0.0029571028 0.00012775221 0.002682886 -0.0025765435 -0.0004749622
20 -0.0010445191 0.00084191974 -0.0027711221 -0.0013045063 -0.002854704 0.0014005784 -0.0018699003 0.0030857194 0.0007747675 -0.0013568606 0.003484341 -0.0010745567 -0.0016635337 -0.0039049585 -0.0034110167 0.0024095215 0.0034682245 0.0014170903 0.0037865194 0.0016244347 0.001613041 -0.0016109423 0.0023339007 0.0019870112 -0.0037847392 -0.0014201746 0.0008393187 0.0037043248 0.0017982378 0.0018489719 -0.0035516212 -0.0028758033 -0.002201135 0.0021308789 -0.00024295972 0.0020652409 -0.00043061876 0.00034155181 -0.000564547 -0.0025791668 0.0020590834 -0.0025958163 -0.0030921292 -0.0032980877 0.0022272128 0.0020749085 -0.0027024646 -0.00039669883 0.0005533709 0.0009779878 -0.00073484395 0.0009012642 -0.0020956711 0.002212881 0.0014626216 0.0030186917 0.0026145165 -0.0032565717 0.0020912152 0.0034910075 0.0004665256 -0.0034639004 0.0026269464 -0.0004103408 -0.00047416953 -0.002511212 -0.00045124296 0.0004034063 -0.0034661526 -0.0035210652 0.00028117804 0.0028537286 -0.0026015122 -0.0025961443 0.00079510687 -5.7480513e-05 0.0012932961 0.0024324467 0.0011607578 0.0013263521 -0.0013862377 0.0023944138 0.002151183 0.0032801228 0.0021815218 0.00025877106 0.00032722895 -0.0029113046 0.0033614438 -0.0035207118 -0.0025548309 0.0030815252 -0.00052262965 -0.0014680771 0.00090566906 -0.001071509 -0.00050106016 0.0024571894 0.0035378807 0.0031571386 0.0018209515 0.0016904285 0.0019834982 0.0013453909 0.0020838268 -0.0034267744 0.0019427515 -0.0039059583 0.0015511146 -0.0035246876 2.196985e-05 0.0033395381 -0.0037031414 9.774079e-05 -0.0034868396 -0.0013589241 0.0009990637 -0.0017469762 0.00075219694 0.0002045773 0.0019941814 -0.0014622635 -0.0008078547 0.0032908034 -0.0016124123 0.0009660687 -0.0036704731 0.0021230816
40 0.0019117153 -0.00031955054 0.003329541 -0.0005147415 -0.0013203962 -0.00056227995 0.0017084891 -0.00033807367 0.00041753383 -0.0002715899 -0.0014629299 0.0009775284 0.0008649673 2.5097168e-05 -0.0019219018 0.0012248802 -2.3049019e-05 -0.0003140349 0.002432548 0.0016560148 0.0010975454 -7.990848e-06 0.0038744616 -0.0009891962 -0.0022064329 0.0032034034 0.0015408599 0.0033900635 0.002259057 -0.0019688825 0.0029773263 0.0018500097 0.002305451 -0.0026267099 -0.0001581844 0.0024377867 -0.003096669 -0.0013147065 0.0008003622 -0.001041851 0.0002482019 0.003405494 0.0029038077 9.544487e-05 0.0013486859 0.0010966463 -0.0014085597 0.00029525455 -0.00065385696 -0.0038519683 -0.001739641 0.0012997563 0.00074954116 -0.0022593024 -0.0012433776 -0.0020699722 0.003095134 0.0021059548 -0.003395972 0.003290401 0.0016409099 -0.0027644327 -0.0027979952 0.00015603275 -0.0016899944 -0.002974721 0.001812559 -0.0011881896 0.003551586 0.0006754868 0.0011336165 -0.0019063845 0.0038160614 -0.003132758 0.0023060872 -0.00089252216 0.0029983683 -0.0019854335 -0.0011539985 -0.00021635405 0.0017548066 0.00037992912 0.00389852 0.0031331384 -0.0009032099 0.00083282514 -0.0013397159 0.0024066658 0.00096556934 0.00021630901 -0.0028350593 0.0011412362 0.0016050151 0.0019006289 0.0024193423 0.001471726 0.0011559891 -0.0036717623 -0.003250016 0.00062800356 -0.003429495 0.0022002086 -0.0025579466 7.043805e-05 0.0022475761 -0.0015050687 0.0013361888 -0.0011767059 0.0038183464 0.0020584487 -0.0019062913 0.0023918839 -0.0015186232 0.0027513653 0.0022418133 0.00082857406 -0.0012768188 -0.0010174474 -0.003361436 0.00022663115 0.00054951047 -0.0035778233 0.00077506254 -0.0009022011 -0.003860413 0.002087331 -0.0009319101 -0.0009919793
72 0.0019116607 -0.0012591338 -0.00061835063 0.0012657372 0.0013008018 0.00039146646 0.003426397 -0.0018507773 -0.0011015557 0.0007501662 -8.223786e-05 0.0025471349 0.0021225829 -0.002994338 0.0023297416 0.003580232 -0.0020741534 0.000106180036 0.00041412437 0.0001492403 -0.0022416646 -0.002699495 -0.002883615 0.0015370422 0.0010731567 -0.00218213 -0.0030765373 0.00091229554 -0.0033423642 -0.002491881 -0.0027152991 0.002378706 0.0030333034 0.0020168019 -0.0024149045 -0.0028187793 0.001147796 -0.00020554427 0.0017168522 -0.0011143915 -0.002163608 0.00019201514 -0.0019437987 -0.00093533617 0.00094509806 -0.0027102537 -0.0012964942 -0.0037791282 0.0010102814 -0.0011970784 -0.0011647015 -0.0021807645 -0.0031012117 -0.0017918792 -0.0017372106 0.0034995885 -0.0016267346 0.0010007387 0.0023460242 0.0028968132 -0.003377431 0.0024958146 0.0023241488 -0.0006536134 -0.0031117834 -0.0020503104 0.0024026046 -0.00014773376 0.002286947 0.0023348336 -0.0038895097 0.0009679887 0.002376174 -0.0037415617 -0.0020321652 -0.003398504 -0.0009997663 -0.0011734111 0.00024189489 -0.00015849741 -0.002247639 -0.00011314091 0.0018237142 -0.0001620812 -0.00059855526 -0.0034373074 0.0027592552 0.0036049294 0.00081305724 0.0006292668 -0.000342848 0.00090048404 0.0037321176 0.0030437626 0.00055181864 0.0033505848 0.00080071 -0.003021397 -0.0027647403 0.0007076111 0.003338529 0.001183256 0.002897813 -0.0022021602 0.0016049844 -0.0032131271 -0.0037750013 -0.0037557243 -0.00042134727 0.0038986832 0.0025350186 -0.0037128862 -0.0016169153 5.372106e-05 0.0014111317 -0.0012204407 -0.0024116274 0.00033699506 -0.0015774758 -0.0036458822 0.0013320837 0.0035513102 0.00013625402 -0.0017613543 0.0025188744 -0.003736355 -0.0029236237 0.0003471993
39 0.0030395724 0.0031345855 -0.0009668771 0.002825596 -0.0036506013 -0.0011107122 0.0008000678 0.0025064305 -0.000121227116 0.0023805394 -0.0025845836 -0.0012446857 -0.0028143201 -0.0015150459 0.0022060554 0.0010695505 0.0025209608 0.0022404185 0.0018575586 -0.00020801333 0.0017440392 -0.0021751986 0.0010123563 -0.0011981884 0.0037840619 -0.0023488181 0.0025989576 -0.0020105573 -0.00018171492 -0.0037266703 0.0013821943 -0.00040344574 0.00047372354 -0.0006903735 -0.0019855155 -0.00191848 0.0022863876 0.0015738816 0.0006684884 0.00030945227 -0.0014326671 0.002123421 0.003876578 0.0035708991 0.0027493283 0.0008580723 0.00047614516 -0.0032864818 0.0014619351 -0.0016698873 -0.0020605226 0.0030729582 0.0033934326 -0.0017182828 0.0025217629 0.0035492415 -0.0033301197 0.00086502114 -0.0027876585 -0.002439099 -0.001500454 -0.0015248643 0.0038000348 -0.003808543 -0.0020111916 0.0006126578 -0.0021872579 0.0031430274 -0.003153231 -0.00025290958 -0.0022867378 0.003789729 -0.0038017177 0.0038203632 0.0016082163 0.0027270967 -0.0004051573 -0.00023742575 -0.0028637617 -0.000585424 0.0009900858 -0.00016229793 -0.0015445572 -0.0028732854 0.0035765213 -0.0029086987 -0.0034509513 0.001376425 -0.0017504478 -0.0021937308 -0.0026584328 0.0017039296 -0.00075197755 -0.0010918217 0.0013303417 0.003266598 -0.0011205286 0.0009101003 0.0012730946 -0.0009373942 0.0031686467 -0.0022660121 0.0018869491 0.0018062034 -0.0009094141 0.0009642761 0.002491806 -0.002464802 0.000752845 0.0034255048 0.0008905303 0.00041737757 -0.0008452036 0.0018811997 0.0033526167 -0.0029393951 0.00053566525 0.0035179907 0.001995854 -0.002506459 0.0029865992 0.0029120597 -0.0006657221 0.0015207463 -0.002204153 -0.0016818511 0.00091193395 -0.0037562535
7 -0.003181543 0.0010649883 -0.0038435492 -0.0016552088 0.0021955217 -0.0026100152 0.0027230463 5.5149258e-06 -0.0035428111 0.0036370694 -0.0012920685 7.571257e-05 -0.002882523 0.0022882177 -0.002181887 -0.0038358842 0.0029410254 -0.00049682485 0.003833749 0.0008067812 -0.0028915682 0.0029583902 -0.00024239096 -0.002818188 0.0016559976 -0.00017916098 0.0029902316 0.003369315 4.571946e-05 -0.0018630736 -0.0023580485 -0.0034288627 0.0004821178 -0.001067924 0.003332668 0.0001746322 -0.0031578066 0.00070253306 0.0021349154 -0.0034499269 0.0035430433 -0.0010161062 -0.002852163 -0.003349824 -0.0013376105 0.0027211586 -0.0026223355 -0.00080379256 -0.0027089969 0.00037791816 -0.00027622894 0.00072832766 -0.002740618 -0.003736361 0.003150548 0.0019990043 0.0029711814 -0.001664356 0.002860808 -0.0029709542 0.0026959034 0.0023306706 0.0030112725 0.002386078 -0.0024284155 -0.0019136872 0.0027589386 -0.0027572848 0.0014898584 -0.0016550759 -0.0033883457 0.0028695678 0.0021022137 -0.0015305252 -0.0017079059 7.466064e-05 0.001843684 0.0026837282 -0.003334306 -0.0035793188 -0.0028277442 0.0004454945 0.003007878 -0.0024679226 0.0038994912 -0.0023295493 -5.9369337e-05 -0.00323584 -0.00051598495 -0.0008250439 -0.0018921419 0.0007667711 -0.0031906324 -0.0014291349 -0.001185801 -0.003190025 0.003057132 -0.0011207411 0.0027965936 0.0035393422 0.00045731766 -0.001697449 0.0036732825 -0.0026430115 0.0014371123 0.003728056 0.00019464415 -0.002326636 0.0009028059 -0.0035359783 -0.00034618942 -8.860098e-05 -0.0020817453 -0.0022381127 -0.002688472 0.00016350207 0.0033403982 -0.0023709938 0.0005352651 0.0026651856 0.003361272 -0.0035409995 -0.0019201819 -0.0027594834 -0.0005483973 0.0022160953 -0.0004581483 -0.0020651836
23 0.0032318297 -0.00029917102 0.0038150412 -0.0016386651 0.00042578028 0.0015197957 -0.0018022262 0.0034546184 0.0031345305 0.0020175672 0.00010236831 -0.002325953 0.0004619774 0.00069303846 0.0035525959 0.0012636174 -0.0034695915 0.00063715794 -0.001030155 -0.0027506612 -0.0023764952 -0.0031571751 -0.0022779736 -0.0018077182 -0.002270286 -0.0033354887 0.003368467 -0.0031248308 0.0036189414 -0.002343066 -0.00085562916 0.001023765 0.0004258343 -0.0025200862 0.0009856866 0.0021899655 0.0034605942 -0.0018994056 0.00048255906 0.001154313 0.003542222 -0.0026509268 -0.0011330086 -0.0014994862 -0.0025624512 0.001942815 0.0033620948 0.0028826797 0.0035369776 -0.000605022 -0.0035747814 -0.0015788742 0.0018569462 0.00033650073 0.0028486436 -0.0012639771 0.0011577995 -0.0035717327 0.0030260747 7.435824e-05 -0.001071061 -0.0013640212 -0.0034189941 -0.0036683155 -0.0011334671 0.0035953333 -0.00026014954 0.0032522546 0.0025388338 0.0017386563 -0.0025311324 -0.000441182 0.00032709914 0.00020148886 0.0017749522 -0.0033932552 -0.0031960763 -0.0029915988 0.0039032071 -0.003021332 0.0028508687 -0.003294824 0.0013768078 0.0031786629 -0.0032133965 -0.0004778703 0.0033255382 0.0017759542 0.00033650678 -0.0024874068 0.0016369757 0.0021886635 0.0023600215 -0.0032768373 -0.0036916889 0.0017899926 0.00031508473 0.003828901 0.0013807733 -0.003042199 -0.0035496224 -0.0035662188 -0.003682 0.002563004 0.00066242483 0.0033053919 0.0018520685 -0.0005943039 7.174253e-05 0.0030033118 -0.0032415623 0.0012831254 -0.0015978698 0.0026069274 0.0016193828 -0.00012282834 -0.0039035091 0.003186785 0.0021110026 -0.0027488598 -0.00199165 -0.002835293 -0.0028614143 0.0019207373 0.0010373819 0.0016975063 0.0034187709 -0.0025982906
94 -0.0039013792 -0.0020896487 0.0036012596 -0.002272637 0.0024676712 0.0025684019 0.0028240692 0.0036303056 -0.00030240152 0.0022640424 0.0028420095 0.002057113 -0.0031433231 0.0003965294 -0.0036941236 -0.0028059338 -0.0007581435 0.002369063 0.0013263704 -0.00020242912 2.6230213e-05 0.0029867454 0.0017555472 -0.0020492964 0.00088834495 -0.0018826511 -0.0034112127 -0.0003611541 0.0014509155 -0.0014646336 0.0021542518 -0.003158854 -0.0030381633 0.0038465643 -0.0033353318 -7.753761e-06 0.0009075492 0.00023332972 -0.0026760024 0.00067383813 -0.0018119297 -0.0031686253 0.003192656 0.0025541985 0.0030657416 0.0013153581 -0.0024225512 0.003040983 -0.003438708 0.0026616391 8.8389956e-05 0.0014651293 -0.0012786478 0.0005007902 -0.0005300951 -0.0015179319 -0.000789594 0.0032873822 -0.00021486299 0.0016862157 -0.002713729 0.003388294 0.002343731 -0.00059100095 0.0025999916 -0.0017795152 0.003580014 0.00033993844 0.003392002 0.00161032 -0.0016514217 -0.0036611322 0.0014344589 0.00083633274 -0.0034260552 -0.0025227948 -0.00011738269 0.0030137287 0.0018550621 0.00322925 -0.0029938063 -0.0014228437 -0.0006050346 4.460424e-05 -0.0008824468 -0.0035729818 1.1930908e-06 -0.0029759563 -0.00029230284 0.0035434722 -0.00077044347 0.002694813 0.0028950355 -0.0030851557 0.0012617707 0.001883397 -0.0007286839 -0.0036398815 -0.0009957784 0.0017442196 0.003132653 -0.003884837 0.0036025718 -0.0038915668 0.0011516683 -0.0025795077 0.002474985 0.001056594 -0.0020456368 -0.0021059166 0.0024645685 0.0010438772 0.003185224 -0.0011942751 0.00022010347 0.0012647932 -0.001056325 0.0011877937 -0.003066482 0.0017581929 -0.0009855162 -0.0016275069 0.0036672356 0.00094205374 -0.0033373751 -0.0011662217 0.0003797774 0.002604101
66 -0.002945358 -0.000791432 0.003179954 0.003300388 -0.0013799078 -0.0035054963 -0.00026167274 -0.00013396272 -0.0031040222 0.0028159018 -0.0001926769 0.0022998822 -0.0019455553 0.0011910846 0.003747894 -0.002059989 -5.9763446e-05 -0.0017371798 0.0034399054 0.0006303542 -0.00068766804 0.003127805 0.002069125 0.0011182155 0.0031468812 -0.00063901034 -0.0027528822 0.0015272424 5.2173476e-05 -0.003639231 0.0019651875 0.0007127809 0.00094673206 0.0037824993 0.0019761045 -0.002784578 -0.0030143207 -0.00056834234 -0.0035526676 -0.00199281 -0.0037744122 0.0020893046 0.0019249625 -0.0038544715 -0.0027944045 0.0031915512 -0.001833458 -9.37801e-05 0.002380464 0.00017236326 -0.0037507652 0.000103726605 -0.0025731637 0.0018936084 -0.0021994777 -0.0026567222 0.0017641896 0.0032695478 0.0016558921 -0.0034967214 -0.0037749228 -0.0002950952 -5.276825e-05 -0.0021131542 0.0016722548 0.0005692285 0.0028000993 0.0018642994 -0.0036430322 0.001892198 -0.0010155939 -0.0015696113 -0.0017228653 -0.0027782158 -0.0038490396 7.546619e-05 0.00022927769 -0.003326112 -0.0033397784 -0.0015364825 0.0029019795 -0.002962427 0.0028986186 0.0027225483 -0.0030504751 0.0037759028 0.0036229494 0.0013834119 -0.002383218 6.096626e-05 -0.0023869956 -0.0022512982 -0.003047687 -0.0018777726 0.002791483 0.0020283426 0.0019087275 0.0006797981 -0.0036269221 0.00039001973 0.0032164264 0.0024761956 -0.0032262611 -0.00042717266 0.0032644775 0.0020892452 0.0031611922 0.0020867318 -0.002902706 -2.6963333e-05 0.001738687 -0.0025456413 -0.0024144172 0.00051383144 0.0018791708 0.0015239596 0.0007035506 0.0020388062 -0.00049180613 -0.000101616446 -0.0028888527 0.00062628463 0.0031172114 8.953228e-06 0.0014969116 0.00020951226 -0.002577008 -0.001838233
47 -0.0035113478 0.0017750105 -0.002829386 -0.003131639 -0.0034246147 0.0011073495 -0.0002960153 -0.0019665037 -0.0026282838 -0.0004968585 -0.00048220577 0.0008682027 -0.00021347114 -0.00028335137 -0.0026380718 0.0037405412 -0.003750966 -0.0021131297 -0.0037311246 0.0010888245 -0.003505736 -0.0011585372 -0.00044931393 -0.0023588517 0.0035481695 0.0029945646 0.0028836837 0.0034352061 -0.0022764574 -0.0023645968 0.0023608652 0.0010760062 0.00086697505 0.002952186 -0.0037048566 -2.5046827e-05 0.0013512494 -0.0022118583 -0.0028410284 0.0032103313 0.0034867353 0.001814623 -0.003459085 0.00096106634 0.00073855405 -0.0035436028 -0.0034406674 -0.0021383811 0.00065238465 0.0014634461 -0.0026104013 -0.00039251495 0.00028475188 0.0018932993 -0.0033154448 0.0018671786 0.001665655 0.0007506286 0.002255673 -0.0009900586 -0.0011755376 0.0036846593 -0.0028313557 -0.0022465377 -0.0039059054 0.0017211558 -0.00022083278 -3.619487e-05 0.0027266666 -0.0019969929 -0.0011841179 -0.0034955528 -0.0016676143 -0.0035113846 -0.002384978 -0.0031298161 0.0018473101 0.0038567388 0.00057390466 -0.00050932105 0.0011311071 0.0025061802 -0.0034542338 -0.0036839487 0.002044291 0.0019533315 2.3433751e-05 -0.001622273 0.0017807912 -0.00015479937 0.003381734 0.002431955 0.0038361226 0.0038155443 -0.0011782811 0.0024791316 0.002518261 -0.0034751291 0.0023182102 0.0013526307 0.00037568522 -0.0035093524 -0.0030082536 0.002909248 -0.0032415234 0.0029696587 0.0038221206 0.002329778 -0.0013412908 -0.00010883387 0.0038056262 -0.00041884623 0.000979516 -0.00075999397 0.0017581608 0.0017713852 -0.0016050315 0.0008662957 0.0017451721 0.001402013 0.00064256653 -0.0024813132 -0.0034162172 -0.00038756058 -0.0027032665 0.003658972 -0.0038318706 0.0005609235
80 0.001795393 0.002818419 -0.0007691045 -0.0014354207 0.00050940865 -0.0022860237 -0.003403925 0.00016683189 -0.0036753183 -0.001964546 -0.0013559829 0.0014661581 0.0012909368 0.0017094478 -0.0024650304 -0.0016327325 0.003827494 0.0009819526 -8.577179e-06 0.0015264113 -0.0007271805 0.0038837853 -0.0017582618 -0.002647197 -0.0037087495 0.0021463907 -0.0034045433 -0.0027436523 -0.0013977038 0.0017631763 -0.0036530702 0.0029434967 -0.0014885128 -0.0022837268 -0.0022335823 0.0022288682 -0.0025692363 -0.0005702377 -0.0019680648 -0.0022053109 -0.000580383 -0.002957601 -0.00075531757 -0.0035440507 0.0015816853 -0.0006288076 -0.0034968243 0.002143475 -0.0012191101 -0.0017748905 -0.0019153577 -0.0031544794 -0.0035241612 -0.0009347161 -0.001411349 0.0038993456 -0.0028636323 0.0004901084 -0.0019053683 -0.001681639 0.003474913 0.00067359186 0.00035228848 0.000715599 0.0016441185 0.001913313 -0.0011521002 0.0012363134 -0.00015987622 -0.003048034 -0.0034660902 0.0034352364 0.0019651703 -0.0013103003 -0.00024960167 -0.0009975559 0.0012137309 0.0019484407 0.0021826897 0.0007091495 -0.0033803668 0.001715459 -0.00088277494 0.0017482255 0.0026847124 -0.00052492606 0.0032207298 -0.0026507727 0.00078580366 0.00037088472 -0.00069267274 -0.0023312897 -0.003596196 -0.0026835517 -0.0032513451 0.00037952096 -4.8804344e-05 -0.0002875287 -0.0035582276 -0.0008951485 0.0030956473 0.0009665536 0.0036089064 -0.0011260641 0.0026617204 -0.0027655996 -0.003370996 0.0023247113 0.0008561938 -7.243069e-05 0.0018212622 -3.148644e-06 0.0026478032 0.0016974548 0.0035878906 0.0025831957 -0.0007912863 -0.0017909635 0.002809588 0.0032348258 0.0008956279 -0.0022615895 0.003716956 -0.0035218908 0.0034741398 -0.0038431946 5.0941584e-05 0.0016864684
32 -0.0034227741 0.0033834316 -0.0027307174 0.00083597464 0.003525884 0.0034295516 -0.0032993779 -0.0034474845 0.0021811824 0.00050636 -0.0015699454 0.0038320972 -0.002649298 -0.001730181 0.00310696 -0.0012264116 -0.0003417887 -0.0032127027 -0.0038103838 -0.002111304 0.0037701079 -0.0035242913 -0.0021023438 0.0022775794 -0.0031925226 -0.001012153 -0.0035913798 -0.0020507937 0.0029657881 -0.0033783827 -0.0012992184 0.0004176838 0.0025361308 -0.0030418674 0.0018006277 0.0032683006 -0.00060970586 -0.00060929277 -0.0033598328 -0.0030298417 -0.00015646422 0.0034007241 0.0038618331 0.0020384213 -0.000717872 -0.0016142168 -0.00022252137 0.00029382674 -0.000670096 -0.0032906658 -0.0017151223 -0.002432104 -0.00017108899 0.001156506 -0.0035989117 -0.0022308545 0.0016271457 -0.0009824419 0.0034204568 -0.0025603771 -0.0017757475 0.0007581539 0.0013156679 0.0033962755 0.0023849914 -0.0023954194 -0.001845018 -0.002209135 0.0035802554 0.00031485272 -0.0035000574 -0.0004288834 -0.00033406971 0.0027448796 0.0026646047 -0.002172514 0.0031109015 0.0013683799 4.342594e-06 0.0019829534 0.0016762625 -0.0038721054 0.002986456 -0.00040589547 -0.0010220153 0.0030653703 -0.00040960664 -0.0012175121 0.0026019148 0.0012927261 -0.0034016413 -0.00015980701 -0.0031377703 -0.0015438836 0.0029318538 -0.00043283982 -0.0031077685 0.0001199963 -0.00041307465 -0.0030267476 0.002905092 -0.0014259674 -0.00070829707 -0.0013010206 0.0026821478 -0.0025503556 0.003000724 0.0029691784 -0.000760352 -0.0026018634 -0.002750963 -0.0008291506 0.0006898349 0.0033448164 -0.0001471622 0.002665555 -0.00028580628 0.0008247317 0.002344344 -0.0003584248 -0.0007805528 0.000798557 0.0029845722 -0.0011891853 -0.0022968336 0.0005137209 0.00079129287 -0.00087501906
46 -0.00016982369 0.00249916 0.0012194432 -0.0010678455 0.0003291498 0.0031649456 0.0030625763 -0.000707909 -0.00023374827 0.0035104956 -0.0026538963 -0.003507942 -0.00050270034 0.002923938 4.976601e-05 -0.0032797828 -0.0012906572 6.610171e-05 0.0024159697 0.0033198872 0.0015176658 0.0006881149 0.0010593808 -0.003109812 0.002306266 -0.0016032149 -0.0021510557 -0.00074002886 0.0032968302 -0.0024044367 -0.0028419208 -0.0031102102 -0.0038523008 0.003553121 -0.00079694524 -0.0012206242 -0.002661458 -0.0010901615 -0.0026431598 -0.0017669514 0.0031441804 0.0009746561 -0.0015712429 -0.0011860142 0.00011968837 0.0008785335 -0.0029429197 -0.0037527275 -0.0028760212 0.00041651956 0.0026185715 -0.0028818827 0.002709358 0.0020879991 0.0022183391 -0.003295781 -0.0024624916 -0.0034193092 0.0007494278 -0.0022885124 0.0015871783 0.00013223424 0.0029413148 0.0030027987 -0.0032909024 0.003544574 0.0011351567 -0.0014494709 0.00059521815 0.0031592476 -0.0014241311 -0.002752914 -0.0020862494 0.0027346138 0.00035212983 -0.00095334335 0.002698599 0.0018649931 0.0014252083 0.0032527787 -0.0035511118 -0.00013214152 -0.00068075553 -0.0035853966 -0.0015102368 0.0035625705 -0.0024449313 0.00028911233 -8.255372e-05 -0.0019387173 -0.003052952 0.0029472737 0.003079651 -0.0038383368 -0.0024710551 0.000499563 0.003431778 0.00018477072 -0.003417456 -0.0029812187 0.0013741078 0.0013112784 0.000512718 0.00051796885 -0.0022066224 -0.0015760609 -0.0009766553 0.0031586948 0.0004581549 -0.00025139493 0.0013575502 -0.0030191808 -0.00048254064 -0.0038184712 -0.0038413852 0.0018964385 0.0023995512 0.0017423944 0.00044351723 -0.0006374397 0.0034956185 0.0017675166 0.00062110735 -0.0013085135 0.0034446374 0.002957256 -0.002009456 -0.003809125
36 0.0014422652 0.00040134502 -0.00066601066 0.0007861634 -0.0037818532 -0.0012369411 0.0017853 0.0021072116 0.0025532728 -0.00286951 0.00032831344 0.0023951107 0.0036338603 -0.0011791437 -0.0015298134 0.003403997 -0.0014119848 0.0028160098 -8.7509405e-05 0.0012751862 -0.0035295752 -0.00045418533 -0.000120348006 -0.0021038456 -0.0028655233 0.0034723675 0.0018616632 -7.088253e-05 0.0026017549 -0.00021652857 0.0022589834 -0.0007993633 -0.0012481667 -0.0024668414 0.003646942 0.000225331 -0.0030599942 0.0010940258 -0.0013522039 -0.0035098286 0.0023884499 0.0024260103 0.003655045 0.0017261591 0.0036506276 -0.0022643572 -0.0032430287 0.00086345006 -0.0020414116 -0.0003473906 0.0014902176 -0.0035524634 -0.0036138468 0.0033745046 -0.0010301191 -0.002145847 0.00052506116 0.0010794676 0.0024191793 0.0012906188 0.0008982221 -0.00137925 -0.00187525 0.003747683 0.0022298677 7.992698e-05 -0.00059228676 -0.00071852695 -0.001006517 0.0035148764 -0.001954833 0.00014754025 -0.0033285865 0.0037721996 0.0021150527 0.0011683329 -0.00040540023 -0.0026144348 0.002815785 -0.0017565868 -0.0012763188 -0.0020018106 0.0028511095 0.000503102 0.0001532614 -0.0027340641 -0.00048329306 0.0017257716 0.0012581706 0.0021905035 -0.0030544316 0.0019624708 0.00060703733 0.0023529562 0.0026557213 0.0007766889 -0.0035329154 -0.0007871914 -0.00069342065 0.00042954137 0.0034456344 -0.002038748 -0.0037280424 0.0022323935 0.00017581579 -0.0012576594 -0.0008385771 0.0011163063 -0.0019074337 0.0020484438 -0.0027893293 0.00063345383 -0.00036370507 5.645901e-05 0.002704011 0.002714252 0.0012532909 -0.003374323 0.0015557241 -7.8116405e-05 0.0037610498 0.0008172971 0.002040732 0.0031678209 -0.000565068 -0.0027403084 -0.0027637933 0.00051069877
77 0.00015252258 0.000274686 -0.003481776 0.0034559746 0.002185874 0.0019538756 0.0017109266 0.0028373469 -0.0018410329 0.0027200219 0.0037434371 -0.0030251474 0.0003902336 -0.002517663 -0.0026084525 -0.003442108 0.0017629634 0.0034455184 0.0014846978 0.0017221654 -0.0007534786 -0.002212103 -0.0006336445 0.0015263557 0.0023876522 -0.00052206015 0.00042200988 0.0022697928 0.002270391 -0.0007985037 -0.0033409898 0.0030603732 -0.002766724 -0.0017431846 -0.0035309712 -0.00276445 0.0018264671 0.00068449246 0.000110304725 0.0030775664 0.002959754 -0.0015914132 0.0030380161 -0.002605921 0.0024158976 -0.003795647 -0.003154583 0.00088415353 -0.00053014816 0.0007925581 -0.002581321 -0.0032203596 0.0035921142 -0.0033735873 0.00013305942 0.0010089398 -0.002157499 0.0010623211 -0.0005627899 0.0029006845 0.0032637478 -0.0036524164 -0.0012814663 0.0013854459 -0.0009881177 0.0033624135 -0.0011496496 -0.00092131365 -0.0013122889 0.002133091 0.0008084657 -0.00011880347 -0.0010331769 0.0014804174 -0.0024703054 0.0033106299 0.00029219265 0.0018679034 0.0015329737 0.0020372234 0.0038218382 -0.0013262929 -0.00014153443 0.0026794446 -0.0015334919 -0.0016741441 0.003628216 -0.0038098642 0.002923464 -0.0002899342 -5.4651195e-05 0.0022776148 0.0028664027 -0.0025924419 0.003262325 -0.0017622167 0.0026612028 -0.0022301106 -0.0030370732 -0.0021596611 0.0029413304 0.0023681174 0.0010444397 -0.0011812238 7.336994e-05 -0.003292331 -0.00048803113 0.002703109 0.0032334966 0.0010875718 -0.003311222 0.0032028477 -0.0024644868 -0.0015662077 0.0018012605 -0.0009783119 -0.0036659294 -0.002140008 -0.00070137804 -0.0017660399 -0.0019308391 0.00079673267 0.0020943147 0.00022877989 -0.0027701224 0.00080050447 0.001586617 0.00065776746
31 0.0018133322 0.0002280259 9.4617004e-05 -0.00016550809 0.0018264296 -0.00025501475 0.0029706717 -0.001113792 -0.002777929 0.0027403054 0.0009927017 0.003211918 0.0015896545 -0.0021877552 0.00026574588 -0.0038051102 -0.0017474107 0.0030830312 0.0035950565 -0.0011318942 -0.0009771287 -0.0033502732 0.0028075571 -0.0011325537 -0.0031279733 -0.0036204858 -0.0010495026 0.0018106845 -0.0025765041 0.002178271 -0.0031604709 0.0023640709 0.002958408 0.0010276726 -0.0019279715 -0.0031418463 -0.001716932 0.003456606 -0.0013673741 0.003654862 0.001185753 0.003253998 -0.0012056532 -0.001736862 -0.0018419031 -0.001603314 0.0010553478 -0.0031549556 0.00019689466 -0.003402215 0.00046251016 0.00011700383 0.0033574216 -0.0020263377 0.0029693835 -0.00086763094 0.0027909533 -0.0025235119 -0.00207555 0.003472965 -0.0035887521 0.0010917244 0.001097985 0.0026301837 -0.00027022377 -0.0005668803 0.0032443218 -0.0010407717 0.0025573531 -0.0034761392 -0.0018849351 -0.00022125563 0.0015072906 0.0005446384 -0.00025491044 0.0026458565 -0.0019220309 -0.0019081681 -0.0017315792 0.00028996382 -0.00039114532 -0.0025392242 0.0030602682 -0.0029799978 -0.0035197071 -0.0017805469 -0.0012969386 -0.0007718618 -0.0021950426 -0.0031916478 0.0013834449 0.0028658507 0.0022164609 0.0029690792 -0.003048498 0.0010650576 -0.003644116 -0.003492 -5.4443863e-05 -0.0012414933 0.0026100127 0.002346832 -0.0025681125 -0.0032288595 0.0017665264 -6.337652e-05 0.0037465391 0.0027950997 -0.0022291197 -0.00037474147 -0.00084215245 0.0019885264 -0.0013699242 -0.002123094 -0.0015224147 0.0010934361 -0.0026245643 -0.0027763203 -0.00024976983 0.0035052912 -0.00028007347 -0.00070806773 -0.002383788 0.001939687 0.0005582432 0.0022164246 6.0339727e-05 0.0004126457
26 0.0013124124 -0.0017216643 0.0020205174 -0.0010676514 0.0007569511 3.250753e-05 9.577678e-05 -0.0012829864 -0.002537473 -0.0012529896 0.002874814 0.0009962713 0.0018281817 -0.0029442983 0.002107318 -0.0019616587 0.0024473441 -0.0031925049 5.290153e-05 -0.00014817713 -0.0030850645 0.0012026273 0.0024480831 -0.0029684082 0.0030769724 0.0037094194 0.0020770258 -0.003453443 0.0024568872 0.0035196072 0.0007567223 -0.002719775 0.00064057263 0.003134953 0.0019714516 -0.0034916326 0.0020314108 0.0024836387 0.0019717496 -0.0030310086 0.0017722178 0.0036984421 0.0023183401 0.0021409763 -0.003312848 0.00346854 0.0037010026 0.00230819 -0.0019162656 -0.0023958152 0.0031336765 0.0030767699 0.0010890086 -0.0029862311 -0.0007665652 -0.002137688 0.0037910338 -0.002488613 -0.0007450083 0.0018175992 0.0012064168 -0.0013708017 0.0019916298 -0.0033951742 -0.0022959935 -0.0003901576 -0.0016585472 -0.00022999568 -0.0031174235 0.0021856183 -0.00163314 0.0033374769 -0.00030879962 -0.0029788131 0.00047986326 0.00085367676 -0.00033024632 0.0014930248 0.0024157045 -0.0006291098 -0.00033699456 0.0016055923 -0.002629672 0.0021451332 0.0018640915 -0.0016070376 0.0027331295 0.0009652787 -0.003661118 0.0036174147 -0.002854397 0.0017088767 -0.0033537212 -0.0017050764 0.00042433088 0.0017814976 0.0025908852 0.00089582935 0.002542122 -0.0032430172 8.0475795e-05 -0.0037251515 -0.00049971277 0.00039587464 3.273782e-05 -0.0038195166 0.0015845002 0.0028902278 -0.00101881 -1.4090211e-05 -0.0008539989 0.0005488946 -0.0028537014 -0.003137326 0.0032040586 0.0029368412 0.00289721 0.0021714082 -0.0003104996 0.0024862222 0.002305854 -0.0024441108 0.0029631858 -0.0002610523 0.0037922794 -0.002221218 -0.00048402592 0.0036506583
54 -0.0009623812 -0.0011628959 0.0028302039 -0.0016348864 0.0037591287 -0.0021655187 -0.0007257055 -0.002897804 0.0024056945 0.0036508352 -0.000100857054 0.0009195838 0.000257397 -0.002910076 0.00025441794 0.0028786294 0.0022206504 -0.0025025907 0.003340665 -0.00014470848 0.0016135918 0.0037000035 -0.0009888218 -0.0021878215 0.0024296537 -0.0010596171 0.0022713158 -6.256835e-05 0.0021239698 0.0016420558 0.0034806845 0.0030339954 -0.0037516996 0.0021680794 0.0018617773 -0.0030644636 -0.0016004876 -0.00048831076 -0.0004954636 -0.003698422 0.0027921295 0.0033675095 0.002005366 0.0020407825 -0.002467098 -0.002832997 -0.0022303083 -0.0023616964 0.00017313837 0.0017258805 0.0008366101 -0.0002423504 0.0016861141 0.0027789576 0.0015786559 0.00097315747 0.0035879945 0.0025083523 0.0020067184 0.00060193456 0.0021316689 -0.002216357 -0.002728749 0.0027427236 0.0038108781 0.0024266131 0.00042871732 -0.0006930023 0.0026108967 -0.0024282623 0.0023670045 -0.002554299 0.0030351023 0.00014968528 0.0031954297 -0.00023399254 0.0019985875 0.0031491006 0.0005938969 0.003084477 0.0007854503 -0.00023041727 0.0006748031 -0.0033618647 -0.0022179687 0.003670027 -0.00041340006 0.0029272314 0.0037375693 -0.0026595532 0.0016431093 -5.683511e-06 0.0031851106 0.001803938 0.0007625546 0.00383447 -0.00027300505 0.0009155159 8.8032495e-05 0.0033235573 -0.0030906785 -0.0013034876 0.00022366036 0.0029292007 0.002489735 -0.0021185442 0.0014166235 -0.0021552632 0.002888533 -0.0024889845 -0.0032034935 -0.0011073995 -0.00038675446 0.0011430752 0.00037385907 -0.002871286 -0.0027063736 -0.0019856307 0.002050304 0.0006000493 -0.0028773998 0.0018869822 0.0009065297 -0.00070789194 -0.0035422847 -0.0012432543 -0.002104587 -0.0030591078
95 0.0035963443 -0.0036942128 -0.001874976 0.00083279185 0.0015300792 -0.0011560227 0.0030160067 8.355849e-05 -0.0007270791 0.0006796556 0.0023977763 -0.0012584414 0.0019282113 0.0032952195 -0.0002315886 0.00341674 -0.0016080536 -0.0004875497 -0.003525829 -0.0025613534 -0.0005677341 0.0025095271 -0.0037032086 -0.00025699695 -0.002172869 0.0030614021 -0.0017364951 -0.0019812123 -0.0003320723 -0.0029958736 0.0014026682 -0.0030032168 -0.0030562356 0.002782574 -0.00035849796 -0.0010377219 -0.002517736 0.00033863558 -0.0035408866 -0.0019120337 -0.0003297044 0.0027223649 -0.0022359255 -0.0014506342 -0.0015431792 0.0036103297 0.0030547127 -0.002003056 0.0030681752 -0.0034056788 0.001247222 -0.0036030505 0.00014122068 -0.0023257798 0.0021723127 -0.0006467547 -0.0021651525 0.0037860873 0.0029316416 -0.0019240872 -0.002232842 0.0019861846 0.0033934833 -0.0038746197 -0.0010271837 -0.00042228552 0.00268188 -0.0017725849 -0.00025838483 -0.0018606405 -0.0012636536 0.001638409 -0.0017244184 0.0015452253 0.003738306 0.0014206477 -0.0020629615 -0.0023923544 -0.0021257107 -0.0038646641 0.00068040396 -0.00024444223 -0.003399831 0.0026227725 0.0011916728 -0.002583945 -0.0024963159 -0.0026632105 0.00019501652 -0.003286161 -0.0014431159 0.0007567589 -0.001515098 0.0013469073 -0.0023269383 0.0014821108 0.0027745706 -0.0036074123 -0.0018138117 0.0001123642 -0.0011204963 0.0015107429 0.0033723887 -0.0030038238 0.00282852 -0.001961747 0.0020185055 0.0020615773 0.0038235092 0.0016298888 0.0009466804 -0.0021631739 0.0016692897 -0.0028602232 0.0025123975 0.0032360351 0.002587482 -0.0038944508 0.0033714918 0.0020204673 -0.0007153648 0.0014893138 -0.0028603268 4.5360734e-06 -0.001559632 -0.0030446227 0.0011973906 0.0014440943
87 0.0032192594 0.00045451085 0.0017848897 0.00078404846 0.0038767778 0.0034297644 0.003876658 -0.0017279327 -0.0029629488 0.0006776599 0.00025442828 0.0028658847 -0.0035582162 0.0024126668 0.0030883304 -0.0012461167 -0.0020091448 -0.002946017 0.001523202 -0.0020767013 -0.003542555 6.804777e-05 0.0019912072 -0.0032060477 -0.0019659456 0.0017507053 -0.0026555278 -0.003418197 -0.00043618644 -0.0010808627 0.0034215122 0.0035850557 0.0014715722 0.0013918792 -0.0009804607 -0.003860919 0.0027277442 0.0014773882 -0.0021222217 -0.0010445907 -0.0031061543 -0.001462056 0.003589098 -0.002761904 0.0011966683 0.001969266 0.0026774546 -0.0037857462 -0.0037752602 0.000588357 0.0009679851 -0.0038922837 -0.0037184318 0.0028240087 -0.0013072253 -0.0033584572 -0.0022037474 0.0016767957 -0.0021128184 -0.002053407 0.0012494768 -0.0010025034 -0.0037043074 -0.0031408407 -0.00043013107 0.00044255445 -0.00025110447 0.0022484937 0.00037633796 0.0020276466 -0.0017013435 0.00386083 0.0034627833 -0.0027865984 0.0013427426 0.001996784 -0.003095506 0.002286849 0.0004298191 9.072455e-05 0.0013675675 -0.0019717326 -0.0034911653 -0.00022729191 0.0028799553 0.00050572166 -0.0025652708 -0.0003039252 -0.0032228408 0.0006249876 0.0005779806 0.003712152 -0.002010297 0.0013628559 -0.003100364 -0.003427508 -0.0035903328 0.0007735542 0.0017572764 -0.00018836059 0.0021186478 -0.0009975731 0.0003849411 -0.0021324907 -0.003686322 -0.00027367476 -0.0022564873 0.003324926 0.00093582703 0.0032890323 0.0017647115 -0.0034680201 0.0027505064 -0.0013127979 -0.0007395403 -0.002781987 0.0037755896 -0.0012074702 -0.0025413383 0.0019617935 0.0005667615 0.00086294353 -0.002290289 0.0011613343 0.0004025622 -0.00083710894 0.0030979184 -0.00318289
30 0.0034173504 -0.002187113 -0.00020709696 -0.0014316501 -0.0014275025 0.001900161 -0.0027240673 -0.0011844762 -0.0024797863 0.0032694652 0.0013533802 0.003876706 -0.001084439 -0.00023326068 0.0021322698 -0.0017886511 -0.0011997805 0.0011329906 0.001601946 0.0009571743 0.000727011 -0.00023862746 0.0026924307 0.00031631286 -0.0023230782 0.0016968054 0.0014094731 0.0032196334 0.0033384818 0.002629598 0.0026954862 -0.0019000188 0.0019817038 -0.0011655235 -0.003717592 0.0037684103 -0.0027968793 -0.0016305514 -0.003287627 0.0002769874 0.002510114 0.0007970151 -0.0014504646 0.0018306391 0.00049627025 0.00039251745 0.0014129945 -0.0011334862 -0.0011324803 0.0018685878 -0.0025185242 0.0020734433 -0.0014483287 0.0037999486 -0.0036408724 -0.0015783575 0.0009135796 -0.0002084471 0.0032439402 0.0021182895 0.0025727097 -0.0036324777 -0.0016581361 0.0028063797 -0.0011563508 -0.0031169981 -0.0028418456 0.0036707807 -0.0014775724 -0.0021749474 -0.0036501242 0.00074998295 -0.0015606006 0.0015594873 -0.0017405957 -0.003685617 0.0016779916 0.0011854521 -0.0011458418 0.0017722233 -0.0020157704 -0.0019095272 -0.001592891 0.002837097 0.0017288718 0.00019689137 -0.003317068 0.0034937095 0.0027816 0.003367753 -0.00056953944 -0.001437379 0.0024561284 -0.0006626317 -0.0024860154 0.0037502467 0.0026843916 -0.0005855461 -0.0028036283 -0.0013399166 0.0007811086 -0.0005527809 -0.0033885592 0.0012592191 -0.002435957 -0.0031207216 0.00070469716 -0.0010803643 0.0035420845 -0.003494412 0.0007834264 -0.0037018622 0.00057629304 -0.0023314182 -0.0036149854 -0.0027153585 -0.0020338933 -0.0038297346 0.0016455903 -0.0036060982 -0.0033699216 0.0015577835 -0.0036981285 0.00247159 0.0020339985 -0.0034738278 0.0022809913 0.002541518
67 -0.003837593 0.0019797296 0.0032462736 -0.00080650864 0.0017611317 0.002169464 -0.0017220572 0.0011614907 0.0012780032 0.0010799745 -0.0024526073 -0.000973724 0.0023694132 -0.0020497628 0.002130169 -0.003134806 -0.003489689 -0.0011788857 -0.0007255752 -0.0008096969 -0.0020305996 -0.0006859364 -0.0014313048 -0.0021965445 0.0016676538 0.0018188134 0.0007569218 0.0034552633 0.003193167 -0.00062196987 -0.0013052939 0.0013543967 -0.0020010304 0.0007422834 -0.002270967 0.0008061952 -0.0023836386 0.00016204146 -0.003444589 -0.002418054 -0.0005064882 0.00029238104 0.0038073426 -0.0004190557 0.0035898117 0.0029871697 -0.0038998644 0.001099517 -0.00043242172 0.00054535654 -0.002832689 0.00055950397 -0.0032775516 0.00025865002 -0.0019289327 -0.002443714 0.003193767 4.4407912e-05 -0.0020270569 0.0025946044 0.0005020721 -0.0038346031 0.0008188336 -0.0023459746 -0.0033537322 0.0013187282 0.0037724867 -0.003446283 -0.0026241702 0.0005379982 -0.0017281469 -0.0035608606 -0.0031044967 -0.0007345633 -0.003203626 -0.002161176 0.0011054567 -0.002418764 0.0031540138 0.0015190025 0.0029271753 -0.0002314811 -0.00056504004 0.002446631 -0.0034978527 -0.0023052802 0.0008312424 -0.0027489455 0.00055220246 -0.0035365014 -0.0037241494 0.0010394349 0.0034030378 0.0007248292 0.0025625352 0.0004351357 -0.003052635 -0.0026769382 0.0030575637 0.0014737521 0.0029362056 -0.0026756695 -0.001852661 0.0033920258 0.0009528224 0.0036121658 -3.1842006e-05 -0.0004296077 -0.00022104236 0.0029991136 -0.0013519262 -0.0010184055 0.0026227473 0.0035286725 -0.0021818827 -0.0033521156 0.0021981525 -0.0033910798 0.002222695 -0.0026668492 -0.0030602776 0.00011603605 -0.0012027462 -0.0014202651 -0.0031356975 0.0013892491 0.0018699116 -0.00024006679
24 0.00035416964 0.00082878914 -0.0033660633 0.00073986023 0.0037688236 -0.0019111137 0.0031162447 -0.0025006006 0.000667085 0.0003514054 0.0031923463 0.0027544983 0.0011614712 -0.0010861302 -0.0018665902 -0.003771754 -0.0010878047 -0.0019020111 -0.0029757917 0.0032461723 0.0032221188 0.0009818692 -0.0026227364 -0.003104359 0.0036339278 0.00075097376 0.002340836 0.0014048578 0.00020154327 -0.003871079 0.0031150074 0.0034737003 0.0029058477 -0.0006489165 0.000108057626 -0.00070970465 0.0017821615 0.0014627811 -0.00089307944 0.0024366833 0.0026112713 0.0017653339 -0.0016634326 0.0035539437 -0.0012890331 -0.003554088 0.0027679328 -0.0035841272 0.001024323 0.0017718149 -0.00092763297 -0.0022748793 -0.0015470593 0.0025481759 0.002378833 -0.0010259696 -0.0037602212 -0.0038569965 0.001352419 2.4856083e-05 0.0026861667 -0.0032945327 -0.0012434119 0.0019613518 0.0011235267 0.0011038916 -8.065375e-06 -0.0025813626 -0.0018222948 -0.0024468123 0.0033876938 -0.0026459824 -0.00292835 0.0035524864 0.0030704062 -0.0023518156 -0.0030009842 0.00072113547 0.0012321767 -0.0014372086 0.0009061677 0.00331883 0.0016142146 0.0011009795 -0.0023294063 -0.0014986832 0.0028625582 0.0013663924 0.0009240337 4.115198e-05 -0.001992821 -0.0038016392 -2.4462825e-05 -0.00023301685 0.0038682779 -0.0033878274 0.0030882296 0.0013590823 -0.0016119389 -0.003423678 0.00089405134 0.0010689682 0.0010706881 0.0016037707 -0.0029629245 0.0014499606 0.0029813226 0.0012728707 0.00021784195 -0.0004874237 0.0035843907 -0.002112225 0.0029985358 -0.0020439003 -0.0007733763 -0.00030337906 0.0018176789 -0.0034357328 0.0014531616 -0.002072603 -0.00013400296 -0.0025041518 -0.0006958811 -0.0032379334 0.0011258012 0.0007219315 -0.0036698403 -0.0027303663
70 0.000970928 0.0034183948 -0.002606146 0.0033948973 -0.0027427792 0.00033050348 0.0001637727 0.002191337 0.0012668587 -0.00068386865 -0.0029114143 0.00069502136 -0.001764254 -0.003612852 -0.0023043004 0.001076061 -0.0018128769 0.003711124 0.002741806 -0.00339051 -0.0021412652 0.0022032463 -0.00245159 0.0034745834 -0.0037098683 -0.0019076155 -0.0026582056 0.0019889192 0.0020801828 0.0011706738 0.0038154616 -0.0038838352 -0.00276724 -0.00047521165 -0.0020498186 0.0019769715 -0.0001780586 -0.002084817 -0.0013177538 0.0007438872 0.0015515289 -1.8385479e-05 -0.0009894724 0.0009986494 0.0023018138 -0.00218452 0.0035565766 -0.0017078858 -0.0013954993 -0.00019746127 0.0017748303 -0.0032990146 -0.0031805376 0.0024875817 -0.0026184563 0.0017020812 0.0032947804 0.000362606 -0.0030052415 0.0013502506 0.0036141658 0.0016516742 -0.0013002453 0.0004706613 0.0011698921 0.001874163 0.0027836598 0.0025278046 -0.00020428079 -0.0027318595 -0.0005412003 -0.00031342474 0.0025949734 0.00313734 0.00029543886 -0.0026799224 0.00013993135 -0.0025613497 -0.002019692 0.003489581 -0.0027328308 -0.0022299588 0.0024186717 0.0031380106 0.003603453 0.003144697 0.0018728422 0.002810817 0.00041584982 -0.0020829968 0.001976104 0.0016667816 0.0005773834 -0.0032304493 0.0013191518 -0.0031736607 0.0035177167 -0.0023130125 -0.00016154093 0.003344734 -0.0005581715 -0.0008665413 0.0029644875 -0.0026206751 -0.002002131 -0.0013124299 -0.0038863954 0.00103016 0.0014571398 0.001426781 0.002302197 0.0013911518 -0.0026953854 0.0020726498 -0.0018893871 0.0012413489 0.002221399 0.0039013817 -0.001629463 -0.0017368952 -0.002709813 -0.001020458 0.0033105526 -0.0030208218 0.0038879483 0.0010887414 -0.0026537532 -0.0014011469
78 0.0021355406 0.0008757331 0.0024629007 0.0032594295 -0.0021966982 7.55244e-06 0.00074164086 -0.0009307937 0.0002383171 0.0022263855 0.00010791893 -0.0024774396 0.0016105553 -0.0024085117 0.0016962368 0.0010990625 0.0017594914 0.0026125405 -0.0008977311 0.002108506 -0.0032592902 -0.003577781 0.0035533295 0.0038138784 -0.002028867 -0.002325133 -0.003529365 0.0014273477 0.000916211 0.0033148304 -0.0010954399 0.002071901 -0.00088896375 -0.0024216666 -0.0034646387 0.0009746337 0.00041049192 0.0028996132 0.00024136502 7.2163435e-05 -0.00093457825 0.0026003208 -0.0023272773 -0.0030744723 0.0020311025 0.0013936835 -0.0035175981 0.0011611636 -0.0022533534 0.0007326836 0.003737932 0.0036167335 0.0032661476 0.0014441998 -0.003011184 -0.0032151556 -0.001504151 0.00079968415 -0.002210251 0.00024665723 0.0020502617 0.0012467213 2.5242307e-06 -0.0003817321 0.0021339767 0.00042794057 -0.0015271348 0.0006100755 0.0015372975 0.0007388496 0.0006009008 0.0011660001 0.002807368 0.0017819976 -0.0033868006 0.0008864521 0.0005090561 -0.0035186298 -0.00075597013 -0.0038439536 -0.0005842321 0.0016860432 -0.0023344858 0.002588781 -0.001312065 -0.0017303497 -0.001871445 -0.003251909 4.17062e-05 -3.2694923e-05 0.0018266649 0.000509891 -0.0035684125 -0.0022185184 0.0009174126 -0.0015832963 0.0018486276 1.6301747e-05 0.0019427204 0.001051702 -0.0038754847 -0.0037905471 0.0011343473 -0.0026115389 0.0028075443 0.0002511964 0.0013487879 0.00123206 0.0020911666 0.0016098093 -0.0028163465 -0.0029129975 0.0016184842 0.0035443061 -0.0019795 0.0015190266 -0.0030178493 -0.0003046501 0.0023173802 -0.0026670513 -0.00071869144 0.0033064638 -0.0036059748 -0.0017683109 -0.0007185466 -0.0010271155 -0.0012140765 -0.0032698428
71 -0.0038133832 -0.0022235755 -0.002206371 0.0019971468 -0.00059265114 -0.0022768339 0.0005284592 0.0017514583 -0.0015088469 0.003695859 7.678998e-05 0.00045971156 -0.0026346634 0.0018239666 -0.0014623877 0.0023621444 0.0021979713 -0.0006928258 -0.0009203836 -0.0019691393 -0.0013384338 0.0018960742 0.00071603205 0.0009653977 -0.0026189436 0.00012602356 0.0008646024 -0.0016868998 -0.00042896185 -0.0021523074 0.0007960232 0.0032663671 0.00367722 -0.0018417086 -0.0025777537 0.002013769 0.0030246032 -0.0013089948 -0.0014447304 -0.0022737 0.0034158097 -0.0031806608 0.0024415944 -0.0035255156 -0.0028758056 0.0020017258 0.0024998256 0.0032336663 0.0018926301 0.0035760533 -0.002206113 -0.00096753635 0.0002051843 -0.0032582958 -0.0007214748 0.0037112387 -0.0016916705 0.0013129566 0.0035520755 0.001848089 0.0037514672 -0.0025593466 0.0028650723 0.0015013556 -0.0025024423 -0.002992138 -0.0014486135 -0.0016747762 0.001276145 0.00020919654 0.0019017002 0.0037634147 -0.0010941917 0.001631429 -0.0025803568 -0.0010112734 0.00064145494 -0.00032576642 -0.0027002913 0.0002522352 -0.00021430352 -0.0017807981 0.001100763 0.001235657 -0.0038697154 0.0019651765 0.003679847 0.003444099 -0.0033233515 -0.0031645817 0.0006091222 0.0027378798 0.001380588 0.0024986675 0.0038360248 0.0017262725 0.003324987 0.0032767304 -0.0022514595 0.0027745087 -0.0016558913 -0.0010500576 0.0036515358 0.0016144397 -0.0027855234 -0.0009433698 -0.0009071746 -0.0015752647 0.0021226532 0.0011703917 -0.0034438095 -0.00065875496 0.0027312643 0.0018189328 0.00074226886 -0.00041320443 0.0022515235 -0.0018069976 -0.0026665605 -0.0006585389 0.0013943989 -0.0034986765 -0.0019610303 0.0015753392 5.5180404e-05 -0.0038587768 -0.0023446272 -0.0023436113
18 -0.0028512555 -0.00097175717 -0.0036316724 0.0038443008 -0.0035074009 0.0009926314 -0.0036491402 0.0028891517 -0.0005583459 -0.001832723 0.0019021095 -0.0027316003 0.00038528547 0.00055010326 -0.0036988386 -0.00019692608 0.0031886487 0.003117971 0.0033627646 0.0021876427 0.00085948245 0.0022899334 0.002251191 -0.0037825159 0.0013867442 -0.0010117143 0.000577413 0.0031023964 -0.0007752497 -0.0035064272 -0.0024368332 0.00027858847 0.00047929754 0.001149172 0.0030093763 0.0030960396 0.0033143777 -0.0007817613 -0.0006493973 0.0026426006 0.002663069 -0.001972507 0.0015668289 -0.0012113712 0.0012903777 0.0026300584 -0.00021047059 -0.00067587505 0.001734548 -0.0036586218 0.00040442505 0.0020073226 0.00036561373 -9.062187e-06 -0.0004055556 0.00060740934 0.002312429 0.0003477144 -0.00044548287 4.487082e-05 0.0036362908 -0.0024641939 0.0010793001 0.0022332168 0.00039904253 0.0004913049 -0.00077384134 -0.0037681016 0.0008053011 0.003664238 -0.00080980535 3.903174e-05 0.0032892348 -0.00033829376 0.0006978373 -0.0015106356 -0.0014459452 -0.0030584324 0.0024352283 -0.002084204 -0.0029007676 0.0021440752 -0.0014226459 -0.00048934534 0.0003439438 -0.0024370966 5.195174e-05 0.0015509996 0.002451104 -0.0012279025 0.0038556922 0.0011068095 0.0023498128 0.00024804618 0.00059151615 -0.0022275492 0.0010950336 -0.0025134825 -0.0001182714 -0.0033429938 -0.00064467354 -0.0019890708 0.0016875152 -0.0001961897 -0.003505092 0.003648559 -0.00066336984 0.0021938782 0.0034746972 -0.0012962426 0.0033655907 0.0010577856 -0.0009384027 0.0024530233 0.0023147934 0.0037589932 -0.0006746276 0.0016717315 0.0026610729 0.0009617244 0.0011372386 -0.0010528453 -0.003665085 0.00055829773 0.002820485 -0.00033874085 -0.0010511726 -0.0025638624
65 0.0037452155 0.0038409273 -0.0018182725 -0.00025800345 0.0009161794 0.0031661931 -0.0017584207 0.0018992171 0.0025722163 -0.0002752635 -0.00018692139 0.0029887503 0.0010231612 -0.0027950655 -0.0029737677 -0.0029163556 -0.0034012424 0.0024962004 -0.0038657363 -0.0037632345 0.0020519057 0.00041296124 0.0017167192 -0.0016190052 0.0034227087 -0.0021526276 0.0034750241 0.0019475376 -0.0020210652 -0.0029069253 0.001092894 -0.0003339223 0.002463363 -0.0021076626 0.00021268177 0.0036348782 0.00035672172 -0.0026199627 0.0007549973 -0.002134425 -0.00014322736 0.0014965629 0.0034023935 0.0005332645 -0.0030803278 4.2090353e-05 0.0016401561 0.0034800796 -0.002273572 -0.0022834598 0.0004150044 0.0019688956 -0.0016854516 0.00019929024 0.00096488016 0.0033802495 0.0004631983 0.0023042324 0.00211092 -0.00044221993 0.0017426461 -0.00035635463 -0.0018705834 -0.0010102923 -0.001347766 0.00039993934 -0.0005060464 0.0015639339 -0.0014054237 -0.003511396 0.00013640348 0.0003571751 -0.0018510481 -0.0009856216 0.0025641061 4.7395002e-05 0.0030904133 -0.001456772 0.0021505435 -0.0010112907 -0.0008055878 -0.0007997303 -0.00040179177 0.0015744873 0.0010636001 -0.0025959862 -0.0023195993 -0.0035500217 0.001431505 -0.0016456449 5.7053527e-05 -0.002584017 0.003086338 0.0031398265 0.0027131015 0.0013312908 0.0027147057 0.0014579564 -0.0027776798 -0.0025173852 -0.003496778 0.0011176215 0.0019727487 -0.0012476755 0.0017811127 0.0023137925 0.002698375 0.0017709344 -0.0031995764 0.0015109597 -0.000679616 -0.001542655 0.001806639 0.0021629438 -0.0029648081 0.0009367687 -0.0013717172 -0.0021902418 -0.003226255 0.0004903802 -0.00056757726 0.0010443161 0.0038005556 0.0004743575 -0.0037206144 -0.0033128103 0.0011501124 0.0006814139
74 -0.0023940434 8.433288e-05 -0.0011610885 -0.0030329893 0.0012993586 -0.0006972641 -0.00017533173 0.0002754874 -0.0032446557 -0.0028768387 0.0003383874 0.0036640828 -0.0024316246 -0.00070998515 6.4373286e-05 -0.0016468628 -0.0020645277 -0.0014161275 -0.0019552736 0.0017470745 -0.0034851516 0.002058893 -0.00088935817 0.0030130208 0.001696519 0.0014562068 -0.003596179 0.0013251331 0.0012478535 0.0031752374 0.0024575428 0.0015193593 0.0037091218 0.002432431 0.0016202554 0.003399066 0.0029059902 -0.0022803985 0.0024472543 -0.00069169875 0.0037745417 0.003423203 0.0009080334 0.0032604537 -0.0017848709 0.0013765703 -0.0035033198 -0.0004945463 0.0009166009 0.0029195503 -0.0031022988 -0.00038962276 -0.002718863 -0.003185106 -0.00035008718 0.003679823 -0.003412851 -0.0023834757 -0.00034213613 0.0010123961 0.00033335175 -0.0037706378 -0.0007820725 4.0526375e-05 0.0010730949 0.0034400246 -0.0033019756 -0.0028920786 -0.0020328297 -0.002082451 0.0012039297 0.0018403983 0.0012091632 -0.0037863164 0.0025395362 -0.0035116167 0.00026893447 0.00096564443 -0.0020650097 0.0030746423 0.0026078871 0.00012933945 0.0027637817 0.0032178247 -0.0008941188 0.0024166396 4.5604378e-05 0.0007330174 -0.001339404 -0.0033089358 -0.00022625581 -0.0023387994 0.0032009806 0.0036436492 0.0021572188 0.002755953 -0.00034688832 0.0014524768 -0.00078046264 0.0031810936 -0.0019382546 -0.0006777205 0.003560492 0.0012028727 0.00170502 -0.0028314725 -0.0014263898 0.002477046 0.0027102123 -0.0034421033 0.000498676 0.0005531051 -0.0015454375 -0.0038264885 0.002614196 0.0018951306 -0.0016814217 0.0003759799 0.0031940178 0.0006298736 -0.0006820881 0.000599185 0.001752936 0.0012082563 0.0027474463 -0.003145943 0.0017870449 0.0036078664
21 0.00081418996 0.003726186 0.00359724 -0.002018552 -0.0016238993 -0.0034828342 0.000661689 0.0038159643 -0.00031872393 -0.0003724315 -0.0005848054 -0.0023974385 0.00057476107 0.0006222399 0.00012292743 -0.0022431698 -0.001506465 -0.0026547771 -0.00019627597 0.0009336334 -0.0023815837 0.0003301344 -0.0025894835 -0.0026950862 -0.0008910016 -0.0009454957 0.003362505 0.0032914944 -0.0011901878 -0.0038686362 0.0016218245 0.0038378688 0.0025742839 0.0025717565 -0.00087583245 0.0010390624 -0.0025536362 0.0035966658 -0.00017777583 -0.0017659772 0.002464967 -0.002263147 0.0023932029 0.0019140432 0.0023797892 0.0011470874 -0.002244505 0.0031838266 0.0016363695 0.002595033 -0.001114813 -0.0019181705 -0.0029931513 -0.0025133353 0.00070797035 0.00037012142 0.0014032812 -0.0020343373 -0.0022801058 0.0011315454 -0.0036182061 0.0035163986 0.0010084665 -0.001983452 0.0020531847 -0.000744247 -0.0036527468 -0.0015240879 -0.00024194979 0.0038193827 0.0003311751 -0.0036107693 -0.0034482921 -0.0031974302 -0.003780702 -0.0019452352 -0.00039196052 0.0038839069 -0.00048719917 0.0028994814 -0.0035064532 -0.002295758 0.0021977944 0.0038934113 0.0005152402 -0.0020043245 -0.0023481895 0.00043095538 -0.0016824701 0.0005325633 0.00035971354 -0.0008196445 0.0005747703 -0.002862451 0.0015841371 -0.003043144 -0.003066268 0.0016534328 0.003545879 -0.003468227 0.0024652597 0.0010401846 0.0037314452 0.0014063261 0.0016030178 0.0002910572 0.00254789 -0.001930037 -0.0038716763 -0.00051019836 -0.0036693313 -0.0026775775 -0.0013202879 -0.0032764596 -0.0005665229 0.00075396 0.0026471138 0.0013846512 0.0015532082 -0.0005379555 0.0013675817 -0.002161086 0.0007473977 0.0011296797 -0.0016616345 -0.0035080086 -0.0020070362 -0.00063129864
90 -0.00018367766 0.0009339334 -0.0016753204 0.0014418719 0.0038650946 0.0038231995 -0.0025653865 -0.0020237074 0.00043883166 0.0030221394 -0.0022573483 -0.0014361937 0.0037549073 0.0029434457 -8.462998e-05 0.0034225222 0.0005741051 -0.0014228408 0.0025814467 0.0023021565 0.00035126563 0.0023691396 0.0023792433 -0.000662011 0.0034606056 -0.0024413688 0.0037383877 -0.00087072316 -0.0005807333 -0.0022487806 0.0011272007 -6.649527e-05 0.0011693541 0.00043079292 -0.0005786281 -0.0019830067 0.002516691 0.0031956676 0.0030681228 -0.0036327476 -0.002635497 0.0029578856 -0.0005556488 -0.002314473 0.001119227 0.0015204039 0.0006614365 0.0013619512 0.0023039985 -0.0034254184 0.0034511269 -0.00307665 0.00031339398 -0.0022203387 -0.00277023 -0.0007443313 -0.0015227961 -0.0034034532 0.0006440182 0.0030601765 -0.0016754082 0.0008566436 -0.00027263546 -0.003036643 0.0027650204 -0.0007385177 0.0037254575 0.002562506 0.0024760934 -0.0011281007 -0.0012899591 0.001758189 -0.0036531207 0.00043679052 0.0015237175 -0.0025436066 0.0027950942 0.00040240938 0.002674205 0.0001787139 0.0010089499 0.0003240856 0.00066568545 -0.0021102482 0.00078169134 -0.0015795353 -0.0028793178 0.00043115602 0.0009778126 0.0017869773 -0.00051888346 -0.0018015951 -0.001707662 -0.000770184 0.0010363697 0.0020441804 -0.00024369243 0.00045219727 0.0013720773 -0.0032435306 -0.0028269575 0.0021495211 -0.0018302707 0.0038524237 -0.0021385457 0.0006588069 -0.0029843927 0.0037980895 0.0013921201 0.000782075 -0.0015896752 -0.0017918686 -0.0022475491 0.0026528623 -0.0007462188 -0.0027139743 -0.0023240885 -0.0006355411 0.0031779686 -0.00092739676 -5.27469e-05 0.0030063188 0.0025115828 -0.0026933928 0.0033979942 -0.0003207946 2.032947e-05 -0.00082191295
88 -0.0038724307 0.0031711604 0.00046200564 0.001887827 0.0003846972 0.001739941 -0.0014079007 -0.0017878796 -0.002221299 0.0019990243 -4.284422e-05 -0.0029133395 0.00014275311 -0.0016791354 0.0011177605 -0.0023480875 -6.933642e-05 -0.0037415868 -0.0038035514 -0.0019078068 -0.0005680926 0.0010867688 -7.260048e-05 -0.0038334236 0.003892304 0.0026017048 -0.0032897608 0.0020223765 0.00037846938 -0.0033602878 -0.0024618672 -9.960653e-05 0.0032818452 -0.003066592 0.0037529299 -0.000649996 0.0012246097 -0.00026069855 -0.0011516066 -0.0019304034 -0.0009821022 -0.0024705725 -0.0021542662 -0.0037024152 -0.0026271138 -3.1278003e-05 -0.0009416432 4.0549407e-05 -0.0029182492 0.0035265435 -0.0003856559 0.0034101182 -0.0009045126 0.002940674 0.0026362003 -0.0033470916 -0.00092024705 -0.0028726999 0.00093272666 0.0026589364 0.0010969971 -0.0015888419 0.0030843976 -0.0025049073 -7.308685e-05 0.003339337 -0.0033102178 -0.0025103746 0.0027312746 -0.0032701548 -0.002289553 0.0015457879 -0.0038140824 -0.00049944955 -0.0031293354 0.0029036254 0.0012764834 0.0026936678 0.00027737778 0.0029265892 0.0035061114 0.0028910518 0.0011426774 -0.0016849046 -0.0029252227 -0.0025003136 0.0025717097 0.0034075757 0.0026959442 -0.0002609493 0.0013551472 0.0022254987 0.0010499436 -0.0023766423 0.0033588903 0.0034716781 0.00056447426 0.001981483 -0.003716302 0.0034067458 0.0031121306 -0.0028252709 -0.0016915239 0.00061896327 -0.0003284701 0.0027256303 -0.002795796 -0.0020954586 -0.0034667135 -0.0005530728 -0.0026540621 0.00038977017 0.0023138036 0.0009504552 9.869392e-05 -0.0017060705 0.0032588872 -0.0020160258 -0.0018087829 -0.0026070017 0.0002677809 -0.0015024967 0.0011010978 -0.0012630167 0.0036515074 -0.002465898 0.00078546157 0.0037184658
17 0.0037835254 -0.0038826298 -0.0033196888 0.0016789038 0.002770695 0.002015927 0.00094498455 -0.0033750401 0.0022117272 -0.0013492024 0.00032180682 -0.0027011808 0.0033529599 0.00089654 0.00043676258 -6.254775e-05 0.0032981876 -0.002531656 0.0015165783 -0.0014889835 -0.0036444883 -0.0028197474 -0.00142677 -0.0012229455 0.0024762242 0.0026418704 -0.0025367127 -0.0028357445 -0.0027910126 -0.0014375938 -0.0037941905 0.0019973933 -0.0003986659 0.0030686369 0.00053948927 0.0015677674 0.0021886916 -0.0024988833 0.0009104335 0.000117436044 0.0011432318 0.0013267449 -0.0037453845 0.002486951 -0.0017986118 0.0014706671 -0.0032214518 -0.0014007861 -0.0021464291 -0.0004299641 -0.002763331 -0.001832361 -0.00023547532 -0.0010824515 -0.0027816324 0.0008553582 0.0027352278 -0.0036246355 -0.00031127047 -0.002405519 -0.0020085357 0.0014045159 0.0011585719 -0.0029186157 -0.00378827 0.00041598716 0.0031298315 0.00054764864 0.0004255814 -0.0017113402 -0.0034866473 0.0015257378 -0.0013205165 0.00172996 -0.00079124345 0.0016954445 -0.0020256736 -0.0037581644 0.002912158 -0.0031748544 -0.0012152109 -0.00026464442 0.002760794 -0.0035431 -0.003205366 0.003135212 -0.0014972185 0.0013285275 -0.00075229496 0.0036134685 0.0032343552 0.0023082145 -0.0012481151 -0.00049947144 0.0028017696 -0.0015515448 -0.0021098647 0.00063767994 -0.0015780207 0.0016594289 0.0007153554 0.0019149929 0.0030462288 -0.0016888595 0.003044728 -0.0006203154 -0.0011150285 -0.0021526793 0.0016749495 0.003514554 0.001837153 0.002607272 0.00063920394 -0.0026421617 -0.0036097853 0.0027297449 -0.0021553175 -0.0010698043 -0.00092094234 -0.0028162957 0.000943678 -0.0006248561 -0.003801569 0.0034423163 -0.0005464818 0.0023223956 0.0016890573 -0.0019877048
22 -0.0035873936 0.0016156551 -0.0022211543 0.00215968 0.0020084367 -0.0007254329 -0.0019932867 -0.0021984596 0.001887519 0.0031924737 -0.0013091455 -0.0029656226 -0.0013560532 -0.0011916915 -0.0018361419 -0.0030469291 0.0013381622 0.0008331399 0.0036493829 -0.003531869 -0.00096947845 -0.0014092746 0.002082414 0.0033998194 -0.0018752017 0.003540671 -0.002649452 -0.0011392591 0.0029450401 -0.0016337376 -0.0004192102 -0.0032524078 -0.0014044625 -0.0034671323 -0.0023786533 -0.0028386205 -0.0002471213 0.0037334275 -0.0029236255 0.0007345829 -0.0018737437 -0.0033593734 0.00023958476 0.0031081552 -0.0031111962 -0.001622003 -0.0030174726 -0.0013831726 -0.00021944987 -0.0037650776 -0.0015664485 0.00010421306 -0.0005493327 -0.0029031977 0.0035455136 0.0006553208 0.00032916604 -0.0008180809 0.0013901701 -0.002918128 0.0013115377 -0.0012846278 -0.0030202684 0.0011545891 -0.003400135 -0.002014032 0.0036978545 0.0018306734 0.00092125434 0.00168179 -0.0032333764 0.00037259114 0.00030401352 -0.001188441 0.001786688 0.0028210378 -0.00016670921 0.0016355814 0.0025767395 0.00090624514 0.00021676683 0.0006473526 -0.0034038734 0.0036183388 0.0022991928 -0.0032234415 0.0026687887 0.003176582 0.00031524338 0.0018748712 -0.00023719121 -0.0014200389 0.0036676284 0.0021774133 -0.0002613031 0.0034008955 0.00370723 0.00062047323 0.0006676678 0.0021072507 0.0016565408 -1.0048651e-05 0.0031570867 -0.0024147385 0.00068156305 0.0025393546 -0.0014259449 -0.0022695542 0.0015434829 -0.0030589309 0.0010880851 -0.0025257894 -0.0038415296 -0.0032489053 -0.0036217466 -0.0021734214 -0.001112581 -0.0036645941 0.0007312868 0.00061887247 -0.0020576203 0.0037392231 0.000830602 -0.00012712368 -0.00050952233 -0.0037302764 -0.0018137756 -0.0034014855
68 -0.0038374516 0.0038641132 -0.0024039529 -0.0027775366 0.0010178491 0.0036494068 0.0029562751 0.0019165208 0.0015983934 0.00025250472 0.00026009252 -0.0030647533 0.0034996108 -0.0011393799 -0.0036225503 -0.001985748 0.0031392556 0.0035892348 0.002383195 0.0023750532 -0.001870625 -0.0010728748 0.003896724 0.0019359386 0.0011559795 0.0020086688 -0.0017199094 -0.002322971 0.0016868113 -0.00015866183 5.7277048e-05 -0.002959883 -0.0020678986 0.0019508259 -0.0027347943 -0.0035124868 -0.0038104195 -0.00016739297 -0.0029187438 0.00092735107 -0.002542751 -0.0017708272 -0.002987832 0.0025411637 -0.0024496568 -0.0038138323 -0.0007985773 -0.0019588163 0.0033506432 0.0032497114 0.0025057632 -0.0016323182 0.003007385 -0.00031828912 0.0013975988 -0.0015287831 0.003835673 0.0037661893 0.0037679651 -0.0007741196 -0.00097254437 0.0019077045 0.0037570626 0.0031458936 -0.0035577528 0.0028267726 -0.00093328825 -0.0031071475 -0.003161964 0.0028346416 0.0031133064 0.0038218664 0.0011811343 -0.0021229147 0.00351422 0.002834118 -0.0032075122 0.0029070468 -0.0016961023 -0.0013377103 0.00050843373 0.003088659 0.0019970823 0.00070401584 0.00023838862 -0.002487303 -0.0014835416 -0.00030715615 -0.0028225086 -0.0022257778 -0.0005314003 0.0029030412 0.00095150707 0.001162457 -0.0009706715 0.00027217416 -0.0031141276 0.0036952933 -0.0036762122 0.0025271408 0.0023164132 -0.00028568905 -0.0032384626 0.0035616155 -0.0019379532 -0.00024210186 -0.00044828816 -0.0007643018 -0.0010684027 0.0022142956 -0.0034642702 0.00079225324 0.001341015 0.002709739 0.0008608076 -0.0034939907 -0.002743302 0.00043406847 -0.00026875472 0.0026945067 0.0035581305 -0.00140879 -0.0033757894 0.0016287598 0.00033665134 -0.0011629642 0.00120992 0.0024843076
48 0.0011292255 -5.3610805e-05 0.0010728346 0.0018715592 -1.157696e-06 -0.002432715 0.0019707512 -0.0037823361 0.0038310234 0.0028084745 0.0005687218 0.0035943273 -0.0038209113 -0.0007212195 -0.0027081072 -0.0022258775 0.0020294955 0.0015798403 0.0010264153 0.0018110569 -0.0010854199 -0.003799037 0.001677285 0.003164692 0.0025817694 -0.002869464 0.00025126158 0.0008978776 9.817745e-05 0.002009161 -0.001030799 -0.0019185527 0.0018981526 0.0028741942 -0.0023251623 -0.0025690882 -0.0010374925 0.0010863498 -0.0038437226 0.00013348131 -0.0010066809 0.0031483166 -0.0017641401 0.0027652928 -0.00029480865 0.0033954107 -0.0018206536 -0.0031190664 0.0036866113 0.0016659969 0.0023596904 -0.002725234 -0.0026043323 -0.0015967583 -5.9389004e-05 0.00093169766 0.0038978446 0.00104721 -0.0019929325 -0.0032302253 -0.00010172966 0.0011985998 0.00250589 0.00017173687 0.0026192314 -0.001248006 0.0013095185 0.002124878 0.0026418606 -0.0033859191 0.0009567983 0.00085790065 -0.0031655577 0.0007783764 -0.0021752676 0.00025803412 0.0010994764 0.000966454 -0.0028273778 0.00070356677 -0.0036348696 0.0032104598 -0.0008575246 -0.001409118 0.0016573472 -0.0036366573 -0.0016439382 -0.0034153892 0.003355294 -0.0010172707 -0.0012130424 -0.0014209464 0.0027045114 0.0026328447 0.0029903178 -0.0037048438 0.0010558112 -0.0033076555 0.0029993423 0.0036872914 -0.002959616 0.00067670754 0.0026699763 0.0005927211 0.00036714532 0.0038992118 0.0027986274 0.00090940733 -0.0036896027 -0.0018067542 0.0031006746 -0.0005438608 0.00038040898 0.0026393412 -0.0029595525 0.0008892497 -0.0024681871 0.0018517604 -0.002886782 -0.0001192602 0.0038772374 -0.0034704746 0.0005939577 -0.0017538888 0.0013544882 -0.0038752838 -0.0031730481 -0.0026751359
91 -0.0010868933 -0.00028153555 -0.0021357455 0.00142295 -0.0009706223 0.0015546257 -0.00033088814 0.0037929714 -0.0037987244 0.00050626445 0.00083829236 0.00054094737 -0.0023360627 -0.0004401064 -0.0027171427 0.0038473404 -0.00072623516 0.00014057403 0.0034383384 -0.00207154 0.0024024772 -0.0013317942 0.0021908851 1.9171233e-05 -0.002398782 -0.0015725188 -0.0020669221 0.00186758 0.002238589 9.95658e-05 0.003456301 0.001474869 -0.003872916 -0.00021721775 0.00324964 -0.0021591382 0.0013042255 -0.0033259403 0.0035317168 -0.0011983978 -0.0011820352 0.00072599086 0.00010311032 0.0015702476 0.00014051313 0.00035489048 0.0035366472 -0.0014600838 -0.0010075944 -0.003339093 0.000115410214 0.0017051246 -0.0013553553 0.0028625447 0.0035232562 0.00064689567 0.0026035886 0.00381216 -0.0021969 0.0026977635 0.0016102319 0.0025843666 -0.0009045002 -0.0012004941 -0.002692339 -0.001099985 0.0007880773 -0.00045493647 -0.0019240922 0.0037308233 0.00322883 0.003576168 -2.6748992e-05 0.0031826922 -0.0033661043 -0.0007928286 0.0020241132 0.0016698864 -0.0015938978 0.0028837144 0.0021624758 -0.0037479384 -0.0036421032 0.0016004709 -0.0032185689 0.0020278348 0.0035820608 -0.0020193174 -0.0018504238 0.00326277 0.0004211606 -0.0011445048 -0.0036850984 -0.0019493885 0.0003835349 -0.0030967882 -0.0019136701 -1.7349976e-06 0.003065459 0.0022457002 -4.759183e-05 0.0032249808 -0.00018925442 0.00027209465 -0.0035054858 0.002519675 0.0020900157 0.0018470929 0.003399223 0.0030605493 -0.0027959421 -0.0010420386 0.002151037 -0.003204514 -0.0019832198 -0.0029446357 0.0038610608 -0.0019084512 -0.0035571416 -0.00036019116 0.0030994106 0.0015575289 -0.0034499047 -0.0036506501 0.0014709118 0.0004387892 -0.0028157288 -0.0017658481
79 -0.0035871859 0.003030487 0.0017058731 -0.003223486 0.00090116175 0.00060241536 0.00032496557 0.002076169 0.0012870065 -0.0011460728 -0.0025057523 0.0030248219 -0.002442592 0.0022081577 -0.0036616875 -0.000251646 0.0029326247 -0.0024442119 0.0029935976 0.0006062491 0.0013766012 -0.003555789 0.0033403866 0.00027069097 0.0035703823 0.0028630858 0.0026589462 -0.0029209838 -0.0035010797 -0.00020279732 -0.0017291114 -0.00078820967 0.0019899225 0.0032601783 -0.0027565362 0.0006644152 -0.0016272602 -0.0035783302 -0.0032341692 -0.0014303781 0.003757681 -0.0005593634 -0.0026076064 0.00064269785 -0.0006974207 -0.0022913609 -0.001297938 0.0026288305 -0.0012317841 0.0006978146 0.0014793911 -0.0028763432 0.003600727 -0.0024154752 0.002572489 0.00022981635 0.0006988716 0.0014092313 -0.0034537222 -0.0017534216 0.000661487 0.0031336737 0.0035507646 -0.0017967646 0.0016653874 -0.00040894153 -0.0034402662 0.0023941488 0.003403995 0.001447094 -0.0010660226 -0.00234012 0.002783273 0.00019589027 0.00235093 -0.003774726 0.00047063731 -0.0014562531 0.0010285771 -0.0032494992 0.002019593 0.0027477487 -0.0035431664 0.0021898816 0.0031317167 -0.0021964072 0.0021337909 0.0011321798 0.0030153377 0.000101461635 0.003391159 -0.00079542777 0.0011795206 -0.0038139874 0.0005523503 -0.0024206343 0.0005880803 0.0021166152 0.003267036 -0.00045568479 0.0027903344 -0.002606439 -0.0032599631 0.003880249 0.001576402 -0.0013920045 0.0029166336 -0.003679342 0.003618018 -0.0028515342 -0.0008778803 -0.0021203924 -0.002697251 -0.0021382833 0.0036728068 0.00307849 -0.0036922875 -0.00019033803 0.0012787766 0.0038520172 0.0024746822 0.0023107217 0.0012034654 0.0009859968 0.0031820743 -0.0006765042 0.0018538442 -0.003765388
84 -0.000458045 -0.0014121991 0.0019927109 -0.00043125838 0.0028420934 -0.0021433055 0.0018176979 -0.0027699114 -0.003747118 -0.0035055536 0.00040399336 -0.0039026025 0.003779494 -0.002810395 0.0016240545 2.545121e-05 -0.0029932363 -0.0025301687 0.000115562754 -0.0006707456 0.0009561757 -0.0038762272 -0.0013323677 -0.0031115997 -0.003044175 -0.0030737258 -0.0028975075 0.003226424 -0.0016800334 -0.0006831904 0.0018211718 -0.0020738132 0.002968613 0.00044085132 0.0015684915 0.0015895892 0.0008118919 0.0004911719 0.0013653649 0.00079371245 0.0011000971 -0.002990286 -0.002496318 -0.0029383902 -0.0013682934 0.0010209299 -0.002478196 -0.0014360003 -0.0036916495 0.0038499532 -0.0033947092 -0.0013699528 0.0037024077 -0.000128385 -0.0020146354 -0.001176403 0.00021230572 -0.00022808938 -0.00012983344 0.0018621512 -0.00034888054 -0.0025950412 0.0006968496 -0.0011991991 -0.0009373751 0.0013426306 -0.0006458713 -0.0003075456 -0.0038918988 -0.00047417142 -0.0019825564 -0.0015552702 0.003457571 -0.00376347 -6.7211004e-06 -0.0030713177 -0.0038995037 0.0035895235 -0.0037027623 0.0035284816 0.003165207 -0.0030992383 -0.0013222151 0.002785434 0.0025348773 -0.0013769126 -0.0032191414 -0.0029550053 0.0010450531 -0.002905332 -0.00038461658 -0.000757104 -2.7390859e-05 -0.0020231802 -0.0013491056 -0.0028737353 -0.0025975595 0.0018953735 0.00022354197 0.0016030326 0.0031737338 0.0033095998 -0.0010626629 -0.0005910114 0.0022161999 -0.0019919504 -0.0038403976 -0.0028455376 -0.00089866744 -0.002475803 -0.0021135472 -0.0032918248 0.002375092 8.5673884e-05 0.0015125027 0.002231334 -0.0038211902 -0.00071474444 0.002213632 0.0011861797 0.0036836285 0.0026206188 0.0020246683 0.0015543721 0.00043117942 0.0016066033 0.0007052095 -0.0031961098
89 0.0012263047 0.003576761 0.00012676508 0.00011194088 0.00212233 -0.0016756207 -0.002849805 0.00034970022 -0.00015887078 0.0038855914 -0.0010902595 0.0038986437 0.0008181914 -0.0022322626 0.0017385561 -0.0036793773 0.0037383086 -0.001008837 -0.0034914606 0.003853078 -0.0019391937 0.003862369 0.0037413326 0.00070386496 0.00062203786 -0.0017123319 0.0031201574 0.00026246902 0.0036408764 -0.0026790153 -0.0015128069 -0.0027462558 0.0036884074 -0.00030545652 -0.0018829235 -0.0032420557 -0.0003115693 0.0002330217 -0.0020137548 -0.0015732076 0.0034996928 0.002243114 0.0038079696 -0.000908852 0.0009763889 0.0010051465 -0.0024561365 -0.002985995 -0.0017822809 0.0024934867 -0.0006236326 0.00079955684 0.0027907048 0.0033945676 -0.0028846292 0.0037253902 -0.0038532144 -0.0012979155 -7.39045e-05 0.003405741 -0.0018751691 0.0010845856 0.00073526526 0.0028421404 -0.0029785824 0.0017999915 0.0028692146 -0.0008421258 0.0026368878 0.0021399728 -0.001353173 0.0023173685 0.0017321523 0.0025281697 -0.0038388593 0.0029761486 -0.00014800101 0.003404264 0.0015054478 -5.1408922e-05 -0.002194388 0.003312919 0.0006079879 -0.002117771 0.00086916186 -0.00025772006 0.001060056 -0.0028571705 0.0004120255 -0.0022902223 -0.0011096268 -0.0006060168 -0.0022692238 -1.6932316e-05 -0.0013563068 0.0027435913 -0.0005786009 0.00015532499 0.002951396 -0.0018951363 0.0029896398 -0.0033676068 0.0012657203 0.0015239366 0.0021860453 -0.0012398795 5.3386225e-06 0.0012937807 0.002240839 -0.0032353296 0.00228668 -0.0020689012 -0.0037808411 -1.12781545e-05 0.0029203563 0.0020687997 -0.0022517755 0.002418734 -0.0032991946 0.0026853245 -0.0033841585 -0.0010445105 -0.0004793404 -0.0007420186 -0.00015734773 0.0014631014 0.0015356333 0.0026530921
51 -0.00017599162 0.0018613482 0.00075471343 0.00018439727 0.00063007686 0.00049684185 -0.0033888763 0.0007514959 0.003243821 -0.00081609446 0.0017907408 -0.000840198 0.00063714007 0.0012026007 -0.00076601584 0.0033982233 0.0032147865 -0.0017517083 0.0029742764 -0.0010871788 -0.0020356497 0.0035205304 -0.0031708367 0.0020392907 -0.0023225946 0.0029801736 0.001241064 0.0010569119 -0.0028323038 0.003146618 0.00071656966 -0.0015016337 0.0034506123 0.0028339564 -0.0016804263 0.0025572071 0.0023991058 -0.0031774533 0.000376394 -0.0010505252 0.0034080918 -0.0003256232 0.0023919106 0.0039043284 0.002639941 -0.0016887321 -0.0019907937 0.0020841807 -0.0017434234 -0.0025675986 0.001314577 0.0024035575 0.0012263 -0.0004256625 -0.003347866 -0.00017065035 0.00362839 -0.0006271532 -0.00093535974 -0.00013572066 0.00015236976 0.0023017074 0.0012972533 0.0022966214 0.00047459322 -0.0038225825 0.0020351247 -0.0013065229 0.003570781 -0.0027718006 0.00015731416 -0.0011481311 0.0012681441 0.0038356252 -0.001837556 -0.0018658633 0.0010662205 -0.0010363928 -0.0004923445 0.003132721 6.607711e-05 -0.0035480873 -0.00034564812 -0.0031342532 0.0010334427 -0.0025642796 -0.001665637 0.003149299 -0.00117453 0.0035934388 0.003454435 0.0012951117 -0.00030372312 0.00056704873 -0.0011533985 0.0034925917 0.0034160444 -0.0006443846 -0.0012086703 0.00092793576 0.0016375019 -0.003728963 -1.0428256e-05 0.003304399 0.002501214 0.0020953708 0.0008166597 0.0014779259 0.0026809864 0.00283501 0.0017567733 -0.0035115941 -0.00048500486 0.0013735839 -0.002650566 -0.002097852 0.0026351805 0.00036427868 -0.0015931841 0.0006066869 0.000506829 0.0017291879 -0.00075691234 0.0022377293 -0.00184412 0.0014324103 0.00040483728 -0.0024061997
53 0.0027246026 0.0024204387 -0.0027497136 -0.0026990122 0.0024098835 0.0036775596 0.0019306041 0.0003479658 -0.0036648116 -0.00041472443 -0.0006174538 0.001893726 -0.0019519039 0.0033263026 0.00039057588 0.0010293073 0.001037306 0.0018991374 0.0011476559 -0.0012172157 0.002872108 -0.0010755915 -0.001729651 -0.0027149953 0.0017782166 0.0010446883 0.0005605583 0.002174776 0.0013905722 0.0007236707 -0.00094856316 -0.0009276991 0.0018751379 0.0011941028 0.0014860716 -0.0010502049 6.613095e-05 0.00045360168 -0.00057149737 -0.0026129193 0.0019956308 -0.0032555142 -0.0004598283 0.0029782918 0.0034579556 0.00034802326 0.0027580545 -0.002827765 -0.00026620374 0.0021272684 0.002701394 -0.00242194 -0.00042054162 0.0017131664 0.001402842 0.0030268498 0.00013820115 -0.001964323 -0.003338308 -0.0005082275 -0.003626835 -0.0009781927 0.0013634929 0.00075980194 0.0003601801 -0.00064292375 0.00026401333 -0.0038449492 -0.0013578112 -0.0035271845 0.0035717979 0.003360089 0.0006040354 0.0036114003 0.00067701517 0.00094759365 0.0014919956 -0.0007204196 0.00046238897 0.0014171303 0.0027876156 0.0018912297 -0.003517562 -0.002842434 0.00018786173 -0.00042990828 -0.0025476643 0.00080482324 0.0026121757 -0.0006993214 -0.00030785424 0.002181077 -0.001822023 0.003732864 -0.0028613787 -0.0004739949 -0.0021319427 0.00032760334 0.0030508006 -0.0030872957 0.0032409995 0.0012830206 -0.002428801 0.0015176585 -0.0031066507 -0.0007632084 -0.0016000897 0.00069834146 -0.002697963 0.000117906835 -0.0009854469 0.0038633507 0.00057662686 -0.0006351946 0.00055103935 0.0038241919 -0.0038190393 -0.001553242 0.0008555151 0.003002736 0.0021153903 1.675511e-05 -0.002655474 -0.0018122009 0.0023948776 0.0022398352 -0.0012069633 0.0030872184
9 0.0021431034 0.0034742341 -0.0030367384 -0.00047297278 -0.0014229369 -0.0011335023 0.0036266048 0.0034068115 0.00040775305 0.002897354 0.0019555094 0.0016361986 -0.0031642003 0.00038973842 0.0027509846 -0.002962092 -0.0024367974 -0.0015543007 -0.0029487887 -0.0038312944 -0.0028765642 -0.0010372306 0.0034417387 0.0035441495 -0.0037044247 -0.003098887 0.00022062495 0.00025059126 -0.00039224277 -0.0016223701 -0.0013866682 0.00017337709 0.0014480004 0.0012403957 -0.0028426554 0.0038455348 0.0022975197 -0.0007764682 -0.00217985 -0.0037591218 0.0013165822 -0.0022075097 -0.000130019 -0.002609502 -0.00041769547 -0.0035288415 -0.00040940693 0.00012404482 0.0018102279 0.0021469751 0.0022309779 0.001323592 -0.0020958714 0.0037657176 0.0037408944 0.0024089501 -0.0011177956 0.0036346964 -0.00026956186 -0.0017643657 0.003262171 -0.0024823197 0.0023812647 -0.0034384863 0.0028798126 0.0033122632 -0.0032951348 -0.0020111375 -0.0030337947 -0.00026553945 -0.003497495 -0.0022467156 -0.00028178832 0.0030932333 0.0028803425 -0.0028842923 0.003450726 0.00027890768 -0.0024214787 0.0035670472 0.002927912 -0.002836808 -0.0038792705 0.00056499685 0.00022859954 -0.0026708567 -0.001741568 -0.0018920619 0.0029199012 0.0017404669 -0.0024442845 -0.003146126 -0.0023946296 -0.0034064236 -0.000109669665 -0.002803751 -0.0011164044 0.000603898 -0.00023678482 -0.0023837816 0.0031767709 0.0036046747 -0.0015798162 0.002597654 -0.002644504 -0.0012014445 -0.0024652989 -0.0032094338 0.0014382848 -0.003699783 -0.0004281318 -0.0038305393 -0.0015692371 -0.0010939843 6.706966e-05 0.0033847492 -0.0003895852 0.0007700761 -0.0014731945 -0.0017664406 -0.0017016458 0.0021615457 -0.001653898 -0.0021944453 -0.0010445566 0.001421809 -0.00086979347 0.0004467777
28 -0.002494895 0.002772592 0.0034330436 -0.0032587666 0.0033215752 -0.0004956256 0.0008532506 0.0016836699 -0.0023509632 0.0011499377 0.00064778636 0.0014828119 -0.0016702039 -0.00038396663 0.0038968322 -0.0032762862 0.0010592418 0.0013706548 0.0026217175 -0.00382843 0.00019390348 -0.0006129466 -0.003132463 0.0012960777 -0.0012435613 -0.0024300984 0.0016852525 -0.001466162 -0.0025264435 -0.0035157443 0.00050241314 -0.0034300478 -0.0029343497 0.00063283317 -0.0035960427 -0.0034611821 -0.0004026385 0.0005203282 0.00360415 -0.0025592567 0.00347078 0.003705932 0.0008754308 -0.0014893931 0.0034266245 0.0035125231 0.0033540055 0.0037423302 0.0019931206 0.0027575432 -0.0018293513 -0.0009379837 0.00026193645 0.0013634649 0.0017002195 -0.0036956233 -0.0032250038 -0.000527491 -0.0028149153 0.0027569572 0.002301171 -0.0016486959 -0.003755789 7.6240445e-05 -0.0004551377 -0.00056116306 -0.0022495189 0.0002646016 -0.00035615946 0.0009690894 0.0017594146 0.00075415225 0.0007270535 -0.0029384776 0.0033296356 0.00024346577 0.0017762956 -0.0005072297 0.002110213 0.0018337608 0.0013032816 -0.0026702231 -0.0011820397 -0.0005480591 -0.003196268 0.0028386065 0.0023967181 0.0032716347 -0.0032875591 -0.0025554083 0.0014599814 -0.0035910022 -0.0035260832 -0.0036251952 -0.00022291459 0.0021188946 -0.0004513147 0.00010080993 0.0037375488 0.0022770595 -0.0032417246 0.000752831 0.003797949 0.002127923 -0.002072017 0.0023632445 0.0016386893 0.00031574344 0.002740201 -0.0012291259 0.0025766937 0.0013255734 0.0011545104 0.0024618586 0.0016800547 0.0035062013 0.001159554 -0.0025969718 -0.0003139978 0.00043469667 0.0022664275 -0.0017263757 -0.0035066905 -0.0007828242 0.0022606486 0.00041683443 0.0037255986 0.0011077662
44 -0.0015991025 0.0013881875 -0.0024286706 -0.0010871771 0.0038055694 0.0020870138 -0.0015520548 0.0038119662 -0.0017950005 -0.0028965338 0.003377102 0.0006719906 -0.00024742997 -0.0001005797 0.0035574979 -0.0012218092 0.0005026026 -0.00072406785 0.0019538824 -0.0029775943 0.00033956414 0.0006264416 0.0016398323 -0.0030169697 -0.0020221185 0.0017467286 -0.002888763 -0.00385786 -0.0017277239 0.00050621 0.0032078857 0.0026362338 0.0025953995 0.0020562597 0.003202766 -0.0013933262 0.0032921482 0.001550636 0.00066070905 0.003855875 0.00069506053 0.0026419382 0.00020466735 -0.0030969568 0.0038664371 0.0033162804 -0.0024751865 0.001496222 0.0018204647 -0.00020468612 0.00029909908 0.0004849762 -0.0008270883 -0.001420852 0.0010100262 -0.0020965957 -0.0012326069 -0.0026648026 0.00029911002 -0.0015423135 0.0011974716 -6.1987776e-05 0.002612604 0.0013522677 0.0008480063 0.0009827804 0.0033788467 0.0036047415 0.0013547622 -0.0022648384 0.0021476718 0.0032813137 0.0011925721 0.0012354881 0.00023642072 -0.0020804126 0.0007430786 -0.0021865494 -0.0032221626 0.0037098378 -0.0020163879 0.0028464245 0.0017234561 0.0005556235 0.0021047746 0.0005981914 0.0005802691 -0.0030006915 -0.0035681673 -0.0027798915 -0.0037970517 -0.003137876 0.0036007564 -0.0012630783 -0.0038306778 -0.00057417667 -0.0029134192 0.0015093785 -0.0020670923 -0.0015257737 0.0010565058 0.0032183304 -0.0017615404 0.0038437366 -0.0038166763 0.002333812 -0.002566669 0.00050810736 0.0016058796 -0.0034699251 -0.0014775791 0.00049008906 -0.0014537679 0.00057362404 0.0018394332 -0.0024316332 0.00078493287 -0.002349868 0.0038255053 0.0021781763 0.0033148476 -0.0006693106 0.001767251 0.0025029567 0.0034603607 -0.0015318695 -0.0022915797 -0.0010765196
42 0.0008268969 -0.0035694707 -0.00074593374 0.0011669832 0.0012757655 -0.003572158 -0.0024144386 0.0026333174 0.0021147854 0.001620348 -0.0038154155 -0.0038739063 0.0019040313 -0.00020290357 0.0024984237 -0.0017752057 0.002235693 0.0021768245 -0.0007193813 0.0034908412 0.0017728505 -0.0019625619 0.0012694205 0.0012239532 0.002309584 -0.00014156921 0.00041181297 0.00086926075 0.0031579798 0.002057147 0.0015307515 0.0012484323 -0.0009961466 -0.0032028747 0.0037945665 -0.0028121355 0.0019254219 -0.00012384361 0.0015780524 -0.0012483505 0.0025475458 -5.5454308e-05 0.002544862 -0.0034003344 0.0028418181 -0.0024611836 -0.00068790826 -0.0002947455 -0.0038706097 0.0013138794 0.0015718734 0.00273928 -0.0010185848 -0.00096164364 -0.0028881605 -0.0023867178 -0.0016955864 0.0030789236 0.0029894474 0.0016539627 -0.002043957 -0.0016622326 -0.0038395142 -0.0011087466 -0.003722712 0.002760012 -0.0015041094 -0.0018718663 -0.0038019689 -0.0007307819 -0.0024993515 0.0030310005 0.0018572488 0.00016854891 -0.00074423983 -0.0032536702 -0.00028716048 -1.671438e-06 -0.001650069 -0.0016516884 0.0005643489 -0.0022011348 -0.0031300432 -0.0027424921 0.00093916786 -0.0011620215 0.002267314 0.0011204814 0.0023321253 0.0021497218 -0.0023240172 -0.0018987374 -0.0004296782 0.0006920405 0.0032418522 -0.0010464018 -0.0034081999 -0.0002534585 -0.0032572446 -0.0011279262 0.0006381177 0.0020772931 -0.0024514433 0.0025385204 -0.0019164464 0.00062738935 -0.0017508308 0.0034990124 -0.0006520545 -0.0037966021 0.0011473069 -0.0032218439 0.003391619 0.00058051216 0.0023493953 0.0036461416 -0.00055064884 0.002471221 -0.0014517877 0.0035439576 -0.0015804903 0.00080928317 0.00030778782 0.0009841985 0.0031380227 0.0025623315 0.0010468654 0.0025353343
69 0.001228798 0.00072946725 -0.0002295464 0.0019500888 -0.0027108449 0.00020674543 0.001076382 0.0034577048 0.0015904222 0.0010708969 -0.0017192999 -0.0027248536 0.0010838467 0.0019312332 -0.0023708697 0.00089222885 0.003105826 -0.0021656181 -0.0033237988 -0.0038312853 -0.00076224265 0.0026856472 0.0012053426 -0.0029221259 -0.00055537326 0.0012343485 -0.0021581305 0.00019793551 0.003224208 0.0004517907 0.002898998 -0.0019734497 0.002180988 -0.0024392027 0.0030027456 0.002723121 -0.0027325014 0.0022636764 9.6305885e-05 0.0025890074 -0.0015058768 -0.00053369143 -0.0003373964 0.0017669839 -0.0016991186 -0.0010268737 -0.0010075216 -0.0024893298 0.00017131283 0.0020179555 -0.0031191672 0.0034244442 0.001035569 -0.0024832473 -9.305985e-05 -0.0013498244 0.0022775484 0.002447095 -0.0009295602 -0.0026558335 -0.00010177581 -0.0024032758 0.00039416505 0.003369286 0.0034996294 -0.0011253275 -0.002344083 0.003153606 -0.002222953 -0.0035838275 -0.0016765663 -0.0004930716 0.00336746 -0.0014506117 0.0016690781 0.002298638 -0.0012580598 -0.0027048371 -0.0033974214 -0.0031907442 -0.0038162663 0.00010029026 0.00015325205 0.00023540453 -0.0028237083 0.0034698048 -0.00163911 -6.6398345e-05 -0.0038781182 -0.00097147026 -0.0015177395 -0.00063878647 0.0029987383 -0.0015632041 -0.0003393151 5.1463576e-06 -0.0005875765 -0.002693991 0.00091067114 0.0003340011 0.0018845914 0.0019119442 -0.00068059645 0.0022543012 -0.00061073765 0.0015251698 0.0020080975 0.0007564417 0.0037058783 -0.0024707275 0.0015145298 0.0037297895 -0.0022329905 -0.0005549419 0.0036179803 -0.0022661055 0.0016819311 0.0033739859 0.0031690756 0.0011035409 -0.0009514423 0.0014626483 -0.0036660265 0.0018666536 0.003707183 0.00040365406 0.0037262528 -0.00029930353
96 0.00334333 -0.003533233 -0.0019301942 -0.00025961702 -0.001005099 -0.0011017584 0.0006090975 -0.00027682024 -0.002272342 -0.0037118876 0.00053623563 0.001102643 -0.0015433949 0.0013936656 -0.0028082193 -0.0012610437 -0.0032823556 -0.0035745734 -0.0019752616 0.0010719174 0.00026396292 0.0038016327 -0.00047841886 -0.003155255 -0.0008863014 0.0028949853 0.0024115 0.0025342943 0.0015380146 0.001004016 -0.0031997194 0.00067431515 -0.0025633099 0.0013591076 -0.0022970606 0.0014282265 0.00378893 0.0022454758 0.0016764556 0.002629105 -5.849514e-05 0.00024049889 -0.001580325 -0.003740681 -9.978691e-05 -0.00021436611 -0.0003489533 0.0020868802 -0.00069940183 -0.0027641747 -0.0011678447 -0.00089687126 4.2426956e-05 -0.0029813717 0.0021907464 -0.00076394354 0.002234819 0.0033181296 -0.0029122997 4.4058976e-05 -0.0031321794 0.0030105705 0.0016213875 -0.0006736207 -0.00022507363 -0.00077277445 -0.0015034794 -0.0023431613 -0.0035381943 0.0017056011 -0.0013040354 -0.00158441 -0.0034854389 0.0010919978 0.0008503697 -0.00072844495 -0.0025279007 0.0029724734 -0.003255365 0.0034364543 0.0036850155 0.0019127788 0.00291387 -0.0022209524 -0.0018474596 -0.0024304236 -0.0037887548 -0.0023328024 0.0031976907 0.0025601888 -0.0026517648 -0.0035240396 0.002189834 8.920303e-05 -0.001484913 -0.0018955823 0.0014499013 -0.0024993457 -0.0010920399 0.0002590336 0.002316294 5.8954058e-05 0.0035239137 0.0013020831 0.0005529008 0.0004924531 0.0035485981 -0.0019002608 0.0017203352 0.0030326284 -0.0009251952 -0.0014239957 -0.00036489134 0.003545926 -0.002302277 -0.003369264 0.0027911796 0.0034711736 0.0035788568 -0.0012876688 0.00057017343 0.00037176468 0.0014987411 0.0019655314 -0.0015873552 -0.0014370955 0.003293762 0.0035180245
57 0.0012911104 -0.0022940051 0.0038663968 0.0020844291 0.0035691431 0.0018462206 -0.0030282915 -0.0024349585 -0.0037169121 0.003704153 0.0005949592 -0.0004785509 0.00017658951 0.001658369 0.0034811192 0.0023084325 0.0032537153 -0.0025324696 0.0031745587 0.0019022186 0.0026330391 -0.0012533095 -0.00052579 -0.0019552028 0.0022174683 0.0035890155 -0.00012861237 -0.00042354772 -0.0023747599 -0.0008922042 -0.0032578802 -0.0010841734 0.0015360266 -0.00044447635 -0.0029829557 0.0029302223 0.00054382946 0.001975827 0.0030007674 0.0029301224 -0.0017368401 0.0018042902 0.00014649029 0.0028595207 0.00089600915 0.0018463716 -0.0008270306 0.0011552682 -9.803356e-05 -0.003276063 -0.003676319 0.003085434 -0.0038565404 0.0028743013 -0.00079028815 -0.001617713 0.0018844338 0.003360044 -0.0026293856 0.0024181488 -0.003891943 -0.0015699421 -0.00016708644 0.0013598186 0.0009961863 0.0006669676 0.0012207079 -0.0018367271 0.0010084411 -0.0025179598 -0.00025937054 -0.00030037537 -0.003043386 0.0003880467 0.0034388592 -0.0031778691 0.0008966246 0.00018533315 0.00031781124 0.0027014075 -0.0028402149 0.0009218495 -0.0035532177 0.0038126602 0.001123354 -0.0033573883 -0.0015062201 -0.0005828866 -0.0015014652 -0.0031771879 0.003175234 0.0021267915 0.0024156326 -0.00024073872 -0.0008285618 -0.0030859015 0.001555419 -0.001201682 -0.0035030686 -0.0033593478 0.0013015202 -0.00084627094 0.0016029684 0.0021101069 0.0031451012 0.0013607994 -0.003794746 -0.0032643734 0.0012600241 -0.0035107099 -0.0022417996 -0.0036960626 0.0021813915 -0.0001060081 0.0002604781 0.0011816904 0.002789594 0.0021375904 -0.0032717362 0.0004379816 -0.0011751527 -0.003103803 0.003267744 -0.00013423552 0.00019502087 0.0029950908 0.0024775264 -0.0013668451
86 -0.002413243 0.00034848473 -0.0014987002 -0.0012855806 0.00012969949 -0.00069018867 0.00044693192 -0.0020510438 0.002340244 0.0032075155 0.00022431032 -0.0037694566 0.0008312324 0.0026356606 -0.002743358 -0.0023596997 -0.001774931 -0.0016775609 0.0009995509 -0.0030699228 -0.00026552056 -0.0009124505 0.00140888 0.00028903392 -0.0029313443 -0.00030910547 -0.001860137 -0.0027576946 -0.0022020899 -0.0010431372 -0.0005230195 0.0034871614 0.00059884216 -0.00076008565 0.0030632203 -0.00042260034 0.00051145477 0.0028681713 0.0028318726 0.0026096515 -0.0028590811 -0.00030894647 0.0034264482 -0.0027933535 -0.0024685257 -0.0013112688 0.002285611 -0.0013361672 2.0946318e-05 -0.00039031307 0.0034077202 -0.0023741098 0.0023505727 0.001624865 0.0037574084 0.0029867827 -0.0033491892 -0.00075550115 0.0034793322 -0.00078152755 0.0017446576 0.0035604662 -0.00018307124 -0.0008925401 0.0032348558 -0.0026347183 -0.002026566 0.0005493985 -0.00053078413 -0.0025668833 9.8467775e-05 0.0013322271 0.0012837925 0.0010126082 -0.0012854476 0.0016452663 0.0031227067 0.0020847868 0.0032602462 -0.0015071218 0.0036752746 -0.0005426418 -0.00157337 -0.0014989539 -0.0033698038 0.0011520347 0.002082516 -0.0005375826 0.00070714095 -0.0035292283 -1.4320521e-05 -0.003804436 0.0018809632 0.0038594778 0.0026410075 0.00141797 -0.0019300326 -0.003634838 0.0017287404 -0.0003069798 -0.0025145619 -0.002830521 -0.001403826 -0.0029052715 -0.0033416834 -0.0020231293 0.0010019997 -0.0034643172 0.0035076798 -0.0012577554 -0.0015006813 -0.00028544845 0.0012977896 0.0033074948 0.002659434 -5.611956e-05 0.002486461 0.0003384839 0.0011430002 0.0033603609 0.0014916632 -0.0021379136 0.0014315905 -0.0014215889 -0.0026901949 0.0014009724 -0.000378709 -0.001995049
4 0.00040350365 0.003046543 0.0023044522 0.0001941621 0.00051557773 -0.0014149814 0.001795255 0.0026872428 -0.0022835787 -0.00364958 0.0026393249 -0.0031866897 -0.0028384668 0.0009780711 0.00279599 0.0028550746 -0.0026557045 0.0028889335 0.00040605364 0.0013479362 -0.002223749 0.002714784 0.0019075916 0.0038028834 -0.0008330407 -0.0035167888 -0.0039058675 0.0013994095 -0.0009412246 -0.0023795501 0.0021805684 0.00032033055 -0.0009925714 -0.001680899 -0.00095904834 0.0033435142 0.003511682 -0.0026488723 -0.002454692 0.0037446995 0.0032044915 0.0030502342 0.0023284075 0.0026832144 -0.0006184617 -0.0031960597 -0.00055340864 -0.0016068728 0.0005928762 -0.0026780278 -0.002000983 -0.0021197342 -0.0018786066 -0.00016062077 0.0035645145 4.0790554e-05 -0.0013452995 -0.0015635 7.354942e-05 0.00074503245 -0.0037115396 0.0019389432 0.0032373874 0.0017399411 0.0030809355 -0.00051104464 -0.0034125152 -0.00017921433 0.0031861512 -0.0009309651 0.00070444687 -0.0020971193 -0.001368843 -4.6991216e-05 0.002599802 0.002123886 0.0015325975 -0.0007954944 0.00134892 -7.8206045e-05 0.0009813331 -0.0033621325 0.0020082204 -0.0018577436 -0.0025413164 -0.00032865052 -0.0020180452 -0.001979302 0.0012812327 -0.0031640867 -0.0006661626 -0.0033594153 0.0021603182 -0.0006634283 -0.0016440278 0.0038987498 0.0018638199 0.0011785816 0.0011824874 1.8616574e-05 -0.0007138187 0.0026470975 -0.0031752991 0.00039261975 -0.00096163386 -0.0035594655 0.0006300082 -0.0001876665 0.002515531 -0.00065006746 -0.0033592028 -0.0012903154 -0.000282289 0.0030225455 -0.0015483998 -0.0009825204 0.0036148673 -0.0037910976 -0.0002112375 0.0016802008 0.0009256894 0.0016373101 0.0025671078 0.00089807087 -0.00076310424 -3.9025213e-05 0.0030700946 0.0025487975
52 -0.0027417382 0.0012830667 0.0024801716 -0.0016581129 0.0015139701 -0.0017466277 0.0032403779 -0.0012168282 0.00038499752 0.0009703797 0.0016801828 0.002715748 -0.0021420997 0.0027134032 -0.0005651037 7.462521e-05 -0.001612571 0.0018661402 -0.0032199796 -0.0018496775 -0.0013082371 -0.0004286592 0.00065174163 0.0037736846 -0.0021624912 0.0031902618 0.002387365 -0.0031830904 0.0030633865 -0.0023236962 0.003276441 -2.6987822e-05 -0.00011510253 0.00056898716 -0.00075719034 -4.5853576e-06 0.0023460044 0.0037009506 -0.0030930627 -0.00051448867 -0.0027897197 0.0015421441 -0.001611569 -0.0037898135 -0.0026650846 -0.00040808748 -0.0031706383 -0.0018818687 -0.0025794904 0.0021145535 0.0034458744 0.0017659189 -0.0024222806 -0.0013173635 -0.0014657867 -0.0037516786 0.0003784282 0.0018728309 0.00052650616 -0.0022440425 0.0020271097 0.0018177491 0.001779724 -0.0012266143 -0.0038842172 -0.0035754796 0.0007752443 0.0035612283 -0.0030211238 -0.0029704606 4.280041e-05 0.0010818138 -0.0010912552 0.0010117741 0.0022053989 0.001403386 -0.0013476349 0.0028815411 -0.0036217114 -0.0017788672 -0.0037854537 -0.0014685495 0.0027207593 0.0025041776 0.0025652556 0.001379447 0.0026145105 0.0010437502 -0.002461524 -0.0018333036 0.0023231374 0.0019843488 -0.0004967764 0.00022991895 0.0019326506 -0.0027573092 0.0022262216 0.0034176558 -0.001822882 -0.0004958525 0.0027807842 0.0006761541 -0.002909534 -0.002371718 0.0025661346 0.0012766786 -0.0029356861 -0.0019527122 -0.0036742534 0.001779306 -0.0014575152 -0.0013268782 0.0033892463 0.00016759298 -0.0021161677 -0.0033934389 0.001122609 -0.0008063575 -0.0027957538 0.00019098616 -0.0003690833 0.0014985556 -0.0010012152 0.003355892 -0.0012168201 0.0015942965 -0.0017376989 -0.0001246802
38 -0.0027159734 -0.0017198181 0.0032551836 0.0033971057 -0.0032878527 0.0027018692 -0.0005832948 0.0028580574 -0.0032855058 0.00057944795 -0.002115804 -0.0032606632 0.003695238 0.0026667588 0.0025111171 -0.0007756974 -0.0028451458 0.0029925425 0.0035092265 -0.0037515196 -0.00039521145 -0.0021817766 0.0012540754 0.0026135105 -0.0037971484 -0.00026483694 0.001411278 -0.003386492 0.0013972662 -0.0023075242 -0.0035729732 0.0023284797 -0.0024884224 0.0001795995 -0.00077849254 0.003741696 -0.0019110293 -0.0036881224 -0.0035258888 0.0038542696 0.0006223453 0.00029374752 -0.003603418 0.0035966777 0.0038429042 -0.0022354422 0.003828516 -0.003047439 -0.003303448 0.0003121755 -0.00027305537 -0.0012274042 0.00060608855 0.0024988046 0.0021319946 0.0021023701 -0.0019356782 -0.00024506036 -0.0011314886 0.000749558 0.0017589121 0.00043982742 0.0025909352 0.0010328329 -0.0015029705 0.00042289833 0.0011602358 -0.00069219636 -0.002011712 0.0018377985 0.0036451216 0.0019794367 -0.0006172171 -0.0023614618 -0.0002928789 -0.0018021837 0.0010446083 -0.0024993157 -0.002227366 0.001200962 -0.0012847309 -0.0006313009 -0.0015515743 0.0027959868 -0.0007419417 0.001214422 0.0017978138 -0.003267752 0.0008810241 0.0009334727 0.0023838629 -0.0032190785 -0.0019324325 -0.0010736333 0.0023500582 -0.0038327149 0.003235526 0.00013139557 -0.0018013055 0.0038493886 -0.0013223689 -0.00012435297 -0.003211727 -0.0023617572 0.0033633686 0.0016500062 0.00032310345 -0.0028842422 0.0013479929 -0.0018328351 -0.0018170824 -0.0025255627 0.0027529295 -0.0005247199 0.0035952067 0.0032840841 -0.0021413341 0.0014759928 -0.0035787553 -0.00040115704 -0.0024707033 -0.0007694051 0.0025079746 0.003439729 -0.0038186163 1.741773e-05 -0.0035358206 -0.000737216
33 -0.0033789396 0.0025975846 -0.0031431345 -0.0030571192 0.0014445176 -0.002364738 -0.0016330816 -0.0024216226 9.313979e-05 0.0031723336 0.0032236099 0.0007308387 -0.0006791829 0.00082283013 -0.00056721194 -0.00028179848 0.0015607334 -0.0013510897 -0.0025726955 0.00067663845 0.0003715719 0.0035096125 -0.0021507347 0.0023926944 -0.0038919204 0.0033107067 0.003104922 -0.00061201106 -0.0023251076 -0.0031464477 -0.0013509425 -0.001925874 0.00234414 0.0014970587 -0.001967638 0.0038792987 -0.0023150097 0.003852637 0.0017134775 0.001753357 -0.00039560063 0.0036056063 -0.001200852 0.0014963022 0.0017469611 0.002542249 -0.0008938242 -0.0030263774 -0.0036464215 0.002291487 0.0012695482 -0.00093273865 0.0018089876 0.0019887509 -0.0018425751 -0.0015694975 -0.0038094395 0.0031586564 0.0019940855 -4.798592e-05 0.0037968897 0.0012982914 -0.0014764864 0.002155256 -3.936716e-05 0.0030037202 0.0038142966 0.0015526894 -0.0033680468 0.00077903084 0.0018455447 -0.000116875075 -0.003078182 8.124461e-06 0.00011695616 0.00028748784 0.0031394158 0.0009775563 0.0012887159 0.0023968457 -0.0029293594 -0.003617893 0.00386694 -0.00022857997 -0.0008749479 -0.0035092386 -0.00029726172 -0.0021010402 -0.002389775 0.0023264093 0.0013307418 0.0037827326 0.0027338013 0.0028427716 0.00086810713 -0.0009935097 -0.00043052936 -0.0020746933 -0.0020688227 -0.0028711446 0.0027487068 0.0015944182 -0.001322122 -0.003682595 -0.0036993155 -0.0010269567 0.002128965 -0.0030746423 -0.0004781479 -0.00020388047 0.00079355866 0.0037725382 -0.003199501 0.0018507813 0.0027731003 0.0019353115 -8.211369e-05 -0.003691254 -0.00225485 -0.003844624 -0.003481075 0.0020101594 -0.0033207682 -0.0023661857 -0.0023130495 -0.00018866167 -0.00060812244 0.0039054812
41 0.0013131192 -0.0018673452 0.0033034969 -8.914063e-05 -0.0026342447 0.0032754513 9.4764866e-05 -0.0026378462 0.0003162664 0.0025321685 0.0014669896 -0.0013050692 -0.0017932308 0.002335988 0.00026928095 -0.00013527946 0.0036401588 0.0004494191 -0.002914005 0.0022771752 -0.0034054818 -4.8777405e-05 -0.0023975773 0.002043718 0.0037316452 0.00023717554 -0.003012398 0.00051571854 -0.00042850818 -0.0037784337 0.0005702335 -0.003904461 -7.840478e-05 -0.0021018798 0.0027264059 0.0023676322 0.001139904 0.00060223683 -0.0030421144 -0.0009391889 0.00044844532 -0.0017359371 5.2271578e-05 -0.0038837008 0.00036020743 -0.003461385 -0.00073617446 0.0018918534 -0.0016339056 0.0038587507 -0.0035504482 -0.0034744153 0.00030174176 0.0026622855 -0.003141235 0.0007469107 -0.00048695627 0.003775468 -0.00083749206 -0.0025447693 -0.003545632 2.0680425e-05 0.0033302873 -0.0011109039 -0.0016190711 -0.0016379537 -0.0031211986 0.0036777817 0.003134943 0.0020778116 -0.00019027217 -0.00012737 0.00044132635 -0.0035141557 0.0034370772 -0.0011713973 0.0003140643 -0.0036032717 0.0034962879 0.0030193543 0.0021051397 -0.0022929227 -0.001725783 0.0034104441 0.0012068171 -0.0014213247 -0.0015160197 -0.0037389956 -0.00064372696 -0.0022436834 0.0011792416 -0.00043990655 0.001837925 -0.0025447335 -0.0009801461 -0.0008962982 -0.0006228025 -0.0016886253 0.002189236 -0.0014993222 0.00042762014 -0.0020142186 -0.0016198409 -0.0029814492 0.0014998758 0.0013985947 0.0036504318 0.0024657447 -0.002305295 0.0012635457 0.0016491789 0.0007961131 0.0004277716 -0.0027468684 -0.003746534 0.00016634326 -0.0033288454 -0.0007480209 -0.0007663367 0.0021080102 0.0014808209 -0.0019481214 0.0036302942 -0.001952471 0.0022107274 0.002156592 -0.0018102693 0.0012614973
