96 128
40 -0.00333288 0.0029272225 -0.0025505961 0.0024693895 -0.0014160827 -0.0018781037 0.0023866761 -0.0037075323 0.0034336685 0.0006773768 0.0019894256 0.0022614005 0.0031528086 0.00029307703 0.000589759 8.127921e-05 -0.0035981277 -0.0035659908 -0.001055356 0.002606091 0.0006777515 -0.0023242095 -0.0029800034 -0.0014605823 -0.0009956543 -0.0011321828 0.00032284282 -0.00013476175 -0.0023518738 -0.0016900612 -0.0021677415 0.003241221 -0.0029002377 0.0009523645 0.0005332015 -0.002940189 -0.0011977182 -0.0005143073 0.0018598067 0.0024489975 -0.0018832398 0.0011783334 0.0033090664 0.0019640883 0.00038186667 0.0010557551 -0.00230453 0.0012830667 -0.0019187707 0.003311541 -0.002000511 -0.0016699798 0.0030296603 -0.00024345447 -0.0025143395 -0.0021833407 0.0010720501 0.0010947669 -0.0015293416 0.0018644792 -0.0019485747 0.0012422513 0.0029107174 0.003647802 0.0004894155 -0.0014511029 0.0029925269 -0.0020776927 -0.0028999315 -0.0035114887 0.0016959553 -0.003385118 0.00019351787 0.002802229 -0.0037395267 0.0032805437 -0.00080394157 -0.0023600943 -0.0033100806 -0.0037207722 0.0015243998 -0.001539174 0.0017520175 8.401547e-05 -0.0022589047 -0.0009848233 -0.0033722513 -0.001984275 0.0011213135 0.003319021 0.0005286575 -0.0035965561 0.0030199436 0.000930571 9.5817224e-05 0.0027252303 0.0020857383 -0.0027872112 -0.0023794041 -0.0015903999 0.0024145783 0.0026251834 0.0033849387 0.0005761029 0.0036089402 0.0036793272 0.002880403 0.0017096495 -3.6361966e-05 0.0033097696 0.0038915395 0.0035047005 -0.0012175449 -1.3868414e-05 -0.0035213276 0.0025637206 -0.0021170906 0.0033844502 -0.0011758902 8.45627e-06 -0.001972316 -0.0010996796 0.0009830834 0.002077386 -0.0033636119 0.0012414368 0.00041718592 -0.0012430073
36 0.00085517194 -0.0013992465 -0.0035702111 0.0006845168 -0.0011515325 -0.00089996285 0.000605264 -6.474864e-05 0.001934307 -0.0014609293 0.0026797494 0.0029143633 -0.002254517 -0.0026740392 0.002316425 -0.00087600964 0.0030689277 -0.0013039454 0.0030819958 0.0010576323 -0.00087397365 -0.0032198268 0.003833752 8.602051e-06 0.0007887642 -0.0035913184 0.0032901713 0.00090642954 4.663521e-05 -0.0016309522 -0.00297405 -0.0008460352 -0.0017138243 -0.00033023127 -0.0030480344 0.00081824244 0.002187181 -0.003601155 -0.003450132 0.00041479332 -0.0021352912 -0.0015429144 0.002277502 -0.0036097483 0.0011989673 0.0027150288 -0.001620431 0.0009318758 0.0013372926 -0.0014020063 -0.0030687824 -0.0010213561 0.0014531958 0.0025726934 0.0027208165 -0.0020821409 0.0036475842 -0.0024237018 -2.785156e-05 -0.0013814142 0.00075192645 -0.001723271 0.0020286075 -0.0012868094 -0.003190103 0.00064477813 0.0026604615 -0.003002645 0.0007250591 -0.002377326 0.0007273051 -0.00085205206 -0.0029986023 -0.00045002607 0.0011833833 -0.0007918693 0.0010579486 0.0031790477 0.0022950447 -0.0021033818 0.0037190714 -0.003705124 0.002511623 -0.003485299 -0.0027289595 0.00313357 0.0024572765 0.0011365778 -0.0037744737 7.809046e-05 -0.0019183944 -0.0006430869 0.0016026329 0.00034231297 0.00038187442 0.0017152528 0.002126369 0.0024849072 -0.0024517104 0.003054325 -0.0009254151 0.0036303524 -0.00094949955 -0.0018721304 -9.9783334e-05 -0.0020451369 0.0019648892 -0.001493073 0.000756425 -0.0014685215 0.0023965975 -0.0002000238 0.003154676 0.0004154577 -0.0022862435 0.0013345918 -0.0038218421 0.0017094656 0.0035625463 -0.00079300685 -0.0036654375 -0.0019061151 -0.0019829804 -0.0030861236 0.00092680205 -0.002364605 0.000703279 0.0022990627
55 0.00065607426 0.00094152807 0.0028763502 0.0034261465 0.0017525869 -0.00095057057 0.002585527 -0.0016210616 -0.0006243424 -0.0004776143 0.002647615 -0.0031654404 -0.0022786718 0.0034646904 -0.0023114441 -0.0038263148 -0.0037318217 0.00023497616 0.00206659 0.003422478 -0.00071685226 -0.00010600324 -0.00056546484 -0.00095152046 -0.0027059906 0.00043508722 -0.00021604105 -0.0015351812 2.0154741e-05 -0.0018602884 -0.0024143194 -0.0026195736 0.00053124747 0.0020908765 0.00052684254 0.00059120986 -0.0025519503 0.0035509828 0.00044248922 0.0018448306 -0.0027849518 0.0017256335 0.0008611955 0.0035626558 -0.0026808158 -0.00195419 -0.0022188944 -0.0006024924 0.00044836538 -0.0017355221 0.0015374299 0.002956924 -0.0018728671 0.0035491441 -0.0022327444 -0.0032795724 0.0019119325 0.0011887054 0.0015801903 0.0023022161 0.003505146 0.0033204225 -0.0032237002 0.0034797043 0.0029250407 -0.002655565 0.0026139426 0.0030073735 -0.0032250471 0.0036830404 0.0036418936 -0.0033596815 -0.0008494456 -0.003360766 -0.002340384 0.0025915285 0.00023013307 0.0013770096 0.00043209395 -0.0026601462 0.0013236704 -0.001587488 0.00072301377 0.003060693 0.0020491902 0.0037034038 0.0035458836 0.00040458262 0.002380111 -0.0018220907 0.0029075854 -0.0015451788 -0.0010470536 5.2715997e-05 -0.00024129251 -0.003442025 -0.00011959524 -0.001279675 0.0027160833 0.0011734326 0.0026037607 0.0021854423 9.860771e-05 0.003182843 0.003727999 0.0027905628 0.0010783172 -0.0031589544 -0.0006327886 0.0018137083 0.0028788294 -0.00072409253 -0.0016849061 0.000823887 -0.0028988787 -0.0033984291 -5.8557776e-05 0.0035990018 0.0016913225 -0.0037927136 -0.0005737306 -0.0037285676 -0.001504955 -0.0033496125 -0.002342634 -0.0024155013 -9.65803e-05 -0.0033062433
65 0.0014862554 0.0035162228 0.003762768 0.0034160835 0.00043133862 0.0019695207 -0.0038602767 -0.00020360191 -0.0004301844 -0.00067979045 -0.0037630268 0.00017978097 -0.0009772452 0.0012385922 -0.0017393277 0.00061430875 0.0012545846 0.0013198279 -0.00077098614 -0.0024251337 -0.0037879879 -0.0028353024 -0.0031401035 0.00021038357 -0.003398858 -0.00089402596 0.003228716 0.0020761995 -0.0022477498 0.001282451 0.0013558569 -0.002899253 0.0026517708 -0.0037394448 0.0027191604 -0.0038045973 0.0030838866 0.0018219708 -0.00021621065 0.00030689154 0.0030689691 0.0023065766 0.003468701 0.0031599852 -0.003698686 -0.0017206816 0.0007924201 0.0027034811 -0.0027745531 0.0035262415 0.0021990119 0.001848373 0.0014374113 -0.0020965845 0.00061789184 0.0008755964 0.0012686371 -0.0010010862 -0.0008095596 -0.003034584 -0.0026235413 -0.0009999401 0.002046327 0.0037550787 -0.0021058896 0.0016494001 0.002778632 -0.00064045354 -0.001354909 0.0019814083 0.003387966 0.0021922411 0.00076789415 -0.0010658092 -0.0034609782 0.000732735 0.0021246749 0.0027191916 -0.0019232522 0.0017157573 0.00037279414 -0.0013004257 -0.0014982705 -0.00082107476 -0.0018928975 -0.0021755882 0.003361929 0.0009581487 -0.0010911671 -0.0014924558 0.00036952263 0.0007724409 -0.002818759 -0.00077406556 0.00022313386 0.0031492745 -0.0018467817 -0.0028584404 -0.0029151244 0.0016813823 0.002009397 0.0023334268 -0.00061975105 0.0007333772 -0.00080156216 -0.0026743556 -0.0025330528 0.0005121866 0.0028936793 -0.000705146 0.0023728816 0.0015509324 0.0029497733 0.0014319271 -0.00197506 0.0006023599 0.00087718305 0.0014746002 0.0004738651 -0.0013855381 -0.0026241357 -0.0031020963 0.0038907703 0.0012058236 -0.0015542182 -0.0026186574 -0.003374814 0.00051263964
88 -0.0023421776 -0.0011088732 -0.0032276837 -0.0019867166 0.00029688142 -0.00021388227 0.0034573986 0.0035852087 0.0027745825 -0.0025852434 -0.0010504923 0.0028207246 -0.00047842658 0.0019565702 0.0019490388 0.0016026265 -0.0015835811 -0.0021985597 -0.00025847682 0.0032402538 -0.0003366531 0.0037262475 -0.0016021618 0.0033518116 0.003513295 -0.0017779879 0.0037379218 -0.003107958 -0.00024453353 0.0013318206 0.0015666616 -0.00078046555 0.0025106196 0.0034068907 -0.0025931804 0.00060878304 0.0012265797 0.0034702693 -0.0033892435 0.003414884 0.0005046397 0.0017182033 -0.00033591318 0.0015405121 -0.00053888274 0.0017073783 0.0005680454 0.00016532635 -0.0035672435 -0.0035992365 -0.0025147218 0.0009401346 -0.0036855591 0.0005866526 0.002019719 -0.001778746 0.0009432967 -0.0017955066 0.00012460428 0.0001371364 -0.0008060591 0.00024945367 -0.00035333095 0.0023289253 -4.137531e-05 -0.002532427 0.003342777 0.0027383638 -0.00095573155 -0.0038918878 -0.0022662818 -0.00036489408 0.0025312668 -0.0026728322 -0.0025251592 -0.0021987238 -0.003120115 -0.002846823 0.0023322755 0.0020664698 0.0037953914 -0.00015899366 0.0012675977 -0.0016005302 0.00037867422 0.0033770034 0.0024676821 0.0032895491 0.00040092564 0.0035587174 0.0012242037 0.0011432986 -0.00023370865 0.0037131743 -0.0005560571 0.0016385717 -0.002884325 0.0015131498 0.0032577047 0.00070404826 -0.0014136679 -0.003045463 -0.0030059116 -0.0013602596 0.003323289 0.003408875 0.0016555411 -0.0021031315 -0.0036587617 0.0010633001 -0.0008289927 -0.0012038554 -0.0018276635 0.0026280107 0.000100216166 -0.0015341863 -0.0033383158 -0.0036383213 0.0027815078 0.0024858187 -0.0036189174 -0.002646715 -0.00013100561 -0.0013502636 -0.0010578302 -0.0025121176 0.00062598835 0.003533323
47 -0.00030728296 -0.0011523252 -0.0002205608 -0.0014730054 0.0035492731 0.0026969293 0.0006736037 -0.003087881 0.0018981078 -0.0030319593 -0.0003483327 0.00084084476 0.00026173593 0.0036168534 0.0010469455 -0.0015753981 0.002020293 0.0017911289 -0.0037974787 -0.0003431442 -0.002494022 0.0026176225 0.00016905325 0.0038651682 -0.0010163652 0.0011338496 0.0010207387 0.0015041556 -0.0022281224 -0.0026187259 5.193931e-05 0.0031801416 -0.0026502106 0.001695091 -0.0031851411 0.00081095437 0.00074521534 -0.00041973186 0.0012936395 -0.0005122415 0.0007909323 -0.00076429726 0.00011881343 0.00220938 -0.00110067 -0.0026168209 -0.0010397974 -0.0022300056 -0.0022887795 0.0027187106 0.0009403667 0.00034595895 0.002922436 0.003307942 0.0013201268 -0.003036971 -0.00020716041 -0.0005973479 -0.00052193616 -0.0012549941 0.0005963161 -0.0035575677 0.00023488325 -0.00032579404 -0.002317064 0.0028510545 -0.00021327555 0.0016688602 0.0013893513 -0.0038445236 -0.001347508 -0.001445635 0.0020518624 0.0028304495 -0.0011680478 0.0025353627 -0.0018999594 0.0020937556 -0.0010302837 0.0020637675 -0.0023718877 0.0032344598 0.003709171 -0.0008705652 -0.0021153637 -0.0021985748 -0.0034206246 -0.003485377 -0.0013123573 -7.4373835e-05 -0.0014784662 -0.0011956695 0.0035884161 0.0010793185 0.00015341128 0.0022105416 -0.0013293986 -0.00022412332 -0.0012608442 -0.0025402906 0.0013651857 -0.0008969449 0.0032394954 0.0021909985 0.0032723846 -0.0017304869 0.0027055028 -0.00017330791 -0.001971728 0.0038022231 0.0015492222 -0.0033725663 -0.0014257997 -0.0036591436 0.0009024162 -0.0013828365 -0.0013211218 -0.0022616943 -0.00045796548 -0.002303845 4.5081928e-05 -0.0037798248 0.0027507774 -2.3850984e-05 0.0014350516 0.0020441855 -0.003635724 -0.0002930668
66 0.0024319747 0.0037384336 0.0019713424 -0.0029919092 0.0025879142 -0.0020216512 -0.001284028 -0.0012610077 -0.0023622715 -0.002924294 0.0030604252 8.839637e-05 -0.002212382 0.0013595578 0.0031253896 -0.002574645 0.0009108357 0.0015512621 0.0032078084 1.959608e-05 -0.00089501723 0.0036184895 0.0013787422 0.0029071902 0.0017418001 -0.0004051718 0.00016586464 0.0038790654 0.00041775237 -0.0017083167 0.0029961322 -0.0035459006 -0.00031796907 0.0020055443 0.0036855792 0.0020255295 -0.0005050278 0.003175509 -0.0038491883 0.0038324732 0.0014944855 0.00012261931 0.0033228036 0.0013464387 -0.001473561 -0.002566699 0.00068649655 0.0035873053 0.0033419644 0.0036392051 -0.00145965 -0.003123109 -0.0023121736 -0.0009824338 0.0036532534 -2.9244852e-06 0.00219875 -0.0002746783 0.0006475551 0.001098509 0.002473136 0.00094405306 0.0036748447 -0.001959172 -0.0017957457 1.0777396e-05 0.0018415367 0.0037300966 -0.0035015165 -0.003220029 0.0017259187 -0.0027184694 -0.0031137818 0.003880809 0.0029100783 -0.00044012372 -0.0023427405 -0.0014754009 -0.0001799759 -0.0029840637 -0.0036648852 0.00032517524 0.0027333389 0.0029880165 -0.001826379 0.00029381795 0.003690461 -0.0011239857 0.00026945674 0.0027730507 0.0037461843 -0.001575975 0.00158886 0.003184831 -0.0024485583 0.00080988964 0.0023659419 -0.0033063386 -0.0028609175 -0.0010823561 0.0004231043 0.0014047539 -0.0016221186 -0.0020167725 0.0031098211 -0.002379265 -0.0016946186 0.002667891 -0.0024963666 0.0008571325 -0.00024934564 0.0027069668 0.0032519703 -0.0038217267 0.0019691365 0.0008596493 -0.0015947721 -0.0037120075 0.001881217 0.0016867525 0.0017884163 0.0012978617 0.000640266 -0.002852125 -0.0020148489 -0.00085532875 -0.0008102727 -0.0020151834
84 -0.00017668166 0.0032861864 0.0012563311 -0.002609335 0.0038052532 -0.0018289606 -0.0039033315 0.0012833952 -0.00038706604 0.0012052314 0.00053482375 0.0022387907 0.0033055416 -0.0024431192 -0.001940222 -0.000742031 0.0038642175 -0.0020499832 -0.0030820838 0.0035608755 -0.0036189572 0.0017885907 -0.0024476496 1.6809554e-05 0.0031065196 -0.0005920158 0.0022051611 0.0029579126 0.0024549721 -0.00097261334 -0.0030028818 2.0542946e-06 -0.0016570507 -0.003598896 -0.0034457997 0.00062605506 0.0014879557 -0.0012974374 0.00024602097 0.0018715042 0.0036342875 -0.0011651849 0.0034132379 -0.0034103696 0.00022055185 -0.0006368702 0.003601523 -0.0017914193 0.0023662464 0.0028268977 0.0004748417 -0.002037137 -0.0009765456 -0.0033525466 0.0022187072 0.0035428072 -0.0008583257 -0.0026892556 -0.00048305653 -0.0033826989 0.0022840737 -0.00027228566 0.003165389 -0.0039008467 -0.00037980307 0.0034090364 0.0016441118 0.0037147116 -0.00080793793 -0.0015089941 -0.0017703779 -0.0008793478 0.00012276263 0.0027594708 0.0009206536 0.00091878854 0.0022736068 0.00048292082 -0.0021621431 0.0015887653 0.0012398877 0.00095457846 -0.001583249 0.0033325746 0.0035928972 -0.00196048 -0.0015100333 -0.0013185197 0.0018571479 -0.00012307144 0.0010072923 4.8952716e-05 -0.0019734749 0.001106486 0.0020154617 -0.002636057 -0.0020689142 0.0031221358 -0.00018091677 0.00047136223 0.00043692812 0.0015132824 0.0026443207 0.0025839508 -0.0026074378 0.0021035913 0.0033280477 -0.003902613 -0.0015498403 0.0009632506 0.0010802508 0.0025490513 -0.0024278802 0.0029397523 -0.0005752091 0.0037767175 -0.0027609188 0.002247745 -0.001659124 0.0011756961 -0.0020183148 -6.959899e-05 0.0008011946 0.00042654012 -0.0019507044 0.0007957887 0.0018497932 0.0011627582
93 0.003028007 -0.00065258873 -0.0008860184 -0.0032707085 -0.0027020113 -0.003338175 0.0004125295 -0.0012323825 -0.0037549778 0.00046617133 0.0026288626 -0.0029377067 0.003707231 -0.00052059366 -0.0012912098 -0.00148667 -0.0022385796 -0.0011733621 0.00015615473 0.0027375934 -0.0037372592 0.0032972952 0.0014443813 -0.000615696 0.0011054804 0.0018799606 -0.0031660507 -0.0017933144 -0.0019439305 0.00044886663 -0.00010801553 0.0018805481 0.0007690357 0.00069967826 8.999197e-05 -0.00043387993 0.0021207817 -0.0034920601 -0.0029279399 -0.0023449745 0.0021869172 0.0038924515 0.0024816266 0.002893437 0.0023026615 -7.5757474e-05 -0.0029062938 -0.0034434432 -0.0005268318 0.0025829577 0.003551208 -0.0014228423 0.0027565598 -0.0020468982 -0.0012621355 0.0024783204 0.001311297 -0.0034670946 -0.001130268 0.002211839 0.0037614559 0.0014129604 0.0017812244 0.0025794709 -0.003579261 -0.0026813634 0.0011820819 -0.0026220533 -2.0819822e-05 -0.0029748718 0.0030715393 -0.0017395301 -0.0016903648 -0.0015544447 0.0029285676 0.00079184456 5.0184313e-05 -0.0024861214 -0.001994965 -0.0031089322 0.0016689659 -0.0017643358 -0.00254 -0.0030053607 -0.0023359768 -0.002491697 -0.003819877 0.0037493268 0.00082590204 0.001625167 -0.0015486074 0.0026258668 -0.001785116 -0.003460928 -0.0004424842 0.0036807572 0.00047296225 4.574662e-05 -9.724678e-05 0.0017906019 0.0022873671 0.00041064539 0.0009338553 0.0010407922 -0.002711073 -0.0005079292 -0.0005162788 0.0020230669 0.00017994104 0.0003446902 -0.0038195793 -0.000286939 -0.003714148 0.0015219123 7.081981e-05 -0.0018286556 0.0021133283 0.002113859 0.0007525832 0.00307895 0.0006592506 0.0038573216 -0.0019833934 0.0037868423 -0.000115454386 0.00013683306 0.0020109706 -0.0035600439
87 0.0025851754 -0.0030531297 -0.0030914352 -0.003132963 0.0016205127 0.00073734915 -0.0006912166 -0.0001432399 0.0030107864 0.00310935 0.0037444497 0.00015269872 -0.0004497521 0.0022204542 -0.0004310895 0.0029570947 -0.0035431858 -0.0023193802 -0.0034739042 -0.0015311666 -0.00077283155 -0.0030087328 0.0024156433 0.0010989037 -7.443019e-05 0.0030372094 -0.0008944756 0.003134643 -0.0018158013 -0.0016530814 0.00010240823 -0.0017043808 -0.0018312973 0.0013122618 0.003876533 -0.002729026 -0.0032734827 0.001055154 0.0012575558 0.003813388 0.0015307725 0.0022003213 -0.0011154093 0.00283169 0.0004287277 0.0015757998 0.0021193058 0.0033952706 0.0037515403 0.0030380345 -0.0011092634 -0.0022647295 -0.0033053977 -0.00028837533 -0.0038558017 0.0032174662 0.0028334544 -0.0037105335 0.0031924334 -0.0022089507 0.0019517868 0.0014782742 0.0019494976 -0.003551284 0.0035010297 0.00068941235 -0.0014673771 -0.0038463818 -0.0025340323 -0.0030647425 0.0031976674 0.0025186045 -0.0024154745 0.0034550617 0.00257393 0.0036562358 -0.0006544324 -0.0015351343 0.00244189 0.00040655493 0.0005183326 0.0016786732 0.0012872334 0.0005483555 0.0002507624 -0.00181006 0.0023074918 0.0015240951 0.0032032663 -0.0010375405 -0.0034599726 -0.0012047865 -0.001332282 0.0009220917 0.0014431169 0.0018289326 0.0006027715 -0.0025510448 -0.0031932166 0.003176293 0.0038697585 0.0003486675 0.001647798 -3.170098e-05 0.0019091653 0.0025716224 -0.0032475023 0.0030649728 -0.002794607 -0.0023147867 -0.00012183706 0.0015711931 -0.0014837661 0.0013587291 0.0027733962 -0.0010655572 -8.591856e-06 0.0032914064 0.0010532913 0.00055641186 0.00097484834 -0.0004391372 0.00092519255 -0.0015757423 -0.0014982882 0.0001977088 0.002904152 -0.0011959096
7 -0.0018331545 0.00046190052 0.000589624 0.00071397715 -0.0025568437 0.0033814267 0.0011526156 -0.0038728542 -0.0020962048 -0.0029800856 0.002395143 -0.00015737498 -0.00031347023 0.001450415 0.0012452049 -0.0012639277 -0.0011001017 0.00076661183 -0.0034355682 -2.3953453e-05 -0.0015705953 0.00061184337 0.0007928519 -0.0008799407 0.0014679406 -0.0037739698 -0.002693601 -0.003557709 -0.0023839576 0.0020362732 -0.0018205479 0.0021134117 0.0005450485 -0.00022831846 0.0032074046 -0.0026641022 0.00244334 0.003391768 -1.261869e-05 -0.0008692898 -0.002639994 -0.0028342053 -0.0037189412 0.003201201 -0.003649566 -0.0026389072 -0.0022015476 0.0023391843 0.00061378465 -0.00027371594 -0.003332757 0.0017846262 -0.00086696807 0.0014009404 0.0017714334 0.0038443042 -0.0021212662 0.0036003762 -7.6573946e-05 -0.0017268438 -0.0035826617 -0.002683545 0.0018197468 -0.0033737693 0.0034403072 -0.0037434525 -0.0007926084 -0.0035608322 -0.00082234456 0.0011329236 0.0021102868 -0.00037097983 0.00019688469 0.0012207321 0.0021499586 0.001615637 -0.0027667447 -0.0032867128 -0.0012213732 -0.0037227166 -0.0037777622 -0.0037430928 -0.002416496 -0.0018405566 -0.0025844495 0.0028216538 0.0005614028 -0.000424337 -0.00043408992 0.003492224 -0.00013391627 0.0025610942 0.0037573674 -0.0033723712 0.0016770208 -0.00088628806 -0.00038436305 0.001845578 0.0023343628 0.003440804 -0.0032430373 0.0014954394 0.0036253904 0.0019255467 -0.0017903891 -0.0016707889 -0.0012794669 -0.0022979819 -0.0028390172 0.0004257202 -0.00047132868 -0.00015532406 0.0015484269 0.0020172677 -0.0030236954 -0.0035643796 0.0031262422 -0.0018340045 0.0023103124 -0.0025153179 -0.000615963 0.0019935188 -0.0022747174 -0.002869252 -0.0008391823 -0.0009898121 0.001584239 -0.0027632348
18 0.0012651675 -0.0025509705 0.003566316 0.0014197115 -0.00094032905 0.002192392 0.002607156 0.0018438408 0.00045526828 0.0016344347 0.0014722998 -0.00083935 -0.0011958207 0.002300735 -0.0032002488 0.0025718894 0.003058879 -0.0012097047 0.0005702635 0.0037877723 0.0027541453 0.0025912528 -3.766859e-05 -0.002167353 -0.0006198027 -0.0011057818 -0.0034502875 0.0033686634 0.0034852247 0.00092328835 -0.00037798652 -0.0030434148 0.0006718248 -0.0015863363 -0.0017311225 0.00026266254 0.0023362788 -0.002691419 -0.000972961 0.0023128102 0.00057994743 0.00015375059 -0.0026501962 0.003078468 -0.002118361 0.0037282747 0.0020981086 0.002765286 0.002672347 0.0036456527 0.001270125 0.0035881728 0.003156795 0.00268832 0.0013578692 0.00058924395 0.0017029331 0.0013528116 0.001189516 0.0031181655 0.00052189967 -0.0010631494 0.0023248508 -0.0014552946 0.0026791927 -0.003605414 -0.003647879 -0.0036584178 0.003710128 -0.00052280334 -0.0034696357 -0.0013833734 -0.0017393143 0.0004641851 -0.0022646703 -0.0029387558 0.0019935933 -0.0032502143 -0.0027091827 0.0028023953 -0.003559351 0.0034229965 0.0016246825 0.00044877545 -0.001811271 -2.9285478e-05 -1.4216916e-06 0.0017838026 -0.0012801472 0.0036601978 -0.0006341822 -0.0018911572 -0.003865674 -0.0013984586 -0.0013471852 0.0005251982 0.0009872551 0.0027203504 -0.0019974622 -0.0028432524 0.00064723997 0.0022305073 -0.00044967636 -0.0036400037 0.00028112356 -0.0007081168 -0.00041540107 -0.001893802 -0.0036308786 -0.00039055006 0.0026755775 -0.0025680035 -0.002472598 0.00019993848 -0.0022114995 0.00057401584 -0.0005351968 -0.0012383518 -7.687758e-06 -0.0023698271 -0.00053898455 0.00063294393 0.0028975464 0.0031629219 0.0015747133 -0.0024620919 -0.003238794 -0.0012530767
6 -0.00238423 0.0022428483 0.0004907102 0.0008757735 -0.001880612 0.003241553 -3.177545e-05 0.001393891 0.0029348705 -0.00039855542 -0.001321414 0.0028990656 0.002066526 -0.002997082 0.0013707903 -0.0034801988 -0.00021416537 -0.00068920944 -0.0014521542 -0.0026606964 0.0004010722 0.00013882504 0.003087305 -0.0033824423 0.0027806489 -0.00017979134 0.0026683675 -0.0024985939 -0.0014494018 0.0028625852 0.0035084945 -0.001750986 -0.00048973534 -0.0014923867 -0.0018006234 0.002196821 -0.003389837 0.003440649 -0.0029722278 -0.001373221 -0.0013333743 -0.0027635053 -0.0024098672 -0.00203977 0.0034902385 0.0035243824 -0.0027247048 -0.0027658085 0.0020330513 0.001744924 -0.00012316492 0.0013277543 -0.0022184981 0.00080412684 0.0005175032 0.002199386 0.0033272242 -0.002166788 0.00046623583 -0.00072488876 -0.0009493625 -0.0006949522 0.00258556 -0.0013145376 0.003257641 0.0023658243 -0.0036859273 0.0007086327 0.0019283841 -0.0034108562 -0.0011184537 0.0014366369 3.749117e-05 3.641378e-05 -0.0030823369 -0.00066795124 0.0010271375 0.0032880136 0.0009013544 0.0005860094 -0.0029537536 -0.0024550406 0.001966663 -0.0015689705 -0.0023515157 -0.0012183299 0.0023120288 -0.0020312543 0.00050977996 0.00038537674 0.0020889586 -0.002119473 -0.002077471 -0.0033223277 -6.159106e-05 0.00066873926 -0.0014226672 -0.0033349132 0.0027455045 0.00056411774 -0.0010577936 -0.00195483 -0.0030522258 -0.0029198856 -0.0012291843 -0.0009648395 -0.003805511 0.00067107787 9.472904e-05 -0.0023493161 -0.0015852647 -0.0035215202 -0.003888571 0.0029027497 0.0025135942 -0.0003798764 0.0011944392 0.0025006454 0.0030949588 -0.0013424562 -0.0016775315 0.0030214463 -0.0016588143 0.0021251473 -0.0014574431 -0.0038989978 0.0022707987 0.002119653
56 -0.0014425276 0.0014446144 0.00384808 -0.0028490922 0.00018289028 0.0021628716 0.003186036 -0.0017411008 -0.0028218515 -0.0022805827 -0.0030260992 -0.0025687516 -0.0022492525 0.0008112254 0.0031378164 0.0009944101 0.0019459164 -0.0016451938 -0.0003034286 -0.0037466888 0.00282071 -0.0030568603 -0.0011547918 0.00031833496 0.0009678361 -0.0017649658 -0.0027989137 -0.001069425 -0.003082461 0.0001659147 -0.0003038413 -0.0010629736 0.0032281512 0.0035948681 0.0015527226 -0.00029664283 0.0012296033 0.002098817 -0.0013126187 0.002980795 0.0032000558 -0.00035095788 -0.0028108628 0.0012718175 -0.0036877405 8.9515655e-05 -0.00096188876 -0.0029019378 0.000119508484 -0.0008289668 0.0010712638 0.00019001387 -0.0036019275 -0.0026405053 -0.0026332596 -0.0007002579 0.0035873072 -0.0033549157 -0.0009995342 -0.0026797825 -0.0011173775 0.0033184798 0.002654997 0.0019019626 6.9112626e-05 -0.0017104828 -0.0020965552 0.0009681705 -0.0023925249 -0.0022781822 -0.0011953408 -0.0015733329 0.0018929188 -0.0036766846 0.0020762992 -0.0018350513 0.0021243375 -0.0012147953 0.0032407776 -0.00070884585 0.0033288002 0.003200118 0.0023568664 -0.0015333155 -0.0014023626 0.0033078254 -0.0037327257 -0.00037408917 -0.0034094937 -0.00043349995 -0.0019029218 -0.0023759848 -0.0005170951 -0.0013179638 0.003735581 0.0030058888 0.003026757 0.0013126804 0.002561265 0.0028626758 -0.0021864371 -0.0013554061 -0.00035871135 -0.0021614418 -0.0019797834 -0.0034958858 0.0037611155 -0.002067678 -0.0010098343 0.0006061522 0.0022403179 0.0029954133 -0.00050268177 0.002539366 -0.0037920135 0.0017954569 0.0023992243 3.845567e-05 -0.0025826425 -0.0010843594 -0.0006487606 -0.0029090566 0.0029368235 0.0014537092 -0.0031716246 -0.0037887022 0.0014288855 0.0036080112
23 -0.0028657587 -0.0012935271 -0.0035647813 -0.0019687873 -0.0025806483 0.0036961127 -0.003184058 0.0002647431 0.0035121276 0.0018036282 -0.0037184744 0.0032283803 0.0032896027 -0.003038137 -0.0005523968 -0.0022018559 0.002788229 -0.000896849 0.0006350449 -0.0025643914 0.0017072286 0.0004434149 -0.0013551203 0.001638099 0.0003726293 -0.0033787123 0.0028460664 0.0015269115 0.0023910587 0.0011021654 -0.0035191074 -0.0027843348 0.003434007 0.00027043198 -0.00040548466 -0.0021356759 -0.0037770022 -0.0020651775 0.0008215439 0.0018506693 -0.0036651492 0.0015123714 0.0001293212 -0.0003232314 0.0013264007 0.001607773 0.0021894625 -0.0010183924 0.0013268664 -0.003768893 -0.0036408317 -0.0013131645 0.003161007 -0.0034376457 -0.0006948799 -0.0030782607 0.002554991 0.0013573061 0.0015715428 -0.0017159749 -0.0032152187 -0.0015923973 -0.003294801 -0.0017549543 0.002154607 0.0012240326 -0.0009858143 -0.0018855773 -0.00046702437 -0.003185711 0.0023128 -0.0007684386 -0.00095725403 0.0032581298 0.00049774133 -0.0022045157 0.0030390888 0.0010977843 -0.0018261841 -0.002118817 0.003811834 0.0005000243 -0.0024974316 0.00019680132 -0.0010625041 0.0038710267 -0.0038150814 -0.0036469598 -0.0017748007 -0.0006112417 -0.003595388 -0.0022086073 -0.0017792699 -0.0028870401 0.0028267296 0.00033083372 -0.0012069166 6.44363e-05 -0.00068145106 -0.0027381007 0.0022667756 0.0019532808 -0.001531327 -0.00088468735 0.0005418997 -0.0006537983 0.00054134475 0.0023096348 -0.0037600512 0.0023102479 -0.0013680701 0.0013932637 0.0016226057 0.0023915013 0.0001017866 -0.0020291714 -6.37391e-05 -0.003181396 -0.0033484017 0.0023497732 -0.0035382346 0.0013860767 -0.0015307427 -0.0007154797 -0.0035236005 0.0008660329 -0.0036014316 -0.0013710385
16 0.002843333 -0.0021906612 0.0023130537 -0.001255533 0.0009832595 -0.0036694356 0.0029209494 -0.0034468605 -0.0025032363 0.00028394375 0.003437421 -0.0035109918 -0.0029887347 -0.0031460742 -0.0024538196 -0.0021090102 0.0024442412 0.0010726869 0.0025805926 0.0033341467 -0.0023653803 -0.0013446056 0.0031026385 -0.0011776579 -0.00057484134 0.0037724413 0.0017654285 0.0033128888 0.0016055963 0.00019094656 0.0032528099 -0.0030390783 0.00083606824 0.0034199164 0.0021658274 -0.003631438 0.0031805246 0.0029141477 -0.0008657838 -0.0003284601 0.0030626438 0.0036507905 0.002815027 -0.0037045414 0.0012969451 0.00065591093 0.0038898159 -0.0010973498 0.0009583923 0.00069618603 0.0001878162 -0.003265059 -0.0037942508 0.0001584242 0.0028748221 0.0006145272 -0.0010998261 -0.0010890105 0.0030108457 -0.0008592828 0.0014798505 -0.0014911662 0.0020480142 0.0024287624 0.0025992326 -0.0019773147 0.00093116605 -0.0036789544 0.0007476714 0.0038444132 0.0027967186 -0.0006320998 -0.00016160344 -0.0022837173 9.806015e-05 0.002787117 0.0037175857 -0.000117273616 0.002742161 0.0017571299 -0.0022992454 0.0036400352 0.0030571795 0.0029357166 -0.0013102993 -0.0027644385 -0.0017259152 0.0026356336 0.0017048797 -0.00016672727 -0.0024271614 -0.003308382 0.00052168383 -0.0013069262 0.0010400291 0.0024942942 0.0016888479 9.483263e-05 0.0014162548 3.7118352e-05 0.0014229973 0.00073013833 0.00053242466 -0.002584892 0.0026317793 0.0012178974 -0.002586682 0.0025400615 -0.0027080681 -0.0021093665 -0.002773407 -0.00083399244 -0.0014576326 0.0010637331 0.00053236826 -0.0011434845 0.0027634874 0.00041519495 0.0018543472 -0.0014285697 0.0023436912 -0.00015307941 0.001210704 0.0019441682 -0.0036539424 0.0020167767 0.003091753 -0.0008974136
64 -0.002390017 0.003247876 -0.0028995727 0.002894007 0.00374328 -0.00078567304 0.00275299 -0.0026486702 -0.0009810735 0.0033932677 -0.0011103258 0.0004901823 -0.0027991226 -0.00091700663 -0.001379836 0.00074051716 -0.0020351086 0.0022886603 0.0021922216 -0.0017628421 0.0011507864 -0.0005550279 -0.0034606776 0.0030975628 -0.00071741495 -0.0018877255 -0.0005331054 0.00019506515 0.0035238366 -0.0025165428 0.0014461323 -0.003088179 0.0011067506 0.002864414 0.0024228322 0.0030255264 -0.0024995545 0.0012672863 -0.0030125296 -0.003499211 0.0026222304 0.002423024 0.00022940457 0.003856136 -0.0036493535 -0.0025125935 -0.0032702782 -0.003778117 0.0035769101 0.0023677303 0.0029076606 -0.0027935586 0.00380384 -0.00079594034 -0.0007980312 -0.00022857559 -0.0037747116 -0.00088524254 -0.0026906028 -0.0015628296 -0.0032270977 -0.0016704251 -0.0029198558 0.0025295436 0.0007674854 -0.0006126962 0.0014835402 0.0006398445 0.0009853793 0.0011503543 0.00021839081 0.0036902754 0.0033904114 0.0003814168 -0.0023246151 0.0022351737 -0.0009979971 -0.0021576222 0.0020461006 -0.003808525 0.002645354 -0.0022248134 -0.00033013482 -0.00097150326 0.0017543411 -0.0017523712 -0.0018561629 0.0030267874 -1.6761987e-05 -0.0035688893 0.0021095108 0.0018646739 0.0026732862 0.0025842767 5.9611535e-05 -9.231725e-05 0.0037318405 -0.0025041152 -0.0011367769 0.0036801328 0.0023271223 -0.0011112547 0.0030271353 -0.00030758648 0.003384922 -0.0037378175 0.0027828775 -0.0032291946 0.00021298933 -0.000739816 -0.0005148536 4.8265676e-05 0.003306512 0.0017467423 -0.00040704687 -0.003763024 -0.0008430333 0.0032784254 -0.0025180106 0.00034626597 0.003280608 0.0031138018 -0.0033233021 0.0027103906 -0.000651993 0.0013694052 -0.003256052 9.822561e-06
20 0.001404375 0.0014908623 0.0024344306 0.00034075987 0.001323809 0.00017275217 0.00012182568 0.0013266781 -8.956385e-05 -0.002399244 -0.0035322616 -0.0026132762 0.00024198508 0.0004906119 -0.002117846 -0.00361773 0.0010677413 0.0022695814 -0.0037065863 -0.0025047802 -0.00070942665 0.0031137126 0.002870815 0.0022166225 -0.0028553696 0.00078681664 0.00062119565 -0.00056064024 0.00030219415 -0.0017034573 -0.002378657 -0.003246562 -0.00073183066 0.0014542032 0.0011434898 -0.0037329814 -0.0021704375 -0.001963591 -0.0024330916 0.0027793988 -0.0007518919 -0.0010129842 -0.000906563 0.0024540478 0.00045929683 -0.0015899442 0.0005404403 0.0022396215 -0.0016743063 0.0018412012 0.0017342613 -0.0013890062 0.0038746658 0.0036500082 0.00144718 0.0009830018 -0.00063549035 -0.0027747327 -0.0006850057 0.0010099438 -0.0017665508 0.0024931612 -0.0036144927 -0.0031400588 0.003132925 0.0006646072 -0.0014163331 0.0022945544 -0.0002449336 0.0016552242 0.0011738568 -0.00067766005 0.0028206862 -0.0028122582 0.0017285229 0.0014554069 0.0006010167 -7.281519e-05 0.0012762435 -0.0034513553 -0.0037271471 0.0038421634 0.00035554386 -0.0010968134 -0.0013971315 -0.0021540902 -0.0007081352 0.0017904971 -0.00094069605 -0.00010847034 -0.00345297 -0.0016295112 -0.0008713233 0.00089393393 -0.001688101 0.0015357519 0.0020595677 0.000440103 0.002176116 0.0018605484 0.0004797257 -0.003627086 -0.000338449 -0.0030657933 0.0032745074 0.0016450174 0.0032111201 -0.0021233382 0.00065159757 -0.00045179622 0.0007038381 -0.0024943948 -0.003098185 -0.0031414116 0.0015736452 0.00014504677 0.003683053 -0.0021770322 -0.0029555603 -0.0028112482 -0.0027020795 0.00027730208 -0.0021318514 0.00012703627 -0.0022161766 -0.0013803513 5.4832497e-05 -0.0006091203
24 -0.00383005 -0.001291111 0.0034064553 0.002195835 0.0027163383 0.0032926998 0.0005304199 0.003046097 -0.0038193904 -0.0019139803 0.00095745956 0.0034827003 0.0005369007 -9.989591e-05 -0.0021756215 -4.5387933e-05 0.0013557408 -0.0024389436 0.003230122 -0.0025973232 -0.0013295335 -0.0020673333 -0.0007175946 0.00027042345 -0.0033164967 -0.0004450951 0.0037476183 -8.284902e-05 0.0031436342 0.0015684897 -0.003219372 -0.0024259621 0.0009572916 0.0019789664 -0.002541535 0.0013493439 0.0014503691 0.0034414842 0.0037759773 -0.0016144352 0.0003133728 -0.00095695583 0.0038066276 -0.0032260686 0.0013030397 0.0029227259 0.00023661931 -0.00053663785 -0.0018140785 -0.0005086235 0.0018745085 -3.1237498e-05 0.0027137736 0.0018158538 0.0025342011 -0.0031899381 0.003053164 0.0003106399 -0.00015945466 0.0036817323 0.00022523738 0.0032365504 0.0036313196 0.003355101 0.0010305762 -0.0020300085 -0.0033391484 -0.0008037747 -5.114243e-06 -0.0028475495 -0.0030030531 -0.0029968442 -0.0036689162 -0.001897526 -0.00027191755 0.0011746114 -0.001440164 0.0028203 -0.00092619954 -0.0033669446 -0.00034408292 -0.0031568697 -0.003478735 -0.0021117297 -0.000949693 0.0031300818 -0.0032667615 -0.0030647353 0.0025051965 0.00263698 -0.003693086 0.0014450483 0.002870423 -0.00020294817 -0.0015006005 0.0031544091 -0.0014930334 -0.0026155259 0.0005552971 0.0032302132 -0.0029938756 0.0023456637 0.0024906904 -0.0016195858 0.00079054106 0.0007308565 -0.003220126 0.00046462097 -0.0034743317 0.0018485866 0.0012729983 -0.0029504453 0.00037993706 0.0015538165 0.0019117154 -0.0025534616 0.0021850453 0.0026086834 -0.0023860913 0.0012130621 -0.0019978655 -1.998044e-05 0.0003549357 0.003490688 0.0029334154 -0.0026246095 0.002508622 0.0012950593
22 -0.0034463312 0.0014493576 -0.0022977677 -0.002898364 0.0033940503 0.00096576137 0.0010854569 -0.001077576 0.0020281158 -0.0024018856 -0.002676737 -0.0018880675 0.0011603367 0.0017375688 -0.0018040286 -0.00027178682 0.0037686746 0.0027728651 0.001840506 -0.0006563768 0.003553059 -0.0016392543 -0.00032760072 0.0016734351 -0.00029690072 -0.00019691011 -0.0022925176 -0.0031261824 0.002760692 -0.0023195832 -0.0026506896 -0.0022048543 -0.002349193 -0.0016370123 0.0006665549 -0.0025542863 0.0033606903 -0.00049332733 0.0028813696 0.0018651156 0.0026951195 0.003530983 0.0035627047 0.00038085508 -0.00025237634 0.0020482254 0.0037457133 0.0026701894 0.00318789 -0.0027742595 -0.0020202668 -0.0010741777 0.00016865609 -0.0002926263 0.0020310183 -0.002133314 0.0030855099 -0.0016161397 0.0028781923 -0.0038415089 0.0008980206 -0.0027471685 0.0032446673 0.0018900343 0.00022351886 -0.0002377858 -0.0021746266 -0.0037338259 -0.0010540194 0.0027120393 -0.0016832877 -0.003494502 -0.0035292245 0.0020263284 -0.0029907688 -0.0031036437 0.001836569 -0.003278168 0.0012701344 -0.0028754221 -0.002895388 -0.0037334336 0.0013368534 -0.000112109614 -0.0027195897 0.0019205885 -0.0007430363 -0.00030420817 -0.0023763925 -0.00039011106 -0.0006444402 0.0007798073 0.0022913988 -0.0031944145 0.0034926005 0.0030580845 -0.002951025 -0.0029319427 0.0009813524 0.0025116224 0.0005442807 -0.0015334153 -0.00022958318 0.0013289542 0.0024868182 -0.00048537445 -0.0026584242 -0.0016256445 -0.00198279 0.002266388 0.0012947673 -0.00070421404 0.001964845 0.0035612148 0.0023630369 -0.0032079474 -0.0012249043 0.0035298227 -0.0018830756 -0.0026046839 0.0009469271 -0.0030611877 -0.0034669768 0.0029503372 -0.001815614 -0.0020933282 -0.0027235257 -0.0026409836
19 0.0020004269 -0.003401985 0.00086498115 0.0033248246 -0.001170629 0.0001631497 -0.0021773388 -0.0013847818 0.00088575913 0.003535435 -0.002965428 -0.00026587967 0.0026421603 -0.0026546975 -0.0022203538 -0.0023664217 0.0035457634 -0.0035443564 -0.0031099955 0.0009268391 -0.002192379 0.0020127548 0.00096268376 -0.0016425974 0.00018945917 0.0026887665 0.0010205007 -0.0017708275 -0.0032527172 -0.00045006088 -0.0037572132 -0.0032354407 -0.00019705622 0.0010546612 0.00069653965 -0.0029902253 0.0010693832 0.0013292332 0.002677666 0.00076575374 -0.0036397658 -0.00020586148 -0.0014304912 -0.0030510977 0.0018896236 0.0034154886 0.0019617085 -0.0006441686 0.0006609698 -0.0027199138 0.0007586978 -0.0025070277 -0.0015751923 -0.00222479 -0.003360771 -0.0005765725 0.0035594013 -0.00018272045 -0.001554374 0.002272238 -0.00030539607 0.002381817 0.0036598772 0.0022005495 -0.0012912062 0.0038051456 0.00034044863 0.0028089003 -0.0011616015 -0.0017530039 -0.0029644028 0.0031039743 0.0005761152 -0.00013854874 0.0016792958 0.003516185 -0.00063905015 -0.002719954 0.00095056876 0.0033488914 0.0031539851 -0.0011052946 0.0029006004 -0.0017591711 0.0027541737 0.0004032719 -0.0022147268 -0.001627281 -0.0032172338 -0.0025417162 0.0027206242 0.00052506337 0.0015211405 0.00282741 0.0003913939 0.0018631923 -0.0024073632 -0.0021237505 -0.00077432115 0.0017800343 -0.0007626891 -0.0015551156 0.002352953 -0.0003626068 0.00087119674 2.0455669e-05 0.0012171853 -0.0019225287 -0.0038090767 -0.0022934 -0.0023391685 -0.0017778949 0.0003170941 -0.003616143 -0.003248521 0.0032114938 -0.002036864 -0.0030605693 0.0021845172 -0.0031215628 0.0026597907 -0.0033697041 0.0032514683 -0.0005339974 -0.0034161252 -0.0009510739 0.0009504363 0.0033625525
70 -0.0025566923 -0.0002932416 0.0008222143 0.003895094 0.0030113512 -0.0038564461 0.0034495357 -0.0014631571 0.0020432603 0.0030078858 -0.00084545463 0.00013141907 -0.0025612675 0.002693998 -0.0018536779 0.0031067962 -0.0019448644 0.0018186579 0.0021482992 -0.0023398176 0.0028888825 0.0037146963 -0.0031491108 -0.0019779478 -0.000506876 8.406921e-05 0.0002521844 -0.0029823442 0.0031112093 0.0019673172 0.0010535525 0.0026620699 0.0033034044 -0.0029768436 0.0022862083 -0.0035561032 -0.002164793 0.00021171692 -0.001979815 0.0008482808 -0.0014028044 0.0029148122 -0.0035131522 -0.0022137999 -0.0010137787 -0.0023665053 0.0018118009 -0.00048021032 0.0015512754 -0.00209916 0.0007625323 -0.0025165686 -0.0006612655 -0.0014018881 -0.0005843488 0.002853596 0.00048474694 0.0038050157 -0.0021493258 -0.001977993 -0.002251393 0.0013349913 -0.0037902687 0.0017094845 -0.0032075623 -0.0022906521 0.0027501152 0.0022266763 0.0035671876 -0.0032804494 -0.00052075164 -0.0023347253 -0.0023143298 -0.0010998866 -0.0016149569 -0.0029043427 0.0028286355 0.003129774 -0.0037796083 0.0032364922 0.0010408701 0.0010028864 0.00020912712 -0.0028517877 7.161571e-05 0.00073495874 -0.0011373798 -0.0017401602 0.0028878574 -0.0030549562 -0.003892879 -0.003404797 -0.003755327 0.00074226875 0.00011710632 -0.0020904432 1.3501388e-05 0.0019338273 0.00041254234 0.0036334768 -0.0016175747 -0.0028730794 0.0032170196 -0.0021926682 -0.0005999734 0.0016712549 0.0031335105 0.002118796 -0.00338739 0.0022512448 0.0002691581 -0.0014818759 -0.0026676585 0.0011342264 -0.00066451286 0.0009667875 0.0027466395 0.0030615572 0.0005474328 -0.003276705 0.0028061173 -0.0031730703 0.0029562803 0.0025738382 0.0018165653 0.0033092443 -0.0027368525 -0.0027846482
32 -0.00020627657 -0.0017075727 -0.002939176 -0.0015574736 -0.0014411289 0.0019682175 -0.00095532753 -0.003596726 -0.0024307775 0.0009676943 -0.0015263846 0.0018027601 0.003163922 -0.0024012947 0.0012129348 0.0033239946 -0.0032720082 0.0021391863 0.0031858282 -0.0010216349 -0.0027154288 0.0018238636 0.0018737945 -0.002065402 -0.0017090264 0.0009692003 -0.0036194427 0.003430411 0.0023862917 4.639493e-06 -0.0025849543 -0.0027839513 -0.00015219509 -0.00088879734 0.0010233476 -0.0021582393 0.00013172778 -0.0021302043 0.0030675177 0.0008179721 0.0038289865 0.00072605757 -0.0019088864 0.0022991716 -0.0017622557 -0.0038765816 0.0031617573 0.0001458541 -0.001447523 0.0020529574 0.0011627767 0.0027295654 0.0030519352 -0.0032710773 -0.0031160114 0.0016384962 0.0034696842 -0.0021535784 0.002841595 0.0038225772 0.00040131688 0.00029056743 -0.0038668076 0.002494575 0.002579552 0.0032155425 -0.0012153942 0.002954748 -2.1059383e-05 0.0003560844 -0.0011421912 -0.00048862235 -0.0006132464 -0.0035275593 -0.0023675966 0.0020568992 -0.0014499682 -0.0030639109 0.000778061 0.00034731018 -0.00077393546 -0.0025955462 -0.003809477 0.0026165328 0.001320095 0.0026263795 0.002213762 -0.00029482204 0.003001554 0.0029862279 -0.0019713545 -0.00026226384 -0.0016594486 0.0011034147 0.002435777 -0.0006709132 -0.001372476 0.0005374666 -0.00093527854 -0.0003102176 -0.0033018037 -0.0024236154 0.00014581675 -0.0013321596 -0.002787452 -0.002390228 -0.0029004305 -0.00075899233 0.0002360133 0.00012572717 -0.0030240666 -0.0011435325 -0.00018128767 -0.002432551 -0.001894735 0.00090749847 0.0036800227 -0.0017405093 -0.0009989975 -0.0030275905 -0.0033864074 0.00050944387 -0.00018716906 0.0004674717 0.0036227673 0.0029712718 0.0032038693 -0.0019492573
17 -0.0017295864 0.000943568 0.0023155487 0.0031901388 0.0026469936 0.000582932 -0.002425482 0.00066359487 0.00014845855 0.0031170237 -0.0012539317 -0.00032405104 0.002164902 -0.0021256965 0.0026111011 -0.00039143665 -0.0014850628 -0.0018924875 0.002747842 -0.0005032783 -0.00019557841 -0.0033732252 -0.0026286985 -0.002161333 0.00038543806 0.0018604406 -0.0036721716 0.0018359057 0.0010969107 -0.00082700077 0.0017039396 0.0012225503 -0.0016515036 -0.0034803248 -0.00010483379 0.00079976366 0.0016064562 -0.0015239625 -0.0012577084 0.0016351802 -0.0034970946 0.0011911032 0.001787947 0.001981307 -0.0017080043 -0.00023066944 -0.0034206277 -0.0036324514 0.0028042689 -0.003820828 0.0031199642 -0.00077771256 -0.0028569556 0.00016727646 -0.002456315 0.003140937 0.0027639738 0.0019240059 0.0031339345 0.0019232561 0.0034888042 0.00034055804 -0.003017726 -0.003243017 0.0008900799 0.0035218028 -0.0035479865 0.0024694437 -0.003022966 -0.0020945554 0.0020519192 -0.001090397 0.0021463393 -0.0026508844 -0.0032688868 0.0011623332 0.002969241 0.0032066358 0.002625912 0.0036372624 6.3273066e-05 0.001373725 0.0037967307 0.0035957142 6.714923e-05 -0.0006833772 0.0028028917 0.0017833908 -0.0021769248 0.0026165799 0.0037761438 -0.0010706043 -0.0018283192 0.0021779381 0.00039726173 -0.0009510274 0.001923801 0.0034760549 0.003905975 -0.0037856665 0.0015437113 -0.0011672385 -0.0034454025 -0.0012206566 -0.0038832834 -0.00013981921 -0.0028845933 0.0009025037 0.0021835354 -0.0023103794 -0.0009733656 0.0025712287 3.2074207e-05 -0.003856129 0.0020209388 -0.00045088358 -0.00053752813 0.001133721 -0.0026858503 -0.00045966188 -0.0021607256 0.0034210372 0.003335672 -0.0014618092 -0.00020260431 0.0022668217 -0.002494745 0.0019813387
72 -0.0035940146 0.0003553965 -0.0008167767 -0.00042235898 0.0009769116 0.0008137611 0.000682724 -0.0023868382 -0.0036711 0.001755018 0.0036431504 -0.0025365474 -0.0023598783 0.0035343685 -7.718917e-05 -7.691475e-05 -0.0035457767 0.0018592987 -0.0018294548 0.0001283242 -0.0021936155 -0.00032205472 0.0032004393 0.00035298566 0.0013201481 0.0007762081 0.002264809 0.0011059982 -0.003323923 0.0031683752 0.0034118278 0.003081799 0.0005475939 -0.0009687858 -0.0036721996 0.0026651712 0.0008094865 0.0032268537 0.0021577112 -0.0015491521 0.00073064846 -0.0006697113 -0.002745285 0.0025569717 0.0036994205 -0.0012439609 -0.00033272916 -0.0015191447 0.00084857445 -0.0016367882 0.00075836177 0.003627103 0.002658719 0.00090671395 -0.0010501418 -0.00096358685 3.5546934e-06 0.0036256998 -0.003127825 0.00010894419 0.0018915578 0.0032334991 0.0020942043 -0.0023601528 0.0023559867 -0.00048443655 -0.0017402046 -0.0027658346 0.0012382156 0.002995408 0.0038980893 -0.003106596 0.0015659167 -0.0015057267 -0.000530485 0.00046495075 0.0035382325 -0.0010729278 -0.0037242626 -0.0025157537 0.0021882933 -0.0035116284 0.0020409909 -0.0007597591 -0.0011880493 0.0007448143 0.00022714272 0.0025477756 -0.00096345943 -0.0018778611 0.0013464631 0.002198017 0.0034903884 -0.0030325868 -0.002853504 -0.0038959275 0.0005751058 0.0006098178 0.00314755 0.0022889674 0.0021485982 -0.0022529329 -0.0016468313 -0.002494475 0.0017801714 0.00068396033 -0.0037284829 0.0014950056 -0.0022885334 6.746872e-05 -0.0018528134 0.0018942731 -0.0023282499 -8.660896e-05 0.0027496133 0.0010269305 -0.00039047407 -0.0014200073 -0.0024727082 -0.002023909 0.0017403052 -0.0009379129 -0.0038836098 -0.00097497954 -0.0010600528 -0.0011759977 -0.00261098 0.0001271155
92 -0.00042977332 -0.0036764066 0.0009909774 0.0008473538 -0.0017455489 0.00091957237 0.0006948573 0.0036036167 -0.00061069085 -0.0018353419 -0.0013726095 0.0012542282 -0.000301053 0.0033754187 0.0022070655 -0.00091101736 -0.0014453264 -0.001019405 0.001004435 -0.0008924009 0.0020547989 0.0033267068 0.0019750034 -0.0035959077 -0.0018923458 -0.00316397 0.001830911 0.0015218512 0.00029330113 -0.0027930285 -0.0027439406 -0.0035329512 7.854007e-05 -0.0021320242 0.0037360897 0.0013980677 0.003596099 0.0021887268 -0.0022248728 0.0033388757 0.0015576805 0.001803871 -0.0008084413 0.0028501407 -0.0022949644 -0.0012366208 -0.00038560893 -0.0031560885 0.00038042726 -0.0033757577 -0.0034018273 0.0004828092 8.243086e-05 -0.0017345579 0.0028370367 -0.000623016 -0.0024992153 -0.0030301248 0.0020655997 0.00057213753 -0.0034768162 0.0024239353 0.003090401 0.0024212399 -0.0031605938 -0.0012875962 0.00037063684 -0.00037132678 0.00063151086 -0.0038017244 -0.0005411987 0.0015776274 -0.0032745074 0.0027800803 0.0016406382 -0.0013893287 0.0034496477 0.0004201466 0.0036358326 -0.0032035194 -0.0009984735 0.0008930455 -0.0020183146 -0.0034037938 0.0005742561 0.0016787961 -0.003766617 -0.00338459 -0.0025512394 -0.000640255 0.0006994469 0.0030938878 0.0029062952 0.0028401534 0.0009908295 0.0011455239 -0.0017658508 0.00297309 -0.0027712197 0.0026323278 -0.0036329273 -0.0023073452 0.0032215486 -0.001461609 -0.00054432143 -0.0022641548 -0.0021166198 -0.0011297875 -0.002314172 0.0019784165 -0.0022040019 0.0018553067 0.0019556468 -0.0019879974 -0.003085921 -0.0024765881 -0.0018315357 0.0010438472 0.002392521 0.0037803166 -0.00043387464 -0.0024127385 -0.0011627477 0.00096053706 0.002713206 0.0019085231 0.00012447788 -0.0035173048
51 -0.002444443 0.0030830519 -0.003719546 0.00014670817 0.0026615546 8.2054015e-05 0.0017596824 -0.0024841812 -0.00085881545 0.003216682 0.00040111077 -0.000103225975 -0.003755948 -6.2660314e-05 0.0026663912 0.0011017965 0.0021746424 0.00020754589 -0.0038259935 0.0013940897 0.0024165737 0.0019881192 0.0029764408 0.0038964574 0.0029588356 -0.0028409667 0.00036800184 0.0034729154 0.00017033084 -0.00035008625 -0.0027206612 0.0032017867 0.0035092384 0.0009184801 -0.0024348053 -0.00059559185 -0.0004138661 -0.0020893565 0.0009863529 -0.0034036404 0.0023560736 0.002479934 -0.0002668813 -0.0021731297 -0.00024313248 -0.0027356974 -0.0019886284 0.0031546974 0.0026424911 0.00094053923 0.0029522416 0.0037040503 -0.001762102 -0.000596812 -0.002265989 -0.0038894583 -0.00041370152 0.0025300593 0.0006944785 0.0003877466 0.0031516685 0.0021506315 -0.00069299585 -0.0022236311 0.0032732624 0.0020227868 -0.001939633 -0.0036529594 0.000113983864 0.0021743386 7.359421e-06 -0.0022323027 -0.0012464697 0.0014096953 -0.0031060367 0.00017523798 -0.0012069453 -0.0022230733 0.0030365745 0.0015832146 0.0022713668 -0.00354107 -0.003064408 0.0029802117 0.0018379468 -3.5839284e-06 0.0035531872 0.0011503082 -0.0024503833 0.0033598898 0.0010864268 -0.000409253 0.003160182 -0.0009047356 -0.003531283 -0.0025692107 -0.0019206504 -0.0023380455 0.0022609776 1.024985e-05 0.0034674357 -0.0030285993 0.0028628865 0.0027676797 0.00036355015 0.0037987467 -0.0002122327 -0.0025991853 -0.0028565205 -0.0016694237 0.0024301792 -0.002901502 0.0034354297 0.0008695167 0.002434374 -0.0009013903 -0.00067456777 0.003149459 -0.0010021213 -0.0022253178 0.003633599 0.0012096908 -0.0030084234 0.0034587109 -0.0020379012 0.0022423146 -0.0014764309 0.002548282
38 0.0013520618 0.003486179 0.0019812095 0.002982856 -0.0033789251 0.0006087613 0.0017563133 0.0009219098 0.0022459407 0.002648854 -0.0028264741 -0.0021384235 -0.00075764913 -0.00016696421 -0.0019638096 -0.0016335708 0.002723064 -0.0020352423 -0.0035500657 -0.0019872373 -0.00039500438 -0.0014797722 0.0022935641 -0.0035573444 0.0015425736 0.0009066402 -0.0032285748 -0.0032433867 -0.000111285866 0.0018790482 0.001216844 -0.002225315 -0.0014570918 -0.0005844772 0.0003834317 0.0035797432 -0.0014447125 -0.002877344 -0.0035546268 0.0018741712 0.0014489221 -0.00034611207 0.002624303 0.0038767636 -0.003133124 0.0030671353 -0.0010198943 -0.00029001216 -0.0020256254 0.0039058186 0.0028700924 -0.0034421845 -0.003529395 0.0035344819 0.0015389759 0.0023802107 0.002118649 0.0030198803 -0.0002554881 0.0022244866 0.0030873222 -0.0032196876 0.0013344276 -0.00018495302 0.003008532 0.0010469303 0.0015159305 -0.0033737575 0.003133845 -0.0019265816 -0.0028298271 0.0010028259 0.0019444595 0.0013405201 0.0008824978 0.0021573366 -0.001265848 -0.00045914372 0.002703122 -0.00047198124 -0.0025327282 0.0028448314 0.002484801 -0.002547505 -0.0038214747 0.0026699714 0.0027035584 -0.0002830193 0.0002313001 -0.0022786532 0.0015844277 -0.003645352 -0.0023986278 -0.0035585554 0.003683135 -0.00023357576 -0.0023617086 -0.0032517952 0.0012888551 -0.00014538829 0.0009920083 0.0029817133 0.0023824377 0.0022417158 0.00032102555 0.0015853541 -0.0023182088 0.0016441613 0.0013403653 -0.0026187685 -0.002771041 0.0010551721 0.0038131133 0.0021165446 0.0026274081 0.0010457843 -0.00022293795 0.0004135345 0.0018084501 0.0036856518 0.0004440627 -0.0021253412 0.003062131 -0.0024635184 0.0028773658 0.0021583708 -0.0038651852 -0.0032472024
52 0.0027499872 -0.002781461 0.0015271244 -0.0026205222 0.0034352776 0.0026312035 0.0032653268 0.0007797656 -0.0032247966 0.0025795202 0.0013997897 0.0035617566 0.0028006372 0.00089437293 -0.0012339503 -0.0038763324 0.0012552381 0.0037167508 -0.0016594721 -0.0028978358 -0.0010604718 -0.0028080903 -0.0022101053 -0.0020574313 0.0011767755 0.0002347954 0.0017121041 -0.003475568 0.0037051875 -0.00060953374 -0.001242967 0.0011029394 0.003458322 0.0011129099 -0.0034438758 0.0022989805 0.0025419497 0.0014935993 -0.0014842646 -0.0022566803 0.0010581671 0.0008065698 0.0034130875 -0.0024799975 0.0015668245 0.00022531528 0.002584272 0.0016398734 -0.00053729466 0.0025098813 -8.700757e-06 0.0022474914 -0.0008961122 0.0027641458 0.0009217726 0.0025695893 0.0026914317 -0.001254579 -0.00026251588 -0.0024224436 0.0012406432 0.0031880888 -0.003523264 -0.001447158 -0.0027631857 -0.0035259856 0.0034760453 0.0008987423 0.0024041478 -0.0011613836 -0.0031295829 0.0020155618 0.0019665519 0.0017699657 0.0023543374 -0.0030440032 -0.00044565933 -0.003723547 -0.0016868103 -0.00026557187 -0.002817914 -2.8795637e-06 0.0028358386 0.0037275883 0.0015212648 0.0029144925 0.003754818 0.003187569 -0.0019133791 0.0011739987 0.00067495095 -0.0037667747 -0.002176283 0.0011591084 -0.0037874859 0.0037416115 0.003581731 -0.00032445462 0.0021070412 -0.0037615716 -0.00090618007 0.003481628 0.0032744845 0.0025952237 0.0036302083 0.0018863509 -0.0023106334 0.0036842935 0.0011568759 0.0026185894 -0.002425732 -0.0006065345 0.0015499113 0.0013867805 -0.00049523666 0.0017492631 0.0037983707 -0.002990718 -0.0014593735 -0.0015056703 0.0016784292 -0.0019051983 -0.0011285484 0.002108886 -0.002871561 0.0015514473 -0.0020489723 0.00043053846
95 -0.0036816509 -0.0015816217 -0.0006191681 -0.0007402553 0.0009588357 -0.0020640478 -0.00018911868 -0.0017512016 0.003598292 0.0004808905 0.0033433302 -0.0023881546 0.002486117 0.00038502013 0.0028603347 0.0038287065 1.3678094e-05 0.0025454748 0.0017735749 -0.0009835315 0.0006615678 0.0005599593 -0.0026759824 0.0033143738 0.0016487227 8.598421e-05 0.00071682734 -0.0019917802 -0.0014570219 -0.0037982436 0.003195611 0.0028882888 -0.0039013138 -0.00023860895 -0.00070978096 0.00032738745 -0.00043614217 0.0030802875 0.0032948256 0.0024217996 0.0035137862 -0.0018644491 -0.00280577 0.002588434 0.0034046092 -0.0014521615 0.00076659466 -0.0022037043 -0.0023704835 0.00037386833 -0.00022983502 -0.0029894167 0.0031176517 0.0011013643 -0.0018008798 -0.0031885444 -0.0023350134 -0.001818861 -0.0037673677 0.0025190143 0.002274545 -0.0002547829 -0.002216242 -0.0010019712 -0.0014292013 -0.0028278017 -0.0012566814 0.00020141886 0.0020933198 0.0005522905 8.950825e-05 0.001957189 -0.0012772627 -0.0027395906 -0.0012440453 -0.0029513063 0.0016950588 0.0013943445 0.0018969178 0.003351747 0.0024222787 -0.0002963147 0.0020734197 -0.0010476051 -0.002904035 0.002933309 0.0037079684 5.480009e-05 -0.0019476449 0.0003033985 -0.0038605311 -0.0019871024 -0.00062008254 -0.0035065904 0.0034021914 -0.0013093335 0.002313541 0.00028319363 -0.0007788893 -0.0019752833 0.0034168602 -0.0011918908 0.002697555 -0.00091050565 0.0010517905 0.0038332792 -0.0023789534 -0.00019241175 0.0008351699 0.00072372914 -0.0028939482 0.0004993578 -0.0014383625 0.0012616245 0.0035483737 -0.0022507322 0.0031796773 -0.0004687924 0.0033510642 0.0014462842 0.0022175487 0.0023560573 -0.0029949306 0.0032798997 0.0001976107 0.0021733292 0.002800287 -0.0032042929
94 0.00011649736 0.002900979 -0.0018864934 -0.0024328458 0.0026470681 0.0023416372 -0.0013015975 -0.0021547107 -0.0024115175 0.0014182171 0.0015710132 -0.0017069821 -0.0013216592 -0.0018314801 -0.0013019443 2.6598175e-06 -0.0014376416 -0.003186549 0.0010387049 -0.002485308 0.002258298 -0.0033762204 0.0020264294 -0.0018828565 -0.0027092313 0.0036335576 -0.0024513549 -0.00032284617 -0.0006021452 -0.001345841 0.001103976 0.0025545743 -0.0028957073 -0.0019920254 0.0038360918 0.0019825508 0.0037556451 0.0008982584 -0.002657713 0.001254834 0.002767309 7.1166636e-05 0.0033181983 0.0015447483 -0.0031773609 -6.202636e-05 1.3563765e-05 0.0001148848 0.0018202999 -0.00018598454 -0.0031301863 0.0006659853 -0.00012416375 0.0038837176 -0.0014150364 0.0034571784 0.0028701755 0.00089585566 -0.0023551625 -0.0018189246 -0.0011981617 -0.00014919897 -0.0006582656 -0.0029872137 0.0026190549 0.0010942416 -0.003441765 0.002572115 0.0008132912 -0.0011818974 0.001235221 -0.003098444 -0.0012489443 -0.0025329622 -0.0030344762 0.0036557978 -0.0034120895 -0.0016293199 -0.0017645782 0.0035092859 -0.0024475702 0.001175872 -0.0004530228 0.00092870754 0.0035786785 0.001824216 -0.0013751244 0.002722896 0.0028550813 0.00067845813 -0.0027666367 -0.0012797962 0.0025154364 0.0014086686 0.003049567 -0.0014446682 -0.00013851345 0.0033348189 -0.002432466 0.00017044609 -0.00051735016 0.0018698451 0.0027531257 -0.0002542709 -0.00063804246 0.0031700465 -0.00220599 0.0037461515 -0.003130102 -0.003401966 -0.0011430638 -0.0039014935 -0.0015352232 0.00094013324 -0.0031499977 -0.0037533636 -0.0018894156 0.0038896718 -0.0025370806 -0.002667694 -0.0033826488 0.0014342917 -0.0036997434 -0.0033941315 -0.00079073507 -0.0034804489 -0.00025238306 0.0035258918
46 0.0013002747 0.0022157284 0.00022306824 0.0017454891 -0.0023934834 -0.00081761717 0.0025128995 0.0021115413 0.00031402867 -0.0026356147 -0.0011141471 0.0021399034 -0.0018075871 -0.0011674 -6.655738e-05 -0.0025289587 -0.003288908 -0.0035475816 -0.002836671 0.0025951432 0.0036776338 0.0018460193 -0.0038469355 -0.0035988495 -0.0032285368 -0.0022852563 -0.0009560981 -0.0012585775 -0.0024968993 0.0020207705 -0.0009287449 0.0024876734 0.0013983287 0.0019160139 -0.001145158 -0.0026611746 0.0012644451 -0.0010211071 -0.0018187234 -0.0032208622 0.0018856982 0.0018821305 -0.00023540668 -0.0017117279 -0.0030376 -0.0011319014 -0.0022377118 0.00053149526 0.00076521887 -0.001469784 0.00078617537 0.000976747 0.00018889867 0.0012197697 0.0019392405 -0.0017083677 0.0022286254 -0.00032899366 0.0022791426 -0.00044176885 -0.0028911864 -0.001840816 -0.0029387344 0.0023743 0.0034795138 -0.0030666802 0.0010316981 0.001792823 -0.0033780118 -0.00089160446 -0.0018140768 -0.00357044 -0.0003388918 0.0031555095 -0.0003613704 0.0017409185 0.0010999525 -0.0030770998 -0.0018616257 0.0014845429 -0.0018766031 -0.0024429187 0.0015748066 0.001932169 0.002176623 0.003756014 0.00254924 0.0029953993 -0.00074069685 0.001687245 -0.0030215192 0.0037542104 0.002331593 0.0013218843 0.0020354681 0.00017649868 0.0027181502 -0.0006393153 -0.0016232233 -5.559831e-05 0.0030542715 -0.0008401502 0.0023233346 0.0019056547 -0.0027764537 0.0021052437 -0.003367582 0.0029637294 0.00068738376 0.002231655 0.0024836974 -0.003344839 0.00032713404 -0.0017920278 0.000817233 0.0006200564 -0.0011741217 0.0016132187 0.0016245742 -0.0004466725 0.002723511 -0.0013137053 -0.00243672 -0.0010016103 -0.00058565557 0.003424258 -0.00053386413 -0.00020072286
49 0.0016712988 -0.002288276 -0.0006133614 0.0038732886 0.00018359361 -0.0015974237 -0.0006053787 -0.0027004005 0.0015521811 -0.0017297297 0.0020268855 0.0009840404 -0.00075534394 0.0010464741 -0.00021420681 -0.0018461689 0.0035957885 -0.0020365221 0.003435588 -0.0032633243 -0.0018853744 0.003007271 -0.0018176385 0.0038513038 -0.00089154986 0.0024019256 -0.0024285899 -0.0012831264 9.037509e-05 -0.00092339865 -0.0033644557 0.0003034731 0.0023168563 -0.0035070977 0.00037389327 -0.0037475342 -0.0030151156 0.001249017 -0.001274583 -0.0014774057 0.0033291122 -0.0032330821 0.0024213218 0.000273629 -0.00010908137 -0.0036596041 -0.003001924 -0.00095849385 0.0010235417 -0.0037407319 -0.00087779225 0.0025552302 -0.0027986534 -0.0035991094 -0.002739353 0.0035429276 0.0034695964 0.0019410196 0.002648803 0.00010940513 -0.0020319934 -0.0013751797 -0.0017762682 0.0033372222 -0.0035579088 -0.0037142124 -0.00072871643 -0.0019051583 -0.0006067918 -0.0029887306 -0.0019375441 -0.0020889775 -0.003288097 0.002362006 0.0036696328 0.0033115281 -0.0012798025 -0.0030613074 0.00090871484 -0.0027784759 0.002578741 -0.0035496366 -0.0030726162 -0.0006507989 -0.0023816912 0.000765278 0.00024081027 0.0033066839 0.0006556014 -0.0012178842 0.0012595858 -0.002284305 -0.0037119652 0.0014066481 0.0032219077 0.00091429555 0.0007829672 -0.003333646 0.0022194423 -0.0011406104 0.00079200906 -0.0016990522 0.0024383632 -0.0006044646 0.00031003926 -0.002248816 0.0026145072 -0.0034399685 -0.0036937192 -0.00095607585 -0.0007161311 -0.0026314897 -0.0021774552 0.0017801038 0.0010693655 0.002299783 -0.00034668302 0.00013515394 -0.001721587 -0.0016344666 -0.00061694405 0.002831278 -0.0035323447 0.0033415142 -0.002785819 0.0009782289 0.0036709786 0.0014223489
80 0.00038232433 0.0006354594 0.00041534787 -0.0035722007 0.0038385396 -0.0008858683 -0.0028762345 5.102282e-05 -0.0031811995 -0.0035661906 -0.0022379986 0.00066735625 0.0006185946 -0.0036550649 0.0031544478 -0.00254737 -0.00020664789 0.0007632796 0.0034979598 -0.003698551 0.0024606246 0.003409839 0.00013039102 0.0012602608 0.0021387676 -0.0033475324 0.0034114658 -0.0020496834 0.00060603576 0.0029223058 -0.0005562418 -0.0026419144 0.00088573043 -0.0024768536 0.0038654986 -0.0014779213 -0.0016746647 -0.0017729375 0.0017794688 -0.0008676159 0.00323134 0.0015157128 -4.1768057e-05 0.0021876327 -0.0028421804 -0.0022625648 0.0014863173 0.0032249873 -0.0021791768 -0.0014070844 -0.00074324285 0.0025110538 -0.0015142929 -0.0008541243 0.0026673726 0.0038386309 0.0011150579 0.0004595876 0.0020644167 -0.0026056473 -0.00013402395 -0.001944203 0.0015679412 0.0033210414 -0.0034643244 0.0038037426 0.0025079085 0.0009708284 -0.0026541944 0.0020449741 0.0016071652 0.0037736765 0.0027595381 -0.0014078964 -6.704452e-05 0.0033921455 -0.0036809836 -0.0019023307 0.0034874263 -0.00042740366 0.00077624473 0.001331549 -0.001984982 -0.0038743413 -0.0032014549 -8.630898e-05 0.0035763155 -0.00045890335 -0.0022497887 0.0011397527 0.002105626 0.0010288786 -0.00336961 -0.002358376 0.0008781965 0.0013464926 0.0029197768 0.0023380048 0.0023817988 -0.002152754 -0.003123814 -0.0004178254 -0.0020735299 -0.0011098648 0.0027012501 0.0017248364 0.0002464948 0.0027648325 -0.0004544625 -0.0038596543 0.0012272154 5.0553168e-05 0.002504848 0.0014880039 0.0025308747 -0.0026170176 0.0015808034 0.0027813849 0.00028783013 -0.0034201671 -0.0034575502 0.0016017802 0.00048294655 -0.0034706278 0.0029499466 -0.00047617476 0.00097159634 0.0010710637
4 -0.003092857 -0.0023079219 -0.0037729745 -0.0021857973 -0.0037594892 -0.0014297181 -0.0033162527 8.9207126e-05 -0.0028780058 0.0017553604 0.00070303964 -0.003596471 0.00029623456 0.0017080191 0.00026204117 0.00129251 -0.0008541115 -0.0018161873 0.0018550291 -0.0008121191 -0.0027161816 -0.0008472032 0.0025751619 -0.0011924516 0.0014493994 -0.0021996635 0.00032424417 -0.0035792915 -9.281157e-05 -0.001220748 -0.00034181707 0.0015143617 -0.00033076142 -0.0030670282 0.0031042765 0.0021143537 0.0026057158 -0.0016465363 0.0037487766 -0.0005449727 0.0018717475 0.0035592353 0.0035056353 -0.0012068269 -0.002582417 0.0021901529 0.0034878394 0.0036332512 -0.00028231164 -0.0006170847 0.00018065864 -0.0029667122 0.0012354513 -0.00033616598 0.0035836217 -0.0014580709 -0.0020833388 0.0004214849 -0.002043147 0.002252946 -0.00024119475 -0.0015750526 -0.0014100051 -0.0036057944 -4.281892e-05 -0.002711998 -0.0025825026 0.00024395403 0.0037127282 0.0028559833 -0.00089306675 -0.003813437 0.00013525969 0.003138657 0.00043610376 0.0021348617 0.002435897 0.00063800917 -0.0005623021 -0.0029502267 0.0031980237 -0.0021442743 -0.0024809847 0.001968389 0.0025589087 -0.0031896029 -0.0032274975 -0.0014544452 0.001071767 0.00022151515 -0.0020173981 0.0032303124 -0.0013663616 0.0030963852 -0.0020649142 -0.0033165156 0.0008134328 -0.0021874872 0.001332664 -0.002454134 -0.0011132001 0.002992623 -0.0033350145 0.0019844726 0.0021934952 -0.0017316026 -0.00017654129 0.0010964528 -0.0013911516 0.0035572406 0.0013069403 -0.0029891182 0.0024372 0.003839107 -0.0024580366 -0.0012983 -0.0033834064 0.0021996656 0.0014911774 -0.0038408432 0.0019758693 -0.0038792316 0.00081935857 -0.00042375652 -0.0006292488 -0.003399278 0.0023323994 0.0029784315
71 0.0037853413 0.001349226 -0.0034699354 0.0033553794 -0.00022388998 -0.0017898423 -0.0021572837 -0.00048116484 -0.0003595096 -0.0017729234 -0.0013201977 0.00048641665 -0.0021013205 0.0035576732 -0.00069732795 0.0028842506 0.0016261735 -0.002028915 0.003865716 -0.0030976282 -0.0037390087 0.0012424006 -0.0022746325 -0.0035578345 -0.0013831885 -0.0007287827 -0.003036034 -0.0032546117 0.0006004143 -0.0016586907 0.0019800093 -0.0002690986 0.0036839247 -0.0023623018 -0.0021852532 -0.0017980053 -0.00088932517 0.0026246859 -0.0038335258 -0.0025998908 0.0034587216 -0.0031862576 0.0022748 0.002314058 -0.0030693042 0.0008934194 -9.840825e-05 -0.0027195537 0.0026172313 -0.0030580098 -5.4780587e-05 0.002741398 0.0007658153 0.0038694027 -0.0016496243 0.0012454672 -0.0016902016 0.0012783147 -0.0026595364 -0.0032227798 0.0030527206 -0.0032072118 -0.002309098 0.003776986 0.0031618327 -0.0005896445 0.0010120801 -0.001738826 -0.0007438514 -0.001317088 -1.1020699e-05 0.0028761313 -0.0004876435 0.0012785136 -0.0038195367 0.003801346 -0.0025752948 0.00283335 0.0013971791 0.0022371858 0.00051763107 -0.0015680386 -0.0006678863 0.0013605859 0.0029089623 -0.0031495984 -0.00069573184 -0.0034252473 -0.0019891947 -0.00029469214 0.002255638 -0.00048023718 0.0027012576 -0.0010119632 0.0006076355 0.00035368366 -0.002490367 0.003730913 0.00067318074 0.0008586133 0.002697286 0.0036865564 0.0024584685 0.0012646565 -0.00010290664 -0.00365421 0.001439052 0.0007922213 0.0029839496 -0.0008484403 0.002244545 -0.0016780028 -0.0005384926 0.002693228 0.0014775684 0.0025649345 0.0018569989 0.0036380652 0.00035819563 -0.0021797142 0.002004231 0.0035872944 -0.0009916998 -0.0035654095 0.0022665404 0.0038921023 0.0007678265 -0.0011159299
34 0.0019701219 0.0035469346 0.0013961307 0.002075281 -0.00018987223 0.0015866001 0.0015900179 -0.0008919571 -0.0017952394 0.0023129033 -0.0030044776 -0.00030315542 -0.003413893 0.00047890164 -0.00032633962 0.0018299079 -0.0019335329 0.0014174132 -0.00011531685 0.0026150814 0.0010293197 -5.989615e-05 -0.0009515857 -0.0029632486 -0.0028497705 4.1300445e-05 0.0026372275 -0.0028391357 0.00063368137 0.0012144191 -0.00046721188 -0.0029774313 -0.0013209705 -0.00092512683 -0.0013674998 -0.0017164488 -0.0007084257 -0.0032451213 -0.0028885638 -0.0019635663 -0.0011309268 -0.0033319911 -0.0016408195 -0.00017583139 0.0010551997 0.0028528958 -0.0028632362 -0.003438278 -0.0024377527 0.0036603766 0.0033741868 -0.000625025 -0.000486795 0.0026689335 0.0026542551 0.003147929 -0.0027029007 -0.0025685048 0.0021799412 -0.00045746748 0.002042907 0.00066286925 0.0035520142 -0.0032377117 -0.0024031668 0.0006220896 0.0033945274 -0.00038900867 0.0002928057 -0.0031978525 -0.00039649554 -0.0038311887 0.0007021104 3.99553e-05 0.0032717213 -0.0029194744 0.0023413424 0.0003296124 -0.0008745915 -0.0002793224 0.00095532445 -0.0024767679 0.0011216262 -0.002285144 0.0011097573 -0.0011524787 -0.0025930135 -0.00047320293 -0.00054772396 -0.0025026943 -0.0012943288 -0.0012891872 0.0030580424 0.0020951438 0.0020046507 0.003658919 -0.003805576 0.0038533409 0.0014996033 -0.0015996676 -0.0032935122 0.0037576575 -0.003582982 0.0011136701 -0.00370187 0.0036392424 -0.0006250767 0.0033306247 -0.0004526706 -0.002681255 -0.0035632425 0.00091357314 -0.0035470133 -0.0002614644 -0.0025630696 0.00017251824 0.0003369313 -0.0025100638 0.0036295643 -0.0016816792 0.0022628566 -0.0036684219 0.0026491506 -0.0011669642 0.0032047795 -3.142892e-06 0.0030286857 -0.0023429836
67 0.003333738 -0.0017148838 0.0010695818 0.0034720844 0.0012984917 0.00018447096 0.00025691153 -0.0023066048 -0.0021346929 0.0034057545 0.00017756708 -0.0013073314 -0.0011384357 -0.00089163077 -0.0034460875 -9.654445e-05 0.0024570462 0.0036754787 -0.0005943182 0.0021123802 -0.002013289 -1.3588671e-05 0.0025036721 0.0019175541 0.0028756626 0.00026701443 -0.00039817623 -0.0006097686 -0.0030373249 0.0018762482 -0.0029621702 -0.0008886397 0.0028158738 -0.003324327 0.003482086 0.0035815432 0.001824593 -0.00281053 0.0012867794 -0.002329963 -0.0017379562 0.001334423 0.0016518137 -0.0029202288 -0.0031290685 0.0013878575 0.00031924318 -0.0038034534 -0.0012563275 -0.0018385322 0.001956472 -0.0031470906 0.0027297724 -0.0038791827 0.0008361201 0.003257455 -0.003606592 0.0025147751 0.0033032852 -0.0012547757 0.0003157434 -0.0023687545 0.0012986722 -0.0034779983 -0.0027547816 -0.0021044922 0.0032034267 0.0034377652 0.0028816836 0.001750833 0.0028811018 -0.0038703503 -0.00016606344 -0.003239852 -0.0014581109 0.0021840837 -9.993923e-05 0.0036888272 -0.0006951225 0.0038767173 -0.0020501323 -0.0016675065 -0.002140591 -0.00023289598 0.0008201381 0.0015304111 0.0010626568 -0.00043538402 -0.0033601194 0.0022701668 -0.0037574323 0.0028775644 0.00040587844 0.00082992006 -0.0026666757 0.0011802894 -0.0035998758 0.003646679 0.002847571 0.003245254 -9.9498255e-05 -0.0018018812 0.0028074582 0.0014753534 -0.00065788353 -0.0015640055 0.0008762911 0.0017795161 0.00063055166 -0.0030415999 0.0033992955 0.0033274903 -0.0024650292 -0.0007428375 -0.0005564032 -0.002833129 0.0024478703 0.0035452559 -0.0031733608 -0.003109006 0.0013707887 0.0035900748 -0.0031433941 -0.003446018 -0.002266439 0.0036025671 0.003462522 0.00032604375
68 -0.002094234 -0.0007634261 -0.0018775122 -0.0020683275 -0.003295189 -0.001379931 -0.0024960674 0.00084137206 0.00334805 -0.0024256725 -0.00043804728 0.000679156 0.0018632876 -0.00042304964 -0.0012277217 -0.0023435361 0.002909892 -0.0012655462 0.003819935 0.0018930375 -1.7994365e-05 0.002541085 0.003032002 0.0016674916 0.00040240758 -0.0031482205 0.0020609822 -0.0003679838 -0.003818014 -0.00082120154 -0.0017063789 -0.0023365754 -0.00054283754 -0.0021563475 0.0014654071 0.0008385558 0.0013432899 0.0028992922 0.0015767207 0.00039536055 0.002171071 0.0021212788 -0.0023696797 0.0026837196 0.0027305002 0.00017038951 -0.0029200613 -0.002845424 0.00050328934 -0.0033077523 0.0027937551 -0.00285167 0.003667581 0.0034935484 -0.0037604384 0.0013678917 -0.0009005454 -0.0019775291 0.0022245075 0.0022404846 -0.003863237 -0.0031643924 -0.003842565 0.00292669 -0.0027869137 0.0019276147 -0.0022750895 -0.0037199075 -0.0030546198 0.0016399218 -0.0013429367 0.0031573875 -0.0009488288 0.0026186723 -0.00081979635 -0.00018531081 -0.00045299897 -0.0026759205 0.0017029855 -0.0029064133 -0.0018459068 -0.0012652378 0.00063609856 -0.0016950977 0.0010400899 0.0027330443 -0.0015315379 0.0038275097 0.0010697107 0.0010517295 -0.0034843083 0.0028426074 -0.0021471945 -0.00045552765 -0.0011804301 -0.00086403295 0.0010800702 -0.0015696879 0.0022474474 -0.0012515006 -0.00034317467 0.0035833449 -0.0014004518 0.003124024 -0.0010356186 0.00326504 -0.0024454412 -0.0012715812 0.0013107078 -0.0010239002 0.0036291108 0.0038339393 -0.0023823993 -0.0025537473 -0.0014122332 0.002120734 -0.0019103644 -0.0015385925 -0.0015090553 -0.0010783585 0.0021312928 0.0028303727 0.0025733737 -0.00061273604 0.00097139715 0.00350457 -0.0018871132 0.00361628
53 0.003437256 0.0013068033 -0.0015065575 -0.0010263443 0.003583715 0.0009880171 0.0010682547 0.0007378269 0.0034080555 0.0015246873 0.0034704357 -0.0038718272 0.0032578032 -0.0021943387 0.0017371468 0.0026308317 -0.003837572 -0.0034174023 -0.002396158 -0.0018090869 -0.0022511836 0.0008187384 0.0022393935 -0.0037283641 -0.00070215843 0.0005592808 0.0006879409 0.0036221666 0.0007328033 -0.00070386747 -0.0035395129 -0.0015696945 0.0022004617 0.0028649818 -0.0020506124 0.0015091609 0.0014198887 0.00231958 -0.00018451137 0.0006394201 -0.00051516754 0.0038757152 0.0038001998 2.7926628e-05 0.0012344052 -0.0028277612 -0.0033855333 -0.0010820763 0.0012208525 0.002312453 0.0021971448 0.00082793785 -0.0007483224 -0.0018097565 0.003592402 0.0009821807 -0.0005162292 0.0014050076 -0.00030426148 -0.0008479624 0.0030877283 0.001040382 0.0026289863 -0.0021310155 0.0025013003 -0.0028140256 0.0014384001 -0.002076694 -0.002542267 0.0034116767 -0.001036882 -0.0005757738 0.0023136872 -0.0032009834 -0.0014424241 -0.000676839 0.0032317173 0.0039006332 5.6891954e-06 -0.003887212 0.0035542382 0.0038596196 0.0020951654 -0.00036603064 0.003316126 0.0015344602 -0.0012828974 0.0015530717 -0.00080769806 -0.0015978316 0.0029238546 0.0033499696 0.0005873959 0.0024973806 -0.0020609195 0.003869053 0.0028945808 0.0027710684 0.00084182597 -0.0025353064 -0.0010914408 0.0023280266 0.001187156 -0.0032966014 -0.0019563558 0.00080908526 -0.0017998168 0.003288911 -0.0011630743 0.0007545159 0.0004679248 5.2777807e-05 -0.00053517736 0.0008877363 -0.0036352717 -0.001440702 0.0038891793 -0.0032599135 -0.0023474663 0.000249019 -0.0032671005 -0.00024117096 -0.00065333146 0.00079862395 0.00022983468 8.1950384e-05 0.0020068923 0.0035143858
61 -8.359279e-05 -8.5053594e-05 -0.0026366222 -0.0038950772 -2.4371604e-05 -0.0032729346 1.713663e-05 0.0024141318 -0.0028472512 -0.0013081367 -0.0020082307 -0.0009588742 0.0017278771 0.0035526792 -0.00086788 -0.0024763478 -0.00072089024 0.0021313268 0.000339975 -0.0025011068 0.0027810137 -0.0025799237 -8.422622e-05 0.00044263742 0.0016198519 -0.0014607623 0.002434338 0.0035746403 -0.00297522 0.0036112256 -0.0006969287 0.00019089876 0.0033694103 0.002834164 0.0019564023 -0.0021945771 0.0023435068 0.0015040773 0.0022049746 0.00054397766 -0.0022660214 0.0024004504 0.002868307 -0.0038614327 0.0022709533 0.0024022453 -0.0037023835 -0.0014313328 0.00040455125 0.0006469807 -0.0039046933 0.001048196 -0.0016766542 -0.002673651 -0.0003116179 -0.0023404488 -0.0021442142 0.0011335645 0.0025165984 -0.0030411216 -0.0027002243 -0.003460741 0.00039316647 -0.0004193988 0.0017783686 -0.00094679784 0.0027253488 0.0016742303 0.0014444328 -0.00040403026 -0.00038556528 -0.0018747197 -0.0015385911 -0.0037032044 0.0020949244 0.00022965425 0.0020145965 -0.003791654 -0.0013218963 0.0021804455 -0.00074638374 0.0013234095 -0.0032720203 0.0025117025 -0.0018039519 0.0013504956 0.0017020042 -0.0019471523 -0.0034504677 -0.001104011 0.0035854124 0.00090235454 0.003379763 0.0009433634 -0.0037027828 -0.0029749693 0.00027335348 -0.0003148751 0.0012297654 -0.00012829852 0.00014228774 0.0015383356 0.0035316772 -0.0033831454 0.0027060113 -0.0003979792 -0.0019892347 -0.00070096296 0.00024678683 0.0013349243 -0.0038738996 -0.003446512 0.0024883053 -0.0007220586 -0.00040938464 0.0026567504 0.0007846882 -0.00032452814 0.002089711 -0.001965102 -0.0006304436 0.0003996433 -0.0025848788 -0.0036588914 0.00042820678 8.663977e-05 -0.00083213235 -0.00038545317
3 -0.0007838474 -0.00065709295 -0.00021603677 -0.0034718397 -0.0027595304 -0.002270212 0.0030565115 0.0017414703 -9.559065e-05 0.0022839296 -0.0033861613 -0.00025594642 0.0026225839 9.2496346e-05 -0.0011244225 -0.0030447138 0.002213863 0.0032891396 -0.00074124755 0.0034512042 -0.0028307615 -0.0022918666 0.003899819 -0.0027953342 0.0025577026 -0.0027054546 -0.0013724111 -0.0015127588 -0.00343301 0.0016779156 0.0037128213 -0.0035488962 0.0025363448 -0.0022302312 -0.0027866424 -0.0012688136 0.0003212498 -0.0038398015 0.00038729783 0.0030509399 -0.001524235 0.0014848419 0.00076401833 0.0012719258 0.002657677 0.0012389896 -0.002645178 0.0009971384 0.0027954902 -0.002257154 -0.0016732673 -0.0012277805 -0.0024534485 0.0029197396 0.0034887195 -0.0032635161 -0.0025052421 0.0021968703 0.0025802788 -0.0029507063 -0.00011653187 0.0033634088 0.0035570285 -0.00026339616 0.00068829395 -0.0016308792 -0.000461802 0.002067838 0.0036328791 0.00046344014 0.0021838213 0.002650998 -0.00074437266 0.0032815551 -0.00091188535 -0.00011199864 -0.0009105379 -0.0029719411 0.0032045753 -0.0020172233 -0.0010360851 -0.0034672574 0.003491889 0.0027523215 0.0030109938 -0.00077322964 0.001912033 -0.0004915341 -0.0017447122 0.0027374085 0.003339829 0.0034915975 -0.0027173322 -0.00035253234 0.00031760606 0.0008807127 -0.0036125262 0.0024731732 0.0025487312 0.000106643296 0.0026139007 0.00011529835 -0.0034084045 -0.0025041178 0.0009497807 0.0002425745 -0.0004993243 -0.0011121823 0.0028394302 -0.0017395247 0.0025134408 0.0029135353 0.0034877723 -0.0012284499 0.0022549438 0.00031865912 -0.0035578236 -0.0030069256 -0.001091919 -0.0012532753 0.0014737647 0.003413842 -0.002436579 -0.002603227 0.0020971526 0.00075635005 -0.003282203 -0.0009146879
21 -0.0030507771 0.00093632255 -0.0036464548 -0.0016498563 -0.0014156323 -0.0017660712 -0.0023351288 -0.0035663387 0.002658243 -0.0018135197 -0.0038999123 0.003868035 -0.001389116 0.0032454135 6.661347e-05 -0.0037247494 -0.0028333769 0.002448512 0.0019666383 0.00020162755 -0.0021384882 0.0022497503 0.00049849134 0.0015331468 -0.0038570156 -0.0018973277 -0.0026344312 -2.0724026e-05 0.0014138398 -0.00025448794 -0.0036716498 -0.001675084 2.9526314e-05 0.0013008111 -0.001889588 0.0026063684 0.00093703665 -0.0008155837 0.00033751165 0.003586882 0.0019059057 0.0014469629 0.0029913683 -8.806039e-05 0.0019233519 -0.0019599728 -0.0025077523 0.0027968425 -0.0012364696 0.0010388688 0.0021818914 0.0015238913 -0.0008966234 0.00046386165 -0.00097642216 0.0031587027 0.000705194 -0.0037376354 0.000109958135 0.0034332436 -0.00076863234 0.0011645808 0.0024173686 -0.0019155055 0.0023395699 0.002468433 -0.0021991488 0.00024046063 -0.0031140891 -0.0005997206 0.0033959828 0.0033276936 -0.0028977746 0.003232737 -0.00037446799 -0.00048103053 0.0020268816 -0.0018225231 0.0029068557 0.0021098787 0.0027343659 0.00039910382 -0.00030546475 -0.0017610822 0.00085103407 0.0032672787 -0.0021766806 0.0019522662 0.0033755784 -0.0038573127 -0.0013225297 0.0010363427 -0.00058744353 -0.0038224813 -0.0030693316 0.0014551997 -0.0020144929 -0.00017177899 -0.0038172193 0.00073871267 -0.0019960478 -0.00055912614 0.0028346805 -0.0033357025 0.0020567237 0.0005968453 -0.0020115762 0.0036178648 0.0024532285 0.00075688283 0.0023902787 -0.0023402 -0.0016121273 0.00310736 -0.0027136607 -0.0035146906 -0.00056917546 0.0016456053 0.0037844712 0.00030210608 0.00035376893 0.0020131124 0.0015004071 0.0008371982 -0.00081675325 -0.00026899978 0.001993413 -0.002503927
83 0.0015290125 0.0027717743 -0.00018460945 -0.0014749278 -0.0024459613 0.0004444243 0.0014418655 0.0036839072 -0.002932031 -0.0016536469 0.0019534908 0.0035331694 -0.0016340555 -0.0030620818 -0.001801004 -0.0030030305 0.0009450175 0.0026262898 -0.0029123016 0.0017036843 6.984424e-05 -0.0011542349 0.0036800285 -0.0015234951 0.002341449 -0.001538067 0.0018330491 0.0020036001 0.0020863786 -0.0004623272 0.0002152717 -0.002271545 0.00043011183 0.0013444154 -0.0030623947 -0.0014313221 0.00028597165 0.0006096111 -0.0010516909 0.0021687183 0.0023691324 0.0018371126 -0.002027523 -0.0017713035 -0.0019185456 -0.0023177702 0.0002911263 -0.0012848508 -0.0033201703 -0.0010466679 -0.000604278 -0.0029765698 0.0005877676 0.0034199506 0.003233382 -0.0019182041 0.0006693132 0.00068300567 -0.00045461403 -0.0032784292 0.0030294312 -0.0035590888 0.0023359722 0.0035190908 -0.0031318397 -0.0036450396 -0.0016943094 -0.000827181 0.0036549403 0.0036648905 -0.00068262493 0.0005937645 0.0008702404 0.0031208345 -0.003409887 -0.0034995563 0.0037541536 -0.0020132456 -0.0037781335 0.0038621882 0.0016293093 0.00031994967 -0.0023777194 0.0032049452 6.444714e-05 0.0021997623 3.4443005e-05 0.0022581008 -0.0007141909 -0.0017582952 0.0027451185 0.0038725757 -0.0035328069 -0.0030884405 0.0011024307 0.003156908 -0.002268075 -0.0033426704 -0.002035901 -0.0030833762 -0.001901861 -0.0020332297 -0.0029051187 -0.00034350748 -0.0009036155 -0.0022674343 -0.0021012675 0.0017979821 -0.0010479754 -0.0011593667 -0.0011382012 -0.0024825735 0.0035757357 -0.0018657304 0.0026297702 0.0034039135 -0.0012062413 0.0005402637 0.0019727538 -0.00066095445 -0.0037892992 -8.933912e-05 -0.00070439203 -0.0023007127 0.00091438927 0.00037528572 -0.00134403 0.002213085
69 -0.0030003786 0.0005650557 0.0022655409 -0.0017095867 -0.002381896 0.0032393073 0.0036310153 -0.0019209941 0.0012514933 0.00029111945 -0.00054790004 2.7667005e-05 -0.0018805421 0.0012249148 0.0038132458 0.0023031333 -0.0038214985 0.00076528575 -0.0035749732 0.00042717796 -0.0003339548 0.0007030338 0.0015432794 -0.0015936934 0.002869909 0.0014762075 -0.00186146 -0.0003926138 -0.003797524 0.003382469 -0.00061281 0.0027469099 0.0036948477 -0.003629058 0.0033827475 0.0010938876 -0.00013230035 0.00071845 0.0024772407 0.0035721574 0.0025403558 0.003714553 0.0032381143 0.0030640883 -0.00081680744 0.0006450643 -0.0013991223 1.4853308e-05 0.0019223336 0.0014845695 -0.0017334702 0.0015320937 0.0038760684 -0.00059527345 -0.003790814 0.0035894827 -0.0001351112 0.0036059967 0.00073719095 -0.0024889074 -0.0025936295 0.0023950394 -0.0027125927 0.0020800978 0.0015494705 0.0028198096 -0.0029846341 0.0017083347 -0.002100125 -0.00046620442 0.003528971 -0.0033934521 -0.0032816068 -0.002719111 -0.00046000202 -0.0033308316 0.0025156247 0.0036485158 -0.0015097345 -0.001511618 0.002089074 5.694361e-05 -0.0031632895 0.00020210822 -0.0024173944 0.002247126 0.0024394835 0.0015670242 -0.0014447763 0.001071162 0.0005369073 0.001969044 0.0020611938 -4.7479484e-06 0.0031844182 -0.001415888 0.00088104507 0.0027699396 -0.0014338824 -0.00011317867 0.0033076222 0.0024943454 -0.0034972646 -0.003258714 0.0008771942 0.0025633015 -0.001315157 -0.0010369659 -0.0034860189 -0.0001809536 0.00032840372 -0.0012063916 -0.002279676 -0.00083928637 -0.0028371164 0.0015907042 -0.00021126831 0.0036343134 0.0016279939 -0.0010199356 0.0007924297 0.002740039 0.0024342258 -0.0028822494 -0.0019079539 -0.0007907541 0.0017150382 0.00092691113
13 -0.0014903698 -8.200617e-05 0.0019826978 0.002455896 0.0010913985 0.0025793593 -0.0027829965 0.0019049601 0.0011948457 0.0033705067 0.0036170385 -0.0032312882 0.0012027114 -0.00158888 -0.002140241 -0.0017752514 -0.001710575 0.00015323219 -0.00075728004 0.0012481591 0.003300215 0.0010721158 0.0029497272 -0.00090996455 0.0017709534 -0.0038548403 0.0018801822 0.00038326136 0.0030974399 -0.00035371867 0.0031905845 -0.0019170349 -0.00024534983 -0.002229052 0.0011891954 0.001778429 0.002075856 0.00188766 -0.0002613055 0.0027767878 -0.001981941 -0.0003555988 0.0031073187 -0.00072425895 0.003155139 0.0033810984 -0.002828845 -0.00089380407 -0.0005440655 0.0011318163 -0.0038736088 0.0013192835 -0.0015703518 -0.0023598913 -0.0013728589 -0.002152197 -0.00040538236 -0.0030985677 -0.00031088578 0.0012333837 -0.00170705 -0.0035543665 -0.003468384 -0.0004365501 -0.0020097801 0.00017180406 -0.002113494 -0.00061985984 -0.0021012735 0.0037048487 -0.0016843091 -0.0015541776 0.0003349194 0.0027157057 0.00042723812 -0.0002840576 0.001329637 -0.0017709928 -0.0018512836 -0.0002923087 -0.002354863 -0.0032486308 -0.0033980794 0.0026964862 0.0002565581 0.003765048 0.0030279495 0.00047268643 -0.0037135798 0.0007693539 -0.0013117255 -0.0030286096 -0.003634636 0.00051626546 -0.000263589 -0.00208822 0.0036254115 -0.0030747242 0.0018885292 -0.0020450486 -0.0037712762 -0.0017985005 -0.0014814687 0.0029912712 0.00374872 -0.0008161831 0.0019258285 0.0034760642 0.0023699107 -0.0025974207 -0.0022685418 0.00187879 -0.0014408969 -0.0036803167 0.00083907676 -0.0008874034 0.003043036 -0.0024576893 -0.0035791532 -0.0019478047 0.0027946932 0.0010261715 -0.0016126579 0.0013197856 -0.002637565 -0.0010617209 0.0024341529 0.0018860525
8 -0.0026771992 -0.0010195553 -0.0017479901 0.00034071176 0.00040374178 -0.0012966117 0.0034838084 -0.0009886461 -0.0027358744 0.0036433646 -0.0002776416 -0.0038145967 0.0014634454 0.0010718011 -0.0027974313 -4.3450735e-05 0.0010710907 0.0022388014 0.0036623632 -0.00334245 -0.003819199 0.0006309226 0.003651481 0.0025430906 0.00060635095 -0.0002896997 0.002089278 -0.0038604639 -0.00041548142 0.0021814029 -0.0035202855 0.002082165 -0.0012711057 0.0038947673 0.001342626 0.0014358929 0.0028722761 0.0020901617 0.00071524654 0.0032997536 0.0006908241 0.003092523 -0.00073801156 0.00043343252 -0.0005303596 0.0014877247 0.0029817428 -0.0011203781 0.0022870721 0.003499012 -0.0024533106 0.0029804716 -0.0011292514 -0.001722135 0.0015516041 -0.0033187165 0.003316708 -0.0027217162 0.00027557547 0.0020336094 0.001937311 0.0014029265 -0.00061885634 -0.0019497632 -0.0038964658 -0.0033312952 -0.0003110908 -0.0014935682 -0.00050542346 0.0011972655 0.0028944183 -0.0030315483 -0.0036313313 -0.001100695 -0.0025386875 0.0029091043 0.0030601684 0.0010215751 0.002153769 -0.0011552694 0.0011592832 0.0017927338 -0.0012508448 0.00063481665 -0.003280751 0.0028375962 0.00068699126 0.0018165753 0.0026366385 -0.0025888802 0.0038566254 0.0033082902 0.003372015 -0.001415064 -0.0008715741 -0.000677515 0.0008569007 0.002635829 0.0013934942 -0.0016983245 -0.0022648305 -0.00039788982 -0.0016284547 -0.0022909802 -0.0036799794 0.0009958873 -0.0009455422 0.0001397727 -0.001120025 0.00081115635 0.0012404438 0.0020335263 -0.0015638544 0.0016479007 0.0024024388 8.7920336e-05 -0.0036241987 -0.0028403047 -0.0015066555 0.0026601998 0.0037674338 -0.0025374598 -0.0007119677 -0.0007879535 -0.0016888739 -0.0025912188 0.0020324383 -0.0016036025
26 -0.0018082011 0.0003518041 -0.0038532428 -0.0030906093 0.00017056003 0.0016055643 0.0020878431 -0.0016256401 -0.0008729494 -0.000900362 -0.0016177362 -0.0018157742 -0.0013466441 0.00031482129 0.0006867984 -0.0012248746 0.0020859104 -0.0008426276 0.00066618825 -0.0008831723 -0.00095914275 0.00118858 -0.0033185387 0.0014635602 -0.002862952 -0.0014742975 0.0015939771 -0.0025155474 -0.0024560622 0.0028997643 0.0031837875 0.00018633093 -0.00019986737 0.0029302703 0.0032871205 -0.0033977695 -0.0023804703 -0.0020466698 -0.0017582511 0.0033037819 0.0017248716 0.0028550685 -0.0021057557 -0.0030633628 0.0008092271 0.0033037686 -0.0022793585 0.0024371084 -0.0037975218 0.0026551362 -0.00038456253 -9.673162e-05 -0.0011818827 -0.0019861155 -0.0011547477 -0.0011678416 0.0038318606 0.0037230253 -0.0027763352 0.0036330118 -0.0016658924 0.0019872007 -0.0019936375 -0.00054146786 0.0014958227 -0.003601448 0.0030025535 -0.002779362 0.0029518662 -0.0020207209 -0.00305562 -0.0015702267 -0.0016568664 0.0018407035 -0.0016841668 0.0023729312 0.0024260308 0.0014015108 0.0034882894 -0.0031562776 -0.0031237595 0.003050403 -0.0016354345 0.0021485495 0.002974093 -0.00039769 -0.0007836593 -0.0028053243 -0.0037201028 0.0010491194 -0.0026580314 -0.0021045518 0.0011983729 -0.00084505684 -0.00020275098 0.0027499725 -0.0025246697 0.002323502 0.0010515585 -0.000807712 -0.00053483126 -0.0019379661 0.0038126179 0.0037703144 -0.0029588318 0.0035846033 0.0036907494 0.00034219745 -0.0017681168 -0.0014941345 0.003195363 0.0030488544 -0.0031016478 -0.002093363 0.0013526793 0.0007686187 0.00089710474 0.0015490975 0.0032965 -0.0018866053 0.0013930923 0.0023891935 0.003173581 0.002811042 -0.0033256458 0.0014544518 -0.0023161622 -0.001286191
35 -0.0019577225 -0.0021775109 0.0011546313 0.0019303246 -0.0001845882 0.00049379276 0.0017220865 0.0027289665 0.0036097867 -0.0032571866 0.0028622516 -0.0011252856 0.0011924021 -0.0031362898 0.00069726177 0.00091794884 0.0036344463 -0.0010571325 0.0021506632 -0.00022623492 0.002790256 -0.0029599664 -0.003243277 -0.0037264233 0.0011505766 5.1126714e-05 0.0006361235 0.0018571051 0.0019558053 0.0013293267 -0.00086190854 0.001591383 0.0018355695 -0.0010526706 0.0013693603 0.0011133278 0.0038639924 0.001087399 0.00036428968 0.0025069844 -0.0024014863 -0.0038159739 0.00096243905 -0.0020375268 -0.0027480205 0.0016570144 0.0025016216 -0.002181508 0.0025978321 -0.0006615352 0.003800247 0.0034461461 -0.00037820992 0.0004038323 0.0010563266 -0.0025465265 0.0015126152 3.879903e-05 -0.0030210214 -0.0029832874 -0.00080038694 0.0015302025 0.0021710696 0.0012631733 0.0008043474 -0.0016653519 -0.000967371 -0.00078174 9.80891e-05 0.0023144127 0.00358006 0.00097126333 -0.0020675636 -0.0025110054 0.0014490506 -0.0003902334 -0.0027018934 0.00040923577 -6.031274e-05 -0.003330834 0.0029494583 0.0019140686 0.0034013717 0.0032485903 0.003354422 0.0005271107 1.3255529e-05 -0.0031085084 0.0015060405 -0.0018904165 0.0030064646 0.0019824682 -0.000112270565 0.0007440929 0.0009909072 -0.003010832 -0.002453711 -0.0029886453 -0.003608085 -0.0018501002 0.001551216 0.0021389734 0.00032661567 -0.0037420557 -0.0008934432 0.0016157742 0.0031921933 -0.0018527136 -0.0015426426 -0.0018608232 -0.003007266 -0.003627346 0.002320541 0.001111855 -0.0026657502 0.0038541972 0.0009237219 0.0004918283 0.0012111955 0.0034699396 -0.0035363869 -0.0021868276 -0.0037761754 0.0024578222 -0.001993234 -0.0021341634 -0.0002493272 -0.0006418625
60 0.0006606766 0.0010713558 0.003784934 0.0031437718 -0.002385832 -0.0016565075 0.0009892954 0.002938938 -0.0019160068 0.0024551228 -0.0014670806 -0.001217875 -0.0018746705 0.001580022 -0.00040740988 -0.00040198024 -0.0014168322 -0.0028214867 -0.00028260966 0.00079489505 0.0012535597 -0.001285441 -0.00339108 -0.0019755287 -0.0027136172 0.0028721092 -0.00020499105 0.0013638348 -0.0005075646 -0.0028469579 0.00036614726 -0.0036998142 0.0034659642 0.00041640122 -0.0003442159 -0.003709963 -0.0016675561 -0.000883899 0.0016118033 0.0037173564 0.0031508107 0.0024518885 5.8633064e-05 0.0027356318 -0.00196865 -0.0015262245 0.0017856123 0.0023910997 -0.0002120443 0.0007465593 -0.0022867932 -0.0035788477 -0.0027093824 -0.0036089926 -0.0038029896 0.0014974535 -0.000369415 -0.0005842166 -0.0031006637 -0.0034680301 0.00074994535 0.0010216929 0.00040042764 -0.003548634 0.0033042002 -0.0023885812 0.00044147688 -0.00030480535 -0.002854162 0.0035384262 0.0012084694 0.0015334293 -0.0038656066 0.0010783945 2.1218766e-06 0.0014533533 0.0013707065 -0.0020452589 -0.0032584576 0.00018051868 -4.682131e-05 0.0007916176 -0.0021910998 -0.0005776607 0.003186806 -0.0022177908 -0.0006470922 -0.0034050243 -0.00093802175 -0.003255201 0.001386227 0.0007793609 0.0029204965 -0.0009207686 -0.00036530572 -1.3331679e-05 -0.0010193848 -0.0027519956 0.002157423 3.9476403e-05 0.0036626384 -0.0031159765 0.00091133686 0.0025251776 -0.0006507371 -0.002605751 0.0015611312 0.00347919 -0.0014958734 -0.003475496 -0.0023880312 -0.0013010964 0.0018510056 0.0036349467 0.0028703038 0.001903951 -0.0037113866 -0.0009764011 0.0002805062 0.0011985656 -0.00085407245 -0.0034383968 -0.00054023496 0.0033457784 0.0014882655 0.0027401203 -0.00031537312 -0.0030474626
91 0.0024198317 -0.0010738559 0.0032773276 0.00085473823 -0.003783917 -0.002300233 0.0010152577 0.0005677512 -0.0011962382 -0.0008498783 0.0009225963 0.0015370585 0.00076800515 0.0030812947 0.003547786 0.0016635497 -0.0034363947 -0.0024372279 -0.0017756195 0.002715728 0.0005505506 -0.002025675 -0.0027635586 -0.0014464557 -0.002749911 5.1535997e-05 -0.0010918991 0.0026609437 0.0031026402 0.0033284728 0.00028521594 -0.0021029646 -0.0007475114 -0.0037195457 0.0019949353 -0.0025658477 0.0013028493 -0.0005056412 -0.0012953078 -0.003481671 0.0034420607 -0.0021511514 0.0010052864 0.0005650005 -0.001208082 0.0020611153 0.0031157967 0.0027260662 -0.0024701124 -0.000636284 0.00018794108 -0.0007590144 -0.001873115 -0.00095885503 -0.00041567042 0.0003386835 0.0035762242 0.0034432476 -0.0011480184 -0.003483976 -0.0007382747 -0.0029093851 -0.0016340798 -0.0031950932 2.4241384e-05 -0.0031964139 0.0011889301 0.0011506615 -0.001918968 0.0033486157 -0.0038365168 -0.0025660498 -0.0014904559 0.0025963548 0.0022943146 0.0018239138 -0.0008871332 0.0030813874 0.0034009044 0.003047706 -0.0021883682 -0.003734376 -0.00076113845 0.0033100513 -0.00039503485 -0.0016225943 -0.0015072 0.0034873716 0.0030853292 0.0030688792 -0.0035887314 -0.0036203777 -0.0011236945 -0.0022609816 0.0013934092 -0.0027836696 0.001215363 0.0012529317 0.0020589675 0.0026370762 -0.0028247167 0.0031328427 0.0028059836 -0.0019842314 0.0027883777 -0.0030145491 0.00026068185 0.001293916 -0.00092055876 0.0018621356 0.0012571196 -0.0026990308 0.0033730469 0.0024600034 0.0026491343 0.0036095933 0.00084293453 -0.0033709598 -0.0020261267 -0.0018380627 0.0017966932 -0.0037967982 -0.0023844074 0.0021735623 0.0007130671 -0.0016420394 -0.00065696443 0.003694263
42 -0.003446318 -0.0037999505 0.00017624006 -0.0004967792 -0.0035666733 -0.0014772615 -0.0019218562 -0.0033015248 -0.0037783652 0.0035571267 0.0013751856 0.0016206838 -0.0027729145 0.00047394997 -0.0028448806 0.0028310018 -0.0017245437 -0.0037566896 -0.00075857644 0.002915106 0.001976968 0.0020852536 7.159633e-05 0.0030026524 -0.00345375 0.0018601117 0.0004592018 -0.0006338168 0.0016355361 0.0003744129 0.0025797153 0.0011776689 0.0010016988 0.0023098204 0.0032422184 0.0006971525 0.0014735106 -0.00039905147 0.0017214443 -0.0020662954 -0.0035861633 -0.0034881055 0.0024650637 -0.0014533149 0.0006821806 -0.0022389074 0.0003120935 -0.001856787 -0.0006965273 0.0027469187 -0.0023299854 -6.164793e-05 0.003415512 -0.0014267629 0.0036518062 -0.0009555737 0.003347901 0.0014962361 0.0033864735 -0.0010861466 0.0006702491 -0.003539314 -0.0025426296 4.741421e-06 -0.0009996989 0.000113907445 -0.0036529494 -0.003886716 0.002908232 0.002689854 -0.0031438256 0.0009428482 -0.0036057609 0.0037484912 0.0024790354 0.000900259 -0.0028784126 -0.0023361451 0.0033771445 -0.003384897 -0.00045127995 0.0013695528 0.001135166 0.0016670381 0.0029335553 -0.0013194267 -0.003016225 -0.0010776086 -0.0032195551 0.0016636138 0.001156235 -0.0030406977 0.0027818107 -0.0009350891 -0.0015785667 4.5372744e-05 0.0025012107 0.0019939668 0.00061848207 0.0015227058 0.0029748792 0.0019047098 -0.00054311834 -0.0010713874 0.0017398467 0.00012139701 0.00024891572 0.003756025 -0.00366476 -0.0006490913 -0.0022673458 0.0025628982 -0.0019959689 0.0013577325 -0.0028265046 -0.0010071574 0.0011832466 -0.0027794542 -0.0014866013 -0.00019681345 0.0016716864 -0.0023889453 -0.0015866358 0.00035099257 0.0018329096 0.00014892523 -0.0028815817 -0.0020617165
29 -0.002842519 -0.00045568173 -0.001795397 0.0030619565 -0.0021885396 -0.0029919222 -0.0031393333 -0.0023821092 0.000824187 0.0017328948 0.0006653065 0.0005805004 -0.0034185757 0.0036348815 0.0034816817 -0.0034834724 0.0037219112 -0.0030788486 -0.0005875297 -0.0011945759 -0.0013357688 -0.0028182175 0.0033201855 0.0025075735 0.0008206716 -0.0019794395 -0.0036239752 3.8791648e-05 -0.0018093047 0.0011019428 0.0025159703 0.0026482376 -0.0003264773 -0.00064188085 0.0021998666 0.0014199725 -0.0026923371 0.0030473887 0.0008820939 0.0027413203 0.0014052843 -0.001834778 0.0030218083 0.002065423 0.0015296801 0.0010748812 0.0020305102 0.0021625417 0.0033764262 -0.0006500413 0.0010517699 -0.0032018402 -0.00028631333 0.0021812906 0.00077674305 0.00279644 -0.0028037059 -0.00135909 -0.002735283 0.0023934073 -0.002835336 -0.0012503205 3.570217e-05 -0.002247274 -0.0013953055 -0.0019460802 0.001200469 0.0026370697 -0.0024911955 -0.0009481185 -0.000844605 -0.0017467679 -0.00045677196 -3.3632045e-05 0.000821432 -0.002585304 -0.0017165066 0.0018940859 -0.00075358414 -0.0028451781 -0.000364704 -0.0019972187 0.0035000565 -0.0035764866 -0.0037603795 0.0017161247 -0.0031028287 -0.0010469223 0.0037979798 0.0014195023 0.00011313079 0.0016016613 -0.0014658562 -0.00084270915 0.0011327362 -8.939582e-05 -0.002878068 -0.0018638668 -0.0039054384 -0.0026687717 0.0021856814 -0.0021114817 0.00042368547 4.0850548e-05 -0.0012732545 -0.0022294347 -0.0025758909 -0.00059101044 -0.0015273392 -0.0015396453 -0.0035590467 0.003053574 0.00053191127 -0.0029333974 0.0013568762 -0.0023665437 0.002453556 -0.0009540765 -0.0011513422 -0.0019739398 0.0008437303 0.0009845559 -0.0024961724 -0.00076044444 0.00034752718 -0.0034221832 0.0024007368 0.0012640386
48 0.0026322177 0.0017253795 -0.0023773634 -0.0026276745 0.0016357023 0.002628007 -0.0016252844 -0.0013779262 -0.0009854108 -0.003522565 0.0022148981 -0.0038277037 0.00092145 -0.0037882046 0.002683768 0.00085396925 0.000737685 0.0020859519 -0.0014614721 0.00031799023 0.0021435576 0.00020142371 -0.0016106833 0.0028452533 0.00039857742 0.0032581221 -0.0004710461 -0.00340049 -0.0029319604 -0.003582981 -0.00024273044 0.0025921562 -0.0018047207 0.0037792574 0.0024048847 -0.003145496 -0.0008619716 -0.0022636976 0.0026201205 0.003064022 0.00092851586 -0.0022521105 -0.0013586445 0.0027224994 -0.0015267069 -0.0024984563 -0.00059387495 0.0031083159 0.0027030192 0.0022689877 0.000660067 0.0009171326 -0.0032972153 -0.0035040956 0.0001258347 0.0023635542 0.0031057529 -0.0009410196 0.00023633747 -0.0004918822 0.0023962606 0.0009250249 -0.0034880997 -0.0014384093 -0.0036740706 -0.0010125181 0.002329201 -0.00051421457 -0.0032906397 -0.0016263555 0.0016783286 -0.0013914437 0.0032245289 0.0026572589 -0.0033938028 -0.0021184955 -0.0038279423 0.00031614857 0.0028934348 0.002321095 -0.003384489 -0.0038845607 0.0027417233 -0.00065628707 0.0038029517 0.0014984801 -0.0015806985 0.0037016182 -0.00082824007 0.00089487206 0.003050334 0.0009765773 -0.0038058565 0.0019030222 0.0017947688 -0.003252898 -0.0001018115 -0.0031701163 0.002363746 -0.00017619727 0.0005628772 0.002831134 0.00068359385 0.0031195048 0.00038782108 -0.0033049907 0.0021671252 0.0019939141 -0.0021269917 0.0013055 -0.00093226007 0.00015112894 0.0018537482 -0.0009733036 -0.0038470528 -0.002846875 0.0003433559 -0.001083495 0.0035626772 -0.0019736157 -0.0020777758 0.0028069518 0.0020351077 -0.0021885103 -0.0021069408 0.0036327064 -0.0035986234 -0.0013240075
86 -0.0016378387 -0.0010591527 -0.0018335426 -0.0025038347 -0.003132337 -0.0012412678 0.0015850328 0.00015467011 -3.977242e-05 0.0021078095 0.0004464454 -0.002040103 -0.0028700135 0.0032906155 0.0015631873 -0.002042002 0.0019471626 0.0032416766 0.0014316131 0.0009211595 -0.0028594814 -0.0028050295 -0.00046329814 -0.0038624315 0.0016554839 -7.507085e-05 -0.0026653868 0.0022069875 -0.0025993795 0.003432191 -0.0011980187 0.003900655 -0.0019331959 -0.0032633552 -0.0035555603 0.0021823929 -0.0030543515 0.0014729734 0.0003358711 -0.0011888003 -0.0015692855 0.002515843 0.00014772035 -0.00053392985 -0.0015866905 0.00060601707 0.0038746675 0.0032181856 0.0032921312 -0.0016745366 0.0020628723 -0.00037382057 -0.0028892658 -0.0014250065 0.00046490607 -0.0032179921 0.0018787 0.002410787 0.002460869 -0.0007278327 0.0019813091 -0.0028850958 -0.0025617338 -0.0014141557 -0.0023836505 -0.0024138018 -0.0030441175 -0.0005257564 0.0034237949 -0.0026837317 -0.0013806353 0.003304163 -0.0022676021 -0.0038880662 -0.0020020376 0.0035286464 0.001930706 0.0023366434 0.00015431768 0.0017058296 -0.0021957846 0.0011418349 0.00073425286 0.0020233688 0.0002489451 -0.0024279656 -0.0023782512 0.0017671485 -0.0004074289 0.0018118422 -0.0031671466 -0.0023286853 0.0010864985 -0.002077367 0.0037517007 3.8814578e-05 0.002258849 0.00024785651 -0.0019922685 0.0027168198 -0.00024161012 -0.0013092418 0.003269221 0.0006200874 -0.002943398 -0.00092938676 0.0006950202 -0.003025003 0.0032471102 -0.0034048336 0.0035292006 -0.0015688031 0.0009683601 -0.0036361516 0.003592284 -0.00023577786 0.001479341 -0.0030370278 0.0014740531 0.00012240528 0.0019366299 0.0028477882 -0.0039061736 -5.8762544e-05 0.00060379907 -0.0029849818 -0.0019236824 -0.00213442
2 -0.0032982407 0.001881502 -0.0023294047 0.0004955019 -0.0010877755 0.001257737 -0.0018949235 -2.6042668e-05 0.0017256953 0.0018410428 -0.00011930095 -0.0030209345 -0.0008894473 0.0035739015 0.0023119866 -0.003437793 -0.0017326346 -0.0026687805 0.002096745 0.00031225078 -0.0018003767 0.00041561096 0.0017156685 0.0032814108 0.0028559784 0.003175528 0.00023752077 0.0014334578 0.0010220072 0.0007476612 0.0016879006 0.002912245 -0.0017692773 0.0031818654 -0.003383771 0.0027576063 -0.000488689 0.00014622297 0.0020681373 0.0013418166 0.0023154193 0.0018956023 -0.0003976598 -0.0017790089 -0.0036524653 -1.1834343e-05 0.0029780609 -0.0038151767 0.002302114 -0.003391659 0.00058964407 -0.0019714418 -0.0009649536 -0.00026285456 0.0014772768 0.0020918052 -0.0020603773 -0.003734244 -0.0017294218 0.0016480619 0.0025737507 0.0011183689 0.0017504094 0.0001826059 -0.0038726751 0.0021560867 0.0023472367 0.001153679 -0.0019243975 -0.0022566435 0.0017346288 0.0020236636 -0.0004896308 0.0014515506 -0.0012285204 0.000688383 -0.0026832295 -0.0023848717 -0.0016813852 -0.003073338 0.0034973468 0.0030204991 -0.00077078614 0.0034415761 -0.0003865217 -0.00092238456 -0.0012122341 -0.0013069848 -0.002302697 -0.0018709436 0.0026500325 -0.00055322703 -0.0018315322 -0.0017212263 0.0024941051 0.0016247763 -0.0028305373 -0.0013292485 -0.0026789755 -0.0022429428 -0.0022868167 0.00056866294 0.0027106449 -0.0011745852 -0.0013738173 -0.0020270126 0.0006449159 0.0013779528 0.003036845 -0.0029485251 0.00015793077 -0.0027902524 0.0025571003 -0.0010311562 -0.0020107126 -0.003795605 0.0032534832 0.002205881 -0.0036166739 0.0036171186 -0.0022651302 0.001671505 -0.0036965816 -0.0027071838 -0.0015026985 0.001809681 -0.0021601229 0.0028345683
59 -0.00078756735 -0.003624782 -0.0023766374 0.0017668583 0.0034457268 0.0017077948 -0.00039081974 -0.0015276194 0.0015994888 -0.003301571 -0.0026557676 -0.00094641297 -0.0034994718 -0.0023356392 -0.0010313665 -0.0035911568 0.0023859288 0.00035299888 0.0021444974 -0.00085044187 -0.0022961514 -0.0033660845 -0.0010407827 0.00060479034 0.0003767902 -0.0032192243 -0.0020726374 -0.0038306906 -0.00030368852 -0.001886224 0.003567632 0.0009395122 -0.0001417083 -0.0034786717 0.00304514 -0.0032439171 0.0029387095 -0.0005517694 -0.003678226 0.0014263599 -0.0021321625 -0.0011548172 -0.0017824974 0.001558585 0.00079142035 -0.0037500632 -0.002381853 0.0032586888 -0.0018096652 0.00030511591 0.0012018285 -0.002160206 0.0016861013 0.00011408593 -0.0036553596 0.0037078336 0.0012880851 -0.001692951 0.00044648827 0.0019378485 7.4552205e-05 0.0033270651 0.00026626064 -2.1660007e-05 -0.0002546283 0.003708982 -0.0039046204 0.0037336273 0.0018235298 -0.00086936395 0.002919464 -0.0034365936 -0.00023267214 -0.0010693853 -0.00092900195 0.0013099834 0.0036551023 0.0030198423 0.00078427687 0.000930254 -0.0007343031 -0.00158103 0.0016432351 -0.002515738 -0.00085257814 -0.0022049518 0.0032426096 0.003070949 0.0027995554 -0.0036789475 -0.00049953535 0.0013778771 0.003234256 0.0012104878 -0.0038379552 -0.003114647 -0.0012066432 -0.0015850543 -0.002518078 0.0033845913 0.00044288547 0.00289609 0.0020674656 -0.0019578512 0.0010402856 0.003524025 0.0029385516 0.0020705753 0.00013319655 -0.001071948 1.3499986e-05 0.0013731702 0.0017131388 -0.001883247 -0.003683448 -0.002114161 0.0006566215 0.002872529 -0.0016498909 -0.0021083201 0.0009302233 0.003541958 0.002936123 0.00036799142 0.0025833135 -0.0013142813 0.0022826155 0.0011419648
